<?xml version="1.0" encoding="UTF-8"?>
<!-- This network was created in GeNIe Academic, which can be used for academic teaching and research purposes only -->
<smile version="1.0" id="Unnamed" numsamples="10000" discsamples="10000">
	<nodes>
		<cpt id="current_speed_setpoint">
			<state id="State0" />
			<state id="State1" />
			<state id="State2" />
			<state id="State3" />
			<state id="State4" />
			<state id="State5" />
			<state id="State6" />
			<state id="State7" />
			<state id="State8" />
			<state id="State9" />
			<probabilities>0.1 0.09959999999999999 0.1003 0.096 0.1062 0.1027 0.1016 0.101 0.0961 0.0965</probabilities>
		</cpt>
		<cpt id="friction">
			<state id="State0" />
			<state id="State1" />
			<state id="State2" />
			<state id="State3" />
			<state id="State4" />
			<state id="State5" />
			<state id="State6" />
			<state id="State7" />
			<state id="State8" />
			<state id="State9" />
			<probabilities>0.1738302178830813 0.2264555304202881 0.2276461483509942 0.1878795094654125 0.1035837599714252 0.05274437433027741 0.02035956661507322 0.005834027860459579 0.001190617930706036 0.0004762471722824146</probabilities>
		</cpt>
		<cpt id="other_causes">
			<state id="State0" />
			<state id="State1" />
			<state id="State2" />
			<state id="State3" />
			<state id="State4" />
			<state id="State5" />
			<state id="State6" />
			<state id="State7" />
			<state id="State8" />
			<state id="State9" />
			<probabilities>0.2545747033983511 0.2411019505328775 0.1860044238890006 0.137140559018701 0.08626583551176352 0.04886386487029962 0.02754876332193847 0.01105972250150814 0.00542931831892218 0.002010858636637844</probabilities>
		</cpt>
		<cpt id="acceleration_limit">
			<state id="State0" />
			<state id="State1" />
			<state id="State2" />
			<state id="State3" />
			<state id="State4" />
			<state id="State5" />
			<state id="State6" />
			<state id="State7" />
			<state id="State8" />
			<state id="State9" />
			<probabilities>0.0946 0.1035 0.0999 0.0983 0.1029 0.0948 0.1032 0.1004 0.0993 0.1031</probabilities>
		</cpt>
		<cpt id="current_change_in_joystick_input">
			<state id="State0" />
			<state id="State1" />
			<state id="State2" />
			<state id="State3" />
			<state id="State4" />
			<state id="State5" />
			<state id="State6" />
			<state id="State7" />
			<state id="State8" />
			<state id="State9" />
			<probabilities>0.0946 0.1035 0.0999 0.0983 0.1029 0.0948 0.1032 0.1004 0.0993 0.1031</probabilities>
		</cpt>
		<cpt id="turbulence">
			<state id="State0" />
			<state id="State1" />
			<state id="State2" />
			<state id="State3" />
			<state id="State4" />
			<state id="State5" />
			<state id="State6" />
			<state id="State7" />
			<state id="State8" />
			<state id="State9" />
			<probabilities>0.2580907795644209 0.2397720333808264 0.1848157948300427 0.1298595562792591 0.09179727254223488 0.04844290657439446 0.02930999389375127 0.01282312232851618 0.003867290860981071 0.00122124974557297</probabilities>
		</cpt>
		<cpt id="current_drag">
			<state id="State0" />
			<state id="State1" />
			<state id="State2" />
			<state id="State3" />
			<state id="State4" />
			<state id="State5" />
			<state id="State6" />
			<state id="State7" />
			<state id="State8" />
			<state id="State9" />
			<parents>friction current_speed_setpoint</parents>
			<probabilities>1 0 0 0 0 0 0 0 0 0 1 0 0 0 0 0 0 0 0 0 1 0 0 0 0 0 0 0 0 0 1 0 0 0 0 0 0 0 0 0 1 0 0 0 0 0 0 0 0 0 1 0 0 0 0 0 0 0 0 0 1 0 0 0 0 0 0 0 0 0 1 0 0 0 0 0 0 0 0 0 1 0 0 0 0 0 0 0 0 0 1 0 0 0 0 0 0 0 0 0 1 0 0 0 0 0 0 0 0 0 1 0 0 0 0 0 0 0 0 0 1 0 0 0 0 0 0 0 0 0 1 0 0 0 0 0 0 0 0 0 1 0 0 0 0 0 0 0 0 0 0.8219 0.1781 0 0 0 0 0 0 0 0 0.539 0.461 0 0 0 0 0 0 0 0 0.3352 0.6647999999999999 0 0 0 0 0 0 0 0 0.1789 0.8211000000000001 0 0 0 0 0 0 0 0 0.052 0.948 0 0 0 0 0 0 0 0 1 0 0 0 0 0 0 0 0 0 1 0 0 0 0 0 0 0 0 0 1 0 0 0 0 0 0 0 0 0 0.826 0.174 0 0 0 0 0 0 0 0 0.2305 0.7695 0 0 0 0 0 0 0 0 0 1 0 0 0 0 0 0 0 0 0 0.9764 0.0236 0 0 0 0 0 0 0 0 0.6734 0.3266 0 0 0 0 0 0 0 0 0.3561 0.6439 0 0 0 0 0 0 0 0 0.1079 0.8921 0 0 0 0 0 0 0 1 0 0 0 0 0 0 0 0 0 1 0 0 0 0 0 0 0 0 0 0.8255 0.1745 0 0 0 0 0 0 0 0 0.0474 0.9526 0 0 0 0 0 0 0 0 0 1 0 0 0 0 0 0 0 0 0 0.6569 0.3431 0 0 0 0 0 0 0 0 0.1041 0.8959 0 0 0 0 0 0 0 0 0 0.9383 0.0617 0 0 0 0 0 0 0 0 0.5336 0.4664 0 0 0 0 0 0 0 0 0.1642 0.8358 0 0 0 0 0 0 1 0 0 0 0 0 0 0 0 0 1 0 0 0 0 0 0 0 0 0 0.2372 0.7628 0 0 0 0 0 0 0 0 0 1 0 0 0 0 0 0 0 0 0 0.4647 0.5353 0 0 0 0 0 0 0 0 0 1 0 0 0 0 0 0 0 0 0 0.6229 0.3771 0 0 0 0 0 0 0 0 0.06850000000000001 0.9315 0 0 0 0 0 0 0 0 0 0.7174 0.2826 0 0 0 0 0 0 0 0 0.2175 0.7825 0 0 0 0 0 1 0 0 0 0 0 0 0 0 0 0.8222 0.1778 0 0 0 0 0 0 0 0 0 1 0 0 0 0 0 0 0 0 0 0.6462 0.3538 0 0 0 0 0 0 0 0 0 1 0 0 0 0 0 0 0 0 0 0.4647 0.5353 0 0 0 0 0 0 0 0 0 0.9499 0.0501 0 0 0 0 0 0 0 0 0.3368 0.6632 0 0 0 0 0 0 0 0 0 0.8514 0.1486 0 0 0 0 0 0 0 0 0.266 0.734 0 0 0 0 1 0 0 0 0 0 0 0 0 0 0.535 0.465 0 0 0 0 0 0 0 0 0 0.9732 0.0268 0 0 0 0 0 0 0 0 0.1109 0.8891 0 0 0 0 0 0 0 0 0 0.628 0.372 0 0 0 0 0 0 0 0 0 0.9503 0.0497 0 0 0 0 0 0 0 0 0.2126 0.7874 0 0 0 0 0 0 0 0 0 0.6687 0.3313 0 0 0 0 0 0 0 0 0.0398 0.8882 0.07199999999999999 0 0 0 0 0 0 0 0 0.3214 0.6786 0 0 0 1 0 0 0 0 0 0 0 0 0 0.3337 0.6663 0 0 0 0 0 0 0 0 0 0.6708 0.3292 0 0 0 0 0 0 0 0 0 0.9361 0.0639 0 0 0 0 0 0 0 0 0.06809999999999999 0.9319 0 0 0 0 0 0 0 0 0 0.3456 0.6544 0 0 0 0 0 0 0 0 0 0.6671 0.3329 0 0 0 0 0 0 0 0 0.0092 0.8629 0.1279 0 0 0 0 0 0 0 0 0.1384 0.8329 0.0287 0 0 0 0 0 0 0 0 0.3754 0.6246 0 0 1 0 0 0 0 0 0 0 0 0 0.1771 0.8229 0 0 0 0 0 0 0 0 0 0.3519 0.6481 0 0 0 0 0 0 0 0 0 0.5433 0.4567 0 0 0 0 0 0 0 0 0 0.7141 0.2859 0 0 0 0 0 0 0 0 0 0.852 0.148 0 0 0 0 0 0 0 0 0.0394 0.8865 0.0741 0 0 0 0 0 0 0 0 0.1451 0.8289 0.026 0 0 0 0 0 0 0 0 0.268 0.7255 0.0065 0 0 0 0 0 0 0 0 0.4274 0.5726 0 1 0 0 0 0 0 0 0 0 0 0.0534 0.9466 0 0 0 0 0 0 0 0 0 0.1092 0.8908 0 0 0 0 0 0 0 0 0 0.1652 0.8348 0 0 0 0 0 0 0 0 0 0.2141 0.7859 0 0 0 0 0 0 0 0 0 0.2728 0.7272 0 0 0 0 0 0 0 0 0 0.3265 0.6735 0 0 0 0 0 0 0 0 0 0.3761 0.6239 0 0 0 0 0 0 0 0 0 0.4237 0.5763 0 0 0 0 0 0 0 0 0 0.4788 0.5212</probabilities>
		</cpt>
		<cpt id="current_acceleration_limit">
			<state id="State0" />
			<state id="State1" />
			<state id="State2" />
			<state id="State3" />
			<state id="State4" />
			<state id="State5" />
			<state id="State6" />
			<state id="State7" />
			<state id="State8" />
			<state id="State9" />
			<probabilities>0.0946 0.1035 0.0999 0.0983 0.1029 0.0948 0.1032 0.1004 0.0993 0.1031</probabilities>
		</cpt>
		<cpt id="joystick_motor_use">
			<state id="State0" />
			<state id="State1" />
			<state id="State2" />
			<state id="State3" />
			<state id="State4" />
			<state id="State5" />
			<state id="State6" />
			<state id="State7" />
			<state id="State8" />
			<state id="State9" />
			<parents>current_acceleration_limit current_change_in_joystick_input</parents>
			<probabilities>1 0 0 0 0 0 0 0 0 0 1 0 0 0 0 0 0 0 0 0 1 0 0 0 0 0 0 0 0 0 1 0 0 0 0 0 0 0 0 0 1 0 0 0 0 0 0 0 0 0 1 0 0 0 0 0 0 0 0 0 1 0 0 0 0 0 0 0 0 0 1 0 0 0 0 0 0 0 0 0 1 0 0 0 0 0 0 0 0 0 1 0 0 0 0 0 0 0 0 0 1 0 0 0 0 0 0 0 0 0 1 0 0 0 0 0 0 0 0 0 1 0 0 0 0 0 0 0 0 0 1 0 0 0 0 0 0 0 0 0 1 0 0 0 0 0 0 0 0 0 0.8208 0.1792 0 0 0 0 0 0 0 0 0.5313 0.4687 0 0 0 0 0 0 0 0 0.3384 0.6616 0 0 0 0 0 0 0 0 0.1806 0.8194 0 0 0 0 0 0 0 0 0.0548 0.9452 0 0 0 0 0 0 0 0 1 0 0 0 0 0 0 0 0 0 1 0 0 0 0 0 0 0 0 0 1 0 0 0 0 0 0 0 0 0 0.8169 0.1831 0 0 0 0 0 0 0 0 0.2258 0.7742 0 0 0 0 0 0 0 0 0 1 0 0 0 0 0 0 0 0 0 0.9749 0.0251 0 0 0 0 0 0 0 0 0.6793 0.3207 0 0 0 0 0 0 0 0 0.3539 0.6461 0 0 0 0 0 0 0 0 0.107 0.893 0 0 0 0 0 0 0 1 0 0 0 0 0 0 0 0 0 1 0 0 0 0 0 0 0 0 0 0.8242 0.1758 0 0 0 0 0 0 0 0 0.0508 0.9492 0 0 0 0 0 0 0 0 0 1 0 0 0 0 0 0 0 0 0 0.6449 0.3551 0 0 0 0 0 0 0 0 0.1043 0.8957000000000001 0 0 0 0 0 0 0 0 0 0.9303 0.0697 0 0 0 0 0 0 0 0 0.5224 0.4776 0 0 0 0 0 0 0 0 0.1574 0.8426 0 0 0 0 0 0 1 0 0 0 0 0 0 0 0 0 1 0 0 0 0 0 0 0 0 0 0.2391 0.7609 0 0 0 0 0 0 0 0 0 1 0 0 0 0 0 0 0 0 0 0.4631 0.5369 0 0 0 0 0 0 0 0 0 1 0 0 0 0 0 0 0 0 0 0.6179 0.3821 0 0 0 0 0 0 0 0 0.0689 0.9311 0 0 0 0 0 0 0 0 0 0.7069 0.2931 0 0 0 0 0 0 0 0 0.2176 0.7824 0 0 0 0 0 1 0 0 0 0 0 0 0 0 0 0.8277 0.1723 0 0 0 0 0 0 0 0 0 1 0 0 0 0 0 0 0 0 0 0.655 0.345 0 0 0 0 0 0 0 0 0 1 0 0 0 0 0 0 0 0 0 0.4695 0.5305 0 0 0 0 0 0 0 0 0 0.9482 0.0518 0 0 0 0 0 0 0 0 0.3406 0.6594 0 0 0 0 0 0 0 0 0 0.8431999999999999 0.1568 0 0 0 0 0 0 0 0 0.2634 0.7366 0 0 0 0 1 0 0 0 0 0 0 0 0 0 0.5379 0.4621 0 0 0 0 0 0 0 0 0 0.9752 0.0248 0 0 0 0 0 0 0 0 0.1042 0.8958 0 0 0 0 0 0 0 0 0 0.6304 0.3696 0 0 0 0 0 0 0 0 0 0.9532 0.0468 0 0 0 0 0 0 0 0 0.2175 0.7825 0 0 0 0 0 0 0 0 0 0.6683 0.3317 0 0 0 0 0 0 0 0 0.037 0.8915999999999999 0.07140000000000001 0 0 0 0 0 0 0 0 0.3241 0.6758999999999999 0 0 0 1 0 0 0 0 0 0 0 0 0 0.3359 0.6641 0 0 0 0 0 0 0 0 0 0.6699000000000001 0.3301 0 0 0 0 0 0 0 0 0 0.9396 0.0604 0 0 0 0 0 0 0 0 0.0703 0.9297 0 0 0 0 0 0 0 0 0 0.3426 0.6574 0 0 0 0 0 0 0 0 0 0.665 0.335 0 0 0 0 0 0 0 0 0.009599999999999999 0.8602 0.1302 0 0 0 0 0 0 0 0 0.1437 0.828 0.0283 0 0 0 0 0 0 0 0 0.378 0.622 0 0 1 0 0 0 0 0 0 0 0 0 0.1764 0.8236 0 0 0 0 0 0 0 0 0 0.3542 0.6458 0 0 0 0 0 0 0 0 0 0.5337 0.4663 0 0 0 0 0 0 0 0 0 0.7081 0.2919 0 0 0 0 0 0 0 0 0 0.849 0.151 0 0 0 0 0 0 0 0 0.0426 0.8827 0.0747 0 0 0 0 0 0 0 0 0.14 0.8294 0.0306 0 0 0 0 0 0 0 0 0.269 0.7244 0.0066 0 0 0 0 0 0 0 0 0.4341 0.5659 0 1 0 0 0 0 0 0 0 0 0 0.0533 0.9467 0 0 0 0 0 0 0 0 0 0.1021 0.8979 0 0 0 0 0 0 0 0 0 0.1661 0.8339 0 0 0 0 0 0 0 0 0 0.2139 0.7861 0 0 0 0 0 0 0 0 0 0.2662 0.7338 0 0 0 0 0 0 0 0 0 0.3139 0.6861 0 0 0 0 0 0 0 0 0 0.3769 0.6231 0 0 0 0 0 0 0 0 0 0.4183 0.5817 0 0 0 0 0 0 0 0 0 0.4857 0.5143</probabilities>
		</cpt>
		<cpt id="measured_motoruse">
			<state id="State0" />
			<state id="State1" />
			<state id="State2" />
			<state id="State3" />
			<state id="State4" />
			<state id="State5" />
			<state id="State6" />
			<state id="State7" />
			<state id="State8" />
			<state id="State9" />
			<parents>current_drag other_causes joystick_motor_use</parents>
			<probabilities>0.4486 0.3335 0.1737 0.0404 0.0036 0.0002 0 0 0 0 0.343434343434343 0.357335733573357 0.225122512251225 0.0656065606560656 0.008500850085008499 0 0 0 0 0 0.2464 0.3529 0.2793 0.1014 0.0186 0.0014 0 0 0 0 0.1675 0.3083 0.3271 0.159 0.0348 0.0031 0.0002 0 0 0 0.106910691069107 0.25972597259726 0.355935593559356 0.213521352135214 0.0562056205620562 0.0072007200720072 0.0005000500050005001 0 0 0 0.0629 0.2077 0.3493 0.2742 0.0911 0.014 0.0008 0 0 0 0.0358035803580358 0.156215621562156 0.332433243324332 0.307730773077308 0.138113811381138 0.0279027902790279 0.0018001800180018 0 0 0 0.0189 0.1061 0.2722 0.3531 0.1982 0.0463 0.0047 0.0005 0 0 0.007900000000000001 0.0619 0.2328 0.3499 0.2573 0.0774 0.012 0.0008 0 0 0.0056 0.0395 0.1694 0.3397 0.2966 0.1257 0.0225 0.0008 0.0002 0 0.141614161416142 0.302730273027303 0.333633363336334 0.177817781778178 0.0402040204020402 0.004000400040004 0 0 0 0 0.091 0.2525 0.3526 0.2308 0.0644 0.0083 0.0004 0 0 0 0.05000500050005 0.198119811981198 0.349034903490349 0.276027602760276 0.106710671067107 0.0188018801880188 0.0013001300130013 0 0 0 0.0281 0.1349 0.3182 0.3311 0.1534 0.0307 0.0033 0.0003 0 0 0.0139 0.0944 0.2655 0.3478 0.2113 0.0613 0.0055 0.0003 0 0 0.008 0.0565 0.2107 0.3605 0.2609 0.0888 0.0136 0.001 0 0 0.0033 0.0316 0.1493 0.3288 0.3124 0.1457 0.0261 0.0028 0 0 0.0018 0.0173 0.1041 0.2816 0.3607 0.1854 0.0432 0.0057 0.0002 0 0.0004 0.0086 0.06809999999999999 0.2326 0.3582 0.2485 0.07190000000000001 0.0107 0.001 0 0 0.004000400040004 0.0417041704170417 0.172817281728173 0.343034303430343 0.292529252925293 0.124212421242124 0.02000200020002 0.0017001700170017 0 0.0245 0.1188 0.3008 0.3433 0.1692 0.0387 0.0045 0.0002 0 0 0.0119 0.07820000000000001 0.2464 0.3579 0.2254 0.0701 0.0094 0.0007 0 0 0.0059 0.0414 0.1931 0.348 0.2888 0.1023 0.0192 0.001 0.0003 0 0.0032 0.0313 0.1403 0.3158 0.3222 0.1515 0.0324 0.0033 0 0 0.001 0.013 0.0885 0.2628 0.3585 0.2086 0.06 0.0074 0.0002 0 0.0003 0.0073 0.0546 0.2056 0.3515 0.2685 0.09810000000000001 0.0131 0.001 0 0 0.0026002600260026 0.0324032403240324 0.158715871587159 0.331633163316332 0.312131213121312 0.132313231323132 0.0281028102810281 0.0021002100210021 0 0 0.0012001200120012 0.0178017801780178 0.110511051105111 0.284928492849285 0.341634163416342 0.188318831883188 0.0511051105110511 0.0045004500450045 0 0 0.0004 0.008500000000000001 0.0682 0.2237 0.3598 0.2435 0.08500000000000001 0.0102 0.0007 0 0 0.0038 0.0389 0.1696 0.3422 0.2993 0.1225 0.0222 0.0015 0.002 0.0224 0.1239 0.3021 0.3359 0.1686 0.04 0.0048 0.0003 0 0.0008 0.0115 0.0771 0.248 0.3575 0.2316 0.0649 0.008399999999999999 0.0002 0 0.0002 0.005 0.0471 0.1904 0.3447 0.2828 0.11 0.0185 0.0013 0 0 0.0022002200220022 0.0276027602760276 0.137113711371137 0.312231223122312 0.333533353335334 0.153715371537154 0.0313031303130313 0.0023002300230023 0 0.0001 0.0008 0.015 0.08649999999999999 0.2702 0.354 0.2053 0.0611 0.0065 0.0005 0 0.0002 0.0052 0.0573 0.2089 0.36 0.2694 0.0857 0.0117 0.0016 0 0.0004 0.003 0.031 0.1583 0.3333 0.3106 0.1365 0.0245 0.0024 0 0 0.0009 0.0179 0.1117 0.2838 0.3425 0.189 0.0488 0.0054 0 0 0.0005 0.01 0.0725 0.2312 0.3558 0.2406 0.07779999999999999 0.0116 0 0 0.0005 0.004 0.0373 0.1676 0.3419 0.2984 0.1254 0.0249 0 0.0014 0.0233 0.1193 0.2997 0.3427 0.1707 0.0383 0.0043 0.0003 0 0.0004 0.0107 0.0813 0.2441 0.3543 0.2301 0.0702 0.0086 0.0003 0 0.0004 0.0057 0.0494 0.1917 0.3397 0.2828 0.1106 0.0183 0.0014 0 0 0.0033003300330033 0.0271027102710271 0.135713571357136 0.312331233123312 0.333133313331333 0.151015101510151 0.0341034103410341 0.0033003300330033 0 0 0.0007 0.0163 0.0896 0.2581 0.3595 0.2114 0.0576 0.0068 0 0 0.0003 0.0065 0.0574 0.217 0.3378 0.2707 0.0963 0.014 0 0 0 0.0023 0.035 0.1634 0.3232 0.3084 0.1378 0.0299 0 0 0 0.0007 0.0162 0.1058 0.2807 0.3497 0.1945 0.0524 0 0 0 0.0005 0.0081 0.0641 0.2237 0.3661 0.2477 0.0898 0 0 0 0.0004 0.0046 0.0388 0.1704 0.3389 0.3036 0.1433 0 0 0.002 0.0231 0.1235 0.3017 0.3346 0.1727 0.0378 0.0046 0 0 0.0005000500050005001 0.009900990099009899 0.0741074107410741 0.248724872487249 0.356035603560356 0.234923492349235 0.0664066406640664 0.009400940094009399 0 0 0.0003 0.0035 0.0496 0.1777 0.361 0.284 0.1035 0.0204 0 0 0 0.0021002100210021 0.0272027202720272 0.131113111311131 0.316231623162316 0.332833283328333 0.156415641564156 0.0341034103410341 0 0 0 0.0014001400140014 0.0124012401240124 0.0906090609060906 0.260926092609261 0.351335133513351 0.213421342134213 0.0699069906990699 0 0 0 0.0002 0.0062 0.0528 0.2109 0.3588 0.264 0.1071 0 0 0 0 0.0034003400340034 0.0325032503250325 0.158315831583158 0.324732473247325 0.320832083208321 0.16021602160216 0 0 0 0 0.0013001300130013 0.0171017101710171 0.108510851085109 0.287328732873287 0.341534153415342 0.244224422442244 0 0 0 0 0.0011 0.008800000000000001 0.0688 0.2271 0.3549 0.3393 0 0 0 0 0.0003 0.0046 0.0359 0.1678 0.3469 0.4445 0 0 0 0.002 0.0211 0.1231 0.3057 0.3293 0.1762 0.0426 0 0 0 0.0008 0.0114 0.0769 0.2544 0.3487 0.2275 0.0803 0 0 0 0.0002 0.0043 0.0491 0.1942 0.3494 0.2761 0.1267 0 0 0 0 0.0026002600260026 0.0295029502950295 0.141214121412141 0.313231323132313 0.326632663266327 0.186818681868187 0 0 0 0 0.0009 0.0147 0.08890000000000001 0.2702 0.3514 0.2739 0 0 0 0 0.0003 0.0059 0.0553 0.218 0.3433 0.3772 0 0 0 0 0 0.0028002800280028 0.0331033103310331 0.158915891589159 0.323632363236324 0.481548154815482 0 0 0 0 0 0.0015001500150015 0.0196019601960196 0.106910691069107 0.287528752875288 0.584458445844585 0 0 0 0 0 0.0003 0.008800000000000001 0.0679 0.228 0.695 0 0 0 0 0 0.0003 0.005 0.0402 0.17 0.7845 0 0 0 0 0.0014 0.0197 0.1194 0.2985 0.3383 0.2227 0 0 0 0 0.0011 0.008399999999999999 0.081 0.2492 0.3532 0.3071 0 0 0 0 0.0002 0.0042 0.0465 0.1975 0.351 0.4006 0 0 0 0 0 0.0013001300130013 0.0254025402540254 0.135713571357136 0.318531853185318 0.519051905190519 0 0 0 0 0 0.0008 0.0129 0.093 0.2719 0.6214 0 0 0 0 0 0.0004 0.0061 0.0543 0.2025 0.7367 0 0 0 0 0 0 0.0027 0.0301 0.1654 0.8018 0 0 0 0 0 0 0.0021002100210021 0.0188018801880188 0.10971097109711 0.869386938693869 0 0 0 0 0 0 0.0003 0.008500000000000001 0.0684 0.9228 0 0 0 0 0 0 0 0.0042004200420042 0.0458045804580458 0.94999499949995 0 0 0 0 0 0.0014 0.0237 0.1161 0.3098 0.549 0 0 0 0 0 0.0005999999999999999 0.0127 0.0803 0.2476 0.6588000000000001 0 0 0 0 0 0.0003 0.0038 0.0476 0.1882 0.7601 0 0 0 0 0 0 0.0027002700270027 0.0276027602760276 0.137313731373137 0.832383238323832 0 0 0 0 0 0 0.001 0.0167 0.0926 0.8897 0 0 0 0 0 0 0 0.0063006300630063 0.0553055305530553 0.9383938393839381 0 0 0 0 0 0 0 0.0024002400240024 0.03000300030003 0.967596759675968 0 0 0 0 0 0 0 0.0009 0.016 0.9831 0 0 0 0 0 0 0 0.0008 0.0086 0.9906 0 0 0 0 0 0 0 0 0.0036 0.9964 0 0 0 0 0 0.0002 0.0019 0.0235 0.12 0.8544 0 0 0 0 0 0 0.001 0.013 0.0741 0.9119 0 0 0 0 0 0 0.0002 0.0067 0.0464 0.9467 0 0 0 0 0 0 0 0.0024002400240024 0.0274027402740274 0.97019701970197 0 0 0 0 0 0 0 0.0004 0.0131 0.9865 0 0 0 0 0 0 0 0 0.0059005900590059 0.994099409940994 0 0 0 0 0 0 0 0.0002 0.0028 0.997 0 0 0 0 0 0 0 0 0.001 0.999 0 0 0 0 0 0 0 0 0.0005 0.9995000000000001 0 0 0 0 0 0 0 0 0.0002 0.9998 0.1461 0.2946 0.3454 0.1698 0.0402 0.0039 0 0 0 0 0.09251850370074011 0.245149029805961 0.355771154230846 0.231746349269854 0.0665133026605321 0.00830166033206641 0 0 0 0 0.0593 0.1845 0.3515 0.2845 0.1032 0.0156 0.0014 0 0 0 0.0277027702770277 0.135013501350135 0.317831783178318 0.323532353235324 0.161216121612161 0.0315031503150315 0.0032003200320032 0 0 0 0.0167 0.095 0.2711 0.354 0.2022 0.0533 0.007 0.0007 0 0 0.0059 0.0605 0.2102 0.3485 0.2674 0.0902 0.0161 0.0012 0 0 0.0023 0.0337 0.154 0.3292 0.315 0.1379 0.0256 0.0021 0.0002 0 0.0014 0.0191 0.1105 0.2812 0.3437 0.1872 0.0494 0.0072 0.0002 0.0001 0.0005999999999999999 0.0081 0.06610000000000001 0.2285 0.3523 0.2507 0.0796 0.0127 0.0014 0 0.0003 0.0047 0.0382 0.1751 0.3361 0.3026 0.1174 0.0234 0.0022 0 0.0226 0.1208 0.2989 0.3402 0.1718 0.042 0.0035 0.0002 0 0 0.0135013501350135 0.0829082908290829 0.253825382538254 0.344034403440344 0.227922792279228 0.0689068906890689 0.008900890089008901 0 0 0 0.0057 0.0469 0.1896 0.3473 0.2873 0.1036 0.0177 0.0019 0 0 0.0024 0.028 0.1388 0.3141 0.3329 0.151 0.0301 0.0027 0 0 0.0018 0.0119 0.0871 0.2686 0.3575 0.2069 0.0566 0.009599999999999999 0 0 0.0007 0.0056 0.0577 0.2083 0.3483 0.2654 0.09669999999999999 0.016 0.0013 0 0.0003 0.003 0.0337 0.1521 0.329 0.3192 0.1337 0.0271 0.0018 0.0001 0.0001 0.0013 0.0193 0.1045 0.2842 0.3503 0.1885 0.0463 0.0053 0.0002 0 0.0002 0.0081 0.06469999999999999 0.2286 0.3624 0.246 0.0774 0.0122 0.0004 0 0.0002 0.0041 0.0375 0.1767 0.326 0.3059 0.1263 0.0216 0.0017 0.0027 0.0223 0.1142 0.3003 0.3363 0.1783 0.0418 0.0037 0.0004 0 0.0011 0.0114 0.0766 0.2503 0.351 0.2319 0.0689 0.0081 0.0007 0 0.0005 0.0047 0.045 0.1899 0.3499 0.2895 0.1011 0.0187 0.0007 0 0.0001 0.002 0.03 0.1376 0.3158 0.3257 0.1543 0.0311 0.0032 0.0002 0 0.0003 0.0147 0.0931 0.2667 0.3527 0.2124 0.0541 0.0056 0.0004 0 0.0003 0.007 0.0541 0.2144 0.353 0.2664 0.09 0.0136 0.0012 0 0.0002 0.002 0.0352 0.1564 0.3286 0.3131 0.1352 0.027 0.0023 0 0 0.0012 0.018 0.1033 0.2824 0.3504 0.1913 0.0487 0.0047 0 0 0.0005 0.008699999999999999 0.0679 0.2288 0.3508 0.2511 0.07920000000000001 0.013 0 0 0.0003 0.0039 0.0415 0.1731 0.3313 0.3089 0.1183 0.0227 0 0.0017 0.0209 0.1173 0.3022 0.3337 0.1808 0.0393 0.0039 0.0002 0 0.0003 0.0126 0.0785 0.2451 0.3522 0.2341 0.0673 0.0092 0.0007 0 0.0004 0.004 0.0465 0.1925 0.347 0.2841 0.108 0.0162 0.0013 0 0.0003 0.0023 0.0268 0.139 0.3135 0.3352 0.1497 0.0302 0.003 0 0 0.0014 0.0151 0.0912 0.2585 0.3504 0.2199 0.0562 0.0073 0 0 0 0.007 0.0576 0.2054 0.3534 0.2684 0.0917 0.0165 0 0 0.0002 0.0023 0.0336 0.1598 0.324 0.3065 0.1441 0.0295 0 0 0 0.0012001200120012 0.0198019801980198 0.106810681068107 0.276227622762276 0.345234523452345 0.196119611961196 0.0546054605460546 0 0 0 0.0005999999999999999 0.0074 0.0694 0.2307 0.3545 0.2443 0.0931 0 0 0 0.0002 0.0049 0.0423 0.1685 0.342 0.2973 0.1448 0 0 0.0015 0.0205 0.1171 0.3003 0.3355 0.1764 0.0435 0.0052 0 0 0.0005999999999999999 0.0105 0.07820000000000001 0.2468 0.3587 0.2294 0.06610000000000001 0.0097 0 0 0.0002 0.0061 0.0494 0.1892 0.3514 0.276 0.1082 0.0195 0 0 0 0.0021 0.026 0.1458 0.3191 0.3229 0.1507 0.0334 0 0 0 0.0018 0.0137 0.0921 0.2683 0.3492 0.2117 0.06320000000000001 0 0 0 0.0004 0.0068 0.0596 0.2112 0.3407 0.2677 0.1136 0 0 0 0 0.0038003800380038 0.034003400340034 0.158615861586159 0.322432243224322 0.313931393139314 0.167216721672167 0 0 0 0 0.0011001100110011 0.0178017801780178 0.107510751075108 0.283728372837284 0.344634463446345 0.245224522452245 0 0 0 0 0.0003 0.008699999999999999 0.06370000000000001 0.2286 0.3488 0.3499 0 0 0 0 0 0.004 0.0392 0.1743 0.3453 0.4372 0 0 0 0.002 0.0238 0.1155 0.2981 0.3416 0.1732 0.0458 0 0 0 0.0009 0.0121 0.0767 0.2502 0.3456 0.2376 0.0769 0 0 0 0 0.0048004800480048 0.0517051705170517 0.193419341934193 0.342334233423342 0.286128612861286 0.121612161216122 0 0 0 0 0.0017001700170017 0.0255025502550255 0.140714071407141 0.318231823182318 0.330833083308331 0.183018301830183 0 0 0 0 0.0005000500050005001 0.0132013201320132 0.09010901090109009 0.268926892689269 0.355535553555356 0.271727172717272 0 0 0 0 0 0.0067006700670067 0.0526052605260526 0.210721072107211 0.351935193519352 0.378037803780378 0 0 0 0 0 0.0033003300330033 0.034003400340034 0.151115111511151 0.336733673367337 0.474847484748475 0 0 0 0 0 0.0016 0.0186 0.1035 0.2829 0.5934 0 0 0 0 0 0.0002000200020002 0.0082008200820082 0.069006900690069 0.230623062306231 0.6919691969196921 0 0 0 0 0 0 0.0028002800280028 0.0421042104210421 0.168116811681168 0.786978697869787 0 0 0 0 0.0012 0.0218 0.1183 0.301 0.3433 0.2144 0 0 0 0 0.001 0.009299999999999999 0.0838 0.2549 0.347 0.304 0 0 0 0 0.0002 0.0053 0.0466 0.1937 0.348 0.4062 0 0 0 0 0 0.0022002200220022 0.0264026402640264 0.13981398139814 0.313131313131313 0.518451845184519 0 0 0 0 0 0.0009000900090009001 0.0153015301530153 0.0941094109410941 0.269026902690269 0.620662066206621 0 0 0 0 0 0.0005 0.0066 0.0596 0.2085 0.7248 0 0 0 0 0 0.0002 0.0028 0.0334 0.1511 0.8125 0 0 0 0 0 0 0.0005999999999999999 0.017 0.1105 0.8719 0 0 0 0 0 0 0.0007000700070007001 0.0102010201020102 0.0634063406340634 0.925692569256926 0 0 0 0 0 0 0.0002 0.003 0.0373 0.9595 0 0 0 0 0.0003 0.0016 0.022 0.1197 0.2985 0.5579 0 0 0 0 0 0.0008000800080008 0.0114011401140114 0.07910791079107909 0.242624262426243 0.666066606660666 0 0 0 0 0 0 0.0052 0.0447 0.1881 0.762 0 0 0 0 0 0 0.0024 0.0258 0.136 0.8358 0 0 0 0 0 0 0.0008 0.0135 0.0895 0.8962 0 0 0 0 0 0 0.0002 0.0064 0.0596 0.9338 0 0 0 0 0 0 0 0.0029 0.032 0.9651 0 0 0 0 0 0 0 0.0015001500150015 0.0183018301830183 0.98019801980198 0 0 0 0 0 0 0 0.0004 0.0081 0.9915 0 0 0 0 0 0 0 0.0002 0.0043 0.9955000000000001 0 0 0 0 0 0 0.0016 0.0206 0.125 0.8528 0 0 0 0 0 0 0.0009 0.0106 0.0789 0.9096 0 0 0 0 0 0 0.0002 0.0056 0.0475 0.9467 0 0 0 0 0 0 0 0.0023002300230023 0.0255025502550255 0.972197219721972 0 0 0 0 0 0 0 0.0008000800080008 0.012001200120012 0.987198719871987 0 0 0 0 0 0 0 0.0002 0.006 0.9938 0 0 0 0 0 0 0 0 0.0043 0.9957 0 0 0 0 0 0 0 0 0.001000100010001 0.9989998999899991 0 0 0 0 0 0 0 0 0.0002000200020002 0.999799979998 0 0 0 0 0 0 0 0 0.0002 0.9998 0 0 0 0 0 0 0 0.0017 0.0217 0.9766 0 0 0 0 0 0 0 0.0005999999999999999 0.0126 0.9868 0 0 0 0 0 0 0 0.0002 0.0055 0.9943 0 0 0 0 0 0 0 0 0.002 0.998 0 0 0 0 0 0 0 0 0.0007 0.9993 0 0 0 0 0 0 0 0 0.0004 0.9996 0 0 0 0 0 0 0 0 0 1 0 0 0 0 0 0 0 0 0 1 0 0 0 0 0 0 0 0 0 1 0 0 0 0 0 0 0 0 0 1 0.0236 0.1247 0.3054 0.3346 0.1724 0.0358 0.0035 0 0 0 0.0129 0.07580000000000001 0.2539 0.3536 0.2271 0.06619999999999999 0.01 0.0005 0 0 0.0046004600460046 0.0488048804880488 0.187918791879188 0.350635063506351 0.282828282828283 0.105010501050105 0.0191019101910191 0.0011001100110011 0 0 0.0024 0.0236 0.1425 0.3167 0.3268 0.1545 0.0309 0.0026 0 0 0.0005 0.0146 0.09320000000000001 0.2644 0.346 0.2157 0.0585 0.0066 0.0005 0 0.0009 0.0052 0.0612 0.1972 0.3581 0.2714 0.0895 0.0157 0.0008 0 0 0.0021 0.0335 0.1577 0.3224 0.3131 0.1398 0.0286 0.0028 0 0 0.0019 0.0186 0.1071 0.2899 0.336 0.1928 0.0479 0.0052 0.0005999999999999999 0 0.0005999999999999999 0.007900000000000001 0.0683 0.2292 0.3555 0.2518 0.0765 0.009299999999999999 0.0009 0 0.0002 0.0037 0.0362 0.1731 0.3319 0.3065 0.1241 0.022 0.0023 0.0017001700170017 0.0209020902090209 0.121612161216122 0.295229522952295 0.348534853485349 0.16981698169817 0.038003800380038 0.0042004200420042 0 0 0.0011 0.0105 0.0801 0.2505 0.3515 0.2302 0.068 0.0078 0.0003 0 0.0003 0.0044 0.0484 0.1957 0.3427 0.2839 0.1061 0.0168 0.0017 0 0.0001 0.0024 0.0277 0.1357 0.315 0.3308 0.1524 0.0329 0.0027 0.0003 0 0.0013001300130013 0.0141014101410141 0.0921092109210921 0.25982598259826 0.357635763576358 0.21022102210221 0.0584058405840584 0.0064006400640064 0 0 0 0.0053005300530053 0.0554055405540554 0.212221222122212 0.348534853485348 0.266426642664266 0.0963096309630963 0.0143014301430143 0.0015001500150015 0 0.0002 0.0031 0.0338 0.1559 0.3255 0.3195 0.1356 0.0241 0.0023 0 0 0.0009 0.0173 0.1091 0.283 0.3478 0.1916 0.044 0.0063 0 0 0.0005999999999999999 0.008 0.0669 0.2276 0.3429 0.2598 0.0818 0.0124 0 0 0 0.004000400040004 0.0397039703970397 0.171117111711171 0.336233623362336 0.296429642964296 0.12971297129713 0.0228022802280228 0.0002 0.0018 0.022 0.1206 0.3014 0.3381 0.1678 0.0434 0.0044 0.0003 0 0.0005 0.0118 0.0772 0.2458 0.3635 0.2269 0.0654 0.008399999999999999 0.0005 0 0 0.0053005300530053 0.0454045404540454 0.189018901890189 0.348534853485348 0.287528752875287 0.104610461046105 0.0189018901890189 0.0007000700070007001 0 0 0.0021002100210021 0.0254025402540254 0.138413841384138 0.32033203320332 0.319431943194319 0.156315631563156 0.034003400340034 0.004000400040004 0 0 0.0005 0.0107 0.089 0.2708 0.3512 0.2154 0.0554 0.007 0 0 0.0003000300030003 0.0065006500650065 0.0558055805580558 0.207820782078208 0.358735873587359 0.268926892689269 0.08630863086308629 0.0156015601560156 0 0 0.0002 0.0022 0.0342 0.1574 0.3236 0.318 0.1344 0.03 0 0 0 0.0017 0.0178 0.1061 0.2832 0.3443 0.1977 0.0492 0 0 0 0.0003 0.0091 0.0687 0.2326 0.3537 0.248 0.0876 0 0 0 0 0.0035 0.0386 0.1765 0.3373 0.3054 0.1387 0 0 0.0018 0.023 0.1245 0.2922 0.3428 0.1709 0.0406 0.0042 0 0 0.0011 0.01 0.0776 0.2443 0.3615 0.2339 0.0629 0.008699999999999999 0 0 0 0.0056005600560056 0.0494049404940494 0.194219421942194 0.343034303430343 0.287528752875287 0.101510151015102 0.0187018701870187 0 0 0 0.0021 0.0255 0.1458 0.3123 0.3219 0.1528 0.0396 0 0 0.0002 0.0008 0.0129 0.09760000000000001 0.2624 0.349 0.2122 0.0649 0 0 0 0.0004 0.0067 0.05 0.206 0.3616 0.2754 0.0999 0 0 0 0 0.002000200020002 0.0332033203320332 0.15021502150215 0.336133613361336 0.307730773077308 0.170717071707171 0 0 0 0 0.0017001700170017 0.0173017301730173 0.105510551055106 0.288828882888289 0.344634463446345 0.242024202420242 0 0 0 0 0.0005000500050005001 0.009000900090008999 0.0649064906490649 0.233923392339234 0.349134913491349 0.342534253425343 0 0 0 0 0 0.004000400040004 0.0414041404140414 0.181518151815182 0.334433443344334 0.438643864386439 0 0 0 0.0014 0.024 0.1211 0.3015 0.3333 0.1747 0.044 0 0 0 0.0005999999999999999 0.0121 0.0804 0.2514 0.3501 0.2311 0.0743 0 0 0 0.0002 0.0046 0.0498 0.197 0.3411 0.2875 0.1198 0 0 0 0 0.0022 0.0259 0.1359 0.3142 0.3351 0.1867 0 0 0 0 0.001 0.0153 0.0944 0.2626 0.3534 0.2733 0 0 0 0 0.0003 0.0062 0.0563 0.2038 0.363 0.3704 0 0 0 0 0.0002 0.0024 0.0329 0.1593 0.3269 0.4783 0 0 0 0 0 0.0008 0.0178 0.1016 0.2884 0.5914 0 0 0 0 0 0.0003 0.008 0.0697 0.2342 0.6878 0 0 0 0 0 0.0005 0.004 0.0395 0.1796 0.7764 0 0 0 0 0.0017 0.0222 0.1195 0.2976 0.345 0.214 0 0 0 0 0.0004 0.0103 0.0795 0.248 0.3523 0.3095 0 0 0 0 0.0004 0.0048 0.0465 0.1948 0.3421 0.4114 0 0 0 0 0 0.002000200020002 0.0312031203120312 0.131413141314131 0.311031103110311 0.524352435243524 0 0 0 0 0 0.0007 0.0155 0.0954 0.2658 0.6226 0 0 0 0 0 0.0003 0.0062 0.056 0.2091 0.7284 0 0 0 0 0 0.0003 0.0031 0.0336 0.1549 0.8081 0 0 0 0 0 0 0.0008 0.0173 0.1024 0.8794999999999999 0 0 0 0 0 0 0.0008 0.0106 0.0709 0.9177 0 0 0 0 0 0 0 0.0048004800480048 0.0409040904090409 0.954295429542954 0 0 0 0 0 0.0016 0.0239 0.116 0.2995 0.5590000000000001 0 0 0 0 0 0.0008000800080008 0.01000100010001 0.0771077107710771 0.243924392439244 0.668166816681668 0 0 0 0 0 0.0002 0.006 0.0481 0.1859 0.7598 0 0 0 0 0 0 0.0029002900290029 0.0249024902490249 0.131013101310131 0.841184118411841 0 0 0 0 0 0 0.0008 0.0136 0.09379999999999999 0.8918 0 0 0 0 0 0 0.0004000400040004 0.0062006200620062 0.0579057905790579 0.935493549354936 0 0 0 0 0 0 0 0.0028002800280028 0.0308030803080308 0.9663966396639661 0 0 0 0 0 0 0 0.0015 0.0158 0.9827 0 0 0 0 0 0 0 0.0007000700070007001 0.0076007600760076 0.991699169916992 0 0 0 0 0 0 0 0.0002 0.0039 0.9959 0 0 0 0 0 0 0.002000200020002 0.0232023202320232 0.126612661266127 0.848184818481848 0 0 0 0 0 0 0.0005 0.009299999999999999 0.0761 0.9141 0 0 0 0 0 0 0.0005 0.0048 0.0448 0.9499 0 0 0 0 0 0 0.0002 0.002 0.0273 0.9705 0 0 0 0 0 0 0 0.0013 0.0129 0.9858 0 0 0 0 0 0 0 0.0003 0.0069 0.9928 0 0 0 0 0 0 0 0 0.0029002900290029 0.997099709970997 0 0 0 0 0 0 0 0 0.0014 0.9986 0 0 0 0 0 0 0 0 0.0007 0.9993 0 0 0 0 0 0 0 0 0 1 0 0 0 0 0 0 0 0.0017 0.0205 0.9778 0 0 0 0 0 0 0 0.0004000400040004 0.0122012201220122 0.987398739873987 0 0 0 0 0 0 0 0 0.0057 0.9943 0 0 0 0 0 0 0 0 0.002 0.998 0 0 0 0 0 0 0 0 0.0011 0.9989 0 0 0 0 0 0 0 0 0.0002000200020002 0.999799979998 0 0 0 0 0 0 0 0 0.0003 0.9997 0 0 0 0 0 0 0 0 0 1 0 0 0 0 0 0 0 0 0 1 0 0 0 0 0 0 0 0 0 1 0 0 0 0 0 0 0 0 0.0007 0.9993 0 0 0 0 0 0 0 0 0.0005999999999999999 0.9994 0 0 0 0 0 0 0 0 0.0005999999999999999 0.9994 0 0 0 0 0 0 0 0 0.0002 0.9998 0 0 0 0 0 0 0 0 0.0002 0.9998 0 0 0 0 0 0 0 0 0 1 0 0 0 0 0 0 0 0 0 1 0 0 0 0 0 0 0 0 0 1 0 0 0 0 0 0 0 0 0 1 0 0 0 0 0 0 0 0 0 1 0.0017001700170017 0.0234023402340234 0.127412741274127 0.3002300230023 0.332333233323332 0.17031703170317 0.0412041204120412 0.0034003400340034 0 0 0.0008 0.0111 0.078 0.2507 0.353 0.2261 0.0706 0.0094 0.0003 0 0.0002 0.005 0.0452 0.1895 0.3416 0.293 0.1061 0.0178 0.0016 0 0 0.0023 0.028 0.1401 0.3067 0.3326 0.1525 0.0341 0.0035 0.0002 0.0001 0.0011 0.0123 0.09180000000000001 0.2647 0.3524 0.2127 0.0567 0.0081 0.0001 0 0.0002 0.0074 0.0543 0.2094 0.3431 0.2761 0.09520000000000001 0.0136 0.0007 0 0.0002 0.0027 0.0348 0.1589 0.3225 0.3119 0.1365 0.0301 0.0024 0 0 0.001 0.019 0.1018 0.2897 0.3426 0.1937 0.046 0.0062 0 0 0.001 0.008999999999999999 0.06610000000000001 0.2268 0.3514 0.2516 0.08019999999999999 0.0139 0 0 0.0003 0.0035 0.0401 0.1714 0.342 0.3026 0.1179 0.0222 0 0.0018 0.0204 0.1246 0.3014 0.3295 0.1781 0.0398 0.0044 0 0.0001 0.0008 0.0108 0.0764 0.2437 0.3597 0.2291 0.0692 0.009900000000000001 0.0003 0 0.0002 0.0061 0.0491 0.1939 0.347 0.2816 0.1028 0.0182 0.0011 0 0 0.0029002900290029 0.0271027102710271 0.136113611361136 0.319431943194319 0.325932593259326 0.153615361536154 0.0326032603260326 0.0023002300230023 0 0 0.0014 0.0121 0.0921 0.2642 0.3537 0.2091 0.0593 0.0081 0 0 0 0.0073 0.0552 0.2103 0.3536 0.2672 0.0917 0.0147 0 0 0 0.0031003100310031 0.0357035703570357 0.154415441544154 0.325232523252325 0.314531453145315 0.138113811381138 0.0289028902890289 0 0 0 0.0012001200120012 0.0181018101810181 0.109410941094109 0.292029202920292 0.335433543354335 0.18951895189519 0.0543054305430543 0 0 0 0.0005 0.008500000000000001 0.0704 0.2386 0.3476 0.2409 0.0935 0 0 0 0 0.0043 0.0364 0.1717 0.3393 0.304 0.1443 0 0 0.0016 0.0234 0.1171 0.3033 0.3434 0.1703 0.0372 0.0037 0 0 0.0007 0.0128 0.07539999999999999 0.2543 0.3555 0.2262 0.0664 0.008699999999999999 0 0 0.0004 0.0069 0.0463 0.1916 0.3481 0.2808 0.1061 0.0198 0 0 0 0.0027 0.0291 0.1399 0.318 0.3215 0.1532 0.0356 0 0 0 0.0008000800080008 0.0114011401140114 0.0919091909190919 0.26962696269627 0.351835183518352 0.207420742074207 0.067006700670067 0 0 0 0 0.0077007700770077 0.0558055805580558 0.205520552055206 0.356635663566357 0.265326532653265 0.109010901090109 0 0 0 0 0.0026 0.0351 0.1532 0.3323 0.3118 0.165 0 0 0 0 0.0013 0.016 0.1074 0.2877 0.3455 0.2421 0 0 0 0 0.0002 0.008699999999999999 0.06909999999999999 0.2279 0.3523 0.3418 0 0 0 0 0.0002 0.0035 0.0421 0.1831 0.3273 0.4438 0 0 0 0.0014 0.0223 0.1219 0.3006 0.3316 0.1751 0.0471 0 0 0 0.0007 0.0122 0.0798 0.2415 0.3571 0.2342 0.0745 0 0 0 0.0002 0.0066 0.0467 0.1954 0.3436 0.2819 0.1256 0 0 0 0 0.0022002200220022 0.0274027402740274 0.133913391339134 0.318631863186319 0.331533153315332 0.186318631863186 0 0 0 0 0.001000100010001 0.014001400140014 0.0851085108510851 0.261526152615261 0.362436243624362 0.275927592759276 0 0 0 0 0.0008 0.0067 0.0569 0.206 0.352 0.3776 0 0 0 0 0 0.00380076015203041 0.0327065413082617 0.150230046009202 0.325965193038608 0.487297459491898 0 0 0 0 0 0.0013 0.0188 0.1111 0.2903 0.5785 0 0 0 0 0 0.0005 0.0092 0.065 0.2299 0.6954 0 0 0 0 0 0.0003 0.0045 0.0378 0.1693 0.7881 0 0 0 0 0.002 0.0218 0.12 0.2949 0.336 0.2253 0 0 0 0 0.0005 0.0117 0.08309999999999999 0.2501 0.3492 0.3054 0 0 0 0 0.0003 0.0064 0.0474 0.1885 0.3443 0.4131 0 0 0 0 0 0.0028002800280028 0.0289028902890289 0.138113811381138 0.31033103310331 0.5198519851985201 0 0 0 0 0 0.0007 0.0138 0.1 0.2709 0.6146 0 0 0 0 0 0.0002 0.0073 0.0626 0.2097 0.7202 0 0 0 0 0 0.0002 0.0023 0.0308 0.1542 0.8125 0 0 0 0 0 0 0.0014 0.0179 0.1089 0.8718 0 0 0 0 0 0 0.0007 0.0081 0.06560000000000001 0.9256 0 0 0 0 0 0 0 0.004 0.0368 0.9592000000000001 0 0 0 0 0 0.0019001900190019 0.0235023502350235 0.119211921192119 0.294029402940294 0.561356135613561 0 0 0 0 0 0.0004 0.0116 0.0823 0.2529 0.6528 0 0 0 0 0 0.0002 0.0034 0.045 0.198 0.7534 0 0 0 0 0 0 0.002 0.0277 0.1268 0.8435 0 0 0 0 0 0 0.0009 0.0152 0.0858 0.8981 0 0 0 0 0 0 0.0005 0.0067 0.0554 0.9374 0 0 0 0 0 0 0 0.0025002500250025 0.0341034103410341 0.963396339633963 0 0 0 0 0 0 0 0.0007000700070007001 0.0168016801680168 0.982498249824983 0 0 0 0 0 0 0 0.0004 0.0094 0.9902 0 0 0 0 0 0 0 0 0.0046004600460046 0.995399539953995 0 0 0 0 0 0 0.0016 0.0226 0.1244 0.8514 0 0 0 0 0 0 0.0005000500050005001 0.009300930093009301 0.0802080208020802 0.90999099909991 0 0 0 0 0 0 0.0002 0.0054 0.0446 0.9498 0 0 0 0 0 0 0.0002 0.0032 0.0291 0.9675 0 0 0 0 0 0 0 0.0009 0.0146 0.9845 0 0 0 0 0 0 0 0.0005999999999999999 0.0083 0.9911 0 0 0 0 0 0 0 0 0.0028002800280028 0.997199719971997 0 0 0 0 0 0 0 0 0.0015 0.9985000000000001 0 0 0 0 0 0 0 0 0.0004 0.9996 0 0 0 0 0 0 0 0 0 1 0 0 0 0 0 0 0 0.0013 0.0196 0.9791 0 0 0 0 0 0 0 0.0007 0.0131 0.9862 0 0 0 0 0 0 0 0.0005 0.0054 0.9941 0 0 0 0 0 0 0 0.0002 0.0023 0.9975000000000001 0 0 0 0 0 0 0 0 0.0009 0.9991 0 0 0 0 0 0 0 0 0.0004 0.9996 0 0 0 0 0 0 0 0 0 1 0 0 0 0 0 0 0 0 0 1 0 0 0 0 0 0 0 0 0 1 0 0 0 0 0 0 0 0 0 1 0 0 0 0 0 0 0 0 0.0017001700170017 0.998299829982998 0 0 0 0 0 0 0 0 0.0004 0.9996 0 0 0 0 0 0 0 0 0.0003 0.9997 0 0 0 0 0 0 0 0 0 1 0 0 0 0 0 0 0 0 0 1 0 0 0 0 0 0 0 0 0 1 0 0 0 0 0 0 0 0 0 1 0 0 0 0 0 0 0 0 0 1 0 0 0 0 0 0 0 0 0 1 0 0 0 0 0 0 0 0 0 1 0 0 0 0 0 0 0 0 0 1 0 0 0 0 0 0 0 0 0 1 0 0 0 0 0 0 0 0 0 1 0 0 0 0 0 0 0 0 0 1 0 0 0 0 0 0 0 0 0 1 0 0 0 0 0 0 0 0 0 1 0 0 0 0 0 0 0 0 0 1 0 0 0 0 0 0 0 0 0 1 0 0 0 0 0 0 0 0 0 1 0 0 0 0 0 0 0 0 0 1 0 0.0013 0.024 0.118 0.2955 0.3464 0.1701 0.0412 0.0033 0.0002 0 0.0009 0.0116 0.0814 0.2441 0.3522 0.2359 0.0643 0.008999999999999999 0.0005999999999999999 0 0.0002 0.0048 0.0484 0.1928 0.3456 0.29 0.1022 0.0155 0.0005 0 0 0.0023002300230023 0.0276027602760276 0.142914291429143 0.315831583158316 0.321132113211321 0.155115511551155 0.0325032503250325 0.0026002600260026 0 0 0.0005 0.0122 0.0901 0.2714 0.3516 0.2153 0.051 0.007900000000000001 0 0 0.0005 0.0078 0.0583 0.2079 0.3459 0.2719 0.092 0.0157 0 0 0 0.0025002500250025 0.0341034103410341 0.149114911491149 0.327532753275328 0.318831883188319 0.137913791379138 0.03000300030003 0 0 0 0.0005999999999999999 0.0188 0.1115 0.2773 0.349 0.1899 0.0529 0 0 0 0.0005 0.0075 0.0646 0.2293 0.362 0.2483 0.0878 0 0 0 0.0003 0.0047 0.0405 0.1706 0.3361 0.3056 0.1422 0 0 0.0013 0.0204 0.1254 0.2945 0.3387 0.1744 0.0405 0.0048 0 0 0.0004 0.0116 0.0735 0.2562 0.3481 0.2284 0.0703 0.0115 0 0 0 0.0051005100510051 0.044004400440044 0.195619561956196 0.342734273427343 0.286928692869287 0.105310531053105 0.0203020302030203 0 0 0 0.0015001500150015 0.0246024602460246 0.136113611361136 0.318631863186319 0.328932893289329 0.152115211521152 0.0381038103810381 0 0 0 0.0003 0.0128 0.0954 0.2621 0.3586 0.2102 0.0606 0 0 0 0.0007000700070007001 0.0061006100610061 0.0512051205120512 0.209120912091209 0.355935593559356 0.26962696269627 0.107310731073107 0 0 0 0 0.0028002800280028 0.0343034303430343 0.156615661566157 0.31953195319532 0.314431443144314 0.172317231723172 0 0 0 0 0.0017001700170017 0.0161016101610161 0.105210521052105 0.292129212921292 0.339133913391339 0.245724572457246 0 0 0 0 0.0009 0.0075 0.0682 0.2297 0.3567 0.337 0 0 0 0 0.0002 0.0039 0.0397 0.1727 0.3361 0.4474 0 0 0 0.0019 0.0208 0.1276 0.3025 0.3307 0.1734 0.0431 0 0 0 0.0005 0.0107 0.08019999999999999 0.2453 0.3599 0.2287 0.0747 0 0 0 0.0002 0.0052 0.0471 0.1871 0.3501 0.285 0.1253 0 0 0 0 0.0022002200220022 0.03000300030003 0.133613361336134 0.310931093109311 0.332933293329333 0.19031903190319 0 0 0 0 0.001 0.0147 0.09080000000000001 0.2625 0.3535 0.2775 0 0 0 0 0.0004 0.0065 0.0586 0.2119 0.3432 0.3794 0 0 0 0 0 0.003 0.0294 0.1523 0.3285 0.4868 0 0 0 0 0.0002 0.0014 0.0181 0.1081 0.2852 0.587 0 0 0 0 0 0.0003 0.0098 0.0672 0.2299 0.6928 0 0 0 0 0 0.0002 0.003 0.0384 0.1718 0.7866 0 0 0 0 0.0015001500150015 0.022002200220022 0.12021202120212 0.293329332933293 0.342534253425343 0.22042204220422 0 0 0 0 0.0011 0.0111 0.0766 0.2629 0.351 0.2973 0 0 0 0 0.0002 0.0062 0.0493 0.1875 0.3528 0.404 0 0 0 0 0 0.0022 0.0269 0.1359 0.3174 0.5175999999999999 0 0 0 0 0 0.0012 0.0145 0.09379999999999999 0.2579 0.6326000000000001 0 0 0 0 0 0.0004 0.0064 0.0552 0.2157 0.7223000000000001 0 0 0 0 0 0 0.0027 0.0327 0.1486 0.8159999999999999 0 0 0 0 0 0 0.0012 0.0161 0.1034 0.8793 0 0 0 0 0 0 0.0005 0.008200000000000001 0.0692 0.9221 0 0 0 0 0 0 0.0002 0.0051 0.0391 0.9556 0 0 0 0 0 0.0019 0.022 0.1198 0.305 0.5513 0 0 0 0 0 0.0004 0.012 0.0786 0.2462 0.6627999999999999 0 0 0 0 0 0 0.0034 0.0523 0.1979 0.7464 0 0 0 0 0 0 0.0022002200220022 0.0228022802280228 0.144914491449145 0.83008300830083 0 0 0 0 0 0 0.0009 0.0126 0.09180000000000001 0.8947000000000001 0 0 0 0 0 0 0.0003 0.0063 0.0537 0.9397 0 0 0 0 0 0 0 0.0039 0.0306 0.9655 0 0 0 0 0 0 0 0.0014 0.0179 0.9807 0 0 0 0 0 0 0 0.0007 0.008999999999999999 0.9903 0 0 0 0 0 0 0 0.0002 0.0045 0.9953 0 0 0 0 0 0 0.0014001400140014 0.0226022602260226 0.121612161216122 0.854385438543854 0 0 0 0 0 0 0.0012001200120012 0.009900990099009899 0.08220822082208221 0.906690669066907 0 0 0 0 0 0 0.0003 0.0052 0.05 0.9445 0 0 0 0 0 0 0 0.0017001700170017 0.026002600260026 0.9722972297229719 0 0 0 0 0 0 0 0.0011 0.0161 0.9828 0 0 0 0 0 0 0 0 0.0071007100710071 0.992899289928993 0 0 0 0 0 0 0 0 0.0029002900290029 0.997099709970997 0 0 0 0 0 0 0 0 0.0011001100110011 0.998899889988999 0 0 0 0 0 0 0 0 0.0008 0.9992 0 0 0 0 0 0 0 0 0.0002 0.9998 0 0 0 0 0 0 0 0.0011 0.0235 0.9754 0 0 0 0 0 0 0 0.0006000600060006 0.0103010301030103 0.989098909890989 0 0 0 0 0 0 0 0 0.0057005700570057 0.994299429942994 0 0 0 0 0 0 0 0.0002 0.0022 0.9976 0 0 0 0 0 0 0 0 0.0013001300130013 0.998699869986999 0 0 0 0 0 0 0 0 0.0005999999999999999 0.9994 0 0 0 0 0 0 0 0 0.0003 0.9997 0 0 0 0 0 0 0 0 0 1 0 0 0 0 0 0 0 0 0 1 0 0 0 0 0 0 0 0 0 1 0 0 0 0 0 0 0 0 0.0017 0.9983 0 0 0 0 0 0 0 0 0.0008 0.9992 0 0 0 0 0 0 0 0 0.0004 0.9996 0 0 0 0 0 0 0 0 0 1 0 0 0 0 0 0 0 0 0 1 0 0 0 0 0 0 0 0 0 1 0 0 0 0 0 0 0 0 0 1 0 0 0 0 0 0 0 0 0 1 0 0 0 0 0 0 0 0 0 1 0 0 0 0 0 0 0 0 0 1 0 0 0 0 0 0 0 0 0 1 0 0 0 0 0 0 0 0 0 1 0 0 0 0 0 0 0 0 0 1 0 0 0 0 0 0 0 0 0 1 0 0 0 0 0 0 0 0 0 1 0 0 0 0 0 0 0 0 0 1 0 0 0 0 0 0 0 0 0 1 0 0 0 0 0 0 0 0 0 1 0 0 0 0 0 0 0 0 0 1 0 0 0 0 0 0 0 0 0 1 0 0 0 0 0 0 0 0 0 1 0 0 0 0 0 0 0 0 0 1 0 0 0 0 0 0 0 0 0 1 0 0 0 0 0 0 0 0 0 1 0 0 0 0 0 0 0 0 0 1 0 0 0 0 0 0 0 0 0 1 0 0 0 0 0 0 0 0 0 1 0 0 0 0 0 0 0 0 0 1 0 0 0 0 0 0 0 0 0 1 0 0 0 0 0 0 0 0 0 1 0 0 0.0026 0.0225 0.1161 0.2981 0.337 0.1798 0.0396 0.0043 0 0 0.0011 0.0105 0.0767 0.2506 0.3518 0.2307 0.0694 0.0092 0 0 0.0002 0.006 0.0454 0.195 0.3448 0.2865 0.1041 0.018 0 0 0 0.0027 0.0263 0.1401 0.3225 0.323 0.1491 0.0363 0 0 0 0.0009 0.0155 0.08989999999999999 0.2625 0.3564 0.2101 0.06469999999999999 0 0 0 0.0002 0.0049 0.0579 0.2053 0.3574 0.2731 0.1012 0 0 0 0 0.0032 0.0312 0.1577 0.3266 0.3174 0.1639 0 0 0 0 0.0008 0.0152 0.1059 0.2915 0.3427 0.2439 0 0 0 0 0.0003 0.0077 0.0667 0.228 0.3624 0.3349 0 0 0 0 0 0.0031 0.0374 0.1701 0.3394 0.45 0 0 0 0.0011 0.0218 0.1187 0.307 0.3346 0.177 0.0398 0 0 0 0.0005 0.0107 0.0806 0.2484 0.3569 0.2263 0.0766 0 0 0 0.0005 0.0063 0.0463 0.187 0.3454 0.2904 0.1241 0 0 0 0 0.0023002300230023 0.0281028102810281 0.138213821382138 0.315431543154316 0.327732773277328 0.188218821882188 0 0 0 0 0.0015 0.009900000000000001 0.0847 0.2705 0.3555 0.2779 0 0 0 0 0.0005 0.0065 0.0588 0.2104 0.3524 0.3714 0 0 0 0 0 0.0023 0.0321 0.1553 0.3324 0.4779 0 0 0 0 0 0.0009 0.0161 0.1038 0.2847 0.5945 0 0 0 0 0 0.0005 0.0076 0.0677 0.2323 0.6919 0 0 0 0 0 0 0.0054 0.04 0.1698 0.7848000000000001 0 0 0 0 0.0023002300230023 0.0205020502050205 0.12001200120012 0.305030503050305 0.33993399339934 0.212221222122212 0 0 0 0 0.001 0.0101 0.08160000000000001 0.2509 0.352 0.3044 0 0 0 0 0 0.0053005300530053 0.0476047604760476 0.194719471947195 0.341734173417342 0.410641064106411 0 0 0 0 0 0.003000300030003 0.0248024802480248 0.134713471347135 0.313931393139314 0.523552355235524 0 0 0 0 0 0.0009000900090009001 0.0142014201420142 0.09350935093509349 0.261326132613261 0.6300630063006299 0 0 0 0 0 0.0005999999999999999 0.0054 0.0584 0.213 0.7226 0 0 0 0 0 0 0.0022 0.03 0.1525 0.8153 0 0 0 0 0 0 0.0015001500150015 0.0183018301830183 0.108410841084108 0.871787178717872 0 0 0 0 0 0 0.0004 0.008200000000000001 0.0689 0.9225 0 0 0 0 0 0 0.0002 0.0035 0.0424 0.9539 0 0 0 0 0 0.0008 0.0201 0.1288 0.2973 0.553 0 0 0 0 0 0.0004 0.0121 0.08359999999999999 0.2489 0.655 0 0 0 0 0 0.0005 0.0058 0.0477 0.1895 0.7565 0 0 0 0 0 0 0.0025 0.0222 0.1388 0.8365 0 0 0 0 0 0 0.0007 0.0133 0.0914 0.8946 0 0 0 0 0 0 0 0.008500850085008499 0.0558055805580558 0.935693569356936 0 0 0 0 0 0 0 0.002000200020002 0.0306030603060306 0.967396739673967 0 0 0 0 0 0 0 0.0018 0.0167 0.9815 0 0 0 0 0 0 0 0.0004 0.0097 0.9899 0 0 0 0 0 0 0 0 0.004000400040004 0.995999599959996 0 0 0 0 0 0 0.0012 0.0234 0.119 0.8564000000000001 0 0 0 0 0 0 0.0005999999999999999 0.0107 0.0825 0.9062 0 0 0 0 0 0 0 0.0043004300430043 0.0449044904490449 0.9507950795079509 0 0 0 0 0 0 0 0.0028002800280028 0.0288028802880288 0.9683968396839679 0 0 0 0 0 0 0 0.0007 0.013 0.9863 0 0 0 0 0 0 0 0.0005 0.008699999999999999 0.9908 0 0 0 0 0 0 0 0 0.0026 0.9974 0 0 0 0 0 0 0 0 0.0007000700070007001 0.999299929992999 0 0 0 0 0 0 0 0 0.0004000400040004 0.999599959996 0 0 0 0 0 0 0 0 0 1 0 0 0 0 0 0 0 0.0012 0.0236 0.9752 0 0 0 0 0 0 0 0.0011 0.0116 0.9873 0 0 0 0 0 0 0 0.0005999999999999999 0.0057 0.9937 0 0 0 0 0 0 0 0 0.0023 0.9977 0 0 0 0 0 0 0 0.0002 0.001 0.9988 0 0 0 0 0 0 0 0 0.0004 0.9996 0 0 0 0 0 0 0 0 0 1 0 0 0 0 0 0 0 0 0 1 0 0 0 0 0 0 0 0 0 1 0 0 0 0 0 0 0 0 0 1 0 0 0 0 0 0 0 0 0.0021 0.9979 0 0 0 0 0 0 0 0 0.0009 0.9991 0 0 0 0 0 0 0 0 0 1 0 0 0 0 0 0 0 0 0 1 0 0 0 0 0 0 0 0 0 1 0 0 0 0 0 0 0 0 0 1 0 0 0 0 0 0 0 0 0 1 0 0 0 0 0 0 0 0 0 1 0 0 0 0 0 0 0 0 0 1 0 0 0 0 0 0 0 0 0 1 0 0 0 0 0 0 0 0 0 1 0 0 0 0 0 0 0 0 0 1 0 0 0 0 0 0 0 0 0 1 0 0 0 0 0 0 0 0 0 1 0 0 0 0 0 0 0 0 0 1 0 0 0 0 0 0 0 0 0 1 0 0 0 0 0 0 0 0 0 1 0 0 0 0 0 0 0 0 0 1 0 0 0 0 0 0 0 0 0 1 0 0 0 0 0 0 0 0 0 1 0 0 0 0 0 0 0 0 0 1 0 0 0 0 0 0 0 0 0 1 0 0 0 0 0 0 0 0 0 1 0 0 0 0 0 0 0 0 0 1 0 0 0 0 0 0 0 0 0 1 0 0 0 0 0 0 0 0 0 1 0 0 0 0 0 0 0 0 0 1 0 0 0 0 0 0 0 0 0 1 0 0 0 0 0 0 0 0 0 1 0 0 0 0 0 0 0 0 0 1 0 0 0 0 0 0 0 0 0 1 0 0 0 0 0 0 0 0 0 1 0 0 0 0 0 0 0 0 0 1 0 0 0 0 0 0 0 0 0 1 0 0 0 0 0 0 0 0 0 1 0 0 0 0 0 0 0 0 0 1 0 0 0 0 0 0 0 0 0 1 0 0 0 0 0 0 0 0 0 1 0 0 0 0 0 0 0 0 0 1 0 0 0 0 0 0 0 0 0 1 0 0 0.0002 0.0019 0.0198 0.1182 0.3061 0.3366 0.1746 0.0426 0 0 0 0.0005000500050005001 0.011001100110011 0.0724072407240724 0.251925192519252 0.363336333633363 0.228622862286229 0.0722072207220722 0 0 0 0.0002 0.0041 0.0452 0.1894 0.3414 0.2986 0.1211 0 0 0 0 0.0017 0.031 0.1403 0.307 0.333 0.187 0 0 0 0 0.0007000700070007001 0.0141014101410141 0.0902090209020902 0.265926592659266 0.358735873587359 0.27032703270327 0 0 0 0 0.0004 0.0063 0.0565 0.2096 0.351 0.3762 0 0 0 0 0 0.004000400040004 0.0328032803280328 0.14961496149615 0.329232923292329 0.484348434843484 0 0 0 0 0 0.0012 0.0181 0.1143 0.2821 0.5843 0 0 0 0 0 0.0002000200020002 0.0074007400740074 0.0696069606960696 0.226422642264226 0.696369636963696 0 0 0 0 0 0 0.0033003300330033 0.0358035803580358 0.170517051705171 0.79037903790379 0 0 0 0 0.0017001700170017 0.0224022402240224 0.121012101210121 0.304030403040304 0.331433143314331 0.219421942194219 0 0 0 0 0.0008 0.0094 0.0786 0.254 0.3478 0.3094 0 0 0 0 0.0003 0.0055 0.0487 0.1899 0.3434 0.4122 0 0 0 0 0.0002 0.001 0.0252 0.1434 0.3207 0.5095 0 0 0 0 0 0.0008 0.0141 0.0902 0.2717 0.6232 0 0 0 0 0 0.0005 0.0075 0.0577 0.2065 0.7278 0 0 0 0 0 0.0003 0.0036 0.0332 0.1603 0.8026 0 0 0 0 0 0 0.001 0.0192 0.1074 0.8724 0 0 0 0 0 0 0.0005999999999999999 0.009599999999999999 0.0636 0.9262 0 0 0 0 0 0 0.0004 0.0043 0.04 0.9553 0 0 0 0 0 0.0017001700170017 0.0211021102110211 0.118011801180118 0.291629162916292 0.567556755675568 0 0 0 0 0 0.0009 0.0123 0.0789 0.2528 0.6551 0 0 0 0 0 0 0.0048004800480048 0.0476047604760476 0.193419341934193 0.754175417541754 0 0 0 0 0 0 0.0021002100210021 0.0284028402840284 0.137413741374137 0.832083208320832 0 0 0 0 0 0 0.0008000800080008 0.0138013801380138 0.0981098109810981 0.887288728872887 0 0 0 0 0 0 0.0007 0.0068 0.0576 0.9349 0 0 0 0 0 0 0 0.0031003100310031 0.0338033803380338 0.963096309630963 0 0 0 0 0 0 0 0.0012001200120012 0.019001900190019 0.97979797979798 0 0 0 0 0 0 0 0.0014 0.007 0.9916 0 0 0 0 0 0 0 0.0002 0.0041 0.9957 0 0 0 0 0 0 0.0018001800180018 0.0225022502250225 0.118711871187119 0.856985698569857 0 0 0 0 0 0 0.001 0.008699999999999999 0.0789 0.9114 0 0 0 0 0 0 0.0003 0.0051 0.0476 0.947 0 0 0 0 0 0 0 0.0024002400240024 0.0283028302830283 0.969296929692969 0 0 0 0 0 0 0 0.0007000700070007001 0.0135013501350135 0.985798579857986 0 0 0 0 0 0 0 0.0002 0.008 0.9918 0 0 0 0 0 0 0 0.0002000200020002 0.0035003500350035 0.996299629962996 0 0 0 0 0 0 0 0 0.0007 0.9993 0 0 0 0 0 0 0 0 0.0005 0.9995000000000001 0 0 0 0 0 0 0 0 0.0002 0.9998 0 0 0 0 0 0 0 0.0021 0.0213 0.9766 0 0 0 0 0 0 0 0.0004 0.0116 0.988 0 0 0 0 0 0 0 0.0006000600060006 0.0048004800480048 0.994599459945995 0 0 0 0 0 0 0 0.0002 0.0025 0.9973 0 0 0 0 0 0 0 0 0.0012 0.9988 0 0 0 0 0 0 0 0 0.0003 0.9997 0 0 0 0 0 0 0 0 0 1 0 0 0 0 0 0 0 0 0.0002 0.9998 0 0 0 0 0 0 0 0 0 1 0 0 0 0 0 0 0 0 0 1 0 0 0 0 0 0 0 0 0.0019 0.9981 0 0 0 0 0 0 0 0 0.0008000800080008 0.999199919991999 0 0 0 0 0 0 0 0 0.0003 0.9997 0 0 0 0 0 0 0 0 0.0003 0.9997 0 0 0 0 0 0 0 0 0 1 0 0 0 0 0 0 0 0 0 1 0 0 0 0 0 0 0 0 0 1 0 0 0 0 0 0 0 0 0 1 0 0 0 0 0 0 0 0 0 1 0 0 0 0 0 0 0 0 0 1 0 0 0 0 0 0 0 0 0 1 0 0 0 0 0 0 0 0 0 1 0 0 0 0 0 0 0 0 0 1 0 0 0 0 0 0 0 0 0 1 0 0 0 0 0 0 0 0 0 1 0 0 0 0 0 0 0 0 0 1 0 0 0 0 0 0 0 0 0 1 0 0 0 0 0 0 0 0 0 1 0 0 0 0 0 0 0 0 0 1 0 0 0 0 0 0 0 0 0 1 0 0 0 0 0 0 0 0 0 1 0 0 0 0 0 0 0 0 0 1 0 0 0 0 0 0 0 0 0 1 0 0 0 0 0 0 0 0 0 1 0 0 0 0 0 0 0 0 0 1 0 0 0 0 0 0 0 0 0 1 0 0 0 0 0 0 0 0 0 1 0 0 0 0 0 0 0 0 0 1 0 0 0 0 0 0 0 0 0 1 0 0 0 0 0 0 0 0 0 1 0 0 0 0 0 0 0 0 0 1 0 0 0 0 0 0 0 0 0 1 0 0 0 0 0 0 0 0 0 1 0 0 0 0 0 0 0 0 0 1 0 0 0 0 0 0 0 0 0 1 0 0 0 0 0 0 0 0 0 1 0 0 0 0 0 0 0 0 0 1 0 0 0 0 0 0 0 0 0 1 0 0 0 0 0 0 0 0 0 1 0 0 0 0 0 0 0 0 0 1 0 0 0 0 0 0 0 0 0 1 0 0 0 0 0 0 0 0 0 1 0 0 0 0 0 0 0 0 0 1 0 0 0 0 0 0 0 0 0 1 0 0 0 0 0 0 0 0 0 1 0 0 0 0 0 0 0 0 0 1 0 0 0 0 0 0 0 0 0 1 0 0 0 0 0 0 0 0 0 1 0 0 0 0 0 0 0 0 0 1 0 0 0 0 0 0 0 0 0 1 0 0 0 0 0.0021 0.0229 0.1248 0.3021 0.3327 0.2154 0 0 0 0 0.0008 0.009599999999999999 0.083 0.245 0.3562 0.3054 0 0 0 0 0.0002 0.005 0.0485 0.1906 0.3529 0.4028 0 0 0 0 0 0.0031003100310031 0.0253025302530253 0.143214321432143 0.323132313231323 0.505250525052505 0 0 0 0 0 0.0008 0.0142 0.0922 0.2705 0.6223 0 0 0 0 0 0.0003 0.0067 0.06 0.2132 0.7198 0 0 0 0 0 0 0.0028 0.031 0.1567 0.8095 0 0 0 0 0 0 0.0015 0.0179 0.1045 0.8761 0 0 0 0 0 0 0.0005 0.009299999999999999 0.0722 0.918 0 0 0 0 0 0 0 0.0036003600360036 0.0379037903790379 0.958495849584959 0 0 0 0 0 0.0009 0.0238 0.1208 0.301 0.5535 0 0 0 0 0 0.0011001100110011 0.0104010401040104 0.0799079907990799 0.252525252525253 0.656065606560656 0 0 0 0 0 0.0003 0.0057 0.0489 0.1881 0.757 0 0 0 0 0 0 0.0015001500150015 0.0277027702770277 0.141214121412141 0.82958295829583 0 0 0 0 0 0 0.0011001100110011 0.0135013501350135 0.08990899089908989 0.895489548954896 0 0 0 0 0 0 0.0008 0.0063 0.0553 0.9376 0 0 0 0 0 0 0 0.0031003100310031 0.0293029302930293 0.967596759675968 0 0 0 0 0 0 0 0.0013 0.0158 0.9829 0 0 0 0 0 0 0 0.0003 0.008699999999999999 0.991 0 0 0 0 0 0 0 0 0.0035003500350035 0.996499649964996 0 0 0 0 0 0 0.0013001300130013 0.0209020902090209 0.124612461246125 0.853185318531853 0 0 0 0 0 0.0002 0.0007 0.0107 0.0789 0.9095 0 0 0 0 0 0 0.0004 0.0051 0.0457 0.9488 0 0 0 0 0 0 0 0.0022 0.0257 0.9721 0 0 0 0 0 0 0 0.0009 0.0164 0.9827 0 0 0 0 0 0 0 0 0.00660132026405281 0.993398679735947 0 0 0 0 0 0 0 0 0.0029 0.9971 0 0 0 0 0 0 0 0 0.0011 0.9989 0 0 0 0 0 0 0 0 0.0005999999999999999 0.9994 0 0 0 0 0 0 0 0 0 1 0 0 0 0 0 0 0 0.0016 0.02 0.9784 0 0 0 0 0 0 0 0.0005 0.0114 0.9881 0 0 0 0 0 0 0 0.0005 0.0055 0.994 0 0 0 0 0 0 0 0 0.0031 0.9969 0 0 0 0 0 0 0 0.0002000200020002 0 0.999799979998 0 0 0 0 0 0 0 0 0 1 0 0 0 0 0 0 0 0 0 1 0 0 0 0 0 0 0 0 0 1 0 0 0 0 0 0 0 0 0 1 0 0 0 0 0 0 0 0 0 1 0 0 0 0 0 0 0 0 0.0009 0.9991 0 0 0 0 0 0 0 0 0.0005 0.9995000000000001 0 0 0 0 0 0 0 0 0.0002 0.9998 0 0 0 0 0 0 0 0 0 1 0 0 0 0 0 0 0 0 0 1 0 0 0 0 0 0 0 0 0 1 0 0 0 0 0 0 0 0 0 1 0 0 0 0 0 0 0 0 0 1 0 0 0 0 0 0 0 0 0 1 0 0 0 0 0 0 0 0 0 1 0 0 0 0 0 0 0 0 0 1 0 0 0 0 0 0 0 0 0 1 0 0 0 0 0 0 0 0 0 1 0 0 0 0 0 0 0 0 0 1 0 0 0 0 0 0 0 0 0 1 0 0 0 0 0 0 0 0 0 1 0 0 0 0 0 0 0 0 0 1 0 0 0 0 0 0 0 0 0 1 0 0 0 0 0 0 0 0 0 1 0 0 0 0 0 0 0 0 0 1 0 0 0 0 0 0 0 0 0 1 0 0 0 0 0 0 0 0 0 1 0 0 0 0 0 0 0 0 0 1 0 0 0 0 0 0 0 0 0 1 0 0 0 0 0 0 0 0 0 1 0 0 0 0 0 0 0 0 0 1 0 0 0 0 0 0 0 0 0 1 0 0 0 0 0 0 0 0 0 1 0 0 0 0 0 0 0 0 0 1 0 0 0 0 0 0 0 0 0 1 0 0 0 0 0 0 0 0 0 1 0 0 0 0 0 0 0 0 0 1 0 0 0 0 0 0 0 0 0 1 0 0 0 0 0 0 0 0 0 1 0 0 0 0 0 0 0 0 0 1 0 0 0 0 0 0 0 0 0 1 0 0 0 0 0 0 0 0 0 1 0 0 0 0 0 0 0 0 0 1 0 0 0 0 0 0 0 0 0 1 0 0 0 0 0 0 0 0 0 1 0 0 0 0 0 0 0 0 0 1 0 0 0 0 0 0 0 0 0 1 0 0 0 0 0 0 0 0 0 1 0 0 0 0 0 0 0 0 0 1 0 0 0 0 0 0 0 0 0 1 0 0 0 0 0 0 0 0 0 1 0 0 0 0 0 0 0 0 0 1 0 0 0 0 0 0 0 0 0 1 0 0 0 0 0 0 0 0 0 1 0 0 0 0 0 0 0 0 0 1 0 0 0 0 0 0 0 0 0 1 0 0 0 0 0 0 0 0 0 1 0 0 0 0 0 0 0 0 0 1 0 0 0 0 0 0 0 0 0 1 0 0 0 0 0 0 0 0 0 1 0 0 0 0 0 0 0 0 0 1 0 0 0 0 0 0 0 0 0 1 0 0 0 0 0 0 0 0 0 1 0 0 0 0 0 0 0 0 0 1 0 0 0 0 0 0 0 0 0 1 0 0 0 0 0.0002 0.0015 0.0236 0.1214 0.2969 0.5564 0 0 0 0 0 0.0002 0.0112 0.0814 0.2474 0.6598000000000001 0 0 0 0 0 0 0.0043004300430043 0.0433043304330433 0.191419141914191 0.760976097609761 0 0 0 0 0 0 0.0025 0.0268 0.1414 0.8293 0 0 0 0 0 0 0.001000100010001 0.0128012801280128 0.09680968096809681 0.889388938893889 0 0 0 0 0 0 0.0005 0.0062 0.0509 0.9424 0 0 0 0 0 0 0 0.0027 0.0335 0.9638 0 0 0 0 0 0 0 0.001 0.0137 0.9853 0 0 0 0 0 0 0 0.0007 0.008 0.9913 0 0 0 0 0 0 0 0.0002 0.0041 0.9957 0 0 0 0 0 0 0.0016 0.0225 0.1198 0.8561 0 0 0 0 0 0 0.0005999999999999999 0.0113 0.0809 0.9072 0 0 0 0 0 0 0.0004 0.0049 0.0487 0.946 0 0 0 0 0 0 0 0.0038003800380038 0.0298029802980298 0.9663966396639661 0 0 0 0 0 0 0 0.0007 0.0139 0.9854000000000001 0 0 0 0 0 0 0 0.0002 0.0081 0.9917 0 0 0 0 0 0 0 0 0.0028002800280028 0.997199719971997 0 0 0 0 0 0 0 0 0.0007 0.9993 0 0 0 0 0 0 0 0 0.0005 0.9995000000000001 0 0 0 0 0 0 0 0 0.0003 0.9997 0 0 0 0 0 0 0 0.0014 0.0223 0.9762999999999999 0 0 0 0 0 0 0 0.0005 0.0126 0.9869 0 0 0 0 0 0 0 0 0.0055 0.9945000000000001 0 0 0 0 0 0 0 0 0.0023 0.9977 0 0 0 0 0 0 0 0 0.0009 0.9991 0 0 0 0 0 0 0 0 0.0007 0.9993 0 0 0 0 0 0 0 0 0 1 0 0 0 0 0 0 0 0 0 1 0 0 0 0 0 0 0 0 0 1 0 0 0 0 0 0 0 0 0 1 0 0 0 0 0 0 0 0 0.0022 0.9978 0 0 0 0 0 0 0 0 0.0006000600060006 0.999399939993999 0 0 0 0 0 0 0 0 0 1 0 0 0 0 0 0 0 0 0 1 0 0 0 0 0 0 0 0 0 1 0 0 0 0 0 0 0 0 0 1 0 0 0 0 0 0 0 0 0 1 0 0 0 0 0 0 0 0 0 1 0 0 0 0 0 0 0 0 0 1 0 0 0 0 0 0 0 0 0 1 0 0 0 0 0 0 0 0 0.0002 0.9998 0 0 0 0 0 0 0 0 0 1 0 0 0 0 0 0 0 0 0 1 0 0 0 0 0 0 0 0 0 1 0 0 0 0 0 0 0 0 0 1 0 0 0 0 0 0 0 0 0 1 0 0 0 0 0 0 0 0 0 1 0 0 0 0 0 0 0 0 0 1 0 0 0 0 0 0 0 0 0 1 0 0 0 0 0 0 0 0 0 1 0 0 0 0 0 0 0 0 0 1 0 0 0 0 0 0 0 0 0 1 0 0 0 0 0 0 0 0 0 1 0 0 0 0 0 0 0 0 0 1 0 0 0 0 0 0 0 0 0 1 0 0 0 0 0 0 0 0 0 1 0 0 0 0 0 0 0 0 0 1 0 0 0 0 0 0 0 0 0 1 0 0 0 0 0 0 0 0 0 1 0 0 0 0 0 0 0 0 0 1 0 0 0 0 0 0 0 0 0 1 0 0 0 0 0 0 0 0 0 1 0 0 0 0 0 0 0 0 0 1 0 0 0 0 0 0 0 0 0 1 0 0 0 0 0 0 0 0 0 1 0 0 0 0 0 0 0 0 0 1 0 0 0 0 0 0 0 0 0 1 0 0 0 0 0 0 0 0 0 1 0 0 0 0 0 0 0 0 0 1 0 0 0 0 0 0 0 0 0 1 0 0 0 0 0 0 0 0 0 1 0 0 0 0 0 0 0 0 0 1 0 0 0 0 0 0 0 0 0 1 0 0 0 0 0 0 0 0 0 1 0 0 0 0 0 0 0 0 0 1 0 0 0 0 0 0 0 0 0 1 0 0 0 0 0 0 0 0 0 1 0 0 0 0 0 0 0 0 0 1 0 0 0 0 0 0 0 0 0 1 0 0 0 0 0 0 0 0 0 1 0 0 0 0 0 0 0 0 0 1 0 0 0 0 0 0 0 0 0 1 0 0 0 0 0 0 0 0 0 1 0 0 0 0 0 0 0 0 0 1 0 0 0 0 0 0 0 0 0 1 0 0 0 0 0 0 0 0 0 1 0 0 0 0 0 0 0 0 0 1 0 0 0 0 0 0 0 0 0 1 0 0 0 0 0 0 0 0 0 1 0 0 0 0 0 0 0 0 0 1 0 0 0 0 0 0 0 0 0 1 0 0 0 0 0 0 0 0 0 1 0 0 0 0 0 0 0 0 0 1 0 0 0 0 0 0 0 0 0 1 0 0 0 0 0 0 0 0 0 1 0 0 0 0 0 0 0 0 0 1 0 0 0 0 0 0 0 0 0 1 0 0 0 0 0 0 0 0 0 1 0 0 0 0 0 0 0 0 0 1 0 0 0 0 0 0 0 0 0 1 0 0 0 0 0 0 0.002 0.0217 0.1205 0.8558 0 0 0 0 0 0 0.0009 0.0119 0.0752 0.912 0 0 0 0 0 0 0.0005 0.0065 0.0439 0.9491000000000001 0 0 0 0 0 0 0 0.0031003100310031 0.0267026702670267 0.97019701970197 0 0 0 0 0 0 0 0.0009000900090009001 0.014001400140014 0.985098509850985 0 0 0 0 0 0 0 0 0.0065 0.9935 0 0 0 0 0 0 0 0 0.0024 0.9976 0 0 0 0 0 0 0 0 0.0014001400140014 0.998599859985999 0 0 0 0 0 0 0 0 0.0007 0.9993 0 0 0 0 0 0 0 0 0.0003000300030003 0.9996999699969999 0 0 0 0 0 0 0 0.0016001600160016 0.0231023102310231 0.975297529752975 0 0 0 0 0 0 0 0.0009 0.0104 0.9887 0 0 0 0 0 0 0 0 0.006000600060006 0.993999399939994 0 0 0 0 0 0 0 0.0003 0.0022 0.9975000000000001 0 0 0 0 0 0 0 0 0.0009 0.9991 0 0 0 0 0 0 0 0 0.0005 0.9995000000000001 0 0 0 0 0 0 0 0 0 1 0 0 0 0 0 0 0 0 0 1 0 0 0 0 0 0 0 0 0 1 0 0 0 0 0 0 0 0 0 1 0 0 0 0 0 0 0 0 0.002000200020002 0.997999799979998 0 0 0 0 0 0 0 0 0.0007 0.9993 0 0 0 0 0 0 0 0 0.0002 0.9998 0 0 0 0 0 0 0 0 0 1 0 0 0 0 0 0 0 0 0 1 0 0 0 0 0 0 0 0 0 1 0 0 0 0 0 0 0 0 0 1 0 0 0 0 0 0 0 0 0 1 0 0 0 0 0 0 0 0 0 1 0 0 0 0 0 0 0 0 0 1 0 0 0 0 0 0 0 0 0 1 0 0 0 0 0 0 0 0 0 1 0 0 0 0 0 0 0 0 0 1 0 0 0 0 0 0 0 0 0 1 0 0 0 0 0 0 0 0 0 1 0 0 0 0 0 0 0 0 0 1 0 0 0 0 0 0 0 0 0 1 0 0 0 0 0 0 0 0 0 1 0 0 0 0 0 0 0 0 0 1 0 0 0 0 0 0 0 0 0 1 0 0 0 0 0 0 0 0 0 1 0 0 0 0 0 0 0 0 0 1 0 0 0 0 0 0 0 0 0 1 0 0 0 0 0 0 0 0 0 1 0 0 0 0 0 0 0 0 0 1 0 0 0 0 0 0 0 0 0 1 0 0 0 0 0 0 0 0 0 1 0 0 0 0 0 0 0 0 0 1 0 0 0 0 0 0 0 0 0 1 0 0 0 0 0 0 0 0 0 1 0 0 0 0 0 0 0 0 0 1 0 0 0 0 0 0 0 0 0 1 0 0 0 0 0 0 0 0 0 1 0 0 0 0 0 0 0 0 0 1 0 0 0 0 0 0 0 0 0 1 0 0 0 0 0 0 0 0 0 1 0 0 0 0 0 0 0 0 0 1 0 0 0 0 0 0 0 0 0 1 0 0 0 0 0 0 0 0 0 1 0 0 0 0 0 0 0 0 0 1 0 0 0 0 0 0 0 0 0 1 0 0 0 0 0 0 0 0 0 1 0 0 0 0 0 0 0 0 0 1 0 0 0 0 0 0 0 0 0 1 0 0 0 0 0 0 0 0 0 1 0 0 0 0 0 0 0 0 0 1 0 0 0 0 0 0 0 0 0 1 0 0 0 0 0 0 0 0 0 1 0 0 0 0 0 0 0 0 0 1 0 0 0 0 0 0 0 0 0 1 0 0 0 0 0 0 0 0 0 1 0 0 0 0 0 0 0 0 0 1 0 0 0 0 0 0 0 0 0 1 0 0 0 0 0 0 0 0 0 1 0 0 0 0 0 0 0 0 0 1 0 0 0 0 0 0 0 0 0 1 0 0 0 0 0 0 0 0 0 1 0 0 0 0 0 0 0 0 0 1 0 0 0 0 0 0 0 0 0 1 0 0 0 0 0 0 0 0 0 1 0 0 0 0 0 0 0 0 0 1 0 0 0 0 0 0 0 0 0 1 0 0 0 0 0 0 0 0 0 1 0 0 0 0 0 0 0 0 0 1 0 0 0 0 0 0 0 0 0 1 0 0 0 0 0 0 0 0 0 1 0 0 0 0 0 0 0 0 0 1 0 0 0 0 0 0 0 0 0 1 0 0 0 0 0 0 0 0 0 1 0 0 0 0 0 0 0 0 0 1 0 0 0 0 0 0 0 0 0 1 0 0 0 0 0 0 0 0 0 1 0 0 0 0 0 0 0 0 0 1 0 0 0 0 0 0 0 0 0 1 0 0 0 0 0 0 0 0 0 1 0 0 0 0 0 0 0 0 0 1 0 0 0 0 0 0 0 0 0 1 0 0 0 0 0 0 0 0 0 1 0 0 0 0 0 0 0 0 0 1 0 0 0 0 0 0 0 0 0 1</probabilities>
		</cpt>
		<cpt id="max_speed_setpoint">
			<state id="State0" />
			<state id="State1" />
			<state id="State2" />
			<state id="State3" />
			<state id="State4" />
			<state id="State5" />
			<state id="State6" />
			<state id="State7" />
			<state id="State8" />
			<state id="State9" />
			<probabilities>0.1 0.0992 0.0988 0.098 0.1068 0.0959 0.101 0.1047 0.1008 0.0948</probabilities>
		</cpt>
		<cpt id="drag">
			<state id="State0" />
			<state id="State1" />
			<state id="State2" />
			<state id="State3" />
			<state id="State4" />
			<state id="State5" />
			<state id="State6" />
			<state id="State7" />
			<state id="State8" />
			<state id="State9" />
			<parents>max_speed_setpoint friction</parents>
			<probabilities>1 0 0 0 0 0 0 0 0 0 1 0 0 0 0 0 0 0 0 0 1 0 0 0 0 0 0 0 0 0 1 0 0 0 0 0 0 0 0 0 1 0 0 0 0 0 0 0 0 0 1 0 0 0 0 0 0 0 0 0 1 0 0 0 0 0 0 0 0 0 1 0 0 0 0 0 0 0 0 0 1 0 0 0 0 0 0 0 0 0 1 0 0 0 0 0 0 0 0 0 1 0 0 0 0 0 0 0 0 0 1 0 0 0 0 0 0 0 0 0 1 0 0 0 0 0 0 0 0 0 1 0 0 0 0 0 0 0 0 0 1 0 0 0 0 0 0 0 0 0 0.8167 0.1833 0 0 0 0 0 0 0 0 0.5463 0.4537 0 0 0 0 0 0 0 0 0.3329 0.6671 0 0 0 0 0 0 0 0 0.1776 0.8224 0 0 0 0 0 0 0 0 0.0561 0.9439 0 0 0 0 0 0 0 0 1 0 0 0 0 0 0 0 0 0 1 0 0 0 0 0 0 0 0 0 1 0 0 0 0 0 0 0 0 0 0.8227 0.1773 0 0 0 0 0 0 0 0 0.2383 0.7617 0 0 0 0 0 0 0 0 0 1 0 0 0 0 0 0 0 0 0 0.976 0.024 0 0 0 0 0 0 0 0 0.6739000000000001 0.3261 0 0 0 0 0 0 0 0 0.3524 0.6476 0 0 0 0 0 0 0 0 0.1109 0.8891 0 0 0 0 0 0 0 1 0 0 0 0 0 0 0 0 0 1 0 0 0 0 0 0 0 0 0 0.8248 0.1752 0 0 0 0 0 0 0 0 0.0537 0.9463 0 0 0 0 0 0 0 0 0 1 0 0 0 0 0 0 0 0 0 0.644 0.356 0 0 0 0 0 0 0 0 0.1082 0.8918 0 0 0 0 0 0 0 0 0 0.9378 0.0622 0 0 0 0 0 0 0 0 0.5413 0.4587 0 0 0 0 0 0 0 0 0.1609 0.8391 0 0 0 0 0 0 1 0 0 0 0 0 0 0 0 0 1 0 0 0 0 0 0 0 0 0 0.2304 0.7696 0 0 0 0 0 0 0 0 0 1 0 0 0 0 0 0 0 0 0 0.4604 0.5396 0 0 0 0 0 0 0 0 0 1 0 0 0 0 0 0 0 0 0 0.621 0.379 0 0 0 0 0 0 0 0 0.06809999999999999 0.9319 0 0 0 0 0 0 0 0 0 0.7085 0.2915 0 0 0 0 0 0 0 0 0.2126 0.7874 0 0 0 0 0 1 0 0 0 0 0 0 0 0 0 0.8242 0.1758 0 0 0 0 0 0 0 0 0 1 0 0 0 0 0 0 0 0 0 0.6419 0.3581 0 0 0 0 0 0 0 0 0 1 0 0 0 0 0 0 0 0 0 0.4713 0.5286999999999999 0 0 0 0 0 0 0 0 0 0.9563 0.0437 0 0 0 0 0 0 0 0 0.3399 0.6601 0 0 0 0 0 0 0 0 0 0.8517 0.1483 0 0 0 0 0 0 0 0 0.2665 0.7335 0 0 0 0 1 0 0 0 0 0 0 0 0 0 0.5433 0.4567 0 0 0 0 0 0 0 0 0 0.9738 0.0262 0 0 0 0 0 0 0 0 0.1091 0.8909 0 0 0 0 0 0 0 0 0 0.6224 0.3776 0 0 0 0 0 0 0 0 0 0.9524 0.0476 0 0 0 0 0 0 0 0 0.2205 0.7795 0 0 0 0 0 0 0 0 0 0.6684 0.3316 0 0 0 0 0 0 0 0 0.0407 0.8894 0.0699 0 0 0 0 0 0 0 0 0.3249 0.6751 0 0 0 1 0 0 0 0 0 0 0 0 0 0.3342 0.6657999999999999 0 0 0 0 0 0 0 0 0 0.6709000000000001 0.3291 0 0 0 0 0 0 0 0 0 0.9367 0.0633 0 0 0 0 0 0 0 0 0.0704 0.9296 0 0 0 0 0 0 0 0 0 0.3374 0.6626 0 0 0 0 0 0 0 0 0 0.6635 0.3365 0 0 0 0 0 0 0 0 0.0107 0.8653999999999999 0.1239 0 0 0 0 0 0 0 0 0.1409 0.8336 0.0255 0 0 0 0 0 0 0 0 0.3727 0.6273 0 0 1 0 0 0 0 0 0 0 0 0 0.1715 0.8285 0 0 0 0 0 0 0 0 0 0.3556 0.6444 0 0 0 0 0 0 0 0 0 0.5291 0.4709 0 0 0 0 0 0 0 0 0 0.7138 0.2862 0 0 0 0 0 0 0 0 0 0.849 0.151 0 0 0 0 0 0 0 0 0.039 0.8895999999999999 0.07140000000000001 0 0 0 0 0 0 0 0 0.1373 0.835 0.0277 0 0 0 0 0 0 0 0 0.2741 0.7208 0.0051 0 0 0 0 0 0 0 0 0.4286 0.5714 0 1 0 0 0 0 0 0 0 0 0 0.0531 0.9469 0 0 0 0 0 0 0 0 0 0.1079 0.8921 0 0 0 0 0 0 0 0 0 0.1664 0.8336 0 0 0 0 0 0 0 0 0 0.2154 0.7846 0 0 0 0 0 0 0 0 0 0.2712 0.7288 0 0 0 0 0 0 0 0 0 0.3215 0.6785 0 0 0 0 0 0 0 0 0 0.375 0.625 0 0 0 0 0 0 0 0 0 0.4279 0.5721000000000001 0 0 0 0 0 0 0 0 0 0.4839 0.5161</probabilities>
		</cpt>
		<cpt id="compond_motoruse_badness">
			<state id="State0" />
			<state id="State1" />
			<state id="State2" />
			<state id="State3" />
			<state id="State4" />
			<state id="State5" />
			<state id="State6" />
			<state id="State7" />
			<state id="State8" />
			<state id="State9" />
			<parents>drag other_causes acceleration_limit</parents>
			<probabilities>0.3577 0.6297 0.0126 0 0 0 0 0 0 0 0.1482 0.7413 0.1105 0 0 0 0 0 0 0 0.0354 0.6838 0.2808 0 0 0 0 0 0 0 0.0003 0.4629 0.5317 0.0051 0 0 0 0 0 0 0 0.2146 0.7167 0.0687 0 0 0 0 0 0 0 0.0678 0.7156 0.2166 0 0 0 0 0 0 0 0.0043 0.5425 0.4528 0.0004 0 0 0 0 0 0 0 0.2874 0.6812 0.0314 0 0 0 0 0 0 0 0.1001 0.7433999999999999 0.1565 0 0 0 0 0 0 0 0.0127 0.6209 0.3664 0 0 0 0 0 0 0.3629 0.6206 0.0165 0 0 0 0 0 0 0 0.1602 0.7304 0.1094 0 0 0 0 0 0 0 0.0339 0.6674 0.2987 0 0 0 0 0 0 0 0.0008 0.4537 0.5412 0.0043 0 0 0 0 0 0 0 0.2161 0.7202 0.06370000000000001 0 0 0 0 0 0 0 0.06759999999999999 0.7198 0.2126 0 0 0 0 0 0 0 0.0038 0.5393 0.4564 0.0005 0 0 0 0 0 0 0 0.2841 0.6797 0.0362 0 0 0 0 0 0 0 0.1042 0.7425 0.1533 0 0 0 0 0 0 0 0.014 0.6247 0.3613 0 0 0 0 0 0 0.368 0.6172 0.0148 0 0 0 0 0 0 0 0.1486 0.748 0.1034 0 0 0 0 0 0 0 0.0352 0.6728 0.292 0 0 0 0 0 0 0 0.0004 0.4578 0.538 0.0038 0 0 0 0 0 0 0 0.2114 0.725 0.0636 0 0 0 0 0 0 0 0.0669 0.7187 0.2144 0 0 0 0 0 0 0 0.0056 0.5461 0.4476 0.0007 0 0 0 0 0 0 0 0.2839 0.6807 0.0354 0 0 0 0 0 0 0 0.1052 0.7437 0.1511 0 0 0 0 0 0 0 0.0127 0.6146 0.3727 0 0 0 0 0 0 0.3687 0.6136 0.0177 0 0 0 0 0 0 0 0.1552 0.7355 0.1093 0 0 0 0 0 0 0 0.0366 0.677 0.2864 0 0 0 0 0 0 0 0.0002 0.4538 0.5409 0.0051 0 0 0 0 0 0 0 0.2155 0.7161999999999999 0.0683 0 0 0 0 0 0 0 0.0678 0.7179 0.2143 0 0 0 0 0 0 0 0.0039 0.5387 0.4567 0.0007 0 0 0 0 0 0 0 0.291 0.6761 0.0329 0 0 0 0 0 0 0 0.1031 0.7458 0.1511 0 0 0 0 0 0 0 0.0154 0.6241 0.3605 0 0 0 0 0 0 0.3665 0.618 0.0155 0 0 0 0 0 0 0 0.1537 0.7403999999999999 0.1059 0 0 0 0 0 0 0 0.0364 0.6832 0.2804 0 0 0 0 0 0 0 0.0007 0.449 0.5458 0.0045 0 0 0 0 0 0 0 0.2085 0.731 0.0605 0 0 0 0 0 0 0 0.06619999999999999 0.7292 0.2046 0 0 0 0 0 0 0 0.0038 0.5477 0.4481 0.0004 0 0 0 0 0 0 0 0.2957 0.6659 0.0384 0 0 0 0 0 0 0 0.1039 0.7491 0.147 0 0 0 0 0 0 0 0.0156 0.6163 0.3681 0 0 0 0 0 0 0.3649 0.6193 0.0158 0 0 0 0 0 0 0 0.1569 0.7383 0.1048 0 0 0 0 0 0 0 0.0367 0.6757 0.2876 0 0 0 0 0 0 0 0.0008 0.459 0.5353 0.0049 0 0 0 0 0 0 0 0.2109 0.7262999999999999 0.06279999999999999 0 0 0 0 0 0 0 0.0603 0.7189 0.2208 0 0 0 0 0 0 0 0.0051 0.5558 0.4387 0.0004 0 0 0 0 0 0 0 0.2955 0.6705 0.034 0 0 0 0 0 0 0 0.104 0.741 0.155 0 0 0 0 0 0 0 0.0145 0.6148 0.3707 0 0 0 0 0 0 0.3647 0.6194 0.0159 0 0 0 0 0 0 0 0.1524 0.7407 0.1069 0 0 0 0 0 0 0 0.0361 0.6821 0.2818 0 0 0 0 0 0 0 0.0005 0.4506 0.5447 0.0042 0 0 0 0 0 0 0 0.2185 0.7141999999999999 0.0673 0 0 0 0 0 0 0 0.068 0.7147 0.2173 0 0 0 0 0 0 0 0.004 0.5417999999999999 0.4542 0 0 0 0 0 0 0 0 0.2788 0.7212 0 0 0 0 0 0 0 0 0.1083 0.8917 0 0 0 0 0 0 0 0 0.0162 0.9838 0 0 0 0 0 0 0 0.3637 0.6221 0.0142 0 0 0 0 0 0 0 0.1537 0.7416 0.1047 0 0 0 0 0 0 0 0.0372 0.6850000000000001 0.2778 0 0 0 0 0 0 0 0.0004 0.4535 0.5461 0 0 0 0 0 0 0 0 0.2091 0.7909 0 0 0 0 0 0 0 0 0.0638 0.9362 0 0 0 0 0 0 0 0 0.0035 0.9965000000000001 0 0 0 0 0 0 0 0 0 1 0 0 0 0 0 0 0 0 0 1 0 0 0 0 0 0 0 0 0 1 0 0 0 0 0 0 0 0 0.3694 0.6306 0 0 0 0 0 0 0 0 0.1594 0.8406 0 0 0 0 0 0 0 0 0.0339 0.9661 0 0 0 0 0 0 0 0 0.001 0.999 0 0 0 0 0 0 0 0 0 1 0 0 0 0 0 0 0 0 0 1 0 0 0 0 0 0 0 0 0 1 0 0 0 0 0 0 0 0 0 1 0 0 0 0 0 0 0 0 0 1 0 0 0 0 0 0 0 0 0 1 0 0 0 0 0 0 0 0 0 1 0 0 0 0 0 0 0 0 0 1 0 0 0 0 0 0 0 0 0 1 0 0 0 0 0 0 0 0 0 1 0 0 0 0 0 0 0 0 0 1 0 0 0 0 0 0 0 0 0 1 0 0 0 0 0 0 0 0 0 1 0 0 0 0 0 0 0 0 0 1 0 0 0 0 0 0 0 0 0 1 0 0 0 0 0 0 0 0 0 1 0 0.3729 0.6119 0.0152 0 0 0 0 0 0 0 0.1557 0.7403999999999999 0.1039 0 0 0 0 0 0 0 0.0356 0.6781 0.2863 0 0 0 0 0 0 0 0.0011 0.4508 0.5437 0.0044 0 0 0 0 0 0 0 0.2167 0.7157 0.06759999999999999 0 0 0 0 0 0 0 0.0644 0.7196 0.216 0 0 0 0 0 0 0 0.0042 0.539 0.456 0.0008 0 0 0 0 0 0 0 0.2912 0.675 0.0338 0 0 0 0 0 0 0 0.1132 0.7365 0.1503 0 0 0 0 0 0 0 0.0142 0.6276 0.3582 0 0 0 0 0 0 0.3608 0.6237 0.0155 0 0 0 0 0 0 0 0.1552 0.7393 0.1055 0 0 0 0 0 0 0 0.033 0.6742 0.2928 0 0 0 0 0 0 0 0.0001 0.4545 0.5396 0.0058 0 0 0 0 0 0 0 0.2116 0.7248 0.0636 0 0 0 0 0 0 0 0.0648 0.7241 0.2111 0 0 0 0 0 0 0 0.0037 0.5386 0.457 0.0007 0 0 0 0 0 0 0 0.2807 0.6855 0.0338 0 0 0 0 0 0 0 0.099 0.7432 0.1578 0 0 0 0 0 0 0 0.0172 0.611 0.3718 0 0 0 0 0 0 0.362 0.6232 0.0148 0 0 0 0 0 0 0 0.1553 0.743 0.1017 0 0 0 0 0 0 0 0.0344 0.6747 0.2909 0 0 0 0 0 0 0 0.0005 0.4625 0.5337 0.0033 0 0 0 0 0 0 0 0.213 0.7181999999999999 0.0688 0 0 0 0 0 0 0 0.0601 0.7235 0.2164 0 0 0 0 0 0 0 0.0033 0.5426 0.4536 0.0005 0 0 0 0 0 0 0 0.2928 0.6757 0.0315 0 0 0 0 0 0 0 0.1024 0.7462 0.1514 0 0 0 0 0 0 0 0.0147 0.6192 0.3661 0 0 0 0 0 0 0.3648 0.6216 0.0136 0 0 0 0 0 0 0 0.1519 0.7442 0.1039 0 0 0 0 0 0 0 0.0355 0.6879999999999999 0.2765 0 0 0 0 0 0 0 0.0005999999999999999 0.4597 0.5357 0.004 0 0 0 0 0 0 0 0.2132 0.7231 0.06370000000000001 0 0 0 0 0 0 0 0.0617 0.7157 0.2226 0 0 0 0 0 0 0 0.0039 0.5483 0.4475 0.0003 0 0 0 0 0 0 0 0.2826 0.6808999999999999 0.0365 0 0 0 0 0 0 0 0.1008 0.7451 0.1541 0 0 0 0 0 0 0 0.0135 0.6131 0.3734 0 0 0 0 0 0 0.3633 0.621 0.0157 0 0 0 0 0 0 0 0.1563 0.7386 0.1051 0 0 0 0 0 0 0 0.0386 0.6698 0.2916 0 0 0 0 0 0 0 0.0005999999999999999 0.4527 0.5417999999999999 0.0049 0 0 0 0 0 0 0 0.2234 0.7087 0.0679 0 0 0 0 0 0 0 0.0688 0.7135 0.2177 0 0 0 0 0 0 0 0.0057 0.5538 0.44 0.0005 0 0 0 0 0 0 0 0.2906 0.6726 0.0368 0 0 0 0 0 0 0 0.1015 0.748 0.1505 0 0 0 0 0 0 0 0.0153 0.6213 0.3634 0 0 0 0 0 0 0.3624 0.6213 0.0163 0 0 0 0 0 0 0 0.1549 0.7444 0.1007 0 0 0 0 0 0 0 0.0371 0.678 0.2849 0 0 0 0 0 0 0 0.0008 0.4577 0.537 0.0045 0 0 0 0 0 0 0 0.2213 0.7141999999999999 0.0645 0 0 0 0 0 0 0 0.0614 0.7201 0.2185 0 0 0 0 0 0 0 0.0031 0.5389 0.458 0 0 0 0 0 0 0 0 0.2809 0.7191 0 0 0 0 0 0 0 0 0.1048 0.8952 0 0 0 0 0 0 0 0 0.015 0.985 0 0 0 0 0 0 0 0.3585 0.6243 0.0172 0 0 0 0 0 0 0 0.1512 0.7433999999999999 0.1054 0 0 0 0 0 0 0 0.0366 0.6804 0.283 0 0 0 0 0 0 0 0.0009 0.4516 0.5475 0 0 0 0 0 0 0 0 0.2118 0.7882 0 0 0 0 0 0 0 0 0.0673 0.9327 0 0 0 0 0 0 0 0 0.0054 0.9946 0 0 0 0 0 0 0 0 0 1 0 0 0 0 0 0 0 0 0 1 0 0 0 0 0 0 0 0 0 1 0 0 0 0 0 0 0 0 0.3613 0.6387 0 0 0 0 0 0 0 0 0.1513 0.8487 0 0 0 0 0 0 0 0 0.036 0.964 0 0 0 0 0 0 0 0 0.0005 0.9995000000000001 0 0 0 0 0 0 0 0 0 1 0 0 0 0 0 0 0 0 0 1 0 0 0 0 0 0 0 0 0 1 0 0 0 0 0 0 0 0 0 1 0 0 0 0 0 0 0 0 0 1 0 0 0 0 0 0 0 0 0 1 0 0 0 0 0 0 0 0 0 1 0 0 0 0 0 0 0 0 0 1 0 0 0 0 0 0 0 0 0 1 0 0 0 0 0 0 0 0 0 1 0 0 0 0 0 0 0 0 0 1 0 0 0 0 0 0 0 0 0 1 0 0 0 0 0 0 0 0 0 1 0 0 0 0 0 0 0 0 0 1 0 0 0 0 0 0 0 0 0 1 0 0 0 0 0 0 0 0 0 1 0 0 0 0 0 0 0 0 0 1 0 0 0 0 0 0 0 0 0 1 0 0 0 0 0 0 0 0 0 1 0 0 0 0 0 0 0 0 0 1 0 0 0 0 0 0 0 0 0 1 0 0 0 0 0 0 0 0 0 1 0 0 0 0 0 0 0 0 0 1 0 0 0 0 0 0 0 0 0 1 0 0 0 0 0 0 0 0 0 1 0 0 0 0 0 0 0 0 0 1 0 0 0.3637 0.6221 0.0142 0 0 0 0 0 0 0 0.1601 0.7345 0.1054 0 0 0 0 0 0 0 0.0346 0.6848 0.2806 0 0 0 0 0 0 0 0.0005 0.4546 0.5414 0.0035 0 0 0 0 0 0 0 0.2197 0.7199 0.0604 0 0 0 0 0 0 0 0.0634 0.7157 0.2209 0 0 0 0 0 0 0 0.0047 0.5438 0.4511 0.0004 0 0 0 0 0 0 0 0.2786 0.6870000000000001 0.0344 0 0 0 0 0 0 0 0.1044 0.7354000000000001 0.1602 0 0 0 0 0 0 0 0.0167 0.6175 0.3658 0 0 0 0 0 0 0.3629 0.6232 0.0139 0 0 0 0 0 0 0 0.1573 0.7377 0.105 0 0 0 0 0 0 0 0.0339 0.6788 0.2873 0 0 0 0 0 0 0 0.0005 0.4576 0.5377999999999999 0.0041 0 0 0 0 0 0 0 0.2143 0.7178 0.0679 0 0 0 0 0 0 0 0.06519999999999999 0.7224 0.2124 0 0 0 0 0 0 0 0.0055 0.5484 0.4453 0.0008 0 0 0 0 0 0 0 0.2812 0.6805 0.0383 0 0 0 0 0 0 0 0.1083 0.7334000000000001 0.1583 0 0 0 0 0 0 0 0.0147 0.6114000000000001 0.3739 0 0 0 0 0 0 0.3637 0.6208 0.0155 0 0 0 0 0 0 0 0.1606 0.7359 0.1035 0 0 0 0 0 0 0 0.0306 0.6816 0.2878 0 0 0 0 0 0 0 0.0005 0.4464 0.5484 0.0047 0 0 0 0 0 0 0 0.2157 0.7177 0.06660000000000001 0 0 0 0 0 0 0 0.0641 0.721 0.2149 0 0 0 0 0 0 0 0.0043 0.5446 0.4504 0.0007 0 0 0 0 0 0 0 0.2833 0.6782 0.0385 0 0 0 0 0 0 0 0.1065 0.7442 0.1493 0 0 0 0 0 0 0 0.0145 0.6259 0.3596 0 0 0 0 0 0 0.3779 0.6054 0.0167 0 0 0 0 0 0 0 0.155 0.741 0.104 0 0 0 0 0 0 0 0.0328 0.6817 0.2855 0 0 0 0 0 0 0 0.0004 0.4551 0.5409 0.0036 0 0 0 0 0 0 0 0.2237 0.7148 0.0615 0 0 0 0 0 0 0 0.0663 0.7209 0.2128 0 0 0 0 0 0 0 0.0053 0.5328000000000001 0.461 0.0009 0 0 0 0 0 0 0 0.2868 0.6768999999999999 0.0363 0 0 0 0 0 0 0 0.1025 0.7456 0.1519 0 0 0 0 0 0 0 0.0149 0.6252 0.3599 0 0 0 0 0 0 0.3648 0.6203 0.0149 0 0 0 0 0 0 0 0.1555 0.7415 0.103 0 0 0 0 0 0 0 0.036 0.6874 0.2766 0 0 0 0 0 0 0 0.0005 0.4535 0.5417999999999999 0.0042 0 0 0 0 0 0 0 0.2157 0.7192 0.06510000000000001 0 0 0 0 0 0 0 0.0699 0.715 0.2151 0 0 0 0 0 0 0 0.005 0.5488 0.4462 0 0 0 0 0 0 0 0 0.2882 0.7118 0 0 0 0 0 0 0 0 0.1042 0.8958 0 0 0 0 0 0 0 0 0.015 0.985 0 0 0 0 0 0 0 0.3645 0.6192 0.0163 0 0 0 0 0 0 0 0.1519 0.742 0.1061 0 0 0 0 0 0 0 0.0314 0.6788 0.2898 0 0 0 0 0 0 0 0.0005 0.4523 0.5472 0 0 0 0 0 0 0 0 0.2074 0.7926 0 0 0 0 0 0 0 0 0.066 0.9340000000000001 0 0 0 0 0 0 0 0 0.0038 0.9962 0 0 0 0 0 0 0 0 0 1 0 0 0 0 0 0 0 0 0 1 0 0 0 0 0 0 0 0 0 1 0 0 0 0 0 0 0 0 0.3603 0.6397 0 0 0 0 0 0 0 0 0.1594 0.8406 0 0 0 0 0 0 0 0 0.0361 0.9639 0 0 0 0 0 0 0 0 0.0004 0.9996 0 0 0 0 0 0 0 0 0 1 0 0 0 0 0 0 0 0 0 1 0 0 0 0 0 0 0 0 0 1 0 0 0 0 0 0 0 0 0 1 0 0 0 0 0 0 0 0 0 1 0 0 0 0 0 0 0 0 0 1 0 0 0 0 0 0 0 0 0 1 0 0 0 0 0 0 0 0 0 1 0 0 0 0 0 0 0 0 0 1 0 0 0 0 0 0 0 0 0 1 0 0 0 0 0 0 0 0 0 1 0 0 0 0 0 0 0 0 0 1 0 0 0 0 0 0 0 0 0 1 0 0 0 0 0 0 0 0 0 1 0 0 0 0 0 0 0 0 0 1 0 0 0 0 0 0 0 0 0 1 0 0 0 0 0 0 0 0 0 1 0 0 0 0 0 0 0 0 0 1 0 0 0 0 0 0 0 0 0 1 0 0 0 0 0 0 0 0 0 1 0 0 0 0 0 0 0 0 0 1 0 0 0 0 0 0 0 0 0 1 0 0 0 0 0 0 0 0 0 1 0 0 0 0 0 0 0 0 0 1 0 0 0 0 0 0 0 0 0 1 0 0 0 0 0 0 0 0 0 1 0 0 0 0 0 0 0 0 0 1 0 0 0 0 0 0 0 0 0 1 0 0 0 0 0 0 0 0 0 1 0 0 0 0 0 0 0 0 0 1 0 0 0 0 0 0 0 0 0 1 0 0 0 0 0 0 0 0 0 1 0 0 0 0 0 0 0 0 0 1 0 0 0 0 0 0 0 0 0 1 0 0 0 0 0 0 0 0 0 1 0 0 0 0 0 0 0 0 0 1 0 0 0 0.3718 0.6094000000000001 0.0188 0 0 0 0 0 0 0 0.1567 0.7373 0.106 0 0 0 0 0 0 0 0.0332 0.6744 0.2924 0 0 0 0 0 0 0 0.0003 0.4507 0.5445 0.0045 0 0 0 0 0 0 0 0.2224 0.7122000000000001 0.0654 0 0 0 0 0 0 0 0.0663 0.7161 0.2176 0 0 0 0 0 0 0 0.0045 0.5409 0.4541 0.0005 0 0 0 0 0 0 0 0.2875 0.6787 0.0338 0 0 0 0 0 0 0 0.1033 0.7439 0.1528 0 0 0 0 0 0 0 0.0153 0.6186 0.3661 0 0 0 0 0 0 0.3693 0.6148 0.0159 0 0 0 0 0 0 0 0.1553 0.7386 0.1061 0 0 0 0 0 0 0 0.0313 0.6803 0.2884 0 0 0 0 0 0 0 0.0005 0.4578 0.5366 0.0051 0 0 0 0 0 0 0 0.2138 0.721 0.06519999999999999 0 0 0 0 0 0 0 0.0663 0.7219 0.2118 0 0 0 0 0 0 0 0.0052 0.5463 0.4479 0.0005999999999999999 0 0 0 0 0 0 0 0.2873 0.6781 0.0346 0 0 0 0 0 0 0 0.1049 0.7408 0.1543 0 0 0 0 0 0 0 0.0157 0.6202 0.3641 0 0 0 0 0 0 0.3715 0.6153999999999999 0.0131 0 0 0 0 0 0 0 0.1518 0.7419 0.1063 0 0 0 0 0 0 0 0.0337 0.675 0.2913 0 0 0 0 0 0 0 0.0005999999999999999 0.4599 0.5354 0.0041 0 0 0 0 0 0 0 0.2074 0.7264 0.06619999999999999 0 0 0 0 0 0 0 0.06909999999999999 0.711 0.2199 0 0 0 0 0 0 0 0.0052 0.5471 0.4469 0.0008 0 0 0 0 0 0 0 0.292 0.6731 0.0349 0 0 0 0 0 0 0 0.1123 0.727 0.1607 0 0 0 0 0 0 0 0.0141 0.6257 0.3602 0 0 0 0 0 0 0.3709 0.6121 0.017 0 0 0 0 0 0 0 0.1604 0.7348 0.1048 0 0 0 0 0 0 0 0.0338 0.668 0.2982 0 0 0 0 0 0 0 0.0005999999999999999 0.4575 0.5371 0.0048 0 0 0 0 0 0 0 0.2169 0.7213000000000001 0.0618 0 0 0 0 0 0 0 0.0655 0.7217 0.2128 0 0 0 0 0 0 0 0.0046 0.5372 0.4582 0 0 0 0 0 0 0 0 0.2841 0.7159 0 0 0 0 0 0 0 0 0.1052 0.8948 0 0 0 0 0 0 0 0 0.017 0.983 0 0 0 0 0 0 0 0.3696 0.615 0.0154 0 0 0 0 0 0 0 0.1625 0.7371 0.1004 0 0 0 0 0 0 0 0.0359 0.6818 0.2823 0 0 0 0 0 0 0 0.0009 0.4512 0.5479000000000001 0 0 0 0 0 0 0 0 0.2131 0.7869 0 0 0 0 0 0 0 0 0.0616 0.9384 0 0 0 0 0 0 0 0 0.0045 0.9955000000000001 0 0 0 0 0 0 0 0 0 1 0 0 0 0 0 0 0 0 0 1 0 0 0 0 0 0 0 0 0 1 0 0 0 0 0 0 0 0 0.3679 0.6321 0 0 0 0 0 0 0 0 0.1587 0.8413 0 0 0 0 0 0 0 0 0.0381 0.9619 0 0 0 0 0 0 0 0 0.0005999999999999999 0.9994 0 0 0 0 0 0 0 0 0 1 0 0 0 0 0 0 0 0 0 1 0 0 0 0 0 0 0 0 0 1 0 0 0 0 0 0 0 0 0 1 0 0 0 0 0 0 0 0 0 1 0 0 0 0 0 0 0 0 0 1 0 0 0 0 0 0 0 0 0 1 0 0 0 0 0 0 0 0 0 1 0 0 0 0 0 0 0 0 0 1 0 0 0 0 0 0 0 0 0 1 0 0 0 0 0 0 0 0 0 1 0 0 0 0 0 0 0 0 0 1 0 0 0 0 0 0 0 0 0 1 0 0 0 0 0 0 0 0 0 1 0 0 0 0 0 0 0 0 0 1 0 0 0 0 0 0 0 0 0 1 0 0 0 0 0 0 0 0 0 1 0 0 0 0 0 0 0 0 0 1 0 0 0 0 0 0 0 0 0 1 0 0 0 0 0 0 0 0 0 1 0 0 0 0 0 0 0 0 0 1 0 0 0 0 0 0 0 0 0 1 0 0 0 0 0 0 0 0 0 1 0 0 0 0 0 0 0 0 0 1 0 0 0 0 0 0 0 0 0 1 0 0 0 0 0 0 0 0 0 1 0 0 0 0 0 0 0 0 0 1 0 0 0 0 0 0 0 0 0 1 0 0 0 0 0 0 0 0 0 1 0 0 0 0 0 0 0 0 0 1 0 0 0 0 0 0 0 0 0 1 0 0 0 0 0 0 0 0 0 1 0 0 0 0 0 0 0 0 0 1 0 0 0 0 0 0 0 0 0 1 0 0 0 0 0 0 0 0 0 1 0 0 0 0 0 0 0 0 0 1 0 0 0 0 0 0 0 0 0 1 0 0 0 0 0 0 0 0 0 1 0 0 0 0 0 0 0 0 0 1 0 0 0 0 0 0 0 0 0 1 0 0 0 0 0 0 0 0 0 1 0 0 0 0 0 0 0 0 0 1 0 0 0 0 0 0 0 0 0 1 0 0 0 0 0 0 0 0 0 1 0 0 0 0 0 0 0 0 0 1 0 0 0 0 0 0 0 0 0 1 0 0 0 0 0.3669 0.6169 0.0162 0 0 0 0 0 0 0 0.153 0.7462 0.1008 0 0 0 0 0 0 0 0.0346 0.6778999999999999 0.2875 0 0 0 0 0 0 0 0.0003 0.4612 0.5337 0.0048 0 0 0 0 0 0 0 0.2198 0.7163 0.0639 0 0 0 0 0 0 0 0.06320000000000001 0.7284 0.2084 0 0 0 0 0 0 0 0.0048 0.5467 0.4478 0.0007 0 0 0 0 0 0 0 0.2829 0.6803 0.0368 0 0 0 0 0 0 0 0.1079 0.7353 0.1568 0 0 0 0 0 0 0 0.0143 0.6227 0.363 0 0 0 0 0 0 0.3706 0.613 0.0164 0 0 0 0 0 0 0 0.156 0.7441 0.0999 0 0 0 0 0 0 0 0.0371 0.6765 0.2864 0 0 0 0 0 0 0 0.0005 0.4548 0.5397999999999999 0.0049 0 0 0 0 0 0 0 0.2186 0.7169 0.0645 0 0 0 0 0 0 0 0.0649 0.7156 0.2195 0 0 0 0 0 0 0 0.0049 0.5498 0.4445 0.0008 0 0 0 0 0 0 0 0.2726 0.6898 0.0376 0 0 0 0 0 0 0 0.1065 0.7442 0.1493 0 0 0 0 0 0 0 0.0154 0.6132 0.3714 0 0 0 0 0 0 0.3593 0.6264999999999999 0.0142 0 0 0 0 0 0 0 0.1566 0.7399 0.1035 0 0 0 0 0 0 0 0.0358 0.6768999999999999 0.2873 0 0 0 0 0 0 0 0.0004 0.4559 0.5396 0.0041 0 0 0 0 0 0 0 0.215 0.7161 0.0689 0 0 0 0 0 0 0 0.06510000000000001 0.7086 0.2263 0 0 0 0 0 0 0 0.0046 0.539 0.4564 0 0 0 0 0 0 0 0 0.2928 0.7072000000000001 0 0 0 0 0 0 0 0 0.1001 0.8999 0 0 0 0 0 0 0 0 0.0149 0.9851 0 0 0 0 0 0 0 0.3674 0.618 0.0146 0 0 0 0 0 0 0 0.1512 0.7437 0.1051 0 0 0 0 0 0 0 0.0352 0.6757 0.2891 0 0 0 0 0 0 0 0.0005999999999999999 0.4592 0.5402 0 0 0 0 0 0 0 0 0.2097 0.7903 0 0 0 0 0 0 0 0 0.06469999999999999 0.9353 0 0 0 0 0 0 0 0 0.005 0.995 0 0 0 0 0 0 0 0 0 1 0 0 0 0 0 0 0 0 0 1 0 0 0 0 0 0 0 0 0 1 0 0 0 0 0 0 0 0 0.3652 0.6348 0 0 0 0 0 0 0 0 0.1568 0.8431999999999999 0 0 0 0 0 0 0 0 0.0358 0.9641999999999999 0 0 0 0 0 0 0 0 0.0005999999999999999 0.9994 0 0 0 0 0 0 0 0 0 1 0 0 0 0 0 0 0 0 0 1 0 0 0 0 0 0 0 0 0 1 0 0 0 0 0 0 0 0 0 1 0 0 0 0 0 0 0 0 0 1 0 0 0 0 0 0 0 0 0 1 0 0 0 0 0 0 0 0 0 1 0 0 0 0 0 0 0 0 0 1 0 0 0 0 0 0 0 0 0 1 0 0 0 0 0 0 0 0 0 1 0 0 0 0 0 0 0 0 0 1 0 0 0 0 0 0 0 0 0 1 0 0 0 0 0 0 0 0 0 1 0 0 0 0 0 0 0 0 0 1 0 0 0 0 0 0 0 0 0 1 0 0 0 0 0 0 0 0 0 1 0 0 0 0 0 0 0 0 0 1 0 0 0 0 0 0 0 0 0 1 0 0 0 0 0 0 0 0 0 1 0 0 0 0 0 0 0 0 0 1 0 0 0 0 0 0 0 0 0 1 0 0 0 0 0 0 0 0 0 1 0 0 0 0 0 0 0 0 0 1 0 0 0 0 0 0 0 0 0 1 0 0 0 0 0 0 0 0 0 1 0 0 0 0 0 0 0 0 0 1 0 0 0 0 0 0 0 0 0 1 0 0 0 0 0 0 0 0 0 1 0 0 0 0 0 0 0 0 0 1 0 0 0 0 0 0 0 0 0 1 0 0 0 0 0 0 0 0 0 1 0 0 0 0 0 0 0 0 0 1 0 0 0 0 0 0 0 0 0 1 0 0 0 0 0 0 0 0 0 1 0 0 0 0 0 0 0 0 0 1 0 0 0 0 0 0 0 0 0 1 0 0 0 0 0 0 0 0 0 1 0 0 0 0 0 0 0 0 0 1 0 0 0 0 0 0 0 0 0 1 0 0 0 0 0 0 0 0 0 1 0 0 0 0 0 0 0 0 0 1 0 0 0 0 0 0 0 0 0 1 0 0 0 0 0 0 0 0 0 1 0 0 0 0 0 0 0 0 0 1 0 0 0 0 0 0 0 0 0 1 0 0 0 0 0 0 0 0 0 1 0 0 0 0 0 0 0 0 0 1 0 0 0 0 0 0 0 0 0 1 0 0 0 0 0 0 0 0 0 1 0 0 0 0 0 0 0 0 0 1 0 0 0 0 0 0 0 0 0 1 0 0 0 0 0 0 0 0 0 1 0 0 0 0 0 0 0 0 0 1 0 0 0 0 0 0 0 0 0 1 0 0 0 0 0 0 0 0 0 1 0 0 0 0 0 0 0 0 0 1 0 0 0 0 0 0.3654 0.6172 0.0174 0 0 0 0 0 0 0 0.1553 0.7326 0.1121 0 0 0 0 0 0 0 0.0363 0.6863 0.2774 0 0 0 0 0 0 0 0.0005 0.455 0.5411 0.0034 0 0 0 0 0 0 0 0.2063 0.7222 0.07149999999999999 0 0 0 0 0 0 0 0.06850000000000001 0.7128 0.2187 0 0 0 0 0 0 0 0.0044 0.535 0.4602 0.0004 0 0 0 0 0 0 0 0.2867 0.6801 0.0332 0 0 0 0 0 0 0 0.1116 0.7356 0.1528 0 0 0 0 0 0 0 0.0132 0.621 0.3658 0 0 0 0 0 0 0.3604 0.6235000000000001 0.0161 0 0 0 0 0 0 0 0.1547 0.7382 0.1071 0 0 0 0 0 0 0 0.0347 0.6822 0.2831 0 0 0 0 0 0 0 0.0007 0.4544 0.5411 0.0038 0 0 0 0 0 0 0 0.2165 0.7191 0.0644 0 0 0 0 0 0 0 0.0614 0.7215 0.2171 0 0 0 0 0 0 0 0.0043 0.5458 0.4499 0 0 0 0 0 0 0 0 0.2942 0.7058 0 0 0 0 0 0 0 0 0.1053 0.8947000000000001 0 0 0 0 0 0 0 0 0.0137 0.9863 0 0 0 0 0 0 0 0.3633 0.6223 0.0144 0 0 0 0 0 0 0 0.1536 0.7416 0.1048 0 0 0 0 0 0 0 0.0366 0.6775 0.2859 0 0 0 0 0 0 0 0.0008 0.4522 0.547 0 0 0 0 0 0 0 0 0.2214 0.7786 0 0 0 0 0 0 0 0 0.0634 0.9366 0 0 0 0 0 0 0 0 0.0054 0.9946 0 0 0 0 0 0 0 0 0 1 0 0 0 0 0 0 0 0 0 1 0 0 0 0 0 0 0 0 0 1 0 0 0 0 0 0 0 0 0.3652 0.6348 0 0 0 0 0 0 0 0 0.1571 0.8429 0 0 0 0 0 0 0 0 0.0333 0.9667 0 0 0 0 0 0 0 0 0.0005 0.9995000000000001 0 0 0 0 0 0 0 0 0 1 0 0 0 0 0 0 0 0 0 1 0 0 0 0 0 0 0 0 0 1 0 0 0 0 0 0 0 0 0 1 0 0 0 0 0 0 0 0 0 1 0 0 0 0 0 0 0 0 0 1 0 0 0 0 0 0 0 0 0 1 0 0 0 0 0 0 0 0 0 1 0 0 0 0 0 0 0 0 0 1 0 0 0 0 0 0 0 0 0 1 0 0 0 0 0 0 0 0 0 1 0 0 0 0 0 0 0 0 0 1 0 0 0 0 0 0 0 0 0 1 0 0 0 0 0 0 0 0 0 1 0 0 0 0 0 0 0 0 0 1 0 0 0 0 0 0 0 0 0 1 0 0 0 0 0 0 0 0 0 1 0 0 0 0 0 0 0 0 0 1 0 0 0 0 0 0 0 0 0 1 0 0 0 0 0 0 0 0 0 1 0 0 0 0 0 0 0 0 0 1 0 0 0 0 0 0 0 0 0 1 0 0 0 0 0 0 0 0 0 1 0 0 0 0 0 0 0 0 0 1 0 0 0 0 0 0 0 0 0 1 0 0 0 0 0 0 0 0 0 1 0 0 0 0 0 0 0 0 0 1 0 0 0 0 0 0 0 0 0 1 0 0 0 0 0 0 0 0 0 1 0 0 0 0 0 0 0 0 0 1 0 0 0 0 0 0 0 0 0 1 0 0 0 0 0 0 0 0 0 1 0 0 0 0 0 0 0 0 0 1 0 0 0 0 0 0 0 0 0 1 0 0 0 0 0 0 0 0 0 1 0 0 0 0 0 0 0 0 0 1 0 0 0 0 0 0 0 0 0 1 0 0 0 0 0 0 0 0 0 1 0 0 0 0 0 0 0 0 0 1 0 0 0 0 0 0 0 0 0 1 0 0 0 0 0 0 0 0 0 1 0 0 0 0 0 0 0 0 0 1 0 0 0 0 0 0 0 0 0 1 0 0 0 0 0 0 0 0 0 1 0 0 0 0 0 0 0 0 0 1 0 0 0 0 0 0 0 0 0 1 0 0 0 0 0 0 0 0 0 1 0 0 0 0 0 0 0 0 0 1 0 0 0 0 0 0 0 0 0 1 0 0 0 0 0 0 0 0 0 1 0 0 0 0 0 0 0 0 0 1 0 0 0 0 0 0 0 0 0 1 0 0 0 0 0 0 0 0 0 1 0 0 0 0 0 0 0 0 0 1 0 0 0 0 0 0 0 0 0 1 0 0 0 0 0 0 0 0 0 1 0 0 0 0 0 0 0 0 0 1 0 0 0 0 0 0 0 0 0 1 0 0 0 0 0 0 0 0 0 1 0 0 0 0 0 0 0 0 0 1 0 0 0 0 0 0 0 0 0 1 0 0 0 0 0 0 0 0 0 1 0 0 0 0 0 0 0 0 0 1 0 0 0 0 0 0 0 0 0 1 0 0 0 0 0 0 0 0 0 1 0 0 0 0 0 0 0 0 0 1 0 0 0 0 0 0 0.3652 0.6223 0.0125 0 0 0 0 0 0 0 0.1587 0.7373 0.104 0 0 0 0 0 0 0 0.0353 0.6811 0.2836 0 0 0 0 0 0 0 0.0004 0.4486 0.5459000000000001 0.0051 0 0 0 0 0 0 0 0.2187 0.7171999999999999 0.0641 0 0 0 0 0 0 0 0.0689 0.7134 0.2177 0 0 0 0 0 0 0 0.0044 0.5312 0.4644 0 0 0 0 0 0 0 0 0.2873 0.7127 0 0 0 0 0 0 0 0 0.107 0.893 0 0 0 0 0 0 0 0 0.0164 0.9836 0 0 0 0 0 0 0 0.3608 0.6259 0.0133 0 0 0 0 0 0 0 0.1589 0.7347 0.1064 0 0 0 0 0 0 0 0.0401 0.6729000000000001 0.287 0 0 0 0 0 0 0 0.0005 0.4588 0.5407 0 0 0 0 0 0 0 0 0.2125 0.7875 0 0 0 0 0 0 0 0 0.0659 0.9341 0 0 0 0 0 0 0 0 0.0041 0.9959 0 0 0 0 0 0 0 0 0 1 0 0 0 0 0 0 0 0 0 1 0 0 0 0 0 0 0 0 0 1 0 0 0 0 0 0 0 0 0.3686 0.6314 0 0 0 0 0 0 0 0 0.1526 0.8474 0 0 0 0 0 0 0 0 0.0335 0.9665 0 0 0 0 0 0 0 0 0.0003 0.9997 0 0 0 0 0 0 0 0 0 1 0 0 0 0 0 0 0 0 0 1 0 0 0 0 0 0 0 0 0 1 0 0 0 0 0 0 0 0 0 1 0 0 0 0 0 0 0 0 0 1 0 0 0 0 0 0 0 0 0 1 0 0 0 0 0 0 0 0 0 1 0 0 0 0 0 0 0 0 0 1 0 0 0 0 0 0 0 0 0 1 0 0 0 0 0 0 0 0 0 1 0 0 0 0 0 0 0 0 0 1 0 0 0 0 0 0 0 0 0 1 0 0 0 0 0 0 0 0 0 1 0 0 0 0 0 0 0 0 0 1 0 0 0 0 0 0 0 0 0 1 0 0 0 0 0 0 0 0 0 1 0 0 0 0 0 0 0 0 0 1 0 0 0 0 0 0 0 0 0 1 0 0 0 0 0 0 0 0 0 1 0 0 0 0 0 0 0 0 0 1 0 0 0 0 0 0 0 0 0 1 0 0 0 0 0 0 0 0 0 1 0 0 0 0 0 0 0 0 0 1 0 0 0 0 0 0 0 0 0 1 0 0 0 0 0 0 0 0 0 1 0 0 0 0 0 0 0 0 0 1 0 0 0 0 0 0 0 0 0 1 0 0 0 0 0 0 0 0 0 1 0 0 0 0 0 0 0 0 0 1 0 0 0 0 0 0 0 0 0 1 0 0 0 0 0 0 0 0 0 1 0 0 0 0 0 0 0 0 0 1 0 0 0 0 0 0 0 0 0 1 0 0 0 0 0 0 0 0 0 1 0 0 0 0 0 0 0 0 0 1 0 0 0 0 0 0 0 0 0 1 0 0 0 0 0 0 0 0 0 1 0 0 0 0 0 0 0 0 0 1 0 0 0 0 0 0 0 0 0 1 0 0 0 0 0 0 0 0 0 1 0 0 0 0 0 0 0 0 0 1 0 0 0 0 0 0 0 0 0 1 0 0 0 0 0 0 0 0 0 1 0 0 0 0 0 0 0 0 0 1 0 0 0 0 0 0 0 0 0 1 0 0 0 0 0 0 0 0 0 1 0 0 0 0 0 0 0 0 0 1 0 0 0 0 0 0 0 0 0 1 0 0 0 0 0 0 0 0 0 1 0 0 0 0 0 0 0 0 0 1 0 0 0 0 0 0 0 0 0 1 0 0 0 0 0 0 0 0 0 1 0 0 0 0 0 0 0 0 0 1 0 0 0 0 0 0 0 0 0 1 0 0 0 0 0 0 0 0 0 1 0 0 0 0 0 0 0 0 0 1 0 0 0 0 0 0 0 0 0 1 0 0 0 0 0 0 0 0 0 1 0 0 0 0 0 0 0 0 0 1 0 0 0 0 0 0 0 0 0 1 0 0 0 0 0 0 0 0 0 1 0 0 0 0 0 0 0 0 0 1 0 0 0 0 0 0 0 0 0 1 0 0 0 0 0 0 0 0 0 1 0 0 0 0 0 0 0 0 0 1 0 0 0 0 0 0 0 0 0 1 0 0 0 0 0 0 0 0 0 1 0 0 0 0 0 0 0 0 0 1 0 0 0 0 0 0 0 0 0 1 0 0 0 0 0 0 0 0 0 1 0 0 0 0 0 0 0 0 0 1 0 0 0 0 0 0 0 0 0 1 0 0 0 0 0 0 0 0 0 1 0 0 0 0 0 0 0 0 0 1 0 0 0 0 0 0 0 0 0 1 0 0 0 0 0 0 0 0 0 1 0 0 0 0 0 0 0 0.3696 0.6133 0.0171 0 0 0 0 0 0 0 0.1585 0.7353 0.1062 0 0 0 0 0 0 0 0.0312 0.6874 0.2814 0 0 0 0 0 0 0 0.0008 0.4585 0.5407 0 0 0 0 0 0 0 0 0.2197 0.7803 0 0 0 0 0 0 0 0 0.0674 0.9326 0 0 0 0 0 0 0 0 0.0043 0.9957 0 0 0 0 0 0 0 0 0 1 0 0 0 0 0 0 0 0 0 1 0 0 0 0 0 0 0 0 0 1 0 0 0 0 0 0 0 0 0.3648 0.6352 0 0 0 0 0 0 0 0 0.1587 0.8413 0 0 0 0 0 0 0 0 0.0374 0.9626 0 0 0 0 0 0 0 0 0.0005 0.9995000000000001 0 0 0 0 0 0 0 0 0 1 0 0 0 0 0 0 0 0 0 1 0 0 0 0 0 0 0 0 0 1 0 0 0 0 0 0 0 0 0 1 0 0 0 0 0 0 0 0 0 1 0 0 0 0 0 0 0 0 0 1 0 0 0 0 0 0 0 0 0 1 0 0 0 0 0 0 0 0 0 1 0 0 0 0 0 0 0 0 0 1 0 0 0 0 0 0 0 0 0 1 0 0 0 0 0 0 0 0 0 1 0 0 0 0 0 0 0 0 0 1 0 0 0 0 0 0 0 0 0 1 0 0 0 0 0 0 0 0 0 1 0 0 0 0 0 0 0 0 0 1 0 0 0 0 0 0 0 0 0 1 0 0 0 0 0 0 0 0 0 1 0 0 0 0 0 0 0 0 0 1 0 0 0 0 0 0 0 0 0 1 0 0 0 0 0 0 0 0 0 1 0 0 0 0 0 0 0 0 0 1 0 0 0 0 0 0 0 0 0 1 0 0 0 0 0 0 0 0 0 1 0 0 0 0 0 0 0 0 0 1 0 0 0 0 0 0 0 0 0 1 0 0 0 0 0 0 0 0 0 1 0 0 0 0 0 0 0 0 0 1 0 0 0 0 0 0 0 0 0 1 0 0 0 0 0 0 0 0 0 1 0 0 0 0 0 0 0 0 0 1 0 0 0 0 0 0 0 0 0 1 0 0 0 0 0 0 0 0 0 1 0 0 0 0 0 0 0 0 0 1 0 0 0 0 0 0 0 0 0 1 0 0 0 0 0 0 0 0 0 1 0 0 0 0 0 0 0 0 0 1 0 0 0 0 0 0 0 0 0 1 0 0 0 0 0 0 0 0 0 1 0 0 0 0 0 0 0 0 0 1 0 0 0 0 0 0 0 0 0 1 0 0 0 0 0 0 0 0 0 1 0 0 0 0 0 0 0 0 0 1 0 0 0 0 0 0 0 0 0 1 0 0 0 0 0 0 0 0 0 1 0 0 0 0 0 0 0 0 0 1 0 0 0 0 0 0 0 0 0 1 0 0 0 0 0 0 0 0 0 1 0 0 0 0 0 0 0 0 0 1 0 0 0 0 0 0 0 0 0 1 0 0 0 0 0 0 0 0 0 1 0 0 0 0 0 0 0 0 0 1 0 0 0 0 0 0 0 0 0 1 0 0 0 0 0 0 0 0 0 1 0 0 0 0 0 0 0 0 0 1 0 0 0 0 0 0 0 0 0 1 0 0 0 0 0 0 0 0 0 1 0 0 0 0 0 0 0 0 0 1 0 0 0 0 0 0 0 0 0 1 0 0 0 0 0 0 0 0 0 1 0 0 0 0 0 0 0 0 0 1 0 0 0 0 0 0 0 0 0 1 0 0 0 0 0 0 0 0 0 1 0 0 0 0 0 0 0 0 0 1 0 0 0 0 0 0 0 0 0 1 0 0 0 0 0 0 0 0 0 1 0 0 0 0 0 0 0 0 0 1 0 0 0 0 0 0 0 0 0 1 0 0 0 0 0 0 0 0 0 1 0 0 0 0 0 0 0 0 0 1 0 0 0 0 0 0 0 0 0 1 0 0 0 0 0 0 0 0 0 1 0 0 0 0 0 0 0 0 0 1 0 0 0 0 0 0 0 0 0 1 0 0 0 0 0 0 0 0 0 1 0 0 0 0 0 0 0 0 0 1 0 0 0 0 0 0 0 0 0 1 0 0 0 0 0 0 0 0 0 1 0 0 0 0 0 0 0 0 0 1 0 0 0 0 0 0 0 0 0 1 0 0 0 0 0 0 0 0 0 1 0 0 0 0 0 0 0 0 0 1 0 0 0 0 0 0 0 0 0 1 0 0 0 0 0 0 0 0 0 1 0 0 0 0 0 0 0 0 0 1 0 0 0 0 0 0 0 0 0 1 0 0 0 0 0 0 0 0 0 1 0 0 0 0 0 0 0 0 0.3622 0.6378 0 0 0 0 0 0 0 0 0.1576 0.8424 0 0 0 0 0 0 0 0 0.0354 0.9646 0 0 0 0 0 0 0 0 0.0005999999999999999 0.9994 0 0 0 0 0 0 0 0 0 1 0 0 0 0 0 0 0 0 0 1 0 0 0 0 0 0 0 0 0 1 0 0 0 0 0 0 0 0 0 1 0 0 0 0 0 0 0 0 0 1 0 0 0 0 0 0 0 0 0 1 0 0 0 0 0 0 0 0 0 1 0 0 0 0 0 0 0 0 0 1 0 0 0 0 0 0 0 0 0 1 0 0 0 0 0 0 0 0 0 1 0 0 0 0 0 0 0 0 0 1 0 0 0 0 0 0 0 0 0 1 0 0 0 0 0 0 0 0 0 1 0 0 0 0 0 0 0 0 0 1 0 0 0 0 0 0 0 0 0 1 0 0 0 0 0 0 0 0 0 1 0 0 0 0 0 0 0 0 0 1 0 0 0 0 0 0 0 0 0 1 0 0 0 0 0 0 0 0 0 1 0 0 0 0 0 0 0 0 0 1 0 0 0 0 0 0 0 0 0 1 0 0 0 0 0 0 0 0 0 1 0 0 0 0 0 0 0 0 0 1 0 0 0 0 0 0 0 0 0 1 0 0 0 0 0 0 0 0 0 1 0 0 0 0 0 0 0 0 0 1 0 0 0 0 0 0 0 0 0 1 0 0 0 0 0 0 0 0 0 1 0 0 0 0 0 0 0 0 0 1 0 0 0 0 0 0 0 0 0 1 0 0 0 0 0 0 0 0 0 1 0 0 0 0 0 0 0 0 0 1 0 0 0 0 0 0 0 0 0 1 0 0 0 0 0 0 0 0 0 1 0 0 0 0 0 0 0 0 0 1 0 0 0 0 0 0 0 0 0 1 0 0 0 0 0 0 0 0 0 1 0 0 0 0 0 0 0 0 0 1 0 0 0 0 0 0 0 0 0 1 0 0 0 0 0 0 0 0 0 1 0 0 0 0 0 0 0 0 0 1 0 0 0 0 0 0 0 0 0 1 0 0 0 0 0 0 0 0 0 1 0 0 0 0 0 0 0 0 0 1 0 0 0 0 0 0 0 0 0 1 0 0 0 0 0 0 0 0 0 1 0 0 0 0 0 0 0 0 0 1 0 0 0 0 0 0 0 0 0 1 0 0 0 0 0 0 0 0 0 1 0 0 0 0 0 0 0 0 0 1 0 0 0 0 0 0 0 0 0 1 0 0 0 0 0 0 0 0 0 1 0 0 0 0 0 0 0 0 0 1 0 0 0 0 0 0 0 0 0 1 0 0 0 0 0 0 0 0 0 1 0 0 0 0 0 0 0 0 0 1 0 0 0 0 0 0 0 0 0 1 0 0 0 0 0 0 0 0 0 1 0 0 0 0 0 0 0 0 0 1 0 0 0 0 0 0 0 0 0 1 0 0 0 0 0 0 0 0 0 1 0 0 0 0 0 0 0 0 0 1 0 0 0 0 0 0 0 0 0 1 0 0 0 0 0 0 0 0 0 1 0 0 0 0 0 0 0 0 0 1 0 0 0 0 0 0 0 0 0 1 0 0 0 0 0 0 0 0 0 1 0 0 0 0 0 0 0 0 0 1 0 0 0 0 0 0 0 0 0 1 0 0 0 0 0 0 0 0 0 1 0 0 0 0 0 0 0 0 0 1 0 0 0 0 0 0 0 0 0 1 0 0 0 0 0 0 0 0 0 1 0 0 0 0 0 0 0 0 0 1 0 0 0 0 0 0 0 0 0 1 0 0 0 0 0 0 0 0 0 1 0 0 0 0 0 0 0 0 0 1 0 0 0 0 0 0 0 0 0 1 0 0 0 0 0 0 0 0 0 1 0 0 0 0 0 0 0 0 0 1 0 0 0 0 0 0 0 0 0 1 0 0 0 0 0 0 0 0 0 1 0 0 0 0 0 0 0 0 0 1 0 0 0 0 0 0 0 0 0 1 0 0 0 0 0 0 0 0 0 1 0 0 0 0 0 0 0 0 0 1 0 0 0 0 0 0 0 0 0 1 0 0 0 0 0 0 0 0 0 1 0 0 0 0 0 0 0 0 0 1 0 0 0 0 0 0 0 0 0 1 0 0 0 0 0 0 0 0 0 1 0 0 0 0 0 0 0 0 0 1 0 0 0 0 0 0 0 0 0 1 0 0 0 0 0 0 0 0 0 1 0 0 0 0 0 0 0 0 0 1 0 0 0 0 0 0 0 0 0 1 0 0 0 0 0 0 0 0 0 1 0 0 0 0 0 0 0 0 0 1 0 0 0 0 0 0 0 0 0 1 0 0 0 0 0 0 0 0 0 1 0 0 0 0 0 0 0 0 0 1 0 0 0 0 0 0 0 0 0 1 0 0 0 0 0 0 0 0 0 1 0 0 0 0 0 0 0 0 0 1 0 0 0 0 0 0 0 0 0 1 0 0 0 0 0 0 0 0 0 1 0 0 0 0 0 0 0 0 0 1 0 0 0 0 0 0 0 0 0 1 0 0 0 0 0 0 0 0 0 1 0 0 0 0 0 0 0 0 0 1 0 0 0 0 0 0 0 0 0 1 0 0 0 0 0 0 0 0 0 1 0 0 0 0 0 0 0 0 0 1 0 0 0 0 0 0 0 0 0 1 0 0 0 0 0 0 0 0 0 1 0 0 0 0 0 0 0 0 0 1 0 0 0 0 0 0 0 0 0 1 0 0 0 0 0 0 0 0 0 1 0 0 0 0 0 0 0 0 0 1 0 0 0 0 0 0 0 0 0 1 0 0 0 0 0 0 0 0 0 1 0 0 0 0 0 0 0 0 0 1 0 0 0 0 0 0 0 0 0 1 0 0 0 0 0 0 0 0 0 1 0 0 0 0 0 0 0 0 0 1 0 0 0 0 0 0 0 0 0 1 0 0 0 0 0 0 0 0 0 1 0 0 0 0 0 0 0 0 0 1 0 0 0 0 0 0 0 0 0 1 0 0 0 0 0 0 0 0 0 1 0 0 0 0 0 0 0 0 0 1 0 0 0 0 0 0 0 0 0 1 0 0 0 0 0 0 0 0 0 1 0 0 0 0 0 0 0 0 0 1 0 0 0 0 0 0 0 0 0 1 0 0 0 0 0 0 0 0 0 1 0 0 0 0 0 0 0 0 0 1 0 0 0 0 0 0 0 0 0 1 0 0 0 0 0 0 0 0 0 1 0 0 0 0 0 0 0 0 0 1 0 0 0 0 0 0 0 0 0 1 0 0 0 0 0 0 0 0 0 1 0 0 0 0 0 0 0 0 0 1 0 0 0 0 0 0 0 0 0 1 0 0 0 0 0 0 0 0 0 1 0 0 0 0 0 0 0 0 0 1 0 0 0 0 0 0 0 0 0 1 0 0 0 0 0 0 0 0 0 1 0 0 0 0 0 0 0 0 0 1 0 0 0 0 0 0 0 0 0 1 0 0 0 0 0 0 0 0 0 1 0 0 0 0 0 0 0 0 0 1 0 0 0 0 0 0 0 0 0 1 0 0 0 0 0 0 0 0 0 1 0 0 0 0 0 0 0 0 0 1 0 0 0 0 0 0 0 0 0 1 0 0 0 0 0 0 0 0 0 1 0 0 0 0 0 0 0 0 0 1 0 0 0 0 0 0 0 0 0 1 0 0 0 0 0 0 0 0 0 1 0 0 0 0 0 0 0 0 0 1 0 0 0 0 0 0 0 0 0 1 0 0 0 0 0 0 0 0 0 1 0 0 0 0 0 0 0 0 0 1 0 0 0 0 0 0 0 0 0 1 0 0 0 0 0 0 0 0 0 1 0 0 0 0 0 0 0 0 0 1 0 0 0 0 0 0 0 0 0 1 0 0 0 0 0 0 0 0 0 1 0 0 0 0 0 0 0 0 0 1 0 0 0 0 0 0 0 0 0 1 0 0 0 0 0 0 0 0 0 1 0 0 0 0 0 0 0 0 0 1 0 0 0 0 0 0 0 0 0 1 0 0 0 0 0 0 0 0 0 1 0 0 0 0 0 0 0 0 0 1 0 0 0 0 0 0 0 0 0 1 0 0 0 0 0 0 0 0 0 1 0 0 0 0 0 0 0 0 0 1 0 0 0 0 0 0 0 0 0 1 0 0 0 0 0 0 0 0 0 1 0 0 0 0 0 0 0 0 0 1 0 0 0 0 0 0 0 0 0 1 0 0 0 0 0 0 0 0 0 1 0 0 0 0 0 0 0 0 0 1 0 0 0 0 0 0 0 0 0 1 0 0 0 0 0 0 0 0 0 1 0 0 0 0 0 0 0 0 0 1 0 0 0 0 0 0 0 0 0 1 0 0 0 0 0 0 0 0 0 1 0 0 0 0 0 0 0 0 0 1 0 0 0 0 0 0 0 0 0 1 0 0 0 0 0 0 0 0 0 1 0 0 0 0 0 0 0 0 0 1 0 0 0 0 0 0 0 0 0 1 0 0 0 0 0 0 0 0 0 1</probabilities>
		</cpt>
		<cpt id="expected_frequency_of_motor_saturation">
			<state id="p1000min" />
			<state id="p0500min" />
			<state id="p0200min" />
			<state id="p0100min" />
			<state id="p0050min" />
			<state id="p0020min" />
			<state id="p0010min" />
			<state id="p0005min" />
			<state id="p0002min" />
			<state id="p0001min" />
			<parents>compond_motoruse_badness</parents>
			<probabilities>1 0 0 0 0 0 0 0 0 0 1 0 0 0 0 0 0 0 0 0 1 0 0 0 0 0 0 0 0 0 0.8108 0.1892 0 0 0 0 0 0 0 0 0 0.8608 0.1392 0 0 0 0 0 0 0 0 0 0.6747 0.3253 0 0 0 0 0 0 0 0 0 0.1946 0.5081 0.2973 0 0 0 0 0 0 0 0 0 0.394 0.5422 0.0638 0 0 0 0 0 0 0 0 0 0.5106000000000001 0.4894 0 0 0 0 0 0 0 0 0 0.3343 0.6657</probabilities>
		</cpt>
		<cpt id="safety_margin">
			<state id="State0" />
			<state id="State1" />
			<state id="State2" />
			<state id="State3" />
			<state id="State4" />
			<state id="State5" />
			<state id="State6" />
			<state id="State7" />
			<state id="State8" />
			<state id="State9" />
			<probabilities>0.08879449838187703 0.09921116504854369 0.09466019417475728 0.1093244336569579 0.1041666666666667 0.09921116504854369 0.1056836569579288 0.1006270226537217 0.09931229773462784 0.09900889967637541</probabilities>
		</cpt>
		<cpt id="deviation_when_motor_saturate">
			<state id="State0" />
			<state id="State1" />
			<state id="State2" />
			<state id="State3" />
			<state id="State4" />
			<state id="State5" />
			<state id="State6" />
			<state id="State7" />
			<state id="State8" />
			<state id="State9" />
			<parents>compond_motoruse_badness</parents>
			<probabilities>0.2556512378902045 0.2337639038392537 0.1955507714388231 0.1420882669537137 0.08970218873340509 0.04485109436670254 0.02421959095801937 0.008790814495873699 0.003588087549336204 0.001794043774668102 0.2047164351851852 0.2078993055555556 0.197193287037037 0.138744212962963 0.1082175925925926 0.06973379629629629 0.04021990740740741 0.02126736111111111 0.008391203703703705 0.003616898148148148 0.1473591327366696 0.1812681205092651 0.1855540148745746 0.1560569771839153 0.1332408924744737 0.09176856170427329 0.05483423673263583 0.03063153914030001 0.01386612882894239 0.005420395814950208 0.1043198529411765 0.1349954044117647 0.1540670955882353 0.1610753676470588 0.1483226102941176 0.1182215073529412 0.08547794117647059 0.05158547794117647 0.02642463235294118 0.01551011029411765 0.0661049902786779 0.09915748541801685 0.1311298336573774 0.1510045366169799 0.1544610066969108 0.1423633614171527 0.11049902786779 0.07280190105854396 0.04655433138906891 0.02592352559948153 0.04037430343812428 0.07139102092314163 0.101251182840921 0.1265902639049521 0.1550835874250867 0.1459362843023867 0.1355272841972453 0.1014614656713279 0.07202186941436231 0.0503627378824519 0.02110236220472441 0.0426246719160105 0.0737007874015748 0.1026771653543307 0.131758530183727 0.1524409448818898 0.1499212598425197 0.1329133858267716 0.1021522309711286 0.09070866141732284 0.01109435588108574 0.02251184834123223 0.0492244722102542 0.07022834984920293 0.1108358466178371 0.1362559241706161 0.1584446359327876 0.1517664799655321 0.1445497630331753 0.1450883239982766 0.004886918968064553 0.01341061484259575 0.026139334015229 0.04807364473235595 0.07853165132401409 0.1180816001818388 0.1472894647118991 0.166496192749176 0.1792249119218093 0.2178656665530174 0.002889084285893732 0.006155005652556211 0.0158271573922874 0.03429217434995604 0.06117321944479337 0.09961060168320562 0.1371686973998242 0.1661851526190177 0.1926893606330863 0.2840095465393795</probabilities>
		</cpt>
		<cpt id="motor_saturation_caused_deviation_beyond_safety_margin">
			<state id="false" />
			<state id="true" />
			<parents>safety_margin deviation_when_motor_saturate</parents>
			<probabilities>1 0 0.3643 0.6357 0 1 0 1 0 1 0 1 0 1 0 1 0 1 0 1 1 0 0.9534 0.0466 0.1754 0.8246 0 1 0 1 0 1 0 1 0 1 0 1 0 1 1 0 1 0 0.8742 0.1258 0.08690000000000001 0.9131 0 1 0 1 0 1 0 1 0 1 0 1 1 0 1 0 1 0 0.7469 0.2531 0.0214 0.9786 0 1 0 1 0 1 0 1 0 1 1 0 1 0 1 0 1 0 0.5872000000000001 0.4128 0 1 0 1 0 1 0 1 0 1 1 0 1 0 1 0 1 0 1 0 0.4111 0.5889 0 1 0 1 0 1 0 1 1 0 1 0 1 0 1 0 1 0 0.9772 0.0228 0.2468 0.7532 0 1 0 1 0 1 1 0 1 0 1 0 1 0 1 0 1 0 0.9176 0.0824 0.1254 0.8746 0 1 0 1 1 0 1 0 1 0 1 0 1 0 1 0 1 0 0.8185 0.1815 0.0424 0.9576 0 1 1 0 1 0 1 0 1 0 1 0 1 0 1 0 1 0 0.6175 0.3825 0 1</probabilities>
		</cpt>
		<cpt id="frequency_of_motor_saturation_exceeding_safety_margin">
			<state id="p1000min" />
			<state id="p0500min" />
			<state id="p0200min" />
			<state id="p0100min" />
			<state id="p0050min" />
			<state id="p0020min" />
			<state id="p0010min" />
			<state id="p0005min" />
			<state id="p0002min" />
			<state id="p0001min" />
			<parents>expected_frequency_of_motor_saturation motor_saturation_caused_deviation_beyond_safety_margin</parents>
			<probabilities>1 0 0 0 0 0 0 0 0 0 1 0 0 0 0 0 0 0 0 0 1 0 0 0 0 0 0 0 0 0 0 1 0 0 0 0 0 0 0 0 1 0 0 0 0 0 0 0 0 0 0 0 1 0 0 0 0 0 0 0 1 0 0 0 0 0 0 0 0 0 0 0 0 1 0 0 0 0 0 0 1 0 0 0 0 0 0 0 0 0 0 0 0 0 1 0 0 0 0 0 1 0 0 0 0 0 0 0 0 0 0 0 0 0 0 1 0 0 0 0 1 0 0 0 0 0 0 0 0 0 0 0 0 0 0 0 1 0 0 0 1 0 0 0 0 0 0 0 0 0 0 0 0 0 0 0 0 1 0 0 1 0 0 0 0 0 0 0 0 0 0 0 0 0 0 0 0 0 1 0 1 0 0 0 0 0 0 0 0 0 0 0 0 0 0 0 0 0 0 1</probabilities>
		</cpt>
		<cpt id="hitting_obstacle_causes_loss_of_control">
			<state id="false" />
			<state id="true" />
			<parents>max_speed_setpoint</parents>
			<probabilities>0.9957 0.0043 0.9779 0.0221 0.9393 0.0607 0.8776 0.1224 0.8008 0.1992 0.7025 0.2975 0.5726 0.4274 0.4379 0.5621 0.2884 0.7116 0.1014 0.8986</probabilities>
		</cpt>
		<cpt id="expected_frequency_of_disturbance_causing_deviation_beyond_safety_margin">
			<state id="p1000min" />
			<state id="p0500min" />
			<state id="p0200min" />
			<state id="p0100min" />
			<state id="p0050min" />
			<state id="p0020min" />
			<state id="p0010min" />
			<state id="p0005min" />
			<state id="p0002min" />
			<state id="p0001min" />
			<parents>turbulence safety_margin</parents>
			<probabilities>0.8857 0.0349 0.0372 0.0245 0.0147 0.003 0 0 0 0 1 0 0 0 0 0 0 0 0 0 1 0 0 0 0 0 0 0 0 0 1 0 0 0 0 0 0 0 0 0 1 0 0 0 0 0 0 0 0 0 1 0 0 0 0 0 0 0 0 0 1 0 0 0 0 0 0 0 0 0 1 0 0 0 0 0 0 0 0 0 1 0 0 0 0 0 0 0 0 0 1 0 0 0 0 0 0 0 0 0 0.0243 0.0266 0.0649 0.06900000000000001 0.1087 0.2375 0.2457 0.1897 0.0336 0 0.4275 0.096 0.1525 0.1248 0.1094 0.08740000000000001 0.0024 0 0 0 0.9197 0.0518 0.0285 0 0 0 0 0 0 0 1 0 0 0 0 0 0 0 0 0 1 0 0 0 0 0 0 0 0 0 1 0 0 0 0 0 0 0 0 0 1 0 0 0 0 0 0 0 0 0 1 0 0 0 0 0 0 0 0 0 1 0 0 0 0 0 0 0 0 0 1 0 0 0 0 0 0 0 0 0 0 0 0 0 0 0 0.0492 0.3233 0.6274999999999999 0 0 0 0 0.0207 0.08599999999999999 0.2933 0.3808 0.2186 0.0005999999999999999 0 0.0544 0.07580000000000001 0.1861 0.2032 0.2496 0.2201 0.0108 0 0 0 0.5165 0.1661 0.2114 0.0927 0.0133 0 0 0 0 0 0.9626 0.0371 0.0003 0 0 0 0 0 0 0 1 0 0 0 0 0 0 0 0 0 1 0 0 0 0 0 0 0 0 0 1 0 0 0 0 0 0 0 0 0 1 0 0 0 0 0 0 0 0 0 1 0 0 0 0 0 0 0 0 0 0 0 0 0 0 0 0 0 0.8825 0.1175 0 0 0 0 0 0 0.07290000000000001 0.5511 0.376 0 0 0 0 0 0.0207 0.3057 0.5122 0.1614 0 0 0 0 0.0597 0.1742 0.3422 0.3978 0.0261 0 0 0 0.1104 0.159 0.3332 0.2634 0.1329 0.0011 0 0 0 0 0.6119 0.2239 0.1602 0.004 0 0 0 0 0 0 0.9905 0.0095 0 0 0 0 0 0 0 0 1 0 0 0 0 0 0 0 0 0 1 0 0 0 0 0 0 0 0 0 1 0 0 0 0 0 0 0 0 0 0 0 0 0 0 0 0 0 0.4717 0.5283 0 0 0 0 0 0 0 0.048 0.952 0 0 0 0 0 0 0 0.111 0.7429 0.1461 0 0 0 0 0 0 0.2624 0.6246 0.113 0 0 0 0 0 0.0526 0.2895 0.6066 0.0513 0 0 0 0 0.0163 0.2259 0.3798 0.3261 0.0519 0 0 0 0 0.176 0.2592 0.4131 0.1515 0.0002 0 0 0 0 0 0.709 0.2247 0.0663 0 0 0 0 0 0 0 0.9997 0.0003 0 0 0 0 0 0 0 0 1 0 0 0 0 0 0 0 0 0 0 0 0 0 0 0 0 0 0.0862 0.9137999999999999 0 0 0 0 0 0 0 0 0.9709 0.0291 0 0 0 0 0 0 0 0.2161 0.7839 0 0 0 0 0 0 0 0.1578 0.8245 0.0177 0 0 0 0 0 0 0.2129 0.7124 0.0747 0 0 0 0 0 0 0.1621 0.7558 0.08210000000000001 0 0 0 0 0 0.0328 0.2891 0.5145999999999999 0.1635 0 0 0 0 0 0.0859 0.4354 0.3995 0.07920000000000001 0 0 0 0 0 0.2545 0.3443 0.3812 0.02 0 0 0 0 0 0 0.8021 0.1877 0.0102 0 0 0 0 0 0 0 0 0 0 0 0 0 0 0 0 1 0 0 0 0 0 0 0 0 0.678 0.322 0 0 0 0 0 0 0 0 1 0 0 0 0 0 0 0 0 0.485 0.515 0 0 0 0 0 0 0 0.2224 0.7776 0 0 0 0 0 0 0 0.1542 0.7975 0.0483 0 0 0 0 0 0 0.0506 0.8294 0.12 0 0 0 0 0 0 0.0955 0.5686 0.3359 0 0 0 0 0 0 0.1783 0.5309 0.2908 0 0 0 0 0 0.0066 0.1862 0.6011 0.2061 0 0 0 0 0 0 0 0 0 0 0 0 0 0 0 1 0 0 0 0 0 0 0 0 0.3051 0.6949 0 0 0 0 0 0 0 0 1 0 0 0 0 0 0 0 0 0.0107 0.9893 0 0 0 0 0 0 0 0 0.7614 0.2386 0 0 0 0 0 0 0 0.2667 0.7333 0 0 0 0 0 0 0 0.1033 0.8744 0.0223 0 0 0 0 0 0 0.0019 0.8299 0.1682 0 0 0 0 0 0 0.0032 0.43 0.5668 0 0 0 0 0 0 0.0125 0.4052 0.5625 0.0198 0 0 0 0 0 0 0 0 0 0 0 0 0 1 0 0 0 0 0 0 0 0 0.0192 0.9808 0 0 0 0 0 0 0 0 0.9077 0.09229999999999999 0 0 0 0 0 0 0 0 1 0 0 0 0 0 0 0 0 0.1209 0.8791 0 0 0 0 0 0 0 0 0.9377 0.0623 0 0 0 0 0 0 0 0.348 0.652 0 0 0 0 0 0 0 0.0752 0.919 0.0058 0 0 0 0 0 0 0 0.7855 0.2145 0 0 0 0 0 0 0 0.2317 0.7683 0 0 0 0 0 0 0 0 0 0 0 0 0 1 0 0 0 0 0 0 0 0 0 1 0 0 0 0 0 0 0 0 0.5493 0.4507 0 0 0 0 0 0 0 0 1 0 0 0 0 0 0 0 0 0 1 0 0 0 0 0 0 0 0 0.3504 0.6496 0 0 0 0 0 0 0 0 1 0 0 0 0 0 0 0 0 0.4366 0.5634 0 0 0 0 0 0 0 0.0453 0.9543 0.0004 0 0 0 0 0 0 0 0.7232 0.2768 0 0 0</probabilities>
		</cpt>
		<cpt id="frequency_of_hitting_obstacles">
			<state id="p1000min" />
			<state id="p0500min" />
			<state id="p0200min" />
			<state id="p0100min" />
			<state id="p0050min" />
			<state id="p0020min" />
			<state id="p0010min" />
			<state id="p0005min" />
			<state id="p0002min" />
			<state id="p0001min" />
			<parents>frequency_of_motor_saturation_exceeding_safety_margin expected_frequency_of_disturbance_causing_deviation_beyond_safety_margin</parents>
			<probabilities>0.5003 0.4997 0 0 0 0 0 0 0 0 0 0.5002 0.4998 0 0 0 0 0 0 0 0 0 0.8295 0.1705 0 0 0 0 0 0 0 0 0 0.8999 0.1001 0 0 0 0 0 0 0 0 0 0.9457 0.0543 0 0 0 0 0 0 0 0 0 0.9835 0.0165 0 0 0 0 0 0 0 0 0 0.9893 0.0107 0 0 0 0 0 0 0 0 0 0.9935 0.0065 0 0 0 0 0 0 0 0 0 0.9983 0.0017 0 0 0 0 0 0 0 0 0 1 0 0.5082 0.4918 0 0 0 0 0 0 0 0 0 1 0 0 0 0 0 0 0 0 0 0.4869 0.5131 0 0 0 0 0 0 0 0 0 0.6952 0.3048 0 0 0 0 0 0 0 0 0 0.849 0.151 0 0 0 0 0 0 0 0 0 0.9478 0.0522 0 0 0 0 0 0 0 0 0 0.9729 0.0271 0 0 0 0 0 0 0 0 0 0.9842 0.0158 0 0 0 0 0 0 0 0 0 0.9954 0.0046 0 0 0 0 0 0 0 0 0 1 0 0 0.835 0.165 0 0 0 0 0 0 0 0 0.5002 0.4998 0 0 0 0 0 0 0 0 0.0581 0.9419 0 0 0 0 0 0 0 0 0 0.3033 0.6967 0 0 0 0 0 0 0 0 0 0.6485 0.3515 0 0 0 0 0 0 0 0 0 0.8814 0.1186 0 0 0 0 0 0 0 0 0 0.9311 0.0689 0 0 0 0 0 0 0 0 0 0.9677 0.0323 0 0 0 0 0 0 0 0 0 0.9871 0.0129 0 0 0 0 0 0 0 0 0 1 0 0 0 0.8967000000000001 0.1033 0 0 0 0 0 0 0 0 0.6975 0.3025 0 0 0 0 0 0 0 0 0.2891 0.7109 0 0 0 0 0 0 0 0 0 1 0 0 0 0 0 0 0 0 0 0.2515 0.7485000000000001 0 0 0 0 0 0 0 0 0 0.7447 0.2553 0 0 0 0 0 0 0 0 0 0.8514 0.1486 0 0 0 0 0 0 0 0 0 0.9274 0.0726 0 0 0 0 0 0 0 0 0 0.9733000000000001 0.0267 0 0 0 0 0 0 0 0 0 1 0 0 0 0 0.9502 0.0498 0 0 0 0 0 0 0 0 0.8454 0.1546 0 0 0 0 0 0 0 0 0.6467000000000001 0.3533 0 0 0 0 0 0 0 0 0.2431 0.7569 0 0 0 0 0 0 0 0 0 1 0 0 0 0 0 0 0 0 0 0.4924 0.5076000000000001 0 0 0 0 0 0 0 0 0 0.7003 0.2997 0 0 0 0 0 0 0 0 0 0.8568 0.1432 0 0 0 0 0 0 0 0 0 0.9487 0.0513 0 0 0 0 0 0 0 0 0 1 0 0 0 0 0 0.9829 0.0171 0 0 0 0 0 0 0 0 0.9463 0.0537 0 0 0 0 0 0 0 0 0.8883 0.1117 0 0 0 0 0 0 0 0 0.747 0.253 0 0 0 0 0 0 0 0 0.5138 0.4862 0 0 0 0 0 0 0 0 0.0575 0.9425 0 0 0 0 0 0 0 0 0 0.2922 0.7078 0 0 0 0 0 0 0 0 0 0.6519 0.3481 0 0 0 0 0 0 0 0 0 0.8817 0.1183 0 0 0 0 0 0 0 0 0 1 0 0 0 0 0 0 0.9906 0.0094 0 0 0 0 0 0 0 0 0.9707 0.0293 0 0 0 0 0 0 0 0 0.9285 0.07149999999999999 0 0 0 0 0 0 0 0 0.8463000000000001 0.1537 0 0 0 0 0 0 0 0 0.6909999999999999 0.309 0 0 0 0 0 0 0 0 0.2975 0.7025 0 0 0 0 0 0 0 0 0 1 0 0 0 0 0 0 0 0 0 0.2551 0.7449 0 0 0 0 0 0 0 0 0 0.7498 0.2502 0 0 0 0 0 0 0 0 0 1 0 0 0 0 0 0 0 0.9952 0.0048 0 0 0 0 0 0 0 0 0.9832 0.0168 0 0 0 0 0 0 0 0 0.9634 0.0366 0 0 0 0 0 0 0 0 0.9254 0.0746 0 0 0 0 0 0 0 0 0.8501 0.1499 0 0 0 0 0 0 0 0 0.6435 0.3565 0 0 0 0 0 0 0 0 0.2485 0.7514999999999999 0 0 0 0 0 0 0 0 0 1 0 0 0 0 0 0 0 0 0 0.5057 0.4943 0 0 0 0 0 0 0 0 0 1 0 0 0 0 0 0 0 0 0.9989 0.0011 0 0 0 0 0 0 0 0 0.9943 0.0057 0 0 0 0 0 0 0 0 0.9893999999999999 0.0106 0 0 0 0 0 0 0 0 0.9755 0.0245 0 0 0 0 0 0 0 0 0.9514 0.0486 0 0 0 0 0 0 0 0 0.8838 0.1162 0 0 0 0 0 0 0 0 0.7526 0.2474 0 0 0 0 0 0 0 0 0.5019 0.4981 0 0 0 0 0 0 0 0 0.0518 0.9482 0 0 0 0 0 0 0 0 0 1 0 0 0 0 0 0 0 0 0 1 0 0 0 0 0 0 0 0 0 1 0 0 0 0 0 0 0 0 0 1 0 0 0 0 0 0 0 0 0 1 0 0 0 0 0 0 0 0 0 1 0 0 0 0 0 0 0 0 0 1 0 0 0 0 0 0 0 0 0 1 0 0 0 0 0 0 0 0 0 1 0 0 0 0 0 0 0 0 0 1 0 0 0 0 0 0 0 0 0 1</probabilities>
		</cpt>
		<cpt id="frequency_of_motor_saturation_causing_loss_of_control">
			<state id="p1000min" />
			<state id="p0500min" />
			<state id="p0200min" />
			<state id="p0100min" />
			<state id="p0050min" />
			<state id="p0020min" />
			<state id="p0010min" />
			<state id="p0005min" />
			<state id="p0002min" />
			<state id="p0001min" />
			<parents>hitting_obstacle_causes_loss_of_control frequency_of_hitting_obstacles</parents>
