<?xml version="1.0" encoding="UTF-8"?>
<!-- This network was created in GeNIe Academic, which can be used for academic teaching and research purposes only -->
<smile version="1.0" id="Unnamed" numsamples="10000" discsamples="10000">
	<nodes>
		<cpt id="tether_tension_motor_use_scaling_factor" dynamic="plate">
			<state id="State0" />
			<state id="State1" />
			<state id="State2" />
			<state id="State3" />
			<state id="State4" />
			<state id="State5" />
			<state id="State6" />
			<state id="State7" />
			<state id="State8" />
			<state id="State9" />
			<probabilities>0.1142131979695431 0.1091370558375634 0.1142131979695431 0.1119571347997744 0.1063169768753525 0.09701071630005641 0.09475465313028765 0.09362662154540327 0.08347433728144388 0.07529610829103214</probabilities>
		</cpt>
		<cpt id="height_over_ground" dynamic="plate">
			<state id="State0" />
			<state id="State1" />
			<state id="State2" />
			<state id="State3" />
			<state id="State4" />
			<state id="State5" />
			<state id="State6" />
			<state id="State7" />
			<state id="State8" />
			<state id="State9" />
			<probabilities>0.05635731591699147 0.1022858948699041 0.1070262298535763 0.1018645317602444 0.1006004424312651 0.1072369114084062 0.1028125987569788 0.1047087327504477 0.1107131570630991 0.1063941851890867</probabilities>
		</cpt>
		<cpt id="drone_roll_pitch_to_counteract_tether" dynamic="plate">
			<state id="State0" />
			<state id="State1" />
			<state id="State2" />
			<state id="State3" />
			<state id="State4" />
			<state id="State5" />
			<state id="State6" />
			<state id="State7" />
			<state id="State8" />
			<state id="State9" />
			<probabilities>0.1762973868237026 0.1724328303275672 0.1639676113360324 0.1426205373573795 0.1144644828855355 0.08428413691571586 0.06404122193595878 0.03846153846153846 0.02649981597350018 0.01693043798306956</probabilities>
		</cpt>
		<cpt id="motoruse_for_tether" dynamic="plate">
			<state id="State0" />
			<state id="State1" />
			<state id="State2" />
			<state id="State3" />
			<state id="State4" />
			<state id="State5" />
			<state id="State6" />
			<state id="State7" />
			<state id="State8" />
			<state id="State9" />
			<parents>height_over_ground tether_tension_motor_use_scaling_factor drone_roll_pitch_to_counteract_tether</parents>
			<probabilities>0.9963 0.0037 0 0 0 0 0 0 0 0 0.9867 0.0133 0 0 0 0 0 0 0 0 0.9722 0.0278 0 0 0 0 0 0 0 0 0.9622000000000001 0.0378 0 0 0 0 0 0 0 0 0.9487 0.0513 0 0 0 0 0 0 0 0 0.9376 0.0624 0 0 0 0 0 0 0 0 0.9242 0.07580000000000001 0 0 0 0 0 0 0 0 0.9122 0.0878 0 0 0 0 0 0 0 0 0.8968 0.1032 0 0 0 0 0 0 0 0 0.8929 0.1071 0 0 0 0 0 0 0 0 0.9859 0.0141 0 0 0 0 0 0 0 0 0.9052 0.0948 0 0 0 0 0 0 0 0 0.7996 0.2004 0 0 0 0 0 0 0 0 0.6984 0.3016 0 0 0 0 0 0 0 0 0.6032999999999999 0.3967 0 0 0 0 0 0 0 0 0.5043 0.4957 0 0 0 0 0 0 0 0 0.4009 0.5991 0 0 0 0 0 0 0 0 0.3033 0.6938 0.0029 0 0 0 0 0 0 0 0.224 0.7486 0.0274 0 0 0 0 0 0 0 0.1735 0.7576000000000001 0.0689 0 0 0 0 0 0 0 0.9762999999999999 0.0237 0 0 0 0 0 0 0 0 0.7936 0.2064 0 0 0 0 0 0 0 0 0.5971 0.4029 0 0 0 0 0 0 0 0 0.3922 0.6078 0 0 0 0 0 0 0 0 0.1987 0.7985 0.0028 0 0 0 0 0 0 0 0.06419999999999999 0.8713 0.0645 0 0 0 0 0 0 0 0.0097 0.7758 0.2145 0 0 0 0 0 0 0 0 0.5948 0.4052 0 0 0 0 0 0 0 0 0.3941 0.6042 0.0017 0 0 0 0 0 0 0 0.2308 0.7341 0.0351 0 0 0 0 0 0 0.9613 0.0387 0 0 0 0 0 0 0 0 0.709 0.291 0 0 0 0 0 0 0 0 0.4056 0.5944 0 0 0 0 0 0 0 0 0.1116 0.8705000000000001 0.0179 0 0 0 0 0 0 0 0.0032 0.7954 0.2014 0 0 0 0 0 0 0 0 0.5004999999999999 0.4995 0 0 0 0 0 0 0 0 0.2145 0.7718 0.0137 0 0 0 0 0 0 0 0.0497 0.8041 0.1462 0 0 0 0 0 0 0 0.0018 0.6065 0.3917 0 0 0 0 0 0 0 0 0.3204 0.6626 0.017 0 0 0 0 0 0.949 0.051 0 0 0 0 0 0 0 0 0.5962 0.4038 0 0 0 0 0 0 0 0 0.2005 0.7952 0.0043 0 0 0 0 0 0 0 0.0028 0.7937 0.2035 0 0 0 0 0 0 0 0 0.3976 0.6024 0 0 0 0 0 0 0 0 0.07729999999999999 0.849 0.0737 0 0 0 0 0 0 0 0.0007 0.5994 0.3999 0 0 0 0 0 0 0 0 0.2313 0.7433999999999999 0.0253 0 0 0 0 0 0 0 0.0279 0.7393 0.2328 0 0 0 0 0 0 0 0 0.404 0.5887 0.0073 0 0 0 0 0.9381 0.0619 0 0 0 0 0 0 0 0 0.4984 0.5016 0 0 0 0 0 0 0 0 0.068 0.866 0.066 0 0 0 0 0 0 0 0 0.4999 0.5001 0 0 0 0 0 0 0 0 0.0725 0.8493000000000001 0.07820000000000001 0 0 0 0 0 0 0 0 0.4942 0.5058 0 0 0 0 0 0 0 0 0.092 0.8129999999999999 0.095 0 0 0 0 0 0 0 0.0002 0.4986 0.5003 0.0009 0 0 0 0 0 0 0 0.1111 0.7738 0.1151 0 0 0 0 0 0 0 0.002 0.5011 0.4935 0.0034 0 0 0 0.9229000000000001 0.0771 0 0 0 0 0 0 0 0 0.4017 0.5983000000000001 0 0 0 0 0 0 0 0 0.01 0.7772 0.2128 0 0 0 0 0 0 0 0 0.2068 0.7755 0.0177 0 0 0 0 0 0 0 0.0008 0.6059 0.3933 0 0 0 0 0 0 0 0 0.0891 0.8178 0.0931 0 0 0 0 0 0 0 0 0.4084 0.5881 0.0035 0 0 0 0 0 0 0 0.0323 0.7272 0.2405 0 0 0 0 0 0 0 0 0.2495 0.7062 0.0443 0 0 0 0 0 0 0 0.0108 0.5778 0.4096 0.0018 0 0 0.908 0.092 0 0 0 0 0 0 0 0 0.3051 0.6921 0.0028 0 0 0 0 0 0 0 0 0.6027 0.3973 0 0 0 0 0 0 0 0 0.0514 0.8031 0.1455 0 0 0 0 0 0 0 0 0.222 0.7526 0.0254 0 0 0 0 0 0 0 0.0002 0.4931 0.5065 0.0002 0 0 0 0 0 0 0 0.0312 0.7355 0.2333 0 0 0 0 0 0 0 0 0.1723 0.7551 0.0726 0 0 0 0 0 0 0 0.0009 0.4067 0.5772 0.0152 0 0 0 0 0 0 0 0.032 0.6349 0.3329 0.0002 0 0.8989 0.1011 0 0 0 0 0 0 0 0 0.2194 0.7549 0.0257 0 0 0 0 0 0 0 0 0.3983 0.6007 0.001 0 0 0 0 0 0 0 0.0016 0.5966 0.4018 0 0 0 0 0 0 0 0 0.0345 0.7329 0.2326 0 0 0 0 0 0 0 0 0.1121 0.7719 0.116 0 0 0 0 0 0 0 0 0.2441 0.7091 0.0468 0 0 0 0 0 0 0 0.0005999999999999999 0.4051 0.5803 0.014 0 0 0 0 0 0 0 0.0168 0.5567 0.4234 0.0031 0 0 0 0 0 0 0 0.06 0.6798 0.26 0.0002 0.8905999999999999 0.1094 0 0 0 0 0 0 0 0 0.1668 0.7662 0.067 0 0 0 0 0 0 0 0 0.235 0.7252 0.0398 0 0 0 0 0 0 0 0 0.323 0.6591 0.0179 0 0 0 0 0 0 0 0 0.4022 0.5898 0.008 0 0 0 0 0 0 0 0.0021 0.5021 0.4923 0.0035 0 0 0 0 0 0 0 0.0111 0.5767 0.4109 0.0013 0 0 0 0 0 0 0 0.0303 0.6361 0.3331 0.0005 0 0 0 0 0 0 0 0.06279999999999999 0.671 0.266 0.0002 0 0 0 0 0 0 0 0.108 0.6901 0.2019 0.0028 0.9951 0.0021 0 0 0 0 0 0 0 0.0126 0.9755 0.0119 0 0 0 0 0 0 0 0.0287 0.9445 0.0268 0 0 0 0 0 0 0 0.04 0.9199000000000001 0.0401 0 0 0 0 0 0 0 0.0508 0.8999 0.0493 0 0 0 0 0 0 0 0.068 0.8702 0.0618 0 0 0 0 0 0 0 0.075 0.8479 0.0771 0 0 0 0 0 0 0 0.0893 0.8183 0.0924 0 0 0 0 0 0 0 0.0989 0.8026 0.0985 0 0 0 0 0 0 0 0.1125 0.7754 0.1121 0 0 0 0 0 0 0 0.0133 0.9739 0.0128 0 0 0 0 0 0 0 0 0.8976 0.1024 0 0 0 0 0 0 0 0 0.7998 0.2002 0 0 0 0 0 0 0 0 0.6958 0.3042 0 0 0 0 0 0 0 0 0.5986 0.4014 0 0 0 0 0 0 0 0 0.4959 0.5041 0 0 0 0 0 0 0 0 0.4031 0.5969 0 0 0 0 0 0 0 0 0.2955 0.7014 0.0031 0 0 0 0 0 0 0 0.2281 0.747 0.0249 0 0 0 0 0 0 0 0.1688 0.7594 0.0718 0 0 0 0 0 0 0.0257 0.9523 0.022 0 0 0 0 0 0 0 0 0.8055 0.1945 0 0 0 0 0 0 0 0 0.6006 0.3994 0 0 0 0 0 0 0 0 0.4066 0.5934 0 0 0 0 0 0 0 0 0.2021 0.7955 0.0024 0 0 0 0 0 0 0 0.06279999999999999 0.8647 0.0725 0 0 0 0 0 0 0 0.011 0.7786 0.2104 0 0 0 0 0 0 0 0.0001 0.5943000000000001 0.4056 0 0 0 0 0 0 0 0 0.4112 0.5868 0.002 0 0 0 0 0 0 0 0.2376 0.7264 0.036 0 0 0 0 0 0.0376 0.9254 0.037 0 0 0 0 0 0 0 0 0.6994 0.3006 0 0 0 0 0 0 0 0 0.4059 0.5941 0 0 0 0 0 0 0 0 0.1133 0.8705000000000001 0.0162 0 0 0 0 0 0 0 0.0035 0.7955 0.201 0 0 0 0 0 0 0 0 0.4952 0.5048 0 0 0 0 0 0 0 0 0.2169 0.7655 0.0176 0 0 0 0 0 0 0 0.0493 0.7951 0.1556 0 0 0 0 0 0 0 0.0021 0.5917 0.4062 0 0 0 0 0 0 0 0 0.3154 0.6677 0.0169 0 0 0 0 0.0468 0.9052 0.048 0 0 0 0 0 0 0 0 0.6088 0.3912 0 0 0 0 0 0 0 0 0.2037 0.7929 0.0034 0 0 0 0 0 0 0 0.0037 0.7835 0.2128 0 0 0 0 0 0 0 0 0.4029 0.5971 0 0 0 0 0 0 0 0 0.07729999999999999 0.8468 0.0759 0 0 0 0 0 0 0 0.0004 0.6042999999999999 0.3953 0 0 0 0 0 0 0 0 0.225 0.7479 0.0271 0 0 0 0 0 0 0 0.0319 0.737 0.2311 0 0 0 0 0 0 0 0 0.4056 0.5848 0.009599999999999999 0 0 0 0.0677 0.8708 0.0615 0 0 0 0 0 0 0 0 0.4965 0.5034999999999999 0 0 0 0 0 0 0 0 0.06619999999999999 0.8707 0.0631 0 0 0 0 0 0 0 0 0.5 0.5 0 0 0 0 0 0 0 0 0.0755 0.849 0.0755 0 0 0 0 0 0 0 0 0.4913 0.5087 0 0 0 0 0 0 0 0 0.0896 0.8169999999999999 0.0934 0 0 0 0 0 0 0 0 0.501 0.4981 0.0009 0 0 0 0 0 0 0 0.1092 0.7823 0.1085 0 0 0 0 0 0 0 0.0022 0.5008 0.4924 0.0046 0 0 0.075 0.8525 0.0725 0 0 0 0 0 0 0 0 0.4072 0.5928 0 0 0 0 0 0 0 0 0.0097 0.7655 0.2248 0 0 0 0 0 0 0 0 0.2193 0.7665999999999999 0.0141 0 0 0 0 0 0 0 0.0005999999999999999 0.5959 0.4035 0 0 0 0 0 0 0 0 0.0922 0.8161 0.0917 0 0 0 0 0 0 0 0 0.3991 0.5962 0.0047 0 0 0 0 0 0 0 0.0333 0.7247 0.242 0 0 0 0 0 0 0 0 0.2417 0.7138 0.0445 0 0 0 0 0 0 0 0.0129 0.578 0.4078 0.0013 0 0.083 0.8314 0.0856 0 0 0 0 0 0 0 0 0.3 0.697 0.003 0 0 0 0 0 0 0 0 0.594 0.406 0 0 0 0 0 0 0 0 0.0483 0.8055 0.1462 0 0 0 0 0 0 0 0 0.2282 0.7433999999999999 0.0284 0 0 0 0 0 0 0 0.0004 0.499 0.4995 0.0011 0 0 0 0 0 0 0 0.0342 0.7299 0.2359 0 0 0 0 0 0 0 0 0.1756 0.7528 0.0716 0 0 0 0 0 0 0 0.0002 0.407 0.5810999999999999 0.0117 0 0 0 0 0 0 0 0.0315 0.6364 0.3317 0.0004 0.1007 0.7969000000000001 0.1024 0 0 0 0 0 0 0 0 0.2212 0.7523 0.0265 0 0 0 0 0 0 0 0 0.4056 0.5934 0.001 0 0 0 0 0 0 0 0.0015 0.6025 0.396 0 0 0 0 0 0 0 0 0.031 0.7366 0.2324 0 0 0 0 0 0 0 0 0.1154 0.7754 0.1092 0 0 0 0 0 0 0 0 0.248 0.7066 0.0454 0 0 0 0 0 0 0 0.0003 0.4074 0.5795 0.0128 0 0 0 0 0 0 0 0.0149 0.5671 0.4157 0.0023 0 0 0 0 0 0 0 0.0621 0.6828 0.2551 0.1161 0.7729 0.111 0 0 0 0 0 0 0 0 0.1641 0.7647 0.0712 0 0 0 0 0 0 0 0 0.2298 0.7346 0.0356 0 0 0 0 0 0 0 0 0.3076 0.6737 0.0187 0 0 0 0 0 0 0 0 0.4114 0.5819 0.0067 0 0 0 0 0 0 0 0.0017 0.4902 0.5033 0.0048 0 0 0 0 0 0 0 0.0123 0.584 0.4018 0.0019 0 0 0 0 0 0 0 0.0325 0.6336000000000001 0.3332 0.0007 0 0 0 0 0 0 0 0.0664 0.6766 0.257 0 0 0 0 0 0 0 0 0.106 0.894 0 0.0044 0.9922 0.0034 0 0 0 0 0 0 0 0.0118 0.975 0.0132 0 0 0 0 0 0 0 0.0249 0.9473 0.0278 0 0 0 0 0 0 0 0.0404 0.9216 0.038 0 0 0 0 0 0 0 0.0502 0.8999 0.0499 0 0 0 0 0 0 0 0.0654 0.8758 0.0588 0 0 0 0 0 0 0 0.07340000000000001 0.8527 0.07389999999999999 0 0 0 0 0 0 0 0.08699999999999999 0.8253 0.0877 0 0 0 0 0 0 0 0.0984 0.8021 0.09950000000000001 0 0 0 0 0 0 0 0.116 0.7748 0.1092 0 0 0 0 0 0 0 0.0128 0.9762 0.011 0 0 0 0 0 0 0 0 0.8987000000000001 0.1013 0 0 0 0 0 0 0 0 0.8078 0.1922 0 0 0 0 0 0 0 0 0.6967 0.3033 0 0 0 0 0 0 0 0 0.604 0.396 0 0 0 0 0 0 0 0 0.5062 0.4938 0 0 0 0 0 0 0 0 0.4031 0.5969 0 0 0 0 0 0 0 0 0.3071 0.6899 0.003 0 0 0 0 0 0 0 0.2301 0.7442 0.0257 0 0 0 0 0 0 0 0.1658 0.7688 0.0654 0 0 0 0 0 0 0.0259 0.9496 0.0245 0 0 0 0 0 0 0 0 0.8005 0.1995 0 0 0 0 0 0 0 0 0.6009 0.3991 0 0 0 0 0 0 0 0 0.3902 0.6098 0 0 0 0 0 0 0 0 0.2009 0.7963 0.0028 0 0 0 0 0 0 0 0.0643 0.8715000000000001 0.06419999999999999 0 0 0 0 0 0 0 0.0117 0.7816 0.2067 0 0 0 0 0 0 0 0 0.593 0.407 0 0 0 0 0 0 0 0 0.4053 0.592 0.0027 0 0 0 0 0 0 0 0.2463 0.7144 0.0393 0 0 0 0 0 0.0354 0.9231 0.0415 0 0 0 0 0 0 0 0 0.6994 0.3006 0 0 0 0 0 0 0 0 0.3939 0.6061 0 0 0 0 0 0 0 0 0.1242 0.8591 0.0167 0 0 0 0 0 0 0 0.003 0.7917999999999999 0.2052 0 0 0 0 0 0 0 0 0.5012 0.4988 0 0 0 0 0 0 0 0 0.2172 0.7665 0.0163 0 0 0 0 0 0 0 0.0499 0.7988 0.1513 0 0 0 0 0 0 0 0.0016 0.6022999999999999 0.3961 0 0 0 0 0 0 0 0 0.3208 0.6612 0.018 0 0 0 0 0.0492 0.8989 0.0519 0 0 0 0 0 0 0 0 0.6032 0.3968 0 0 0 0 0 0 0 0 0.2023 0.7961 0.0016 0 0 0 0 0 0 0 0.0035 0.7843 0.2122 0 0 0 0 0 0 0 0 0.3969 0.6031 0 0 0 0 0 0 0 0 0.0775 0.8491 0.07340000000000001 0 0 0 0 0 0 0 0.0004 0.5947 0.4049 0 0 0 0 0 0 0 0 0.2316 0.7442 0.0242 0 0 0 0 0 0 0 0.0313 0.7405 0.2282 0 0 0 0 0 0 0 0.0001 0.4121 0.5806 0.0072 0 0 0 0.063 0.8792 0.0578 0 0 0 0 0 0 0 0 0.5017 0.4983 0 0 0 0 0 0 0 0 0.0635 0.8699 0.06660000000000001 0 0 0 0 0 0 0 0 0.5096000000000001 0.4904 0 0 0 0 0 0 0 0 0.07920000000000001 0.8429 0.0779 0 0 0 0 0 0 0 0 0.4919 0.5081 0 0 0 0 0 0 0 0 0.0912 0.8177 0.0911 0 0 0 0 0 0 0 0.0003 0.5013 0.4979 0.0005 0 0 0 0 0 0 0 0.1073 0.7749 0.1178 0 0 0 0 0 0 0 0.0025 0.4968 0.4983 0.0024 0 0 0.0751 0.8496 0.07530000000000001 0 0 0 0 0 0 0 0 0.4015 0.5985 0 0 0 0 0 0 0 0 0.009299999999999999 0.7821 0.2086 0 0 0 0 0 0 0 0 0.2207 0.7645 0.0148 0 0 0 0 0 0 0 0.0004 0.6002 0.3994 0 0 0 0 0 0 0 0 0.09229999999999999 0.8131 0.0946 0 0 0 0 0 0 0 0 0.4069 0.5891999999999999 0.0039 0 0 0 0 0 0 0 0.0357 0.7265 0.2378 0 0 0 0 0 0 0 0 0.2393 0.717 0.0437 0 0 0 0 0 0 0 0.013 0.5838 0.4021 0.0011 0 0.08690000000000001 0.8209 0.0922 0 0 0 0 0 0 0 0 0.2953 0.7015 0.0032 0 0 0 0 0 0 0 0.0001 0.5903 0.4096 0 0 0 0 0 0 0 0 0.0495 0.8044 0.1461 0 0 0 0 0 0 0 0 0.2284 0.7463 0.0253 0 0 0 0 0 0 0 0.0001 0.4971 0.5022 0.0005999999999999999 0 0 0 0 0 0 0 0.0364 0.7267 0.2369 0 0 0 0 0 0 0 0 0.1708 0.755 0.0742 0 0 0 0 0 0 0 0.0004 0.4135 0.5723 0.0138 0 0 0 0 0 0 0 0.0306 0.6484 0.321 0 0.1066 0.7971 0.0963 0 0 0 0 0 0 0 0 0.2287 0.7427 0.0286 0 0 0 0 0 0 0 0 0.4065 0.5916 0.0019 0 0 0 0 0 0 0 0.0018 0.5904 0.4078 0 0 0 0 0 0 0 0 0.0324 0.7397 0.2279 0 0 0 0 0 0 0 0 0.1123 0.777 0.1107 0 0 0 0 0 0 0 0 0.2405 0.7141999999999999 0.0453 0 0 0 0 0 0 0 0.0007 0.4078 0.5777 0.0138 0 0 0 0 0 0 0 0.0161 0.5756 0.4083 0 0 0 0 0 0 0 0 0.063 0.9370000000000001 0 0.1144 0.7717000000000001 0.1139 0 0 0 0 0 0 0 0 0.1757 0.7584 0.0659 0 0 0 0 0 0 0 0 0.238 0.7282999999999999 0.0337 0 0 0 0 0 0 0 0 0.3256 0.657 0.0174 0 0 0 0 0 0 0 0 0.4022 0.591 0.0068 0 0 0 0 0 0 0 0.0017 0.4935 0.5024 0.0024 0 0 0 0 0 0 0 0.0137 0.5681 0.4167 0.0015 0 0 0 0 0 0 0 0.0315 0.644 0.3245 0 0 0 0 0 0 0 0 0.0564 0.9436 0 0 0 0 0 0 0 0 0 1 0 0 0.003 0.9941 0.0029 0 0 0 0 0 0 0 0.0118 0.977 0.0112 0 0 0 0 0 0 0 0.0262 0.9509 0.0229 0 0 0 0 0 0 0 0.0384 0.9215 0.0401 0 0 0 0 0 0 0 0.0536 0.8934 0.053 0 0 0 0 0 0 0 0.06279999999999999 0.8784 0.0588 0 0 0 0 0 0 0 0.0752 0.8495 0.07530000000000001 0 0 0 0 0 0 0 0.09320000000000001 0.8256 0.08119999999999999 0 0 0 0 0 0 0 0.09719999999999999 0.8044 0.0984 0 0 0 0 0 0 0 0.1172 0.77 0.1128 0 0 0 0 0 0 0 0.0143 0.9738 0.0119 0 0 0 0 0 0 0 0 0.8932 0.1068 0 0 0 0 0 0 0 0 0.8063 0.1937 0 0 0 0 0 0 0 0 0.696 0.304 0 0 0 0 0 0 0 0 0.6084000000000001 0.3916 0 0 0 0 0 0 0 0 0.5046 0.4954 0 0 0 0 0 0 0 0 0.4062 0.5938 0 0 0 0 0 0 0 0 0.2972 0.6989 0.0039 0 0 0 0 0 0 0 0.2244 0.752 0.0236 0 0 0 0 0 0 0 0.1679 0.7632 0.0689 0 0 0 0 0 0 0.0262 0.9496 0.0242 0 0 0 0 0 0 0 0 0.8006 0.1994 0 0 0 0 0 0 0 0 0.5994 0.4006 0 0 0 0 0 0 0 0 0.4013 0.5987 0 0 0 0 0 0 0 0 0.2081 0.7887999999999999 0.0031 0 0 0 0 0 0 0 0.0667 0.8672 0.06610000000000001 0 0 0 0 0 0 0 0.009900000000000001 0.7852 0.2049 0 0 0 0 0 0 0 0 0.6042 0.3958 0 0 0 0 0 0 0 0 0.3963 0.6022 0.0015 0 0 0 0 0 0 0 0.2393 0.7257 0.035 0 0 0 0 0 0.036 0.923 0.041 0 0 0 0 0 0 0 0 0.6956 0.3044 0 0 0 0 0 0 0 0 0.4025 0.5975 0 0 0 0 0 0 0 0 0.1218 0.8612 0.017 0 0 0 0 0 0 0 0.0034 0.7943 0.2023 0 0 0 0 0 0 0 0 0.4961 0.5039 0 0 0 0 0 0 0 0 0.2134 0.7707000000000001 0.0159 0 0 0 0 0 0 0 0.0496 0.8053 0.1451 0 0 0 0 0 0 0 0.0012 0.5987 0.4001 0 0 0 0 0 0 0 0 0.3177 0.6641 0.0182 0 0 0 0 0.0482 0.9035 0.0483 0 0 0 0 0 0 0 0 0.5951 0.4049 0 0 0 0 0 0 0 0 0.2095 0.7874 0.0031 0 0 0 0 0 0 0 0.0036 0.7936 0.2028 0 0 0 0 0 0 0 0 0.4038 0.5961 0.0001 0 0 0 0 0 0 0 0.0785 0.8386 0.0829 0 0 0 0 0 0 0 0.0004 0.6004 0.3992 0 0 0 0 0 0 0 0 0.2292 0.7433 0.0275 0 0 0 0 0 0 0 0.0331 0.7359 0.231 0 0 0 0 0 0 0 0.0001 0.4031 0.5881999999999999 0.0086 0 0 0 0.0635 0.8708 0.06569999999999999 0 0 0 0 0 0 0 0 0.504 0.496 0 0 0 0 0 0 0 0 0.0588 0.8714 0.0698 0 0 0 0 0 0 0 0 0.5065 0.4935 0 0 0 0 0 0 0 0 0.077 0.8492 0.0738 0 0 0 0 0 0 0 0 0.5038 0.4962 0 0 0 0 0 0 0 0 0.0859 0.8193 0.0948 0 0 0 0 0 0 0 0.0002 0.4953 0.5038 0.0007 0 0 0 0 0 0 0 0.1182 0.7746 0.1072 0 0 0 0 0 0 0 0.0018 0.4946 0.5003 0.0033 0 0 0.0742 0.8535 0.0723 0 0 0 0 0 0 0 0 0.4022 0.5978 0 0 0 0 0 0 0 0 0.0113 0.7784 0.2103 0 0 0 0 0 0 0 0 0.2165 0.7665 0.017 0 0 0 0 0 0 0 0.0003 0.5991 0.4006 0 0 0 0 0 0 0 0 0.09619999999999999 0.8047 0.09909999999999999 0 0 0 0 0 0 0 0 0.4066 0.5887 0.0047 0 0 0 0 0 0 0 0.0357 0.7343 0.23 0 0 0 0 0 0 0 0 0.2468 0.7102000000000001 0.043 0 0 0 0 0 0 0 0.0123 0.5717 0.416 0 0 0.08699999999999999 0.8272 0.0858 0 0 0 0 0 0 0 0 0.3037 0.6935 0.0028 0 0 0 0 0 0 0 0 0.6045 0.3955 0 0 0 0 0 0 0 0 0.0493 0.7996 0.1511 0 0 0 0 0 0 0 0 0.2308 0.7437 0.0255 0 0 0 0 0 0 0 0.0001 0.4957 0.5026 0.0016 0 0 0 0 0 0 0 0.0331 0.7297 0.2372 0 0 0 0 0 0 0 0 0.1721 0.7504 0.0775 0 0 0 0 0 0 0 0.0009 0.415 0.5841 0 0 0 0 0 0 0 0 0.0306 0.9694 0 0 0.0974 0.8038 0.0988 0 0 0 0 0 0 0 0 0.2294 0.7456 0.025 0 0 0 0 0 0 0 0 0.4046 0.5943000000000001 0.0011 0 0 0 0 0 0 0 0.0018 0.5921 0.4061 0 0 0 0 0 0 0 0 0.0309 0.7427 0.2264 0 0 0 0 0 0 0 0 0.1117 0.7748 0.1135 0 0 0 0 0 0 0 0 0.2456 0.7122000000000001 0.0422 0 0 0 0 0 0 0 0.0009 0.408 0.5911 0 0 0 0 0 0 0 0 0.0157 0.9843 0 0 0 0 0 0 0 0 0 1 0 0 0.1156 0.7745 0.1099 0 0 0 0 0 0 0 0 0.1703 0.7613 0.0684 0 0 0 0 0 0 0 0 0.2341 0.7305 0.0354 0 0 0 0 0 0 0 0 0.3136 0.6688 0.0176 0 0 0 0 0 0 0 0 0.416 0.5749 0.0091 0 0 0 0 0 0 0 0.0021 0.4888 0.5065 0.0026 0 0 0 0 0 0 0 0.0127 0.5750999999999999 0.4122 0 0 0 0 0 0 0 0 0.0312 0.9688 0 0 0 0 0 0 0 0 0 1 0 0 0 0 0 0 0 0 0 1 0 0 0 0.0033 0.9933999999999999 0.0033 0 0 0 0 0 0 0 0.0131 0.9735 0.0134 0 0 0 0 0 0 0 0.0271 0.9484 0.0245 0 0 0 0 0 0 0 0.0363 0.9262 0.0375 0 0 0 0 0 0 0 0.0486 0.9016 0.0498 0 0 0 0 0 0 0 0.0612 0.8783 0.0605 0 0 0 0 0 0 0 0.073 0.8499 0.0771 0 0 0 0 0 0 0 0.0838 0.8323 0.0839 0 0 0 0 0 0 0 0.095 0.8066 0.0984 0 0 0 0 0 0 0 0.1141 0.7718 0.1141 0 0 0 0 0 0 0 0.0133 0.9754 0.0113 0 0 0 0 0 0 0 0 0.9025 0.0975 0 0 0 0 0 0 0 0 0.8028 0.1972 0 0 0 0 0 0 0 0 0.7025 0.2975 0 0 0 0 0 0 0 0 0.5923 0.4077 0 0 0 0 0 0 0 0 0.5048 0.4952 0 0 0 0 0 0 0 0 0.4043 0.5957 0 0 0 0 0 0 0 0 0.3078 0.6889999999999999 0.0032 0 0 0 0 0 0 0 0.2252 0.7507 0.0241 0 0 0 0 0 0 0 0.169 0.7634 0.06759999999999999 0 0 0 0 0 0 0.0291 0.9467 0.0242 0 0 0 0 0 0 0 0 0.8008999999999999 0.1991 0 0 0 0 0 0 0 0 0.6051 0.3949 0 0 0 0 0 0 0 0 0.3982 0.6018 0 0 0 0 0 0 0 0 0.1982 0.7994 0.0024 0 0 0 0 0 0 0 0.06419999999999999 0.8725000000000001 0.0633 0 0 0 0 0 0 0 0.0107 0.7779 0.2114 0 0 0 0 0 0 0 0.0001 0.5988 0.4011 0 0 0 0 0 0 0 0 0.4008 0.5977 0.0015 0 0 0 0 0 0 0 0.2324 0.7304 0.0372 0 0 0 0 0 0.0361 0.9294 0.0345 0 0 0 0 0 0 0 0 0.7019 0.2981 0 0 0 0 0 0 0 0 0.3931 0.6069 0 0 0 0 0 0 0 0 0.113 0.8711 0.0159 0 0 0 0 0 0 0 0.0038 0.7974 0.1988 0 0 0 0 0 0 0 0 0.5007 0.4993 0 0 0 0 0 0 0 0 0.2119 0.7736 0.0145 0 0 0 0 0 0 0 0.0516 0.7996 0.1488 0 0 0 0 0 0 0 0.0015 0.6018 0.3967 0 0 0 0 0 0 0 0 0.3196 0.6615 0.0189 0 0 0 0 0.0531 0.8986 0.0483 0 0 0 0 0 0 0 0 0.5967 0.4033 0 0 0 0 0 0 0 0 0.2068 0.7896 0.0036 0 0 0 0 0 0 0 0.0026 0.7956 0.2018 0 0 0 0 0 0 0 0 0.4005 0.5995 0 0 0 0 0 0 0 0 0.0722 0.855 0.0728 0 0 0 0 0 0 0 0.0005 0.5996 0.3999 0 0 0 0 0 0 0 0 0.2291 0.7462 0.0247 0 0 0 0 0 0 0 0.0304 0.7367 0.2329 0 0 0 0 0 0 0 0 0.4041 0.5888 0.0071 0 0 0 0.06510000000000001 0.8754999999999999 0.0594 0 0 0 0 0 0 0 0 0.4996 0.5004 0 0 0 0 0 0 0 0 0.06859999999999999 0.8673999999999999 0.064 0 0 0 0 0 0 0 0 0.4966 0.5034 0 0 0 0 0 0 0 0 0.0765 0.8465 0.077 0 0 0 0 0 0 0 0 0.4974 0.5026 0 0 0 0 0 0 0 0 0.095 0.8093 0.09569999999999999 0 0 0 0 0 0 0 0.0002 0.503 0.4961 0.0007 0 0 0 0 0 0 0 0.1104 0.7732 0.1164 0 0 0 0 0 0 0 0.0031 0.487 0.5099 0 0 0 0.0741 0.8532999999999999 0.0726 0 0 0 0 0 0 0 0 0.3997 0.6002999999999999 0 0 0 0 0 0 0 0 0.01 0.7835 0.2065 0 0 0 0 0 0 0 0 0.221 0.7644 0.0146 0 0 0 0 0 0 0 0.0005 0.6042 0.3953 0 0 0 0 0 0 0 0 0.09420000000000001 0.8116 0.09420000000000001 0 0 0 0 0 0 0 0 0.4096 0.5862000000000001 0.0042 0 0 0 0 0 0 0 0.0381 0.7275 0.2344 0 0 0 0 0 0 0 0 0.2514 0.7486 0 0 0 0 0 0 0 0 0.0106 0.9893999999999999 0 0 0 0.08210000000000001 0.8273 0.0906 0 0 0 0 0 0 0 0 0.3062 0.6905 0.0033 0 0 0 0 0 0 0 0 0.5933 0.4067 0 0 0 0 0 0 0 0 0.0506 0.802 0.1474 0 0 0 0 0 0 0 0 0.2321 0.7396 0.0283 0 0 0 0 0 0 0 0.0003 0.4986 0.5002 0.0009 0 0 0 0 0 0 0 0.0329 0.738 0.2291 0 0 0 0 0 0 0 0 0.1747 0.8253 0 0 0 0 0 0 0 0 0.0009 0.9991 0 0 0 0 0 0 0 0 0 1 0 0 0 0.1001 0.8018999999999999 0.098 0 0 0 0 0 0 0 0 0.2246 0.7514 0.024 0 0 0 0 0 0 0 0 0.3978 0.6012 0.001 0 0 0 0 0 0 0 0.0016 0.5862000000000001 0.4122 0 0 0 0 0 0 0 0 0.0348 0.7309 0.2343 0 0 0 0 0 0 0 0 0.1158 0.7687 0.1155 0 0 0 0 0 0 0 0 0.239 0.761 0 0 0 0 0 0 0 0 0.0007 0.9993 0 0 0 0 0 0 0 0 0 1 0 0 0 0 0 0 0 0 0 1 0 0 0 0.113 0.7708 0.1162 0 0 0 0 0 0 0 0 0.1645 0.7664 0.06909999999999999 0 0 0 0 0 0 0 0 0.2338 0.7292999999999999 0.0369 0 0 0 0 0 0 0 0 0.3164 0.6642 0.0194 0 0 0 0 0 0 0 0 0.4055 0.5873 0.0072 0 0 0 0 0 0 0 0.0018 0.5024999999999999 0.4957 0 0 0 0 0 0 0 0 0.0122 0.9878 0 0 0 0 0 0 0 0 0 1 0 0 0 0 0 0 0 0 0 1 0 0 0 0 0 0 0 0 0 1 0 0 0 0 0.0033 0.9925 0.0042 0 0 0 0 0 0 0 0.0125 0.9752 0.0123 0 0 0 0 0 0 0 0.0244 0.9474 0.0282 0 0 0 0 0 0 0 0.0384 0.9244 0.0372 0 0 0 0 0 0 0 0.0494 0.9045 0.0461 0 0 0 0 0 0 0 0.0625 0.876 0.0615 0 0 0 0 0 0 0 0.07829999999999999 0.8504 0.0713 0 0 0 0 0 0 0 0.0883 0.8274 0.0843 0 0 0 0 0 0 0 0.0989 0.8018999999999999 0.0992 0 0 0 0 0 0 0 0.1063 0.7825 0.1112 0 0 0 0 0 0 0 0.0141 0.9711 0.0148 0 0 0 0 0 0 0 0 0.8989 0.1011 0 0 0 0 0 0 0 0 0.804 0.196 0 0 0 0 0 0 0 0 0.7008 0.2992 0 0 0 0 0 0 0 0 0.5962 0.4038 0 0 0 0 0 0 0 0 0.4989 0.5011 0 0 0 0 0 0 0 0 0.4067 0.5933 0 0 0 0 0 0 0 0 0.3007 0.6959 0.0034 0 0 0 0 0 0 0 0.2296 0.7445000000000001 0.0259 0 0 0 0 0 0 0 0.1715 0.7568 0.0717 0 0 0 0 0 0 0.0266 0.9475 0.0259 0 0 0 0 0 0 0 0 0.7967 0.2033 0 0 0 0 0 0 0 0 0.5921 0.4079 0 0 0 0 0 0 0 0 0.3969 0.6031 0 0 0 0 0 0 0 0 0.1996 0.7967 0.0037 0 0 0 0 0 0 0 0.073 0.8627 0.0643 0 0 0 0 0 0 0 0.0095 0.7855 0.205 0 0 0 0 0 0 0 0 0.5972 0.4028 0 0 0 0 0 0 0 0 0.4087 0.5899 0.0014 0 0 0 0 0 0 0 0.2348 0.7272 0.038 0 0 0 0 0 0.038 0.9239000000000001 0.0381 0 0 0 0 0 0 0 0 0.6994 0.3006 0 0 0 0 0 0 0 0 0.4033 0.5967 0 0 0 0 0 0 0 0 0.1197 0.8631 0.0172 0 0 0 0 0 0 0 0.0034 0.7909 0.2057 0 0 0 0 0 0 0 0 0.5058 0.4942 0 0 0 0 0 0 0 0 0.2199 0.7654 0.0147 0 0 0 0 0 0 0 0.0488 0.8032 0.148 0 0 0 0 0 0 0 0.0023 0.6019 0.3958 0 0 0 0 0 0 0 0 0.3163 0.6677 0.016 0 0 0 0 0.0451 0.9038 0.0511 0 0 0 0 0 0 0 0 0.5986 0.4014 0 0 0 0 0 0 0 0 0.2067 0.7901 0.0032 0 0 0 0 0 0 0 0.0039 0.7977 0.1984 0 0 0 0 0 0 0 0 0.3973 0.6027 0 0 0 0 0 0 0 0 0.0767 0.8458 0.0775 0 0 0 0 0 0 0 0 0.5925 0.4075 0 0 0 0 0 0 0 0 0.2264 0.7478 0.0258 0 0 0 0 0 0 0 0.0303 0.7333 0.2364 0 0 0 0 0 0 0 0 0.409 0.591 0 0 0 0 0.0649 0.8738 0.0613 0 0 0 0 0 0 0 0 0.5078 0.4922 0 0 0 0 0 0 0 0 0.0618 0.8682 0.07000000000000001 0 0 0 0 0 0 0 0 0.496 0.504 0 0 0 0 0 0 0 0 0.0728 0.8488 0.0784 0 0 0 0 0 0 0 0 0.5084 0.4915 0.0001 0 0 0 0 0 0 0 0.09569999999999999 0.8164 0.08790000000000001 0 0 0 0 0 0 0 0.0001 0.5086000000000001 0.4913 0 0 0 0 0 0 0 0 0.1176 0.8824 0 0 0 0 0 0 0 0 0.0026 0.9974 0 0 0 0 0.07190000000000001 0.8581 0.07000000000000001 0 0 0 0 0 0 0 0 0.3982 0.6018 0 0 0 0 0 0 0 0 0.009299999999999999 0.7776 0.2131 0 0 0 0 0 0 0 0 0.215 0.77 0.015 0 0 0 0 0 0 0 0.0003 0.5997 0.4 0 0 0 0 0 0 0 0 0.08649999999999999 0.8173 0.09619999999999999 0 0 0 0 0 0 0 0 0.4038 0.5962 0 0 0 0 0 0 0 0 0.0361 0.9639 0 0 0 0 0 0 0 0 0 1 0 0 0 0 0 0 0 0 0 1 0 0 0 0 0.0895 0.8232 0.0873 0 0 0 0 0 0 0 0 0.3071 0.6902 0.0027 0 0 0 0 0 0 0 0.0001 0.603 0.3969 0 0 0 0 0 0 0 0 0.0516 0.7914 0.157 0 0 0 0 0 0 0 0 0.2298 0.745 0.0252 0 0 0 0 0 0 0 0.0004 0.5002 0.4994 0 0 0 0 0 0 0 0 0.0362 0.9638 0 0 0 0 0 0 0 0 0 1 0 0 0 0 0 0 0 0 0 1 0 0 0 0 0 0 0 0 0 1 0 0 0 0 0.0987 0.7995 0.1018 0 0 0 0 0 0 0 0 0.2232 0.7495000000000001 0.0273 0 0 0 0 0 0 0 0 0.4015 0.5972 0.0013 0 0 0 0 0 0 0 0.0013 0.5905 0.4082 0 0 0 0 0 0 0 0 0.0318 0.737 0.2312 0 0 0 0 0 0 0 0 0.1084 0.8915999999999999 0 0 0 0 0 0 0 0 0 1 0 0 0 0 0 0 0 0 0 1 0 0 0 0 0 0 0 0 0 1 0 0 0 0 0 0 0 0 0 1 0 0 0 0 0.1141 0.769 0.1169 0 0 0 0 0 0 0 0 0.1645 0.766 0.06950000000000001 0 0 0 0 0 0 0 0 0.2378 0.7257 0.0365 0 0 0 0 0 0 0 0 0.3208 0.6605 0.0187 0 0 0 0 0 0 0 0 0.4163 0.5837 0 0 0 0 0 0 0 0 0.0019 0.9981 0 0 0 0 0 0 0 0 0 1 0 0 0 0 0 0 0 0 0 1 0 0 0 0 0 0 0 0 0 1 0 0 0 0 0 0 0 0 0 1 0 0 0 0 0 0.0035 0.9919 0.0046 0 0 0 0 0 0 0 0.0116 0.9741 0.0143 0 0 0 0 0 0 0 0.0243 0.9527 0.023 0 0 0 0 0 0 0 0.0396 0.9241 0.0363 0 0 0 0 0 0 0 0.0507 0.8999 0.0494 0 0 0 0 0 0 0 0.0668 0.8714 0.0618 0 0 0 0 0 0 0 0.0738 0.8493000000000001 0.0769 0 0 0 0 0 0 0 0.08690000000000001 0.8258 0.0873 0 0 0 0 0 0 0 0.1029 0.7972 0.0999 0 0 0 0 0 0 0 0.1098 0.7805 0.1097 0 0 0 0 0 0 0 0.0145 0.973 0.0125 0 0 0 0 0 0 0 0 0.8958 0.1042 0 0 0 0 0 0 0 0 0.8067 0.1933 0 0 0 0 0 0 0 0 0.6997 0.3003 0 0 0 0 0 0 0 0 0.6006 0.3994 0 0 0 0 0 0 0 0 0.503 0.497 0 0 0 0 0 0 0 0 0.3988 0.6012 0 0 0 0 0 0 0 0 0.2958 0.7018 0.0024 0 0 0 0 0 0 0 0.2346 0.7421 0.0233 0 0 0 0 0 0 0 0.1673 0.7672 0.0655 0 0 0 0 0 0 0.0228 0.9527 0.0245 0 0 0 0 0 0 0 0 0.7988 0.2012 0 0 0 0 0 0 0 0 0.6 0.4 0 0 0 0 0 0 0 0 0.4042 0.5958 0 0 0 0 0 0 0 0 0.206 0.791 0.003 0 0 0 0 0 0 0 0.0667 0.8686 0.06469999999999999 0 0 0 0 0 0 0 0.0109 0.7731 0.216 0 0 0 0 0 0 0 0.0001 0.5973000000000001 0.4026 0 0 0 0 0 0 0 0 0.4068 0.5911999999999999 0.002 0 0 0 0 0 0 0 0.241 0.7239 0.0351 0 0 0 0 0 0.0393 0.9237 0.037 0 0 0 0 0 0 0 0 0.6997 0.3003 0 0 0 0 0 0 0 0 0.4016 0.5984 0 0 0 0 0 0 0 0 0.1162 0.8679 0.0159 0 0 0 0 0 0 0 0.004 0.7909 0.2051 0 0 0 0 0 0 0 0 0.4971 0.5029 0 0 0 0 0 0 0 0 0.2162 0.7654 0.0184 0 0 0 0 0 0 0 0.0525 0.7981 0.1494 0 0 0 0 0 0 0 0.0013 0.5881 0.4106 0 0 0 0 0 0 0 0 0.3127 0.6873 0 0 0 0 0 0.0488 0.8999 0.0513 0 0 0 0 0 0 0 0 0.5974 0.4026 0 0 0 0 0 0 0 0 0.2014 0.7961 0.0025 0 0 0 0 0 0 0 0.0032 0.7994 0.1974 0 0 0 0 0 0 0 0 0.3932 0.6068 0 0 0 0 0 0 0 0 0.0751 0.8421 0.0828 0 0 0 0 0 0 0 0.0005 0.6032 0.3963 0 0 0 0 0 0 0 0 0.2273 0.7727000000000001 0 0 0 0 0 0 0 0 0.0327 0.9673 0 0 0 0 0 0 0 0 0.0001 0.9999 0 0 0 0 0 0.0648 0.8744 0.0608 0 0 0 0 0 0 0 0 0.5021 0.4979 0 0 0 0 0 0 0 0 0.0672 0.8663 0.0665 0 0 0 0 0 0 0 0 0.4964 0.5036 0 0 0 0 0 0 0 0 0.0791 0.8437 0.0772 0 0 0 0 0 0 0 0 0.5027 0.4973 0 0 0 0 0 0 0 0 0.09039999999999999 0.9096 0 0 0 0 0 0 0 0 0.0001 0.9999 0 0 0 0 0 0 0 0 0 1 0 0 0 0 0 0 0 0 0 1 0 0 0 0 0 0.0735 0.8536 0.07290000000000001 0 0 0 0 0 0 0 0 0.4042 0.5958 0 0 0 0 0 0 0 0 0.0121 0.7806 0.2073 0 0 0 0 0 0 0 0 0.2221 0.7624 0.0155 0 0 0 0 0 0 0 0.0002 0.5992 0.4006 0 0 0 0 0 0 0 0 0.0882 0.9118000000000001 0 0 0 0 0 0 0 0 0 1 0 0 0 0 0 0 0 0 0 1 0 0 0 0 0 0 0 0 0 1 0 0 0 0 0 0 0 0 0 1 0 0 0 0 0 0.0878 0.8300999999999999 0.08210000000000001 0 0 0 0 0 0 0 0 0.296 0.7016 0.0024 0 0 0 0 0 0 0 0 0.6046 0.3954 0 0 0 0 0 0 0 0 0.0488 0.8011 0.1501 0 0 0 0 0 0 0 0 0.2306 0.7694 0 0 0 0 0 0 0 0 0.0003 0.9997 0 0 0 0 0 0 0 0 0 1 0 0 0 0 0 0 0 0 0 1 0 0 0 0 0 0 0 0 0 1 0 0 0 0 0 0 0 0 0 1 0 0 0 0 0 0.0917 0.8061 0.1022 0 0 0 0 0 0 0 0 0.2278 0.7463 0.0259 0 0 0 0 0 0 0 0 0.4024 0.5966 0.001 0 0 0 0 0 0 0 0.0016 0.5966 0.4018 0 0 0 0 0 0 0 0 0.0325 0.9675 0 0 0 0 0 0 0 0 0 1 0 0 0 0 0 0 0 0 0 1 0 0 0 0 0 0 0 0 0 1 0 0 0 0 0 0 0 0 0 1 0 0 0 0 0 0 0 0 0 1 0 0 0 0 0 0.1116 0.7738 0.1146 0 0 0 0 0 0 0 0 0.1724 0.7583 0.0693 0 0 0 0 0 0 0 0 0.2406 0.7207 0.0387 0 0 0 0 0 0 0 0 0.3118 0.6882 0 0 0 0 0 0 0 0 0 1 0 0 0 0 0 0 0 0 0 1 0 0 0 0 0 0 0 0 0 1 0 0 0 0 0 0 0 0 0 1 0 0 0 0 0 0 0 0 0 1 0 0 0 0 0 0 0 0 0 1 0 0 0 0 0 0 0.0032 0.9937 0.0031 0 0 0 0 0 0 0 0.0123 0.9741 0.0136 0 0 0 0 0 0 0 0.0246 0.9504 0.025 0 0 0 0 0 0 0 0.0355 0.9199000000000001 0.0446 0 0 0 0 0 0 0 0.0503 0.898 0.0517 0 0 0 0 0 0 0 0.0611 0.8827 0.0562 0 0 0 0 0 0 0 0.07530000000000001 0.847 0.07770000000000001 0 0 0 0 0 0 0 0.0863 0.8248 0.08890000000000001 0 0 0 0 0 0 0 0.0969 0.8013 0.1018 0 0 0 0 0 0 0 0.1141 0.7685 0.1174 0 0 0 0 0 0 0 0.0134 0.9743000000000001 0.0123 0 0 0 0 0 0 0 0 0.8982 0.1018 0 0 0 0 0 0 0 0 0.7976 0.2024 0 0 0 0 0 0 0 0 0.6915 0.3085 0 0 0 0 0 0 0 0 0.5898 0.4102 0 0 0 0 0 0 0 0 0.4987 0.5013 0 0 0 0 0 0 0 0 0.3993 0.6007 0 0 0 0 0 0 0 0 0.3165 0.6808 0.0027 0 0 0 0 0 0 0 0.2258 0.7483 0.0259 0 0 0 0 0 0 0 0.1727 0.7567 0.0706 0 0 0 0 0 0 0.0265 0.9514 0.0221 0 0 0 0 0 0 0 0 0.8023 0.1977 0 0 0 0 0 0 0 0 0.6057 0.3943 0 0 0 0 0 0 0 0 0.3954 0.6046 0 0 0 0 0 0 0 0 0.2068 0.7902 0.003 0 0 0 0 0 0 0 0.0587 0.8771 0.06419999999999999 0 0 0 0 0 0 0 0.0102 0.7776999999999999 0.2121 0 0 0 0 0 0 0 0 0.5952 0.4048 0 0 0 0 0 0 0 0 0.4028 0.5972 0 0 0 0 0 0 0 0 0.2339 0.7661 0 0 0 0 0 0 0.0386 0.9229000000000001 0.0385 0 0 0 0 0 0 0 0 0.7058 0.2942 0 0 0 0 0 0 0 0 0.4009 0.5991 0 0 0 0 0 0 0 0 0.1195 0.8618 0.0187 0 0 0 0 0 0 0 0.0034 0.7974 0.1992 0 0 0 0 0 0 0 0 0.5004999999999999 0.4995 0 0 0 0 0 0 0 0 0.2134 0.7866 0 0 0 0 0 0 0 0 0.0498 0.9502 0 0 0 0 0 0 0 0 0.0023 0.9977 0 0 0 0 0 0 0 0 0 1 0 0 0 0 0 0 0.0496 0.9024 0.048 0 0 0 0 0 0 0 0 0.5874 0.4126 0 0 0 0 0 0 0 0 0.1978 0.7994 0.0028 0 0 0 0 0 0 0 0.0043 0.7919 0.2038 0 0 0 0 0 0 0 0 0.3898 0.6102 0 0 0 0 0 0 0 0 0.0756 0.9244 0 0 0 0 0 0 0 0 0.0007 0.9993 0 0 0 0 0 0 0 0 0 1 0 0 0 0 0 0 0 0 0 1 0 0 0 0 0 0 0 0 0 1 0 0 0 0 0 0 0.0617 0.8759 0.0624 0 0 0 0 0 0 0 0 0.5081 0.4919 0 0 0 0 0 0 0 0 0.0624 0.8721 0.0655 0 0 0 0 0 0 0 0 0.5046 0.4954 0 0 0 0 0 0 0 0 0.0759 0.9241 0 0 0 0 0 0 0 0 0 1 0 0 0 0 0 0 0 0 0 1 0 0 0 0 0 0 0 0 0 1 0 0 0 0 0 0 0 0 0 1 0 0 0 0 0 0 0 0 0 1 0 0 0 0 0 0 0.0716 0.8561 0.0723 0 0 0 0 0 0 0 0 0.4002 0.5998 0 0 0 0 0 0 0 0 0.011 0.7784 0.2106 0 0 0 0 0 0 0 0 0.2158 0.7842 0 0 0 0 0 0 0 0 0.0005 0.9995000000000001 0 0 0 0 0 0 0 0 0 1 0 0 0 0 0 0 0 0 0 1 0 0 0 0 0 0 0 0 0 1 0 0 0 0 0 0 0 0 0 1 0 0 0 0 0 0 0 0 0 1 0 0 0 0 0 0 0.0853 0.8256 0.0891 0 0 0 0 0 0 0 0 0.3014 0.6953 0.0033 0 0 0 0 0 0 0 0 0.6075 0.3925 0 0 0 0 0 0 0 0 0.0499 0.9500999999999999 0 0 0 0 0 0 0 0 0 1 0 0 0 0 0 0 0 0 0 1 0 0 0 0 0 0 0 0 0 1 0 0 0 0 0 0 0 0 0 1 0 0 0 0 0 0 0 0 0 1 0 0 0 0 0 0 0 0 0 1 0 0 0 0 0 0 0.1051 0.7921 0.1028 0 0 0 0 0 0 0 0 0.2221 0.7518 0.0261 0 0 0 0 0 0 0 0 0.3987 0.6012999999999999 0 0 0 0 0 0 0 0 0.0009 0.9991 0 0 0 0 0 0 0 0 0 1 0 0 0 0 0 0 0 0 0 1 0 0 0 0 0 0 0 0 0 1 0 0 0 0 0 0 0 0 0 1 0 0 0 0 0 0 0 0 0 1 0 0 0 0 0 0 0 0 0 1 0 0 0 0 0 0 0.1111 0.7833 0.1056 0 0 0 0 0 0 0 0 0.1608 0.774 0.06519999999999999 0 0 0 0 0 0 0 0 0.23 0.77 0 0 0 0 0 0 0 0 0 1 0 0 0 0 0 0 0 0 0 1 0 0 0 0 0 0 0 0 0 1 0 0 0 0 0 0 0 0 0 1 0 0 0 0 0 0 0 0 0 1 0 0 0 0 0 0 0 0 0 1 0 0 0 0 0 0 0 0 0 1 0 0 0 0 0 0 0 0.0032 0.9941 0.0027 0 0 0 0 0 0 0 0.0135 0.975 0.0115 0 0 0 0 0 0 0 0.0257 0.9493 0.025 0 0 0 0 0 0 0 0.0389 0.9208 0.0403 0 0 0 0 0 0 0 0.0533 0.897 0.0497 0 0 0 0 0 0 0 0.0639 0.8717 0.0644 0 0 0 0 0 0 0 0.0725 0.8535 0.074 0 0 0 0 0 0 0 0.089 0.8227 0.0883 0 0 0 0 0 0 0 0.103 0.7935 0.1035 0 0 0 0 0 0 0 0.1176 0.7745 0.1079 0 0 0 0 0 0 0 0.0124 0.975 0.0126 0 0 0 0 0 0 0 0 0.897 0.103 0 0 0 0 0 0 0 0 0.7993 0.2007 0 0 0 0 0 0 0 0 0.695 0.305 0 0 0 0 0 0 0 0 0.6016 0.3984 0 0 0 0 0 0 0 0 0.4991 0.5009 0 0 0 0 0 0 0 0 0.4032 0.5968 0 0 0 0 0 0 0 0 0.3011 0.6989 0 0 0 0 0 0 0 0 0.2332 0.7668 0 0 0 0 0 0 0 0 0.166 0.834 0 0 0 0 0 0 0 0.0237 0.9509 0.0254 0 0 0 0 0 0 0 0 0.8014 0.1986 0 0 0 0 0 0 0 0 0.6068 0.3932 0 0 0 0 0 0 0 0 0.3947 0.6052999999999999 0 0 0 0 0 0 0 0 0.1971 0.8028999999999999 0 0 0 0 0 0 0 0 0.064 0.9360000000000001 0 0 0 0 0 0 0 0 0.0109 0.9891 0 0 0 0 0 0 0 0 0 1 0 0 0 0 0 0 0 0 0 1 0 0 0 0 0 0 0 0 0 1 0 0 0 0 0 0 0 0.0354 0.9284 0.0362 0 0 0 0 0 0 0 0 0.7034 0.2966 0 0 0 0 0 0 0 0 0.4039 0.5961 0 0 0 0 0 0 0 0 0.1202 0.8798 0 0 0 0 0 0 0 0 0.0032 0.9968 0 0 0 0 0 0 0 0 0 1 0 0 0 0 0 0 0 0 0 1 0 0 0 0 0 0 0 0 0 1 0 0 0 0 0 0 0 0 0 1 0 0 0 0 0 0 0 0 0 1 0 0 0 0 0 0 0 0.054 0.8945 0.0515 0 0 0 0 0 0 0 0 0.5986 0.4014 0 0 0 0 0 0 0 0 0.1993 0.8007 0 0 0 0 0 0 0 0 0.003 0.997 0 0 0 0 0 0 0 0 0 1 0 0 0 0 0 0 0 0 0 1 0 0 0 0 0 0 0 0 0 1 0 0 0 0 0 0 0 0 0 1 0 0 0 0 0 0 0 0 0 1 0 0 0 0 0 0 0 0 0 1 0 0 0 0 0 0 0 0.0674 0.8699 0.06270000000000001 0 0 0 0 0 0 0 0 0.5029 0.4971 0 0 0 0 0 0 0 0 0.062 0.9379999999999999 0 0 0 0 0 0 0 0 0 1 0 0 0 0 0 0 0 0 0 1 0 0 0 0 0 0 0 0 0 1 0 0 0 0 0 0 0 0 0 1 0 0 0 0 0 0 0 0 0 1 0 0 0 0 0 0 0 0 0 1 0 0 0 0 0 0 0 0 0 1 0 0 0 0 0 0 0 0.07340000000000001 0.8535 0.0731 0 0 0 0 0 0 0 0 0.3892 0.6108 0 0 0 0 0 0 0 0 0.0104 0.9896 0 0 0 0 0 0 0 0 0 1 0 0 0 0 0 0 0 0 0 1 0 0 0 0 0 0 0 0 0 1 0 0 0 0 0 0 0 0 0 1 0 0 0 0 0 0 0 0 0 1 0 0 0 0 0 0 0 0 0 1 0 0 0 0 0 0 0 0 0 1 0 0 0 0 0 0 0 0.0852 0.8334 0.0814 0 0 0 0 0 0 0 0 0.3042 0.6958 0 0 0 0 0 0 0 0 0 1 0 0 0 0 0 0 0 0 0 1 0 0 0 0 0 0 0 0 0 1 0 0 0 0 0 0 0 0 0 1 0 0 0 0 0 0 0 0 0 1 0 0 0 0 0 0 0 0 0 1 0 0 0 0 0 0 0 0 0 1 0 0 0 0 0 0 0 0 0 1 0 0 0 0 0 0 0 0.09420000000000001 0.8021 0.1037 0 0 0 0 0 0 0 0 0.2155 0.7845 0 0 0 0 0 0 0 0 0 1 0 0 0 0 0 0 0 0 0 1 0 0 0 0 0 0 0 0 0 1 0 0 0 0 0 0 0 0 0 1 0 0 0 0 0 0 0 0 0 1 0 0 0 0 0 0 0 0 0 1 0 0 0 0 0 0 0 0 0 1 0 0 0 0 0 0 0 0 0 1 0 0 0 0 0 0 0 0.1086 0.7756 0.1158 0 0 0 0 0 0 0 0 0.1726 0.8274 0 0 0 0 0 0 0 0 0 1 0 0 0 0 0 0 0 0 0 1 0 0 0 0 0 0 0 0 0 1 0 0 0 0 0 0 0 0 0 1 0 0 0 0 0 0 0 0 0 1 0 0 0 0 0 0 0 0 0 1 0 0 0 0 0 0 0 0 0 1 0 0 0 0 0 0 0 0 0 1 0 0 0 0 0 0 0 0 0.0038 0.9962 0 0 0 0 0 0 0 0 0.0128 0.9872 0 0 0 0 0 0 0 0 0.0275 0.9725 0 0 0 0 0 0 0 0 0.0353 0.9647 0 0 0 0 0 0 0 0 0.0495 0.9505 0 0 0 0 0 0 0 0 0.0625 0.9375 0 0 0 0 0 0 0 0 0.07870000000000001 0.9213 0 0 0 0 0 0 0 0 0.08840000000000001 0.9116 0 0 0 0 0 0 0 0 0.0954 0.9046 0 0 0 0 0 0 0 0 0.1076 0.8924 0 0 0 0 0 0 0 0 0.0116 0.9883999999999999 0 0 0 0 0 0 0 0 0 1 0 0 0 0 0 0 0 0 0 1 0 0 0 0 0 0 0 0 0 1 0 0 0 0 0 0 0 0 0 1 0 0 0 0 0 0 0 0 0 1 0 0 0 0 0 0 0 0 0 1 0 0 0 0 0 0 0 0 0 1 0 0 0 0 0 0 0 0 0 1 0 0 0 0 0 0 0 0 0 1 0 0 0 0 0 0 0 0 0.023 0.977 0 0 0 0 0 0 0 0 0 1 0 0 0 0 0 0 0 0 0 1 0 0 0 0 0 0 0 0 0 1 0 0 0 0 0 0 0 0 0 1 0 0 0 0 0 0 0 0 0 1 0 0 0 0 0 0 0 0 0 1 0 0 0 0 0 0 0 0 0 1 0 0 0 0 0 0 0 0 0 1 0 0 0 0 0 0 0 0 0 1 0 0 0 0 0 0 0 0 0.0384 0.9616 0 0 0 0 0 0 0 0 0 1 0 0 0 0 0 0 0 0 0 1 0 0 0 0 0 0 0 0 0 1 0 0 0 0 0 0 0 0 0 1 0 0 0 0 0 0 0 0 0 1 0 0 0 0 0 0 0 0 0 1 0 0 0 0 0 0 0 0 0 1 0 0 0 0 0 0 0 0 0 1 0 0 0 0 0 0 0 0 0 1 0 0 0 0 0 0 0 0 0.0514 0.9486 0 0 0 0 0 0 0 0 0 1 0 0 0 0 0 0 0 0 0 1 0 0 0 0 0 0 0 0 0 1 0 0 0 0 0 0 0 0 0 1 0 0 0 0 0 0 0 0 0 1 0 0 0 0 0 0 0 0 0 1 0 0 0 0 0 0 0 0 0 1 0 0 0 0 0 0 0 0 0 1 0 0 0 0 0 0 0 0 0 1 0 0 0 0 0 0 0 0 0.0598 0.9402 0 0 0 0 0 0 0 0 0 1 0 0 0 0 0 0 0 0 0 1 0 0 0 0 0 0 0 0 0 1 0 0 0 0 0 0 0 0 0 1 0 0 0 0 0 0 0 0 0 1 0 0 0 0 0 0 0 0 0 1 0 0 0 0 0 0 0 0 0 1 0 0 0 0 0 0 0 0 0 1 0 0 0 0 0 0 0 0 0 1 0 0 0 0 0 0 0 0 0.075 0.925 0 0 0 0 0 0 0 0 0 1 0 0 0 0 0 0 0 0 0 1 0 0 0 0 0 0 0 0 0 1 0 0 0 0 0 0 0 0 0 1 0 0 0 0 0 0 0 0 0 1 0 0 0 0 0 0 0 0 0 1 0 0 0 0 0 0 0 0 0 1 0 0 0 0 0 0 0 0 0 1 0 0 0 0 0 0 0 0 0 1 0 0 0 0 0 0 0 0 0.0873 0.9127 0 0 0 0 0 0 0 0 0 1 0 0 0 0 0 0 0 0 0 1 0 0 0 0 0 0 0 0 0 1 0 0 0 0 0 0 0 0 0 1 0 0 0 0 0 0 0 0 0 1 0 0 0 0 0 0 0 0 0 1 0 0 0 0 0 0 0 0 0 1 0 0 0 0 0 0 0 0 0 1 0 0 0 0 0 0 0 0 0 1 0 0 0 0 0 0 0 0 0.0978 0.9022 0 0 0 0 0 0 0 0 0 1 0 0 0 0 0 0 0 0 0 1 0 0 0 0 0 0 0 0 0 1 0 0 0 0 0 0 0 0 0 1 0 0 0 0 0 0 0 0 0 1 0 0 0 0 0 0 0 0 0 1 0 0 0 0 0 0 0 0 0 1 0 0 0 0 0 0 0 0 0 1 0 0 0 0 0 0 0 0 0 1 0 0 0 0 0 0 0 0 0.1122 0.8878 0 0 0 0 0 0 0 0 0 1 0 0 0 0 0 0 0 0 0 1 0 0 0 0 0 0 0 0 0 1 0 0 0 0 0 0 0 0 0 1 0 0 0 0 0 0 0 0 0 1 0 0 0 0 0 0 0 0 0 1 0 0 0 0 0 0 0 0 0 1 0 0 0 0 0 0 0 0 0 1 0 0 0 0 0 0 0 0 0 1</probabilities>
		</cpt>
		<cpt id="motoruse_for_whirlewind" dynamic="plate">
			<state id="State0" />
			<state id="State1" />
			<state id="State2" />
			<state id="State3" />
			<state id="State4" />
			<state id="State5" />
			<state id="State6" />
			<state id="State7" />
			<state id="State8" />
			<state id="State9" />
			<probabilities>0.3238694321659299 0.1492689561373682 0.1416184971098266 0.1152669160149609 0.08551513090785447 0.07140428425705542 0.04981298877932676 0.03349200952057124 0.0198911934716083 0.00986059163549813</probabilities>
		</cpt>
		<cpt id="yaw_moment" dynamic="plate">
			<state id="State0" />
			<state id="State1" />
			<state id="State2" />
			<state id="State3" />
			<state id="State4" />
			<state id="State5" />
			<state id="State6" />
			<state id="State7" />
			<state id="State8" />
			<state id="State9" />
			<parents>motoruse_for_whirlewind</parents>
			<probabilities>0.6863568215892054 0.2407796101949025 0.06456771614192904 0.007396301849075462 0.000399800099950025 9.995002498750625e-05 9.995002498750625e-05 9.995002498750625e-05 9.995002498750625e-05 9.995002498750625e-05 0.3239704118352659 0.3691523390643742 0.2358056777289084 0.0624750099960016 0.007996801279488205 0.0001999200319872051 9.996001599360256e-05 9.996001599360256e-05 9.996001599360256e-05 9.996001599360256e-05 0.07807657702689193 0.2405278416475057 0.3702889133260022 0.2347295811256623 0.06717984604618614 0.008397480755773267 0.000499850044986504 9.997000899730081e-05 9.997000899730081e-05 9.997000899730081e-05 0.008698260347930415 0.0655868826234753 0.236752649470106 0.3753249350129974 0.2388522295540892 0.0664867026594681 0.007798440311937612 0.0002999400119976005 9.998000399920016e-05 9.998000399920016e-05 0.0003999600039996001 0.007399260073992601 0.0644935506449355 0.2408759124087591 0.3645635436456354 0.2511748825117488 0.06319368063193681 0.007399260073992601 0.0003999600039996001 9.999000099990002e-05 9.999000099990002e-05 0.0003999600039996001 0.007599240075992401 0.06329367063293671 0.2460753924607539 0.3700629937006299 0.2378762123787621 0.0658934106589341 0.008399160083991601 0.0002999700029997 9.998000399920016e-05 9.998000399920016e-05 0.0007998400319936012 0.007698460307938412 0.06838632273545291 0.2430513897220556 0.3673265346930614 0.2399520095980804 0.06508698260347931 0.007498500299940012 9.997000899730081e-05 9.997000899730081e-05 9.997000899730081e-05 9.997000899730081e-05 0.005998200539838049 0.06648005598320504 0.244926522043387 0.3599920023992802 0.240627811656503 0.08157552734179746 9.996001599360256e-05 9.996001599360256e-05 9.996001599360256e-05 9.996001599360256e-05 0.0002998800479808077 0.006497401039584167 0.06957217113154739 0.2433026789284286 0.3705517792882847 0.3093762495001999 9.995002498750625e-05 9.995002498750625e-05 9.995002498750625e-05 9.995002498750625e-05 9.995002498750625e-05 0.0001999000499750125 0.008095952023988006 0.06746626686656672 0.2387806096951524 0.6849575212393804</probabilities>
		</cpt>
		<cpt id="motor_wear" dynamic="plate">
			<state id="State0" />
			<state id="State1" />
			<state id="State2" />
			<state id="State3" />
			<state id="State4" />
			<state id="State5" />
			<state id="State6" />
			<state id="State7" />
			<state id="State8" />
			<state id="State9" />
			<probabilities>0.5607651373507838 0.3402847691643895 0.08974543362577304 0.007766431756076514 0.0002876456205954264 0.0002876456205954264 0.0002876456205954264 0.0001438228102977132 0.0001438228102977132 0.0002876456205954264</probabilities>
		</cpt>
		<cpt id="motor" dynamic="plate">
			<state id="State0" />
			<state id="State1" />
			<state id="State2" />
			<state id="State3" />
			<state id="State4" />
			<state id="State5" />
			<state id="State6" />
			<state id="State7" />
			<state id="State8" />
			<state id="State9" />
			<parents>motoruse_for_whirlewind motor_wear motoruse_for_tether</parents>
			<probabilities>0.7039480259870065 0.2273863068465767 0.06026986506746627 0.007596201899050475 0.0002998500749625187 9.995002498750625e-05 9.995002498750625e-05 9.995002498750625e-05 9.995002498750625e-05 9.995002498750625e-05 0.4534186325469812 0.3371651339464214 0.1711315473810476 0.03378648540583767 0.003798480607756897 0.0002998800479808077 9.996001599360256e-05 9.996001599360256e-05 9.996001599360256e-05 9.996001599360256e-05 0.2433270018994302 0.3534939518144556 0.2839148255523343 0.1002699190242927 0.01689493152054384 0.001699490152954114 9.997000899730081e-05 9.997000899730081e-05 9.997000899730081e-05 9.997000899730081e-05 0.09617114865540338 0.2674197740677797 0.3574927521743477 0.2121363590922723 0.05878236529041288 0.007497750674797561 0.0001999400179946016 9.997000899730081e-05 9.997000899730081e-05 9.997000899730081e-05 0.03159368126374725 0.1431713657268546 0.3152369526094781 0.3284343131373725 0.1486702659468106 0.02899420115976805 0.003599280143971206 9.998000399920016e-05 9.998000399920016e-05 9.998000399920016e-05 0.006999300069993001 0.0520947905209479 0.2086791320867913 0.3511648835116488 0.2751724827517248 0.09319068093190681 0.0117988201179882 0.0006999300069993001 9.999000099990002e-05 9.999000099990002e-05 0.0007999200079992001 0.0140985901409859 0.0963903609639036 0.2701729827017298 0.36006399360064 0.1992800719928007 0.0532946705329467 0.005599440055994401 0.0001999800019998 9.999000099990002e-05 9.999000099990002e-05 0.0023997600239976 0.0331966803319668 0.1526847315268473 0.326967303269673 0.3162683731626837 0.1378862113788621 0.0278972102789721 0.0024997500249975 9.999000099990002e-05 9.999000099990002e-05 0.0001999800019998 0.008599140085991401 0.06159384061593841 0.2252774722527747 0.356064393560644 0.2544745525447455 0.08079192080791921 0.0114988501149885 0.0013998600139986 9.998000399920016e-05 9.998000399920016e-05 0.0002999400119976005 0.006798640271945611 0.04339132173565287 0.1686662667466507 0.2904419116176765 0.2831433713257349 0.1562687462507499 0.05078984203159368 0.4589164334266294 0.3354658136745302 0.1615353858456617 0.03988404638144742 0.00349860055977609 0.0002998800479808077 9.996001599360256e-05 9.996001599360256e-05 9.996001599360256e-05 9.996001599360256e-05 0.2318072770891643 0.3488604558176729 0.2927828868452619 0.1080567772890844 0.01679328268692523 0.001299480207916833 9.996001599360256e-05 9.996001599360256e-05 9.996001599360256e-05 9.996001599360256e-05 0.09027291812456263 0.2600219934019794 0.3560931720483855 0.2236329101269619 0.0615815255423373 0.007697690692792162 0.0003998800359892032 9.997000899730081e-05 9.997000899730081e-05 9.997000899730081e-05 0.02909127261821454 0.1333599920023993 0.3166050184944517 0.3337998600419874 0.1520543836848945 0.03119064280715785 0.003598920323902829 9.997000899730081e-05 9.997000899730081e-05 9.997000899730081e-05 0.00599880023995201 0.05058988202359528 0.2041591681663667 0.3577284543091382 0.2710457908418316 0.09398120375924815 0.01489702059588082 0.001399720055988802 9.998000399920016e-05 9.998000399920016e-05 0.0005999400059994001 0.0130986901309869 0.08899110088991101 0.2740725927407259 0.351964803519648 0.211978802119788 0.05339466053394661 0.005599440055994401 0.0001999800019998 9.999000099990002e-05 9.998000399920016e-05 0.002899420115976805 0.03169366126774645 0.141371725654869 0.3343331333733253 0.3175364927014597 0.1417716456708658 0.02759448110377924 0.002599480103979204 9.998000399920016e-05 9.999000099990002e-05 0.0004999500049995 0.0058994100589941 0.05669433056694331 0.2206779322067793 0.354964503549645 0.2652734726527347 0.08459154084591541 0.0108989101089891 0.0003999600039996001 9.998000399920016e-05 9.998000399920016e-05 0.001099780043991202 0.01739652069586083 0.09988002399520096 0.2824435112977405 0.3529294141171765 0.1938612277544491 0.04739052189562087 0.004799040191961607 9.997000899730081e-05 9.997000899730081e-05 9.997000899730081e-05 0.001099670098970309 0.01389583125062481 0.07717684694591623 0.2033389983005099 0.3117064880535839 0.2498250524842547 0.1426572028391483 0.2463014794082367 0.3475609756097561 0.2844862055177929 0.1034586165533787 0.01629348260695722 0.001499400239904038 9.996001599360256e-05 9.996001599360256e-05 9.996001599360256e-05 9.996001599360256e-05 0.09277216834949516 0.2407277816655004 0.3692892132360292 0.2271318604418675 0.0621813455963211 0.007197840647805659 0.0003998800359892032 9.997000899730081e-05 9.997000899730081e-05 9.997000899730081e-05 0.02679464107178564 0.1354729054189162 0.3218356328734253 0.3286342731453709 0.1521695660867826 0.03229354129174165 0.002499500099980004 9.998000399920016e-05 9.998000399920016e-05 9.998000399920016e-05 0.006799320067993201 0.05109489051094891 0.1983801619838016 0.3578642135786421 0.2740725927407259 0.09429057094290572 0.0161983801619838 0.0010998900109989 9.999000099990002e-05 9.999000099990002e-05 0.0005999400059994001 0.0122987701229877 0.1004899510048995 0.2646735326467353 0.3456654334566543 0.2134786521347865 0.05489451054894511 0.007399260073992601 0.0003999600039996001 9.999000099990002e-05 9.999000099990002e-05 0.002999700029997 0.0275972402759724 0.1498850114988501 0.3224677532246775 0.3228677132286771 0.1450854914508549 0.0277972202779722 0.0010998900109989 9.999000099990002e-05 9.999000099990002e-05 0.0008999100089991 0.006299370062993701 0.0575942405759424 0.2147785221477852 0.3574642535746425 0.2647735226477352 0.08479152084791521 0.0123987601239876 0.0008999100089991 9.998000399920016e-05 9.998000399920016e-05 0.001399720055988802 0.01589682063587283 0.09978004399120176 0.2845430913817237 0.3547290541891622 0.1918616276744651 0.04719056188762247 0.004399120175964807 9.997000899730081e-05 9.997000899730081e-05 9.997000899730081e-05 0.003299010296910927 0.03309007297810657 0.1619514145756273 0.3306008197540738 0.3142057382785164 0.1292612216335099 0.02729181245626312 9.997000899730081e-05 9.997000899730081e-05 9.997000899730081e-05 0.0001999400179946016 0.00249925022493252 0.0250924722583225 0.1234629611116665 0.2627211836449065 0.3092072378286514 0.2765170448865341 0.09757072878136559 0.2651204638608418 0.3611916425072478 0.2071378586424073 0.06098170548835349 0.007197840647805659 0.000499850044986504 9.997000899730081e-05 9.997000899730081e-05 9.997000899730081e-05 0.02609217234829551 0.1355593322003399 0.3106068179546136 0.3353993801859442 0.1553533939818054 0.03428971308607418 0.00239928021593522 9.997000899730081e-05 9.997000899730081e-05 9.997000899730081e-05 0.005298940211957609 0.04499100179964007 0.1984603079384123 0.3554289142171566 0.2824435112977405 0.09878024395120975 0.01299740051989602 0.001399720055988802 9.998000399920016e-05 9.998000399920016e-05 0.0009999000099990001 0.0132986701329867 0.08769123087691232 0.266973302669733 0.3551644835516448 0.2091790820917908 0.05909409059094091 0.007099290070992901 0.0003999600039996001 9.999000099990002e-05 9.999000099990002e-05 0.0023997600239976 0.0300969903009699 0.1447855214478552 0.3273672632736727 0.3194680531946805 0.1444855514448555 0.0291970802919708 0.001999800019998 9.999000099990002e-05 9.999000099990002e-05 0.0002999700029997 0.007799220077992201 0.06129387061293871 0.2137786221377862 0.351064893510649 0.2690730926907309 0.08399160083991601 0.0123987601239876 0.0001999800019998 9.999000099990002e-05 9.999000099990002e-05 0.0010998900109989 0.0157984201579842 0.1032896710328967 0.2811718828117188 0.353064693530647 0.1901809819018098 0.0486951304869513 0.0064993500649935 9.997000899730081e-05 9.997000899730081e-05 9.997000899730081e-05 0.002299310206937919 0.03029091272618215 0.1672498250524843 0.3333000099970009 0.3154053783864841 0.1255623313006098 0.02559232230330901 9.997000899730081e-05 9.997000899730081e-05 9.997000899730081e-05 0.0007997600719784065 0.009497150854743577 0.06068179546136159 0.2334299710086974 0.3634909527141857 0.2455263420973708 0.0862741177646706 9.996001599360256e-05 9.996001599360256e-05 9.996001599360256e-05 9.996001599360256e-05 0.0001999200319872051 0.007696921231507397 0.04668132746901239 0.1708316673330668 0.3016793282686925 0.4725109956017593 0.03189043287013896 0.1367589723083075 0.3249025292412276 0.3258022593222034 0.1491552534239728 0.02899130260921724 0.002199340197940618 9.997000899730081e-05 9.997000899730081e-05 9.997000899730081e-05 0.00609878024395121 0.05278944211157768 0.1960607878424315 0.3547290541891622 0.280243951209758 0.09348130373925215 0.01479704059188162 0.001599680063987202 9.998000399920016e-05 9.998000399920016e-05 0.0005999400059994001 0.0131986801319868 0.08889111088891111 0.2675732426757324 0.3576642335766423 0.2081791820817918 0.05619438056194381 0.006899310068993101 0.0006999300069993001 9.999000099990002e-05 9.999000099990002e-05 0.0036996300369963 0.03159684031596841 0.150984901509849 0.3191680831916808 0.3243675632436756 0.1413858614138586 0.0266973302669733 0.0018998100189981 9.999000099990002e-05 9.999000099990002e-05 0.0001999800019998 0.006699330066993301 0.06009399060093991 0.2156784321567843 0.3578642135786421 0.2575742425757424 0.0862913708629137 0.0147985201479852 0.0006999300069993001 9.998000399920016e-05 9.998000399920016e-05 0.001599680063987202 0.01519696060787842 0.09828034393121375 0.2734453109378124 0.3629274145170966 0.1957608478304339 0.04769046190761848 0.004899020195960808 9.997000899730081e-05 9.997000899730081e-05 9.997000899730081e-05 0.00249925022493252 0.03418974307707687 0.156852944116765 0.3401979406178147 0.3160051984404679 0.1226632010396881 0.02729181245626312 9.997000899730081e-05 9.997000899730081e-05 9.997000899730081e-05 0.0002999100269919024 0.009397180845746277 0.06528041587523743 0.2330300909727082 0.3610916724982505 0.2477256822953114 0.08287513745876238 9.997000899730081e-05 9.997000899730081e-05 9.997000899730081e-05 9.997000899730081e-05 0.001599520143956813 0.01939418174547636 0.1203638908327502 0.2906128161551534 0.3438968309507148 0.2237328801359592 9.996001599360256e-05 9.996001599360256e-05 9.996001599360256e-05 9.996001599360256e-05 9.996001599360256e-05 0.001199520191923231 0.0156937225109956 0.08856457417033187 0.217313074770092 0.6767293082766893 0.00659868026394721 0.05558888222355529 0.2105578884223155 0.3513297340531893 0.2701459708058389 0.09188162367526495 0.01309738052389522 0.0005998800239952009 9.998000399920016e-05 9.998000399920016e-05 0.0010998900109989 0.0143985601439856 0.09459054094590541 0.2693730626937306 0.3507649235076493 0.2072792720727927 0.0552944705529447 0.006999300069993001 9.999000099990002e-05 9.999000099990002e-05 0.0001 0.0025 0.0298 0.1492 0.3266 0.3145 0.1475 0.0268 0.0029 0.0001 9.999000099990002e-05 0.0005999400059994001 0.006999300069993001 0.0553944605539446 0.2201779822017798 0.355064493550645 0.2665733426657334 0.08149185081491851 0.0132986701329867 0.0002999700029997 9.998000399920016e-05 9.998000399920016e-05 0.001099780043991202 0.01709658068386323 0.1055788842231554 0.2834433113377324 0.3500299940011998 0.1897620475904819 0.04819036192761448 0.004599080183963208 9.998000399920016e-05 9.998000399920016e-05 9.998000399920016e-05 0.002899420115976805 0.03549290141971605 0.163867226554689 0.3343331333733253 0.3076384723055389 0.1302739452109578 0.02519496100779844 9.997000899730081e-05 9.997000899730081e-05 9.997000899730081e-05 0.0002999100269919024 0.007697690692792162 0.06927921623512946 0.2343297010896731 0.3563930820753774 0.2438268519444167 0.08787363790862741 9.996001599360256e-05 9.996001599360256e-05 9.996001599360256e-05 9.996001599360256e-05 0.001399440223910436 0.02109156337465014 0.1183526589364254 0.296781287485006 0.3408636545381847 0.2211115553778489 9.996001599360256e-05 9.996001599360256e-05 9.996001599360256e-05 9.996001599360256e-05 0.0001999200319872051 0.00429828068772491 0.04088364654138345 0.180827668932427 0.3429628148740504 0.4304278288684526 9.994003597841295e-05 9.994003597841295e-05 9.994003597841295e-05 9.994003597841295e-05 9.994003597841295e-05 9.994003597841295e-05 0.003298021187287628 0.02898261043373975 0.1284229462322606 0.8386967819308415 0.0007999200079992001 0.0145985401459854 0.09949005099490051 0.2793720627937206 0.356964303569643 0.1897810218978102 0.05239476052394761 0.006199380061993801 0.0002999700029997 9.999000099990002e-05 9.999000099990002e-05 0.0025997400259974 0.0301969803019698 0.1500849915008499 0.3253674632536747 0.3200679932006799 0.1436856314368563 0.0260973902609739 0.0015998400159984 0.0001999800019998 9.999000099990002e-05 0.0002999700029997 0.0058994100589941 0.05649435056494351 0.2195780421957804 0.3487651234876512 0.2678732126787322 0.08859114088591141 0.011998800119988 0.0003999600039996001 9.998000399920016e-05 9.998000399920016e-05 0.001399720055988802 0.01479704059188162 0.1041791641671666 0.2866426714657069 0.3472305538892221 0.1941611677664467 0.04639072185562888 0.004999000199960008 9.998000399920016e-05 9.998000399920016e-05 0.0002999400119976005 0.002999400119976005 0.02999400119976005 0.1616676664667067 0.3356328734253149 0.3127374525094981 0.1302739452109578 0.02619476104779044 9.997000899730081e-05 9.997000899730081e-05 9.997000899730081e-05 0.0001999400179946016 0.008597420773767869 0.06697990602819154 0.2261321603518944 0.3592922123362991 0.2555233429971009 0.08297510746775967 9.996001599360256e-05 9.996001599360256e-05 9.996001599360256e-05 9.996001599360256e-05 0.001299480207916833 0.02029188324670132 0.1119552179128349 0.2984806077568972 0.3454618152738905 0.2221111555377849 9.996001599360256e-05 9.996001599360256e-05 9.996001599360256e-05 9.996001599360256e-05 0.0001999200319872051 0.005597760895641743 0.03408636545381847 0.1826269492203119 0.3412634946021592 0.4358256697321072 9.995002498750625e-05 9.995002498750625e-05 9.995002498750625e-05 9.995002498750625e-05 9.995002498750625e-05 0.0004997501249375312 0.008695652173913044 0.08105947026486757 0.2534732633683158 0.6557721139430285 9.994003597841295e-05 9.994003597841295e-05 9.994003597841295e-05 9.994003597841295e-05 9.994003597841295e-05 9.994003597841295e-05 0.0004997001798920647 0.008594843094143514 0.05196881870877473 0.9383369978013192 0.0001999800019998 0.0028997100289971 0.0327967203279672 0.1553844615538446 0.3304669533046695 0.3169683031696831 0.132986701329867 0.0263973602639736 0.0017998200179982 9.999000099990002e-05 9.999000099990002e-05 0.0004999500049995 0.006899310068993101 0.06159384061593841 0.2207779222077792 0.3507649235076493 0.2590740925907409 0.08799120087991201 0.0114988501149885 0.0007999200079992001 9.999000099990002e-05 9.999000099990002e-05 0.0016998300169983 0.0178982101789821 0.09699030096990301 0.2823717628237176 0.351964803519648 0.1970802919708029 0.04709529047095291 0.0046995300469953 9.997000899730081e-05 9.997000899730081e-05 9.997000899730081e-05 0.002999100269919024 0.03518944316704988 0.1637508747375787 0.3403978806358093 0.3074077776667 0.1276617014895531 0.02229331200639808 9.997000899730081e-05 9.997000899730081e-05 9.997000899730081e-05 0.0001999400179946016 0.007897630710786764 0.06927921623512946 0.23962811156653 0.3539938018594422 0.2446266120163951 0.08407477756672999 9.996001599360256e-05 9.996001599360256e-05 9.996001599360256e-05 9.996001599360256e-05 0.001099560175929628 0.02089164334266293 0.1168532586965214 0.2934826069572171 0.3413634546181528 0.2259096361455418 9.996001599360256e-05 9.996001599360256e-05 9.996001599360256e-05 9.996001599360256e-05 0.0001999200319872051 0.004498200719712115 0.04048380647740903 0.173030787684926 0.3438624550179928 0.4375249900039984 9.995002498750625e-05 9.995002498750625e-05 9.995002498750625e-05 9.995002498750625e-05 9.995002498750625e-05 0.0004997501249375312 0.01099450274862569 0.07616191904047977 0.247776111944028 0.6640679660169915 9.995002498750625e-05 9.995002498750625e-05 9.995002498750625e-05 9.995002498750625e-05 9.995002498750625e-05 9.995002498750625e-05 0.001499250374812594 0.02138930534732634 0.1278360819590205 0.8486756621689155 9.9930048965724e-05 9.9930048965724e-05 9.9930048965724e-05 9.9930048965724e-05 9.9930048965724e-05 9.9930048965724e-05 9.9930048965724e-05 0.002298391126211652 0.01688817827520735 0.9801139202558209 9.999000099990002e-05 0.0004999500049995 0.007899210078992101 0.0653934606539346 0.2198780121987801 0.3607639236076393 0.2488751124887511 0.08509149085091491 0.0110988901109889 0.0003999600039996001 9.998000399920016e-05 9.998000399920016e-05 0.001599680063987202 0.01679664067186563 0.1017796440711858 0.2844431113777244 0.347630473905219 0.1945610877824435 0.04739052189562087 0.005598880223955209 9.998000399920016e-05 9.998000399920016e-05 0.0001999600079984003 0.002599480103979204 0.03379324135172965 0.1624675064987003 0.3382323535292941 0.3111377724455109 0.1259748050389922 0.02539492101579684 9.997000899730081e-05 9.997000899730081e-05 9.997000899730081e-05 0.0006997900629811056 0.009597120863740878 0.06957912626212136 0.2322303309007298 0.359592122363291 0.2428271518544437 0.08517444766570029 9.996001599360256e-05 9.996001599360256e-05 9.996001599360256e-05 9.996001599360256e-05 0.0009996001599360256 0.02109156337465014 0.1151539384246301 0.2988804478208716 0.3434626149540184 0.2200119952019192 9.996001599360256e-05 9.996001599360256e-05 9.996001599360256e-05 9.996001599360256e-05 9.996001599360256e-05 0.00469812075169932 0.03988404638144742 0.1751299480207917 0.3461615353858457 0.4336265493802479 9.996001599360256e-05 9.996001599360256e-05 9.996001599360256e-05 9.996001599360256e-05 9.996001599360256e-05 0.0009996001599360256 0.01129548180727709 0.07696921231507398 0.2507996801279488 0.6594362255097961 9.994003597841295e-05 9.994003597841295e-05 9.994003597841295e-05 9.994003597841295e-05 9.994003597841295e-05 9.994003597841295e-05 0.001399160503697781 0.02438536877873276 0.1294223465920448 0.8441934839096542 9.994003597841295e-05 9.994003597841295e-05 9.994003597841295e-05 9.994003597841295e-05 9.994003597841295e-05 9.994003597841295e-05 0.0002998201079352388 0.005596642014791126 0.04667199680191885 0.9468319008594843 9.9930048965724e-05 9.9930048965724e-05 9.9930048965724e-05 9.9930048965724e-05 9.9930048965724e-05 9.9930048965724e-05 9.9930048965724e-05 0.000199860097931448 0.00449685220345758 0.9946037773558509 9.998000399920016e-05 9.998000399920016e-05 0.0001999600079984003 0.00659868026394721 0.04849030193961208 0.1681663667266547 0.2862427514497101 0.2910417916416717 0.1500699860027994 0.04899020195960808 9.998000399920016e-05 9.998000399920016e-05 9.998000399920016e-05 0.0008998200359928015 0.01109778044391122 0.07598480303939212 0.1968606278744251 0.3158368326334733 0.2631473705258948 0.135872825434913 9.997000899730081e-05 9.997000899730081e-05 9.997000899730081e-05 9.997000899730081e-05 0.003299010296910927 0.02709187243826852 0.1183644906528042 0.2561231630510847 0.3098070578826352 0.2849145256423073 9.996001599360256e-05 9.996001599360256e-05 9.996001599360256e-05 9.996001599360256e-05 0.0004998000799680128 0.006897241103558577 0.05237904838064774 0.1756297481007597 0.2914834066373451 0.4727109156337465 9.996001599360256e-05 9.996001599360256e-05 9.996001599360256e-05 9.996001599360256e-05 9.996001599360256e-05 0.001499400239904038 0.01419432227109156 0.08056777289084366 0.2165133946421431 0.6867253098760496 9.995002498750625e-05 9.995002498750625e-05 9.995002498750625e-05 9.995002498750625e-05 9.995002498750625e-05 0.0001999000499750125 0.0031984007996002 0.03168415792103948 0.1319340329835083 0.8324837581209396 9.994003597841295e-05 9.994003597841295e-05 9.994003597841295e-05 9.994003597841295e-05 9.994003597841295e-05 9.994003597841295e-05 9.994003597841295e-05 0.00979412352588447 0.05826504097541475 0.9312412552468519 9.9930048965724e-05 9.9930048965724e-05 9.9930048965724e-05 9.9930048965724e-05 9.9930048965724e-05 9.9930048965724e-05 9.9930048965724e-05 0.001798740881383032 0.01698810832417308 0.9805136404516839 9.9930048965724e-05 9.9930048965724e-05 9.9930048965724e-05 9.9930048965724e-05 9.9930048965724e-05 9.9930048965724e-05 9.9930048965724e-05 0.000199860097931448 0.004396922154491856 0.9947037074048166 9.992006394884092e-05 9.992006394884092e-05 9.992006394884092e-05 9.992006394884092e-05 9.992006394884092e-05 9.992006394884092e-05 9.992006394884092e-05 9.992006394884092e-05 0.0002997601918465228 0.9989008792965628 0.3524590163934426 0.3609556177528989 0.2129148340663735 0.06427429028388644 0.008496601359456218 0.0004998000799680128 9.996001599360256e-05 9.996001599360256e-05 9.996001599360256e-05 9.996001599360256e-05 0.1551379448220712 0.311375449820072 0.3283686525389844 0.1649340263894442 0.03648540583766494 0.003298680527788885 9.996001599360256e-05 9.996001599360256e-05 9.996001599360256e-05 9.996001599360256e-05 0.05468906218756249 0.1966606678664267 0.351129774045191 0.2778444311137773 0.1020795840831834 0.01639672065586882 0.0008998200359928015 9.998000399920016e-05 9.998000399920016e-05 9.998000399920016e-05 0.01509698060387922 0.09078184363127374 0.2611477704459108 0.3533293341331734 0.2168566286742651 0.05528894221155769 0.006698660267946411 0.0005998800239952009 9.998000399920016e-05 9.998000399920016e-05 0.003299340131973605 0.02829434113177364 0.1397720455908818 0.3226354729054189 0.3299340131973605 0.1420715856828634 0.03139372125574885 0.002399520095980804 9.998000399920016e-05 9.998000399920016e-05 0.0001 0.0065 0.0587 0.2059 0.3475 0.2705 0.0921 0.017 0.0015 0.0002 9.999000099990002e-05 0.0013998600139986 0.0150984901509849 0.09409059094090591 0.2778722127787221 0.3565643435656434 0.1984801519848015 0.05019498050194981 0.005499450054994501 0.0006999300069993001 9.998000399920016e-05 9.998000399920016e-05 0.002899420115976805 0.03329334133173365 0.1527694461107778 0.3273345330933813 0.3191361727654469 0.1335732853429314 0.02799440111977605 0.002799440111977605 9.998000399920016e-05 9.998000399920016e-05 0.0003999200159968006 0.009598080383923215 0.05858828234353129 0.2191561687662467 0.3665266946610678 0.252249550089982 0.08238352329534093 0.01089782043591282 9.997000899730081e-05 9.997000899730081e-05 9.997000899730081e-05 0.0003998800359892032 0.00739778066580026 0.04298710386883935 0.1653503948815356 0.2965110466859942 0.2912126362091372 0.1958412476257123 0.1567529741077677 0.3035089473158052 0.339298210536839 0.1607517744676597 0.03588923323003099 0.003299010296910927 0.0001999400179946016 9.997000899730081e-05 9.997000899730081e-05 9.997000899730081e-05 0.04858542437268819 0.1895431370588823 0.3526941917424772 0.2855143456962911 0.10666799960012 0.01589523143057083 0.0007997600719784065 9.997000899730081e-05 9.997000899730081e-05 9.997000899730081e-05 0.0133986601339866 0.08309169083091691 0.2591740825917409 0.3505649435056494 0.2215778422157784 0.06309369063093691 0.008399160083991601 0.0004999500049995 9.999000099990002e-05 9.999000099990002e-05 0.0018998100189981 0.0237976202379762 0.1416858314168583 0.3150684931506849 0.3307669233076692 0.1532846715328467 0.0306969303069693 0.0025997400259974 9.999000099990002e-05 9.999000099990002e-05 0.0001999800019998 0.006299370062993701 0.0514948505149485 0.2006799320067993 0.3506649335066493 0.2826717328267173 0.09409059094090591 0.0128987101289871 0.0008999100089991 9.999000099990002e-05 9.999000099990002e-05 0.0002999700029997 0.0133986601339866 0.0907909209079092 0.2722727727227277 0.3563643635636436 0.202979702029797 0.0573942605739426 0.0058994100589941 0.0004999500049995 9.999000099990002e-05 0.0001999800019998 0.0028997100289971 0.030996900309969 0.1437856214378562 0.3288671132886711 0.3166683331666834 0.1434856514348565 0.0305969403059694 0.0023997600239976 9.998000399920016e-05 9.998000399920016e-05 0.0004999000199960008 0.00619876024795041 0.0582883423315337 0.2164567086582684 0.3573285342931414 0.2598480303939212 0.08838232353529295 0.01279744051189762 9.997000899730081e-05 9.997000899730081e-05 9.997000899730081e-05 0.0003998800359892032 0.01639508147555733 0.1040687793661901 0.2914125762271318 0.3522943117064881 0.1856443067079876 0.0494851544536639 9.996001599360256e-05 9.996001599360256e-05 9.996001599360256e-05 9.996001599360256e-05 0.001199520191923231 0.01279488204718113 0.07576969212315074 0.2046181527389044 0.3115753698520592 0.3936425429828069 0.05368389483155053 0.1913425972208337 0.3498950314905528 0.2846146156153154 0.1031690492852144 0.01589523143057083 0.001099670098970309 9.997000899730081e-05 9.997000899730081e-05 9.997000899730081e-05 0.01229754049190162 0.07968406318736253 0.2505498900219956 0.366626674665067 0.2241551689662068 0.06078784243151369 0.005598880223955209 9.998000399920016e-05 9.998000399920016e-05 9.998000399920016e-05 0.001799640071985603 0.02539492101579684 0.134373125374925 0.3136372725454909 0.3329334133173366 0.1575684863027395 0.03159368126374725 0.002499500099980004 9.998000399920016e-05 9.998000399920016e-05 0.0003999600039996001 0.005699430056994301 0.0514948505149485 0.1966803319668033 0.3511648835116488 0.2830716928307169 0.09509049095090491 0.0153984601539846 0.0008999100089991 9.999000099990002e-05 0.0002 0.0005999999999999999 0.0141 0.0951 0.2714 0.3487 0.2107 0.0517 0.0072 0.0003 9.999000099990002e-05 9.999000099990002e-05 0.0021997800219978 0.0286971302869713 0.1470852914708529 0.3306669333066694 0.3221677832216778 0.1395860413958604 0.0266973302669733 0.0026997300269973 9.998000399920016e-05 9.998000399920016e-05 0.0003999200159968006 0.007098580283943211 0.05968806238752249 0.2092581483703259 0.3649270145970806 0.256748650269946 0.08758248350329934 0.01409718056388722 9.997000899730081e-05 9.997000899730081e-05 9.997000899730081e-05 0.001599520143956813 0.01599520143956813 0.1061681495551335 0.2749175247425772 0.3530940717784665 0.1969409177246826 0.05098470458862341 9.997000899730081e-05 9.997000899730081e-05 9.997000899730081e-05 9.997000899730081e-05 0.003898830350894732 0.03388983305008497 0.157852644206738 0.3394981505548336 0.3136059182245327 0.1508547435769269 9.995002498750625e-05 9.995002498750625e-05 9.995002498750625e-05 9.995002498750625e-05 9.995002498750625e-05 0.002598700649675162 0.02468765617191404 0.1168415792103948 0.2567716141929036 0.5986006996501749 0.01329734053189362 0.08708258348330333 0.2583483303339332 0.3608278344331134 0.2110577884423115 0.0616876624675065 0.006798640271945611 0.0006998600279944011 9.998000399920016e-05 9.998000399920016e-05 0.0015998400159984 0.0235976402359764 0.1350864913508649 0.3226677332266774 0.3326667333266674 0.150984901509849 0.0305969403059694 0.0025997400259974 9.999000099990002e-05 9.999000099990002e-05 9.999000099990002e-05 0.0053994600539946 0.0525947405259474 0.197980201979802 0.3574642535746425 0.276972302769723 0.09569043095690431 0.0130986901309869 0.0005999400059994001 9.999000099990002e-05 9.999000099990002e-05 0.0004999500049995 0.0147985201479852 0.09139086091390861 0.2710728927107289 0.345065493450655 0.2171782821717828 0.0532946705329467 0.006399360063993601 0.0001999800019998 9.999000099990002e-05 9.999000099990002e-05 0.0028997100289971 0.0305969403059694 0.1505849415058494 0.3237676232376762 0.3195680431956804 0.1401859814018598 0.0293970602939706 0.0027997200279972 9.998000399920016e-05 9.998000399920016e-05 0.0004999000199960008 0.007598480303939212 0.05668866226754649 0.2163567286542691 0.3573285342931414 0.2595480903819236 0.08778244351129774 0.01399720055988802 9.997000899730081e-05 9.997000899730081e-05 9.997000899730081e-05 0.0006997900629811056 0.01559532140357893 0.0996700989703089 0.2925122463261022 0.3477956613016095 0.1921423572928121 0.05128461461561531 9.996001599360256e-05 9.996001599360256e-05 9.996001599360256e-05 9.996001599360256e-05 0.004198320671731308 0.03158736505397841 0.1567373050779688 0.3396641343462615 0.3114754098360656 0.15593762495002 9.996001599360256e-05 9.996001599360256e-05 9.996001599360256e-05 9.996001599360256e-05 0.0003998400639744102 0.007796881247501 0.06657337065173931 0.235405837664934 0.3556577369052379 0.3337664934026389 9.995002498750625e-05 9.995002498750625e-05 9.995002498750625e-05 9.995002498750625e-05 9.995002498750625e-05 0.0006996501749125438 0.006296851574212893 0.04877561219390305 0.1683158420789605 0.7754122938530734 0.0021997800219978 0.0268973102689731 0.1475852414758524 0.3211678832116788 0.3234676532346765 0.145985401459854 0.0293970602939706 0.002999700029997 0.0001999800019998 9.999000099990002e-05 9.999000099990002e-05 0.0065993400659934 0.0486951304869513 0.1954804519548045 0.3492650734926507 0.2797720227977202 0.1024897510248975 0.0164983501649835 0.0009999000099990001 9.999000099990002e-05 9.999000099990002e-05 0.0007999200079992001 0.0168983101689831 0.0882911708829117 0.2661733826617338 0.3606639336066393 0.2070792920707929 0.0532946705329467 0.0065993400659934 9.999000099990002e-05 9.999000099990002e-05 9.999000099990002e-05 0.0015998400159984 0.0310968903109689 0.1507849215078492 0.3317668233176682 0.3167683231676832 0.1385861413858614 0.0262973702629737 0.0028997100289971 9.998000399920016e-05 9.998000399920016e-05 0.0003999200159968006 0.005298940211957609 0.0586882623475305 0.2115576884623075 0.3582283543291342 0.2664467106578684 0.08468306338732254 0.01449710057988402 9.997000899730081e-05 9.997000899730081e-05 9.997000899730081e-05 0.001299610116964911 0.01569529141257623 0.1010696790962711 0.2883135059482155 0.3517944616615015 0.1877436768969309 0.05378386484054783 9.996001599360256e-05 9.996001599360256e-05 9.996001599360256e-05 9.996001599360256e-05 0.003298680527788885 0.03388644542183127 0.1658336665333867 0.3332666933226709 0.3112754898040784 0.1520391843262695 9.996001599360256e-05 9.996001599360256e-05 9.996001599360256e-05 9.996001599360256e-05 0.0003998400639744102 0.007497001199520192 0.06757297081167533 0.2242103158736505 0.3639544182327069 0.3359656137544982 9.996001599360256e-05 9.996001599360256e-05 9.996001599360256e-05 9.996001599360256e-05 9.996001599360256e-05 0.001699320271891244 0.01859256297481008 0.116453418632547 0.2928828468612555 0.5698720511795282 9.994003597841295e-05 9.994003597841295e-05 9.994003597841295e-05 9.994003597841295e-05 9.994003597841295e-05 9.994003597841295e-05 0.001499100539676194 0.01609034579252449 0.08135118928642815 0.9004597241655007 0.0002 0.0066 0.0586 0.2048 0.3545 0.2658 0.0941 0.0144 0.0009 0.0001 0.0001 0.0008 0.0139 0.0955 0.2618 0.3582 0.2092 0.0537 0.0067 0.0001 9.999000099990002e-05 0.0001999800019998 0.0025997400259974 0.0298970102989701 0.1493850614938506 0.3314668533146685 0.3096690330966903 0.1442855714428557 0.0288971102889711 0.0034996500349965 9.998000399920016e-05 9.998000399920016e-05 0.0004999000199960008 0.005498900219956008 0.05678864227154569 0.219256148770246 0.3598280343931214 0.2614477104579084 0.08208358328334334 0.01439712057588482 9.997000899730081e-05 9.997000899730081e-05 9.997000899730081e-05 0.00119964010796761 0.01869439168249525 0.1081675497350795 0.2835149455163451 0.3487953613915825 0.1886434069779066 0.05068479456163151 9.997000899730081e-05 9.997000899730081e-05 9.997000899730081e-05 0.0002999100269919024 0.003498950314905529 0.03548935319404179 0.1639508147555733 0.3364990502849145 0.3040087973607918 0.1559532140357893 9.996001599360256e-05 9.996001599360256e-05 9.996001599360256e-05 9.996001599360256e-05 0.0004998000799680128 0.008096761295481807 0.06357457017193123 0.232906837265094 0.3639544182327069 0.3305677728908437 9.995002498750625e-05 9.995002498750625e-05 9.995002498750625e-05 9.995002498750625e-05 9.995002498750625e-05 0.001199400299850075 0.01679160419790105 0.1151424287856072 0.2984507746126936 0.5679160419790105 9.995002498750625e-05 9.995002498750625e-05 9.995002498750625e-05 9.995002498750625e-05 9.995002498750625e-05 0.0001999000499750125 0.003498250874562719 0.04027986006996502 0.1862068965517241 0.7693153423288356 9.994003597841295e-05 9.994003597841295e-05 9.994003597841295e-05 9.994003597841295e-05 9.994003597841295e-05 9.994003597841295e-05 0.0002998201079352388 0.003897661403158105 0.03288027183689786 0.9623226064361383 0.0001 0.0012 0.018 0.1005 0.2768 0.3488 0.1983 0.0506 0.0055 0.0002 9.999000099990002e-05 9.999000099990002e-05 0.0031996800319968 0.0298970102989701 0.1503849615038496 0.328967103289671 0.3148685131486851 0.1442855714428557 0.0265973402659734 0.0015998400159984 9.998000399920016e-05 9.998000399920016e-05 0.0003999200159968006 0.007498500299940012 0.0630873825234953 0.2139572085582883 0.3535292941411718 0.26124775044991 0.08608278344331134 0.01399720055988802 9.997000899730081e-05 9.997000899730081e-05 9.997000899730081e-05 0.0007997600719784065 0.01899430170948715 0.09677096870938719 0.277516744976507 0.3629911026691993 0.1910426871938418 0.05158452464260722 9.997000899730081e-05 9.997000899730081e-05 9.997000899730081e-05 9.997000899730081e-05 0.002299310206937919 0.0362891132660202 0.160851744476657 0.3429971008697391 0.3087073877836649 0.1484554633609917 9.996001599360256e-05 9.996001599360256e-05 9.996001599360256e-05 9.996001599360256e-05 0.0002998800479808077 0.007497001199520192 0.06577369052379048 0.2295081967213115 0.3580567772890844 0.3384646141543383 9.996001599360256e-05 9.996001599360256e-05 9.996001599360256e-05 9.996001599360256e-05 9.996001599360256e-05 0.001199520191923231 0.01929228308676529 0.1116553378648541 0.2999800079968013 0.5673730507796881 9.995002498750625e-05 9.995002498750625e-05 9.995002498750625e-05 9.995002498750625e-05 9.995002498750625e-05 9.995002498750625e-05 0.004297851074462769 0.0415792103948026 0.1816091954022989 0.7719140429785107 9.995002498750625e-05 9.995002498750625e-05 9.995002498750625e-05 9.995002498750625e-05 9.995002498750625e-05 9.995002498750625e-05 0.0002998500749625187 0.01019490254872564 0.07256371814092953 0.9163418290854572 9.9930048965724e-05 9.9930048965724e-05 9.9930048965724e-05 9.9930048965724e-05 9.9930048965724e-05 9.9930048965724e-05 9.9930048965724e-05 0.0006995103427600679 0.007694613770360748 0.9909063655441191 9.999000099990002e-05 9.999000099990002e-05 0.0035996400359964 0.0330966903309669 0.1556844315568443 0.3316668333166684 0.3117688231176882 0.1370862913708629 0.0247975202479752 0.0020997900209979 9.998000399920016e-05 9.998000399920016e-05 0.0002999400119976005 0.00639872025594881 0.05688862227554489 0.2201559688062387 0.3514297140571885 0.26374725054989 0.08758248350329934 0.01329734053189362 9.997000899730081e-05 9.997000899730081e-05 9.997000899730081e-05 0.00119964010796761 0.01579526142157353 0.104668599420174 0.2824152754173748 0.3586923922823153 0.1870438868339498 0.0498850344896531 9.997000899730081e-05 9.997000899730081e-05 9.997000899730081e-05 9.997000899730081e-05 0.003798860341897431 0.03368989303209037 0.1591522543237029 0.3375987203838848 0.3110066979906028 0.1543536938918325 9.996001599360256e-05 9.996001599360256e-05 9.996001599360256e-05 9.996001599360256e-05 0.0006997201119552179 0.007197121151539384 0.06507397041183527 0.2315073970411835 0.3623550579768093 0.3327668932427029 9.996001599360256e-05 9.996001599360256e-05 9.996001599360256e-05 9.996001599360256e-05 9.996001599360256e-05 0.001799280287884846 0.02029188324670132 0.1132546981207517 0.3037784886045582 0.560375849660136 9.994003597841295e-05 9.994003597841295e-05 9.994003597841295e-05 9.994003597841295e-05 9.994003597841295e-05 9.994003597841295e-05 0.004197481511093344 0.04077553467919248 0.17569458325005 0.7787327603437937 9.994003597841295e-05 9.994003597841295e-05 9.994003597841295e-05 9.994003597841295e-05 9.994003597841295e-05 9.994003597841295e-05 0.0006995802518488907 0.00979412352588447 0.07725364781131321 0.911653008195083 9.994003597841295e-05 9.994003597841295e-05 9.994003597841295e-05 9.994003597841295e-05 9.994003597841295e-05 9.994003597841295e-05 9.994003597841295e-05 0.002298620827503498 0.02378572856286228 0.9732160703577853 9.992006394884092e-05 9.992006394884092e-05 9.992006394884092e-05 9.992006394884092e-05 9.992006394884092e-05 9.992006394884092e-05 9.992006394884092e-05 9.992006394884092e-05 0.002298161470823341 0.9969024780175859 9.998000399920016e-05 9.998000399920016e-05 0.0005998800239952009 0.007198560287942412 0.0623875224955009 0.2228554289142172 0.3600279944011198 0.2535492901419716 0.08168366326734654 0.01149770045990802 9.998000399920016e-05 9.998000399920016e-05 9.998000399920016e-05 0.001299740051989602 0.01619676064787042 0.103379324135173 0.2850429914017197 0.3515296940611878 0.1858628274345131 0.05638872225554889 9.997000899730081e-05 9.997000899730081e-05 9.997000899730081e-05 9.997000899730081e-05 0.002599220233929821 0.0364890532840148 0.1646506048185544 0.3308007597720684 0.3119064280715785 0.1531540537838648 9.996001599360256e-05 9.996001599360256e-05 9.996001599360256e-05 9.996001599360256e-05 0.0002998800479808077 0.00859656137544982 0.07516993202718912 0.2298080767692923 0.357157137145142 0.3285685725709716 9.995002498750625e-05 9.995002498750625e-05 9.995002498750625e-05 9.995002498750625e-05 9.995002498750625e-05 0.001099450274862569 0.01869065467266367 0.1197401299350325 0.2960519740129935 0.5639180409795103 9.995002498750625e-05 9.995002498750625e-05 9.995002498750625e-05 9.995002498750625e-05 9.995002498750625e-05 0.0001999000499750125 0.003898050974512744 0.03878060969515242 0.1794102948525737 0.7772113943028486 9.994003597841295e-05 9.994003597841295e-05 9.994003597841295e-05 9.994003597841295e-05 9.994003597841295e-05 9.994003597841295e-05 0.0008994603238057165 0.007395562662402559 0.07805316809914052 0.9130521686987807 9.9930048965724e-05 9.9930048965724e-05 9.9930048965724e-05 9.9930048965724e-05 9.9930048965724e-05 9.9930048965724e-05 9.9930048965724e-05 0.002298391126211652 0.022084540821425 0.9749175577096033 9.9930048965724e-05 9.9930048965724e-05 9.9930048965724e-05 9.9930048965724e-05 9.9930048965724e-05 9.9930048965724e-05 9.9930048965724e-05 9.9930048965724e-05 0.0049965024482862 0.9942040571599881 9.991008092716555e-05 9.991008092716555e-05 9.991008092716555e-05 9.991008092716555e-05 9.991008092716555e-05 9.991008092716555e-05 9.991008092716555e-05 9.991008092716555e-05 9.991008092716555e-05 0.9991008092716556 9.997000899730081e-05 9.997000899730081e-05 9.997000899730081e-05 0.0002999100269919024 0.005598320503848845 0.05218434469659102 0.1580525842247326 0.2867139858042587 0.2912126362091372 0.2056383085074478 9.996001599360256e-05 9.996001599360256e-05 9.996001599360256e-05 9.996001599360256e-05 0.0006997201119552179 0.01419432227109156 0.07626949220311875 0.2000199920031987 0.312375049980008 0.3960415833666533 9.995002498750625e-05 9.995002498750625e-05 9.995002498750625e-05 9.995002498750625e-05 9.995002498750625e-05 0.001899050474762619 0.03008495752123938 0.1216391804097951 0.2594702648675662 0.5864067966016991 9.995002498750625e-05 9.995002498750625e-05 9.995002498750625e-05 9.995002498750625e-05 9.995002498750625e-05 0.0005997001499250374 0.006796601699150424 0.05097451274362819 0.1672163918040979 0.7739130434782608 9.995002498750625e-05 9.995002498750625e-05 9.995002498750625e-05 9.995002498750625e-05 9.995002498750625e-05 9.995002498750625e-05 0.001799100449775112 0.01679160419790105 0.08545727136431784 0.8953523238380809 9.994003597841295e-05 9.994003597841295e-05 9.994003597841295e-05 9.994003597841295e-05 9.994003597841295e-05 9.994003597841295e-05 9.994003597841295e-05 0.00439736158305017 0.02958225064961023 0.9653208075154907 9.9930048965724e-05 9.9930048965724e-05 9.9930048965724e-05 9.9930048965724e-05 9.9930048965724e-05 9.9930048965724e-05 9.9930048965724e-05 0.0006995103427600679 0.008793844308983712 0.9898071350054961 9.992006394884092e-05 9.992006394884092e-05 9.992006394884092e-05 9.992006394884092e-05 9.992006394884092e-05 9.992006394884092e-05 9.992006394884092e-05 9.992006394884092e-05 0.002498001598721023 0.9967026378896883 9.992006394884092e-05 9.992006394884092e-05 9.992006394884092e-05 9.992006394884092e-05 9.992006394884092e-05 9.992006394884092e-05 9.992006394884092e-05 9.992006394884092e-05 9.992006394884092e-05 0.9991007194244604 9.991008092716555e-05 9.991008092716555e-05 9.991008092716555e-05 9.991008092716555e-05 9.991008092716555e-05 9.991008092716555e-05 9.991008092716555e-05 9.991008092716555e-05 9.991008092716555e-05 0.9991008092716556 0.1010696790962711 0.2471258622413276 0.3505948215535339 0.2335299410176947 0.05948215535339398 0.007497750674797561 0.0003998800359892032 9.997000899730081e-05 9.997000899730081e-05 9.997000899730081e-05 0.02129574085182964 0.1235752849430114 0.3158368326334733 0.3449310137972406 0.1565686862627474 0.03409318136372726 0.003199360127974405 0.0002999400119976005 9.998000399920016e-05 9.998000399920016e-05 0.004599080183963208 0.04839032193561288 0.1873625274945011 0.3549290141971606 0.2828434313137372 0.1040791841631674 0.01699660067986403 0.0005998800239952009 9.998000399920016e-05 9.998000399920016e-05 0.0004999500049995 0.0116988301169883 0.08359164083591641 0.2613738626137386 0.355964403559644 0.2162783721627837 0.06179382061793821 0.008099190080991902 0.0005999400059994001 9.999000099990002e-05 0.0001 0.0025 0.0282 0.1372 0.3216 0.3297 0.1506 0.0275 0.0024 0.0002 9.998000399920016e-05 9.998000399920016e-05 0.00659868026394721 0.05378924215156969 0.1969606078784243 0.3630273945210958 0.2720455908818236 0.08928214357128575 0.01709658068386323 0.0009998000399920016 9.998000399920016e-05 9.998000399920016e-05 0.0007998400319936012 0.01409718056388722 0.1019796040791842 0.264247150569886 0.3582283543291342 0.2019596080783843 0.05138972205558888 0.007098580283943211 9.998000399920016e-05 9.998000399920016e-05 9.998000399920016e-05 0.002799440111977605 0.03309338132373525 0.1598680263947211 0.3292341531693661 0.3045390921815637 0.1379724055188962 0.03219356128774245 9.997000899730081e-05 9.997000899730081e-05 9.997000899730081e-05 0.0003998800359892032 0.00879736079176247 0.05838248525442367 0.2208337498750375 0.3614915525342397 0.2560231930420874 0.09377186843946816 9.996001599360256e-05 9.996001599360256e-05 9.996001599360256e-05 9.996001599360256e-05 9.996001599360256e-05 0.006297481007596961 0.04808076769292283 0.1595361855257897 0.2891843262694922 0.4964014394242303 0.02589223233030091 0.1301609517144857 0.3040087973607918 0.3409977006897931 0.163850844746576 0.03189043287013896 0.002899130260921724 9.997000899730081e-05 9.997000899730081e-05 9.997000899730081e-05 0.004799040191961607 0.04199160167966406 0.1819636072785443 0.357128574285143 0.2903419316136773 0.1056788642271546 0.01709658068386323 0.0007998400319936012 9.998000399920016e-05 9.998000399920016e-05 0.0009999000099990001 0.0096990300969903 0.08439156084391561 0.2555744425557444 0.3496650334966503 0.2325767423257674 0.05979402059794021 0.0065993400659934 0.0005999400059994001 9.999000099990002e-05 9.998000399920016e-05 0.002199560087982404 0.02619476104779044 0.1342731453709258 0.3178364327134573 0.3303339332133574 0.1530693861227755 0.03329334133173365 0.002599480103979204 9.998000399920016e-05 0.0001 0.0005 0.0045 0.0529 0.2011 0.3519 0.2772 0.0958 0.0149 0.0011 9.999000099990002e-05 9.999000099990002e-05 0.0015998400159984 0.011998800119988 0.0902909709029097 0.277972202779722 0.3417658234176582 0.2132786721327867 0.05719428057194281 0.005699430056994301 9.997000899730081e-05 9.997000899730081e-05 9.997000899730081e-05 0.003299010296910927 0.02699190242927122 0.147555733280016 0.3241027691692492 0.325002499250225 0.1418574427671699 0.03089073278016595 9.997000899730081e-05 9.997000899730081e-05 9.997000899730081e-05 9.997000899730081e-05 0.006598020593821853 0.05948215535339398 0.2171348595421373 0.3523942817154854 0.2599220233929821 0.1040687793661901 9.997000899730081e-05 9.997000899730081e-05 9.997000899730081e-05 9.997000899730081e-05 0.0007997600719784065 0.01619514145756273 0.1038688393481955 0.2749175247425772 0.3538938318504449 0.249925022493252 9.996001599360256e-05 9.996001599360256e-05 9.996001599360256e-05 9.996001599360256e-05 9.996001599360256e-05 0.0007996801279488205 0.01429428228708517 0.07676929228308677 0.210515793682527 0.6971211515393843 0.00659868026394721 0.04799040191961608 0.1880623875224955 0.3568286342731454 0.280243951209758 0.1045790841831634 0.01409718056388722 0.001399720055988802 9.998000399920016e-05 9.998000399920016e-05 0.0007999200079992001 0.0120987901209879 0.08089191080891911 0.2558744125587441 0.3621637836216378 0.2195780421957804 0.0613938606139386 0.006799320067993201 0.0002999700029997 9.999000099990002e-05 9.998000399920016e-05 0.001699660067986403 0.02589482103579284 0.1401719656068786 0.3113377324535093 0.3261347730453909 0.1581683663267346 0.03319336132773446 0.003199360127974405 9.998000399920016e-05 0.0001 0.0003 0.0062 0.0482 0.2027 0.3563 0.2728 0.0964 0.0161 0.0009 9.998000399920016e-05 9.998000399920016e-05 0.0006998600279944011 0.01319736052789442 0.09578084383123375 0.27124575084983 0.3487302539492101 0.2079584083183363 0.05518896220755849 0.006998600279944011 9.998000399920016e-05 9.998000399920016e-05 9.998000399920016e-05 0.003299340131973605 0.02959408118376325 0.1470705858828234 0.3220355928814237 0.3175364927014597 0.1506698660267946 0.02949410117976405 9.997000899730081e-05 9.997000899730081e-05 9.997000899730081e-05 0.000499850044986504 0.006598020593821853 0.05968209537138858 0.2225332400279916 0.3617914625612316 0.2565230430870739 0.09207237828651404 9.996001599360256e-05 9.996001599360256e-05 9.996001599360256e-05 9.996001599360256e-05 0.000899640143942423 0.01829268292682927 0.1030587764894042 0.2849860055977609 0.3512594962015194 0.2411035585765694 9.996001599360256e-05 9.996001599360256e-05 9.996001599360256e-05 9.996001599360256e-05 9.996001599360256e-05 0.003298680527788885 0.03278688524590164 0.1646341463414634 0.3379648140743702 0.4608156737305078 9.995002498750625e-05 9.995002498750625e-05 9.995002498750625e-05 9.995002498750625e-05 9.995002498750625e-05 9.995002498750625e-05 0.001899050474762619 0.0272863568215892 0.111944027986007 0.8582708645677162 0.0010998900109989 0.0136986301369863 0.08689131086891311 0.2661733826617338 0.3532646735326467 0.2142785721427857 0.05749425057494251 0.0065993400659934 0.0003999600039996001 9.999000099990002e-05 0.0002999700029997 0.0017998200179982 0.0250974902509749 0.1401859814018598 0.3131686831316868 0.3252674732526747 0.1567843215678432 0.0335966403359664 0.0036996300369963 9.999000099990002e-05 9.999000099990002e-05 0.0001999800019998 0.004299570042995701 0.04709529047095291 0.2004799520047995 0.3545645435456454 0.2772722727727227 0.09899010098990101 0.0157984201579842 0.0011998800119988 9.998000399920016e-05 9.998000399920016e-05 0.001099780043991202 0.01159768046390722 0.09538092381523695 0.2726454709058188 0.352629474105179 0.2077584483103379 0.05258948210357928 0.00609878024395121 9.998000399920016e-05 9.998000399920016e-05 9.998000399920016e-05 0.002599480103979204 0.03299340131973606 0.145870825834833 0.3263347330533893 0.3187362527494501 0.1424715056988602 0.03069386122775445 9.997000899730081e-05 9.997000899730081e-05 9.997000899730081e-05 0.0005998200539838049 0.006498050584824553 0.05778266520043987 0.2185344396680996 0.3554933519944017 0.2630210936718984 0.09777066879936019 9.997000899730081e-05 9.997000899730081e-05 9.997000899730081e-05 9.997000899730081e-05 0.001299610116964911 0.01489553134059782 0.1045686294111766 0.2850144956513046 0.3506947915625312 0.2431270618814356 9.996001599360256e-05 9.996001599360256e-05 9.996001599360256e-05 9.996001599360256e-05 0.0003998400639744102 0.00309876049580168 0.03378648540583767 0.1622351059576169 0.3349660135945622 0.4651139544182327 9.995002498750625e-05 9.995002498750625e-05 9.995002498750625e-05 9.995002498750625e-05 9.995002498750625e-05 0.0005997001499250374 0.009995002498750625 0.06766616691654173 0.2308845577211394 0.6903548225887056 9.994003597841295e-05 9.994003597841295e-05 9.994003597841295e-05 9.994003597841295e-05 9.994003597841295e-05 9.994003597841295e-05 0.0002998201079352388 0.007295622626424146 0.04907055766540076 0.9427343593843693 9.999000099990002e-05 0.0017998200179982 0.0260973902609739 0.1418858114188581 0.3151684831516848 0.3290670932906709 0.154984501549845 0.0280971902809719 0.0026997300269973 9.999000099990002e-05 9.999000099990002e-05 9.999000099990002e-05 0.006999300069993001 0.0481951804819518 0.1981801819818018 0.3534646535346465 0.2757724227577242 0.1020897910208979 0.0137986201379862 0.0012998700129987 9.998000399920016e-05 9.998000399920016e-05 0.0009998000399920016 0.01559688062387522 0.09168166366726654 0.2731453709258148 0.3513297340531893 0.2083583283343331 0.05238952209558088 0.00629874025194961 9.998000399920016e-05 9.998000399920016e-05 0.0001999600079984003 0.002499500099980004 0.02769446110777845 0.1524695060987802 0.3223355328934213 0.3251349730053989 0.1407718456308738 0.02869426114777045 9.998000399920016e-05 9.998000399920016e-05 9.998000399920016e-05 0.0002999400119976005 0.007598480303939212 0.05708858228354329 0.2159568086382724 0.3505298940211958 0.2658468306338732 0.102379524095181 9.996001599360256e-05 9.996001599360256e-05 9.996001599360256e-05 9.996001599360256e-05 0.0006997201119552179 0.01769292283086765 0.1059576169532187 0.2768892443022791 0.3461615353858457 0.2521991203518593 9.995002498750625e-05 9.995002498750625e-05 9.995002498750625e-05 9.995002498750625e-05 9.995002498750625e-05 0.004197901049475262 0.03728135932033983 0.1624187906046977 0.3298350824587706 0.4657671164417791 9.995002498750625e-05 9.995002498750625e-05 9.995002498750625e-05 9.995002498750625e-05 9.995002498750625e-05 0.0005997001499250374 0.007996001999000499 0.06706646676661669 0.2375812093953024 0.6862568715642179 9.995002498750625e-05 9.995002498750625e-05 9.995002498750625e-05 9.995002498750625e-05 9.995002498750625e-05 9.995002498750625e-05 0.002198900549725138 0.01959020489755122 0.1187406296851574 0.8588705647176412 9.9930048965724e-05 9.9930048965724e-05 9.9930048965724e-05 9.9930048965724e-05 9.9930048965724e-05 9.9930048965724e-05 9.9930048965724e-05 0.000899370440691516 0.01548915758968722 0.9829119616268612 9.999000099990002e-05 0.0002999700029997 0.006999300069993001 0.05469453054694531 0.2078792120787921 0.3566643335666433 0.2686731326867313 0.0902909709029097 0.0133986601339866 0.0009999000099990001 9.998000399920016e-05 9.998000399920016e-05 0.0004999000199960008 0.01199760047990402 0.09688062387522496 0.2743451309738053 0.3433313337332534 0.2068586282743451 0.0591881623675265 0.006698660267946411 9.997000899730081e-05 9.997000899730081e-05 9.997000899730081e-05 0.003199040287913626 0.02849145256423073 0.1503548935319404 0.3231030690792762 0.3262021393581925 0.1377586723982805 0.03059082275317405 9.998000399920016e-05 9.998000399920016e-05 9.998000399920016e-05 0.0003999200159968006 0.005698860227954409 0.05578884223155369 0.2228554289142172 0.3582283543291342 0.258248350329934 0.09848030393921216 9.996001599360256e-05 9.996001599360256e-05 9.996001599360256e-05 9.996001599360256e-05 0.001099560175929628 0.01599360255897641 0.1025589764094362 0.2835865653738505 0.350859656137545 0.2455017992802879 9.995002498750625e-05 9.995002498750625e-05 9.995002498750625e-05 9.995002498750625e-05 9.995002498750625e-05 0.003698150924537731 0.03388305847076462 0.168415792103948 0.3287356321839081 0.464767616191904 9.995002498750625e-05 9.995002498750625e-05 9.995002498750625e-05 9.995002498750625e-05 9.995002498750625e-05 0.0004997501249375312 0.008695652173913044 0.06946526736631684 0.2351824087956022 0.6856571714142928 9.994003597841295e-05 9.994003597841295e-05 9.994003597841295e-05 9.994003597841295e-05 9.994003597841295e-05 9.994003597841295e-05 0.0007995202878273036 0.01748950629622227 0.1162302618428943 0.8648810713571857 9.994003597841295e-05 9.994003597841295e-05 9.994003597841295e-05 9.994003597841295e-05 9.994003597841295e-05 9.994003597841295e-05 0.0001998800719568259 0.004197481511093344 0.03877673395962423 0.9562262642414552 9.9930048965724e-05 9.9930048965724e-05 9.9930048965724e-05 9.9930048965724e-05 9.9930048965724e-05 9.9930048965724e-05 9.9930048965724e-05 0.000199860097931448 0.004197062056560408 0.9949035675027481 9.998000399920016e-05 9.998000399920016e-05 0.0009998000399920016 0.01479704059188162 0.09738052389522095 0.2732453509298141 0.3573285342931414 0.1996600679864027 0.04929014197160568 0.007098580283943211 9.998000399920016e-05 9.998000399920016e-05 9.998000399920016e-05 0.002299540091981604 0.03119376124775045 0.1564687062587483 0.3163367326534693 0.3238352329534093 0.1392721455708858 0.03029394121175765 9.997000899730081e-05 9.997000899730081e-05 9.997000899730081e-05 0.0008997300809757073 0.007197840647805659 0.05618314505648306 0.2166350094971509 0.3495951214635609 0.2698190542837149 0.09937018894331701 9.996001599360256e-05 9.996001599360256e-05 9.996001599360256e-05 9.996001599360256e-05 0.001199520191923231 0.01529388244702119 0.100859656137545 0.2847860855657737 0.3511595361855258 0.2463014794082367 9.996001599360256e-05 9.996001599360256e-05 9.996001599360256e-05 9.996001599360256e-05 0.0001999200319872051 0.003398640543782487 0.03388644542183127 0.1704318272690924 0.3372650939624151 0.4544182327069172 9.995002498750625e-05 9.995002498750625e-05 9.995002498750625e-05 9.995002498750625e-05 9.995002498750625e-05 0.0002998500749625187 0.00879560219890055 0.06526736631684157 0.2351824087956022 0.6899550224887556 9.995002498750625e-05 9.995002498750625e-05 9.995002498750625e-05 9.995002498750625e-05 9.995002498750625e-05 9.995002498750625e-05 0.001499250374812594 0.01999000499750125 0.1153423288355822 0.862568715642179 9.9930048965724e-05 9.9930048965724e-05 9.9930048965724e-05 9.9930048965724e-05 9.9930048965724e-05 9.9930048965724e-05 9.9930048965724e-05 0.005096432497251923 0.04336964125112421 0.9508344159088638 9.9930048965724e-05 9.9930048965724e-05 9.9930048965724e-05 9.9930048965724e-05 9.9930048965724e-05 9.9930048965724e-05 9.9930048965724e-05 9.9930048965724e-05 0.009693214749675227 0.989507344858599 9.992006394884092e-05 9.992006394884092e-05 9.992006394884092e-05 9.992006394884092e-05 9.992006394884092e-05 9.992006394884092e-05 9.992006394884092e-05 9.992006394884092e-05 0.0009992006394884093 0.9982014388489209 9.998000399920016e-05 9.998000399920016e-05 9.998000399920016e-05 0.002899420115976805 0.03319336132773446 0.1552689462107578 0.3272345530893821 0.3202359528094381 0.1334733053389322 0.02739452109578084 9.997000899730081e-05 9.997000899730081e-05 9.997000899730081e-05 0.0005998200539838049 0.007597720683794862 0.05898230530840748 0.209037288813356 0.3451964410676797 0.2723183045086474 0.1059682095371389 9.996001599360256e-05 9.996001599360256e-05 9.996001599360256e-05 9.996001599360256e-05 0.0005997600959616154 0.01779288284686125 0.1039584166333467 0.2837864854058377 0.3510595761695322 0.2424030387844862 9.995002498750625e-05 9.995002498750625e-05 9.995002498750625e-05 9.995002498750625e-05 9.995002498750625e-05 0.003398300849575212 0.03288355822088956 0.1654172913543228 0.343928035982009 0.4538730634682659 9.995002498750625e-05 9.995002498750625e-05 9.995002498750625e-05 9.995002498750625e-05 9.995002498750625e-05 0.0001999000499750125 0.008195902048975513 0.063968015992004 0.2280859570214893 0.6990504747626187 9.995002498750625e-05 9.995002498750625e-05 9.995002498750625e-05 9.995002498750625e-05 9.995002498750625e-05 0.0001999000499750125 0.001099450274862569 0.01939030484757621 0.1148425787106447 0.863968015992004 9.994003597841295e-05 9.994003597841295e-05 9.994003597841295e-05 9.994003597841295e-05 9.994003597841295e-05 9.994003597841295e-05 0.0001998800719568259 0.003597841295222866 0.04177493503897661 0.9538277033779732 9.9930048965724e-05 9.9930048965724e-05 9.9930048965724e-05 9.9930048965724e-05 9.9930048965724e-05 9.9930048965724e-05 9.9930048965724e-05 0.0009993004896572399 0.01119216548416109 0.9871090236834216 9.9930048965724e-05 9.9930048965724e-05 9.9930048965724e-05 9.9930048965724e-05 9.9930048965724e-05 9.9930048965724e-05 9.9930048965724e-05 9.9930048965724e-05 0.002198461077245928 0.9970020985310283 9.992006394884092e-05 9.992006394884092e-05 9.992006394884092e-05 9.992006394884092e-05 9.992006394884092e-05 9.992006394884092e-05 9.992006394884092e-05 9.992006394884092e-05 0.0001998401278976818 0.9990007993605116 9.997000899730081e-05 9.997000899730081e-05 9.997000899730081e-05 0.000499850044986504 0.007797660701789463 0.062481255623313 0.2216335099470159 0.3654903528941318 0.2526242127361791 0.08917324802559232 9.996001599360256e-05 9.996001599360256e-05 9.996001599360256e-05 9.996001599360256e-05 0.000899640143942423 0.01679328268692523 0.1006597361055578 0.2711915233906437 0.3583566573370652 0.2516993202718912 9.996001599360256e-05 9.996001599360256e-05 9.996001599360256e-05 9.996001599360256e-05 0.0002998800479808077 0.002399040383846461 0.03328668532586965 0.1617353058776489 0.3390643742502999 0.4628148740503799 9.995002498750625e-05 9.995002498750625e-05 9.995002498750625e-05 9.995002498750625e-05 9.995002498750625e-05 0.000399800099950025 0.008295852073963019 0.0673663168415792 0.2308845577211394 0.6925537231384308 9.994003597841295e-05 9.994003597841295e-05 9.994003597841295e-05 9.994003597841295e-05 9.994003597841295e-05 9.994003597841295e-05 0.001599040575654607 0.01948830701579052 0.1109334399360384 0.867379572256646 9.994003597841295e-05 9.994003597841295e-05 9.994003597841295e-05 9.994003597841295e-05 9.994003597841295e-05 9.994003597841295e-05 9.994003597841295e-05 0.004497301619028583 0.04177493503897661 0.9530281830901459 9.9930048965724e-05 9.9930048965724e-05 9.9930048965724e-05 9.9930048965724e-05 9.9930048965724e-05 9.9930048965724e-05 9.9930048965724e-05 0.0006995103427600679 0.01059258519036674 0.9880083941241131 9.9930048965724e-05 9.9930048965724e-05 9.9930048965724e-05 9.9930048965724e-05 9.9930048965724e-05 9.9930048965724e-05 9.9930048965724e-05 9.9930048965724e-05 0.001898670930348756 0.9973018886779255 9.992006394884092e-05 9.992006394884092e-05 9.992006394884092e-05 9.992006394884092e-05 9.992006394884092e-05 9.992006394884092e-05 9.992006394884092e-05 9.992006394884092e-05 9.992006394884092e-05 0.9991007194244604 9.991008092716555e-05 9.991008092716555e-05 9.991008092716555e-05 9.991008092716555e-05 9.991008092716555e-05 9.991008092716555e-05 9.991008092716555e-05 9.991008092716555e-05 9.991008092716555e-05 0.9991008092716556 9.996001599360256e-05 9.996001599360256e-05 9.996001599360256e-05 9.996001599360256e-05 0.0005997600959616154 0.00859656137544982 0.04668132746901239 0.1585365853658537 0.2851859256297481 0.5 9.995002498750625e-05 9.995002498750625e-05 9.995002498750625e-05 9.995002498750625e-05 9.995002498750625e-05 0.0006996501749125438 0.01209395302348826 0.0735632183908046 0.2049975012493753 0.7081459270364817 9.995002498750625e-05 9.995002498750625e-05 9.995002498750625e-05 9.995002498750625e-05 9.995002498750625e-05 0.0002998500749625187 0.003098450774612694 0.02468765617191404 0.1182408795602199 0.8531734132933533 9.994003597841295e-05 9.994003597841295e-05 9.994003597841295e-05 9.994003597841295e-05 9.994003597841295e-05 9.994003597841295e-05 9.994003597841295e-05 0.007595442734359384 0.04297421547071757 0.9487307615430741 9.9930048965724e-05 9.9930048965724e-05 9.9930048965724e-05 9.9930048965724e-05 9.9930048965724e-05 9.9930048965724e-05 9.9930048965724e-05 0.002298391126211652 0.01658838812831018 0.9804137104027181 9.992006394884092e-05 9.992006394884092e-05 9.992006394884092e-05 9.992006394884092e-05 9.992006394884092e-05 9.992006394884092e-05 9.992006394884092e-05 9.992006394884092e-05 0.003597122302158274 0.995603517186251 9.9930048965724e-05 9.9930048965724e-05 9.9930048965724e-05 9.9930048965724e-05 9.9930048965724e-05 9.9930048965724e-05 9.9930048965724e-05 9.9930048965724e-05 0.0006995103427600679 0.9985010492655142 9.992006394884092e-05 9.992006394884092e-05 9.992006394884092e-05 9.992006394884092e-05 9.992006394884092e-05 9.992006394884092e-05 9.992006394884092e-05 9.992006394884092e-05 9.992006394884092e-05 0.9991007194244604 9.991008092716555e-05 9.991008092716555e-05 9.991008092716555e-05 9.991008092716555e-05 9.991008092716555e-05 9.991008092716555e-05 9.991008092716555e-05 9.991008092716555e-05 9.991008092716555e-05 0.9991008092716556 9.991008092716555e-05 9.991008092716555e-05 9.991008092716555e-05 9.991008092716555e-05 9.991008092716555e-05 9.991008092716555e-05 9.991008092716555e-05 9.991008092716555e-05 9.991008092716555e-05 0.9991008092716556 0.01179764047190562 0.07638472305538892 0.251749650069986 0.3612277544491102 0.2275544891021796 0.0631873625274945 0.007598480303939212 0.0002999400119976005 9.998000399920016e-05 9.998000399920016e-05 0.0014998500149985 0.0258974102589741 0.1272872712728727 0.3193680631936806 0.3237676232376762 0.1628837116288371 0.03589641035896411 0.002999700029997 0.0002999700029997 9.999000099990002e-05 0.0004999500049995 0.004399560043995601 0.04579542045795421 0.1916808319168083 0.35006499350065 0.2833716628337166 0.1061893810618938 0.0172982701729827 0.0005999400059994001 9.999000099990002e-05 9.999000099990002e-05 0.0005999400059994001 0.0115988401159884 0.08819118088191182 0.2533746625337466 0.3586641335866413 0.2203779622037796 0.05929407059294071 0.007099290070992901 0.0006999300069993001 9.999000099990002e-05 9.999000099990002e-05 0.0028997100289971 0.0288971102889711 0.1427857214278572 0.3215678432156784 0.3169683031696831 0.1545845415458454 0.0292970702929707 0.0027997200279972 9.998000399920016e-05 9.998000399920016e-05 0.0005998800239952009 0.00609878024395121 0.05418916216756649 0.2066586682663467 0.3514297140571885 0.2733453309338132 0.09338132373525294 0.01409718056388722 