<?xml version="1.0" encoding="UTF-8"?>
<!-- This network was created in GeNIe Academic, which can be used for academic teaching and research purposes only -->
<smile version="1.0" id="Network2" numsamples="10000" discsamples="10000">
	<nodes>
		<cpt id="tether_tension_motor_use_scaling_factor">
			<state id="State0" />
			<state id="State1" />
			<state id="State2" />
			<state id="State3" />
			<state id="State4" />
			<state id="State5" />
			<state id="State6" />
			<state id="State7" />
			<state id="State8" />
			<state id="State9" />
			<intervals>0 0.2 0.4 0.6 0.8 1 1.2 1.4 1.6 1.8 2</intervals>
			<probabilities>0.1627368421052632 0.1517894736842105 0.1511578947368421 0.1305263157894737 0.1143157894736842 0.08926315789473684 0.07494736842105264 0.05473684210526316 0.04063157894736842 0.02989473684210526</probabilities>
		</cpt>
		<cpt id="height_over_ground">
			<state id="State0" />
			<state id="State1" />
			<state id="State2" />
			<state id="State3" />
			<state id="State4" />
			<state id="State5" />
			<state id="State6" />
			<state id="State7" />
			<state id="State8" />
			<state id="State9" />
			<intervals>0 0.1 0.2 0.3 0.4 0.5 0.6 0.7 0.8 0.9 1</intervals>
			<probabilities>0.1019 0.0939 0.1021 0.09710000000000001 0.1 0.1036 0.09859999999999999 0.1078 0.09710000000000001 0.0979</probabilities>
		</cpt>
		<cpt id="drone_tilt">
			<state id="State0" />
			<state id="State1" />
			<state id="State2" />
			<state id="State3" />
			<state id="State4" />
			<state id="State5" />
			<state id="State6" />
			<state id="State7" />
			<state id="State8" />
			<state id="State9" />
			<intervals>0 0.1 0.2 0.3 0.4 0.5 0.6 0.7 0.8 0.9 1</intervals>
			<probabilities>0.1017 0.1014 0.1048 0.09669999999999999 0.0985 0.1008 0.097 0.1023 0.0998 0.097</probabilities>
		</cpt>
		<cpt id="motoruse_for_tether">
			<state id="State0" />
			<state id="State1" />
			<state id="State2" />
			<state id="State3" />
			<state id="State4" />
			<state id="State5" />
			<state id="State6" />
			<state id="State7" />
			<state id="State8" />
			<state id="State9" />
			<intervals>0 0.1 0.2 0.3 0.4 0.5 0.6 0.7 0.8 0.9 1</intervals>
			<parents>height_over_ground tether_tension_motor_use_scaling_factor drone_tilt</parents>
			<probabilities>1 0 0 0 0 0 0 0 0 0 1 0 0 0 0 0 0 0 0 0 1 0 0 0 0 0 0 0 0 0 0.9882 0.0118 0 0 0 0 0 0 0 0 0.93 0.07000000000000001 0 0 0 0 0 0 0 0 0.8572 0.1428 0 0 0 0 0 0 0 0 0.7622 0.2378 0 0 0 0 0 0 0 0 0.67 0.33 0 0 0 0 0 0 0 0 0.5879 0.4077 0.0044 0 0 0 0 0 0 0 0.5234 0.4426 0.034 0 0 0 0 0 0 0 1 0 0 0 0 0 0 0 0 0 0.9868 0.0132 0 0 0 0 0 0 0 0 0.7935 0.2065 0 0 0 0 0 0 0 0 0.4426 0.5574 0 0 0 0 0 0 0 0 0.1816 0.7845 0.0339 0 0 0 0 0 0 0 0.0552 0.7315 0.2133 0 0 0 0 0 0 0 0.0054 0.5411 0.4499 0.0036 0 0 0 0 0 0 0 0.3405 0.5936 0.0659 0 0 0 0 0 0 0 0.1801 0.5854 0.2345 0 0 0 0 0 0 0 0.0793 0.5012 0.4026 0.0169 0 0 0 0 0 1 0 0 0 0 0 0 0 0 0 0.8002 0.1998 0 0 0 0 0 0 0 0 0.2272 0.7694 0.0034 0 0 0 0 0 0 0 0.0051 0.754 0.2409 0 0 0 0 0 0 0 0 0.2739 0.7057 0.0204 0 0 0 0 0 0 0 0.0301 0.6795 0.2904 0 0 0 0 0 0 0 0 0.3162 0.6271 0.0567 0 0 0 0 0 0 0 0.0702 0.6025 0.3264 0.0009 0 0 0 0 0 0 0.0031 0.3571 0.536 0.1038 0 0 0 0 0 0 0 0.1247 0.5089 0.3561 0.0103 0 0 0 0.9897 0.0103 0 0 0 0 0 0 0 0 0.4419 0.5581 0 0 0 0 0 0 0 0 0.0066 0.7539 0.2395 0 0 0 0 0 0 0 0 0.119 0.8096 0.07140000000000001 0 0 0 0 0 0 0 0 0.377 0.6062 0.0168 0 0 0 0 0 0 0 0.0191 0.6071 0.3722 0.0016 0 0 0 0 0 0 0 0.1348 0.669 0.1962 0 0 0 0 0 0 0 0.0015 0.3433 0.5682 0.08699999999999999 0 0 0 0 0 0 0 0.0472 0.4853 0.4356 0.0319 0 0 0 0 0 0 0 0.1721 0.5213 0.2974 0.0092 0 0.9331 0.0669 0 0 0 0 0 0 0 0 0.1768 0.7865 0.0367 0 0 0 0 0 0 0 0 0.2586 0.7171 0.0243 0 0 0 0 0 0 0 0 0.3617 0.6214 0.0169 0 0 0 0 0 0 0 0.0027 0.4558 0.5293 0.0122 0 0 0 0 0 0 0 0.0167 0.5395 0.4311 0.0127 0 0 0 0 0 0 0 0.0443 0.5693 0.3767 0.0097 0 0 0 0 0 0 0 0.0929 0.5623 0.3357 0.0091 0 0 0 0 0 0 0 0.1492 0.5571 0.2847 0.008999999999999999 0 0 0 0 0 0 0.001 0.2164 0.5215 0.2611 0.8546 0.1454 0 0 0 0 0 0 0 0 0.0541 0.734 0.2119 0 0 0 0 0 0 0 0 0.0324 0.6846 0.283 0 0 0 0 0 0 0 0 0.0211 0.6084000000000001 0.3691 0.0014 0 0 0 0 0 0 0 0.0179 0.5354 0.4355 0.0112 0 0 0 0 0 0 0 0.0146 0.4513 0.5003 0.0338 0 0 0 0 0 0 0 0.0101 0.3904 0.5292 0.0703 0 0 0 0 0 0 0 0.0075 0.3525 0.5314 0.1086 0 0 0 0 0 0 0 0.0089 0.3078 0.6833 0 0 0 0 0 0 0 0 0.007 0.993 0.7647 0.2353 0 0 0 0 0 0 0 0 0.0064 0.5303 0.4597 0.0036 0 0 0 0 0 0 0 0 0.315 0.6337 0.0513 0 0 0 0 0 0 0 0 0.1443 0.6673 0.1884 0 0 0 0 0 0 0 0 0.0442 0.5770999999999999 0.3684 0.0103 0 0 0 0 0 0 0 0.0113 0.3904 0.5302 0.06809999999999999 0 0 0 0 0 0 0 0.0018 0.2313 0.5891 0.1778 0 0 0 0 0 0 0 0 0.1212 0.8788 0 0 0 0 0 0 0 0 0 1 0 0 0 0 0 0 0 0 0 1 0.6661 0.3339 0 0 0 0 0 0 0 0 0 0.3441 0.5855 0.0704 0 0 0 0 0 0 0 0 0.07190000000000001 0.5906 0.3362 0.0013 0 0 0 0 0 0 0 0.002 0.3295 0.5803 0.0882 0 0 0 0 0 0 0 0 0.0914 0.5844 0.3151 0.0091 0 0 0 0 0 0 0 0.009599999999999999 0.3403 0.5341 0.116 0 0 0 0 0 0 0 0 0.1245 0.8754999999999999 0 0 0 0 0 0 0 0 0 1 0 0 0 0 0 0 0 0 0 1 0 0 0 0 0 0 0 0 0 1 0.5818 0.4126 0.0056 0 0 0 0 0 0 0 0 0.1828 0.575 0.2422 0 0 0 0 0 0 0 0 0.0034 0.3462 0.5421 0.1083 0 0 0 0 0 0 0 0 0.05 0.4816 0.4353 0.0331 0 0 0 0 0 0 0 0 0.1526 0.5393 0.3 0.0081 0 0 0 0 0 0 0 0.008699999999999999 0.2979 0.6934 0 0 0 0 0 0 0 0 0 1 0 0 0 0 0 0 0 0 0 1 0 0 0 0 0 0 0 0 0 1 0 0 0 0 0 0 0 0 0 1 0.5434 0.4289 0.0277 0 0 0 0 0 0 0 0 0.0871 0.4877 0.4079 0.0173 0 0 0 0 0 0 0 0 0.1316 0.4977 0.3618 0.0089 0 0 0 0 0 0 0 0 0.1718 0.5196 0.3008 0.0078 0 0 0 0 0 0 0 0.0014 0.2229 0.5096000000000001 0.2661 0 0 0 0 0 0 0 0 0.0066 0.9933999999999999 0 0 0 0 0 0 0 0 0 1 0 0 0 0 0 0 0 0 0 1 0 0 0 0 0 0 0 0 0 1 0 0 0 0 0 0 0 0 0 1 0.6976 0.3024 0 0 0 0 0 0 0 0 0.5685 0.4315 0 0 0 0 0 0 0 0 0.4333 0.5667 0 0 0 0 0 0 0 0 0.3256 0.6744 0 0 0 0 0 0 0 0 0.249 0.7412 0.0098 0 0 0 0 0 0 0 0.2101 0.7385 0.0514 0 0 0 0 0 0 0 0.1719 0.7096 0.1185 0 0 0 0 0 0 0 0.1493 0.6486 0.2021 0 0 0 0 0 0 0 0.1347 0.5667 0.2986 0 0 0 0 0 0 0 0.118 0.5084 0.3682 0.0054 0 0 0 0 0 0 0.5673 0.4327 0 0 0 0 0 0 0 0 0.2008 0.7992 0 0 0 0 0 0 0 0 0.0187 0.9238 0.0575 0 0 0 0 0 0 0 0 0.6749000000000001 0.3251 0 0 0 0 0 0 0 0 0.3562 0.64 0.0038 0 0 0 0 0 0 0 0.1465 0.7584 0.0951 0 0 0 0 0 0 0 0.0427 0.6387 0.3186 0 0 0 0 0 0 0 0.0069 0.4667 0.504 0.0224 0 0 0 0 0 0 0 0.3021 0.5617 0.1362 0 0 0 0 0 0 0 0.1707 0.5148 0.3122 0.0023 0 0 0 0 0.4386 0.5614 0 0 0 0 0 0 0 0 0.0187 0.9214 0.0599 0 0 0 0 0 0 0 0 0.45 0.55 0 0 0 0 0 0 0 0 0.0512 0.8502 0.09859999999999999 0 0 0 0 0 0 0 0 0.4539 0.5425 0.0036 0 0 0 0 0 0 0 0.1002 0.7524 0.1474 0 0 0 0 0 0 0 0.0029 0.4664 0.5147 0.016 0 0 0 0 0 0 0 0.1584 0.6296 0.212 0 0 0 0 0 0 0 0.0201 0.4586 0.4805 0.0408 0 0 0 0 0 0 0 0.218 0.5217000000000001 0.2584 0.0019 0 0 0.3181 0.6819 0 0 0 0 0 0 0 0 0 0.6772 0.3228 0 0 0 0 0 0 0 0 0.0477 0.8537 0.09859999999999999 0 0 0 0 0 0 0 0 0.2575 0.7206 0.0219 0 0 0 0 0 0 0 0.0051 0.5436 0.4497 0.0016 0 0 0 0 0 0 0 0.06909999999999999 0.7083 0.2226 0 0 0 0 0 0 0 0 0.2625 0.6405 0.097 0 0 0 0 0 0 0 0.0136 0.4631 0.4874 0.0359 0 0 0 0 0 0 0 0.1024 0.5475 0.3424 0.0077 0 0 0 0 0 0 0.0017 0.2753 0.5102 0.2118 0.001 0.2447 0.7476 0.0077 0 0 0 0 0 0 0 0 0.3542 0.6423 0.0035 0 0 0 0 0 0 0 0 0.4537 0.5425 0.0038 0 0 0 0 0 0 0 0.0033 0.5459000000000001 0.4487 0.0021 0 0 0 0 0 0 0 0.019 0.6168 0.3623 0.0019 0 0 0 0 0 0 0 0.0525 0.6394 0.3066 0.0015 0 0 0 0 0 0 0 0.1043 0.6395 0.2549 0.0013 0 0 0 0 0 0 0 0.1766 0.5978 0.2246 0.001 0 0 0 0 0 0 0.0011 0.2524 0.5511 0.1954 0 0 0 0 0 0 0 0.0092 0.3131 0.6777 0.2086 0.7428 0.0486 0 0 0 0 0 0 0 0 0.1434 0.7619 0.09470000000000001 0 0 0 0 0 0 0 0 0.1032 0.7393999999999999 0.1574 0 0 0 0 0 0 0 0 0.07099999999999999 0.703 0.226 0 0 0 0 0 0 0 0 0.0564 0.6401 0.302 0.0015 0 0 0 0 0 0 0 0.0447 0.5665 0.3794 0.0094 0 0 0 0 0 0 0 0.0377 0.5057 0.429 0.0276 0 0 0 0 0 0 0 0.0308 0.4463 0.5229 0 0 0 0 0 0 0 0 0.027 0.973 0 0 0 0 0 0 0 0 0 1 0.1761 0.701 0.1229 0 0 0 0 0 0 0 0 0.048 0.6524 0.2996 0 0 0 0 0 0 0 0 0.0034 0.4684 0.5129 0.0153 0 0 0 0 0 0 0 0 0.2451 0.653 0.1019 0 0 0 0 0 0 0 0 0.1019 0.6435999999999999 0.2529 0.0016 0 0 0 0 0 0 0 0.0376 0.508 0.4285 0.0259 0 0 0 0 0 0 0 0.008399999999999999 0.3395 0.6521 0 0 0 0 0 0 0 0 0.001 0.999 0 0 0 0 0 0 0 0 0 1 0 0 0 0 0 0 0 0 0 1 0.1438 0.654 0.2022 0 0 0 0 0 0 0 0 0.0066 0.4654 0.5058 0.0222 0 0 0 0 0 0 0 0 0.1626 0.6272 0.2102 0 0 0 0 0 0 0 0 0.0184 0.4439 0.4999 0.0378 0 0 0 0 0 0 0 0 0.1815 0.6036 0.2138 0.0011 0 0 0 0 0 0 0 0.0306 0.4343 0.5351 0 0 0 0 0 0 0 0 0.0013 0.9987 0 0 0 0 0 0 0 0 0 1 0 0 0 0 0 0 0 0 0 1 0 0 0 0 0 0 0 0 0 1 0.1322 0.5763 0.2915 0 0 0 0 0 0 0 0 0 0.3002 0.5649999999999999 0.1348 0 0 0 0 0 0 0 0 0.0202 0.4506 0.4829 0.0463 0 0 0 0 0 0 0 0 0.1056 0.5322 0.3542 0.008 0 0 0 0 0 0 0 0.0015 0.2525 0.5462 0.1998 0 0 0 0 0 0 0 0 0.0281 0.9719 0 0 0 0 0 0 0 0 0 1 0 0 0 0 0 0 0 0 0 1 0 0 0 0 0 0 0 0 0 1 0 0 0 0 0 0 0 0 0 1 0.1152 0.5213 0.3595 0.004 0 0 0 0 0 0 0 0 0.1593 0.5145999999999999 0.3236 0.0025 0 0 0 0 0 0 0 0 0.2148 0.5247000000000001 0.2584 0.0021 0 0 0 0 0 0 0 0.0014 0.2673 0.5145999999999999 0.2155 0.0012 0 0 0 0 0 0 0 0.008999999999999999 0.3192 0.6718 0 0 0 0 0 0 0 0 0 1 0 0 0 0 0 0 0 0 0 1 0 0 0 0 0 0 0 0 0 1 0 0 0 0 0 0 0 0 0 1 0 0 0 0 0 0 0 0 0 1 0 0.9328 0.0672 0 0 0 0 0 0 0 0 0.8113 0.1887 0 0 0 0 0 0 0 0 0.6787 0.3213 0 0 0 0 0 0 0 0 0.5686 0.4314 0 0 0 0 0 0 0 0 0.4404 0.5596 0 0 0 0 0 0 0 0 0.3748 0.6152 0.01 0 0 0 0 0 0 0 0.3185 0.6385999999999999 0.0429 0 0 0 0 0 0 0 0.2739 0.6185 0.1076 0 0 0 0 0 0 0 0.2428 0.5757 0.1815 0 0 0 0 0 0 0 0.2141 0.5242 0.2617 0 0 0 0 0 0 0 0.8183 0.1817 0 0 0 0 0 0 0 0 0.4389 0.5611 0 0 0 0 0 0 0 0 0.1247 0.8669 0.008399999999999999 0 0 0 0 0 0 0 0.0131 0.8396 0.1473 0 0 0 0 0 0 0 0 0.5485 0.4515 0 0 0 0 0 0 0 0 0.2819 0.6872 0.0309 0 0 0 0 0 0 0 0.1229 0.699 0.1781 0 0 0 0 0 0 0 0.0392 0.5528 0.4054 0.0026 0 0 0 0 0 0 0.0056 0.4174 0.5145999999999999 0.0624 0 0 0 0 0 0 0 0.2671 0.5251 0.2078 0 0 0 0 0 0.6825 0.3175 0 0 0 0 0 0 0 0 0.1232 0.8699 0.0069 0 0 0 0 0 0 0 0 0.6829 0.3171 0 0 0 0 0 0 0 0 0.1636 0.8048999999999999 0.0315 0 0 0 0 0 0 0 0.0051 0.6387 0.3562 0 0 0 0 0 0 0 0 0.2148 0.7171 0.06809999999999999 0 0 0 0 0 0 0 0.0235 0.5933 0.3809 0.0023 0 0 0 0 0 0 0 0.2681 0.6149 0.117 0 0 0 0 0 0 0 0.0635 0.5239 0.3992 0.0134 0 0 0 0 0 0 0.0021 0.317 0.5178 0.1631 0 0 0 0.5639 0.4361 0 0 0 0 0 0 0 0 0.0114 0.8343 0.1543 0 0 0 0 0 0 0 0 0.1633 0.8077 0.029 0 0 0 0 0 0 0 0 0.4623 0.5352 0.0025 0 0 0 0 0 0 0 0.0299 0.6916 0.2785 0 0 0 0 0 0 0 0 0.1636 0.7199 0.1165 0 0 0 0 0 0 0 0.0015 0.3896 0.5639999999999999 0.0449 0 0 0 0 0 0 0 0.0527 0.55 0.3867 0.0106 0 0 0 0 0 0 0 0.189 0.5683 0.2415 0.0012 0 0 0 0 0 0 0.0123 0.355 0.4979 0.1348 0 0.4485 0.5515 0 0 0 0 0 0 0 0 0 0.5523 0.4477 0 0 0 0 0 0 0 0 0.006 0.6427 0.3513 0 0 0 0 0 0 0 0 0.0273 0.6992 0.2735 0 0 0 0 0 0 0 0 0.063 0.7178 0.2192 0 0 0 0 0 0 0 0 0.1232 0.7000999999999999 0.1767 0 0 0 0 0 0 0 0 0.2049 0.6385 0.1566 0 0 0 0 0 0 0 0.0012 0.2789 0.5846 0.1353 0 0 0 0 0 0 0 0.0106 0.3514 0.638 0 0 0 0 0 0 0 0 0.0285 0.9715 0 0.3599 0.6317 0.008399999999999999 0 0 0 0 0 0 0 0 0.2818 0.6893 0.0289 0 0 0 0 0 0 0 0 0.2159 0.7211 0.063 0 0 0 0 0 0 0 0 0.1663 0.7183 0.1154 0 0 0 0 0 0 0 0 0.1279 0.6972 0.1749 0 0 0 0 0 0 0 0 0.1058 0.6437 0.2492 0.0013 0 0 0 0 0 0 0 0.0857 0.5804 0.3339 0 0 0 0 0 0 0 0 0.07340000000000001 0.9266 0 0 0 0 0 0 0 0 0 1 0 0 0 0 0 0 0 0 0 1 0 0.3078 0.6475 0.0447 0 0 0 0 0 0 0 0 0.1221 0.709 0.1689 0 0 0 0 0 0 0 0 0.0291 0.5891999999999999 0.3802 0.0015 0 0 0 0 0 0 0 0.0021 0.3957 0.5612 0.041 0 0 0 0 0 0 0 0 0.2029 0.6468 0.1503 0 0 0 0 0 0 0 0 0.0853 0.5847 0.33 0 0 0 0 0 0 0 0 0.0324 0.9676 0 0 0 0 0 0 0 0 0 1 0 0 0 0 0 0 0 0 0 1 0 0 0 0 0 0 0 0 0 1 0 0.2644 0.6319 0.1037 0 0 0 0 0 0 0 0 0.0408 0.5596 0.3967 0.0029 0 0 0 0 0 0 0 0 0.2734 0.6112 0.1154 0 0 0 0 0 0 0 0 0.0535 0.5426 0.3909 0.013 0 0 0 0 0 0 0 0.0018 0.2797 0.588 0.1305 0 0 0 0 0 0 0 0 0.0756 0.9244 0 0 0 0 0 0 0 0 0 1 0 0 0 0 0 0 0 0 0 1 0 0 0 0 0 0 0 0 0 1 0 0 0 0 0 0 0 0 0 1 0 0.2308 0.5800999999999999 0.1891 0 0 0 0 0 0 0 0 0.0037 0.4113 0.5226 0.0624 0 0 0 0 0 0 0 0 0.0648 0.5248 0.3979 0.0125 0 0 0 0 0 0 0 0 0.1906 0.5628 0.2451 0.0015 0 0 0 0 0 0 0 0.0092 0.3471 0.6437 0 0 0 0 0 0 0 0 0 1 0 0 0 0 0 0 0 0 0 1 0 0 0 0 0 0 0 0 0 1 0 0 0 0 0 0 0 0 0 1 0 0 0 0 0 0 0 0 0 1 0 0.2167 0.5236 0.2597 0 0 0 0 0 0 0 0 0 0.2587 0.5333 0.208 0 0 0 0 0 0 0 0 0.0028 0.308 0.5254 0.1638 0 0 0 0 0 0 0 0 0.013 0.3579 0.5027 0.1264 0 0 0 0 0 0 0 0 0.0291 0.9709 0 0 0 0 0 0 0 0 0 1 0 0 0 0 0 0 0 0 0 1 0 0 0 0 0 0 0 0 0 1 0 0 0 0 0 0 0 0 0 1 0 0 0 0 0 0 0 0 0 1 0 0 1 0 0 0 0 0 0 0 0 0 0.9756 0.0244 0 0 0 0 0 0 0 0 0.887 0.113 0 0 0 0 0 0 0 0 0.7826 0.2174 0 0 0 0 0 0 0 0 0.6611 0.3389 0 0 0 0 0 0 0 0 0.5505 0.4495 0 0 0 0 0 0 0 0 0.4593 0.5357 0.005 0 0 0 0 0 0 0 0.396 0.5692 0.0348 0 0 0 0 0 0 0 0.3549 0.5507 0.0944 0 0 0 0 0 0 0 0.3191 0.5226 0.1583 0 0 0 0 0 0 0 0.9747 0.0253 0 0 0 0 0 0 0 0 0.6805 0.3195 0 0 0 0 0 0 0 0 0.3219 0.6781 0 0 0 0 0 0 0 0 0.0844 0.868 0.0476 0 0 0 0 0 0 0 0.0097 0.7302999999999999 0.26 0 0 0 0 0 0 0 0 0.4599 0.5366 0.0035 0 0 0 0 0 0 0 0.2374 0.6821 0.0805 0 0 0 0 0 0 0 0.1086 0.6121 0.2793 0 0 0 0 0 0 0 0.0375 0.493 0.4475 0.022 0 0 0 0 0 0 0.0045 0.3696 0.5051 0.1208 0 0 0 0 0 0.8877 0.1123 0 0 0 0 0 0 0 0 0.323 0.677 0 0 0 0 0 0 0 0 0.0105 0.8519 0.1376 0 0 0 0 0 0 0 0 0.3464 0.6498 0.0038 0 0 0 0 0 0 0 0.0377 0.7779 0.1844 0 0 0 0 0 0 0 0 0.3722 0.6091 0.0187 0 0 0 0 0 0 0 0.0835 0.6753 0.2412 0 0 0 0 0 0 0 0.0036 0.3998 0.5504 0.0462 0 0 0 0 0 0 0 0.1343 0.5762 0.2878 0.0017 0 0 0 0 0 0 0.0176 0.4109 0.4807 0.09080000000000001 0 0 0 0.7728 0.2272 0 0 0 0 0 0 0 0 0.08459999999999999 0.8686 0.0468 0 0 0 0 0 0 0 0 0.3507 0.6444 0.0049 0 0 0 0 0 0 0 0.003 0.6572 0.3398 0 0 0 0 0 0 0 0 0.0895 0.7751 0.1354 0 0 0 0 0 0 0 0 0.3007 0.652 0.0473 0 0 0 0 0 0 0 0.0178 0.5181 0.4514 0.0127 0 0 0 0 0 0 0 0.116 0.6145 0.268 0.0015 0 0 0 0 0 0 0.0022 0.308 0.5507 0.1391 0 0 0 0 0 0 0 0.0394 0.4329 0.5276999999999999 0 0 0.6567 0.3433 0 0 0 0 0 0 0 0 0.0111 0.7352 0.2537 0 0 0 0 0 0 0 0 0.0412 0.7761 0.1827 0 0 0 0 0 0 0 0 0.08749999999999999 0.7758 0.1367 0 0 0 0 0 0 0 0 0.1535 0.7359 0.1106 0 0 0 0 0 0 0 0 0.2443 0.6661 0.0896 0 0 0 0 0 0 0 0.0015 0.3307 0.5914 0.0764 0 0 0 0 0 0 0 0.0106 0.4007 0.5887 0 0 0 0 0 0 0 0 0.0342 0.9658 0 0 0 0 0 0 0 0 0 1 0 0 0.5502 0.4498 0 0 0 0 0 0 0 0 0 0.4633 0.5325 0.0042 0 0 0 0 0 0 0 0 0.3769 0.603 0.0201 0 0 0 0 0 0 0 0 0.301 0.6544 0.0446 0 0 0 0 0 0 0 0 0.2473 0.6647999999999999 0.08790000000000001 0 0 0 0 0 0 0 0 0.1972 0.6534 0.1494 0 0 0 0 0 0 0 0 0.1619 0.8381 0 0 0 0 0 0 0 0 0 1 0 0 0 0 0 0 0 0 0 1 0 0 0 0 0 0 0 0 0 1 0 0 0.4612 0.5323 0.0065 0 0 0 0 0 0 0 0 0.2414 0.6723 0.0863 0 0 0 0 0 0 0 0 0.0814 0.6745 0.2441 0 0 0 0 0 0 0 0 0.0182 0.5289 0.441 0.0119 0 0 0 0 0 0 0 0.0013 0.327 0.5954 0.07630000000000001 0 0 0 0 0 0 0 0 0.1617 0.8383 0 0 0 0 0 0 0 0 0 1 0 0 0 0 0 0 0 0 0 1 0 0 0 0 0 0 0 0 0 1 0 0 0 0 0 0 0 0 0 1 0 0 0.4078 0.5553 0.0369 0 0 0 0 0 0 0 0 0.1095 0.628 0.2625 0 0 0 0 0 0 0 0 0.0027 0.4053 0.5448 0.0472 0 0 0 0 0 0 0 0 0.1181 0.6151 0.2655 0.0013 0 0 0 0 0 0 0 0.0126 0.4003 0.5871 0 0 0 0 0 0 0 0 0 1 0 0 0 0 0 0 0 0 0 1 0 0 0 0 0 0 0 0 0 1 0 0 0 0 0 0 0 0 0 1 0 0 0 0 0 0 0 0 0 1 0 0 0.3542 0.556 0.0898 0 0 0 0 0 0 0 0 0.0359 0.4879 0.4522 0.024 0 0 0 0 0 0 0 0 0.1381 0.5651 0.2956 0.0012 0 0 0 0 0 0 0 0.0027 0.303 0.5476 0.1467 0 0 0 0 0 0 0 0 0.0304 0.9696 0 0 0 0 0 0 0 0 0 1 0 0 0 0 0 0 0 0 0 1 0 0 0 0 0 0 0 0 0 1 0 0 0 0 0 0 0 0 0 1 0 0 0 0 0 0 0 0 0 1 0 0 0.3169 0.5209 0.1622 0 0 0 0 0 0 0 0 0.0037 0.3668 0.5063 0.1232 0 0 0 0 0 0 0 0 0.0196 0.412 0.4782 0.0902 0 0 0 0 0 0 0 0 0.0418 0.4386 0.5196 0 0 0 0 0 0 0 0 0 1 0 0 0 0 0 0 0 0 0 1 0 0 0 0 0 0 0 0 0 1 0 0 0 0 0 0 0 0 0 1 0 0 0 0 0 0 0 0 0 1 0 0 0 0 0 0 0 0 0 1 0 0 0.1926 0.8074 0 0 0 0 0 0 0 0 0.08599999999999999 0.914 0 0 0 0 0 0 0 0 0.054 0.9312 0.0148 0 0 0 0 0 0 0 0.0337 0.8814 0.0849 0 0 0 0 0 0 0 0.0274 0.7982 0.1744 0 0 0 0 0 0 0 0.0244 0.6961000000000001 0.2795 0 0 0 0 0 0 0 0.0177 0.5942 0.3881 0 0 0 0 0 0 0 0.0162 0.5152 0.4628 0.0058 0 0 0 0 0 0 0.0169 0.4519 0.4943 0.0369 0 0 0 0 0 0 0.0114 0.4094 0.4977 0.0815 0 0 0 0 0 0 0.0815 0.9185 0 0 0 0 0 0 0 0 0 0.8994 0.1006 0 0 0 0 0 0 0 0 0.5652 0.4348 0 0 0 0 0 0 0 0 0.234 0.7606000000000001 0.0054 0 0 0 0 0 0 0 0.0659 0.8207 0.1134 0 0 0 0 0 0 0 0.0094 0.6302 0.3604 0 0 0 0 0 0 0 0 0.3911 0.5858 0.0231 0 0 0 0 0 0 0 0.2122 0.6348 0.153 0 0 0 0 0 0 0 0.09379999999999999 0.5573 0.3465 0.0024 0 0 0 0 0 0 0.0308 0.4464 0.4645 0.0583 0 0 0 0 0.0493 0.9366 0.0141 0 0 0 0 0 0 0 0 0.5628 0.4372 0 0 0 0 0 0 0 0 0.07480000000000001 0.8856000000000001 0.0396 0 0 0 0 0 0 0 0 0.5587 0.4413 0 0 0 0 0 0 0 0 0.123 0.7949000000000001 0.08210000000000001 0 0 0 0 0 0 0 0.0037 0.543 0.4506 0.0027 0 0 0 0 0 0 0 0.1806 0.6944 0.125 0 0 0 0 0 0 0 0.0228 0.5171 0.4434 0.0167 0 0 0 0 0 0 0 0.237 0.5778 0.1852 0 0 0 0 0 0 0 0.0575 0.4804 0.4215 0.0406 0 0 0.036 0.8832 0.0808 0 0 0 0 0 0 0 0 0.2389 0.7554999999999999 0.0056 0 0 0 0 0 0 0 0 0.5681 0.4319 0 0 0 0 0 0 0 0 0.0309 0.7864 0.1827 0 0 0 0 0 0 0 0 0.2041 0.7378 0.0581 0 0 0 0 0 0 0 0.0025 0.4596 0.5239 0.014 0 0 0 0 0 0 0 0.0583 0.624 0.3158 0.0019 0 0 0 0 0 0 0 0.2163 0.6142 0.1695 0 0 0 0 0 0 0 0.0131 0.4064 0.5805 0 0 0 0 0 0 0 0 0.0961 0.9039 0 0 0.0288 0.8053 0.1659 0 0 0 0 0 0 0 0 0.0665 0.8159999999999999 0.1175 0 0 0 0 0 0 0 0 0.1263 0.7975 0.0762 0 0 0 0 0 0 0 0 0.2036 0.7349 0.0615 0 0 0 0 0 0 0 0 0.3003 0.6546 0.0451 0 0 0 0 0 0 0 0.0023 0.3844 0.5778 0.0355 0 0 0 0 0 0 0 0.0138 0.4554 0.5308 0 0 0 0 0 0 0 0 0.0394 0.9606 0 0 0 0 0 0 0 0 0 1 0 0 0 0 0 0 0 0 0 1 0 0 0.0206 0.7069 0.2725 0 0 0 0 0 0 0 0 0.0083 0.6254 0.3663 0 0 0 0 0 0 0 0 0.005 0.5524 0.4405 0.0021 0 0 0 0 0 0 0 0.0024 0.4679 0.5155 0.0142 0 0 0 0 0 0 0 0.0021 0.3842 0.5736 0.0401 0 0 0 0 0 0 0 0.001 0.3251 0.6739000000000001 0 0 0 0 0 0 0 0 0.0022 0.9978 0 0 0 0 0 0 0 0 0 1 0 0 0 0 0 0 0 0 0 1 0 0 0 0 0 0 0 0 0 1 0 0 0.0186 0.5936 0.3878 0 0 0 0 0 0 0 0 0 0.3783 0.5969 0.0248 0 0 0 0 0 0 0 0 0.1847 0.6788999999999999 0.1364 0 0 0 0 0 0 0 0 0.0607 0.6249 0.313 0.0014 0 0 0 0 0 0 0 0.0143 0.4612 0.5245 0 0 0 0 0 0 0 0 0.0011 0.9989 0 0 0 0 0 0 0 0 0 1 0 0 0 0 0 0 0 0 0 1 0 0 0 0 0 0 0 0 0 1 0 0 0 0 0 0 0 0 0 1 0 0 0.0174 0.5088 0.469 0.0048 0 0 0 0 0 0 0 0 0.2176 0.6303 0.1521 0 0 0 0 0 0 0 0 0.0222 0.5205 0.4421 0.0152 0 0 0 0 0 0 0 0 0.2151 0.6278 0.1571 0 0 0 0 0 0 0 0 0.0405 0.9595 0 0 0 0 0 0 0 0 0 1 0 0 0 0 0 0 0 0 0 1 0 0 0 0 0 0 0 0 0 1 0 0 0 0 0 0 0 0 0 1 0 0 0 0 0 0 0 0 0 1 0 0 0.0139 0.4518 0.4977 0.0366 0 0 0 0 0 0 0 0 0.09859999999999999 0.5575 0.3414 0.0025 0 0 0 0 0 0 0 0 0.2451 0.5692 0.1857 0 0 0 0 0 0 0 0 0.0147 0.3929 0.5924 0 0 0 0 0 0 0 0 0 1 0 0 0 0 0 0 0 0 0 1 0 0 0 0 0 0 0 0 0 1 0 0 0 0 0 0 0 0 0 1 0 0 0 0 0 0 0 0 0 1 0 0 0 0 0 0 0 0 0 1 0 0 0.0127 0.4097 0.4928 0.0848 0 0 0 0 0 0 0 0 0.0302 0.4382 0.4739 0.0577 0 0 0 0 0 0 0 0 0.0578 0.4742 0.4301 0.0379 0 0 0 0 0 0 0 0 0.09760000000000001 0.9024 0 0 0 0 0 0 0 0 0 1 0 0 0 0 0 0 0 0 0 1 0 0 0 0 0 0 0 0 0 1 0 0 0 0 0 0 0 0 0 1 0 0 0 0 0 0 0 0 0 1 0 0 0 0 0 0 0 0 0 1 0 0 0 0.4317 0.5683 0 0 0 0 0 0 0 0 0.3096 0.6904 0 0 0 0 0 0 0 0 0.2045 0.7955 0 0 0 0 0 0 0 0 0.1422 0.8448 0.013 0 0 0 0 0 0 0 0.109 0.8289 0.0621 0 0 0 0 0 0 0 0.0878 0.7723 0.1399 0 0 0 0 0 0 0 0.07630000000000001 0.6842 0.2395 0 0 0 0 0 0 0 0.0653 0.5972 0.3375 0 0 0 0 0 0 0 0.057 0.533 0.4051 0.0049 0 0 0 0 0 0 0.0535 0.4675 0.4473 0.0317 0 0 0 0 0 0 0.3129 0.6871 0 0 0 0 0 0 0 0 0.0331 0.9548 0.0121 0 0 0 0 0 0 0 0 0.793 0.207 0 0 0 0 0 0 0 0 0.4334 0.5666 0 0 0 0 0 0 0 0 0.1753 0.7919 0.0328 0 0 0 0 0 0 0 0.0523 0.7343 0.2134 0 0 0 0 0 0 0 0.007 0.5448 0.4451 0.0031 0 0 0 0 0 0 0 0.3292 0.6025 0.0683 0 0 0 0 0 0 0 0.1829 0.5836 0.2335 0 0 0 0 0 0 0 0.0818 0.4891 0.4118 0.0173 0 0 0 0 0.1991 0.8008999999999999 0 0 0 0 0 0 0 0 0 0.7944 0.2056 0 0 0 0 0 0 0 0 0.2261 0.768 0.0059 0 0 0 0 0 0 0 0.0052 0.7504999999999999 0.2443 0 0 0 0 0 0 0 0 0.2779 0.7003 0.0218 0 0 0 0 0 0 0 0.0312 0.6734 0.2954 0 0 0 0 0 0 0 0 0.311 0.6327 0.0563 0 0 0 0 0 0 0 0.0752 0.5929 0.3309 0.001 0 0 0 0 0 0 0.003 0.3514 0.5446 0.101 0 0 0 0 0 0 0 0.1275 0.5109 0.3616 0 0 0 0.1471 0.8427 0.0102 0 0 0 0 0 0 0 0 0.4424 0.5576 0 0 0 0 0 0 0 0 0.0064 0.7534 0.2402 0 0 0 0 0 0 0 0 0.1199 0.8111 0.06900000000000001 0 0 0 0 0 0 0 0 0.372 0.6145 0.0135 0 0 0 0 0 0 0 0.0221 0.6064000000000001 0.3692 0.0023 0 0 0 0 0 0 0 0.1414 0.6647999999999999 0.1938 0 0 0 0 0 0 0 0.0022 0.3381 0.6597 0 0 0 0 0 0 0 0 0.0478 0.9522 0 0 0 0 0 0 0 0 0 1 0 0 0 0.1133 0.8222 0.0645 0 0 0 0 0 0 0 0 0.1765 0.7901 0.0334 0 0 0 0 0 0 0 0 0.265 0.712 0.023 0 0 0 0 0 0 0 0 0.3673 0.6146 0.0181 0 0 0 0 0 0 0 0.002 0.4529 0.5325 0.0126 0 0 0 0 0 0 0 0.0148 0.5239 0.4613 0 0 0 0 0 0 0 0 0.0398 0.9602000000000001 0 0 0 0 0 0 0 0 0 1 0 0 0 0 0 0 0 0 0 1 0 0 0 0 0 0 0 0 0 1 0 0 0 0.08890000000000001 0.7658 0.1453 0 0 0 0 0 0 0 0 0.0509 0.7398 0.2093 0 0 0 0 0 0 0 0 0.0306 0.6824 0.287 0 0 0 0 0 0 0 0 0.0193 0.6118 0.3673 0.0016 0 0 0 0 0 0 0 0.0174 0.5232 0.4594 0 0 0 0 0 0 0 0 0.0133 0.9867 0 0 0 0 0 0 0 0 0 1 0 0 0 0 0 0 0 0 0 1 0 0 0 0 0 0 0 0 0 1 0 0 0 0 0 0 0 0 0 1 0 0 0 0.07679999999999999 0.6877 0.2355 0 0 0 0 0 0 0 0 0.0077 0.5344 0.4555 0.0024 0 0 0 0 0 0 0 0 0.3112 0.6373 0.0515 0 0 0 0 0 0 0 0 0.1338 0.6704 0.1958 0 0 0 0 0 0 0 0 0.0469 0.9530999999999999 0 0 0 0 0 0 0 0 0 1 0 0 0 0 0 0 0 0 0 1 0 0 0 0 0 0 0 0 0 1 0 0 0 0 0 0 0 0 0 1 0 0 0 0 0 0 0 0 0 1 0 0 0 0.0635 0.6063 0.3302 0 0 0 0 0 0 0 0 0 0.3346 0.5956 0.0698 0 0 0 0 0 0 0 0 0.06850000000000001 0.5955 0.3334 0.0026 0 0 0 0 0 0 0 0.002 0.3371 0.6609 0 0 0 0 0 0 0 0 0 1 0 0 0 0 0 0 0 0 0 1 0 0 0 0 0 0 0 0 0 1 0 0 0 0 0 0 0 0 0 1 0 0 0 0 0 0 0 0 0 1 0 0 0 0 0 0 0 0 0 1 0 0 0 0.0599 0.5299 0.4065 0.0037 0 0 0 0 0 0 0 0 0.1823 0.575 0.2427 0 0 0 0 0 0 0 0 0.0022 0.3562 0.5454 0.09619999999999999 0 0 0 0 0 0 0 0 0.0437 0.9563 0 0 0 0 0 0 0 0 0 1 0 0 0 0 0 0 0 0 0 1 0 0 0 0 0 0 0 0 0 1 0 0 0 0 0 0 0 0 0 1 0 0 0 0 0 0 0 0 0 1 0 0 0 0 0 0 0 0 0 1 0 0 0 0.0517 0.4747 0.4434 0.0302 0 0 0 0 0 0 0 0 0.0814 0.4955 0.4053 0.0178 0 0 0 0 0 0 0 0 0.1221 0.5063 0.3716 0 0 0 0 0 0 0 0 0 1 0 0 0 0 0 0 0 0 0 1 0 0 0 0 0 0 0 0 0 1 0 0 0 0 0 0 0 0 0 1 0 0 0 0 0 0 0 0 0 1 0 0 0 0 0 0 0 0 0 1 0 0 0 0 0 0 0 0 0 1 0 0 0 0 0.6806 0.3194 0 0 0 0 0 0 0 0 0.5696 0.4304 0 0 0 0 0 0 0 0 0.4398 0.5602 0 0 0 0 0 0 0 0 0.3232 0.6768 0 0 0 0 0 0 0 0 0.2518 0.7392 0.008999999999999999 0 0 0 0 0 0 0 0.2037 0.7428 0.0535 0 0 0 0 0 0 0 0.1724 0.7042 0.1234 0 0 0 0 0 0 0 0.1482 0.6395 0.2123 0 0 0 0 0 0 0 0.1338 0.5714 0.2948 0 0 0 0 0 0 0 0.1227 0.5036 0.37 0.0037 0 0 0 0 0 0 0.5573 0.4427 0 0 0 0 0 0 0 0 0.2003 0.7997 0 0 0 0 0 0 0 0 0.0177 0.9219000000000001 0.0604 0 0 0 0 0 0 0 0 0.6724 0.3276 0 0 0 0 0 0 0 0 0.347 0.6485 0.0045 0 0 0 0 0 0 0 0.1446 0.7581 0.0973 0 0 0 0 0 0 0 0.0467 0.6415 0.3118 0 0 0 0 0 0 0 0.0058 0.4583 0.5144 0.0215 0 0 0 0 0 0 0 0.2929 0.5696 0.1375 0 0 0 0 0 0 0 0.1597 0.5225 0.3148 0.003 0 0 0 0 0.4297 0.5703 0 0 0 0 0 0 0 0 0.0181 0.9189000000000001 0.063 0 0 0 0 0 0 0 0 0.4504 0.5496 0 0 0 0 0 0 0 0 0.0508 0.8467 0.1025 0 0 0 0 0 0 0 0 0.451 0.5456 0.0034 0 0 0 0 0 0 0 0.1059 0.7428 0.1513 0 0 0 0 0 0 0 0.0031 0.468 0.513 0.0159 0 0 0 0 0 0 0 0.1583 0.6289 0.2128 0 0 0 0 0 0 0 0.0211 0.4456 0.5333 0 0 0 0 0 0 0 0 0.2161 0.7839 0 0 0 0 0.3188 0.6812 0 0 0 0 0 0 0 0 0 0.6818 0.3182 0 0 0 0 0 0 0 0 0.0542 0.8416 0.1042 0 0 0 0 0 0 0 0 0.2607 0.7173 0.022 0 0 0 0 0 0 0 0.0036 0.5608 0.4332 0.0024 0 0 0 0 0 0 0 0.0718 0.705 0.2232 0 0 0 0 0 0 0 0 0.248 0.752 0 0 0 0 0 0 0 0 0.0166 0.9834000000000001 0 0 0 0 0 0 0 0 0 1 0 0 0 0 0 0 0 0 0 1 0 0 0 0 0.2537 0.7361 0.0102 0 0 0 0 0 0 0 0 0.3565 0.6393 0.0042 0 0 0 0 0 0 0 0 0.4547 0.5417999999999999 0.0035 0 0 0 0 0 0 0 0.003 0.5532 0.4416 0.0022 0 0 0 0 0 0 0 0.0177 0.6175 0.3648 0 0 0 0 0 0 0 0 0.0547 0.9453 0 0 0 0 0 0 0 0 0 1 0 0 0 0 0 0 0 0 0 1 0 0 0 0 0 0 0 0 0 1 0 0 0 0 0 0 0 0 0 1 0 0 0 0 0.2075 0.7428 0.0497 0 0 0 0 0 0 0 0 0.1477 0.7554999999999999 0.0968 0 0 0 0 0 0 0 0 0.102 0.7507 0.1473 0 0 0 0 0 0 0 0 0.0742 0.6993 0.2265 0 0 0 0 0 0 0 0 0.0572 0.9428 0 0 0 0 0 0 0 0 0 1 0 0 0 0 0 0 0 0 0 1 0 0 0 0 0 0 0 0 0 1 0 0 0 0 0 0 0 0 0 1 0 0 0 0 0 0 0 0 0 1 0 0 0 0 0.1733 0.7074 0.1193 0 0 0 0 0 0 0 0 0.0444 0.6556 0.3 0 0 0 0 0 0 0 0 0.0033 0.4647 0.5152 0.0168 0 0 0 0 0 0 0 0 0.2605 0.7395 0 0 0 0 0 0 0 0 0 1 0 0 0 0 0 0 0 0 0 1 0 0 0 0 0 0 0 0 0 1 0 0 0 0 0 0 0 0 0 1 0 0 0 0 0 0 0 0 0 1 0 0 0 0 0 0 0 0 0 1 0 0 0 0 0.1572 0.645 0.1978 0 0 0 0 0 0 0 0 0.0056 0.4599 0.5134 0.0211 0 0 0 0 0 0 0 0 0.1545 0.634 0.2115 0 0 0 0 0 0 0 0 0.0144 0.9856 0 0 0 0 0 0 0 0 0 1 0 0 0 0 0 0 0 0 0 1 0 0 0 0 0 0 0 0 0 1 0 0 0 0 0 0 0 0 0 1 0 0 0 0 0 0 0 0 0 1 0 0 0 0 0 0 0 0 0 1 0 0 0 0 0.1336 0.5703 0.2961 0 0 0 0 0 0 0 0 0 0.3007 0.5647 0.1346 0 0 0 0 0 0 0 0 0.0202 0.4492 0.5306 0 0 0 0 0 0 0 0 0 1 0 0 0 0 0 0 0 0 0 1 0 0 0 0 0 0 0 0 0 1 0 0 0 0 0 0 0 0 0 1 0 0 0 0 0 0 0 0 0 1 0 0 0 0 0 0 0 0 0 1 0 0 0 0 0 0 0 0 0 1 0 0 0 0 0.1212 0.5114 0.3631 0.0043 0 0 0 0 0 0 0 0 0.158 0.5274 0.3129 0.0017 0 0 0 0 0 0 0 0 0.2177 0.7823 0 0 0 0 0 0 0 0 0 1 0 0 0 0 0 0 0 0 0 1 0 0 0 0 0 0 0 0 0 1 0 0 0 0 0 0 0 0 0 1 0 0 0 0 0 0 0 0 0 1 0 0 0 0 0 0 0 0 0 1 0 0 0 0 0 0 0 0 0 1 0 0 0 0 0 0.9413 0.0587 0 0 0 0 0 0 0 0 0.8113 0.1887 0 0 0 0 0 0 0 0 0.6843 0.3157 0 0 0 0 0 0 0 0 0.5585 0.4415 0 0 0 0 0 0 0 0 0.4431 0.5569 0 0 0 0 0 0 0 0 0.3716 0.6199 0.008500000000000001 0 0 0 0 0 0 0 0.311 0.6487000000000001 0.0403 0 0 0 0 0 0 0 0.2671 0.6296 0.1033 0 0 0 0 0 0 0 0.2431 0.5752 0.1817 0 0 0 0 0 0 0 0.2098 0.5259 0.2643 0 0 0 0 0 0 0 0.8107 0.1893 0 0 0 0 0 0 0 0 0.4301 0.5699 0 0 0 0 0 0 0 0 0.1262 0.8689 0.0049 0 0 0 0 0 0 0 0.0123 0.8421 0.1456 0 0 0 0 0 0 0 0 0.5532 0.4468 0 0 0 0 0 0 0 0 0.2876 0.6868 0.0256 0 0 0 0 0 0 0 0.1224 0.6991000000000001 0.1785 0 0 0 0 0 0 0 0.039 0.5593 0.3996 0.0021 0 0 0 0 0 0 0.0049 0.4113 0.5182 0.06560000000000001 0 0 0 0 0 0 0 0.2591 0.5274 0.2135 0 0 0 0 0 0.674 0.326 0 0 0 0 0 0 0 0 0.1277 0.8658 0.0065 0 0 0 0 0 0 0 0 0.6749000000000001 0.3251 0 0 0 0 0 0 0 0 0.1661 0.8061 0.0278 0 0 0 0 0 0 0 0.0052 0.6359 0.3589 0 0 0 0 0 0 0 0 0.2187 0.7137 0.06759999999999999 0 0 0 0 0 0 0 0.0241 0.5938 0.3821 0 0 0 0 0 0 0 0 0.2675 0.7325 0 0 0 0 0 0 0 0 0.0674 0.9326 0 0 0 0 0 0 0 0 0.0024 0.9976 0 0 0 0 0 0.5616 0.4384 0 0 0 0 0 0 0 0 0.0129 0.8379 0.1492 0 0 0 0 0 0 0 0 0.1744 0.7988 0.0268 0 0 0 0 0 0 0 0 0.4454 0.5525 0.0021 0 0 0 0 0 0 0 0.0267 0.6957 0.2776 0 0 0 0 0 0 0 0 0.1669 0.8331 0 0 0 0 0 0 0 0 0.0026 0.9974 0 0 0 0 0 0 0 0 0 1 0 0 0 0 0 0 0 0 0 1 0 0 0 0 0 0 0 0 0 1 0 0 0 0 0 0.449 0.551 0 0 0 0 0 0 0 0 0 0.5573 0.4427 0 0 0 0 0 0 0 0 0.0048 0.6503 0.3449 0 0 0 0 0 0 0 0 0.0258 0.6996 0.2746 0 0 0 0 0 0 0 0 0.0678 0.9322 0 0 0 0 0 0 0 0 0 1 0 0 0 0 0 0 0 0 0 1 0 0 0 0 0 0 0 0 0 1 0 0 0 0 0 0 0 0 0 1 0 0 0 0 0 0 0 0 0 1 0 0 0 0 0 0.3669 0.6248 0.0083 0 0 0 0 0 0 0 0 0.2865 0.6816 0.0319 0 0 0 0 0 0 0 0 0.216 0.7183 0.06569999999999999 0 0 0 0 0 0 0 0 0.1644 0.8356 0 0 0 0 0 0 0 0 0 1 0 0 0 0 0 0 0 0 0 1 0 0 0 0 0 0 0 0 0 1 0 0 0 0 0 0 0 0 0 1 0 0 0 0 0 0 0 0 0 1 0 0 0 0 0 0 0 0 0 1 0 0 0 0 0 0.3074 0.6478 0.0448 0 0 0 0 0 0 0 0 0.1175 0.7038 0.1787 0 0 0 0 0 0 0 0 0.0253 0.5875 0.3872 0 0 0 0 0 0 0 0 0.0023 0.9977 0 0 0 0 0 0 0 0 0 1 0 0 0 0 0 0 0 0 0 1 0 0 0 0 0 0 0 0 0 1 0 0 0 0 0 0 0 0 0 1 0 0 0 0 0 0 0 0 0 1 0 0 0 0 0 0 0 0 0 1 0 0 0 0 0 0.2665 0.6336000000000001 0.0999 0 0 0 0 0 0 0 0 0.0389 0.5618 0.3963 0.003 0 0 0 0 0 0 0 0 0.2752 0.7248 0 0 0 0 0 0 0 0 0 1 0 0 0 0 0 0 0 0 0 1 0 0 0 0 0 0 0 0 0 1 0 0 0 0 0 0 0 0 0 1 0 0 0 0 0 0 0 0 0 1 0 0 0 0 0 0 0 0 0 1 0 0 0 0 0 0 0 0 0 1 0 0 0 0 0 0.2289 0.5842000000000001 0.1869 0 0 0 0 0 0 0 0 0.006 0.4065 0.5268 0.0607 0 0 0 0 0 0 0 0 0.0649 0.9351 0 0 0 0 0 0 0 0 0 1 0 0 0 0 0 0 0 0 0 1 0 0 0 0 0 0 0 0 0 1 0 0 0 0 0 0 0 0 0 1 0 0 0 0 0 0 0 0 0 1 0 0 0 0 0 0 0 0 0 1 0 0 0 0 0 0 0 0 0 1 0 0 0 0 0 0.2131 0.5213 0.2656 0 0 0 0 0 0 0 0 0 0.2657 0.5291 0.2052 0 0 0 0 0 0 0 0 0.0031 0.9969 0 0 0 0 0 0 0 0 0 1 0 0 0 0 0 0 0 0 0 1 0 0 0 0 0 0 0 0 0 1 0 0 0 0 0 0 0 0 0 1 0 0 0 0 0 0 0 0 0 1 0 0 0 0 0 0 0 0 0 1 0 0 0 0 0 0 0 0 0 1 0 0 0 0 0 0 1 0 0 0 0 0 0 0 0 0 0.9757 0.0243 0 0 0 0 0 0 0 0 0.8862 0.1138 0 0 0 0 0 0 0 0 0.7674 0.2326 0 0 0 0 0 0 0 0 0.6513 0.3487 0 0 0 0 0 0 0 0 0.5431 0.4569 0 0 0 0 0 0 0 0 0.4614 0.5339 0.0047 0 0 0 0 0 0 0 0.4102 0.5492 0.0406 0 0 0 0 0 0 0 0.3438 0.5626 0.0936 0 0 0 0 0 0 0 0.3138 0.5274 0.1588 0 0 0 0 0 0 0 0.9765 0.0235 0 0 0 0 0 0 0 0 0.6907 0.3093 0 0 0 0 0 0 0 0 0.3197 0.6803 0 0 0 0 0 0 0 0 0.0854 0.8707 0.0439 0 0 0 0 0 0 0 0.0094 0.7388 0.2518 0 0 0 0 0 0 0 0 0.4535 0.5425 0.004 0 0 0 0 0 0 0 0.2407 0.6761 0.0832 0 0 0 0 0 0 0 0.1077 0.6264999999999999 0.2658 0 0 0 0 0 0 0 0.0334 0.4999 0.4667 0 0 0 0 0 0 0 0.0046 0.3648 0.6306 0 0 0 0 0 0 0.8905999999999999 0.1094 0 0 0 0 0 0 0 0 0.307 0.6929999999999999 0 0 0 0 0 0 0 0 0.0103 0.8512999999999999 0.1384 0 0 0 0 0 0 0 0 0.3487 0.6468 0.0045 0 0 0 0 0 0 0 0.0392 0.7722 0.1886 0 0 0 0 0 0 0 0 0.3645 0.6355 0 0 0 0 0 0 0 0 0.0832 0.9167999999999999 0 0 0 0 0 0 0 0 0.0031 0.9969 0 0 0 0 0 0 0 0 0 1 0 0 0 0 0 0 0 0 0 1 0 0 0 0 0 0 0.7712 0.2288 0 0 0 0 0 0 0 0 0.0851 0.8697 0.0452 0 0 0 0 0 0 0 0 0.3438 0.6524 0.0038 0 0 0 0 0 0 0 0.0044 0.66 0.3356 0 0 0 0 0 0 0 0 0.0848 0.9152 0 0 0 0 0 0 0 0 0 1 0 0 0 0 0 0 0 0 0 1 0 0 0 0 0 0 0 0 0 1 0 0 0 0 0 0 0 0 0 1 0 0 0 0 0 0 0 0 0 1 0 0 0 0 0 0 0.6601 0.3399 0 0 0 0 0 0 0 0 0.0109 0.7324000000000001 0.2567 0 0 0 0 0 0 0 0 0.0398 0.772 0.1882 0 0 0 0 0 0 0 0 0.0854 0.9146 0 0 0 0 0 0 0 0 0 1 0 0 0 0 0 0 0 0 0 1 0 0 0 0 0 0 0 0 0 1 0 0 0 0 0 0 0 0 0 1 0 0 0 0 0 0 0 0 0 1 0 0 0 0 0 0 0 0 0 1 0 0 0 0 0 0 0.5434 0.4566 0 0 0 0 0 0 0 0 0 0.4634 0.533 0.0036 0 0 0 0 0 0 0 0 0.3698 0.6302 0 0 0 0 0 0 0 0 0 1 0 0 0 0 0 0 0 0 0 1 0 0 0 0 0 0 0 0 0 1 0 0 0 0 0 0 0 0 0 1 0 0 0 0 0 0 0 0 0 1 0 0 0 0 0 0 0 0 0 1 0 0 0 0 0 0 0 0 0 1 0 0 0 0 0 0 0.4709 0.5209 0.008200000000000001 0 0 0 0 0 0 0 0 0.2399 0.6723 0.0878 0 0 0 0 0 0 0 0 0.08690000000000001 0.9131 0 0 0 0 0 0 0 0 0 1 0 0 0 0 0 0 0 0 0 1 0 0 0 0 0 0 0 0 0 1 0 0 0 0 0 0 0 0 0 1 0 0 0 0 0 0 0 0 0 1 0 0 0 0 0 0 0 0 0 1 0 0 0 0 0 0 0 0 0 1 0 0 0 0 0 0 0.4055 0.5557 0.0388 0 0 0 0 0 0 0 0 0.1102 0.62 0.2698 0 0 0 0 0 0 0 0 0.0028 0.9972 0 0 0 0 0 0 0 0 0 1 0 0 0 0 0 0 0 0 0 1 0 0 0 0 0 0 0 0 0 1 0 0 0 0 0 0 0 0 0 1 0 0 0 0 0 0 0 0 0 1 0 0 0 0 0 0 0 0 0 1 0 0 0 0 0 0 0 0 0 1 0 0 0 0 0 0 0.3506 0.5570000000000001 0.0924 0 0 0 0 0 0 0 0 0.0354 0.4921 0.4725 0 0 0 0 0 0 0 0 0 1 0 0 0 0 0 0 0 0 0 1 0 0 0 0 0 0 0 0 0 1 0 0 0 0 0 0 0 0 0 1 0 0 0 0 0 0 0 0 0 1 0 0 0 0 0 0 0 0 0 1 0 0 0 0 0 0 0 0 0 1 0 0 0 0 0 0 0 0 0 1 0 0 0 0 0 0 0.3166 0.5225 0.1609 0 0 0 0 0 0 0 0 0.0045 0.3669 0.6286 0 0 0 0 0 0 0 0 0 1 0 0 0 0 0 0 0 0 0 1 0 0 0 0 0 0 0 0 0 1 0 0 0 0 0 0 0 0 0 1 0 0 0 0 0 0 0 0 0 1 0 0 0 0 0 0 0 0 0 1 0 0 0 0 0 0 0 0 0 1 0 0 0 0 0 0 0 0 0 1 0 0 0 0 0 0 0.1797 0.8203 0 0 0 0 0 0 0 0 0.0907 0.9093 0 0 0 0 0 0 0 0 0.0517 0.9337 0.0146 0 0 0 0 0 0 0 0.0352 0.8854 0.0794 0 0 0 0 0 0 0 0.0288 0.8016 0.1696 0 0 0 0 0 0 0 0.0218 0.6979 0.2803 0 0 0 0 0 0 0 0.0209 0.5979 0.3812 0 0 0 0 0 0 0 0.0154 0.5273 0.4519 0.0054 0 0 0 0 0 0 0.0148 0.4586 0.4936 0.033 0 0 0 0 0 0 0.0123 0.4148 0.4955 0.0774 0 0 0 0 0 0 0.0854 0.9146 0 0 0 0 0 0 0 0 0 0.9035 0.0965 0 0 0 0 0 0 0 0 0.5601 0.4399 0 0 0 0 0 0 0 0 0.2313 0.7635999999999999 0.0051 0 0 0 0 0 0 0 0.06519999999999999 0.8121 0.1227 0 0 0 0 0 0 0 0.0081 0.6302 0.3617 0 0 0 0 0 0 0 0 0.389 0.611 0 0 0 0 0 0 0 0 0.2108 0.7892 0 0 0 0 0 0 0 0 0.09229999999999999 0.9077 0 0 0 0 0 0 0 0 0.0286 0.9714 0 0 0 0 0 0 0.0498 0.9357 0.0145 0 0 0 0 0 0 0 0 0.5556 0.4444 0 0 0 0 0 0 0 0 0.0759 0.8851 0.039 0 0 0 0 0 0 0 0 0.5591 0.4409 0 0 0 0 0 0 0 0 0.1236 0.8764 0 0 0 0 0 0 0 0 0.0034 0.9966 0 0 0 0 0 0 0 0 0 1 0 0 0 0 0 0 0 0 0 1 0 0 0 0 0 0 0 0 0 1 0 0 0 0 0 0 0 0 0 1 0 0 0 0 0 0 0.0327 0.8846000000000001 0.0827 0 0 0 0 0 0 0 0 0.2312 0.7633 0.0055 0 0 0 0 0 0 0 0 0.5576 0.4424 0 0 0 0 0 0 0 0 0.0338 0.9661999999999999 0 0 0 0 0 0 0 0 0 1 0 0 0 0 0 0 0 0 0 1 0 0 0 0 0 0 0 0 0 1 0 0 0 0 0 0 0 0 0 1 0 0 0 0 0 0 0 0 0 1 0 0 0 0 0 0 0 0 0 1 0 0 0 0 0 0 0.0294 0.7953 0.1753 0 0 0 0 0 0 0 0 0.0649 0.8238 0.1113 0 0 0 0 0 0 0 0 0.1262 0.8738 0 0 0 0 0 0 0 0 0 1 0 0 0 0 0 0 0 0 0 1 0 0 0 0 0 0 0 0 0 1 0 0 0 0 0 0 0 0 0 1 0 0 0 0 0 0 0 0 0 1 0 0 0 0 0 0 0 0 0 1 0 0 0 0 0 0 0 0 0 1 0 0 0 0 0 0 0.0223 0.7049 0.2728 0 0 0 0 0 0 0 0 0.008 0.6303 0.3617 0 0 0 0 0 0 0 0 0.0037 0.9963 0 0 0 0 0 0 0 0 0 1 0 0 0 0 0 0 0 0 0 1 0 0 0 0 0 0 0 0 0 1 0 0 0 0 0 0 0 0 0 1 0 0 0 0 0 0 0 0 0 1 0 0 0 0 0 0 0 0 0 1 0 0 0 0 0 0 0 0 0 1 0 0 0 0 0 0 0.0185 0.5992 0.3823 0 0 0 0 0 0 0 0 0 0.3728 0.6272 0 0 0 0 0 0 0 0 0 1 0 0 0 0 0 0 0 0 0 1 0 0 0 0 0 0 0 0 0 1 0 0 0 0 0 0 0 0 0 1 0 0 0 0 0 0 0 0 0 1 0 0 0 0 0 0 0 0 0 1 0 0 0 0 0 0 0 0 0 1 0 0 0 0 0 0 0 0 0 1 0 0 0 0 0 0 0.0195 0.5075 0.467 0.006 0 0 0 0 0 0 0 0 0.2023 0.7977 0 0 0 0 0 0 0 0 0 1 0 0 0 0 0 0 0 0 0 1 0 0 0 0 0 0 0 0 0 1 0 0 0 0 0 0 0 0 0 1 0 0 0 0 0 0 0 0 0 1 0 0 0 0 0 0 0 0 0 1 0 0 0 0 0 0 0 0 0 1 0 0 0 0 0 0 0 0 0 1 0 0 0 0 0 0 0.0141 0.456 0.4958 0.0341 0 0 0 0 0 0 0 0 0.089 0.911 0 0 0 0 0 0 0 0 0 1 0 0 0 0 0 0 0 0 0 1 0 0 0 0 0 0 0 0 0 1 0 0 0 0 0 0 0 0 0 1 0 0 0 0 0 0 0 0 0 1 0 0 0 0 0 0 0 0 0 1 0 0 0 0 0 0 0 0 0 1 0 0 0 0 0 0 0 0 0 1 0 0 0 0 0 0 0.0141 0.4149 0.4872 0.0838 0 0 0 0 0 0 0 0 0.0315 0.9685 0 0 0 0 0 0 0 0 0 1 0 0 0 0 0 0 0 0 0 1 0 0 0 0 0 0 0 0 0 1 0 0 0 0 0 0 0 0 0 1 0 0 0 0 0 0 0 0 0 1 0 0 0 0 0 0 0 0 0 1 0 0 0 0 0 0 0 0 0 1 0 0 0 0 0 0 0 0 0 1</probabilities>
		</cpt>
		<cpt id="motoruse_for_whirlewind">
			<state id="State0" />
			<state id="State1" />
			<state id="State2" />
			<state id="State3" />
			<state id="State4" />
			<state id="State5" />
			<state id="State6" />
			<state id="State7" />
			<state id="State8" />
			<state id="State9" />
			<intervals>0 0.1 0.2 0.3 0.4 0.5 0.6 0.7 0.8 0.9 1</intervals>
			<probabilities>0.3626051957555799 0.1406878887669228 0.137211855104281 0.1115989754848152 0.08854738382729602 0.05817782656421515 0.04207830223197951 0.03165020124405415 0.01701427003293084 0.01042810098792536</probabilities>
		</cpt>
		<cpt id="yaw_moment">
			<state id="State0" />
			<state id="State1" />
			<state id="State2" />
			<state id="State3" />
			<state id="State4" />
			<state id="State5" />
			<state id="State6" />
			<state id="State7" />
			<state id="State8" />
			<state id="State9" />
			<intervals>0 0.1 0.2 0.3 0.4 0.5 0.6 0.7 0.8 0.9 1</intervals>
			<parents>motoruse_for_whirlewind</parents>
			<probabilities>0.6822588705647177 0.2399800099950025 0.06846576711644178 0.00849575212393803 0.0002998500749625187 9.995002498750625e-05 9.995002498750625e-05 9.995002498750625e-05 9.995002498750625e-05 9.995002498750625e-05 0.3200719712115154 0.369452219112355 0.2383046781287485 0.06437425029988005 0.00699720111955218 0.0003998400639744102 9.996001599360256e-05 9.996001599360256e-05 9.996001599360256e-05 9.996001599360256e-05 0.07227831650504848 0.2423273018094572 0.3690892732180346 0.2393282015395381 0.06947915625312406 0.006997900629811057 0.0001999400179946016 9.997000899730081e-05 9.997000899730081e-05 9.997000899730081e-05 0.00659868026394721 0.06458708258348331 0.245750849830034 0.3668266346730654 0.2393521295740852 0.0682863427314537 0.007998400319936013 0.0003999200159968006 9.998000399920016e-05 9.998000399920016e-05 0.0003999600039996001 0.0065993400659934 0.068993100689931 0.2411758824117588 0.3743625637436256 0.231976802319768 0.06859314068593141 0.0071992800719928 0.0005999400059994001 9.999000099990002e-05 9.999000099990002e-05 0.0006999300069993001 0.007799220077992201 0.0673932606739326 0.2458754124587541 0.3654634536546346 0.2386761323867613 0.06569343065693431 0.007799220077992201 0.0004999500049995 9.998000399920016e-05 9.998000399920016e-05 0.0004999000199960008 0.007398520295940812 0.06818636272745451 0.2393521295740852 0.3718256348730254 0.2399520095980804 0.06598680263947211 0.00659868026394721 9.997000899730081e-05 9.997000899730081e-05 9.997000899730081e-05 0.0002999100269919024 0.007197840647805659 0.07167849645106468 0.2343297010896731 0.3653903828851345 0.2455263420973708 0.07527741677496751 9.996001599360256e-05 9.996001599360256e-05 9.996001599360256e-05 9.996001599360256e-05 0.0006997201119552179 0.007197121151539384 0.06817273090763694 0.232407037185126 0.368452618952419 0.3226709316273491 9.995002498750625e-05 9.995002498750625e-05 9.995002498750625e-05 9.995002498750625e-05 9.995002498750625e-05 0.0001999000499750125 0.00849575212393803 0.06666666666666667 0.2411794102948526 0.6829585207396301</probabilities>
		</cpt>
		<cpt id="motor_wear">
			<state id="State0" />
			<state id="State1" />
			<state id="State2" />
			<state id="State3" />
			<state id="State4" />
			<state id="State5" />
			<state id="State6" />
			<state id="State7" />
			<state id="State8" />
			<state id="State9" />
			<intervals>0 0.1 0.2 0.3 0.4 0.5 0.6 0.7 0.8 0.9 1</intervals>
			<probabilities>0.6592089492608869 0.2846584099081103 0.04374750299640431 0.003196164602477028 0.002197363164202956 0.0013983220135837 0.001198561725928885 0.001598082301238514 0.0013983220135837 0.0013983220135837</probabilities>
		</cpt>
		<cpt id="turbulence">
			<state id="State0" />
			<state id="State1" />
			<state id="State2" />
			<state id="State3" />
			<state id="State4" />
			<state id="State5" />
			<state id="State6" />
			<state id="State7" />
			<state id="State8" />
			<state id="State9" />
			<intervals>0 0.1 0.2 0.3 0.4 0.5 0.6 0.7 0.8 0.9 1</intervals>
			<probabilities>0.2525150905432595 0.2424547283702213 0.1935613682092555 0.1309859154929577 0.0909456740442656 0.04869215291750503 0.02515090543259558 0.009859154929577466 0.004627766599597585 0.001207243460764587</probabilities>
		</cpt>
		<cpt id="mean_motoruse_sum1">
			<state id="State0" />
			<state id="State1" />
			<state id="State2" />
			<state id="State3" />
			<state id="State4" />
			<state id="State5" />
			<state id="State6" />
			<state id="State7" />
			<state id="State8" />
			<state id="State9" />
			<intervals>0 0.1 0.2 0.3 0.4 0.5 0.6 0.7 0.8 0.9 1</intervals>
			<parents>motoruse_for_tether motoruse_for_whirlewind</parents>
			<probabilities>0.8784999999999999 0.1215 0 0 0 0 0 0 0 0 0.1238 0.7563 0.1199 0 0 0 0 0 0 0 0 0.1264 0.7516 0.122 0 0 0 0 0 0 0 0 0.1313 0.7457 0.123 0 0 0 0 0 0 0 0 0.1239 0.7475000000000001 0.1286 0 0 0 0 0 0 0 0 0.1273 0.754 0.1187 0 0 0 0 0 0 0 0 0.1251 0.7496 0.1253 0 0 0 0 0 0 0 0 0.1259 0.7538 0.1203 0 0 0 0 0 0 0 0 0.1273 0.7455000000000001 0.1272 0 0 0 0 0 0 0 0 0.1288 0.8712 0.1199 0.7486 0.1315 0 0 0 0 0 0 0 0 0.125 0.7465000000000001 0.1285 0 0 0 0 0 0 0 0 0.1225 0.7528 0.1247 0 0 0 0 0 0 0 0 0.1269 0.7512 0.1219 0 0 0 0 0 0 0 0 0.1261 0.7489 0.125 0 0 0 0 0 0 0 0 0.1292 0.743 0.1278 0 0 0 0 0 0 0 0 0.1264 0.7504999999999999 0.1231 0 0 0 0 0 0 0 0 0.1248 0.7496 0.1256 0 0 0 0 0 0 0 0 0.1232 0.8768 0 0 0 0 0 0 0 0 0 1 0 0.1241 0.7521 0.1238 0 0 0 0 0 0 0 0 0.1289 0.7466 0.1245 0 0 0 0 0 0 0 0 0.1317 0.746 0.1223 0 0 0 0 0 0 0 0 0.1267 0.7486 0.1247 0 0 0 0 0 0 0 0 0.126 0.7454 0.1286 0 0 0 0 0 0 0 0 0.1283 0.753 0.1187 0 0 0 0 0 0 0 0 0.1279 0.7455000000000001 0.1266 0 0 0 0 0 0 0 0 0.1266 0.8734 0 0 0 0 0 0 0 0 0 1 0 0 0 0 0 0 0 0 0 1 0 0 0.1276 0.7469 0.1255 0 0 0 0 0 0 0 0 0.1247 0.7553 0.12 0 0 0 0 0 0 0 0 0.1285 0.7453 0.1262 0 0 0 0 0 0 0 0 0.129 0.7473 0.1237 0 0 0 0 0 0 0 0 0.1244 0.7516 0.124 0 0 0 0 0 0 0 0 0.1238 0.7523 0.1239 0 0 0 0 0 0 0 0 0.1224 0.8776 0 0 0 0 0 0 0 0 0 1 0 0 0 0 0 0 0 0 0 1 0 0 0 0 0 0 0 0 0 1 0 0 0 0.1189 0.7568 0.1243 0 0 0 0 0 0 0 0 0.1295 0.7471 0.1234 0 0 0 0 0 0 0 0 0.1274 0.7536 0.119 0 0 0 0 0 0 0 0 0.1269 0.7503 0.1228 0 0 0 0 0 0 0 0 0.1257 0.7502 0.1241 0 0 0 0 0 0 0 0 0.1241 0.8759 0 0 0 0 0 0 0 0 0 1 0 0 0 0 0 0 0 0 0 1 0 0 0 0 0 0 0 0 0 1 0 0 0 0 0 0 0 0 0 1 0 0 0 0 0.1252 0.7464 0.1284 0 0 0 0 0 0 0 0 0.13 0.747 0.123 0 0 0 0 0 0 0 0 0.1253 0.7489 0.1258 0 0 0 0 0 0 0 0 0.1243 0.7539 0.1218 0 0 0 0 0 0 0 0 0.1287 0.8713 0 0 0 0 0 0 0 0 0 1 0 0 0 0 0 0 0 0 0 1 0 0 0 0 0 0 0 0 0 1 0 0 0 0 0 0 0 0 0 1 0 0 0 0 0 0 0 0 0 1 0 0 0 0 0 0.1204 0.7596000000000001 0.12 0 0 0 0 0 0 0 0 0.1306 0.7432 0.1262 0 0 0 0 0 0 0 0 0.1314 0.7475000000000001 0.1211 0 0 0 0 0 0 0 0 0.1306 0.8694 0 0 0 0 0 0 0 0 0 1 0 0 0 0 0 0 0 0 0 1 0 0 0 0 0 0 0 0 0 1 0 0 0 0 0 0 0 0 0 1 0 0 0 0 0 0 0 0 0 1 0 0 0 0 0 0 0 0 0 1 0 0 0 0 0 0 0.1285 0.7453 0.1262 0 0 0 0 0 0 0 0 0.1283 0.7494 0.1223 0 0 0 0 0 0 0 0 0.127 0.873 0 0 0 0 0 0 0 0 0 1 0 0 0 0 0 0 0 0 0 1 0 0 0 0 0 0 0 0 0 1 0 0 0 0 0 0 0 0 0 1 0 0 0 0 0 0 0 0 0 1 0 0 0 0 0 0 0 0 0 1 0 0 0 0 0 0 0 0 0 1 0 0 0 0 0 0 0 0.1205 0.7522 0.1273 0 0 0 0 0 0 0 0 0.1268 0.8732 0 0 0 0 0 0 0 0 0 1 0 0 0 0 0 0 0 0 0 1 0 0 0 0 0 0 0 0 0 1 0 0 0 0 0 0 0 0 0 1 0 0 0 0 0 0 0 0 0 1 0 0 0 0 0 0 0 0 0 1 0 0 0 0 0 0 0 0 0 1 0 0 0 0 0 0 0 0 0 1 0 0 0 0 0 0 0 0 0.1274 0.8726 0 0 0 0 0 0 0 0 0 1 0 0 0 0 0 0 0 0 0 1 0 0 0 0 0 0 0 0 0 1 0 0 0 0 0 0 0 0 0 1 0 0 0 0 0 0 0 0 0 1 0 0 0 0 0 0 0 0 0 1 0 0 0 0 0 0 0 0 0 1 0 0 0 0 0 0 0 0 0 1 0 0 0 0 0 0 0 0 0 1</probabilities>
		</cpt>
		<cpt id="mean_motoruse_sum2">
			<state id="State0" />
			<state id="State1" />
			<state id="State2" />
			<state id="State3" />
			<state id="State4" />
			<state id="State5" />
			<state id="State6" />
			<state id="State7" />
			<state id="State8" />
			<state id="State9" />
			<intervals>0 0.1 0.2 0.3 0.4 0.5 0.6 0.7 0.8 0.9 1</intervals>
			<parents>motor_wear turbulence</parents>
			<probabilities>0.9733000000000001 0.0267 0 0 0 0 0 0 0 0 0.8012 0.1988 0 0 0 0 0 0 0 0 0.6141 0.3859 0 0 0 0 0 0 0 0 0.402 0.598 0 0 0 0 0 0 0 0 0.2009 0.7991 0 0 0 0 0 0 0 0 0.0253 0.9536 0.0211 0 0 0 0 0 0 0 0 0.8004 0.1996 0 0 0 0 0 0 0 0 0.5981 0.4019 0 0 0 0 0 0 0 0 0.3998 0.6002 0 0 0 0 0 0 0 0 0.2025 0.7975 0 0 0 0 0 0 0 0.0258 0.951 0.0232 0 0 0 0 0 0 0 0 0.8004 0.1996 0 0 0 0 0 0 0 0 0.6111 0.3889 0 0 0 0 0 0 0 0 0.4055 0.5945 0 0 0 0 0 0 0 0 0.2038 0.7962 0 0 0 0 0 0 0 0 0.0266 0.9488 0.0246 0 0 0 0 0 0 0 0 0.798 0.202 0 0 0 0 0 0 0 0 0.5972 0.4028 0 0 0 0 0 0 0 0 0.3982 0.6018 0 0 0 0 0 0 0 0 0.2065 0.7935 0 0 0 0 0 0 0 0.0224 0.9540999999999999 0.0235 0 0 0 0 0 0 0 0 0.7963 0.2037 0 0 0 0 0 0 0 0 0.5996 0.4004 0 0 0 0 0 0 0 0 0.4105 0.5895 0 0 0 0 0 0 0 0 0.2013 0.7987 0 0 0 0 0 0 0 0 0.025 0.95 0.025 0 0 0 0 0 0 0 0 0.8006 0.1994 0 0 0 0 0 0 0 0 0.5985 0.4015 0 0 0 0 0 0 0 0 0.4024 0.5976 0 0 0 0 0 0 0 0 0.2062 0.7938 0 0 0 0 0 0 0 0.0252 0.9477 0.0271 0 0 0 0 0 0 0 0 0.8046 0.1954 0 0 0 0 0 0 0 0 0.6105 0.3895 0 0 0 0 0 0 0 0 0.3975 0.6025 0 0 0 0 0 0 0 0 0.1933 0.8067 0 0 0 0 0 0 0 0 0.0267 0.946 0.0273 0 0 0 0 0 0 0 0 0.7989000000000001 0.2011 0 0 0 0 0 0 0 0 0.603 0.397 0 0 0 0 0 0 0 0 0.4037 0.5963000000000001 0 0 0 0 0 0 0 0 0.2026 0.7974 0 0 0 0 0 0 0 0.0265 0.9487 0.0248 0 0 0 0 0 0 0 0 0.8027 0.1973 0 0 0 0 0 0 0 0 0.595 0.405 0 0 0 0 0 0 0 0 0.3988 0.6012 0 0 0 0 0 0 0 0 0.1978 0.8022 0 0 0 0 0 0 0 0 0.0266 0.9482 0.0252 0 0 0 0 0 0 0 0 0.7996 0.2004 0 0 0 0 0 0 0 0 0.6002 0.3998 0 0 0 0 0 0 0 0 0.4012 0.5988 0 0 0 0 0 0 0 0 0.1975 0.8025 0 0 0 0 0 0 0 0.0257 0.9504 0.0239 0 0 0 0 0 0 0 0 0.802 0.198 0 0 0 0 0 0 0 0 0.6005 0.3995 0 0 0 0 0 0 0 0 0.3974 0.6026 0 0 0 0 0 0 0 0 0.193 0.8070000000000001 0 0 0 0 0 0 0 0 0.0264 0.9466 0.027 0 0 0 0 0 0 0 0 0.8008999999999999 0.1991 0 0 0 0 0 0 0 0 0.5993000000000001 0.4007 0 0 0 0 0 0 0 0 0.3996 0.6004 0 0 0 0 0 0 0 0 0.2026 0.7974 0 0 0 0 0 0 0 0.0239 0.9524 0.0237 0 0 0 0 0 0 0 0 0.7988 0.2012 0 0 0 0 0 0 0 0 0.5988 0.4012 0 0 0 0 0 0 0 0 0.3999 0.6001 0 0 0 0 0 0 0 0 0.1939 0.8061 0 0 0 0 0 0 0 0 0.0231 0.9526 0.0243 0 0 0 0 0 0 0 0 0.8038999999999999 0.1961 0 0 0 0 0 0 0 0 0.592 0.408 0 0 0 0 0 0 0 0 0.4095 0.5905 0 0 0 0 0 0 0 0 0.2005 0.7995 0 0 0 0 0 0 0 0.0251 0.9497 0.0252 0 0 0 0 0 0 0 0 0.7953 0.2047 0 0 0 0 0 0 0 0 0.6036 0.3964 0 0 0 0 0 0 0 0 0.397 0.603 0 0 0 0 0 0 0 0 0.1985 0.8015 0 0 0 0 0 0 0 0 0.0231 0.9514 0.0255 0 0 0 0 0 0 0 0 0.7978 0.2022 0 0 0 0 0 0 0 0 0.6042999999999999 0.3957 0 0 0 0 0 0 0 0 0.401 0.599 0 0 0 0 0 0 0 0 0.2038 0.7962 0 0 0 0 0 0 0 0.0255 0.9457 0.0288 0 0 0 0 0 0 0 0 0.8004 0.1996 0 0 0 0 0 0 0 0 0.5988 0.4012 0 0 0 0 0 0 0 0 0.4037 0.5963000000000001 0 0 0 0 0 0 0 0 0.1939 0.8061 0 0 0 0 0 0 0 0 0.0236 0.9764 0 0 0 0 0 0 0 0 0 1 0 0 0 0 0 0 0 0 0 1 0 0 0 0 0 0 0 0 0 1 0 0 0 0 0 0 0 0 0 1 0 0 0 0 0 0 0 0 0.0227 0.9772999999999999 0 0 0 0 0 0 0 0 0 1 0 0 0 0 0 0 0 0 0 1 0 0 0 0 0 0 0 0 0 1 0 0 0 0 0 0 0 0 0 1 0 0 0 0 0 0 0 0 0 1 0 0 0 0 0 0 0 0 0 1 0 0 0 0 0 0 0 0 0 1 0 0 0 0 0 0 0 0 0 1 0 0 0 0 0 0 0 0 0 1</probabilities>
		</cpt>
		<cpt id="mean_motor">
			<state id="State0" />
			<state id="State1" />
			<state id="State2" />
			<state id="State3" />
			<state id="State4" />
			<state id="State5" />
			<state id="State6" />
			<state id="State7" />
			<state id="State8" />
			<state id="State9" />
			<intervals>0 0.1 0.2 0.3 0.4 0.5 0.6 0.7 0.8 0.9 1</intervals>
			<parents>mean_motoruse_sum1 mean_motoruse_sum2</parents>
			<probabilities>0.6798600699650175 0.2358820589705147 0.07256371814092953 0.01099450274862569 0.0001999000499750125 9.995002498750625e-05 9.995002498750625e-05 9.995002498750625e-05 9.995002498750625e-05 9.995002498750625e-05 0.3272690923630548 0.3579568172730908 0.234406237504998 0.07047181127548981 0.008896441423430627 0.0005997600959616154 9.996001599360256e-05 9.996001599360256e-05 9.996001599360256e-05 9.996001599360256e-05 0.07947615715285414 0.2385284414675597 0.3639908027591722 0.2362291312606218 0.07067879636109167 0.01069679096271119 9.997000899730081e-05 9.997000899730081e-05 9.997000899730081e-05 9.997000899730081e-05 0.009499050094990502 0.07179282071792821 0.2340765923407659 0.362063793620638 0.236976302369763 0.0730926907309269 0.0117988201179882 0.0004999500049995 9.999000099990002e-05 9.999000099990002e-05 9.999000099990002e-05 0.0101989801019898 0.07689231076892311 0.2416758324167583 0.3562643735626437 0.2361763823617638 0.07019298070192981 0.008099190080991902 0.0002999700029997 9.999000099990002e-05 9.999000099990002e-05 0.0005999400059994001 0.0100989901009899 0.07279272072792721 0.2333766623337666 0.3531646835316468 0.2452754724527547 0.0734926507349265 0.0100989901009899 0.0009999000099990001 9.998000399920016e-05 9.998000399920016e-05 0.0004999000199960008 0.009798040391921616 0.07898420315936813 0.2403519296140772 0.3512297540491902 0.2388522295540892 0.06978604279144171 0.01029794041191762 9.997000899730081e-05 9.997000899730081e-05 9.997000899730081e-05 0.0001999400179946016 0.00879736079176247 0.0744776567029891 0.2436269119264221 0.3583924822553234 0.2327301809457163 0.08147555733280017 9.996001599360256e-05 9.996001599360256e-05 9.996001599360256e-05 9.996001599360256e-05 0.0006997201119552179 0.009196321471411436 0.07536985205917633 0.2350059976009596 0.3575569772091163 0.3217712914834067 9.995002498750625e-05 9.995002498750625e-05 9.995002498750625e-05 9.995002498750625e-05 9.995002498750625e-05 0.0006996501749125438 0.008895552223888057 0.07186406796601699 0.2409795102448776 0.6770614692653674 0.3140057982605218 0.3569929021293612 0.2426272118364491 0.0746775967209837 0.01049685094471658 0.0007997600719784065 9.997000899730081e-05 9.997000899730081e-05 9.997000899730081e-05 9.997000899730081e-05 0.08067579726082175 0.237628711386584 0.3541937418774368 0.2431270618814356 0.07267819654103769 0.01059682095371389 0.0007997600719784065 9.997000899730081e-05 9.997000899730081e-05 9.997000899730081e-05 0.01189762047590482 0.07178564287142572 0.24375124975005 0.362627474505099 0.2260547890421916 0.07458508298340331 0.008598280343931213 0.0004999000199960008 9.998000399920016e-05 9.998000399920016e-05 0.0003999600039996001 0.009399060093990601 0.07439256074392561 0.2463753624637536 0.353064693530647 0.2361763823617638 0.06919308069193081 0.0102989701029897 0.0005999400059994001 9.999000099990002e-05 9.999000099990002e-05 0.0005999400059994001 0.0105989401059894 0.07079292070792921 0.2376762323767623 0.3596640335966403 0.2394760523947605 0.071992800719928 0.0084991500849915 0.0005999400059994001 9.998000399920016e-05 9.998000399920016e-05 0.0005998800239952009 0.01039792041591682 0.07168566286742652 0.2429514097180564 0.3492301539692061 0.2455508898220356 0.06898620275944811 0.01039792041591682 9.997000899730081e-05 9.997000899730081e-05 9.997000899730081e-05 0.0008997300809757073 0.009297210836748976 0.0729781065680296 0.2434269719084275 0.3553933819854044 0.2375287413775867 0.08017594721583525 9.997000899730081e-05 9.997000899730081e-05 9.997000899730081e-05 9.997000899730081e-05 0.0002999100269919024 0.01009697090872738 0.07067879636109167 0.2393282015395381 0.3547935619314206 0.3244026791962411 9.995002498750625e-05 9.995002498750625e-05 9.995002498750625e-05 9.995002498750625e-05 9.995002498750625e-05 0.000399800099950025 0.00879560219890055 0.06916541729135432 0.2497751124437781 0.6713643178410794 9.994003597841295e-05 9.994003597841295e-05 9.994003597841295e-05 9.994003597841295e-05 9.994003597841295e-05 9.994003597841295e-05 0.0005996402158704777 0.008894663202078754 0.07055766540075954 0.9193483909654208 0.08217534739578126 0.2399280215935219 0.356593022093372 0.2358292512246326 0.07457762671198641 0.01019694091772468 0.0003998800359892032 9.997000899730081e-05 9.997000899730081e-05 9.997000899730081e-05 0.01139772045590882 0.0674865026994601 0.2446510697860428 0.3575284943011398 0.2403519296140772 0.07048590281943612 0.007698460307938412 0.0001999600079984003 9.998000399920016e-05 9.998000399920016e-05 0.0003999600039996001 0.009999000099990002 0.0694930506949305 0.2342765723427657 0.3551644835516448 0.2501749825017498 0.0710928907109289 0.008699130086991301 0.0005999400059994001 9.999000099990002e-05 9.999000099990002e-05 0.0006999300069993001 0.007999200079992001 0.06609339066093391 0.2440755924407559 0.3563643635636436 0.2414758524147585 0.0725927407259274 0.009899010098990101 0.0006999300069993001 9.998000399920016e-05 9.998000399920016e-05 0.0006998600279944011 0.01039792041591682 0.07858428314337132 0.2390521895620876 0.3487302539492101 0.2404519096180764 0.07238552289542091 0.009498100379924015 9.997000899730081e-05 9.997000899730081e-05 9.997000899730081e-05 0.0006997900629811056 0.01019694091772468 0.06837948615415375 0.2302309307207838 0.3561931420573828 0.2441267619714086 0.08987303808857343 9.996001599360256e-05 9.996001599360256e-05 9.996001599360256e-05 9.996001599360256e-05 0.0003998400639744102 0.009896041583366653 0.07976809276289484 0.2320071971211515 0.3506597361055578 0.3268692522990804 9.995002498750625e-05 9.995002498750625e-05 9.995002498750625e-05 9.995002498750625e-05 9.995002498750625e-05 0.0006996501749125438 0.009095452273863068 0.07176411794102948 0.2390804597701149 0.6788605697151424 9.994003597841295e-05 9.994003597841295e-05 9.994003597841295e-05 9.994003597841295e-05 9.994003597841295e-05 9.994003597841295e-05 0.0005996402158704777 0.009194483310013992 0.07365580651609034 0.9159504297421547 9.9930048965724e-05 9.9930048965724e-05 9.9930048965724e-05 9.9930048965724e-05 9.9930048965724e-05 9.9930048965724e-05 9.9930048965724e-05 0.00049965024482862 0.009293494553812332 0.989507344858599 0.008698260347930415 0.07418516296740651 0.229754049190162 0.3652269546090782 0.2409518096380724 0.07158568286342731 0.009098180363927214 0.0002999400119976005 9.998000399920016e-05 9.998000399920016e-05 0.0003999200159968006 0.009198160367926415 0.07248550289942012 0.2404519096180764 0.3568286342731454 0.2391521695660868 0.07168566286742652 0.009598080383923215 9.998000399920016e-05 9.998000399920016e-05 9.999000099990002e-05 0.0009999000099990001 0.0096990300969903 0.0684931506849315 0.2436756324367563 0.3563643635636436 0.2385761423857614 0.07089291070892911 0.0107989201079892 0.0003999600039996001 9.998000399920016e-05 9.998000399920016e-05 0.0002999400119976005 0.009698060387922416 0.06978604279144171 0.237752449510098 0.359628074385123 0.2386522695460908 0.07318536292741452 0.01079784043191362 9.997000899730081e-05 9.997000899730081e-05 9.997000899730081e-05 0.0002999100269919024 0.01079676097170849 0.07307807657702689 0.2357292812156353 0.350294911526542 0.241927421773468 0.0875737278816355 9.996001599360256e-05 9.996001599360256e-05 9.996001599360256e-05 9.996001599360256e-05 0.0007996801279488205 0.009996001599360257 0.07766893242702919 0.2388044782087165 0.353358656537385 0.3189724110355858 9.995002498750625e-05 9.995002498750625e-05 9.995002498750625e-05 9.995002498750625e-05 9.995002498750625e-05 0.0001999000499750125 0.008695652173913044 0.07496251874062969 0.2433783108445777 0.6722638680659671 9.994003597841295e-05 9.994003597841295e-05 9.994003597841295e-05 9.994003597841295e-05 9.994003597841295e-05 9.994003597841295e-05 0.0008994603238057165 0.008994603238057166 0.07835298820707576 0.9111533080151909 9.9930048965724e-05 9.9930048965724e-05 9.9930048965724e-05 9.9930048965724e-05 9.9930048965724e-05 9.9930048965724e-05 9.9930048965724e-05 0.0005995802937943439 0.008294194064155092 0.9904067152992905 9.992006394884092e-05 9.992006394884092e-05 9.992006394884092e-05 9.992006394884092e-05 9.992006394884092e-05 9.992006394884092e-05 9.992006394884092e-05 9.992006394884092e-05 0.001199040767386091 0.9980015987210232 0.0003999600039996001 0.0105989401059894 0.07319268073192681 0.2397760223977602 0.3535646435356464 0.2401759824017598 0.07169283071692831 0.009999000099990002 0.0004999500049995 9.999000099990002e-05 9.999000099990002e-05 0.0009999000099990001 0.0102989701029897 0.072992700729927 0.2443755624437556 0.3541645835416458 0.2328767123287671 0.07269273072692731 0.0111988801119888 0.0002999700029997 9.999000099990002e-05 9.999000099990002e-05 0.0007999200079992001 0.0103989601039896 0.07019298070192981 0.2432756724327567 0.3577642235776423 0.2346765323467653 0.07279272072792721 0.009899010098990101 9.998000399920016e-05 9.998000399920016e-05 9.998000399920016e-05 0.0005998800239952009 0.008898220355928814 0.06708658268346331 0.2388522295540892 0.353129374125175 0.2453509298140372 0.08578284343131373 9.996001599360256e-05 9.996001599360256e-05 9.996001599360256e-05 9.996001599360256e-05 0.0007996801279488205 0.008996401439424231 0.06817273090763694 0.243702518992403 0.3526589364254298 0.3252698920431827 9.995002498750625e-05 9.995002498750625e-05 9.995002498750625e-05 9.995002498750625e-05 9.995002498750625e-05 0.0006996501749125438 0.007296351824087956 0.07306346826586707 0.2362818590704648 0.6821589205397302 9.995002498750625e-05 9.995002498750625e-05 9.995002498750625e-05 9.995002498750625e-05 9.995002498750625e-05 9.995002498750625e-05 0.00079960019990005 0.01079460269865067 0.07226386806596702 0.9155422288855573 9.9930048965724e-05 9.9930048965724e-05 9.9930048965724e-05 9.9930048965724e-05 9.9930048965724e-05 9.9930048965724e-05 9.9930048965724e-05 0.000299790146897172 0.009493354651743779 0.989507344858599 9.992006394884092e-05 9.992006394884092e-05 9.992006394884092e-05 9.992006394884092e-05 9.992006394884092e-05 9.992006394884092e-05 9.992006394884092e-05 9.992006394884092e-05 0.0004996003197442046 0.998701039168665 9.991008092716555e-05 9.991008092716555e-05 9.991008092716555e-05 9.991008092716555e-05 9.991008092716555e-05 9.991008092716555e-05 9.991008092716555e-05 9.991008092716555e-05 9.991008092716555e-05 0.9991008092716556 9.999000099990002e-05 0.0008999100089991 0.0103989601039896 0.0714928507149285 0.2424757524247575 0.3566643335666433 0.2330766923307669 0.0744925507449255 0.009999000099990002 0.0003999600039996001 9.998000399920016e-05 9.998000399920016e-05 0.0003999200159968006 0.009498100379924015 0.07368526294741051 0.2423515296940612 0.3450309938012397 0.2451509698060388 0.07528494301139772 0.008398320335932814 9.997000899730081e-05 9.997000899730081e-05 9.997000899730081e-05 0.0003998800359892032 0.00979706088173548 0.0740777766669999 0.2407277816655004 0.3552934119764071 0.2375287413775867 0.08187543736878937 9.996001599360256e-05 9.996001599360256e-05 9.996001599360256e-05 9.996001599360256e-05 0.0004998000799680128 0.009696121551379448 0.07177129148340664 0.2446021591363454 0.3558576569372251 0.3171731307477009 9.995002498750625e-05 9.995002498750625e-05 9.995002498750625e-05 9.995002498750625e-05 9.995002498750625e-05 0.000399800099950025 0.01009495252373813 0.07166416791604198 0.2293853073463268 0.6879560219890055 9.994003597841295e-05 9.994003597841295e-05 9.994003597841295e-05 9.994003597841295e-05 9.994003597841295e-05 9.994003597841295e-05 0.0006995802518488907 0.00979412352588447 0.07355586648011193 0.9153507895262842 9.994003597841295e-05 9.994003597841295e-05 9.994003597841295e-05 9.994003597841295e-05 9.994003597841295e-05 9.994003597841295e-05 9.994003597841295e-05 0.0006995802518488907 0.009594243453927643 0.9890065960423746 9.992006394884092e-05 9.992006394884092e-05 9.992006394884092e-05 9.992006394884092e-05 9.992006394884092e-05 9.992006394884092e-05 9.992006394884092e-05 9.992006394884092e-05 0.0007993605115907274 0.9984012789768185 9.991008092716555e-05 9.991008092716555e-05 9.991008092716555e-05 9.991008092716555e-05 9.991008092716555e-05 9.991008092716555e-05 9.991008092716555e-05 9.991008092716555e-05 9.991008092716555e-05 0.9991008092716556 9.991008092716555e-05 9.991008092716555e-05 9.991008092716555e-05 9.991008092716555e-05 9.991008092716555e-05 9.991008092716555e-05 9.991008092716555e-05 9.991008092716555e-05 9.991008092716555e-05 0.9991008092716556 9.998000399920016e-05 9.998000399920016e-05 0.0005998800239952009 0.008998200359928014 0.07248550289942012 0.2365526894621076 0.3649270145970806 0.2370525894821036 0.07048590281943612 0.008698260347930415 9.997000899730081e-05 9.997000899730081e-05 9.997000899730081e-05 0.0003998800359892032 0.0117964610616815 0.0739778066580026 0.2427271818454464 0.353593921823453 0.2387283814855543 0.07847645706288113 9.996001599360256e-05 9.996001599360256e-05 9.996001599360256e-05 9.996001599360256e-05 0.0004998000799680128 0.01049580167932827 0.07257097161135546 0.2464014394242303 0.359156337465014 0.3104758096761295 9.996001599360256e-05 9.996001599360256e-05 9.996001599360256e-05 9.996001599360256e-05 9.996001599360256e-05 0.0006997201119552179 0.00939624150339864 0.07516993202718912 0.2348060775689724 0.6794282287085166 9.994003597841295e-05 9.994003597841295e-05 9.994003597841295e-05 9.994003597841295e-05 9.994003597841295e-05 9.994003597841295e-05 0.0001998800719568259 0.009894063561862882 0.0717569458325005 0.9175494703178093 9.9930048965724e-05 9.9930048965724e-05 9.9930048965724e-05 9.9930048965724e-05 9.9930048965724e-05 9.9930048965724e-05 9.9930048965724e-05 0.000399720195862896 0.008693914260017987 0.9902068552013591 9.992006394884092e-05 9.992006394884092e-05 9.992006394884092e-05 9.992006394884092e-05 9.992006394884092e-05 9.992006394884092e-05 9.992006394884092e-05 9.992006394884092e-05 0.0003996802557953637 0.9988009592326139 9.991008092716555e-05 9.991008092716555e-05 9.991008092716555e-05 9.991008092716555e-05 9.991008092716555e-05 9.991008092716555e-05 9.991008092716555e-05 9.991008092716555e-05 9.991008092716555e-05 0.9991008092716556 9.991008092716555e-05 9.991008092716555e-05 9.991008092716555e-05 9.991008092716555e-05 9.991008092716555e-05 9.991008092716555e-05 9.991008092716555e-05 9.991008092716555e-05 9.991008092716555e-05 0.9991008092716556 9.991008092716555e-05 9.991008092716555e-05 9.991008092716555e-05 9.991008092716555e-05 9.991008092716555e-05 9.991008092716555e-05 9.991008092716555e-05 9.991008092716555e-05 9.991008092716555e-05 0.9991008092716556 9.997000899730081e-05 9.997000899730081e-05 9.997000899730081e-05 0.0005998200539838049 0.009297210836748976 0.07517744676597021 0.2362291312606218 0.3495951214635609 0.2447265820253924 0.08407477756672999 9.996001599360256e-05 9.996001599360256e-05 9.996001599360256e-05 9.996001599360256e-05 0.0003998400639744102 0.01019592163134746 0.07137145141943223 0.2407037185125949 0.3532586965213915 0.3236705317872851 9.995002498750625e-05 9.995002498750625e-05 9.995002498750625e-05 9.995002498750625e-05 9.995002498750625e-05 0.0002998500749625187 0.00879560219890055 0.0734632683658171 0.2355822088955522 0.68135932033983 9.994003597841295e-05 9.994003597841295e-05 9.994003597841295e-05 9.994003597841295e-05 9.994003597841295e-05 9.994003597841295e-05 0.0002998201079352388 0.008494903058165101 0.074055566660004 0.9165500699580252 9.9930048965724e-05 9.9930048965724e-05 9.9930048965724e-05 9.9930048965724e-05 9.9930048965724e-05 9.9930048965724e-05 9.9930048965724e-05 0.00049965024482862 0.009493354651743779 0.9893074847606675 9.992006394884092e-05 9.992006394884092e-05 9.992006394884092e-05 9.992006394884092e-05 9.992006394884092e-05 9.992006394884092e-05 9.992006394884092e-05 9.992006394884092e-05 0.00109912070343725 0.998101518784972 9.991008092716555e-05 9.991008092716555e-05 9.991008092716555e-05 9.991008092716555e-05 9.991008092716555e-05 9.991008092716555e-05 9.991008092716555e-05 9.991008092716555e-05 9.991008092716555e-05 0.9991008092716556 9.991008092716555e-05 9.991008092716555e-05 9.991008092716555e-05 9.991008092716555e-05 9.991008092716555e-05 9.991008092716555e-05 9.991008092716555e-05 9.991008092716555e-05 9.991008092716555e-05 0.9991008092716556 9.991008092716555e-05 9.991008092716555e-05 9.991008092716555e-05 9.991008092716555e-05 9.991008092716555e-05 9.991008092716555e-05 9.991008092716555e-05 9.991008092716555e-05 9.991008092716555e-05 0.9991008092716556 9.991008092716555e-05 9.991008092716555e-05 9.991008092716555e-05 9.991008092716555e-05 9.991008092716555e-05 9.991008092716555e-05 9.991008092716555e-05 9.991008092716555e-05 9.991008092716555e-05 0.9991008092716556 9.997000899730081e-05 9.997000899730081e-05 9.997000899730081e-05 9.997000899730081e-05 0.000499850044986504 0.01079676097170849 0.07207837648705388 0.2412276317104869 0.3527941617514745 0.3222033389983005 9.996001599360256e-05 9.996001599360256e-05 9.996001599360256e-05 9.996001599360256e-05 9.996001599360256e-05 0.0007996801279488205 0.01029588164734106 0.0739704118352659 0.2469012395041983 0.6675329868052778 9.994003597841295e-05 9.994003597841295e-05 9.994003597841295e-05 9.994003597841295e-05 9.994003597841295e-05 9.994003597841295e-05 0.0006995802518488907 0.00949430341794923 0.07365580651609034 0.9155506695982411 9.9930048965724e-05 9.9930048965724e-05 9.9930048965724e-05 9.9930048965724e-05 9.9930048965724e-05 9.9930048965724e-05 9.9930048965724e-05 0.00049965024482862 0.008593984211052263 0.9902068552013591 9.992006394884092e-05 9.992006394884092e-05 9.992006394884092e-05 9.992006394884092e-05 9.992006394884092e-05 9.992006394884092e-05 9.992006394884092e-05 9.992006394884092e-05 0.0004996003197442046 0.998701039168665 9.991008092716555e-05 9.991008092716555e-05 9.991008092716555e-05 9.991008092716555e-05 9.991008092716555e-05 9.991008092716555e-05 9.991008092716555e-05 9.991008092716555e-05 9.991008092716555e-05 0.9991008092716556 9.991008092716555e-05 9.991008092716555e-05 9.991008092716555e-05 9.991008092716555e-05 9.991008092716555e-05 9.991008092716555e-05 9.991008092716555e-05 9.991008092716555e-05 9.991008092716555e-05 0.9991008092716556 9.991008092716555e-05 9.991008092716555e-05 9.991008092716555e-05 9.991008092716555e-05 9.991008092716555e-05 9.991008092716555e-05 9.991008092716555e-05 9.991008092716555e-05 9.991008092716555e-05 0.9991008092716556 9.991008092716555e-05 9.991008092716555e-05 9.991008092716555e-05 9.991008092716555e-05 9.991008092716555e-05 9.991008092716555e-05 9.991008092716555e-05 9.991008092716555e-05 9.991008092716555e-05 0.9991008092716556 9.991008092716555e-05 9.991008092716555e-05 9.991008092716555e-05 9.991008092716555e-05 9.991008092716555e-05 9.991008092716555e-05 9.991008092716555e-05 9.991008092716555e-05 9.991008092716555e-05 0.9991008092716556 9.995002498750625e-05 9.995002498750625e-05 9.995002498750625e-05 9.995002498750625e-05 9.995002498750625e-05 0.0008995502248875562 0.008895552223888057 0.07016491754122939 0.2294852573713143 0.6900549725137431 9.994003597841295e-05 9.994003597841295e-05 9.994003597841295e-05 9.994003597841295e-05 9.994003597841295e-05 9.994003597841295e-05 0.0003997601439136518 0.01049370377773336 0.06915850489706177 0.9193483909654208 9.9930048965724e-05 9.9930048965724e-05 9.9930048965724e-05 9.9930048965724e-05 9.9930048965724e-05 9.9930048965724e-05 9.9930048965724e-05 0.0005995802937943439 0.008993704406915159 0.9897072049565304 9.992006394884092e-05 9.992006394884092e-05 9.992006394884092e-05 9.992006394884092e-05 9.992006394884092e-05 9.992006394884092e-05 9.992006394884092e-05 9.992006394884092e-05 0.0005995203836930455 0.9986011191047163 9.991008092716555e-05 9.991008092716555e-05 9.991008092716555e-05 9.991008092716555e-05 9.991008092716555e-05 9.991008092716555e-05 9.991008092716555e-05 9.991008092716555e-05 9.991008092716555e-05 0.9991008092716556 9.991008092716555e-05 9.991008092716555e-05 9.991008092716555e-05 9.991008092716555e-05 9.991008092716555e-05 9.991008092716555e-05 9.991008092716555e-05 9.991008092716555e-05 9.991008092716555e-05 0.9991008092716556 9.991008092716555e-05 9.991008092716555e-05 9.991008092716555e-05 9.991008092716555e-05 9.991008092716555e-05 9.991008092716555e-05 9.991008092716555e-05 9.991008092716555e-05 9.991008092716555e-05 0.9991008092716556 9.991008092716555e-05 9.991008092716555e-05 9.991008092716555e-05 9.991008092716555e-05 9.991008092716555e-05 9.991008092716555e-05 9.991008092716555e-05 9.991008092716555e-05 9.991008092716555e-05 0.9991008092716556 9.991008092716555e-05 9.991008092716555e-05 9.991008092716555e-05 9.991008092716555e-05 9.991008092716555e-05 9.991008092716555e-05 9.991008092716555e-05 9.991008092716555e-05 9.991008092716555e-05 0.9991008092716556 9.991008092716555e-05 9.991008092716555e-05 9.991008092716555e-05 9.991008092716555e-05 9.991008092716555e-05 9.991008092716555e-05 9.991008092716555e-05 9.991008092716555e-05 9.991008092716555e-05 0.9991008092716556</probabilities>
		</cpt>
		<cpt id="frequency_of_loss_of_control_due_to_motor_wear">
			<state id="State0" />
			<state id="State1" />
			<state id="State2" />
			<state id="State3" />
			<state id="State4" />
			<state id="State5" />
			<state id="State6" />
			<state id="State7" />
			<state id="State8" />
			<state id="State9" />
			<intervals>0 0.005908012045062 0.01527158011626 0.03011183540944 0.053632054998 0.09090909090909 0.1499892113597 0.2436248920717 0.3920274450035 0.6272296408891 1</intervals>
			<parents>motor_wear</parents>
			<probabilities>1 0 0 0 0 0 0 0 0 0 1 0 0 0 0 0 0 0 0 0 1 0 0 0 0 0 0 0 0 0 0.588 0.412 0 0 0 0 0 0 0 0 0 0.3362 0.6287 0.0351 0 0 0 0 0 0 0 0 0 0.5715 0.4285 0 0 0 0 0 0 0 0 0 0.1967 0.6442 0.1591 0 0 0 0 0 0 0 0 0 0.5379 0.4621 0 0 0 0 0 0 0 0 0 0.2843 0.7157 0 0 0 0 0 0 0 0 0 0.1107 0.8893</probabilities>
		</cpt>
		<cpt id="max_upwards_acceleration">
			<state id="State0" />
			<state id="State1" />
			<state id="State2" />
			<state id="State3" />
			<state id="State4" />
			<intervals>0.05 0.08 0.11 0.14 0.17 0.2</intervals>
			<probabilities>0.2065073041168659 0.199203187250996 0.2118193891102258 0.1752988047808765 0.2071713147410359</probabilities>
		</cpt>
		<cpt id="safety_margin">
			<state id="State0" />
			<state id="State1" />
			<state id="State2" />
			<state id="State3" />
			<state id="State4" />
			<state id="State5" />
			<state id="State6" />
			<state id="State7" />
			<state id="State8" />
			<state id="State9" />
			<intervals>0.1 0.21 0.32 0.43 0.54 0.65 0.76 0.87 0.98 1.09 1.2</intervals>
			<probabilities>0.1052574171029668 0.100021815008726 0.09980366492146597 0.09936736474694589 0.09958551483420594 0.09554973821989529 0.1016579406631763 0.1022033158813263 0.09904013961605584 0.0975130890052356</probabilities>
		</cpt>
		<cpt id="mean_motor_use">
			<state id="State0" />
			<state id="State1" />
			<state id="State2" />
			<state id="State3" />
			<state id="State4" />
			<state id="State5" />
			<state id="State6" />
			<state id="State7" />
			<state id="State8" />
			<state id="State9" />
			<intervals>0 0.1 0.2 0.3 0.4 0.5 0.6 0.7 0.8 0.9 1</intervals>
			<parents>mean_motoruse_sum1 mean_motoruse_sum2 max_upwards_acceleration</parents>
			<probabilities>0.8611 0.1389 0 0 0 0 0 0 0 0 0.6543 0.3457 0 0 0 0 0 0 0 0 0.3831 0.6058 0.0111 0 0 0 0 0 0 0 0.1671 0.7341 0.0988 0 0 0 0 0 0 0 0.0427 0.6860000000000001 0.2713 0 0 0 0 0 0 0 0.115 0.74 0.145 0 0 0 0 0 0 0 0.0185 0.6369 0.3446 0 0 0 0 0 0 0 0 0.3717 0.6185 0.0098 0 0 0 0 0 0 0 0.1667 0.735 0.0983 0 0 0 0 0 0 0 0.0405 0.6952 0.2643 0 0 0 0 0 0 0 0.1164 0.739 0.1446 0 0 0 0 0 0 0 0.0177 0.6389 0.3434 0 0 0 0 0 0 0 0 0.3741 0.6135 0.0124 0 0 0 0 0 0 0 0.1673 0.7354000000000001 0.0973 0 0 0 0 0 0 0 0.0388 0.6921 0.2691 0 0 0 0 0 0 0 0.1138 0.7456 0.1406 0 0 0 0 0 0 0 0.0205 0.6269 0.3526 0 0 0 0 0 0 0 0 0.3836 0.6051 0.0113 0 0 0 0 0 0 0 0.1677 0.7378 0.0945 0 0 0 0 0 0 0 0.041 0.6896 0.2694 0 0 0 0 0 0 0 0.1145 0.7406 0.1449 0 0 0 0 0 0 0 0.0183 0.6302 0.3515 0 0 0 0 0 0 0 0 0.3849 0.6024 0.0127 0 0 0 0 0 0 0 0.1596 0.7406 0.0998 0 0 0 0 0 0 0 0.0387 0.6929999999999999 0.2683 0 0 0 0 0 0 0 0.1182 0.7445000000000001 0.1373 0 0 0 0 0 0 0 0.0181 0.6353 0.3466 0 0 0 0 0 0 0 0.0001 0.3888 0.5994 0.0117 0 0 0 0 0 0 0 0.1721 0.7304 0.0975 0 0 0 0 0 0 0 0.0391 0.6871 0.2738 0 0 0 0 0 0 0 0.1171 0.7437 0.1392 0 0 0 0 0 0 0 0.0187 0.6328 0.3485 0 0 0 0 0 0 0 0 0.38 0.6096 0.0104 0 0 0 0 0 0 0 0.1678 0.7413999999999999 0.09080000000000001 0 0 0 0 0 0 0 0.0392 0.6912 0.2696 0 0 0 0 0 0 0 0.1152 0.7389 0.1459 0 0 0 0 0 0 0 0.0179 0.6318 0.3503 0 0 0 0 0 0 0 0 0.3795 0.6099 0.0106 0 0 0 0 0 0 0 0.1658 0.7369 0.0973 0 0 0 0 0 0 0 0.0387 0.6932 0.2681 0 0 0 0 0 0 0 0.1157 0.7479 0.1364 0 0 0 0 0 0 0 0.0183 0.6342 0.3475 0 0 0 0 0 0 0 0 0.3886 0.6114000000000001 0 0 0 0 0 0 0 0 0.1709 0.8290999999999999 0 0 0 0 0 0 0 0 0.0392 0.9608 0 0 0 0 0 0 0 0 0.1098 0.8902 0 0 0 0 0 0 0 0 0.0172 0.9828 0 0 0 0 0 0 0 0 0 1 0 0 0 0 0 0 0 0 0 1 0 0 0 0 0 0 0 0 0 1 0.1113 0.7455000000000001 0.1432 0 0 0 0 0 0 0 0.0191 0.637 0.3439 0 0 0 0 0 0 0 0 0.3913 0.5977 0.011 0 0 0 0 0 0 0 0.1648 0.7448 0.09039999999999999 0 0 0 0 0 0 0 0.0385 0.6898 0.2717 0 0 0 0 0 0 0 0.1157 0.7359 0.1484 0 0 0 0 0 0 0 0.0184 0.6316000000000001 0.35 0 0 0 0 0 0 0 0.0001 0.3833 0.606 0.0106 0 0 0 0 0 0 0 0.1681 0.7319 0.1 0 0 0 0 0 0 0 0.0399 0.6911 0.269 0 0 0 0 0 0 0 0.1202 0.7343 0.1455 0 0 0 0 0 0 0 0.0189 0.6349 0.3462 0 0 0 0 0 0 0 0 0.3894 0.6012 0.0094 0 0 0 0 0 0 0 0.1637 0.7374000000000001 0.0989 0 0 0 0 0 0 0 0.0417 0.6915 0.2668 0 0 0 0 0 0 0 0.1183 0.7354000000000001 0.1463 0 0 0 0 0 0 0 0.0199 0.637 0.3431 0 0 0 0 0 0 0 0 0.3808 0.6072 0.012 0 0 0 0 0 0 0 0.163 0.7423999999999999 0.0946 0 0 0 0 0 0 0 0.0414 0.6938 0.2648 0 0 0 0 0 0 0 0.1213 0.7302999999999999 0.1484 0 0 0 0 0 0 0 0.0169 0.6326000000000001 0.3505 0 0 0 0 0 0 0 0 0.3878 0.6007 0.0115 0 0 0 0 0 0 0 0.1684 0.7327 0.0989 0 0 0 0 0 0 0 0.0405 0.6961000000000001 0.2634 0 0 0 0 0 0 0 0.1109 0.7477 0.1414 0 0 0 0 0 0 0 0.019 0.6334 0.3476 0 0 0 0 0 0 0 0 0.3915 0.5961 0.0124 0 0 0 0 0 0 0 0.1691 0.7296 0.1013 0 0 0 0 0 0 0 0.0423 0.695 0.2627 0 0 0 0 0 0 0 0.113 0.7375 0.1495 0 0 0 0 0 0 0 0.0202 0.6354 0.3444 0 0 0 0 0 0 0 0 0.3854 0.6015 0.0131 0 0 0 0 0 0 0 0.1661 0.7353 0.09859999999999999 0 0 0 0 0 0 0 0.0368 0.6943 0.2689 0 0 0 0 0 0 0 0.1142 0.7364000000000001 0.1494 0 0 0 0 0 0 0 0.0189 0.6282 0.3529 0 0 0 0 0 0 0 0 0.3728 0.6272 0 0 0 0 0 0 0 0 0.1601 0.8399 0 0 0 0 0 0 0 0 0.0394 0.9606 0 0 0 0 0 0 0 0 0.1144 0.8856000000000001 0 0 0 0 0 0 0 0 0.0195 0.9805 0 0 0 0 0 0 0 0 0 1 0 0 0 0 0 0 0 0 0 1 0 0 0 0 0 0 0 0 0 1 0 0 0 0 0 0 0 0 0 1 0 0 0 0 0 0 0 0 0 1 0 0 0 0 0 0 0 0 0 1 0 0 0 0 0 0 0 0 0 1 0 0 0 0 0 0 0 0 0 1 0 0.1174 0.7393999999999999 0.1432 0 0 0 0 0 0 0 0.0203 0.6308 0.3489 0 0 0 0 0 0 0 0 0.3756 0.6121 0.0123 0 0 0 0 0 0 0 0.1708 0.7313 0.0979 0 0 0 0 0 0 0 0.041 0.6821 0.2769 0 0 0 0 0 0 0 0.1188 0.7362 0.145 0 0 0 0 0 0 0 0.0193 0.6282 0.3525 0 0 0 0 0 0 0 0 0.383 0.6056 0.0114 0 0 0 0 0 0 0 0.1707 0.732 0.0973 0 0 0 0 0 0 0 0.0378 0.6882 0.274 0 0 0 0 0 0 0 0.1173 0.7426 0.1401 0 0 0 0 0 0 0 0.0164 0.6288 0.3548 0 0 0 0 0 0 0 0 0.3884 0.5998 0.0118 0 0 0 0 0 0 0 0.1596 0.7402 0.1002 0 0 0 0 0 0 0 0.0377 0.6879999999999999 0.2743 0 0 0 0 0 0 0 0.117 0.7377 0.1453 0 0 0 0 0 0 0 0.0167 0.6331 0.3502 0 0 0 0 0 0 0 0 0.3812 0.6082 0.0106 0 0 0 0 0 0 0 0.1689 0.7348 0.0963 0 0 0 0 0 0 0 0.0387 0.6820000000000001 0.2793 0 0 0 0 0 0 0 0.1084 0.7428 0.1488 0 0 0 0 0 0 0 0.0179 0.6313 0.3508 0 0 0 0 0 0 0 0 0.3798 0.6099 0.0103 0 0 0 0 0 0 0 0.1608 0.7413 0.0979 0 0 0 0 0 0 0 0.0418 0.6919 0.2663 0 0 0 0 0 0 0 0.1115 0.7479 0.1406 0 0 0 0 0 0 0 0.0179 0.6354 0.3467 0 0 0 0 0 0 0 0.0001 0.3781 0.6102 0.0116 0 0 0 0 0 0 0 0.1683 0.7325 0.0992 0 0 0 0 0 0 0 0.0423 0.6860000000000001 0.2717 0 0 0 0 0 0 0 0.1166 0.7458 0.1376 0 0 0 0 0 0 0 0.0181 0.6324 0.3495 0 0 0 0 0 0 0 0 0.3886 0.6114000000000001 0 0 0 0 0 0 0 0 0.169 0.831 0 0 0 0 0 0 0 0 0.0408 0.9592000000000001 0 0 0 0 0 0 0 0 0.1099 0.8901 0 0 0 0 0 0 0 0 0.0187 0.9813 0 0 0 0 0 0 0 0 0 1 0 0 0 0 0 0 0 0 0 1 0 0 0 0 0 0 0 0 0 1 0 0 0 0 0 0 0 0 0 1 0 0 0 0 0 0 0 0 0 1 0 0 0 0 0 0 0 0 0 1 0 0 0 0 0 0 0 0 0 1 0 0 0 0 0 0 0 0 0 1 0 0 0 0 0 0 0 0 0 1 0 0 0 0 0 0 0 0 0 1 0 0 0 0 0 0 0 0 0 1 0 0 0 0 0 0 0 0 0 1 0 0 0 0 0 0 0 0 0 1 0 0 0.1145 0.741 0.1445 0 0 0 0 0 0 0 0.0187 0.6306 0.3507 0 0 0 0 0 0 0 0 0.3816 0.6052999999999999 0.0131 0 0 0 0 0 0 0 0.1728 0.7342 0.093 0 0 0 0 0 0 0 0.038 0.6953 0.2667 0 0 0 0 0 0 0 0.1134 0.7413999999999999 0.1452 0 0 0 0 0 0 0 0.0164 0.6298 0.3538 0 0 0 0 0 0 0 0 0.3846 0.6042 0.0112 0 0 0 0 0 0 0 0.175 0.7315 0.0935 0 0 0 0 0 0 0 0.0403 0.6902 0.2695 0 0 0 0 0 0 0 0.1158 0.7423 0.1419 0 0 0 0 0 0 0 0.0199 0.6343 0.3458 0 0 0 0 0 0 0 0 0.3757 0.6114000000000001 0.0129 0 0 0 0 0 0 0 0.1657 0.7359 0.0984 0 0 0 0 0 0 0 0.0439 0.6916 0.2645 0 0 0 0 0 0 0 0.1166 0.7435 0.1399 0 0 0 0 0 0 0 0.0172 0.6313 0.3515 0 0 0 0 0 0 0 0 0.3921 0.5956 0.0123 0 0 0 0 0 0 0 0.1674 0.7368 0.0958 0 0 0 0 0 0 0 0.0389 0.6903 0.2708 0 0 0 0 0 0 0 0.1084 0.7463 0.1453 0 0 0 0 0 0 0 0.019 0.6384 0.3426 0 0 0 0 0 0 0 0 0.3745 0.6124000000000001 0.0131 0 0 0 0 0 0 0 0.1652 0.7413999999999999 0.0934 0 0 0 0 0 0 0 0.0384 0.6889999999999999 0.2726 0 0 0 0 0 0 0 0.1152 0.7437 0.1411 0 0 0 0 0 0 0 0.0207 0.6229 0.3564 0 0 0 0 0 0 0 0 0.3848 0.6152 0 0 0 0 0 0 0 0 0.1635 0.8365 0 0 0 0 0 0 0 0 0.039 0.961 0 0 0 0 0 0 0 0 0.1148 0.8852 0 0 0 0 0 0 0 0 0.0176 0.9824000000000001 0 0 0 0 0 0 0 0 0 1 0 0 0 0 0 0 0 0 0 1 0 0 0 0 0 0 0 0 0 1 0 0 0 0 0 0 0 0 0 1 0 0 0 0 0 0 0 0 0 1 0 0 0 0 0 0 0 0 0 1 0 0 0 0 0 0 0 0 0 1 0 0 0 0 0 0 0 0 0 1 0 0 0 0 0 0 0 0 0 1 0 0 0 0 0 0 0 0 0 1 0 0 0 0 0 0 0 0 0 1 0 0 0 0 0 0 0 0 0 1 0 0 0 0 0 0 0 0 0 1 0 0 0 0 0 0 0 0 0 1 0 0 0 0 0 0 0 0 0 1 0 0 0 0 0 0 0 0 0 1 0 0 0 0 0 0 0 0 0 1 0 0 0 0 0 0 0 0 0 1 0 0 0 0.1133 0.7475000000000001 0.1392 0 0 0 0 0 0 0 0.0203 0.6348 0.3449 0 0 0 0 0 0 0 0 0.381 0.6052 0.0138 0 0 0 0 0 0 0 0.1689 0.7351 0.096 0 0 0 0 0 0 0 0.0429 0.6867 0.2704 0 0 0 0 0 0 0 0.1167 0.7433 0.14 0 0 0 0 0 0 0 0.0204 0.636 0.3436 0 0 0 0 0 0 0 0 0.3798 0.6095 0.0107 0 0 0 0 0 0 0 0.1648 0.7368 0.0984 0 0 0 0 0 0 0 0.0438 0.6857 0.2705 0 0 0 0 0 0 0 0.1119 0.7392 0.1489 0 0 0 0 0 0 0 0.0181 0.633 0.3489 0 0 0 0 0 0 0 0 0.3783 0.6099 0.0118 0 0 0 0 0 0 0 0.1624 0.7422 0.0954 0 0 0 0 0 0 0 0.0406 0.6747 0.2847 0 0 0 0 0 0 0 0.1115 0.7423 0.1462 0 0 0 0 0 0 0 0.0167 0.6251 0.3582 0 0 0 0 0 0 0 0 0.3896 0.5988 0.0116 0 0 0 0 0 0 0 0.1642 0.7416 0.09420000000000001 0 0 0 0 0 0 0 0.0411 0.6883 0.2706 0 0 0 0 0 0 0 0.118 0.734 0.148 0 0 0 0 0 0 0 0.0179 0.6278 0.3543 0 0 0 0 0 0 0 0 0.3811 0.6189 0 0 0 0 0 0 0 0 0.1633 0.8367 0 0 0 0 0 0 0 0 0.0432 0.9568 0 0 0 0 0 0 0 0 0.1151 0.8849 0 0 0 0 0 0 0 0 0.0189 0.9811 0 0 0 0 0 0 0 0 0 1 0 0 0 0 0 0 0 0 0 1 0 0 0 0 0 0 0 0 0 1 0 0 0 0 0 0 0 0 0 1 0 0 0 0 0 0 0 0 0 1 0 0 0 0 0 0 0 0 0 1 0 0 0 0 0 0 0 0 0 1 0 0 0 0 0 0 0 0 0 1 0 0 0 0 0 0 0 0 0 1 0 0 0 0 0 0 0 0 0 1 0 0 0 0 0 0 0 0 0 1 0 0 0 0 0 0 0 0 0 1 0 0 0 0 0 0 0 0 0 1 0 0 0 0 0 0 0 0 0 1 0 0 0 0 0 0 0 0 0 1 0 0 0 0 0 0 0 0 0 1 0 0 0 0 0 0 0 0 0 1 0 0 0 0 0 0 0 0 0 1 0 0 0 0 0 0 0 0 0 1 0 0 0 0 0 0 0 0 0 1 0 0 0 0 0 0 0 0 0 1 0 0 0 0 0 0 0 0 0 1 0 0 0 0 0 0 0 0 0 1 0 0 0 0 0.1117 0.7408 0.1475 0 0 0 0 0 0 0 0.0184 0.6303 0.3513 0 0 0 0 0 0 0 0 0.3801 0.6101 0.0098 0 0 0 0 0 0 0 0.1672 0.739 0.09379999999999999 0 0 0 0 0 0 0 0.0415 0.6893 0.2692 0 0 0 0 0 0 0 0.1133 0.7405 0.1462 0 0 0 0 0 0 0 0.0163 0.6369 0.3468 0 0 0 0 0 0 0 0 0.3836 0.6041 0.0123 0 0 0 0 0 0 0 0.1663 0.7393 0.0944 0 0 0 0 0 0 0 0.042 0.6919 0.2661 0 0 0 0 0 0 0 0.114 0.7452 0.1408 0 0 0 0 0 0 0 0.0177 0.6423 0.34 0 0 0 0 0 0 0 0 0.3815 0.6051 0.0134 0 0 0 0 0 0 0 0.1664 0.7399 0.09370000000000001 0 0 0 0 0 0 0 0.04 0.6916 0.2684 0 0 0 0 0 0 0 0.1157 0.735 0.1493 0 0 0 0 0 0 0 0.0198 0.6378 0.3424 0 0 0 0 0 0 0 0 0.3781 0.6219 0 0 0 0 0 0 0 0 0.1647 0.8353 0 0 0 0 0 0 0 0 0.0376 0.9624 0 0 0 0 0 0 0 0 0.1138 0.8862 0 0 0 0 0 0 0 0 0.0193 0.9807 0 0 0 0 0 0 0 0 0 1 0 0 0 0 0 0 0 0 0 1 0 0 0 0 0 0 0 0 0 1 0 0 0 0 0 0 0 0 0 1 0 0 0 0 0 0 0 0 0 1 0 0 0 0 0 0 0 0 0 1 0 0 0 0 0 0 0 0 0 1 0 0 0 0 0 0 0 0 0 1 0 0 0 0 0 0 0 0 0 1 0 0 0 0 0 0 0 0 0 1 0 0 0 0 0 0 0 0 0 1 0 0 0 0 0 0 0 0 0 1 0 0 0 0 0 0 0 0 0 1 0 0 0 0 0 0 0 0 0 1 0 0 0 0 0 0 0 0 0 1 0 0 0 0 0 0 0 0 0 1 0 0 0 0 0 0 0 0 0 1 0 0 0 0 0 0 0 0 0 1 0 0 0 0 0 0 0 0 0 1 0 0 0 0 0 0 0 0 0 1 0 0 0 0 0 0 0 0 0 1 0 0 0 0 0 0 0 0 0 1 0 0 0 0 0 0 0 0 0 1 0 0 0 0 0 0 0 0 0 1 0 0 0 0 0 0 0 0 0 1 0 0 0 0 0 0 0 0 0 1 0 0 0 0 0 0 0 0 0 1 0 0 0 0 0 0 0 0 0 1 0 0 0 0 0 0.1096 0.7497 0.1407 0 0 0 0 0 0 0 0.0189 0.6323 0.3488 0 0 0 0 0 0 0 0 0.3833 0.6052999999999999 0.0114 0 0 0 0 0 0 0 0.1636 0.735 0.1014 0 0 0 0 0 0 0 0.0394 0.6858 0.2748 0 0 0 0 0 0 0 0.1148 0.7383 0.1469 0 0 0 0 0 0 0 0.018 0.6269 0.3551 0 0 0 0 0 0 0 0.0001 0.3857 0.6024 0.0118 0 0 0 0 0 0 0 0.1604 0.7413999999999999 0.0982 0 0 0 0 0 0 0 0.0386 0.6962 0.2652 0 0 0 0 0 0 0 0.1137 0.7435 0.1428 0 0 0 0 0 0 0 0.0196 0.6332 0.3472 0 0 0 0 0 0 0 0 0.3682 0.6318 0 0 0 0 0 0 0 0 0.1662 0.8338 0 0 0 0 0 0 0 0 0.0408 0.9592000000000001 0 0 0 0 0 0 0 0 0.1151 0.8849 0 0 0 0 0 0 0 0 0.0183 0.9817 0 0 0 0 0 0 0 0 0 1 0 0 0 0 0 0 0 0 0 1 0 0 0 0 0 0 0 0 0 1 0 0 0 0 0 0 0 0 0 1 0 0 0 0 0 0 0 0 0 1 0 0 0 0 0 0 0 0 0 1 0 0 0 0 0 0 0 0 0 1 0 0 0 0 0 0 0 0 0 1 0 0 0 0 0 0 0 0 0 1 0 0 0 0 0 0 0 0 0 1 0 0 0 0 0 0 0 0 0 1 0 0 0 0 0 0 0 0 0 1 0 0 0 0 0 0 0 0 0 1 0 0 0 0 0 0 0 0 0 1 0 0 0 0 0 0 0 0 0 1 0 0 0 0 0 0 0 0 0 1 0 0 0 0 0 0 0 0 0 1 0 0 0 0 0 0 0 0 0 1 0 0 0 0 0 0 0 0 0 1 0 0 0 0 0 0 0 0 0 1 0 0 0 0 0 0 0 0 0 1 0 0 0 0 0 0 0 0 0 1 0 0 0 0 0 0 0 0 0 1 0 0 0 0 0 0 0 0 0 1 0 0 0 0 0 0 0 0 0 1 0 0 0 0 0 0 0 0 0 1 0 0 0 0 0 0 0 0 0 1 0 0 0 0 0 0 0 0 0 1 0 0 0 0 0 0 0 0 0 1 0 0 0 0 0 0 0 0 0 1 0 0 0 0 0 0 0 0 0 1 0 0 0 0 0 0 0 0 0 1 0 0 0 0 0 0 0 0 0 1 0 0 0 0 0 0 0.1136 0.7436 0.1428 0 0 0 0 0 0 0 0.0198 0.6289 0.3513 0 0 0 0 0 0 0 0 0.3835 0.605 0.0115 0 0 0 0 0 0 0 0.1722 0.7252999999999999 0.1025 0 0 0 0 0 0 0 0.04 0.6875 0.2725 0 0 0 0 0 0 0 0.1177 0.7451 0.1372 0 0 0 0 0 0 0 0.0163 0.6412 0.3425 0 0 0 0 0 0 0 0 0.3736 0.6264 0 0 0 0 0 0 0 0 0.1681 0.8319 0 0 0 0 0 0 0 0 0.0403 0.9597 0 0 0 0 0 0 0 0 0.1172 0.8828 0 0 0 0 0 0 0 0 0.0184 0.9816 0 0 0 0 0 0 0 0 0 1 0 0 0 0 0 0 0 0 0 1 0 0 0 0 0 0 0 0 0 1 0 0 0 0 0 0 0 0 0 1 0 0 0 0 0 0 0 0 0 1 0 0 0 0 0 0 0 0 0 1 0 0 0 0 0 0 0 0 0 1 0 0 0 0 0 0 0 0 0 1 0 0 0 0 0 0 0 0 0 1 0 0 0 0 0 0 0 0 0 1 0 0 0 0 0 0 0 0 0 1 0 0 0 0 0 0 0 0 0 1 0 0 0 0 0 0 0 0 0 1 0 0 0 0 0 0 0 0 0 1 0 0 0 0 0 0 0 0 0 1 0 0 0 0 0 0 0 0 0 1 0 0 0 0 0 0 0 0 0 1 0 0 0 0 0 0 0 0 0 1 0 0 0 0 0 0 0 0 0 1 0 0 0 0 0 0 0 0 0 1 0 0 0 0 0 0 0 0 0 1 0 0 0 0 0 0 0 0 0 1 0 0 0 0 0 0 0 0 0 1 0 0 0 0 0 0 0 0 0 1 0 0 0 0 0 0 0 0 0 1 0 0 0 0 0 0 0 0 0 1 0 0 0 0 0 0 0 0 0 1 0 0 0 0 0 0 0 0 0 1 0 0 0 0 0 0 0 0 0 1 0 0 0 0 0 0 0 0 0 1 0 0 0 0 0 0 0 0 0 1 0 0 0 0 0 0 0 0 0 1 0 0 0 0 0 0 0 0 0 1 0 0 0 0 0 0 0 0 0 1 0 0 0 0 0 0 0 0 0 1 0 0 0 0 0 0 0 0 0 1 0 0 0 0 0 0 0 0 0 1 0 0 0 0 0 0 0 0 0 1 0 0 0 0 0 0 0 0.1128 0.7426 0.1446 0 0 0 0 0 0 0 0.0198 0.6349 0.3453 0 0 0 0 0 0 0 0 0.3784 0.6216 0 0 0 0 0 0 0 0 0.1666 0.8334 0 0 0 0 0 0 0 0 0.0382 0.9618 0 0 0 0 0 0 0 0 0.1124 0.8875999999999999 0 0 0 0 0 0 0 0 0.0199 0.9801 0 0 0 0 0 0 0 0 0 1 0 0 0 0 0 0 0 0 0 1 0 0 0 0 0 0 0 0 0 1 0 0 0 0 0 0 0 0 0 1 0 0 0 0 0 0 0 0 0 1 0 0 0 0 0 0 0 0 0 1 0 0 0 0 0 0 0 0 0 1 0 0 0 0 0 0 0 0 0 1 0 0 0 0 0 0 0 0 0 1 0 0 0 0 0 0 0 0 0 1 0 0 0 0 0 0 0 0 0 1 0 0 0 0 0 0 0 0 0 1 0 0 0 0 0 0 0 0 0 1 0 0 0 0 0 0 0 0 0 1 0 0 0 0 0 0 0 0 0 1 0 0 0 0 0 0 0 0 0 1 0 0 0 0 0 0 0 0 0 1 0 0 0 0 0 0 0 0 0 1 0 0 0 0 0 0 0 0 0 1 0 0 0 0 0 0 0 0 0 1 0 0 0 0 0 0 0 0 0 1 0 0 0 0 0 0 0 0 0 1 0 0 0 0 0 0 0 0 0 1 0 0 0 0 0 0 0 0 0 1 0 0 0 0 0 0 0 0 0 1 0 0 0 0 0 0 0 0 0 1 0 0 0 0 0 0 0 0 0 1 0 0 0 0 0 0 0 0 0 1 0 0 0 0 0 0 0 0 0 1 0 0 0 0 0 0 0 0 0 1 0 0 0 0 0 0 0 0 0 1 0 0 0 0 0 0 0 0 0 1 0 0 0 0 0 0 0 0 0 1 0 0 0 0 0 0 0 0 0 1 0 0 0 0 0 0 0 0 0 1 0 0 0 0 0 0 0 0 0 1 0 0 0 0 0 0 0 0 0 1 0 0 0 0 0 0 0 0 0 1 0 0 0 0 0 0 0 0 0 1 0 0 0 0 0 0 0 0 0 1 0 0 0 0 0 0 0 0 0 1 0 0 0 0 0 0 0 0 0 1 0 0 0 0 0 0 0 0 0 1 0 0 0 0 0 0 0 0 0.1135 0.8865 0 0 0 0 0 0 0 0 0.0189 0.9811 0 0 0 0 0 0 0 0 0 1 0 0 0 0 0 0 0 0 0 1 0 0 0 0 0 0 0 0 0 1 0 0 0 0 0 0 0 0 0 1 0 0 0 0 0 0 0 0 0 1 0 0 0 0 0 0 0 0 0 1 0 0 0 0 0 0 0 0 0 1 0 0 0 0 0 0 0 0 0 1 0 0 0 0 0 0 0 0 0 1 0 0 0 0 0 0 0 0 0 1 0 0 0 0 0 0 0 0 0 1 0 0 0 0 0 0 0 0 0 1 0 0 0 0 0 0 0 0 0 1 0 0 0 0 0 0 0 0 0 1 0 0 0 0 0 0 0 0 0 1 0 0 0 0 0 0 0 0 0 1 0 0 0 0 0 0 0 0 0 1 0 0 0 0 0 0 0 0 0 1 0 0 0 0 0 0 0 0 0 1 0 0 0 0 0 0 0 0 0 1 0 0 0 0 0 0 0 0 0 1 0 0 0 0 0 0 0 0 0 1 0 0 0 0 0 0 0 0 0 1 0 0 0 0 0 0 0 0 0 1 0 0 0 0 0 0 0 0 0 1 0 0 0 0 0 0 0 0 0 1 0 0 0 0 0 0 0 0 0 1 0 0 0 0 0 0 0 0 0 1 0 0 0 0 0 0 0 0 0 1 0 0 0 0 0 0 0 0 0 1 0 0 0 0 0 0 0 0 0 1 0 0 0 0 0 0 0 0 0 1 0 0 0 0 0 0 0 0 0 1 0 0 0 0 0 0 0 0 0 1 0 0 0 0 0 0 0 0 0 1 0 0 0 0 0 0 0 0 0 1 0 0 0 0 0 0 0 0 0 1 0 0 0 0 0 0 0 0 0 1 0 0 0 0 0 0 0 0 0 1 0 0 0 0 0 0 0 0 0 1 0 0 0 0 0 0 0 0 0 1 0 0 0 0 0 0 0 0 0 1 0 0 0 0 0 0 0 0 0 1 0 0 0 0 0 0 0 0 0 1 0 0 0 0 0 0 0 0 0 1 0 0 0 0 0 0 0 0 0 1 0 0 0 0 0 0 0 0 0 1 0 0 0 0 0 0 0 0 0 1</probabilities>
		</cpt>
		<cpt id="frequency_of_exceeding_safety_margin_due_to_turbulence">
			<state id="State0" />
			<state id="State1" />
			<state id="State2" />
			<state id="State3" />
			<state id="State4" />
			<state id="State5" />
			<state id="State6" />
			<state id="State7" />
			<state id="State8" />
			<state id="State9" />
			<intervals>0 0.005908012045062 0.01527158011626 0.03011183540944 0.053632054998 0.09090909090909 0.1499892113597 0.2436248920717 0.3920274450035 0.6272296408891 1</intervals>
			<parents>safety_margin turbulence</parents>
			<probabilities>0.6449 0.2707 0.08119999999999999 0.0032 0 0 0 0 0 0 0.0857 0.2678 0.2625 0.2062 0.1249 0.0501 0.0028 0 0 0 0 0.0015 0.07489999999999999 0.1455 0.2017 0.2066 0.1848 0.1237 0.0554 0.0059 0 0 0 0 0.0075 0.0684 0.1343 0.1915 0.2023 0.396 0 0 0 0 0 0 0 0.0048 0.0565 0.9387 0 0 0 0 0 0 0 0 0 1 0 0 0 0 0 0 0 0 0 1 0 0 0 0 0 0 0 0 0 1 0 0 0 0 0 0 0 0 0 1 0 0 0 0 0 0 0 0 0 1 1 0 0 0 0 0 0 0 0 0 0.9273 0.0727 0 0 0 0 0 0 0 0 0.3848 0.3431 0.1869 0.0764 0.008800000000000001 0 0 0 0 0 0.0032 0.133 0.2207 0.2217 0.2071 0.1297 0.0701 0.0145 0 0 0 0 0.0012 0.0513 0.1186 0.1892 0.1973 0.2019 0.1453 0.09520000000000001 0 0 0 0 0 0.0022 0.0434 0.11 0.1819 0.6625 0 0 0 0 0 0 0 0 0.0005 0.9995000000000001 0 0 0 0 0 0 0 0 0 1 0 0 0 0 0 0 0 0 0 1 0 0 0 0 0 0 0 0 0 1 1 0 0 0 0 0 0 0 0 0 1 0 0 0 0 0 0 0 0 0 1 0 0 0 0 0 0 0 0 0 0.7461 0.214 0.0399 0 0 0 0 0 0 0 0.1415 0.3106 0.2581 0.1776 0.0914 0.0208 0 0 0 0 0 0.0174 0.1146 0.1793 0.2184 0.2002 0.15 0.0927 0.0274 0 0 0 0 0 0.0353 0.09719999999999999 0.1616 0.2095 0.1994 0.297 0 0 0 0 0 0 0 0.026 0.0871 0.8869 0 0 0 0 0 0 0 0 0 1 0 0 0 0 0 0 0 0 0 1 1 0 0 0 0 0 0 0 0 0 1 0 0 0 0 0 0 0 0 0 1 0 0 0 0 0 0 0 0 0 1 0 0 0 0 0 0 0 0 0 0.968 0.032 0 0 0 0 0 0 0 0 0.4767 0.3343 0.1469 0.0421 0 0 0 0 0 0 0.0196 0.1901 0.2511 0.2214 0.1759 0.1029 0.0388 0.0002 0 0 0 0 0.015 0.0911 0.1577 0.206 0.1992 0.1677 0.1175 0.0458 0 0 0 0 0 0.0176 0.0742 0.1395 0.1977 0.571 0 0 0 0 0 0 0 0 0.0107 0.9893 1 0 0 0 0 0 0 0 0 0 1 0 0 0 0 0 0 0 0 0 1 0 0 0 0 0 0 0 0 0 1 0 0 0 0 0 0 0 0 0 1 0 0 0 0 0 0 0 0 0 1 0 0 0 0 0 0 0 0 0 0.833 0.1553 0.0117 0 0 0 0 0 0 0 0.2165 0.3461 0.2488 0.1346 0.0511 0.0029 0 0 0 0 0 0.0476 0.1476 0.213 0.2109 0.1979 0.119 0.0583 0.0057 0 0 0 0 0.0075 0.0654 0.1329 0.1948 0.2087 0.1894 0.2013 1 0 0 0 0 0 0 0 0 0 1 0 0 0 0 0 0 0 0 0 1 0 0 0 0 0 0 0 0 0 1 0 0 0 0 0 0 0 0 0 1 0 0 0 0 0 0 0 0 0 1 0 0 0 0 0 0 0 0 0 1 0 0 0 0 0 0 0 0 0 0.992 0.008 0 0 0 0 0 0 0 0 0.5817 0.303 0.1016 0.0137 0 0 0 0 0 0 0.0518 0.242 0.2625 0.2216 0.1381 0.0731 0.0109 0 0 0 1 0 0 0 0 0 0 0 0 0 1 0 0 0 0 0 0 0 0 0 1 0 0 0 0 0 0 0 0 0 1 0 0 0 0 0 0 0 0 0 1 0 0 0 0 0 0 0 0 0 1 0 0 0 0 0 0 0 0 0 1 0 0 0 0 0 0 0 0 0 1 0 0 0 0 0 0 0 0 0 1 0 0 0 0 0 0 0 0 0 0.8999 0.09959999999999999 0.0005 0 0 0 0 0 0 0 1 0 0 0 0 0 0 0 0 0 1 0 0 0 0 0 0 0 0 0 1 0 0 0 0 0 0 0 0 0 1 0 0 0 0 0 0 0 0 0 1 0 0 0 0 0 0 0 0 0 1 0 0 0 0 0 0 0 0 0 1 0 0 0 0 0 0 0 0 0 1 0 0 0 0 0 0 0 0 0 1 0 0 0 0 0 0 0 0 0 1 0 0 0 0 0 0 0 0 0 1 0 0 0 0 0 0 0 0 0 1 0 0 0 0 0 0 0 0 0 1 0 0 0 0 0 0 0 0 0 1 0 0 0 0 0 0 0 0 0 1 0 0 0 0 0 0 0 0 0 1 0 0 0 0 0 0 0 0 0 1 0 0 0 0 0 0 0 0 0 1 0 0 0 0 0 0 0 0 0 1 0 0 0 0 0 0 0 0 0 1 0 0 0 0 0 0 0 0 0 1 0 0 0 0 0 0 0 0 0 1 0 0 0 0 0 0 0 0 0 1 0 0 0 0 0 0 0 0 0 1 0 0 0 0 0 0 0 0 0 1 0 0 0 0 0 0 0 0 0 1 0 0 0 0 0 0 0 0 0 1 0 0 0 0 0 0 0 0 0 1 0 0 0 0 0 0 0 0 0 1 0 0 0 0 0 0 0 0 0 1 0 0 0 0 0 0 0 0 0</probabilities>
		</cpt>
		<cpt id="enviornment_observability">
			<state id="State0" />
			<state id="State1" />
			<state id="State2" />
			<state id="State3" />
			<state id="State4" />
			<state id="State5" />
			<state id="State6" />
			<state id="State7" />
			<state id="State8" />
			<state id="State9" />
			<intervals>0 0.1 0.2 0.3 0.4 0.5 0.6 0.7 0.8 0.9 1</intervals>
			<probabilities>0.1916919959473151 0.1949341438703141 0.1659574468085106 0.1363728470111449 0.1096251266464032 0.08672745694022289 0.05349544072948328 0.02755825734549139 0.02188449848024316 0.01175278622087133</probabilities>
		</cpt>
		<cpt id="frequency_of_contact_with_unobservable_obstacle">
			<state id="State0" />
			<state id="State1" />
			<state id="State2" />
			<state id="State3" />
			<state id="State4" />
			<state id="State5" />
			<state id="State6" />
			<state id="State7" />
			<state id="State8" />
			<state id="State9" />
			<intervals>0 0.005908012045062 0.01527158011626 0.03011183540944 0.053632054998 0.09090909090909 0.1499892113597 0.2436248920717 0.3920274450035 0.6272296408891 1</intervals>
			<parents>enviornment_observability</parents>
			<probabilities>1 0 0 0 0 0 0 0 0 0 0.8064 0.1936 0 0 0 0 0 0 0 0 0 0.482 0.518 0 0 0 0 0 0 0 0 0 0.1143 0.6595 0.2262 0 0 0 0 0 0 0 0 0 0.4954 0.5046 0 0 0 0 0 0 0 0 0 0.3142 0.6858 0 0 0 0 0 0 0 0 0 0.2465 0.7534999999999999 0 0 0 0 0 0 0 0 0 0.3264 0.6736 0 0 0 0 0 0 0 0 0 0.5572 0.4428 0 0 0 0 0 0 0 0 0 1</probabilities>
		</cpt>
		<cpt id="roll_pitch_deviation">
			<state id="State0" />
			<state id="State1" />
			<state id="State2" />
			<state id="State3" />
			<state id="State4" />
			<state id="State5" />
			<state id="State6" />
			<state id="State7" />
			<state id="State8" />
			<state id="State9" />
			<intervals>0 0.1 0.2 0.3 0.4 0.5 0.6 0.7 0.8 0.9 1</intervals>
			<parents>turbulence</parents>
			<probabilities>0.607096451774113 0.3093453273363319 0.07426286856571714 0.00849575212393803 0.0002998500749625187 9.995002498750625e-05 9.995002498750625e-05 9.995002498750625e-05 9.995002498750625e-05 9.995002498750625e-05 0.3169732107157137 0.3680527788884446 0.2415033986405438 0.06447421031587365 0.008396641343462616 0.0001999200319872051 9.996001599360256e-05 9.996001599360256e-05 9.996001599360256e-05 9.996001599360256e-05 0.07617714685594322 0.2468259522143357 0.3667899630110967 0.2362291312606218 0.06578026592022393 0.007597720683794862 0.0002999100269919024 9.997000899730081e-05 9.997000899730081e-05 9.997000899730081e-05 0.008698260347930415 0.07188562287542491 0.2359528094381124 0.3657268546290742 0.2434513097380524 0.06688662267546491 0.006498700259948011 0.0006998600279944011 9.998000399920016e-05 9.998000399920016e-05 9.999000099990002e-05 0.009799020097990201 0.06429357064293571 0.2388761123887611 0.3765623437656234 0.2364763523647635 0.06469353064693531 0.008899110088991101 0.0001999800019998 9.999000099990002e-05 9.999000099990002e-05 0.0001999800019998 0.0065993400659934 0.06509349065093491 0.241975802419758 0.3723627637236276 0.2366763323667633 0.06939306069393061 0.007399260073992601 0.0001999800019998 9.998000399920016e-05 9.998000399920016e-05 0.0004999000199960008 0.007398520295940812 0.06328734253149371 0.236752649470106 0.3748250349930014 0.2420515896820636 0.06818636272745451 0.006798640271945611 9.997000899730081e-05 9.997000899730081e-05 9.997000899730081e-05 0.0002999100269919024 0.007097870638808358 0.07207837648705388 0.2381285614315705 0.3630910726781965 0.247925622313306 0.07107867639708088 9.996001599360256e-05 9.996001599360256e-05 9.996001599360256e-05 9.996001599360256e-05 0.0001999200319872051 0.006897241103558577 0.06217512994802079 0.2418032786885246 0.3756497401039584 0.312874850059976 9.995002498750625e-05 9.995002498750625e-05 9.995002498750625e-05 9.995002498750625e-05 9.995002498750625e-05 0.000399800099950025 0.00719640179910045 0.06646676661669165 0.2368815592203898 0.6885557221389306</probabilities>
		</cpt>
		<cpt id="dust">
			<state id="State0" />
			<state id="State1" />
			<state id="State2" />
			<state id="State3" />
			<state id="State4" />
			<state id="State5" />
			<state id="State6" />
			<state id="State7" />
			<state id="State8" />
			<state id="State9" />
			<intervals>0 0.1 0.2 0.3 0.4 0.5 0.6 0.7 0.8 0.9 1</intervals>
			<probabilities>0.2609500308451573 0.2311330454451984 0.1912399753238742 0.1289327575570635 0.09027349372815134 0.04976352046062102 0.02940571663582151 0.01151552539584619 0.004935225169648365 0.001850709438618137</probabilities>
		</cpt>
		<cpt id="number_of_filtered_away_points">
			<state id="State0" />
			<state id="State1" />
			<state id="State2" />
			<state id="State3" />
			<state id="State4" />
			<state id="State5" />
			<state id="State6" />
			<state id="State7" />
			<state id="State8" />
			<state id="State9" />
			<intervals>0 0.1 0.2 0.3 0.4 0.5 0.6 0.7 0.8 0.9 1</intervals>
			<parents>enviornment_observability dust</parents>
