<?xml version="1.0" encoding="UTF-8"?>
<!-- This network was created in GeNIe Academic, which can be used for academic teaching and research purposes only -->
<smile version="1.0" id="Network2" numsamples="10000" discsamples="10000">
	<nodes>
		<cpt id="tether_tension_motor_use_scaling_factor_t_1">
			<state id="State0" />
			<state id="State1" />
			<state id="State2" />
			<state id="State3" />
			<state id="State4" />
			<state id="State5" />
			<state id="State6" />
			<state id="State7" />
			<state id="State8" />
			<state id="State9" />
			<intervals>0 0.2 0.4 0.6 0.8 1 1.2 1.4 1.6 1.8 2</intervals>
			<probabilities>0.1581932773109244 0.1697478991596639 0.1489495798319328 0.1300420168067227 0.1170168067226891 0.0861344537815126 0.07247899159663866 0.05441176470588235 0.03802521008403361 0.025</probabilities>
		</cpt>
		<cpt id="tether_tension_motor_use_scaling_factor">
			<state id="State0" />
			<state id="State1" />
			<state id="State2" />
			<state id="State3" />
			<state id="State4" />
			<state id="State5" />
			<state id="State6" />
			<state id="State7" />
			<state id="State8" />
			<state id="State9" />
			<intervals>0 0.2 0.4 0.6 0.8 1 1.2 1.4 1.6 1.8 2</intervals>
			<parents>tether_tension_motor_use_scaling_factor_t_1</parents>
			<probabilities>0.9530794839783604 0.04608822305451519 0.0001040366208905535 0.0001040366208905535 0.0001040366208905535 0.0001040366208905535 0.0001040366208905535 0.0001040366208905535 0.0001040366208905535 0.0001040366208905535 0.04296992105526132 0.9144598780853402 0.04187069051663835 9.9930048965724e-05 9.9930048965724e-05 9.9930048965724e-05 9.9930048965724e-05 9.9930048965724e-05 9.9930048965724e-05 9.9930048965724e-05 9.9930048965724e-05 0.04047166983111822 0.9214549815129409 0.03737383831318077 9.9930048965724e-05 9.9930048965724e-05 9.9930048965724e-05 9.9930048965724e-05 9.9930048965724e-05 9.9930048965724e-05 9.9930048965724e-05 9.9930048965724e-05 0.04506845208354152 0.9147596682322374 0.03947236934146098 9.9930048965724e-05 9.9930048965724e-05 9.9930048965724e-05 9.9930048965724e-05 9.9930048965724e-05 9.9930048965724e-05 9.9930048965724e-05 9.9930048965724e-05 0.0399720195862896 0.9191565903867293 0.04017187968422105 9.9930048965724e-05 9.9930048965724e-05 9.9930048965724e-05 9.9930048965724e-05 9.9930048965724e-05 9.9930048965724e-05 9.9930048965724e-05 9.9930048965724e-05 0.04267013090836415 0.9222544219046668 0.03437593684420905 9.9930048965724e-05 9.9930048965724e-05 9.9930048965724e-05 9.9930048965724e-05 9.9930048965724e-05 9.9930048965724e-05 9.9930048965724e-05 9.9930048965724e-05 0.04137104027180973 0.9171579894074148 0.04077145997801539 9.9930048965724e-05 9.9930048965724e-05 9.9930048965724e-05 9.9930048965724e-05 9.9930048965724e-05 9.9930048965724e-05 9.9930048965724e-05 9.9930048965724e-05 0.03697411811731788 0.9230538622963925 0.03927250924352953 9.9930048965724e-05 9.9930048965724e-05 9.9930048965724e-05 9.9930048965724e-05 9.9930048965724e-05 9.9930048965724e-05 9.9930048965724e-05 9.9930048965724e-05 0.04087139002698111 0.9200559608274208 0.03837313880283801 0.000103777501037775 0.000103777501037775 0.000103777501037775 0.000103777501037775 0.000103777501037775 0.000103777501037775 0.000103777501037775 0.000103777501037775 0.04296388542963885 0.956205894562059</probabilities>
		</cpt>
		<cpt id="height_over_ground">
			<state id="State0" />
			<state id="State1" />
			<state id="State2" />
			<state id="State3" />
			<state id="State4" />
			<state id="State5" />
			<state id="State6" />
			<state id="State7" />
			<state id="State8" />
			<state id="State9" />
			<intervals>0 0.1 0.2 0.3 0.4 0.5 0.6 0.7 0.8 0.9 1</intervals>
			<probabilities>0.0977 0.1041 0.0973 0.0993 0.1012 0.0988 0.09669999999999999 0.0988 0.1023 0.1038</probabilities>
		</cpt>
		<cpt id="drone_tilt">
			<state id="State0" />
			<state id="State1" />
			<state id="State2" />
			<state id="State3" />
			<state id="State4" />
			<state id="State5" />
			<state id="State6" />
			<state id="State7" />
			<state id="State8" />
			<state id="State9" />
			<intervals>0 0.1 0.2 0.3 0.4 0.5 0.6 0.7 0.8 0.9 1</intervals>
			<probabilities>0.0993 0.0983 0.0983 0.0974 0.1042 0.0968 0.1037 0.1004 0.1 0.1016</probabilities>
		</cpt>
		<cpt id="motoruse_for_tether">
			<state id="State0" />
			<state id="State1" />
			<state id="State2" />
			<state id="State3" />
			<state id="State4" />
			<state id="State5" />
			<state id="State6" />
			<state id="State7" />
			<state id="State8" />
			<state id="State9" />
			<intervals>0 0.1 0.2 0.3 0.4 0.5 0.6 0.7 0.8 0.9 1</intervals>
			<parents>height_over_ground tether_tension_motor_use_scaling_factor drone_tilt</parents>
			<probabilities>1 0 0 0 0 0 0 0 0 0 1 0 0 0 0 0 0 0 0 0 1 0 0 0 0 0 0 0 0 0 0.9885 0.0115 0 0 0 0 0 0 0 0 0.9394 0.0606 0 0 0 0 0 0 0 0 0.8562 0.1438 0 0 0 0 0 0 0 0 0.7552 0.2448 0 0 0 0 0 0 0 0 0.6702 0.3298 0 0 0 0 0 0 0 0 0.5893 0.4065 0.0042 0 0 0 0 0 0 0 0.5302 0.4394 0.0304 0 0 0 0 0 0 0 1 0 0 0 0 0 0 0 0 0 0.9887 0.0113 0 0 0 0 0 0 0 0 0.792 0.208 0 0 0 0 0 0 0 0 0.4417 0.5583 0 0 0 0 0 0 0 0 0.1809 0.784 0.0351 0 0 0 0 0 0 0 0.0506 0.734 0.2154 0 0 0 0 0 0 0 0.0065 0.5276999999999999 0.4633 0.0025 0 0 0 0 0 0 0 0.3302 0.6024 0.0674 0 0 0 0 0 0 0 0.1801 0.5814 0.2385 0 0 0 0 0 0 0 0.0878 0.4906 0.4063 0.0153 0 0 0 0 0 1 0 0 0 0 0 0 0 0 0 0.788 0.212 0 0 0 0 0 0 0 0 0.2288 0.7668 0.0044 0 0 0 0 0 0 0 0.0073 0.76 0.2327 0 0 0 0 0 0 0 0 0.2637 0.7109 0.0254 0 0 0 0 0 0 0 0.0338 0.6794 0.2868 0 0 0 0 0 0 0 0 0.3191 0.6272 0.0537 0 0 0 0 0 0 0 0.0683 0.6045 0.3259 0.0013 0 0 0 0 0 0 0.0029 0.3515 0.5404 0.1052 0 0 0 0 0 0 0 0.1281 0.5122 0.3484 0.0113 0 0 0 0.986 0.014 0 0 0 0 0 0 0 0 0.4478 0.5522 0 0 0 0 0 0 0 0 0.0066 0.7433999999999999 0.25 0 0 0 0 0 0 0 0 0.1158 0.8122 0.07199999999999999 0 0 0 0 0 0 0 0 0.3688 0.614 0.0172 0 0 0 0 0 0 0 0.0217 0.6021 0.3748 0.0014 0 0 0 0 0 0 0 0.1349 0.6726 0.1925 0 0 0 0 0 0 0 0.0016 0.3343 0.5744 0.0897 0 0 0 0 0 0 0 0.0467 0.4904 0.4305 0.0324 0 0 0 0 0 0 0 0.1653 0.5116000000000001 0.3159 0.0072 0 0.9365 0.0635 0 0 0 0 0 0 0 0 0.18 0.7853 0.0347 0 0 0 0 0 0 0 0 0.2733 0.7028 0.0239 0 0 0 0 0 0 0 0 0.3689 0.6129 0.0182 0 0 0 0 0 0 0 0.0029 0.4585 0.5258 0.0128 0 0 0 0 0 0 0 0.0151 0.5333 0.4401 0.0115 0 0 0 0 0 0 0 0.0475 0.5590000000000001 0.3826 0.0109 0 0 0 0 0 0 0 0.0965 0.5708 0.3235 0.0092 0 0 0 0 0 0 0 0.1561 0.5435 0.2931 0.0073 0 0 0 0 0 0 0.0016 0.216 0.5215 0.2609 0.8614000000000001 0.1386 0 0 0 0 0 0 0 0 0.0567 0.7314000000000001 0.2119 0 0 0 0 0 0 0 0 0.0305 0.6852 0.2843 0 0 0 0 0 0 0 0 0.0236 0.5991 0.3758 0.0015 0 0 0 0 0 0 0 0.0162 0.5259 0.4486 0.009299999999999999 0 0 0 0 0 0 0 0.0147 0.4612 0.4924 0.0317 0 0 0 0 0 0 0 0.0095 0.3933 0.5281 0.06909999999999999 0 0 0 0 0 0 0 0.0077 0.3323 0.5516 0.1084 0 0 0 0 0 0 0 0.0077 0.2973 0.695 0 0 0 0 0 0 0 0 0.0077 0.9923 0.7608 0.2392 0 0 0 0 0 0 0 0 0.0069 0.5457 0.4454 0.002 0 0 0 0 0 0 0 0 0.315 0.6316000000000001 0.0534 0 0 0 0 0 0 0 0 0.1407 0.6675 0.1918 0 0 0 0 0 0 0 0 0.0501 0.5687 0.3701 0.0111 0 0 0 0 0 0 0 0.0111 0.3957 0.5284 0.0648 0 0 0 0 0 0 0 0.001 0.2311 0.584 0.1839 0 0 0 0 0 0 0 0 0.1208 0.8792 0 0 0 0 0 0 0 0 0 1 0 0 0 0 0 0 0 0 0 1 0.6667 0.3333 0 0 0 0 0 0 0 0 0 0.3317 0.5914 0.0769 0 0 0 0 0 0 0 0 0.07140000000000001 0.592 0.3346 0.002 0 0 0 0 0 0 0 0.0018 0.3428 0.5753 0.0801 0 0 0 0 0 0 0 0 0.09619999999999999 0.5686 0.3269 0.0083 0 0 0 0 0 0 0 0.008200000000000001 0.3344 0.544 0.1134 0 0 0 0 0 0 0 0 0.1191 0.8809 0 0 0 0 0 0 0 0 0 1 0 0 0 0 0 0 0 0 0 1 0 0 0 0 0 0 0 0 0 1 0.5863 0.4075 0.0062 0 0 0 0 0 0 0 0 0.1849 0.586 0.2291 0 0 0 0 0 0 0 0 0.0027 0.3541 0.5444 0.0988 0 0 0 0 0 0 0 0 0.0437 0.4878 0.4362 0.0323 0 0 0 0 0 0 0 0 0.1514 0.5487 0.2921 0.0078 0 0 0 0 0 0 0 0.0074 0.2991 0.6935 0 0 0 0 0 0 0 0 0 1 0 0 0 0 0 0 0 0 0 1 0 0 0 0 0 0 0 0 0 1 0 0 0 0 0 0 0 0 0 1 0.5326 0.4405 0.0269 0 0 0 0 0 0 0 0 0.0862 0.5019 0.3958 0.0161 0 0 0 0 0 0 0 0 0.1258 0.5104 0.3565 0.0073 0 0 0 0 0 0 0 0 0.1741 0.5158 0.3024 0.0077 0 0 0 0 0 0 0 0.0012 0.2252 0.51 0.2636 0 0 0 0 0 0 0 0 0.0073 0.9927 0 0 0 0 0 0 0 0 0 1 0 0 0 0 0 0 0 0 0 1 0 0 0 0 0 0 0 0 0 1 0 0 0 0 0 0 0 0 0 1 0.6899 0.3101 0 0 0 0 0 0 0 0 0.5681 0.4319 0 0 0 0 0 0 0 0 0.4284 0.5716 0 0 0 0 0 0 0 0 0.3303 0.6697 0 0 0 0 0 0 0 0 0.243 0.7502 0.0068 0 0 0 0 0 0 0 0.2048 0.7465000000000001 0.0487 0 0 0 0 0 0 0 0.1726 0.7144 0.113 0 0 0 0 0 0 0 0.1523 0.6414 0.2063 0 0 0 0 0 0 0 0.1367 0.5721000000000001 0.2912 0 0 0 0 0 0 0 0.1226 0.5137 0.36 0.0037 0 0 0 0 0 0 0.5645 0.4355 0 0 0 0 0 0 0 0 0.194 0.806 0 0 0 0 0 0 0 0 0.0196 0.917 0.0634 0 0 0 0 0 0 0 0 0.669 0.331 0 0 0 0 0 0 0 0 0.3469 0.6493 0.0038 0 0 0 0 0 0 0 0.1404 0.7612 0.0984 0 0 0 0 0 0 0 0.046 0.6407 0.3133 0 0 0 0 0 0 0 0.0054 0.464 0.5105 0.0201 0 0 0 0 0 0 0 0.3002 0.5675 0.1323 0 0 0 0 0 0 0 0.1613 0.5159 0.3205 0.0023 0 0 0 0 0.4347 0.5653 0 0 0 0 0 0 0 0 0.0197 0.922 0.0583 0 0 0 0 0 0 0 0 0.446 0.554 0 0 0 0 0 0 0 0 0.0494 0.8477 0.1029 0 0 0 0 0 0 0 0 0.4606 0.5369 0.0025 0 0 0 0 0 0 0 0.1023 0.7433 0.1544 0 0 0 0 0 0 0 0.0041 0.465 0.5164 0.0145 0 0 0 0 0 0 0 0.1553 0.6321 0.2126 0 0 0 0 0 0 0 0.0211 0.45 0.4838 0.0451 0 0 0 0 0 0 0 0.2126 0.5217000000000001 0.2637 0.002 0 0 0.3236 0.6764 0 0 0 0 0 0 0 0 0 0.6749000000000001 0.3251 0 0 0 0 0 0 0 0 0.0505 0.8511 0.0984 0 0 0 0 0 0 0 0 0.2669 0.7101 0.023 0 0 0 0 0 0 0 0.0036 0.5427 0.4512 0.0025 0 0 0 0 0 0 0 0.07389999999999999 0.6992 0.2269 0 0 0 0 0 0 0 0 0.2552 0.6421 0.1027 0 0 0 0 0 0 0 0.0155 0.4579 0.4925 0.0341 0 0 0 0 0 0 0 0.09909999999999999 0.5456 0.3457 0.009599999999999999 0 0 0 0 0 0 0.0013 0.2736 0.5134 0.2107 0.001 0.2419 0.7482 0.009900000000000001 0 0 0 0 0 0 0 0 0.3524 0.6435999999999999 0.004 0 0 0 0 0 0 0 0 0.4582 0.5389 0.0029 0 0 0 0 0 0 0 0.0042 0.5508999999999999 0.4424 0.0025 0 0 0 0 0 0 0 0.0195 0.611 0.3677 0.0018 0 0 0 0 0 0 0 0.0594 0.642 0.2976 0.001 0 0 0 0 0 0 0 0.1129 0.6273 0.2587 0.0011 0 0 0 0 0 0 0 0.1736 0.5998 0.2253 0.0013 0 0 0 0 0 0 0.0007 0.2459 0.5417 0.2117 0 0 0 0 0 0 0 0.0091 0.3138 0.6771 0.204 0.7438 0.0522 0 0 0 0 0 0 0 0 0.1443 0.7596000000000001 0.0961 0 0 0 0 0 0 0 0 0.0989 0.7502 0.1509 0 0 0 0 0 0 0 0 0.0697 0.7106 0.2197 0 0 0 0 0 0 0 0 0.0547 0.6481 0.2955 0.0017 0 0 0 0 0 0 0 0.0433 0.5718 0.3738 0.0111 0 0 0 0 0 0 0 0.0382 0.5004999999999999 0.4337 0.0276 0 0 0 0 0 0 0 0.0303 0.4489 0.5208 0 0 0 0 0 0 0 0 0.029 0.971 0 0 0 0 0 0 0 0 0 1 0.169 0.7071 0.1239 0 0 0 0 0 0 0 0 0.0439 0.6536 0.3025 0 0 0 0 0 0 0 0 0.0041 0.4644 0.5165 0.015 0 0 0 0 0 0 0 0 0.2493 0.6522 0.0985 0 0 0 0 0 0 0 0 0.111 0.6286 0.2586 0.0018 0 0 0 0 0 0 0 0.0366 0.506 0.4346 0.0228 0 0 0 0 0 0 0 0.008500000000000001 0.3387 0.6528 0 0 0 0 0 0 0 0 0.0007 0.9993 0 0 0 0 0 0 0 0 0 1 0 0 0 0 0 0 0 0 0 1 0.1501 0.659 0.1909 0 0 0 0 0 0 0 0 0.0048 0.4632 0.5083 0.0237 0 0 0 0 0 0 0 0 0.1577 0.6304 0.2119 0 0 0 0 0 0 0 0 0.0133 0.4539 0.4957 0.0371 0 0 0 0 0 0 0 0 0.1743 0.6002 0.2247 0.0008 0 0 0 0 0 0 0 0.0335 0.4409 0.5256 0 0 0 0 0 0 0 0 0.0008 0.9992 0 0 0 0 0 0 0 0 0 1 0 0 0 0 0 0 0 0 0 1 0 0 0 0 0 0 0 0 0 1 0.1252 0.5825 0.2923 0 0 0 0 0 0 0 0 0 0.2884 0.5745 0.1371 0 0 0 0 0 0 0 0 0.0203 0.4584 0.4749 0.0464 0 0 0 0 0 0 0 0 0.1042 0.5494 0.3374 0.008999999999999999 0 0 0 0 0 0 0 0.0015 0.2537 0.5395 0.2053 0 0 0 0 0 0 0 0 0.0277 0.9723000000000001 0 0 0 0 0 0 0 0 0 1 0 0 0 0 0 0 0 0 0 1 0 0 0 0 0 0 0 0 0 1 0 0 0 0 0 0 0 0 0 1 0.1176 0.5232 0.355 0.0042 0 0 0 0 0 0 0 0 0.1655 0.5201 0.3125 0.0019 0 0 0 0 0 0 0 0 0.2132 0.5309 0.2545 0.0014 0 0 0 0 0 0 0 0.0021 0.2686 0.5079 0.2206 0.0008 0 0 0 0 0 0 0 0.008500000000000001 0.3083 0.6832 0 0 0 0 0 0 0 0 0 1 0 0 0 0 0 0 0 0 0 1 0 0 0 0 0 0 0 0 0 1 0 0 0 0 0 0 0 0 0 1 0 0 0 0 0 0 0 0 0 1 0 0.9383 0.0617 0 0 0 0 0 0 0 0 0.8149999999999999 0.185 0 0 0 0 0 0 0 0 0.6829 0.3171 0 0 0 0 0 0 0 0 0.5585 0.4415 0 0 0 0 0 0 0 0 0.4512 0.5488 0 0 0 0 0 0 0 0 0.3713 0.6225000000000001 0.0062 0 0 0 0 0 0 0 0.3131 0.6464 0.0405 0 0 0 0 0 0 0 0.26 0.6332 0.1068 0 0 0 0 0 0 0 0.2322 0.5876 0.1802 0 0 0 0 0 0 0 0.2087 0.5239 0.2674 0 0 0 0 0 0 0 0.8142 0.1858 0 0 0 0 0 0 0 0 0.4431 0.5569 0 0 0 0 0 0 0 0 0.1241 0.8696 0.0063 0 0 0 0 0 0 0 0.0126 0.8391999999999999 0.1482 0 0 0 0 0 0 0 0 0.5544 0.4456 0 0 0 0 0 0 0 0 0.2721 0.6973 0.0306 0 0 0 0 0 0 0 0.127 0.6965 0.1765 0 0 0 0 0 0 0 0.0355 0.5708 0.3911 0.0026 0 0 0 0 0 0 0.0047 0.4071 0.5252 0.063 0 0 0 0 0 0 0 0.2681 0.5167 0.2152 0 0 0 0 0 0.6901 0.3099 0 0 0 0 0 0 0 0 0.1306 0.8627 0.0067 0 0 0 0 0 0 0 0 0.6816 0.3184 0 0 0 0 0 0 0 0 0.167 0.8021 0.0309 0 0 0 0 0 0 0 0.0046 0.6456 0.3498 0 0 0 0 0 0 0 0 0.2133 0.7199 0.0668 0 0 0 0 0 0 0 0.0284 0.5925 0.3774 0.0017 0 0 0 0 0 0 0 0.272 0.6165 0.1115 0 0 0 0 0 0 0 0.0669 0.5238 0.3963 0.013 0 0 0 0 0 0 0.0031 0.3139 0.5152 0.1678 0 0 0 0.5716 0.4284 0 0 0 0 0 0 0 0 0.0101 0.837 0.1529 0 0 0 0 0 0 0 0 0.1658 0.8077 0.0265 0 0 0 0 0 0 0 0 0.4565 0.5415 0.002 0 0 0 0 0 0 0 0.0275 0.7017 0.2708 0 0 0 0 0 0 0 0 0.1612 0.7221 0.1167 0 0 0 0 0 0 0 0.0017 0.389 0.5694 0.0399 0 0 0 0 0 0 0 0.0519 0.5537 0.3832 0.0112 0 0 0 0 0 0 0 0.1908 0.5637 0.2443 0.0012 0 0 0 0 0 0 0.012 0.3554 0.5037 0.1289 0 0.4465 0.5535 0 0 0 0 0 0 0 0 0 0.5554 0.4446 0 0 0 0 0 0 0 0 0.0061 0.6433 0.3506 0 0 0 0 0 0 0 0 0.0271 0.7039 0.269 0 0 0 0 0 0 0 0 0.06279999999999999 0.7248 0.2124 0 0 0 0 0 0 0 0 0.1275 0.6931 0.1794 0 0 0 0 0 0 0 0 0.2004 0.6455 0.1541 0 0 0 0 0 0 0 0.0013 0.287 0.5859 0.1258 0 0 0 0 0 0 0 0.0083 0.353 0.6387 0 0 0 0 0 0 0 0 0.0308 0.9692 0 0.3682 0.6241 0.0077 0 0 0 0 0 0 0 0 0.2867 0.6875 0.0258 0 0 0 0 0 0 0 0 0.2224 0.711 0.06660000000000001 0 0 0 0 0 0 0 0 0.161 0.7171 0.1219 0 0 0 0 0 0 0 0 0.1305 0.6901 0.1794 0 0 0 0 0 0 0 0 0.1008 0.6495 0.2487 0.001 0 0 0 0 0 0 0 0.08699999999999999 0.5891999999999999 0.3238 0 0 0 0 0 0 0 0 0.0721 0.9278999999999999 0 0 0 0 0 0 0 0 0 1 0 0 0 0 0 0 0 0 0 1 0 0.3047 0.649 0.0463 0 0 0 0 0 0 0 0 0.1287 0.698 0.1733 0 0 0 0 0 0 0 0 0.0271 0.582 0.3883 0.0026 0 0 0 0 0 0 0 0.0023 0.3901 0.5658 0.0418 0 0 0 0 0 0 0 0 0.2037 0.645 0.1513 0 0 0 0 0 0 0 0 0.0857 0.5789 0.3354 0 0 0 0 0 0 0 0 0.0304 0.9696 0 0 0 0 0 0 0 0 0 1 0 0 0 0 0 0 0 0 0 1 0 0 0 0 0 0 0 0 0 1 0 0.2709 0.6225000000000001 0.1066 0 0 0 0 0 0 0 0 0.0393 0.5614 0.3959 0.0034 0 0 0 0 0 0 0 0 0.2689 0.6177 0.1134 0 0 0 0 0 0 0 0 0.0539 0.5506 0.3846 0.0109 0 0 0 0 0 0 0 0.002 0.2846 0.581 0.1324 0 0 0 0 0 0 0 0 0.0765 0.9235 0 0 0 0 0 0 0 0 0 1 0 0 0 0 0 0 0 0 0 1 0 0 0 0 0 0 0 0 0 1 0 0 0 0 0 0 0 0 0 1 0 0.2385 0.5729 0.1886 0 0 0 0 0 0 0 0 0.0042 0.4076 0.5276 0.0606 0 0 0 0 0 0 0 0 0.06660000000000001 0.5228 0.3966 0.014 0 0 0 0 0 0 0 0 0.19 0.5624 0.2466 0.001 0 0 0 0 0 0 0 0.009599999999999999 0.3551 0.6353 0 0 0 0 0 0 0 0 0 1 0 0 0 0 0 0 0 0 0 1 0 0 0 0 0 0 0 0 0 1 0 0 0 0 0 0 0 0 0 1 0 0 0 0 0 0 0 0 0 1 0 0.2106 0.5225 0.2669 0 0 0 0 0 0 0 0 0 0.2534 0.5282 0.2184 0 0 0 0 0 0 0 0 0.0018 0.3277 0.5088 0.1617 0 0 0 0 0 0 0 0 0.0117 0.3557 0.5022 0.1304 0 0 0 0 0 0 0 0 0.0349 0.9651 0 0 0 0 0 0 0 0 0 1 0 0 0 0 0 0 0 0 0 1 0 0 0 0 0 0 0 0 0 1 0 0 0 0 0 0 0 0 0 1 0 0 0 0 0 0 0 0 0 1 0 0 1 0 0 0 0 0 0 0 0 0 0.9745 0.0255 0 0 0 0 0 0 0 0 0.8897 0.1103 0 0 0 0 0 0 0 0 0.7808 0.2192 0 0 0 0 0 0 0 0 0.6492 0.3508 0 0 0 0 0 0 0 0 0.5412 0.4588 0 0 0 0 0 0 0 0 0.4675 0.5261 0.0064 0 0 0 0 0 0 0 0.4026 0.5603 0.0371 0 0 0 0 0 0 0 0.3513 0.5569 0.09180000000000001 0 0 0 0 0 0 0 0.3093 0.523 0.1677 0 0 0 0 0 0 0 0.9754 0.0246 0 0 0 0 0 0 0 0 0.6875 0.3125 0 0 0 0 0 0 0 0 0.317 0.6830000000000001 0 0 0 0 0 0 0 0 0.0905 0.861 0.0485 0 0 0 0 0 0 0 0.0097 0.7338 0.2565 0 0 0 0 0 0 0 0 0.4563 0.5405 0.0032 0 0 0 0 0 0 0 0.2338 0.6814 0.0848 0 0 0 0 0 0 0 0.1099 0.6244 0.2657 0 0 0 0 0 0 0 0.0365 0.5026 0.4435 0.0174 0 0 0 0 0 0 0.0044 0.3636 0.507 0.125 0 0 0 0 0 0.8874 0.1126 0 0 0 0 0 0 0 0 0.319 0.681 0 0 0 0 0 0 0 0 0.0098 0.8558 0.1344 0 0 0 0 0 0 0 0 0.3328 0.6627999999999999 0.0044 0 0 0 0 0 0 0 0.0403 0.7756 0.1841 0 0 0 0 0 0 0 0 0.3767 0.6035 0.0198 0 0 0 0 0 0 0 0.08459999999999999 0.6767 0.2387 0 0 0 0 0 0 0 0.0028 0.4007 0.549 0.0475 0 0 0 0 0 0 0 0.1385 0.5639 0.296 0.0016 0 0 0 0 0 0 0.0178 0.4039 0.4911 0.0872 0 0 0 0.7699 0.2301 0 0 0 0 0 0 0 0 0.08740000000000001 0.8712 0.0414 0 0 0 0 0 0 0 0 0.3409 0.6561 0.003 0 0 0 0 0 0 0 0.0054 0.6461 0.3485 0 0 0 0 0 0 0 0 0.0856 0.7781 0.1363 0 0 0 0 0 0 0 0 0.2946 0.6545 0.0509 0 0 0 0 0 0 0 0.0182 0.5175 0.4529 0.0114 0 0 0 0 0 0 0 0.1172 0.6091 0.2721 0.0016 0 0 0 0 0 0 0.0017 0.2989 0.5535 0.1459 0 0 0 0 0 0 0 0.0406 0.4283 0.5311 0 0 0.6606 0.3394 0 0 0 0 0 0 0 0 0.0116 0.736 0.2524 0 0 0 0 0 0 0 0 0.0395 0.7792 0.1813 0 0 0 0 0 0 0 0 0.0839 0.7717000000000001 0.1444 0 0 0 0 0 0 0 0 0.1546 0.726 0.1194 0 0 0 0 0 0 0 0 0.2383 0.6686 0.0931 0 0 0 0 0 0 0 0.002 0.3294 0.5878 0.0808 0 0 0 0 0 0 0 0.0123 0.3883 0.5994 0 0 0 0 0 0 0 0 0.0344 0.9656 0 0 0 0 0 0 0 0 0 1 0 0 0.5407999999999999 0.4592 0 0 0 0 0 0 0 0 0 0.4572 0.5403 0.0025 0 0 0 0 0 0 0 0 0.3767 0.6032999999999999 0.02 0 0 0 0 0 0 0 0 0.3011 0.6498 0.0491 0 0 0 0 0 0 0 0 0.2426 0.6712 0.0862 0 0 0 0 0 0 0 0 0.2016 0.649 0.1494 0 0 0 0 0 0 0 0 0.1663 0.8337 0 0 0 0 0 0 0 0 0 1 0 0 0 0 0 0 0 0 0 1 0 0 0 0 0 0 0 0 0 1 0 0 0.4661 0.5285 0.0054 0 0 0 0 0 0 0 0 0.2399 0.6803 0.0798 0 0 0 0 0 0 0 0 0.08749999999999999 0.6667 0.2458 0 0 0 0 0 0 0 0 0.0179 0.5246 0.4455 0.012 0 0 0 0 0 0 0 0.002 0.3231 0.5972 0.07770000000000001 0 0 0 0 0 0 0 0 0.1643 0.8357 0 0 0 0 0 0 0 0 0 1 0 0 0 0 0 0 0 0 0 1 0 0 0 0 0 0 0 0 0 1 0 0 0 0 0 0 0 0 0 1 0 0 0.3986 0.5637 0.0377 0 0 0 0 0 0 0 0 0.1057 0.6218 0.2725 0 0 0 0 0 0 0 0 0.003 0.3986 0.5486 0.0498 0 0 0 0 0 0 0 0 0.1274 0.6066 0.2647 0.0013 0 0 0 0 0 0 0 0.0129 0.3865 0.6006 0 0 0 0 0 0 0 0 0 1 0 0 0 0 0 0 0 0 0 1 0 0 0 0 0 0 0 0 0 1 0 0 0 0 0 0 0 0 0 1 0 0 0 0 0 0 0 0 0 1 0 0 0.351 0.5582 0.09080000000000001 0 0 0 0 0 0 0 0 0.0358 0.4995 0.4468 0.0179 0 0 0 0 0 0 0 0 0.1401 0.5719 0.2863 0.0017 0 0 0 0 0 0 0 0.0013 0.304 0.5526 0.1421 0 0 0 0 0 0 0 0 0.0314 0.9686 0 0 0 0 0 0 0 0 0 1 0 0 0 0 0 0 0 0 0 1 0 0 0 0 0 0 0 0 0 1 0 0 0 0 0 0 0 0 0 1 0 0 0 0 0 0 0 0 0 1 0 0 0.3128 0.5286999999999999 0.1585 0 0 0 0 0 0 0 0 0.0046 0.3621 0.5037 0.1296 0 0 0 0 0 0 0 0 0.0155 0.4062 0.4873 0.091 0 0 0 0 0 0 0 0 0.0413 0.4429 0.5158 0 0 0 0 0 0 0 0 0 1 0 0 0 0 0 0 0 0 0 1 0 0 0 0 0 0 0 0 0 1 0 0 0 0 0 0 0 0 0 1 0 0 0 0 0 0 0 0 0 1 0 0 0 0 0 0 0 0 0 1 0 0 0.1816 0.8184 0 0 0 0 0 0 0 0 0.0813 0.9187 0 0 0 0 0 0 0 0 0.0529 0.9302 0.0169 0 0 0 0 0 0 0 0.0328 0.8866000000000001 0.0806 0 0 0 0 0 0 0 0.0274 0.7979000000000001 0.1747 0 0 0 0 0 0 0 0.0221 0.7000999999999999 0.2778 0 0 0 0 0 0 0 0.0211 0.6048 0.3741 0 0 0 0 0 0 0 0.0175 0.5191 0.4569 0.0065 0 0 0 0 0 0 0.0137 0.4542 0.4975 0.0346 0 0 0 0 0 0 0.0135 0.4134 0.4935 0.0796 0 0 0 0 0 0 0.0794 0.9206 0 0 0 0 0 0 0 0 0 0.9049 0.0951 0 0 0 0 0 0 0 0 0.5588 0.4412 0 0 0 0 0 0 0 0 0.2307 0.7649 0.0044 0 0 0 0 0 0 0 0.06909999999999999 0.8138 0.1171 0 0 0 0 0 0 0 0.008 0.6331 0.3589 0 0 0 0 0 0 0 0 0.3846 0.592 0.0234 0 0 0 0 0 0 0 0.2145 0.6324 0.1531 0 0 0 0 0 0 0 0.0979 0.5531 0.3456 0.0034 0 0 0 0 0 0 0.0331 0.4411 0.4672 0.0586 0 0 0 0 0.0473 0.9385 0.0142 0 0 0 0 0 0 0 0 0.5622 0.4378 0 0 0 0 0 0 0 0 0.0775 0.8837 0.0388 0 0 0 0 0 0 0 0 0.5628 0.4372 0 0 0 0 0 0 0 0 0.1251 0.7968 0.0781 0 0 0 0 0 0 0 0.0045 0.5429 0.4505 0.0021 0 0 0 0 0 0 0 0.1878 0.6836 0.1286 0 0 0 0 0 0 0 0.0227 0.5158 0.4476 0.0139 0 0 0 0 0 0 0 0.2389 0.5794 0.1817 0 0 0 0 0 0 0 0.0563 0.4695 0.4367 0.0375 0 0 0.0347 0.8877 0.0776 0 0 0 0 0 0 0 0 0.2372 0.7576000000000001 0.0052 0 0 0 0 0 0 0 0 0.5606 0.4394 0 0 0 0 0 0 0 0 0.0373 0.7859 0.1768 0 0 0 0 0 0 0 0 0.1988 0.7426 0.0586 0 0 0 0 0 0 0 0.0022 0.4684 0.5135999999999999 0.0158 0 0 0 0 0 0 0 0.0581 0.6207 0.3192 0.002 0 0 0 0 0 0 0 0.221 0.6143999999999999 0.1646 0 0 0 0 0 0 0 0.0132 0.4022 0.5846 0 0 0 0 0 0 0 0 0.09 0.91 0 0 0.0288 0.7995 0.1717 0 0 0 0 0 0 0 0 0.06569999999999999 0.8227 0.1116 0 0 0 0 0 0 0 0 0.1304 0.7891 0.0805 0 0 0 0 0 0 0 0 0.2007 0.7383 0.061 0 0 0 0 0 0 0 0 0.2958 0.6563 0.0479 0 0 0 0 0 0 0 0.0017 0.3898 0.5708 0.0377 0 0 0 0 0 0 0 0.0129 0.4609 0.5262 0 0 0 0 0 0 0 0 0.038 0.962 0 0 0 0 0 0 0 0 0 1 0 0 0 0 0 0 0 0 0 1 0 0 0.0254 0.6977 0.2769 0 0 0 0 0 0 0 0 0.0077 0.6279 0.3644 0 0 0 0 0 0 0 0 0.0032 0.5411 0.4537 0.002 0 0 0 0 0 0 0 0.0025 0.4613 0.5211 0.0151 0 0 0 0 0 0 0 0.0018 0.3877 0.5753 0.0352 0 0 0 0 0 0 0 0.0018 0.3189 0.6793 0 0 0 0 0 0 0 0 0.0019 0.9981 0 0 0 0 0 0 0 0 0 1 0 0 0 0 0 0 0 0 0 1 0 0 0 0 0 0 0 0 0 1 0 0 0.0201 0.5983000000000001 0.3816 0 0 0 0 0 0 0 0 0 0.3915 0.5831 0.0254 0 0 0 0 0 0 0 0 0.1883 0.6796 0.1321 0 0 0 0 0 0 0 0 0.0641 0.6291 0.305 0.0018 0 0 0 0 0 0 0 0.0146 0.4552 0.5302 0 0 0 0 0 0 0 0 0.0018 0.9982 0 0 0 0 0 0 0 0 0 1 0 0 0 0 0 0 0 0 0 1 0 0 0 0 0 0 0 0 0 1 0 0 0 0 0 0 0 0 0 1 0 0 0.0149 0.5151 0.4641 0.0059 0 0 0 0 0 0 0 0 0.2065 0.6402 0.1533 0 0 0 0 0 0 0 0 0.0248 0.5153 0.4439 0.016 0 0 0 0 0 0 0 0 0.2184 0.6159 0.1657 0 0 0 0 0 0 0 0 0.0338 0.9661999999999999 0 0 0 0 0 0 0 0 0 1 0 0 0 0 0 0 0 0 0 1 0 0 0 0 0 0 0 0 0 1 0 0 0 0 0 0 0 0 0 1 0 0 0 0 0 0 0 0 0 1 0 0 0.016 0.4566 0.4931 0.0343 0 0 0 0 0 0 0 0 0.0936 0.5551 0.3485 0.0028 0 0 0 0 0 0 0 0 0.2403 0.5681 0.1916 0 0 0 0 0 0 0 0 0.0134 0.4002 0.5864 0 0 0 0 0 0 0 0 0 1 0 0 0 0 0 0 0 0 0 1 0 0 0 0 0 0 0 0 0 1 0 0 0 0 0 0 0 0 0 1 0 0 0 0 0 0 0 0 0 1 0 0 0 0 0 0 0 0 0 1 0 0 0.0138 0.4143 0.4899 0.082 0 0 0 0 0 0 0 0 0.0282 0.4447 0.4707 0.0564 0 0 0 0 0 0 0 0 0.0584 0.4662 0.4337 0.0417 0 0 0 0 0 0 0 0 0.0935 0.9065 0 0 0 0 0 0 0 0 0 1 0 0 0 0 0 0 0 0 0 1 0 0 0 0 0 0 0 0 0 1 0 0 0 0 0 0 0 0 0 1 0 0 0 0 0 0 0 0 0 1 0 0 0 0 0 0 0 0 0 1 0 0 0 0.4365 0.5635 0 0 0 0 0 0 0 0 0.3107 0.6893 0 0 0 0 0 0 0 0 0.2009 0.7991 0 0 0 0 0 0 0 0 0.1468 0.844 0.0092 0 0 0 0 0 0 0 0.1117 0.8207 0.06759999999999999 0 0 0 0 0 0 0 0.0873 0.7694 0.1433 0 0 0 0 0 0 0 0.08119999999999999 0.6836 0.2352 0 0 0 0 0 0 0 0.066 0.6045 0.3295 0 0 0 0 0 0 0 0.0598 0.5352 0.4008 0.0042 0 0 0 0 0 0 0.0532 0.4719 0.4439 0.031 0 0 0 0 0 0 0.3163 0.6837 0 0 0 0 0 0 0 0 0.0358 0.9540999999999999 0.0101 0 0 0 0 0 0 0 0 0.7953 0.2047 0 0 0 0 0 0 0 0 0.4269 0.5731000000000001 0 0 0 0 0 0 0 0 0.1766 0.7903 0.0331 0 0 0 0 0 0 0 0.0519 0.7408 0.2073 0 0 0 0 0 0 0 0.0064 0.5309 0.4585 0.0042 0 0 0 0 0 0 0 0.3407 0.5898 0.06950000000000001 0 0 0 0 0 0 0 0.1821 0.5796 0.2383 0 0 0 0 0 0 0 0.0828 0.5043 0.3939 0.019 0 0 0 0 0.2031 0.7969000000000001 0 0 0 0 0 0 0 0 0 0.7915 0.2085 0 0 0 0 0 0 0 0 0.2243 0.772 0.0037 0 0 0 0 0 0 0 0.0083 0.7529 0.2388 0 0 0 0 0 0 0 0 0.2644 0.7141999999999999 0.0214 0 0 0 0 0 0 0 0.0312 0.6815 0.2873 0 0 0 0 0 0 0 0 0.3203 0.6232 0.0565 0 0 0 0 0 0 0 0.0716 0.5975 0.3291 0.0018 0 0 0 0 0 0 0.0017 0.3599 0.5392 0.0992 0 0 0 0 0 0 0 0.1234 0.5123 0.3643 0 0 0 0.1426 0.8484 0.008999999999999999 0 0 0 0 0 0 0 0 0.4395 0.5605 0 0 0 0 0 0 0 0 0.0065 0.747 0.2465 0 0 0 0 0 0 0 0 0.117 0.8087 0.0743 0 0 0 0 0 0 0 0 0.368 0.6162 0.0158 0 0 0 0 0 0 0 0.0239 0.6012 0.3735 0.0014 0 0 0 0 0 0 0 0.1333 0.6784 0.1883 0 0 0 0 0 0 0 0.002 0.3445 0.6535 0 0 0 0 0 0 0 0 0.0453 0.9547 0 0 0 0 0 0 0 0 0 1 0 0 0 0.1099 0.8236 0.0665 0 0 0 0 0 0 0 0 0.173 0.7927 0.0343 0 0 0 0 0 0 0 0 0.2669 0.7104 0.0227 0 0 0 0 0 0 0 0 0.365 0.618 0.017 0 0 0 0 0 0 0 0.003 0.47 0.5148 0.0122 0 0 0 0 0 0 0 0.0161 0.5253 0.4586 0 0 0 0 0 0 0 0 0.0481 0.9519 0 0 0 0 0 0 0 0 0 1 0 0 0 0 0 0 0 0 0 1 0 0 0 0 0 0 0 0 0 1 0 0 0 0.0896 0.7702 0.1402 0 0 0 0 0 0 0 0 0.055 0.7423 0.2027 0 0 0 0 0 0 0 0 0.0327 0.6826 0.2847 0 0 0 0 0 0 0 0 0.021 0.6122 0.3652 0.0016 0 0 0 0 0 0 0 0.0181 0.5224 0.4595 0 0 0 0 0 0 0 0 0.014 0.986 0 0 0 0 0 0 0 0 0 1 0 0 0 0 0 0 0 0 0 1 0 0 0 0 0 0 0 0 0 1 0 0 0 0 0 0 0 0 0 1 0 0 0 0.0815 0.6817 0.2368 0 0 0 0 0 0 0 0 0.007 0.5321 0.4582 0.0027 0 0 0 0 0 0 0 0 0.3148 0.6279 0.0573 0 0 0 0 0 0 0 0 0.1421 0.6603 0.1976 0 0 0 0 0 0 0 0 0.0433 0.9567 0 0 0 0 0 0 0 0 0 1 0 0 0 0 0 0 0 0 0 1 0 0 0 0 0 0 0 0 0 1 0 0 0 0 0 0 0 0 0 1 0 0 0 0 0 0 0 0 0 1 0 0 0 0.06519999999999999 0.6027 0.3321 0 0 0 0 0 0 0 0 0 0.3293 0.5964 0.0743 0 0 0 0 0 0 0 0 0.07530000000000001 0.5836 0.34 0.0011 0 0 0 0 0 0 0 0.0019 0.3363 0.6618000000000001 0 0 0 0 0 0 0 0 0 1 0 0 0 0 0 0 0 0 0 1 0 0 0 0 0 0 0 0 0 1 0 0 0 0 0 0 0 0 0 1 0 0 0 0 0 0 0 0 0 1 0 0 0 0 0 0 0 0 0 1 0 0 0 0.0562 0.5296999999999999 0.4092 0.0049 0 0 0 0 0 0 0 0 0.18 0.5788 0.2412 0 0 0 0 0 0 0 0 0.0022 0.3557 0.5397 0.1024 0 0 0 0 0 0 0 0 0.0452 0.9548 0 0 0 0 0 0 0 0 0 1 0 0 0 0 0 0 0 0 0 1 0 0 0 0 0 0 0 0 0 1 0 0 0 0 0 0 0 0 0 1 0 0 0 0 0 0 0 0 0 1 0 0 0 0 0 0 0 0 0 1 0 0 0 0.0545 0.4651 0.4507 0.0297 0 0 0 0 0 0 0 0 0.0843 0.4988 0.4005 0.0164 0 0 0 0 0 0 0 0 0.1197 0.5151 0.3652 0 0 0 0 0 0 0 0 0 1 0 0 0 0 0 0 0 0 0 1 0 0 0 0 0 0 0 0 0 1 0 0 0 0 0 0 0 0 0 1 0 0 0 0 0 0 0 0 0 1 0 0 0 0 0 0 0 0 0 1 0 0 0 0 0 0 0 0 0 1 0 0 0 0 0.6888 0.3112 0 0 0 0 0 0 0 0 0.5621 0.4379 0 0 0 0 0 0 0 0 0.4446 0.5554 0 0 0 0 0 0 0 0 0.33 0.67 0 0 0 0 0 0 0 0 0.2573 0.7325 0.0102 0 0 0 0 0 0 0 0.2071 0.739 0.0539 0 0 0 0 0 0 0 0.1657 0.7129 0.1214 0 0 0 0 0 0 0 0.1516 0.6394 0.209 0 0 0 0 0 0 0 0.1345 0.5683 0.2972 0 0 0 0 0 0 0 0.121 0.5161 0.3592 0.0037 0 0 0 0 0 0 0.5679 0.4321 0 0 0 0 0 0 0 0 0.1988 0.8012 0 0 0 0 0 0 0 0 0.0173 0.9209000000000001 0.0618 0 0 0 0 0 0 0 0 0.677 0.323 0 0 0 0 0 0 0 0 0.3514 0.6437 0.0049 0 0 0 0 0 0 0 0.144 0.7613 0.09470000000000001 0 0 0 0 0 0 0 0.0426 0.655 0.3024 0 0 0 0 0 0 0 0.0061 0.4681 0.5051 0.0207 0 0 0 0 0 0 0 0.2976 0.5653 0.1371 0 0 0 0 0 0 0 0.1633 0.5276 0.3063 0.0028 0 0 0 0 0.4407 0.5593 0 0 0 0 0 0 0 0 0.018 0.9217 0.0603 0 0 0 0 0 0 0 0 0.4375 0.5625 0 0 0 0 0 0 0 0 0.0503 0.8494 0.1003 0 0 0 0 0 0 0 0 0.4637 0.5337 0.0026 0 0 0 0 0 0 0 0.1045 0.7379 0.1576 0 0 0 0 0 0 0 0.0044 0.4678 0.5138 0.014 0 0 0 0 0 0 0 0.1528 0.6272 0.22 0 0 0 0 0 0 0 0.021 0.449 0.53 0 0 0 0 0 0 0 0 0.214 0.786 0 0 0 0 0.3259 0.6741 0 0 0 0 0 0 0 0 0 0.6758999999999999 0.3241 0 0 0 0 0 0 0 0 0.0492 0.85 0.1008 0 0 0 0 0 0 0 0 0.2591 0.7178 0.0231 0 0 0 0 0 0 0 0.0026 0.5468 0.4483 0.0023 0 0 0 0 0 0 0 0.074 0.7030999999999999 0.2229 0 0 0 0 0 0 0 0 0.2513 0.7487 0 0 0 0 0 0 0 0 0.0167 0.9833 0 0 0 0 0 0 0 0 0 1 0 0 0 0 0 0 0 0 0 1 0 0 0 0 0.245 0.7455000000000001 0.0095 0 0 0 0 0 0 0 0 0.3477 0.6479 0.0044 0 0 0 0 0 0 0 0 0.455 0.542 0.003 0 0 0 0 0 0 0 0.0037 0.5498 0.4442 0.0023 0 0 0 0 0 0 0 0.0174 0.617 0.3656 0 0 0 0 0 0 0 0 0.0501 0.9499 0 0 0 0 0 0 0 0 0 1 0 0 0 0 0 0 0 0 0 1 0 0 0 0 0 0 0 0 0 1 0 0 0 0 0 0 0 0 0 1 0 0 0 0 0.2099 0.739 0.0511 0 0 0 0 0 0 0 0 0.138 0.7638 0.0982 0 0 0 0 0 0 0 0 0.0951 0.7458 0.1591 0 0 0 0 0 0 0 0 0.06909999999999999 0.7074 0.2235 0 0 0 0 0 0 0 0 0.0575 0.9425 0 0 0 0 0 0 0 0 0 1 0 0 0 0 0 0 0 0 0 1 0 0 0 0 0 0 0 0 0 1 0 0 0 0 0 0 0 0 0 1 0 0 0 0 0 0 0 0 0 1 0 0 0 0 0.1723 0.7093 0.1184 0 0 0 0 0 0 0 0 0.0452 0.6485 0.3063 0 0 0 0 0 0 0 0 0.0038 0.4552 0.5234 0.0176 0 0 0 0 0 0 0 0 0.257 0.743 0 0 0 0 0 0 0 0 0 1 0 0 0 0 0 0 0 0 0 1 0 0 0 0 0 0 0 0 0 1 0 0 0 0 0 0 0 0 0 1 0 0 0 0 0 0 0 0 0 1 0 0 0 0 0 0 0 0 0 1 0 0 0 0 0.1533 0.6452 0.2015 0 0 0 0 0 0 0 0 0.0056 0.4709 0.5007 0.0228 0 0 0 0 0 0 0 0 0.1628 0.6217 0.2155 0 0 0 0 0 0 0 0 0.0183 0.9817 0 0 0 0 0 0 0 0 0 1 0 0 0 0 0 0 0 0 0 1 0 0 0 0 0 0 0 0 0 1 0 0 0 0 0 0 0 0 0 1 0 0 0 0 0 0 0 0 0 1 0 0 0 0 0 0 0 0 0 1 0 0 0 0 0.1371 0.5618 0.3011 0 0 0 0 0 0 0 0 0 0.2958 0.573 0.1312 0 0 0 0 0 0 0 0 0.0199 0.4556 0.5245 0 0 0 0 0 0 0 0 0 1 0 0 0 0 0 0 0 0 0 1 0 0 0 0 0 0 0 0 0 1 0 0 0 0 0 0 0 0 0 1 0 0 0 0 0 0 0 0 0 1 0 0 0 0 0 0 0 0 0 1 0 0 0 0 0 0 0 0 0 1 0 0 0 0 0.119 0.509 0.3673 0.0047 0 0 0 0 0 0 0 0 0.1666 0.5244 0.3067 0.0023 0 0 0 0 0 0 0 0 0.2154 0.7846 0 0 0 0 0 0 0 0 0 1 0 0 0 0 0 0 0 0 0 1 0 0 0 0 0 0 0 0 0 1 0 0 0 0 0 0 0 0 0 1 0 0 0 0 0 0 0 0 0 1 0 0 0 0 0 0 0 0 0 1 0 0 0 0 0 0 0 0 0 1 0 0 0 0 0 0.9375 0.0625 0 0 0 0 0 0 0 0 0.8074 0.1926 0 0 0 0 0 0 0 0 0.6888 0.3112 0 0 0 0 0 0 0 0 0.5627 0.4373 0 0 0 0 0 0 0 0 0.4437 0.5563 0 0 0 0 0 0 0 0 0.3672 0.6253 0.0075 0 0 0 0 0 0 0 0.2994 0.6582 0.0424 0 0 0 0 0 0 0 0.2698 0.6235000000000001 0.1067 0 0 0 0 0 0 0 0.2336 0.5859 0.1805 0 0 0 0 0 0 0 0.2162 0.5255 0.2583 0 0 0 0 0 0 0 0.8145 0.1855 0 0 0 0 0 0 0 0 0.4412 0.5588 0 0 0 0 0 0 0 0 0.1186 0.8742 0.0072 0 0 0 0 0 0 0 0.0125 0.8352000000000001 0.1523 0 0 0 0 0 0 0 0 0.5621 0.4379 0 0 0 0 0 0 0 0 0.2867 0.6863 0.027 0 0 0 0 0 0 0 0.1268 0.7007 0.1725 0 0 0 0 0 0 0 0.0377 0.5649999999999999 0.3945 0.0028 0 0 0 0 0 0 0.0056 0.4094 0.5224 0.0626 0 0 0 0 0 0 0 0.2626 0.532 0.2054 0 0 0 0 0 0.6844 0.3156 0 0 0 0 0 0 0 0 0.1276 0.8649 0.0075 0 0 0 0 0 0 0 0 0.6825 0.3175 0 0 0 0 0 0 0 0 0.1608 0.8088 0.0304 0 0 0 0 0 0 0 0.0051 0.6546 0.3403 0 0 0 0 0 0 0 0 0.2213 0.7127 0.066 0 0 0 0 0 0 0 0.0273 0.5884 0.3843 0 0 0 0 0 0 0 0 0.2781 0.7219 0 0 0 0 0 0 0 0 0.0612 0.9388 0 0 0 0 0 0 0 0 0.0023 0.9977 0 0 0 0 0 0.556 0.444 0 0 0 0 0 0 0 0 0.013 0.8387 0.1483 0 0 0 0 0 0 0 0 0.1671 0.8041 0.0288 0 0 0 0 0 0 0 0 0.4512 0.5458 0.003 0 0 0 0 0 0 0 0.0267 0.6968 0.2765 0 0 0 0 0 0 0 0 0.1628 0.8372000000000001 0 0 0 0 0 0 0 0 0.002 0.998 0 0 0 0 0 0 0 0 0 1 0 0 0 0 0 0 0 0 0 1 0 0 0 0 0 0 0 0 0 1 0 0 0 0 0 0.4416 0.5584 0 0 0 0 0 0 0 0 0 0.5615 0.4385 0 0 0 0 0 0 0 0 0.0054 0.6499 0.3447 0 0 0 0 0 0 0 0 0.0265 0.6894 0.2841 0 0 0 0 0 0 0 0 0.0696 0.9304 0 0 0 0 0 0 0 0 0 1 0 0 0 0 0 0 0 0 0 1 0 0 0 0 0 0 0 0 0 1 0 0 0 0 0 0 0 0 0 1 0 0 0 0 0 0 0 0 0 1 0 0 0 0 0 0.3644 0.6289 0.0067 0 0 0 0 0 0 0 0 0.2941 0.6767 0.0292 0 0 0 0 0 0 0 0 0.2219 0.7174 0.0607 0 0 0 0 0 0 0 0 0.1724 0.8276 0 0 0 0 0 0 0 0 0 1 0 0 0 0 0 0 0 0 0 1 0 0 0 0 0 0 0 0 0 1 0 0 0 0 0 0 0 0 0 1 0 0 0 0 0 0 0 0 0 1 0 0 0 0 0 0 0 0 0 1 0 0 0 0 0 0.3083 0.6428 0.0489 0 0 0 0 0 0 0 0 0.1219 0.699 0.1791 0 0 0 0 0 0 0 0 0.0268 0.5911999999999999 0.382 0 0 0 0 0 0 0 0 0.001 0.999 0 0 0 0 0 0 0 0 0 1 0 0 0 0 0 0 0 0 0 1 0 0 0 0 0 0 0 0 0 1 0 0 0 0 0 0 0 0 0 1 0 0 0 0 0 0 0 0 0 1 0 0 0 0 0 0 0 0 0 1 0 0 0 0 0 0.2679 0.6284999999999999 0.1036 0 0 0 0 0 0 0 0 0.0376 0.5620000000000001 0.3967 0.0037 0 0 0 0 0 0 0 0 0.2694 0.7306 0 0 0 0 0 0 0 0 0 1 0 0 0 0 0 0 0 0 0 1 0 0 0 0 0 0 0 0 0 1 0 0 0 0 0 0 0 0 0 1 0 0 0 0 0 0 0 0 0 1 0 0 0 0 0 0 0 0 0 1 0 0 0 0 0 0 0 0 0 1 0 0 0 0 0 0.2287 0.5841 0.1872 0 0 0 0 0 0 0 0 0.0047 0.4038 0.5254 0.06610000000000001 0 0 0 0 0 0 0 0 0.0629 0.9371 0 0 0 0 0 0 0 0 0 1 0 0 0 0 0 0 0 0 0 1 0 0 0 0 0 0 0 0 0 1 0 0 0 0 0 0 0 0 0 1 0 0 0 0 0 0 0 0 0 1 0 0 0 0 0 0 0 0 0 1 0 0 0 0 0 0 0 0 0 1 0 0 0 0 0 0.2138 0.523 0.2632 0 0 0 0 0 0 0 0 0 0.2651 0.523 0.2119 0 0 0 0 0 0 0 0 0.003 0.997 0 0 0 0 0 0 0 0 0 1 0 0 0 0 0 0 0 0 0 1 0 0 0 0 0 0 0 0 0 1 0 0 0 0 0 0 0 0 0 1 0 0 0 0 0 0 0 0 0 1 0 0 0 0 0 0 0 0 0 1 0 0 0 0 0 0 0 0 0 1 0 0 0 0 0 0 1 0 0 0 0 0 0 0 0 0 0.9765 0.0235 0 0 0 0 0 0 0 0 0.8855 0.1145 0 0 0 0 0 0 0 0 0.7796999999999999 0.2203 0 0 0 0 0 0 0 0 0.6604 0.3396 0 0 0 0 0 0 0 0 0.55 0.45 0 0 0 0 0 0 0 0 0.4581 0.5354 0.0065 0 0 0 0 0 0 0 0.3968 0.5629 0.0403 0 0 0 0 0 0 0 0.3622 0.5427 0.0951 0 0 0 0 0 0 0 0.3244 0.5202 0.1554 0 0 0 0 0 0 0 0.9754 0.0246 0 0 0 0 0 0 0 0 0.6866 0.3134 0 0 0 0 0 0 0 0 0.3122 0.6878 0 0 0 0 0 0 0 0 0.0882 0.8663 0.0455 0 0 0 0 0 0 0 0.008699999999999999 0.7371 0.2542 0 0 0 0 0 0 0 0 0.4697 0.5274 0.0029 0 0 0 0 0 0 0 0.2411 0.6751 0.0838 0 0 0 0 0 0 0 0.1035 0.6315 0.265 0 0 0 0 0 0 0 0.0335 0.4922 0.4743 0 0 0 0 0 0 0 0.0051 0.3687 0.6262 0 0 0 0 0 0 0.8842 0.1158 0 0 0 0 0 0 0 0 0.3227 0.6773 0 0 0 0 0 0 0 0 0.0105 0.8526 0.1369 0 0 0 0 0 0 0 0 0.3455 0.65 0.0045 0 0 0 0 0 0 0 0.0424 0.7659 0.1917 0 0 0 0 0 0 0 0 0.3697 0.6303 0 0 0 0 0 0 0 0 0.08599999999999999 0.914 0 0 0 0 0 0 0 0 0.0026 0.9974 0 0 0 0 0 0 0 0 0 1 0 0 0 0 0 0 0 0 0 1 0 0 0 0 0 0 0.7717000000000001 0.2283 0 0 0 0 0 0 0 0 0.08550000000000001 0.8725000000000001 0.042 0 0 0 0 0 0 0 0 0.3358 0.6603 0.0039 0 0 0 0 0 0 0 0.0046 0.6445 0.3509 0 0 0 0 0 0 0 0 0.08649999999999999 0.9135 0 0 0 0 0 0 0 0 0 1 0 0 0 0 0 0 0 0 0 1 0 0 0 0 0 0 0 0 0 1 0 0 0 0 0 0 0 0 0 1 0 0 0 0 0 0 0 0 0 1 0 0 0 0 0 0 0.6704 0.3296 0 0 0 0 0 0 0 0 0.0104 0.7366 0.253 0 0 0 0 0 0 0 0 0.0418 0.7713 0.1869 0 0 0 0 0 0 0 0 0.08799999999999999 0.912 0 0 0 0 0 0 0 0 0 1 0 0 0 0 0 0 0 0 0 1 0 0 0 0 0 0 0 0 0 1 0 0 0 0 0 0 0 0 0 1 0 0 0 0 0 0 0 0 0 1 0 0 0 0 0 0 0 0 0 1 0 0 0 0 0 0 0.5491 0.4509 0 0 0 0 0 0 0 0 0 0.4561 0.5409 0.003 0 0 0 0 0 0 0 0 0.3763 0.6237 0 0 0 0 0 0 0 0 0 1 0 0 0 0 0 0 0 0 0 1 0 0 0 0 0 0 0 0 0 1 0 0 0 0 0 0 0 0 0 1 0 0 0 0 0 0 0 0 0 1 0 0 0 0 0 0 0 0 0 1 0 0 0 0 0 0 0 0 0 1 0 0 0 0 0 0 0.4636 0.5306999999999999 0.0057 0 0 0 0 0 0 0 0 0.2348 0.6903 0.07489999999999999 0 0 0 0 0 0 0 0 0.0843 0.9157 0 0 0 0 0 0 0 0 0 1 0 0 0 0 0 0 0 0 0 1 0 0 0 0 0 0 0 0 0 1 0 0 0 0 0 0 0 0 0 1 0 0 0 0 0 0 0 0 0 1 0 0 0 0 0 0 0 0 0 1 0 0 0 0 0 0 0 0 0 1 0 0 0 0 0 0 0.4148 0.5492 0.036 0 0 0 0 0 0 0 0 0.1081 0.6262 0.2657 0 0 0 0 0 0 0 0 0.0029 0.9971 0 0 0 0 0 0 0 0 0 1 0 0 0 0 0 0 0 0 0 1 0 0 0 0 0 0 0 0 0 1 0 0 0 0 0 0 0 0 0 1 0 0 0 0 0 0 0 0 0 1 0 0 0 0 0 0 0 0 0 1 0 0 0 0 0 0 0 0 0 1 0 0 0 0 0 0 0.351 0.5627 0.0863 0 0 0 0 0 0 0 0 0.0356 0.4984 0.466 0 0 0 0 0 0 0 0 0 1 0 0 0 0 0 0 0 0 0 1 0 0 0 0 0 0 0 0 0 1 0 0 0 0 0 0 0 0 0 1 0 0 0 0 0 0 0 0 0 1 0 0 0 0 0 0 0 0 0 1 0 0 0 0 0 0 0 0 0 1 0 0 0 0 0 0 0 0 0 1 0 0 0 0 0 0 0.3175 0.5216 0.1609 0 0 0 0 0 0 0 0 0.0056 0.3684 0.626 0 0 0 0 0 0 0 0 0 1 0 0 0 0 0 0 0 0 0 1 0 0 0 0 0 0 0 0 0 1 0 0 0 0 0 0 0 0 0 1 0 0 0 0 0 0 0 0 0 1 0 0 0 0 0 0 0 0 0 1 0 0 0 0 0 0 0 0 0 1 0 0 0 0 0 0 0 0 0 1 0 0 0 0 0 0 0.1836 0.8164 0 0 0 0 0 0 0 0 0.0883 0.9117 0 0 0 0 0 0 0 0 0.0501 0.9341 0.0158 0 0 0 0 0 0 0 0.0345 0.8799 0.0856 0 0 0 0 0 0 0 0.0293 0.7929 0.1778 0 0 0 0 0 0 0 0.0233 0.6964 0.2803 0 0 0 0 0 0 0 0.0187 0.6014 0.3799 0 0 0 0 0 0 0 0.0148 0.5252 0.4545 0.0055 0 0 0 0 0 0 0.0152 0.4529 0.4977 0.0342 0 0 0 0 0 0 0.0127 0.4106 0.4938 0.0829 0 0 0 0 0 0 0.09030000000000001 0.9097 0 0 0 0 0 0 0 0 0 0.9033 0.09669999999999999 0 0 0 0 0 0 0 0 0.5571 0.4429 0 0 0 0 0 0 0 0 0.2324 0.7627 0.0049 0 0 0 0 0 0 0 0.0648 0.8158 0.1194 0 0 0 0 0 0 0 0.0081 0.6328 0.3591 0 0 0 0 0 0 0 0 0.3851 0.6149 0 0 0 0 0 0 0 0 0.2074 0.7926 0 0 0 0 0 0 0 0 0.09180000000000001 0.9082 0 0 0 0 0 0 0 0 0.0308 0.9692 0 0 0 0 0 0 0.0522 0.9338 0.014 0 0 0 0 0 0 0 0 0.5656 0.4344 0 0 0 0 0 0 0 0 0.0738 0.8869 0.0393 0 0 0 0 0 0 0 0 0.5638 0.4362 0 0 0 0 0 0 0 0 0.1221 0.8779 0 0 0 0 0 0 0 0 0.004 0.996 0 0 0 0 0 0 0 0 0 1 0 0 0 0 0 0 0 0 0 1 0 0 0 0 0 0 0 0 0 1 0 0 0 0 0 0 0 0 0 1 0 0 0 0 0 0 0.0349 0.8834 0.08169999999999999 0 0 0 0 0 0 0 0 0.2274 0.7668 0.0058 0 0 0 0 0 0 0 0 0.5674 0.4326 0 0 0 0 0 0 0 0 0.0327 0.9673 0 0 0 0 0 0 0 0 0 1 0 0 0 0 0 0 0 0 0 1 0 0 0 0 0 0 0 0 0 1 0 0 0 0 0 0 0 0 0 1 0 0 0 0 0 0 0 0 0 1 0 0 0 0 0 0 0 0 0 1 0 0 0 0 0 0 0.0304 0.7915 0.1781 0 0 0 0 0 0 0 0 0.0678 0.8198 0.1124 0 0 0 0 0 0 0 0 0.1234 0.8766 0 0 0 0 0 0 0 0 0 1 0 0 0 0 0 0 0 0 0 1 0 0 0 0 0 0 0 0 0 1 0 0 0 0 0 0 0 0 0 1 0 0 0 0 0 0 0 0 0 1 0 0 0 0 0 0 0 0 0 1 0 0 0 0 0 0 0 0 0 1 0 0 0 0 0 0 0.0251 0.6963 0.2786 0 0 0 0 0 0 0 0 0.006 0.6332 0.3608 0 0 0 0 0 0 0 0 0.0048 0.9952 0 0 0 0 0 0 0 0 0 1 0 0 0 0 0 0 0 0 0 1 0 0 0 0 0 0 0 0 0 1 0 0 0 0 0 0 0 0 0 1 0 0 0 0 0 0 0 0 0 1 0 0 0 0 0 0 0 0 0 1 0 0 0 0 0 0 0 0 0 1 0 0 0 0 0 0 0.019 0.5975 0.3835 0 0 0 0 0 0 0 0 0 0.3765 0.6235000000000001 0 0 0 0 0 0 0 0 0 1 0 0 0 0 0 0 0 0 0 1 0 0 0 0 0 0 0 0 0 1 0 0 0 0 0 0 0 0 0 1 0 0 0 0 0 0 0 0 0 1 0 0 0 0 0 0 0 0 0 1 0 0 0 0 0 0 0 0 0 1 0 0 0 0 0 0 0 0 0 1 0 0 0 0 0 0 0.0172 0.518 0.4605 0.0043 0 0 0 0 0 0 0 0 0.2107 0.7893 0 0 0 0 0 0 0 0 0 1 0 0 0 0 0 0 0 0 0 1 0 0 0 0 0 0 0 0 0 1 0 0 0 0 0 0 0 0 0 1 0 0 0 0 0 0 0 0 0 1 0 0 0 0 0 0 0 0 0 1 0 0 0 0 0 0 0 0 0 1 0 0 0 0 0 0 0 0 0 1 0 0 0 0 0 0 0.0151 0.4506 0.5008 0.0335 0 0 0 0 0 0 0 0 0.0934 0.9066 0 0 0 0 0 0 0 0 0 1 0 0 0 0 0 0 0 0 0 1 0 0 0 0 0 0 0 0 0 1 0 0 0 0 0 0 0 0 0 1 0 0 0 0 0 0 0 0 0 1 0 0 0 0 0 0 0 0 0 1 0 0 0 0 0 0 0 0 0 1 0 0 0 0 0 0 0 0 0 1 0 0 0 0 0 0 0.0129 0.4175 0.4919 0.07770000000000001 0 0 0 0 0 0 0 0 0.0286 0.9714 0 0 0 0 0 0 0 0 0 1 0 0 0 0 0 0 0 0 0 1 0 0 0 0 0 0 0 0 0 1 0 0 0 0 0 0 0 0 0 1 0 0 0 0 0 0 0 0 0 1 0 0 0 0 0 0 0 0 0 1 0 0 0 0 0 0 0 0 0 1 0 0 0 0 0 0 0 0 0 1</probabilities>
		</cpt>
		<cpt id="random_disturbance_t_1">
			<state id="State0" />
			<state id="State1" />
			<state id="State2" />
			<state id="State3" />
			<state id="State4" />
			<state id="State5" />
			<state id="State6" />
			<state id="State7" />
			<state id="State8" />
			<state id="State9" />
			<intervals>0 0.1 0.2 0.3 0.4 0.5 0.6 0.7 0.8 0.9 1</intervals>
			<probabilities>0.2646464646464646 0.2377777777777778 0.1937373737373737 0.1282828282828283 0.08949494949494949 0.04767676767676768 0.02262626262626263 0.009898989898989899 0.004242424242424243 0.001616161616161616</probabilities>
		</cpt>
		<cpt id="random_disturbance">
			<state id="State0" />
			<state id="State1" />
			<state id="State2" />
			<state id="State3" />
			<state id="State4" />
			<state id="State5" />
			<state id="State6" />
			<state id="State7" />
			<state id="State8" />
			<state id="State9" />
			<intervals>0 0.1 0.2 0.3 0.4 0.5 0.6 0.7 0.8 0.9 1</intervals>
			<parents>random_disturbance_t_1</parents>
			<probabilities>0.2645937813440321 0.2337011033099298 0.1921765295887663 0.1271815446339017 0.08365095285857573 0.05235707121364092 0.02848545636910732 0.01263791374122367 0.003811434302908726 0.001404212637913741 0.2658100782975306 0.2342903031519775 0.1949407749447902 0.1371210600281068 0.07809676771732584 0.04918691025898414 0.02348925918490263 0.01064043364786187 0.004617546677374022 0.001806866091146356 0.2585414585414585 0.2411588411588411 0.1836163836163836 0.1382617382617383 0.09110889110889112 0.04455544455544456 0.02437562437562438 0.01418581418581419 0.003396603396603397 0.0007992007992007992 0.259326477112321 0.2262552934059286 0.1964105666465013 0.1357128453317201 0.08691268400887275 0.05505142165759225 0.02298850574712644 0.01088929219600726 0.00504133897963299 0.001411574914297237 0.257979797979798 0.2305050505050505 0.1890909090909091 0.1387878787878788 0.08626262626262626 0.05313131313131313 0.02585858585858586 0.01292929292929293 0.003838383838383838 0.001616161616161616 0.2625698324022346 0.2258579409417398 0.1899441340782123 0.142657621707901 0.08719074221867518 0.04888268156424581 0.0213487629688747 0.01356743814844374 0.004988028731045491 0.002992817238627295 0.2710674157303371 0.2343499197431782 0.1803772070626003 0.1348314606741573 0.0836677367576244 0.05156500802568218 0.02548154093097913 0.01223916532905297 0.005016051364365971 0.001404494382022472 0.258526740665994 0.2320887991927346 0.191321897073663 0.1340060544904137 0.09404641775983855 0.05065590312815338 0.02522704339051463 0.01029263370332997 0.003027245206861756 0.0008072653884964682 0.27908354730397 0.2334584238593719 0.1904009480545131 0.1291724274145764 0.07663440647837251 0.04918032786885246 0.0242938968990717 0.01106063598656923 0.004345249851866483 0.002370136282836263 0.2616058975891612 0.2458657103008567 0.1821079896393704 0.1322972703725842 0.08766686590954373 0.04622434747957761 0.02689778840406455 0.01235305837816298 0.003586371787208607 0.001394700139470014</probabilities>
		</cpt>
		<cpt id="motor_wear_t_1">
			<state id="State0" />
			<state id="State1" />
			<state id="State2" />
			<state id="State3" />
			<state id="State4" />
			<state id="State5" />
			<state id="State6" />
			<state id="State7" />
			<state id="State8" />
			<state id="State9" />
			<intervals>0 0.1 0.2 0.3 0.4 0.5 0.6 0.7 0.8 0.9 1</intervals>
			<probabilities>0.6836651767574157 0.2734660707029662 0.03900853311661926 0.002641202763104429 0.0002031694433157253 0.0002031694433157253 0.0002031694433157253 0.0002031694433157253 0.0002031694433157253 0.0002031694433157253</probabilities>
		</cpt>
		<cpt id="motor_wear">
			<state id="State0" />
			<state id="State1" />
			<state id="State2" />
			<state id="State3" />
			<state id="State4" />
			<state id="State5" />
			<state id="State6" />
			<state id="State7" />
			<state id="State8" />
			<state id="State9" />
			<intervals>0 0.1 0.2 0.3 0.4 0.5 0.6 0.7 0.8 0.9 1</intervals>
			<parents>motor_wear_t_1</parents>
			<probabilities>0.9599417334304443 0.03922588700447404 0.0001040474456352097 0.0001040474456352097 0.0001040474456352097 0.0001040474456352097 0.0001040474456352097 0.0001040474456352097 0.0001040474456352097 0.0001040474456352097 0.04127111022284401 0.9176576396522435 0.04037173978215249 9.9930048965724e-05 9.9930048965724e-05 9.9930048965724e-05 9.9930048965724e-05 9.9930048965724e-05 9.9930048965724e-05 9.9930048965724e-05 9.9930048965724e-05 0.04147097032077546 0.9173578495053463 0.04047166983111822 9.9930048965724e-05 9.9930048965724e-05 9.9930048965724e-05 9.9930048965724e-05 9.9930048965724e-05 9.9930048965724e-05 9.9930048965724e-05 9.9930048965724e-05 0.04137104027180973 0.9178574997501748 0.04007194963525532 9.9930048965724e-05 9.9930048965724e-05 9.9930048965724e-05 9.9930048965724e-05 9.9930048965724e-05 9.9930048965724e-05 9.9930048965724e-05 9.9930048965724e-05 0.03877285899870091 0.9198561007294893 0.04067152992904967 9.9930048965724e-05 9.9930048965724e-05 9.9930048965724e-05 9.9930048965724e-05 9.9930048965724e-05 9.9930048965724e-05 9.9930048965724e-05 9.9930048965724e-05 0.04446887178974718 0.9149595283301689 0.03987208953732387 9.9930048965724e-05 9.9930048965724e-05 9.9930048965724e-05 9.9930048965724e-05 9.9930048965724e-05 9.9930048965724e-05 9.9930048965724e-05 9.9930048965724e-05 0.03827320875387229 0.9202558209253523 0.04077145997801539 9.9930048965724e-05 9.9930048965724e-05 9.9930048965724e-05 9.9930048965724e-05 9.9930048965724e-05 9.9930048965724e-05 9.9930048965724e-05 9.9930048965724e-05 0.04087139002698111 0.9204556810232837 0.03797341860697512 9.9930048965724e-05 9.9930048965724e-05 9.9930048965724e-05 9.9930048965724e-05 9.9930048965724e-05 9.9930048965724e-05 9.9930048965724e-05 9.9930048965724e-05 0.03657439792145498 0.9253522534226042 0.03737383831318077 0.0001044168319933173 0.0001044168319933173 0.0001044168319933173 0.0001044168319933173 0.0001044168319933173 0.0001044168319933173 0.0001044168319933173 0.0001044168319933173 0.04114023180536702 0.9580244335386864</probabilities>
		</cpt>
		<cpt id="turbulence_t_1">
			<state id="State0" />
			<state id="State1" />
			<state id="State2" />
			<state id="State3" />
			<state id="State4" />
			<state id="State5" />
			<state id="State6" />
			<state id="State7" />
			<state id="State8" />
			<state id="State9" />
			<intervals>0 0.1 0.2 0.3 0.4 0.5 0.6 0.7 0.8 0.9 1</intervals>
			<probabilities>0.2598489487650541 0.2324964278424168 0.1843233312921004 0.1420698101653399 0.08471116554398857 0.04939783629312104 0.02367830169422331 0.01326801388038375 0.006531945294958155 0.003674219228413962</probabilities>
		</cpt>
		<cpt id="turbulence">
			<state id="State0" />
			<state id="State1" />
			<state id="State2" />
			<state id="State3" />
			<state id="State4" />
			<state id="State5" />
			<state id="State6" />
			<state id="State7" />
			<state id="State8" />
			<state id="State9" />
			<intervals>0 0.1 0.2 0.3 0.4 0.5 0.6 0.7 0.8 0.9 1</intervals>
			<parents>turbulence_t_1</parents>
			<probabilities>0.9597953216374269 0.03936925647451963 0.0001044277360066834 0.0001044277360066834 0.0001044277360066834 0.0001044277360066834 0.0001044277360066834 0.0001044277360066834 0.0001044277360066834 0.0001044277360066834 0.04197062056560408 0.9160587588687918 0.04127111022284401 9.9930048965724e-05 9.9930048965724e-05 9.9930048965724e-05 9.9930048965724e-05 9.9930048965724e-05 9.9930048965724e-05 9.9930048965724e-05 9.9930048965724e-05 0.04127111022284401 0.9235535125412212 0.03447586689317478 9.9930048965724e-05 9.9930048965724e-05 9.9930048965724e-05 9.9930048965724e-05 9.9930048965724e-05 9.9930048965724e-05 9.9930048965724e-05 9.9930048965724e-05 0.03927250924352953 0.9179574297991406 0.0420705506145698 9.9930048965724e-05 9.9930048965724e-05 9.9930048965724e-05 9.9930048965724e-05 9.9930048965724e-05 9.9930048965724e-05 9.9930048965724e-05 9.9930048965724e-05 0.04017187968422105 0.918157289897072 0.04097132007594684 9.9930048965724e-05 9.9930048965724e-05 9.9930048965724e-05 9.9930048965724e-05 9.9930048965724e-05 9.9930048965724e-05 9.9930048965724e-05 9.9930048965724e-05 0.03967222943939243 0.9200559608274208 0.0395722993904267 9.9930048965724e-05 9.9930048965724e-05 9.9930048965724e-05 9.9930048965724e-05 9.9930048965724e-05 9.9930048965724e-05 9.9930048965724e-05 9.9930048965724e-05 0.03817327870490657 0.9184570800439692 0.04267013090836415 9.9930048965724e-05 9.9930048965724e-05 9.9930048965724e-05 9.9930048965724e-05 9.9930048965724e-05 9.9930048965724e-05 9.9930048965724e-05 9.9930048965724e-05 0.04137104027180973 0.9230538622963925 0.03487558708903767 9.9930048965724e-05 9.9930048965724e-05 9.9930048965724e-05 9.9930048965724e-05 9.9930048965724e-05 9.9930048965724e-05 9.9930048965724e-05 9.9930048965724e-05 0.03977215948835815 0.9173578495053463 0.04217048066353553 0.0001042318115488847 0.0001042318115488847 0.0001042318115488847 0.0001042318115488847 0.0001042318115488847 0.0001042318115488847 0.0001042318115488847 0.0001042318115488847 0.04075463831561393 0.958411507191995</probabilities>
		</cpt>
		<cpt id="motoruse_for_other">
			<state id="State0" />
			<state id="State1" />
			<state id="State2" />
			<state id="State3" />
			<state id="State4" />
			<state id="State5" />
			<state id="State6" />
			<state id="State7" />
			<state id="State8" />
			<state id="State9" />
			<intervals>0 0.1 0.2 0.3 0.4 0.5 0.6 0.7 0.8 0.9 1</intervals>
			<parents>motor_wear turbulence</parents>
			<probabilities>0.9743000000000001 0.0257 0 0 0 0 0 0 0 0 0.8033 0.1967 0 0 0 0 0 0 0 0 0.597 0.403 0 0 0 0 0 0 0 0 0.3891 0.6109 0 0 0 0 0 0 0 0 0.2054 0.7946 0 0 0 0 0 0 0 0 0.0241 0.9504 0.0255 0 0 0 0 0 0 0 0 0.7973 0.2027 0 0 0 0 0 0 0 0 0.5891999999999999 0.4108 0 0 0 0 0 0 0 0 0.4001 0.5999 0 0 0 0 0 0 0 0 0.2055 0.7945 0 0 0 0 0 0 0 0.0256 0.9476 0.0268 0 0 0 0 0 0 0 0 0.7975 0.2025 0 0 0 0 0 0 0 0 0.5929 0.4071 0 0 0 0 0 0 0 0 0.4043 0.5957 0 0 0 0 0 0 0 0 0.2008 0.7992 0 0 0 0 0 0 0 0 0.0259 0.9496 0.0245 0 0 0 0 0 0 0 0 0.8028999999999999 0.1971 0 0 0 0 0 0 0 0 0.5967 0.4033 0 0 0 0 0 0 0 0 0.4058 0.5942 0 0 0 0 0 0 0 0 0.1994 0.8006 0 0 0 0 0 0 0 0.0259 0.9496 0.0245 0 0 0 0 0 0 0 0 0.7925 0.2075 0 0 0 0 0 0 0 0 0.5976 0.4024 0 0 0 0 0 0 0 0 0.3987 0.6012999999999999 0 0 0 0 0 0 0 0 0.1983 0.8017 0 0 0 0 0 0 0 0 0.0248 0.9503 0.0249 0 0 0 0 0 0 0 0 0.8047 0.1953 0 0 0 0 0 0 0 0 0.5997 0.4003 0 0 0 0 0 0 0 0 0.407 0.593 0 0 0 0 0 0 0 0 0.1972 0.8028 0 0 0 0 0 0 0 0.025 0.949 0.026 0 0 0 0 0 0 0 0 0.7975 0.2025 0 0 0 0 0 0 0 0 0.6044 0.3956 0 0 0 0 0 0 0 0 0.3907 0.6093 0 0 0 0 0 0 0 0 0.2014 0.7986 0 0 0 0 0 0 0 0 0.0254 0.9507 0.0239 0 0 0 0 0 0 0 0 0.7965 0.2035 0 0 0 0 0 0 0 0 0.6027 0.3973 0 0 0 0 0 0 0 0 0.3924 0.6076 0 0 0 0 0 0 0 0 0.1954 0.8046 0 0 0 0 0 0 0 0.0256 0.9504 0.024 0 0 0 0 0 0 0 0 0.8008999999999999 0.1991 0 0 0 0 0 0 0 0 0.5942 0.4058 0 0 0 0 0 0 0 0 0.4045 0.5955 0 0 0 0 0 0 0 0 0.1906 0.8094 0 0 0 0 0 0 0 0 0.027 0.9523 0.0207 0 0 0 0 0 0 0 0 0.8048 0.1952 0 0 0 0 0 0 0 0 0.6007 0.3993 0 0 0 0 0 0 0 0 0.3973 0.6027 0 0 0 0 0 0 0 0 0.198 0.802 0 0 0 0 0 0 0 0.0288 0.9478 0.0234 0 0 0 0 0 0 0 0 0.8047 0.1953 0 0 0 0 0 0 0 0 0.6037 0.3963 0 0 0 0 0 0 0 0 0.4025 0.5975 0 0 0 0 0 0 0 0 0.2055 0.7945 0 0 0 0 0 0 0 0 0.0246 0.9519 0.0235 0 0 0 0 0 0 0 0 0.8036 0.1964 0 0 0 0 0 0 0 0 0.5973000000000001 0.4027 0 0 0 0 0 0 0 0 0.4011 0.5989 0 0 0 0 0 0 0 0 0.2011 0.7989000000000001 0 0 0 0 0 0 0 0.0228 0.9523 0.0249 0 0 0 0 0 0 0 0 0.7917 0.2083 0 0 0 0 0 0 0 0 0.607 0.393 0 0 0 0 0 0 0 0 0.3911 0.6089 0 0 0 0 0 0 0 0 0.2012 0.7988 0 0 0 0 0 0 0 0 0.0225 0.9540999999999999 0.0234 0 0 0 0 0 0 0 0 0.8055 0.1945 0 0 0 0 0 0 0 0 0.6022 0.3978 0 0 0 0 0 0 0 0 0.4069 0.5931 0 0 0 0 0 0 0 0 0.1992 0.8008 0 0 0 0 0 0 0 0.026 0.9487 0.0253 0 0 0 0 0 0 0 0 0.8054 0.1946 0 0 0 0 0 0 0 0 0.5971 0.4029 0 0 0 0 0 0 0 0 0.3958 0.6042 0 0 0 0 0 0 0 0 0.1954 0.8046 0 0 0 0 0 0 0 0 0.0253 0.9442 0.0305 0 0 0 0 0 0 0 0 0.7989000000000001 0.2011 0 0 0 0 0 0 0 0 0.5993000000000001 0.4007 0 0 0 0 0 0 0 0 0.4015 0.5985 0 0 0 0 0 0 0 0 0.1945 0.8055 0 0 0 0 0 0 0 0.0248 0.9481000000000001 0.0271 0 0 0 0 0 0 0 0 0.8003 0.1997 0 0 0 0 0 0 0 0 0.5998 0.4002 0 0 0 0 0 0 0 0 0.4078 0.5921999999999999 0 0 0 0 0 0 0 0 0.2016 0.7984 0 0 0 0 0 0 0 0 0.0263 0.9737 0 0 0 0 0 0 0 0 0 1 0 0 0 0 0 0 0 0 0 1 0 0 0 0 0 0 0 0 0 1 0 0 0 0 0 0 0 0 0 1 0 0 0 0 0 0 0 0 0.025 0.975 0 0 0 0 0 0 0 0 0 1 0 0 0 0 0 0 0 0 0 1 0 0 0 0 0 0 0 0 0 1 0 0 0 0 0 0 0 0 0 1 0 0 0 0 0 0 0 0 0 1 0 0 0 0 0 0 0 0 0 1 0 0 0 0 0 0 0 0 0 1 0 0 0 0 0 0 0 0 0 1 0 0 0 0 0 0 0 0 0 1</probabilities>
		</cpt>
		<cpt id="mean_motor">
			<state id="State0" />
			<state id="State1" />
			<state id="State2" />
			<state id="State3" />
			<state id="State4" />
			<state id="State5" />
			<state id="State6" />
			<state id="State7" />
			<state id="State8" />
			<state id="State9" />
			<intervals>0 0.1 0.2 0.3 0.4 0.5 0.6 0.7 0.8 0.9 1</intervals>
			<parents>motoruse_for_tether random_disturbance motoruse_for_other</parents>
			<probabilities>0.83 0.17 0 0 0 0 0 0 0 0 0.1709 0.6657999999999999 0.1633 0 0 0 0 0 0 0 0 0.167 0.6642 0.1688 0 0 0 0 0 0 0 0 0.1717 0.6623 0.166 0 0 0 0 0 0 0 0 0.1654 0.6676 0.167 0 0 0 0 0 0 0 0 0.1694 0.6626 0.168 0 0 0 0 0 0 0 0 0.1684 0.6605 0.1711 0 0 0 0 0 0 0 0 0.1629 0.6734 0.1637 0 0 0 0 0 0 0 0 0.1643 0.6671 0.1686 0 0 0 0 0 0 0 0 0.1608 0.8391999999999999 0.1652 0.6682 0.1666 0 0 0 0 0 0 0 0 0.1667 0.6671 0.1662 0 0 0 0 0 0 0 0 0.1623 0.6681 0.1696 0 0 0 0 0 0 0 0 0.1713 0.6614 0.1673 0 0 0 0 0 0 0 0 0.1631 0.6662 0.1707 0 0 0 0 0 0 0 0 0.1648 0.6714 0.1638 0 0 0 0 0 0 0 0 0.1643 0.6698 0.1659 0 0 0 0 0 0 0 0 0.1699 0.6619 0.1682 0 0 0 0 0 0 0 0 0.165 0.835 0 0 0 0 0 0 0 0 0 1 0 0.1682 0.6665 0.1653 0 0 0 0 0 0 0 0 0.1629 0.6662 0.1709 0 0 0 0 0 0 0 0 0.1679 0.6617 0.1704 0 0 0 0 0 0 0 0 0.1617 0.6697 0.1686 0 0 0 0 0 0 0 0 0.1706 0.669 0.1604 0 0 0 0 0 0 0 0 0.1644 0.6657 0.1699 0 0 0 0 0 0 0 0 0.1668 0.6681 0.1651 0 0 0 0 0 0 0 0 0.1596 0.8404 0 0 0 0 0 0 0 0 0 1 0 0 0 0 0 0 0 0 0 1 0 0 0.1626 0.6643 0.1731 0 0 0 0 0 0 0 0 0.1657 0.6661 0.1682 0 0 0 0 0 0 0 0 0.1647 0.6686 0.1667 0 0 0 0 0 0 0 0 0.1711 0.6594 0.1695 0 0 0 0 0 0 0 0 0.1702 0.6597 0.1701 0 0 0 0 0 0 0 0 0.1685 0.6642 0.1673 0 0 0 0 0 0 0 0 0.1597 0.8403 0 0 0 0 0 0 0 0 0 1 0 0 0 0 0 0 0 0 0 1 0 0 0 0 0 0 0 0 0 1 0 0 0 0.1639 0.6659 0.1702 0 0 0 0 0 0 0 0 0.1728 0.6615 0.1657 0 0 0 0 0 0 0 0 0.1784 0.6604 0.1612 0 0 0 0 0 0 0 0 0.1678 0.6672 0.165 0 0 0 0 0 0 0 0 0.161 0.6713 0.1677 0 0 0 0 0 0 0 0 0.1629 0.8371 0 0 0 0 0 0 0 0 0 1 0 0 0 0 0 0 0 0 0 1 0 0 0 0 0 0 0 0 0 1 0 0 0 0 0 0 0 0 0 1 0 0 0 0 0.1679 0.6625 0.1696 0 0 0 0 0 0 0 0 0.1621 0.6696 0.1683 0 0 0 0 0 0 0 0 0.1642 0.6686 0.1672 0 0 0 0 0 0 0 0 0.1723 0.6649 0.1628 0 0 0 0 0 0 0 0 0.1624 0.8376 0 0 0 0 0 0 0 0 0 1 0 0 0 0 0 0 0 0 0 1 0 0 0 0 0 0 0 0 0 1 0 0 0 0 0 0 0 0 0 1 0 0 0 0 0 0 0 0 0 1 0 0 0 0 0 0.1628 0.6686 0.1686 0 0 0 0 0 0 0 0 0.1679 0.6667 0.1654 0 0 0 0 0 0 0 0 0.1648 0.6739000000000001 0.1613 0 0 0 0 0 0 0 0 0.1685 0.8315 0 0 0 0 0 0 0 0 0 1 0 0 0 0 0 0 0 0 0 1 0 0 0 0 0 0 0 0 0 1 0 0 0 0 0 0 0 0 0 1 0 0 0 0 0 0 0 0 0 1 0 0 0 0 0 0 0 0 0 1 0 0 0 0 0 0 0.1674 0.6676 0.165 0 0 0 0 0 0 0 0 0.1624 0.6729000000000001 0.1647 0 0 0 0 0 0 0 0 0.1666 0.8334 0 0 0 0 0 0 0 0 0 1 0 0 0 0 0 0 0 0 0 1 0 0 0 0 0 0 0 0 0 1 0 0 0 0 0 0 0 0 0 1 0 0 0 0 0 0 0 0 0 1 0 0 0 0 0 0 0 0 0 1 0 0 0 0 0 0 0 0 0 1 0 0 0 0 0 0 0 0.1638 0.6698 0.1664 0 0 0 0 0 0 0 0 0.1635 0.8365 0 0 0 0 0 0 0 0 0 1 0 0 0 0 0 0 0 0 0 1 0 0 0 0 0 0 0 0 0 1 0 0 0 0 0 0 0 0 0 1 0 0 0 0 0 0 0 0 0 1 0 0 0 0 0 0 0 0 0 1 0 0 0 0 0 0 0 0 0 1 0 0 0 0 0 0 0 0 0 1 0 0 0 0 0 0 0 0 0.1632 0.8368 0 0 0 0 0 0 0 0 0 1 0 0 0 0 0 0 0 0 0 1 0 0 0 0 0 0 0 0 0 1 0 0 0 0 0 0 0 0 0 1 0 0 0 0 0 0 0 0 0 1 0 0 0 0 0 0 0 0 0 1 0 0 0 0 0 0 0 0 0 1 0 0 0 0 0 0 0 0 0 1 0 0 0 0 0 0 0 0 0 1 0.164 0.6588000000000001 0.1772 0 0 0 0 0 0 0 0 0.1666 0.6682 0.1652 0 0 0 0 0 0 0 0 0.1687 0.6659 0.1654 0 0 0 0 0 0 0 0 0.1647 0.6662 0.1691 0 0 0 0 0 0 0 0 0.1706 0.6634 0.166 0 0 0 0 0 0 0 0 0.1645 0.658 0.1775 0 0 0 0 0 0 0 0 0.169 0.6622 0.1688 0 0 0 0 0 0 0 0 0.1568 0.6744 0.1688 0 0 0 0 0 0 0 0 0.1681 0.8319 0 0 0 0 0 0 0 0 0 1 0 0.167 0.6636 0.1694 0 0 0 0 0 0 0 0 0.1661 0.6724 0.1615 0 0 0 0 0 0 0 0 0.1695 0.66 0.1705 0 0 0 0 0 0 0 0 0.1642 0.6636 0.1722 0 0 0 0 0 0 0 0 0.1681 0.6687 0.1632 0 0 0 0 0 0 0 0 0.1704 0.6514 0.1782 0 0 0 0 0 0 0 0 0.1676 0.6704 0.162 0 0 0 0 0 0 0 0 0.1675 0.8325 0 0 0 0 0 0 0 0 0 1 0 0 0 0 0 0 0 0 0 1 0 0 0.1635 0.6725 0.164 0 0 0 0 0 0 0 0 0.171 0.6702 0.1588 0 0 0 0 0 0 0 0 0.1636 0.6671 0.1693 0 0 0 0 0 0 0 0 0.1733 0.6677999999999999 0.1589 0 0 0 0 0 0 0 0 0.1696 0.6626 0.1678 0 0 0 0 0 0 0 0 0.1693 0.664 0.1667 0 0 0 0 0 0 0 0 0.1685 0.8315 0 0 0 0 0 0 0 0 0 1 0 0 0 0 0 0 0 0 0 1 0 0 0 0 0 0 0 0 0 1 0 0 0 0.1633 0.6751 0.1616 0 0 0 0 0 0 0 0 0.1656 0.6602 0.1742 0 0 0 0 0 0 0 0 0.1586 0.6756 0.1658 0 0 0 0 0 0 0 0 0.1694 0.6669 0.1637 0 0 0 0 0 0 0 0 0.1645 0.6669 0.1686 0 0 0 0 0 0 0 0 0.1726 0.8274 0 0 0 0 0 0 0 0 0 1 0 0 0 0 0 0 0 0 0 1 0 0 0 0 0 0 0 0 0 1 0 0 0 0 0 0 0 0 0 1 0 0 0 0 0.1601 0.67 0.1699 0 0 0 0 0 0 0 0 0.1675 0.6696 0.1629 0 0 0 0 0 0 0 0 0.1693 0.6601 0.1706 0 0 0 0 0 0 0 0 0.1622 0.6709000000000001 0.1669 0 0 0 0 0 0 0 0 0.1561 0.8439 0 0 0 0 0 0 0 0 0 1 0 0 0 0 0 0 0 0 0 1 0 0 0 0 0 0 0 0 0 1 0 0 0 0 0 0 0 0 0 1 0 0 0 0 0 0 0 0 0 1 0 0 0 0 0 0.1649 0.6657 0.1694 0 0 0 0 0 0 0 0 0.1631 0.6667999999999999 0.1701 0 0 0 0 0 0 0 0 0.1592 0.6685 0.1723 0 0 0 0 0 0 0 0 0.1638 0.8362000000000001 0 0 0 0 0 0 0 0 0 1 0 0 0 0 0 0 0 0 0 1 0 0 0 0 0 0 0 0 0 1 0 0 0 0 0 0 0 0 0 1 0 0 0 0 0 0 0 0 0 1 0 0 0 0 0 0 0 0 0 1 0 0 0 0 0 0 0.1663 0.666 0.1677 0 0 0 0 0 0 0 0 0.1687 0.6647 0.1666 0 0 0 0 0 0 0 0 0.164 0.836 0 0 0 0 0 0 0 0 0 1 0 0 0 0 0 0 0 0 0 1 0 0 0 0 0 0 0 0 0 1 0 0 0 0 0 0 0 0 0 1 0 0 0 0 0 0 0 0 0 1 0 0 0 0 0 0 0 0 0 1 0 0 0 0 0 0 0 0 0 1 0 0 0 0 0 0 0 0.1655 0.6685 0.166 0 0 0 0 0 0 0 0 0.163 0.837 0 0 0 0 0 0 0 0 0 1 0 0 0 0 0 0 0 0 0 1 0 0 0 0 0 0 0 0 0 1 0 0 0 0 0 0 0 0 0 1 0 0 0 0 0 0 0 0 0 1 0 0 0 0 0 0 0 0 0 1 0 0 0 0 0 0 0 0 0 1 0 0 0 0 0 0 0 0 0 1 0 0 0 0 0 0 0 0 0.1723 0.8277 0 0 0 0 0 0 0 0 0 1 0 0 0 0 0 0 0 0 0 1 0 0 0 0 0 0 0 0 0 1 0 0 0 0 0 0 0 0 0 1 0 0 0 0 0 0 0 0 0 1 0 0 0 0 0 0 0 0 0 1 0 0 0 0 0 0 0 0 0 1 0 0 0 0 0 0 0 0 0 1 0 0 0 0 0 0 0 0 0 1 0 0 0 0 0 0 0 0 0 1 0 0 0 0 0 0 0 0 0 1 0 0 0 0 0 0 0 0 0 1 0 0 0 0 0 0 0 0 0 1 0 0 0 0 0 0 0 0 0 1 0 0 0 0 0 0 0 0 0 1 0 0 0 0 0 0 0 0 0 1 0 0 0 0 0 0 0 0 0 1 0 0 0 0 0 0 0 0 0 1 0 0 0 0 0 0 0 0 0 1 0 0.167 0.6667999999999999 0.1662 0 0 0 0 0 0 0 0 0.1752 0.6597 0.1651 0 0 0 0 0 0 0 0 0.167 0.6692 0.1638 0 0 0 0 0 0 0 0 0.1629 0.674 0.1631 0 0 0 0 0 0 0 0 0.1697 0.6695 0.1608 0 0 0 0 0 0 0 0 0.168 0.6705 0.1615 0 0 0 0 0 0 0 0 0.1665 0.6711 0.1624 0 0 0 0 0 0 0 0 0.162 0.838 0 0 0 0 0 0 0 0 0 1 0 0 0 0 0 0 0 0 0 1 0 0 0.164 0.6739000000000001 0.1621 0 0 0 0 0 0 0 0 0.1609 0.6693 0.1698 0 0 0 0 0 0 0 0 0.1655 0.6642 0.1703 0 0 0 0 0 0 0 0 0.1711 0.6583 0.1706 0 0 0 0 0 0 0 0 0.1677 0.6681 0.1642 0 0 0 0 0 0 0 0 0.1621 0.6703 0.1676 0 0 0 0 0 0 0 0 0.1662 0.8338 0 0 0 0 0 0 0 0 0 1 0 0 0 0 0 0 0 0 0 1 0 0 0 0 0 0 0 0 0 1 0 0 0 0.1661 0.6728 0.1611 0 0 0 0 0 0 0 0 0.1649 0.6677 0.1674 0 0 0 0 0 0 0 0 0.1666 0.6647999999999999 0.1686 0 0 0 0 0 0 0 0 0.168 0.6624 0.1696 0 0 0 0 0 0 0 0 0.1742 0.6561 0.1697 0 0 0 0 0 0 0 0 0.1605 0.8395 0 0 0 0 0 0 0 0 0 1 0 0 0 0 0 0 0 0 0 1 0 0 0 0 0 0 0 0 0 1 0 0 0 0 0 0 0 0 0 1 0 0 0 0 0.1686 0.6631 0.1683 0 0 0 0 0 0 0 0 0.1687 0.6631 0.1682 0 0 0 0 0 0 0 0 0.1737 0.6544 0.1719 0 0 0 0 0 0 0 0 0.1606 0.6703 0.1691 0 0 0 0 0 0 0 0 0.1641 0.8359 0 0 0 0 0 0 0 0 0 1 0 0 0 0 0 0 0 0 0 1 0 0 0 0 0 0 0 0 0 1 0 0 0 0 0 0 0 0 0 1 0 0 0 0 0 0 0 0 0 1 0 0 0 0 0 0.1634 0.6637 0.1729 0 0 0 0 0 0 0 0 0.1684 0.6669 0.1647 0 0 0 0 0 0 0 0 0.1669 0.6659 0.1672 0 0 0 0 0 0 0 0 0.1714 0.8286 0 0 0 0 0 0 0 0 0 1 0 0 0 0 0 0 0 0 0 1 0 0 0 0 0 0 0 0 0 1 0 0 0 0 0 0 0 0 0 1 0 0 0 0 0 0 0 0 0 1 0 0 0 0 0 0 0 0 0 1 0 0 0 0 0 0 0.1683 0.6695 0.1622 0 0 0 0 0 0 0 0 0.1619 0.6667 0.1714 0 0 0 0 0 0 0 0 0.1646 0.8354 0 0 0 0 0 0 0 0 0 1 0 0 0 0 0 0 0 0 0 1 0 0 0 0 0 0 0 0 0 1 0 0 0 0 0 0 0 0 0 1 0 0 0 0 0 0 0 0 0 1 0 0 0 0 0 0 0 0 0 1 0 0 0 0 0 0 0 0 0 1 0 0 0 0 0 0 0 0.1693 0.6645 0.1662 0 0 0 0 0 0 0 0 0.1685 0.8315 0 0 0 0 0 0 0 0 0 1 0 0 0 0 0 0 0 0 0 1 0 0 0 0 0 0 0 0 0 1 0 0 0 0 0 0 0 0 0 1 0 0 0 0 0 0 0 0 0 1 0 0 0 0 0 0 0 0 0 1 0 0 0 0 0 0 0 0 0 1 0 0 0 0 0 0 0 0 0 1 0 0 0 0 0 0 0 0 0.1672 0.8328 0 0 0 0 0 0 0 0 0 1 0 0 0 0 0 0 0 0 0 1 0 0 0 0 0 0 0 0 0 1 0 0 0 0 0 0 0 0 0 1 0 0 0 0 0 0 0 0 0 1 0 0 0 0 0 0 0 0 0 1 0 0 0 0 0 0 0 0 0 1 0 0 0 0 0 0 0 0 0 1 0 0 0 0 0 0 0 0 0 1 0 0 0 0 0 0 0 0 0 1 0 0 0 0 0 0 0 0 0 1 0 0 0 0 0 0 0 0 0 1 0 0 0 0 0 0 0 0 0 1 0 0 0 0 0 0 0 0 0 1 0 0 0 0 0 0 0 0 0 1 0 0 0 0 0 0 0 0 0 1 0 0 0 0 0 0 0 0 0 1 0 0 0 0 0 0 0 0 0 1 0 0 0 0 0 0 0 0 0 1 0 0 0 0 0 0 0 0 0 1 0 0 0 0 0 0 0 0 0 1 0 0 0 0 0 0 0 0 0 1 0 0 0 0 0 0 0 0 0 1 0 0 0 0 0 0 0 0 0 1 0 0 0 0 0 0 0 0 0 1 0 0 0 0 0 0 0 0 0 1 0 0 0 0 0 0 0 0 0 1 0 0 0 0 0 0 0 0 0 1 0 0 0 0 0 0 0 0 0 1 0 0 0.166 0.6645 0.1695 0 0 0 0 0 0 0 0 0.1648 0.6677999999999999 0.1674 0 0 0 0 0 0 0 0 0.1631 0.6706 0.1663 0 0 0 0 0 0 0 0 0.1685 0.6637999999999999 0.1677 0 0 0 0 0 0 0 0 0.157 0.6793 0.1637 0 0 0 0 0 0 0 0 0.1619 0.672 0.1661 0 0 0 0 0 0 0 0 0.1739 0.8260999999999999 0 0 0 0 0 0 0 0 0 1 0 0 0 0 0 0 0 0 0 1 0 0 0 0 0 0 0 0 0 1 0 0 0 0.1699 0.6595 0.1706 0 0 0 0 0 0 0 0 0.1627 0.6763 0.161 0 0 0 0 0 0 0 0 0.1709 0.6645 0.1646 0 0 0 0 0 0 0 0 0.1688 0.6639 0.1673 0 0 0 0 0 0 0 0 0.1697 0.6701 0.1602 0 0 0 0 0 0 0 0 0.1664 0.8336 0 0 0 0 0 0 0 0 0 1 0 0 0 0 0 0 0 0 0 1 0 0 0 0 0 0 0 0 0 1 0 0 0 0 0 0 0 0 0 1 0 0 0 0 0.1717 0.667 0.1613 0 0 0 0 0 0 0 0 0.1642 0.665 0.1708 0 0 0 0 0 0 0 0 0.167 0.6726 0.1604 0 0 0 0 0 0 0 0 0.1671 0.6682 0.1647 0 0 0 0 0 0 0 0 0.1641 0.8359 0 0 0 0 0 0 0 0 0 1 0 0 0 0 0 0 0 0 0 1 0 0 0 0 0 0 0 0 0 1 0 0 0 0 0 0 0 0 0 1 0 0 0 0 0 0 0 0 0 1 0 0 0 0 0 0.1698 0.6617 0.1685 0 0 0 0 0 0 0 0 0.1648 0.664 0.1712 0 0 0 0 0 0 0 0 0.166 0.6663 0.1677 0 0 0 0 0 0 0 0 0.1692 0.8308 0 0 0 0 0 0 0 0 0 1 0 0 0 0 0 0 0 0 0 1 0 0 0 0 0 0 0 0 0 1 0 0 0 0 0 0 0 0 0 1 0 0 0 0 0 0 0 0 0 1 0 0 0 0 0 0 0 0 0 1 0 0 0 0 0 0 0.1681 0.6667999999999999 0.1651 0 0 0 0 0 0 0 0 0.1642 0.6727 0.1631 0 0 0 0 0 0 0 0 0.1692 0.8308 0 0 0 0 0 0 0 0 0 1 0 0 0 0 0 0 0 0 0 1 0 0 0 0 0 0 0 0 0 1 0 0 0 0 0 0 0 0 0 1 0 0 0 0 0 0 0 0 0 1 0 0 0 0 0 0 0 0 0 1 0 0 0 0 0 0 0 0 0 1 0 0 0 0 0 0 0 0.165 0.6727 0.1623 0 0 0 0 0 0 0 0 0.1657 0.8343 0 0 0 0 0 0 0 0 0 1 0 0 0 0 0 0 0 0 0 1 0 0 0 0 0 0 0 0 0 1 0 0 0 0 0 0 0 0 0 1 0 0 0 0 0 0 0 0 0 1 0 0 0 0 0 0 0 0 0 1 0 0 0 0 0 0 0 0 0 1 0 0 0 0 0 0 0 0 0 1 0 0 0 0 0 0 0 0 0.166 0.834 0 0 0 0 0 0 0 0 0 1 0 0 0 0 0 0 0 0 0 1 0 0 0 0 0 0 0 0 0 1 0 0 0 0 0 0 0 0 0 1 0 0 0 0 0 0 0 0 0 1 0 0 0 0 0 0 0 0 0 1 0 0 0 0 0 0 0 0 0 1 0 0 0 0 0 0 0 0 0 1 0 0 0 0 0 0 0 0 0 1 0 0 0 0 0 0 0 0 0 1 0 0 0 0 0 0 0 0 0 1 0 0 0 0 0 0 0 0 0 1 0 0 0 0 0 0 0 0 0 1 0 0 0 0 0 0 0 0 0 1 0 0 0 0 0 0 0 0 0 1 0 0 0 0 0 0 0 0 0 1 0 0 0 0 0 0 0 0 0 1 0 0 0 0 0 0 0 0 0 1 0 0 0 0 0 0 0 0 0 1 0 0 0 0 0 0 0 0 0 1 0 0 0 0 0 0 0 0 0 1 0 0 0 0 0 0 0 0 0 1 0 0 0 0 0 0 0 0 0 1 0 0 0 0 0 0 0 0 0 1 0 0 0 0 0 0 0 0 0 1 0 0 0 0 0 0 0 0 0 1 0 0 0 0 0 0 0 0 0 1 0 0 0 0 0 0 0 0 0 1 0 0 0 0 0 0 0 0 0 1 0 0 0 0 0 0 0 0 0 1 0 0 0 0 0 0 0 0 0 1 0 0 0 0 0 0 0 0 0 1 0 0 0 0 0 0 0 0 0 1 0 0 0 0 0 0 0 0 0 1 0 0 0 0 0 0 0 0 0 1 0 0 0 0 0 0 0 0 0 1 0 0 0 0 0 0 0 0 0 1 0 0 0 0 0 0 0 0 0 1 0 0 0 0 0 0 0 0 0 1 0 0 0 0.1603 0.6816 0.1581 0 0 0 0 0 0 0 0 0.1647 0.673 0.1623 0 0 0 0 0 0 0 0 0.1642 0.6689000000000001 0.1669 0 0 0 0 0 0 0 0 0.1662 0.6663 0.1675 0 0 0 0 0 0 0 0 0.167 0.662 0.171 0 0 0 0 0 0 0 0 0.1624 0.8376 0 0 0 0 0 0 0 0 0 1 0 0 0 0 0 0 0 0 0 1 0 0 0 0 0 0 0 0 0 1 0 0 0 0 0 0 0 0 0 1 0 0 0 0 0.1674 0.6647 0.1679 0 0 0 0 0 0 0 0 0.1716 0.6627 0.1657 0 0 0 0 0 0 0 0 0.1647 0.6626 0.1727 0 0 0 0 0 0 0 0 0.1692 0.6656 0.1652 0 0 0 0 0 0 0 0 0.1685 0.8315 0 0 0 0 0 0 0 0 0 1 0 0 0 0 0 0 0 0 0 1 0 0 0 0 0 0 0 0 0 1 0 0 0 0 0 0 0 0 0 1 0 0 0 0 0 0 0 0 0 1 0 0 0 0 0 0.1636 0.6706 0.1658 0 0 0 0 0 0 0 0 0.1681 0.6642 0.1677 0 0 0 0 0 0 0 0 0.1707 0.6576 0.1717 0 0 0 0 0 0 0 0 0.1616 0.8384 0 0 0 0 0 0 0 0 0 1 0 0 0 0 0 0 0 0 0 1 0 0 0 0 0 0 0 0 0 1 0 0 0 0 0 0 0 0 0 1 0 0 0 0 0 0 0 0 0 1 0 0 0 0 0 0 0 0 0 1 0 0 0 0 0 0 0.1699 0.6607 0.1694 0 0 0 0 0 0 0 0 0.1682 0.6661 0.1657 0 0 0 0 0 0 0 0 0.1639 0.8361 0 0 0 0 0 0 0 0 0 1 0 0 0 0 0 0 0 0 0 1 0 0 0 0 0 0 0 0 0 1 0 0 0 0 0 0 0 0 0 1 0 0 0 0 0 0 0 0 0 1 0 0 0 0 0 0 0 0 0 1 0 0 0 0 0 0 0 0 0 1 0 0 0 0 0 0 0 0.1608 0.6731 0.1661 0 0 0 0 0 0 0 0 0.1578 0.8421999999999999 0 0 0 0 0 0 0 0 0 1 0 0 0 0 0 0 0 0 0 1 0 0 0 0 0 0 0 0 0 1 0 0 0 0 0 0 0 0 0 1 0 0 0 0 0 0 0 0 0 1 0 0 0 0 0 0 0 0 0 1 0 0 0 0 0 0 0 0 0 1 0 0 0 0 0 0 0 0 0 1 0 0 0 0 0 0 0 0 0.1728 0.8272 0 0 0 0 0 0 0 0 0 1 0 0 0 0 0 0 0 0 0 1 0 0 0 0 0 0 0 0 0 1 0 0 0 0 0 0 0 0 0 1 0 0 0 0 0 0 0 0 0 1 0 0 0 0 0 0 0 0 0 1 0 0 0 0 0 0 0 0 0 1 0 0 0 0 0 0 0 0 0 1 0 0 0 0 0 0 0 0 0 1 0 0 0 0 0 0 0 0 0 1 0 0 0 0 0 0 0 0 0 1 0 0 0 0 0 0 0 0 0 1 0 0 0 0 0 0 0 0 0 1 0 0 0 0 0 0 0 0 0 1 0 0 0 0 0 0 0 0 0 1 0 0 0 0 0 0 0 0 0 1 0 0 0 0 0 0 0 0 0 1 0 0 0 0 0 0 0 0 0 1 0 0 0 0 0 0 0 0 0 1 0 0 0 0 0 0 0 0 0 1 0 0 0 0 0 0 0 0 0 1 0 0 0 0 0 0 0 0 0 1 0 0 0 0 0 0 0 0 0 1 0 0 0 0 0 0 0 0 0 1 0 0 0 0 0 0 0 0 0 1 0 0 0 0 0 0 0 0 0 1 0 0 0 0 0 0 0 0 0 1 0 0 0 0 0 0 0 0 0 1 0 0 0 0 0 0 0 0 0 1 0 0 0 0 0 0 0 0 0 1 0 0 0 0 0 0 0 0 0 1 0 0 0 0 0 0 0 0 0 1 0 0 0 0 0 0 0 0 0 1 0 0 0 0 0 0 0 0 0 1 0 0 0 0 0 0 0 0 0 1 0 0 0 0 0 0 0 0 0 1 0 0 0 0 0 0 0 0 0 1 0 0 0 0 0 0 0 0 0 1 0 0 0 0 0 0 0 0 0 1 0 0 0 0 0 0 0 0 0 1 0 0 0 0 0 0 0 0 0 1 0 0 0 0 0 0 0 0 0 1 0 0 0 0 0 0 0 0 0 1 0 0 0 0 0 0 0 0 0 1 0 0 0 0 0 0 0 0 0 1 0 0 0 0 0 0 0 0 0 1 0 0 0 0 0 0 0 0 0 1 0 0 0 0 0 0 0 0 0 1 0 0 0 0 0 0 0 0 0 1 0 0 0 0 0.1735 0.6643 0.1622 0 0 0 0 0 0 0 0 0.168 0.6613 0.1707 0 0 0 0 0 0 0 0 0.1625 0.6639 0.1736 0 0 0 0 0 0 0 0 0.16 0.6685 0.1715 0 0 0 0 0 0 0 0 0.1668 0.8332000000000001 0 0 0 0 0 0 0 0 0 1 0 0 0 0 0 0 0 0 0 1 0 0 0 0 0 0 0 0 0 1 0 0 0 0 0 0 0 0 0 1 0 0 0 0 0 0 0 0 0 1 0 0 0 0 0 0.1674 0.6565 0.1761 0 0 0 0 0 0 0 0 0.1696 0.6653 0.1651 0 0 0 0 0 0 0 0 0.1677 0.6686 0.1637 0 0 0 0 0 0 0 0 0.1643 0.8357 0 0 0 0 0 0 0 0 0 1 0 0 0 0 0 0 0 0 0 1 0 0 0 0 0 0 0 0 0 1 0 0 0 0 0 0 0 0 0 1 0 0 0 0 0 0 0 0 0 1 0 0 0 0 0 0 0 0 0 1 0 0 0 0 0 0 0.1718 0.669 0.1592 0 0 0 0 0 0 0 0 0.17 0.6713 0.1587 0 0 0 0 0 0 0 0 0.1628 0.8372000000000001 0 0 0 0 0 0 0 0 0 1 0 0 0 0 0 0 0 0 0 1 0 0 0 0 0 0 0 0 0 1 0 0 0 0 0 0 0 0 0 1 0 0 0 0 0 0 0 0 0 1 0 0 0 0 0 0 0 0 0 1 0 0 0 0 0 0 0 0 0 1 0 0 0 0 0 0 0 0.1739 0.6552 0.1709 0 0 0 0 0 0 0 0 0.1658 0.8342000000000001 0 0 0 0 0 0 0 0 0 1 0 0 0 0 0 0 0 0 0 1 0 0 0 0 0 0 0 0 0 1 0 0 0 0 0 0 0 0 0 1 0 0 0 0 0 0 0 0 0 1 0 0 0 0 0 0 0 0 0 1 0 0 0 0 0 0 0 0 0 1 0 0 0 0 0 0 0 0 0 1 0 0 0 0 0 0 0 0 0.169 0.831 0 0 0 0 0 0 0 0 0 1 0 0 0 0 0 0 0 0 0 1 0 0 0 0 0 0 0 0 0 1 0 0 0 0 0 0 0 0 0 1 0 0 0 0 0 0 0 0 0 1 0 0 0 0 0 0 0 0 0 1 0 0 0 0 0 0 0 0 0 1 0 0 0 0 0 0 0 0 0 1 0 0 0 0 0 0 0 0 0 1 0 0 0 0 0 0 0 0 0 1 0 0 0 0 0 0 0 0 0 1 0 0 0 0 0 0 0 0 0 1 0 0 0 0 0 0 0 0 0 1 0 0 0 0 0 0 0 0 0 1 0 0 0 0 0 0 0 0 0 1 0 0 0 0 0 0 0 0 0 1 0 0 0 0 0 0 0 0 0 1 0 0 0 0 0 0 0 0 0 1 0 0 0 0 0 0 0 0 0 1 0 0 0 0 0 0 0 0 0 1 0 0 0 0 0 0 0 0 0 1 0 0 0 0 0 0 0 0 0 1 0 0 0 0 0 0 0 0 0 1 0 0 0 0 0 0 0 0 0 1 0 0 0 0 0 0 0 0 0 1 0 0 0 0 0 0 0 0 0 1 0 0 0 0 0 0 0 0 0 1 0 0 0 0 0 0 0 0 0 1 0 0 0 0 0 0 0 0 0 1 0 0 0 0 0 0 0 0 0 1 0 0 0 0 0 0 0 0 0 1 0 0 0 0 0 0 0 0 0 1 0 0 0 0 0 0 0 0 0 1 0 0 0 0 0 0 0 0 0 1 0 0 0 0 0 0 0 0 0 1 0 0 0 0 0 0 0 0 0 1 0 0 0 0 0 0 0 0 0 1 0 0 0 0 0 0 0 0 0 1 0 0 0 0 0 0 0 0 0 1 0 0 0 0 0 0 0 0 0 1 0 0 0 0 0 0 0 0 0 1 0 0 0 0 0 0 0 0 0 1 0 0 0 0 0 0 0 0 0 1 0 0 0 0 0 0 0 0 0 1 0 0 0 0 0 0 0 0 0 1 0 0 0 0 0 0 0 0 0 1 0 0 0 0 0 0 0 0 0 1 0 0 0 0 0 0 0 0 0 1 0 0 0 0 0 0 0 0 0 1 0 0 0 0 0 0 0 0 0 1 0 0 0 0 0 0 0 0 0 1 0 0 0 0 0 0 0 0 0 1 0 0 0 0 0 0 0 0 0 1 0 0 0 0 0 0 0 0 0 1 0 0 0 0 0 0 0 0 0 1 0 0 0 0 0 0 0 0 0 1 0 0 0 0 0 0 0 0 0 1 0 0 0 0 0 0 0 0 0 1 0 0 0 0 0 0 0 0 0 1 0 0 0 0 0 0.1594 0.668 0.1726 0 0 0 0 0 0 0 0 0.17 0.6589 0.1711 0 0 0 0 0 0 0 0 0.166 0.6687 0.1653 0 0 0 0 0 0 0 0 0.1683 0.8317 0 0 0 0 0 0 0 0 0 1 0 0 0 0 0 0 0 0 0 1 0 0 0 0 0 0 0 0 0 1 0 0 0 0 0 0 0 0 0 1 0 0 0 0 0 0 0 0 0 1 0 0 0 0 0 0 0 0 0 1 0 0 0 0 0 0 0.1621 0.6732 0.1647 0 0 0 0 0 0 0 0 0.1654 0.6598000000000001 0.1748 0 0 0 0 0 0 0 0 0.1684 0.8316 0 0 0 0 0 0 0 0 0 1 0 0 0 0 0 0 0 0 0 1 0 0 0 0 0 0 0 0 0 1 0 0 0 0 0 0 0 0 0 1 0 0 0 0 0 0 0 0 0 1 0 0 0 0 0 0 0 0 0 1 0 0 0 0 0 0 0 0 0 1 0 0 0 0 0 0 0 0.1671 0.6693 0.1636 0 0 0 0 0 0 0 0 0.1699 0.8300999999999999 0 0 0 0 0 0 0 0 0 1 0 0 0 0 0 0 0 0 0 1 0 0 0 0 0 0 0 0 0 1 0 0 0 0 0 0 0 0 0 1 0 0 0 0 0 0 0 0 0 1 0 0 0 0 0 0 0 0 0 1 0 0 0 0 0 0 0 0 0 1 0 0 0 0 0 0 0 0 0 1 0 0 0 0 0 0 0 0 0.1661 0.8339 0 0 0 0 0 0 0 0 0 1 0 0 0 0 0 0 0 0 0 1 0 0 0 0 0 0 0 0 0 1 0 0 0 0 0 0 0 0 0 1 0 0 0 0 0 0 0 0 0 1 0 0 0 0 0 0 0 0 0 1 0 0 0 0 0 0 0 0 0 1 0 0 0 0 0 0 0 0 0 1 0 0 0 0 0 0 0 0 0 1 0 0 0 0 0 0 0 0 0 1 0 0 0 0 0 0 0 0 0 1 0 0 0 0 0 0 0 0 0 1 0 0 0 0 0 0 0 0 0 1 0 0 0 0 0 0 0 0 0 1 0 0 0 0 0 0 0 0 0 1 0 0 0 0 0 0 0 0 0 1 0 0 0 0 0 0 0 0 0 1 0 0 0 0 0 0 0 0 0 1 0 0 0 0 0 0 0 0 0 1 0 0 0 0 0 0 0 0 0 1 0 0 0 0 0 0 0 0 0 1 0 0 0 0 0 0 0 0 0 1 0 0 0 0 0 0 0 0 0 1 0 0 0 0 0 0 0 0 0 1 0 0 0 0 0 0 0 0 0 1 0 0 0 0 0 0 0 0 0 1 0 0 0 0 0 0 0 0 0 1 0 0 0 0 0 0 0 0 0 1 0 0 0 0 0 0 0 0 0 1 0 0 0 0 0 0 0 0 0 1 0 0 0 0 0 0 0 0 0 1 0 0 0 0 0 0 0 0 0 1 0 0 0 0 0 0 0 0 0 1 0 0 0 0 0 0 0 0 0 1 0 0 0 0 0 0 0 0 0 1 0 0 0 0 0 0 0 0 0 1 0 0 0 0 0 0 0 0 0 1 0 0 0 0 0 0 0 0 0 1 0 0 0 0 0 0 0 0 0 1 0 0 0 0 0 0 0 0 0 1 0 0 0 0 0 0 0 0 0 1 0 0 0 0 0 0 0 0 0 1 0 0 0 0 0 0 0 0 0 1 0 0 0 0 0 0 0 0 0 1 0 0 0 0 0 0 0 0 0 1 0 0 0 0 0 0 0 0 0 1 0 0 0 0 0 0 0 0 0 1 0 0 0 0 0 0 0 0 0 1 0 0 0 0 0 0 0 0 0 1 0 0 0 0 0 0 0 0 0 1 0 0 0 0 0 0 0 0 0 1 0 0 0 0 0 0 0 0 0 1 0 0 0 0 0 0 0 0 0 1 0 0 0 0 0 0 0 0 0 1 0 0 0 0 0 0 0 0 0 1 0 0 0 0 0 0 0 0 0 1 0 0 0 0 0 0 0 0 0 1 0 0 0 0 0 0 0 0 0 1 0 0 0 0 0 0 0 0 0 1 0 0 0 0 0 0 0 0 0 1 0 0 0 0 0 0 0 0 0 1 0 0 0 0 0 0 0 0 0 1 0 0 0 0 0 0 0 0 0 1 0 0 0 0 0 0 0 0 0 1 0 0 0 0 0 0 0 0 0 1 0 0 0 0 0 0 0 0 0 1 0 0 0 0 0 0 0 0 0 1 0 0 0 0 0 0 0 0 0 1 0 0 0 0 0 0 0 0 0 1 0 0 0 0 0 0 0.1637 0.6674 0.1689 0 0 0 0 0 0 0 0 0.1705 0.6625 0.167 0 0 0 0 0 0 0 0 0.1612 0.8388 0 0 0 0 0 0 0 0 0 1 0 0 0 0 0 0 0 0 0 1 0 0 0 0 0 0 0 0 0 1 0 0 0 0 0 0 0 0 0 1 0 0 0 0 0 0 0 0 0 1 0 0 0 0 0 0 0 0 0 1 0 0 0 0 0 0 0 0 0 1 0 0 0 0 0 0 0 0.1657 0.6685 0.1658 0 0 0 0 0 0 0 0 0.1692 0.8308 0 0 0 0 0 0 0 0 0 1 0 0 0 0 0 0 0 0 0 1 0 0 0 0 0 0 0 0 0 1 0 0 0 0 0 0 0 0 0 1 0 0 0 0 0 0 0 0 0 1 0 0 0 0 0 0 0 0 0 1 0 0 0 0 0 0 0 0 0 1 0 0 0 0 0 0 0 0 0 1 0 0 0 0 0 0 0 0 0.1706 0.8294 0 0 0 0 0 0 0 0 0 1 0 0 0 0 0 0 0 0 0 1 0 0 0 0 0 0 0 0 0 1 0 0 0 0 0 0 0 0 0 1 0 0 0 0 0 0 0 0 0 1 0 0 0 0 0 0 0 0 0 1 0 0 0 0 0 0 0 0 0 1 0 0 0 0 0 0 0 0 0 1 0 0 0 0 0 0 0 0 0 1 0 0 0 0 0 0 0 0 0 1 0 0 0 0 0 0 0 0 0 1 0 0 0 0 0 0 0 0 0 1 0 0 0 0 0 0 0 0 0 1 0 0 0 0 0 0 0 0 0 1 0 0 0 0 0 0 0 0 0 1 0 0 0 0 0 0 0 0 0 1 0 0 0 0 0 0 0 0 0 1 0 0 0 0 0 0 0 0 0 1 0 0 0 0 0 0 0 0 0 1 0 0 0 0 0 0 0 0 0 1 0 0 0 0 0 0 0 0 0 1 0 0 0 0 0 0 0 0 0 1 0 0 0 0 0 0 0 0 0 1 0 0 0 0 0 0 0 0 0 1 0 0 0 0 0 0 0 0 0 1 0 0 0 0 0 0 0 0 0 1 0 0 0 0 0 0 0 0 0 1 0 0 0 0 0 0 0 0 0 1 0 0 0 0 0 0 0 0 0 1 0 0 0 0 0 0 0 0 0 1 0 0 0 0 0 0 0 0 0 1 0 0 0 0 0 0 0 0 0 1 0 0 0 0 0 0 0 0 0 1 0 0 0 0 0 0 0 0 0 1 0 0 0 0 0 0 0 0 0 1 0 0 0 0 0 0 0 0 0 1 0 0 0 0 0 0 0 0 0 1 0 0 0 0 0 0 0 0 0 1 0 0 0 0 0 0 0 0 0 1 0 0 0 0 0 0 0 0 0 1 0 0 0 0 0 0 0 0 0 1 0 0 0 0 0 0 0 0 0 1 0 0 0 0 0 0 0 0 0 1 0 0 0 0 0 0 0 0 0 1 0 0 0 0 0 0 0 0 0 1 0 0 0 0 0 0 0 0 0 1 0 0 0 0 0 0 0 0 0 1 0 0 0 0 0 0 0 0 0 1 0 0 0 0 0 0 0 0 0 1 0 0 0 0 0 0 0 0 0 1 0 0 0 0 0 0 0 0 0 1 0 0 0 0 0 0 0 0 0 1 0 0 0 0 0 0 0 0 0 1 0 0 0 0 0 0 0 0 0 1 0 0 0 0 0 0 0 0 0 1 0 0 0 0 0 0 0 0 0 1 0 0 0 0 0 0 0 0 0 1 0 0 0 0 0 0 0 0 0 1 0 0 0 0 0 0 0 0 0 1 0 0 0 0 0 0 0 0 0 1 0 0 0 0 0 0 0 0 0 1 0 0 0 0 0 0 0 0 0 1 0 0 0 0 0 0 0 0 0 1 0 0 0 0 0 0 0 0 0 1 0 0 0 0 0 0 0 0 0 1 0 0 0 0 0 0 0 0 0 1 0 0 0 0 0 0 0 0 0 1 0 0 0 0 0 0 0 0 0 1 0 0 0 0 0 0 0 0 0 1 0 0 0 0 0 0 0 0 0 1 0 0 0 0 0 0 0 0 0 1 0 0 0 0 0 0 0 0 0 1 0 0 0 0 0 0 0 0 0 1 0 0 0 0 0 0 0 0 0 1 0 0 0 0 0 0 0 0 0 1 0 0 0 0 0 0 0 0 0 1 0 0 0 0 0 0 0 0 0 1 0 0 0 0 0 0 0 0 0 1 0 0 0 0 0 0 0 0 0 1 0 0 0 0 0 0 0 0.1764 0.6574 0.1662 0 0 0 0 0 0 0 0 0.1669 0.8331 0 0 0 0 0 0 0 0 0 1 0 0 0 0 0 0 0 0 0 1 0 0 0 0 0 0 0 0 0 1 0 0 0 0 0 0 0 0 0 1 0 0 0 0 0 0 0 0 0 1 0 0 0 0 0 0 0 0 0 1 0 0 0 0 0 0 0 0 0 1 0 0 0 0 0 0 0 0 0 1 0 0 0 0 0 0 0 0 0.164 0.836 0 0 0 0 0 0 0 0 0 1 0 0 0 0 0 0 0 0 0 1 0 0 0 0 0 0 0 0 0 1 0 0 0 0 0 0 0 0 0 1 0 0 0 0 0 0 0 0 0 1 0 0 0 0 0 0 0 0 0 1 0 0 0 0 0 0 0 0 0 1 0 0 0 0 0 0 0 0 0 1 0 0 0 0 0 0 0 0 0 1 0 0 0 0 0 0 0 0 0 1 0 0 0 0 0 0 0 0 0 1 0 0 0 0 0 0 0 0 0 1 0 0 0 0 0 0 0 0 0 1 0 0 0 0 0 0 0 0 0 1 0 0 0 0 0 0 0 0 0 1 0 0 0 0 0 0 0 0 0 1 0 0 0 0 0 0 0 0 0 1 0 0 0 0 0 0 0 0 0 1 0 0 0 0 0 0 0 0 0 1 0 0 0 0 0 0 0 0 0 1 0 0 0 0 0 0 0 0 0 1 0 0 0 0 0 0 0 0 0 1 0 0 0 0 0 0 0 0 0 1 0 0 0 0 0 0 0 0 0 1 0 0 0 0 0 0 0 0 0 1 0 0 0 0 0 0 0 0 0 1 0 0 0 0 0 0 0 0 0 1 0 0 0 0 0 0 0 0 0 1 0 0 0 0 0 0 0 0 0 1 0 0 0 0 0 0 0 0 0 1 0 0 0 0 0 0 0 0 0 1 0 0 0 0 0 0 0 0 0 1 0 0 0 0 0 0 0 0 0 1 0 0 0 0 0 0 0 0 0 1 0 0 0 0 0 0 0 0 0 1 0 0 0 0 0 0 0 0 0 1 0 0 0 0 0 0 0 0 0 1 0 0 0 0 0 0 0 0 0 1 0 0 0 0 0 0 0 0 0 1 0 0 0 0 0 0 0 0 0 1 0 0 0 0 0 0 0 0 0 1 0 0 0 0 0 0 0 0 0 1 0 0 0 0 0 0 0 0 0 1 0 0 0 0 0 0 0 0 0 1 0 0 0 0 0 0 0 0 0 1 0 0 0 0 0 0 0 0 0 1 0 0 0 0 0 0 0 0 0 1 0 0 0 0 0 0 0 0 0 1 0 0 0 0 0 0 0 0 0 1 0 0 0 0 0 0 0 0 0 1 0 0 0 0 0 0 0 0 0 1 0 0 0 0 0 0 0 0 0 1 0 0 0 0 0 0 0 0 0 1 0 0 0 0 0 0 0 0 0 1 0 0 0 0 0 0 0 0 0 1 0 0 0 0 0 0 0 0 0 1 0 0 0 0 0 0 0 0 0 1 0 0 0 0 0 0 0 0 0 1 0 0 0 0 0 0 0 0 0 1 0 0 0 0 0 0 0 0 0 1 0 0 0 0 0 0 0 0 0 1 0 0 0 0 0 0 0 0 0 1 0 0 0 0 0 0 0 0 0 1 0 0 0 0 0 0 0 0 0 1 0 0 0 0 0 0 0 0 0 1 0 0 0 0 0 0 0 0 0 1 0 0 0 0 0 0 0 0 0 1 0 0 0 0 0 0 0 0 0 1 0 0 0 0 0 0 0 0 0 1 0 0 0 0 0 0 0 0 0 1 0 0 0 0 0 0 0 0 0 1 0 0 0 0 0 0 0 0 0 1 0 0 0 0 0 0 0 0 0 1 0 0 0 0 0 0 0 0 0 1 0 0 0 0 0 0 0 0 0 1 0 0 0 0 0 0 0 0 0 1 0 0 0 0 0 0 0 0 0 1 0 0 0 0 0 0 0 0 0 1 0 0 0 0 0 0 0 0 0 1 0 0 0 0 0 0 0 0 0 1 0 0 0 0 0 0 0 0 0 1 0 0 0 0 0 0 0 0 0 1 0 0 0 0 0 0 0 0 0 1 0 0 0 0 0 0 0 0 0 1 0 0 0 0 0 0 0 0 0 1 0 0 0 0 0 0 0 0 0 1 0 0 0 0 0 0 0 0 0 1 0 0 0 0 0 0 0 0 0 1 0 0 0 0 0 0 0 0 0 1 0 0 0 0 0 0 0 0 0.1681 0.8319 0 0 0 0 0 0 0 0 0 1 0 0 0 0 0 0 0 0 0 1 0 0 0 0 0 0 0 0 0 1 0 0 0 0 0 0 0 0 0 1 0 0 0 0 0 0 0 0 0 1 0 0 0 0 0 0 0 0 0 1 0 0 0 0 0 0 0 0 0 1 0 0 0 0 0 0 0 0 0 1 0 0 0 0 0 0 0 0 0 1 0 0 0 0 0 0 0 0 0 1 0 0 0 0 0 0 0 0 0 1 0 0 0 0 0 0 0 0 0 1 0 0 0 0 0 0 0 0 0 1 0 0 0 0 0 0 0 0 0 1 0 0 0 0 0 0 0 0 0 1 0 0 0 0 0 0 0 0 0 1 0 0 0 0 0 0 0 0 0 1 0 0 0 0 0 0 0 0 0 1 0 0 0 0 0 0 0 0 0 1 0 0 0 0 0 0 0 0 0 1 0 0 0 0 0 0 0 0 0 1 0 0 0 0 0 0 0 0 0 1 0 0 0 0 0 0 0 0 0 1 0 0 0 0 0 0 0 0 0 1 0 0 0 0 0 0 0 0 0 1 0 0 0 0 0 0 0 0 0 1 0 0 0 0 0 0 0 0 0 1 0 0 0 0 0 0 0 0 0 1 0 0 0 0 0 0 0 0 0 1 0 0 0 0 0 0 0 0 0 1 0 0 0 0 0 0 0 0 0 1 0 0 0 0 0 0 0 0 0 1 0 0 0 0 0 0 0 0 0 1 0 0 0 0 0 0 0 0 0 1 0 0 0 0 0 0 0 0 0 1 0 0 0 0 0 0 0 0 0 1 0 0 0 0 0 0 0 0 0 1 0 0 0 0 0 0 0 0 0 1 0 0 0 0 0 0 0 0 0 1 0 0 0 0 0 0 0 0 0 1 0 0 0 0 0 0 0 0 0 1 0 0 0 0 0 0 0 0 0 1 0 0 0 0 0 0 0 0 0 1 0 0 0 0 0 0 0 0 0 1 0 0 0 0 0 0 0 0 0 1 0 0 0 0 0 0 0 0 0 1 0 0 0 0 0 0 0 0 0 1 0 0 0 0 0 0 0 0 0 1 0 0 0 0 0 0 0 0 0 1 0 0 0 0 0 0 0 0 0 1 0 0 0 0 0 0 0 0 0 1 0 0 0 0 0 0 0 0 0 1 0 0 0 0 0 0 0 0 0 1 0 0 0 0 0 0 0 0 0 1 0 0 0 0 0 0 0 0 0 1 0 0 0 0 0 0 0 0 0 1 0 0 0 0 0 0 0 0 0 1 0 0 0 0 0 0 0 0 0 1 0 0 0 0 0 0 0 0 0 1 0 0 0 0 0 0 0 0 0 1 0 0 0 0 0 0 0 0 0 1 0 0 0 0 0 0 0 0 0 1 0 0 0 0 0 0 0 0 0 1 0 0 0 0 0 0 0 0 0 1 0 0 0 0 0 0 0 0 0 1 0 0 0 0 0 0 0 0 0 1 0 0 0 0 0 0 0 0 0 1 0 0 0 0 0 0 0 0 0 1 0 0 0 0 0 0 0 0 0 1 0 0 0 0 0 0 0 0 0 1 0 0 0 0 0 0 0 0 0 1 0 0 0 0 0 0 0 0 0 1 0 0 0 0 0 0 0 0 0 1 0 0 0 0 0 0 0 0 0 1 0 0 0 0 0 0 0 0 0 1 0 0 0 0 0 0 0 0 0 1 0 0 0 0 0 0 0 0 0 1 0 0 0 0 0 0 0 0 0 1 0 0 0 0 0 0 0 0 0 1 0 0 0 0 0 0 0 0 0 1 0 0 0 0 0 0 0 0 0 1 0 0 0 0 0 0 0 0 0 1 0 0 0 0 0 0 0 0 0 1 0 0 0 0 0 0 0 0 0 1 0 0 0 0 0 0 0 0 0 1 0 0 0 0 0 0 0 0 0 1 0 0 0 0 0 0 0 0 0 1 0 0 0 0 0 0 0 0 0 1 0 0 0 0 0 0 0 0 0 1 0 0 0 0 0 0 0 0 0 1 0 0 0 0 0 0 0 0 0 1 0 0 0 0 0 0 0 0 0 1 0 0 0 0 0 0 0 0 0 1 0 0 0 0 0 0 0 0 0 1 0 0 0 0 0 0 0 0 0 1 0 0 0 0 0 0 0 0 0 1 0 0 0 0 0 0 0 0 0 1 0 0 0 0 0 0 0 0 0 1 0 0 0 0 0 0 0 0 0 1</probabilities>
		</cpt>
		<cpt id="frequency_of_loss_of_control_due_to_motor_wear">
			<state id="State0" />
			<state id="State1" />
			<state id="State2" />
			<state id="State3" />
			<state id="State4" />
			<state id="State5" />
			<state id="State6" />
			<state id="State7" />
			<state id="State8" />
			<state id="State9" />
			<intervals>0 0.005908012045062 0.01527158011626 0.03011183540944 0.053632054998 0.09090909090909 0.1499892113597 0.2436248920717 0.3920274450035 0.6272296408891 1</intervals>
			<parents>motor_wear</parents>
			<probabilities>1 0 0 0 0 0 0 0 0 0 1 0 0 0 0 0 0 0 0 0 1 0 0 0 0 0 0 0 0 0 0.5794 0.4206 0 0 0 0 0 0 0 0 0 0.3235 0.6414 0.0351 0 0 0 0 0 0 0 0 0 0.58 0.42 0 0 0 0 0 0 0 0 0 0.1941 0.6518 0.1541 0 0 0 0 0 0 0 0 0 0.5422 0.4578 0 0 0 0 0 0 0 0 0 0.2902 0.7098 0 0 0 0 0 0 0 0 0 0.1154 0.8846000000000001</probabilities>
		</cpt>
		<cpt id="max_upwards_acceleration">
			<state id="State0" />
			<state id="State1" />
			<state id="State2" />
			<state id="State3" />
			<state id="State4" />
			<intervals>0.05 0.08 0.11 0.14 0.17 0.2</intervals>
			<probabilities>0.1829268292682927 0.214769647696477 0.1903794037940379 0.2168021680216802 0.1951219512195122</probabilities>
		</cpt>
		<cpt id="safety_margin">
			<state id="State0" />
			<state id="State1" />
			<state id="State2" />
			<state id="State3" />
			<state id="State4" />
			<state id="State5" />
			<state id="State6" />
			<state id="State7" />
			<state id="State8" />
			<state id="State9" />
			<intervals>0.1 0.21 0.32 0.43 0.54 0.65 0.76 0.87 0.98 1.09 1.2</intervals>
			<probabilities>0.1026785714285714 0.1001742160278746 0.1050740418118467 0.1018074912891986 0.09483885017421603 0.09821428571428571 0.1005008710801394 0.09679878048780488 0.09854094076655052 0.1013719512195122</probabilities>
		</cpt>
		<cpt id="mean_motor_use">
			<state id="State0" />
			<state id="State1" />
			<state id="State2" />
			<state id="State3" />
			<state id="State4" />
			<state id="State5" />
			<state id="State6" />
			<state id="State7" />
			<state id="State8" />
			<state id="State9" />
			<intervals>0 0.1 0.2 0.3 0.4 0.5 0.6 0.7 0.8 0.9 1</intervals>
			<parents>motoruse_for_other max_upwards_acceleration motoruse_for_tether</parents>
			<probabilities>0.8537 0.1463 0 0 0 0 0 0 0 0 0.1105 0.7453 0.1442 0 0 0 0 0 0 0 0 0.1157 0.741 0.1433 0 0 0 0 0 0 0 0 0.1114 0.7435 0.1451 0 0 0 0 0 0 0 0 0.1151 0.7423 0.1426 0 0 0 0 0 0 0 0 0.1138 0.7415 0.1447 0 0 0 0 0 0 0 0 0.1135 0.7466 0.1399 0 0 0 0 0 0 0 0 0.1124 0.7362 0.1514 0 0 0 0 0 0 0 0 0.1133 0.7433999999999999 0.1433 0 0 0 0 0 0 0 0 0.1118 0.8882 0.6552 0.3448 0 0 0 0 0 0 0 0 0.018 0.6245000000000001 0.3575 0 0 0 0 0 0 0 0 0.0185 0.637 0.3445 0 0 0 0 0 0 0 0 0.0185 0.634 0.3475 0 0 0 0 0 0 0 0 0.0165 0.6327 0.3508 0 0 0 0 0 0 0 0 0.0182 0.6324 0.3494 0 0 0 0 0 0 0 0 0.0188 0.6294 0.3518 0 0 0 0 0 0 0 0 0.0173 0.6383 0.3444 0 0 0 0 0 0 0 0 0.0176 0.6414 0.341 0 0 0 0 0 0 0 0 0.0197 0.9802999999999999 0.385 0.6035 0.0115 0 0 0 0 0 0 0 0 0.39 0.5958 0.0142 0 0 0 0 0 0 0 0 0.3822 0.6061 0.0117 0 0 0 0 0 0 0 0 0.3807 0.6076 0.0117 0 0 0 0 0 0 0 0.0001 0.3835 0.6058 0.0106 0 0 0 0 0 0 0 0 0.3853 0.6022999999999999 0.0124 0 0 0 0 0 0 0 0 0.3763 0.6108 0.0129 0 0 0 0 0 0 0 0 0.3809 0.608 0.0111 0 0 0 0 0 0 0 0 0.3873 0.6127 0 0 0 0 0 0 0 0 0 1 0.1556 0.7463 0.09810000000000001 0 0 0 0 0 0 0 0 0.168 0.7396 0.0924 0 0 0 0 0 0 0 0 0.1638 0.7359 0.1003 0 0 0 0 0 0 0 0 0.1702 0.7334000000000001 0.0964 0 0 0 0 0 0 0 0 0.1695 0.7322 0.0983 0 0 0 0 0 0 0 0 0.1667 0.7337 0.09959999999999999 0 0 0 0 0 0 0 0 0.1652 0.7398 0.095 0 0 0 0 0 0 0 0 0.1692 0.7335 0.0973 0 0 0 0 0 0 0 0 0.1685 0.8315 0 0 0 0 0 0 0 0 0 1 0.0407 0.6938 0.2655 0 0 0 0 0 0 0 0 0.042 0.6860000000000001 0.272 0 0 0 0 0 0 0 0 0.0403 0.6974 0.2623 0 0 0 0 0 0 0 0 0.04 0.6886 0.2714 0 0 0 0 0 0 0 0 0.0425 0.6873 0.2702 0 0 0 0 0 0 0 0 0.0396 0.6867 0.2737 0 0 0 0 0 0 0 0 0.0397 0.6854 0.2749 0 0 0 0 0 0 0 0 0.0401 0.6803 0.2796 0 0 0 0 0 0 0 0 0.0389 0.9611 0 0 0 0 0 0 0 0 0 1 0.1164 0.7451 0.1385 0 0 0 0 0 0 0 0 0.1178 0.7406 0.1416 0 0 0 0 0 0 0 0 0.1154 0.7479 0.1367 0 0 0 0 0 0 0 0 0.1126 0.7495000000000001 0.1379 0 0 0 0 0 0 0 0 0.1146 0.7403 0.1451 0 0 0 0 0 0 0 0 0.1175 0.733 0.1495 0 0 0 0 0 0 0 0 0.1121 0.7417 0.1462 0 0 0 0 0 0 0 0 0.1138 0.7423999999999999 0.1438 0 0 0 0 0 0 0 0 0.1108 0.8892 0 0 0 0 0 0 0 0 0 1 0.0217 0.6349 0.3434 0 0 0 0 0 0 0 0 0.0186 0.633 0.3484 0 0 0 0 0 0 0 0 0.0185 0.6323 0.3492 0 0 0 0 0 0 0 0 0.0193 0.6304999999999999 0.3502 0 0 0 0 0 0 0 0 0.0184 0.6357 0.3459 0 0 0 0 0 0 0 0 0.0176 0.6301 0.3523 0 0 0 0 0 0 0 0 0.0172 0.6326000000000001 0.3502 0 0 0 0 0 0 0 0 0.018 0.6393 0.3427 0 0 0 0 0 0 0 0 0.0143 0.9857 0 0 0 0 0 0 0 0 0 1 0 0.3868 0.6032 0.01 0 0 0 0 0 0 0 0 0.3878 0.599 0.0132 0 0 0 0 0 0 0 0 0.3806 0.6069 0.0125 0 0 0 0 0 0 0 0 0.3885 0.6018 0.0097 0 0 0 0 0 0 0 0.0001 0.382 0.6042 0.0137 0 0 0 0 0 0 0 0 0.3793 0.609 0.0117 0 0 0 0 0 0 0 0 0.3745 0.6143 0.0112 0 0 0 0 0 0 0 0 0.3827 0.6173 0 0 0 0 0 0 0 0 0 1 0 0 0 0 0 0 0 0 0 1 0 0.1615 0.7372 0.1013 0 0 0 0 0 0 0 0 0.1601 0.739 0.1009 0 0 0 0 0 0 0 0 0.1715 0.7276 0.1009 0 0 0 0 0 0 0 0 0.1673 0.7355 0.09719999999999999 0 0 0 0 0 0 0 0 0.1684 0.7356 0.096 0 0 0 0 0 0 0 0 0.1646 0.7368 0.09859999999999999 0 0 0 0 0 0 0 0 0.16 0.7464 0.0936 0 0 0 0 0 0 0 0 0.1632 0.8368 0 0 0 0 0 0 0 0 0 1 0 0 0 0 0 0 0 0 0 1 0 0.0408 0.6923 0.2669 0 0 0 0 0 0 0 0 0.0415 0.6964 0.2621 0 0 0 0 0 0 0 0 0.0366 0.6896 0.2738 0 0 0 0 0 0 0 0 0.0403 0.6839 0.2758 0 0 0 0 0 0 0 0 0.0359 0.6884 0.2757 0 0 0 0 0 0 0 0 0.0377 0.6979 0.2644 0 0 0 0 0 0 0 0 0.0407 0.6866 0.2727 0 0 0 0 0 0 0 0 0.041 0.959 0 0 0 0 0 0 0 0 0 1 0 0 0 0 0 0 0 0 0 1 0 0.1181 0.7422 0.1397 0 0 0 0 0 0 0 0 0.1169 0.7325 0.1506 0 0 0 0 0 0 0 0 0.119 0.7363 0.1447 0 0 0 0 0 0 0 0 0.1167 0.7405 0.1428 0 0 0 0 0 0 0 0 0.1126 0.7441 0.1433 0 0 0 0 0 0 0 0 0.1178 0.7378 0.1444 0 0 0 0 0 0 0 0 0.1161 0.7454 0.1385 0 0 0 0 0 0 0 0 0.1161 0.8839 0 0 0 0 0 0 0 0 0 1 0 0 0 0 0 0 0 0 0 1 0 0.0188 0.6319 0.3493 0 0 0 0 0 0 0 0 0.0177 0.6352 0.3471 0 0 0 0 0 0 0 0 0.0191 0.6429 0.338 0 0 0 0 0 0 0 0 0.0165 0.6331 0.3504 0 0 0 0 0 0 0 0 0.0177 0.6272 0.3551 0 0 0 0 0 0 0 0 0.0193 0.6389 0.3418 0 0 0 0 0 0 0 0 0.0183 0.6346000000000001 0.3471 0 0 0 0 0 0 0 0 0.0179 0.9821 0 0 0 0 0 0 0 0 0 1 0 0 0 0 0 0 0 0 0 1 0 0 0.3759 0.6111 0.013 0 0 0 0 0 0 0 0 0.3736 0.6138 0.0126 0 0 0 0 0 0 0 0 0.3771 0.6119 0.011 0 0 0 0 0 0 0 0 0.378 0.6106 0.0114 0 0 0 0 0 0 0 0.0001 0.3712 0.6173 0.0114 0 0 0 0 0 0 0 0 0.3783 0.6078 0.0139 0 0 0 0 0 0 0 0 0.3767 0.6233 0 0 0 0 0 0 0 0 0 1 0 0 0 0 0 0 0 0 0 1 0 0 0 0 0 0 0 0 0 1 0 0 0.1667 0.734 0.0993 0 0 0 0 0 0 0 0 0.1681 0.7378 0.0941 0 0 0 0 0 0 0 0 0.1613 0.7423 0.0964 0 0 0 0 0 0 0 0 0.1619 0.7416 0.0965 0 0 0 0 0 0 0 0 0.1681 0.7359 0.096 0 0 0 0 0 0 0 0 0.1613 0.741 0.0977 0 0 0 0 0 0 0 0 0.1747 0.8253 0 0 0 0 0 0 0 0 0 1 0 0 0 0 0 0 0 0 0 1 0 0 0 0 0 0 0 0 0 1 0 0 0.0422 0.6952 0.2626 0 0 0 0 0 0 0 0 0.0432 0.6877 0.2691 0 0 0 0 0 0 0 0 0.0411 0.6943 0.2646 0 0 0 0 0 0 0 0 0.0383 0.6945 0.2672 0 0 0 0 0 0 0 0 0.0419 0.6803 0.2778 0 0 0 0 0 0 0 0 0.041 0.6876 0.2714 0 0 0 0 0 0 0 0 0.0391 0.9609 0 0 0 0 0 0 0 0 0 1 0 0 0 0 0 0 0 0 0 1 0 0 0 0 0 0 0 0 0 1 0 0 0.1169 0.7378 0.1453 0 0 0 0 0 0 0 0 0.1125 0.748 0.1395 0 0 0 0 0 0 0 0 0.1171 0.7452 0.1377 0 0 0 0 0 0 0 0 0.1112 0.7436 0.1452 0 0 0 0 0 0 0 0 0.1127 0.7392 0.1481 0 0 0 0 0 0 0 0 0.1137 0.7371 0.1492 0 0 0 0 0 0 0 0 0.1152 0.8848 0 0 0 0 0 0 0 0 0 1 0 0 0 0 0 0 0 0 0 1 0 0 0 0 0 0 0 0 0 1 0 0 0.0199 0.6388 0.3413 0 0 0 0 0 0 0 0 0.0185 0.6356000000000001 0.3459 0 0 0 0 0 0 0 0 0.0184 0.6328 0.3488 0 0 0 0 0 0 0 0 0.016 0.6308 0.3532 0 0 0 0 0 0 0 0 0.0178 0.6415 0.3407 0 0 0 0 0 0 0 0 0.0159 0.6371 0.347 0 0 0 0 0 0 0 0 0.0176 0.9824000000000001 0 0 0 0 0 0 0 0 0 1 0 0 0 0 0 0 0 0 0 1 0 0 0 0 0 0 0 0 0 1 0 0 0 0.3785 0.6072 0.0143 0 0 0 0 0 0 0 0 0.3815 0.6068 0.0117 0 0 0 0 0 0 0 0 0.3882 0.5989 0.0129 0 0 0 0 0 0 0 0 0.3834 0.6055 0.0111 0 0 0 0 0 0 0 0 0.388 0.5987 0.0133 0 0 0 0 0 0 0 0 0.3904 0.6096 0 0 0 0 0 0 0 0 0 1 0 0 0 0 0 0 0 0 0 1 0 0 0 0 0 0 0 0 0 1 0 0 0 0 0 0 0 0 0 1 0 0 0 0.1659 0.7391 0.095 0 0 0 0 0 0 0 0 0.1676 0.7369 0.0955 0 0 0 0 0 0 0 0 0.1662 0.7367 0.09710000000000001 0 0 0 0 0 0 0 0 0.1686 0.739 0.0924 0 0 0 0 0 0 0 0 0.1715 0.7336 0.0949 0 0 0 0 0 0 0 0 0.1653 0.8347 0 0 0 0 0 0 0 0 0 1 0 0 0 0 0 0 0 0 0 1 0 0 0 0 0 0 0 0 0 1 0 0 0 0 0 0 0 0 0 1 0 0 0 0.037 0.6905 0.2725 0 0 0 0 0 0 0 0 0.0383 0.6869 0.2748 0 0 0 0 0 0 0 0 0.0422 0.6816 0.2762 0 0 0 0 0 0 0 0 0.0414 0.6895 0.2691 0 0 0 0 0 0 0 0 0.0426 0.6856 0.2718 0 0 0 0 0 0 0 0 0.0393 0.9607 0 0 0 0 0 0 0 0 0 1 0 0 0 0 0 0 0 0 0 1 0 0 0 0 0 0 0 0 0 1 0 0 0 0 0 0 0 0 0 1 0 0 0 0.1152 0.7402 0.1446 0 0 0 0 0 0 0 0 0.1151 0.7423999999999999 0.1425 0 0 0 0 0 0 0 0 0.1199 0.7359 0.1442 0 0 0 0 0 0 0 0 0.1204 0.7341 0.1455 0 0 0 0 0 0 0 0 0.1168 0.7312 0.152 0 0 0 0 0 0 0 0 0.1116 0.8884 0 0 0 0 0 0 0 0 0 1 0 0 0 0 0 0 0 0 0 1 0 0 0 0 0 0 0 0 0 1 0 0 0 0 0 0 0 0 0 1 0 0 0 0.0207 0.6227 0.3566 0 0 0 0 0 0 0 0 0.0175 0.6254999999999999 0.357 0 0 0 0 0 0 0 0 0.019 0.6331 0.3479 0 0 0 0 0 0 0 0 0.0189 0.6332 0.3479 0 0 0 0 0 0 0 0 0.0199 0.6284 0.3517 0 0 0 0 0 0 0 0 0.0192 0.9808 0 0 0 0 0 0 0 0 0 1 0 0 0 0 0 0 0 0 0 1 0 0 0 0 0 0 0 0 0 1 0 0 0 0 0 0 0 0 0 1 0 0 0 0 0.3832 0.6069 0.009900000000000001 0 0 0 0 0 0 0 0 0.3751 0.6103 0.0146 0 0 0 0 0 0 0 0 0.3858 0.6018 0.0124 0 0 0 0 0 0 0 0 0.3843 0.6041 0.0116 0 0 0 0 0 0 0 0 0.3814 0.6186 0 0 0 0 0 0 0 0 0 1 0 0 0 0 0 0 0 0 0 1 0 0 0 0 0 0 0 0 0 1 0 0 0 0 0 0 0 0 0 1 0 0 0 0 0 0 0 0 0 1 0 0 0 0 0.1705 0.7348 0.09470000000000001 0 0 0 0 0 0 0 0 0.1687 0.7297 0.1016 0 0 0 0 0 0 0 0 0.1598 0.7418 0.0984 0 0 0 0 0 0 0 0 0.1667 0.7373 0.096 0 0 0 0 0 0 0 0 0.1637 0.8363 0 0 0 0 0 0 0 0 0 1 0 0 0 0 0 0 0 0 0 1 0 0 0 0 0 0 0 0 0 1 0 0 0 0 0 0 0 0 0 1 0 0 0 0 0 0 0 0 0 1 0 0 0 0 0.0416 0.6884 0.27 0 0 0 0 0 0 0 0 0.0366 0.6948 0.2686 0 0 0 0 0 0 0 0 0.0379 0.6891 0.273 0 0 0 0 0 0 0 0 0.0403 0.6952 0.2645 0 0 0 0 0 0 0 0 0.0396 0.9604 0 0 0 0 0 0 0 0 0 1 0 0 0 0 0 0 0 0 0 1 0 0 0 0 0 0 0 0 0 1 0 0 0 0 0 0 0 0 0 1 0 0 0 0 0 0 0 0 0 1 0 0 0 0 0.1165 0.7386 0.1449 0 0 0 0 0 0 0 0 0.1158 0.7409 0.1433 0 0 0 0 0 0 0 0 0.112 0.7436 0.1444 0 0 0 0 0 0 0 0 0.1113 0.7395 0.1492 0 0 0 0 0 0 0 0 0.121 0.879 0 0 0 0 0 0 0 0 0 1 0 0 0 0 0 0 0 0 0 1 0 0 0 0 0 0 0 0 0 1 0 0 0 0 0 0 0 0 0 1 0 0 0 0 0 0 0 0 0 1 0 0 0 0 0.0176 0.6334 0.349 0 0 0 0 0 0 0 0 0.0145 0.6359 0.3496 0 0 0 0 0 0 0 0 0.0175 0.6343 0.3482 0 0 0 0 0 0 0 0 0.0186 0.6299 0.3515 0 0 0 0 0 0 0 0 0.0165 0.9835 0 0 0 0 0 0 0 0 0 1 0 0 0 0 0 0 0 0 0 1 0 0 0 0 0 0 0 0 0 1 0 0 0 0 0 0 0 0 0 1 0 0 0 0 0 0 0 0 0 1 0 0 0 0 0 0.3819 0.6044 0.0137 0 0 0 0 0 0 0 0 0.385 0.6022999999999999 0.0127 0 0 0 0 0 0 0 0 0.3812 0.6076 0.0112 0 0 0 0 0 0 0 0 0.3862 0.6138 0 0 0 0 0 0 0 0 0 1 0 0 0 0 0 0 0 0 0 1 0 0 0 0 0 0 0 0 0 1 0 0 0 0 0 0 0 0 0 1 0 0 0 0 0 0 0 0 0 1 0 0 0 0 0 0 0 0 0 1 0 0 0 0 0 0.1684 0.7375 0.0941 0 0 0 0 0 0 0 0 0.1587 0.7361 0.1052 0 0 0 0 0 0 0 0 0.1643 0.7446 0.0911 0 0 0 0 0 0 0 0 0.1713 0.8287 0 0 0 0 0 0 0 0 0 1 0 0 0 0 0 0 0 0 0 1 0 0 0 0 0 0 0 0 0 1 0 0 0 0 0 0 0 0 0 1 0 0 0 0 0 0 0 0 0 1 0 0 0 0 0 0 0 0 0 1 0 0 0 0 0 0.0403 0.6833 0.2764 0 0 0 0 0 0 0 0 0.04 0.6889999999999999 0.271 0 0 0 0 0 0 0 0 0.0416 0.6898 0.2686 0 0 0 0 0 0 0 0 0.0423 0.9577 0 0 0 0 0 0 0 0 0 1 0 0 0 0 0 0 0 0 0 1 0 0 0 0 0 0 0 0 0 1 0 0 0 0 0 0 0 0 0 1 0 0 0 0 0 0 0 0 0 1 0 0 0 0 0 0 0 0 0 1 0 0 0 0 0 0.1135 0.7416 0.1449 0 0 0 0 0 0 0 0 0.1185 0.7386 0.1429 0 0 0 0 0 0 0 0 0.1159 0.7402 0.1439 0 0 0 0 0 0 0 0 0.1181 0.8819 0 0 0 0 0 0 0 0 0 1 0 0 0 0 0 0 0 0 0 1 0 0 0 0 0 0 0 0 0 1 0 0 0 0 0 0 0 0 0 1 0 0 0 0 0 0 0 0 0 1 0 0 0 0 0 0 0 0 0 1 0 0 0 0 0 0.019 0.6259 0.3551 0 0 0 0 0 0 0 0 0.0176 0.6322 0.3502 0 0 0 0 0 0 0 0 0.0178 0.6345 0.3477 0 0 0 0 0 0 0 0 0.0181 0.9819 0 0 0 0 0 0 0 0 0 1 0 0 0 0 0 0 0 0 0 1 0 0 0 0 0 0 0 0 0 1 0 0 0 0 0 0 0 0 0 1 0 0 0 0 0 0 0 0 0 1 0 0 0 0 0 0 0 0 0 1 0 0 0 0 0 0 0.3826 0.6055 0.0119 0 0 0 0 0 0 0 0 0.3798 0.6079 0.0123 0 0 0 0 0 0 0 0 0.3875 0.6125 0 0 0 0 0 0 0 0 0 1 0 0 0 0 0 0 0 0 0 1 0 0 0 0 0 0 0 0 0 1 0 0 0 0 0 0 0 0 0 1 0 0 0 0 0 0 0 0 0 1 0 0 0 0 0 0 0 0 0 1 0 0 0 0 0 0 0 0 0 1 0 0 0 0 0 0 0.1594 0.7363 0.1043 0 0 0 0 0 0 0 0 0.1695 0.7342 0.0963 0 0 0 0 0 0 0 0 0.164 0.836 0 0 0 0 0 0 0 0 0 1 0 0 0 0 0 0 0 0 0 1 0 0 0 0 0 0 0 0 0 1 0 0 0 0 0 0 0 0 0 1 0 0 0 0 0 0 0 0 0 1 0 0 0 0 0 0 0 0 0 1 0 0 0 0 0 0 0 0 0 1 0 0 0 0 0 0 0.0425 0.6848 0.2727 0 0 0 0 0 0 0 0 0.0396 0.6908 0.2696 0 0 0 0 0 0 0 0 0.0362 0.9638 0 0 0 0 0 0 0 0 0 1 0 0 0 0 0 0 0 0 0 1 0 0 0 0 0 0 0 0 0 1 0 0 0 0 0 0 0 0 0 1 0 0 0 0 0 0 0 0 0 1 0 0 0 0 0 0 0 0 0 1 0 0 0 0 0 0 0 0 0 1 0 0 0 0 0 0 0.1201 0.7335 0.1464 0 0 0 0 0 0 0 0 0.1138 0.7482 0.138 0 0 0 0 0 0 0 0 0.1119 0.8881 0 0 0 0 0 0 0 0 0 1 0 0 0 0 0 0 0 0 0 1 0 0 0 0 0 0 0 0 0 1 0 0 0 0 0 0 0 0 0 1 0 0 0 0 0 0 0 0 0 1 0 0 0 0 0 0 0 0 0 1 0 0 0 0 0 0 0 0 0 1 0 0 0 0 0 0 0.0187 0.6248 0.3565 0 0 0 0 0 0 0 0 0.0178 0.6402 0.342 0 0 0 0 0 0 0 0 0.0169 0.9831 0 0 0 0 0 0 0 0 0 1 0 0 0 0 0 0 0 0 0 1 0 0 0 0 0 0 0 0 0 1 0 0 0 0 0 0 0 0 0 1 0 0 0 0 0 0 0 0 0 1 0 0 0 0 0 0 0 0 0 1 0 0 0 0 0 0 0 0 0 1 0 0 0 0 0 0 0 0.383 0.6058 0.0112 0 0 0 0 0 0 0 0 0.3775 0.6225000000000001 0 0 0 0 0 0 0 0 0 1 0 0 0 0 0 0 0 0 0 1 0 0 0 0 0 0 0 0 0 1 0 0 0 0 0 0 0 0 0 1 0 0 0 0 0 0 0 0 0 1 0 0 0 0 0 0 0 0 0 1 0 0 0 0 0 0 0 0 0 1 0 0 0 0 0 0 0 0 0 1 0 0 0 0 0 0 0 0.1639 0.7341 0.102 0 0 0 0 0 0 0 0 0.173 0.827 0 0 0 0 0 0 0 0 0 1 0 0 0 0 0 0 0 0 0 1 0 0 0 0 0 0 0 0 0 1 0 0 0 0 0 0 0 0 0 1 0 0 0 0 0 0 0 0 0 1 0 0 0 0 0 0 0 0 0 1 0 0 0 0 0 0 0 0 0 1 0 0 0 0 0 0 0 0 0 1 0 0 0 0 0 0 0 0.0421 0.6864 0.2715 0 0 0 0 0 0 0 0 0.0403 0.9597 0 0 0 0 0 0 0 0 0 1 0 0 0 0 0 0 0 0 0 1 0 0 0 0 0 0 0 0 0 1 0 0 0 0 0 0 0 0 0 1 0 0 0 0 0 0 0 0 0 1 0 0 0 0 0 0 0 0 0 1 0 0 0 0 0 0 0 0 0 1 0 0 0 0 0 0 0 0 0 1 0 0 0 0 0 0 0 0.1152 0.7444 0.1404 0 0 0 0 0 0 0 0 0.1137 0.8863 0 0 0 0 0 0 0 0 0 1 0 0 0 0 0 0 0 0 0 1 0 0 0 0 0 0 0 0 0 1 0 0 0 0 0 0 0 0 0 1 0 0 0 0 0 0 0 0 0 1 0 0 0 0 0 0 0 0 0 1 0 0 0 0 0 0 0 0 0 1 0 0 0 0 0 0 0 0 0 1 0 0 0 0 0 0 0 0.0198 0.6302 0.35 0 0 0 0 0 0 0 0 0.0187 0.9813 0 0 0 0 0 0 0 0 0 1 0 0 0 0 0 0 0 0 0 1 0 0 0 0 0 0 0 0 0 1 0 0 0 0 0 0 0 0 0 1 0 0 0 0 0 0 0 0 0 1 0 0 0 0 0 0 0 0 0 1 0 0 0 0 0 0 0 0 0 1 0 0 0 0 0 0 0 0 0 1 0 0 0 0 0 0 0 0 0.3843 0.6157 0 0 0 0 0 0 0 0 0 1 0 0 0 0 0 0 0 0 0 1 0 0 0 0 0 0 0 0 0 1 0 0 0 0 0 0 0 0 0 1 0 0 0 0 0 0 0 0 0 1 0 0 0 0 0 0 0 0 0 1 0 0 0 0 0 0 0 0 0 1 0 0 0 0 0 0 0 0 0 1 0 0 0 0 0 0 0 0 0 1 0 0 0 0 0 0 0 0 0.1625 0.8375 0 0 0 0 0 0 0 0 0 1 0 0 0 0 0 0 0 0 0 1 0 0 0 0 0 0 0 0 0 1 0 0 0 0 0 0 0 0 0 1 0 0 0 0 0 0 0 0 0 1 0 0 0 0 0 0 0 0 0 1 0 0 0 0 0 0 0 0 0 1 0 0 0 0 0 0 0 0 0 1 0 0 0 0 0 0 0 0 0 1 0 0 0 0 0 0 0 0 0.0394 0.9606 0 0 0 0 0 0 0 0 0 1 0 0 0 0 0 0 0 0 0 1 0 0 0 0 0 0 0 0 0 1 0 0 0 0 0 0 0 0 0 1 0 0 0 0 0 0 0 0 0 1 0 0 0 0 0 0 0 0 0 1 0 0 0 0 0 0 0 0 0 1 0 0 0 0 0 0 0 0 0 1 0 0 0 0 0 0 0 0 0 1 0 0 0 0 0 0 0 0 0.1109 0.8891 0 0 0 0 0 0 0 0 0 1 0 0 0 0 0 0 0 0 0 1 0 0 0 0 0 0 0 0 0 1 0 0 0 0 0 0 0 0 0 1 0 0 0 0 0 0 0 0 0 1 0 0 0 0 0 0 0 0 0 1 0 0 0 0 0 0 0 0 0 1 0 0 0 0 0 0 0 0 0 1 0 0 0 0 0 0 0 0 0 1 0 0 0 0 0 0 0 0 0.0168 0.9832 0 0 0 0 0 0 0 0 0 1 0 0 0 0 0 0 0 0 0 1 0 0 0 0 0 0 0 0 0 1 0 0 0 0 0 0 0 0 0 1 0 0 0 0 0 0 0 0 0 1 0 0 0 0 0 0 0 0 0 1 0 0 0 0 0 0 0 0 0 1 0 0 0 0 0 0 0 0 0 1 0 0 0 0 0 0 0 0 0 1 0 0 0 0 0 0 0 0 0 1 0 0 0 0 0 0 0 0 0 1 0 0 0 0 0 0 0 0 0 1 0 0 0 0 0 0 0 0 0 1 0 0 0 0 0 0 0 0 0 1 0 0 0 0 0 0 0 0 0 1 0 0 0 0 0 0 0 0 0 1 0 0 0 0 0 0 0 0 0 1 0 0 0 0 0 0 0 0 0 1 0 0 0 0 0 0 0 0 0 1 0 0 0 0 0 0 0 0 0 1 0 0 0 0 0 0 0 0 0 1 0 0 0 0 0 0 0 0 0 1 0 0 0 0 0 0 0 0 0 1 0 0 0 0 0 0 0 0 0 1 0 0 0 0 0 0 0 0 0 1 0 0 0 0 0 0 0 0 0 1 0 0 0 0 0 0 0 0 0 1 0 0 0 0 0 0 0 0 0 1 0 0 0 0 0 0 0 0 0 1 0 0 0 0 0 0 0 0 0 1 0 0 0 0 0 0 0 0 0 1 0 0 0 0 0 0 0 0 0 1 0 0 0 0 0 0 0 0 0 1 0 0 0 0 0 0 0 0 0 1 0 0 0 0 0 0 0 0 0 1 0 0 0 0 0 0 0 0 0 1 0 0 0 0 0 0 0 0 0 1 0 0 0 0 0 0 0 0 0 1 0 0 0 0 0 0 0 0 0 1</probabilities>
		</cpt>
		<cpt id="frequency_of_exceeding_safety_margin_due_to_turbulence">
			<state id="State0" />
			<state id="State1" />
			<state id="State2" />
			<state id="State3" />
			<state id="State4" />
			<state id="State5" />
			<state id="State6" />
			<state id="State7" />
			<state id="State8" />
			<state id="State9" />
			<intervals>0 0.005908012045062 0.01527158011626 0.03011183540944 0.053632054998 0.09090909090909 0.1499892113597 0.2436248920717 0.3920274450035 0.6272296408891 1</intervals>
			<parents>safety_margin turbulence</parents>
			<probabilities>0.642 0.2803 0.0746 0.0031 0 0 0 0 0 0 0.079 0.2795 0.2596 0.205 0.124 0.0503 0.0026 0 0 0 0 0.0012 0.0712 0.1458 0.1961 0.2136 0.1764 0.1278 0.0612 0.0067 0 0 0 0 0.0089 0.06419999999999999 0.1343 0.1906 0.213 0.389 0 0 0 0 0 0 0 0.0053 0.0614 0.9333 0 0 0 0 0 0 0 0 0 1 0 0 0 0 0 0 0 0 0 1 0 0 0 0 0 0 0 0 0 1 0 0 0 0 0 0 0 0 0 1 0 0 0 0 0 0 0 0 0 1 1 0 0 0 0 0 0 0 0 0 0.9281 0.07190000000000001 0 0 0 0 0 0 0 0 0.3727 0.3528 0.1938 0.0745 0.0062 0 0 0 0 0 0.0027 0.1261 0.221 0.2259 0.1984 0.1428 0.0722 0.0109 0 0 0 0 0.0013 0.0535 0.1198 0.188 0.2048 0.1973 0.1391 0.09619999999999999 0 0 0 0 0 0.0012 0.0469 0.1087 0.1767 0.6665 0 0 0 0 0 0 0 0 0.0002 0.9998 0 0 0 0 0 0 0 0 0 1 0 0 0 0 0 0 0 0 0 1 0 0 0 0 0 0 0 0 0 1 1 0 0 0 0 0 0 0 0 0 1 0 0 0 0 0 0 0 0 0 1 0 0 0 0 0 0 0 0 0 0.7401 0.2185 0.0414 0 0 0 0 0 0 0 0.1406 0.3239 0.253 0.1778 0.08550000000000001 0.0192 0 0 0 0 0 0.0198 0.108 0.189 0.2121 0.2021 0.1558 0.08840000000000001 0.0248 0 0 0 0 0 0.0351 0.09619999999999999 0.1625 0.2095 0.2025 0.2942 0 0 0 0 0 0 0 0.0264 0.0886 0.885 0 0 0 0 0 0 0 0 0 1 0 0 0 0 0 0 0 0 0 1 1 0 0 0 0 0 0 0 0 0 1 0 0 0 0 0 0 0 0 0 1 0 0 0 0 0 0 0 0 0 1 0 0 0 0 0 0 0 0 0 0.9671 0.0329 0 0 0 0 0 0 0 0 0.4843 0.3308 0.1417 0.0432 0 0 0 0 0 0 0.0223 0.1905 0.2437 0.2246 0.1771 0.1009 0.0408 0.0001 0 0 0 0 0.0145 0.09180000000000001 0.1528 0.2058 0.2016 0.1742 0.1068 0.0525 0 0 0 0 0 0.0157 0.077 0.1427 0.2026 0.5620000000000001 0 0 0 0 0 0 0 0 0.0107 0.9893 1 0 0 0 0 0 0 0 0 0 1 0 0 0 0 0 0 0 0 0 1 0 0 0 0 0 0 0 0 0 1 0 0 0 0 0 0 0 0 0 1 0 0 0 0 0 0 0 0 0 1 0 0 0 0 0 0 0 0 0 0.8244 0.1633 0.0123 0 0 0 0 0 0 0 0.2249 0.3399 0.251 0.1296 0.0526 0.002 0 0 0 0 0 0.0494 0.1542 0.2134 0.2072 0.1889 0.1276 0.056 0.0033 0 0 0 0 0.0091 0.0713 0.1315 0.1859 0.1989 0.1897 0.2136 1 0 0 0 0 0 0 0 0 0 1 0 0 0 0 0 0 0 0 0 1 0 0 0 0 0 0 0 0 0 1 0 0 0 0 0 0 0 0 0 1 0 0 0 0 0 0 0 0 0 1 0 0 0 0 0 0 0 0 0 1 0 0 0 0 0 0 0 0 0 0.9912 0.008800000000000001 0 0 0 0 0 0 0 0 0.5767 0.3067 0.102 0.0146 0 0 0 0 0 0 0.0568 0.2395 0.2614 0.2229 0.144 0.064 0.0114 0 0 0 1 0 0 0 0 0 0 0 0 0 1 0 0 0 0 0 0 0 0 0 1 0 0 0 0 0 0 0 0 0 1 0 0 0 0 0 0 0 0 0 1 0 0 0 0 0 0 0 0 0 1 0 0 0 0 0 0 0 0 0 1 0 0 0 0 0 0 0 0 0 1 0 0 0 0 0 0 0 0 0 1 0 0 0 0 0 0 0 0 0 0.8931 0.1065 0.0004 0 0 0 0 0 0 0 1 0 0 0 0 0 0 0 0 0 1 0 0 0 0 0 0 0 0 0 1 0 0 0 0 0 0 0 0 0 1 0 0 0 0 0 0 0 0 0 1 0 0 0 0 0 0 0 0 0 1 0 0 0 0 0 0 0 0 0 1 0 0 0 0 0 0 0 0 0 1 0 0 0 0 0 0 0 0 0 1 0 0 0 0 0 0 0 0 0 1 0 0 0 0 0 0 0 0 0 1 0 0 0 0 0 0 0 0 0 1 0 0 0 0 0 0 0 0 0 1 0 0 0 0 0 0 0 0 0 1 0 0 0 0 0 0 0 0 0 1 0 0 0 0 0 0 0 0 0 1 0 0 0 0 0 0 0 0 0 1 0 0 0 0 0 0 0 0 0 1 0 0 0 0 0 0 0 0 0 1 0 0 0 0 0 0 0 0 0 1 0 0 0 0 0 0 0 0 0 1 0 0 0 0 0 0 0 0 0 1 0 0 0 0 0 0 0 0 0 1 0 0 0 0 0 0 0 0 0 1 0 0 0 0 0 0 0 0 0 1 0 0 0 0 0 0 0 0 0 1 0 0 0 0 0 0 0 0 0 1 0 0 0 0 0 0 0 0 0 1 0 0 0 0 0 0 0 0 0 1 0 0 0 0 0 0 0 0 0 1 0 0 0 0 0 0 0 0 0</probabilities>
		</cpt>
		<cpt id="enviornment_observability_t_1">
			<state id="State0" />
			<state id="State1" />
			<state id="State2" />
			<state id="State3" />
			<state id="State4" />
			<state id="State5" />
			<state id="State6" />
			<state id="State7" />
			<state id="State8" />
			<state id="State9" />
			<intervals>0 0.1 0.2 0.3 0.4 0.5 0.6 0.7 0.8 0.9 1</intervals>
			<probabilities>0.1852452371301176 0.1963923794081881 0.1643696797730037 0.1453182002432104 0.100121605188488 0.08492095662748277 0.05472233481961897 0.03506282934738549 0.02330766112687475 0.01053911633563032</probabilities>
		</cpt>
		<cpt id="enviornment_observability">
			<state id="State0" />
			<state id="State1" />
			<state id="State2" />
			<state id="State3" />
			<state id="State4" />
			<state id="State5" />
			<state id="State6" />
			<state id="State7" />
			<state id="State8" />
			<state id="State9" />
			<intervals>0 0.1 0.2 0.3 0.4 0.5 0.6 0.7 0.8 0.9 1</intervals>
			<parents>enviornment_observability_t_1</parents>
			<probabilities>0.9543094496365524 0.04485981308411215 0.0001038421599169263 0.0001038421599169263 0.0001038421599169263 0.0001038421599169263 0.0001038421599169263 0.0001038421599169263 0.0001038421599169263 0.0001038421599169263 0.04316978115319277 0.916358549015689 0.03977215948835815 9.9930048965724e-05 9.9930048965724e-05 9.9930048965724e-05 9.9930048965724e-05 9.9930048965724e-05 9.9930048965724e-05 9.9930048965724e-05 9.9930048965724e-05 0.03897271909663236 0.9215549115619067 0.03877285899870091 9.9930048965724e-05 9.9930048965724e-05 9.9930048965724e-05 9.9930048965724e-05 9.9930048965724e-05 9.9930048965724e-05 9.9930048965724e-05 9.9930048965724e-05 0.04326971120215849 0.9171579894074148 0.03887278904766663 9.9930048965724e-05 9.9930048965724e-05 9.9930048965724e-05 9.9930048965724e-05 9.9930048965724e-05 9.9930048965724e-05 9.9930048965724e-05 9.9930048965724e-05 0.04107125012491256 0.918557010092935 0.03967222943939243 9.9930048965724e-05 9.9930048965724e-05 9.9930048965724e-05 9.9930048965724e-05 9.9930048965724e-05 9.9930048965724e-05 9.9930048965724e-05 9.9930048965724e-05 0.03917257919456381 0.9199560307784551 0.04017187968422105 9.9930048965724e-05 9.9930048965724e-05 9.9930048965724e-05 9.9930048965724e-05 9.9930048965724e-05 9.9930048965724e-05 9.9930048965724e-05 9.9930048965724e-05 0.03897271909663236 0.9194563805336264 0.04087139002698111 9.9930048965724e-05 9.9930048965724e-05 9.9930048965724e-05 9.9930048965724e-05 9.9930048965724e-05 9.9930048965724e-05 9.9930048965724e-05 9.9930048965724e-05 0.03767362846007795 0.9242530228839813 0.03737383831318077 9.9930048965724e-05 9.9930048965724e-05 9.9930048965724e-05 9.9930048965724e-05 9.9930048965724e-05 9.9930048965724e-05 9.9930048965724e-05 9.9930048965724e-05 0.04127111022284401 0.9194563805336264 0.03857299890076946 0.0001042100875364735 0.0001042100875364735 0.0001042100875364735 0.0001042100875364735 0.0001042100875364735 0.0001042100875364735 0.0001042100875364735 0.0001042100875364735 0.04470612755314714 0.954460191746561</probabilities>
		</cpt>
		<cpt id="frequency_of_contact_with_unobservable_obstacle">
			<state id="State0" />
			<state id="State1" />
			<state id="State2" />
			<state id="State3" />
			<state id="State4" />
			<state id="State5" />
			<state id="State6" />
			<state id="State7" />
			<state id="State8" />
			<state id="State9" />
			<intervals>0 0.005908012045062 0.01527158011626 0.03011183540944 0.053632054998 0.09090909090909 0.1499892113597 0.2436248920717 0.3920274450035 0.6272296408891 1</intervals>
			<parents>enviornment_observability</parents>
			<probabilities>1 0 0 0 0 0 0 0 0 0 1 0 0 0 0 0 0 0 0 0 0.7673 0.2327 0 0 0 0 0 0 0 0 0 0.52 0.48 0 0 0 0 0 0 0 0 0 0.1634 0.6421 0.1945 0 0 0 0 0 0 0 0 0 0.4926 0.5074 0 0 0 0 0 0 0 0 0 0.2264 0.7736 0 0 0 0 0 0 0 0 0 0.023 0.8879 0.0891 0 0 0 0 0 0 0 0 0 0.8907 0.1093 0 0 0 0 0 0 0 0 0 1</probabilities>
		</cpt>
		<cpt id="roll_pitch_deviation">
			<state id="State0" />
			<state id="State1" />
			<state id="State2" />
			<state id="State3" />
			<state id="State4" />
			<state id="State5" />
			<state id="State6" />
			<state id="State7" />
			<state id="State8" />
			<state id="State9" />
			<intervals>0 0.1 0.2 0.3 0.4 0.5 0.6 0.7 0.8 0.9 1</intervals>
			<parents>turbulence</parents>
			<probabilities>0.6089955022488756 0.3091454272863568 0.07406296851574212 0.006796601699150424 0.0004997501249375312 9.995002498750625e-05 9.995002498750625e-05 9.995002498750625e-05 9.995002498750625e-05 9.995002498750625e-05 0.3099070278916325 0.3682895131460562 0.2472258322503249 0.06638008597420773 0.007097870638808358 0.0006997900629811056 9.997000899730081e-05 9.997000899730081e-05 9.997000899730081e-05 9.997000899730081e-05 0.0735779266220134 0.246925922223333 0.3720883734879536 0.2339298210536839 0.06648005598320504 0.006498050584824553 0.0001999400179946016 9.997000899730081e-05 9.997000899730081e-05 9.997000899730081e-05 0.007498500299940012 0.06638672265546891 0.23875224955009 0.3690261947610478 0.2396520695860828 0.07118576284743051 0.007098580283943211 0.0001999600079984003 9.998000399920016e-05 9.998000399920016e-05 0.0005999999999999999 0.0081 0.06710000000000001 0.2401 0.3697 0.2445 0.0625 0.0071 0.0002 0.0001 9.999000099990002e-05 9.999000099990002e-05 0.008399160083991601 0.0673932606739326 0.2411758824117588 0.3715628437156284 0.2397760223977602 0.0638936106389361 0.007099290070992901 0.0004999500049995 9.998000399920016e-05 9.998000399920016e-05 0.0003999200159968006 0.00639872025594881 0.0652869426114777 0.2423515296940612 0.368626274745051 0.2360527894421116 0.07308538292341532 0.007598480303939212 9.998000399920016e-05 9.998000399920016e-05 0.0001999600079984003 9.998000399920016e-05 0.008098380323935212 0.06878624275144971 0.2395520895820836 0.370625874825035 0.2365526894621076 0.07588482303539291 9.996001599360256e-05 9.996001599360256e-05 9.996001599360256e-05 9.996001599360256e-05 0.0002998800479808077 0.008496601359456218 0.06457417033186726 0.2428028788484606 0.3658536585365854 0.3175729708116753 9.995002498750625e-05 9.995002498750625e-05 9.995002498750625e-05 9.995002498750625e-05 9.995002498750625e-05 0.0009995002498750624 0.008195902048975513 0.0703648175912044 0.2399800099950025 0.679960019990005</probabilities>
		</cpt>
		<cpt id="dust_t_1">
			<state id="State0" />
			<state id="State1" />
			<state id="State2" />
			<state id="State3" />
			<state id="State4" />
			<state id="State5" />
			<state id="State6" />
			<state id="State7" />
			<state id="State8" />
			<state id="State9" />
			<intervals>0 0.1 0.2 0.3 0.4 0.5 0.6 0.7 0.8 0.9 1</intervals>
			<probabilities>0.260747850429914 0.2449510097980404 0.1825634873025395 0.1289742051589682 0.08678264347130574 0.04999000199960008 0.02659468106378724 0.01299740051989602 0.004599080183963208 0.001799640071985603</probabilities>
		</cpt>
		<cpt id="dust">
			<state id="State0" />
			<state id="State1" />
			<state id="State2" />
			<state id="State3" />
			<state id="State4" />
			<state id="State5" />
			<state id="State6" />
			<state id="State7" />
			<state id="State8" />
			<state id="State9" />
			<intervals>0 0.1 0.2 0.3 0.4 0.5 0.6 0.7 0.8 0.9 1</intervals>
			<parents>dust_t_1</parents>
