<?xml version="1.0" encoding="UTF-8"?>
<!-- This network was created in GeNIe Academic, which can be used for academic teaching and research purposes only -->
<smile version="1.0" id="Network2" numsamples="10000" discsamples="10000">
	<nodes>
		<cpt id="tether_tension_motor_use_scaling_factor_t_1">
			<state id="State0" />
			<state id="State1" />
			<state id="State2" />
			<state id="State3" />
			<state id="State4" />
			<state id="State5" />
			<state id="State6" />
			<state id="State7" />
			<state id="State8" />
			<state id="State9" />
			<intervals>0 0.2 0.4 0.6 0.8 1 1.2 1.4 1.6 1.8 2</intervals>
			<probabilities>0.1037 0.0963 0.1031 0.1031 0.1007 0.0945 0.1009 0.1042 0.0992 0.09429999999999999</probabilities>
		</cpt>
		<cpt id="tether_tension_motor_use_scaling_factor">
			<state id="State0" />
			<state id="State1" />
			<state id="State2" />
			<state id="State3" />
			<state id="State4" />
			<state id="State5" />
			<state id="State6" />
			<state id="State7" />
			<state id="State8" />
			<state id="State9" />
			<intervals>0 0.2 0.4 0.6 0.8 1 1.2 1.4 1.6 1.8 2</intervals>
			<parents>tether_tension_motor_use_scaling_factor_t_1</parents>
			<probabilities>0.1478463329452852 0.1550252231276678 0.1528909584788514 0.1367869615832363 0.1171905316259216 0.09293752425300737 0.07644547923942568 0.05219247186651145 0.03919285991462942 0.02949165696546372 0.1413024398806389 0.1304195190451115 0.1342812006319115 0.1312971739512024 0.1179568193786203 0.1002281902755836 0.07776022467965596 0.06933473758118308 0.05687203791469194 0.04054765666140073 0.1155957378107846 0.1246367452373264 0.1302873748789151 0.1302873748789151 0.1104294478527607 0.1110752340975137 0.09444623829512432 0.07491120439134646 0.06167258637391024 0.0466580561834033 0.09584470730967547 0.1164695177434031 0.1182893539581438 0.1195025781013042 0.1252653927813163 0.1082802547770701 0.09827115559599636 0.08795875037913255 0.06824385805277525 0.06187443130118289 0.08333333333333333 0.1003552397868561 0.09857904085257549 0.1108644168146832 0.1191533451746596 0.1164890467732386 0.1117525162818236 0.09961515689757253 0.08940201302545885 0.0704558910597987 0.06510607168983175 0.08910021945866861 0.09948792977322604 0.108558888076079 0.1163130943672275 0.1201170446232626 0.1116313094367228 0.1106071689831748 0.09348939283101683 0.08558888076079005 0.06012992899229491 0.07644659314095785 0.08777760991086267 0.1025834718235383 0.1060583169663091 0.1240368635745581 0.1291735911769149 0.1121015259102583 0.1063604774135066 0.09533162109079922 0.04693548387096774 0.06483870967741935 0.07951612903225806 0.08919354838709677 0.1054838709677419 0.1141935483870968 0.1351612903225806 0.1270967741935484 0.1251612903225806 0.1124193548387097 0.0372358850017319 0.05299618981641843 0.06667821267751992 0.09005888465535157 0.1013162452372705 0.1139591271215795 0.1305853827502598 0.1316245237270523 0.1364738482854174 0.1390717007273987 0.0317334391114637 0.04383181277270924 0.05652518841729472 0.07239190797302658 0.09599365331217771 0.114438714795716 0.1239587465291551 0.1527171757239191 0.153907179690599 0.1545021816739389</probabilities>
		</cpt>
		<cpt id="height_over_ground">
			<state id="State0" />
			<state id="State1" />
			<state id="State2" />
			<state id="State3" />
			<state id="State4" />
			<state id="State5" />
			<state id="State6" />
			<state id="State7" />
			<state id="State8" />
			<state id="State9" />
			<intervals>0 0.1 0.2 0.3 0.4 0.5 0.6 0.7 0.8 0.9 1</intervals>
			<probabilities>0.1037 0.0963 0.1031 0.1031 0.1007 0.0945 0.1009 0.1042 0.0992 0.09429999999999999</probabilities>
		</cpt>
		<cpt id="drone_tilt">
			<state id="State0" />
			<state id="State1" />
			<state id="State2" />
			<state id="State3" />
			<state id="State4" />
			<state id="State5" />
			<state id="State6" />
			<state id="State7" />
			<state id="State8" />
			<state id="State9" />
			<intervals>0 0.1 0.2 0.3 0.4 0.5 0.6 0.7 0.8 0.9 1</intervals>
			<probabilities>0.0993 0.0982 0.0994 0.1016 0.09710000000000001 0.0985 0.1065 0.0985 0.1025 0.0984</probabilities>
		</cpt>
		<cpt id="motoruse_for_tether">
			<state id="State0" />
			<state id="State1" />
			<state id="State2" />
			<state id="State3" />
			<state id="State4" />
			<state id="State5" />
			<state id="State6" />
			<state id="State7" />
			<state id="State8" />
			<state id="State9" />
			<intervals>0 0.1 0.2 0.3 0.4 0.5 0.6 0.7 0.8 0.9 1</intervals>
			<parents>height_over_ground tether_tension_motor_use_scaling_factor drone_tilt</parents>
			<probabilities>1 0 0 0 0 0 0 0 0 0 1 0 0 0 0 0 0 0 0 0 1 0 0 0 0 0 0 0 0 0 0.9882 0.0118 0 0 0 0 0 0 0 0 0.9318 0.0682 0 0 0 0 0 0 0 0 0.8556 0.1444 0 0 0 0 0 0 0 0 0.7677 0.2323 0 0 0 0 0 0 0 0 0.6676 0.3324 0 0 0 0 0 0 0 0 0.5979 0.3965 0.0056 0 0 0 0 0 0 0 0.5281 0.4431 0.0288 0 0 0 0 0 0 0 1 0 0 0 0 0 0 0 0 0 0.9903 0.0097 0 0 0 0 0 0 0 0 0.7922 0.2078 0 0 0 0 0 0 0 0 0.4413 0.5587 0 0 0 0 0 0 0 0 0.1797 0.7887 0.0316 0 0 0 0 0 0 0 0.0528 0.7346 0.2126 0 0 0 0 0 0 0 0.0078 0.5424 0.4477 0.0021 0 0 0 0 0 0 0 0.3306 0.5949 0.0745 0 0 0 0 0 0 0 0.1823 0.5891 0.2286 0 0 0 0 0 0 0 0.0843 0.4989 0.3979 0.0189 0 0 0 0 0 1 0 0 0 0 0 0 0 0 0 0.7937 0.2063 0 0 0 0 0 0 0 0 0.2258 0.7685 0.0057 0 0 0 0 0 0 0 0.008999999999999999 0.7581 0.2329 0 0 0 0 0 0 0 0 0.272 0.7038 0.0242 0 0 0 0 0 0 0 0.0281 0.6794 0.2925 0 0 0 0 0 0 0 0 0.3192 0.6212 0.0596 0 0 0 0 0 0 0 0.07240000000000001 0.5918 0.3343 0.0015 0 0 0 0 0 0 0.0024 0.3542 0.5423 0.1011 0 0 0 0 0 0 0 0.121 0.5104 0.3577 0.0109 0 0 0 0.9859 0.0141 0 0 0 0 0 0 0 0 0.4436 0.5564 0 0 0 0 0 0 0 0 0.0067 0.7532 0.2401 0 0 0 0 0 0 0 0 0.1107 0.8171 0.0722 0 0 0 0 0 0 0 0 0.366 0.6166 0.0174 0 0 0 0 0 0 0 0.0193 0.6084000000000001 0.3702 0.0021 0 0 0 0 0 0 0 0.1457 0.6694 0.1849 0 0 0 0 0 0 0 0.0019 0.3368 0.5758 0.08550000000000001 0 0 0 0 0 0 0 0.0458 0.4938 0.4295 0.0309 0 0 0 0 0 0 0 0.1678 0.5282 0.2953 0.008699999999999999 0 0.9374 0.0626 0 0 0 0 0 0 0 0 0.1828 0.7849 0.0323 0 0 0 0 0 0 0 0 0.2618 0.7161999999999999 0.022 0 0 0 0 0 0 0 0 0.3695 0.6139 0.0166 0 0 0 0 0 0 0 0.0023 0.4727 0.5108 0.0142 0 0 0 0 0 0 0 0.0151 0.5384 0.4352 0.0113 0 0 0 0 0 0 0 0.0477 0.5663 0.3751 0.0109 0 0 0 0 0 0 0 0.09229999999999999 0.5744 0.3246 0.008699999999999999 0 0 0 0 0 0 0 0.1533 0.5524 0.2876 0.0067 0 0 0 0 0 0 0.0011 0.2249 0.5072 0.2668 0.8566 0.1434 0 0 0 0 0 0 0 0 0.0537 0.7319 0.2144 0 0 0 0 0 0 0 0 0.0333 0.6828 0.2839 0 0 0 0 0 0 0 0 0.0206 0.6138 0.3639 0.0017 0 0 0 0 0 0 0 0.0156 0.5432 0.431 0.0102 0 0 0 0 0 0 0 0.0125 0.466 0.4922 0.0293 0 0 0 0 0 0 0 0.0122 0.3929 0.5355 0.0594 0 0 0 0 0 0 0 0.0086 0.3367 0.5403 0.1144 0 0 0 0 0 0 0 0.0098 0.2972 0.6929999999999999 0 0 0 0 0 0 0 0 0.0077 0.9923 0.7559 0.2441 0 0 0 0 0 0 0 0 0.0065 0.5289 0.4612 0.0034 0 0 0 0 0 0 0 0 0.3105 0.6375999999999999 0.0519 0 0 0 0 0 0 0 0 0.1371 0.6646 0.1983 0 0 0 0 0 0 0 0 0.0479 0.5696 0.3734 0.0091 0 0 0 0 0 0 0 0.0115 0.395 0.5286 0.0649 0 0 0 0 0 0 0 0.0007 0.2311 0.5841 0.1841 0 0 0 0 0 0 0 0 0.1191 0.8809 0 0 0 0 0 0 0 0 0 1 0 0 0 0 0 0 0 0 0 1 0.6626 0.3374 0 0 0 0 0 0 0 0 0 0.3402 0.5849 0.07489999999999999 0 0 0 0 0 0 0 0 0.0752 0.5906 0.3323 0.0019 0 0 0 0 0 0 0 0.0018 0.3415 0.5698 0.08690000000000001 0 0 0 0 0 0 0 0 0.0926 0.5713 0.3277 0.008399999999999999 0 0 0 0 0 0 0 0.0098 0.3375 0.5446 0.1081 0 0 0 0 0 0 0 0 0.1246 0.8754 0 0 0 0 0 0 0 0 0 1 0 0 0 0 0 0 0 0 0 1 0 0 0 0 0 0 0 0 0 1 0.5884 0.4067 0.0049 0 0 0 0 0 0 0 0 0.1791 0.5783 0.2426 0 0 0 0 0 0 0 0 0.0021 0.3516 0.5453 0.101 0 0 0 0 0 0 0 0 0.0451 0.4854 0.4373 0.0322 0 0 0 0 0 0 0 0 0.1571 0.5433 0.2921 0.0075 0 0 0 0 0 0 0 0.0089 0.3052 0.6859 0 0 0 0 0 0 0 0 0 1 0 0 0 0 0 0 0 0 0 1 0 0 0 0 0 0 0 0 0 1 0 0 0 0 0 0 0 0 0 1 0.5185999999999999 0.4476 0.0338 0 0 0 0 0 0 0 0 0.0838 0.4966 0.4006 0.019 0 0 0 0 0 0 0 0 0.1287 0.503 0.3569 0.0114 0 0 0 0 0 0 0 0 0.1726 0.5118 0.3086 0.007 0 0 0 0 0 0 0 0.001 0.2225 0.508 0.2685 0 0 0 0 0 0 0 0 0.0081 0.9919 0 0 0 0 0 0 0 0 0 1 0 0 0 0 0 0 0 0 0 1 0 0 0 0 0 0 0 0 0 1 0 0 0 0 0 0 0 0 0 1 0.6823 0.3177 0 0 0 0 0 0 0 0 0.556 0.444 0 0 0 0 0 0 0 0 0.4405 0.5595 0 0 0 0 0 0 0 0 0.3209 0.6791 0 0 0 0 0 0 0 0 0.2582 0.7336 0.008200000000000001 0 0 0 0 0 0 0 0.2032 0.747 0.0498 0 0 0 0 0 0 0 0.172 0.704 0.124 0 0 0 0 0 0 0 0.1519 0.6417 0.2064 0 0 0 0 0 0 0 0.1427 0.5618 0.2955 0 0 0 0 0 0 0 0.116 0.5161 0.3638 0.0041 0 0 0 0 0 0 0.5545 0.4455 0 0 0 0 0 0 0 0 0.1949 0.8051 0 0 0 0 0 0 0 0 0.0195 0.921 0.0595 0 0 0 0 0 0 0 0 0.6729000000000001 0.3271 0 0 0 0 0 0 0 0 0.3484 0.6469 0.0047 0 0 0 0 0 0 0 0.1427 0.7648 0.0925 0 0 0 0 0 0 0 0.047 0.6504 0.3026 0 0 0 0 0 0 0 0.0056 0.4603 0.5145 0.0196 0 0 0 0 0 0 0 0.2922 0.5717 0.1361 0 0 0 0 0 0 0 0.1654 0.5283 0.3043 0.002 0 0 0 0 0.4425 0.5575 0 0 0 0 0 0 0 0 0.0189 0.9218 0.0593 0 0 0 0 0 0 0 0 0.4344 0.5656 0 0 0 0 0 0 0 0 0.0491 0.8544 0.0965 0 0 0 0 0 0 0 0 0.4505 0.5467 0.0028 0 0 0 0 0 0 0 0.0988 0.7463 0.1549 0 0 0 0 0 0 0 0.0031 0.4689 0.512 0.016 0 0 0 0 0 0 0 0.1588 0.6254999999999999 0.2157 0 0 0 0 0 0 0 0.0205 0.4619 0.4772 0.0404 0 0 0 0 0 0 0 0.2167 0.5188 0.2629 0.0016 0 0 0.3185 0.6815 0 0 0 0 0 0 0 0 0 0.6745 0.3255 0 0 0 0 0 0 0 0 0.0504 0.8477 0.1019 0 0 0 0 0 0 0 0 0.2565 0.7228 0.0207 0 0 0 0 0 0 0 0.0036 0.5443 0.4497 0.0024 0 0 0 0 0 0 0 0.07190000000000001 0.7019 0.2262 0 0 0 0 0 0 0 0 0.2557 0.6405999999999999 0.1037 0 0 0 0 0 0 0 0.0146 0.4472 0.5014 0.0368 0 0 0 0 0 0 0 0.1017 0.5397999999999999 0.3481 0.0104 0 0 0 0 0 0 0.0009 0.269 0.5197000000000001 0.2096 0.0008 0.253 0.7398 0.0072 0 0 0 0 0 0 0 0 0.3448 0.6516 0.0036 0 0 0 0 0 0 0 0 0.4555 0.5407999999999999 0.0037 0 0 0 0 0 0 0 0.0042 0.5478 0.4464 0.0016 0 0 0 0 0 0 0 0.0203 0.6112 0.3667 0.0018 0 0 0 0 0 0 0 0.0574 0.6459 0.294 0.0027 0 0 0 0 0 0 0 0.1008 0.6435 0.2542 0.0015 0 0 0 0 0 0 0 0.1766 0.6062 0.2167 0.0005 0 0 0 0 0 0 0.0012 0.2502 0.5498 0.1988 0 0 0 0 0 0 0 0.0103 0.3108 0.6788999999999999 0.2008 0.7457 0.0535 0 0 0 0 0 0 0 0 0.1467 0.7533 0.1 0 0 0 0 0 0 0 0 0.1038 0.7436 0.1526 0 0 0 0 0 0 0 0 0.073 0.7089 0.2181 0 0 0 0 0 0 0 0 0.0547 0.6446 0.3001 0.0005999999999999999 0 0 0 0 0 0 0 0.0447 0.5685 0.3785 0.0083 0 0 0 0 0 0 0 0.0352 0.4974 0.4389 0.0285 0 0 0 0 0 0 0 0.0295 0.4509 0.5196 0 0 0 0 0 0 0 0 0.0266 0.9734 0 0 0 0 0 0 0 0 0 1 0.1751 0.7062 0.1187 0 0 0 0 0 0 0 0 0.0457 0.6472 0.3071 0 0 0 0 0 0 0 0 0.0036 0.4596 0.5189 0.0179 0 0 0 0 0 0 0 0 0.2558 0.6526 0.0916 0 0 0 0 0 0 0 0 0.1069 0.6326000000000001 0.2592 0.0013 0 0 0 0 0 0 0 0.0393 0.5018 0.4297 0.0292 0 0 0 0 0 0 0 0.0098 0.3422 0.648 0 0 0 0 0 0 0 0 0.0012 0.9988 0 0 0 0 0 0 0 0 0 1 0 0 0 0 0 0 0 0 0 1 0.1452 0.6514 0.2034 0 0 0 0 0 0 0 0 0.0062 0.4617 0.5085 0.0236 0 0 0 0 0 0 0 0 0.1602 0.6233 0.2165 0 0 0 0 0 0 0 0 0.0146 0.4535 0.495 0.0369 0 0 0 0 0 0 0 0 0.1746 0.6052999999999999 0.2191 0.001 0 0 0 0 0 0 0 0.0317 0.4449 0.5234 0 0 0 0 0 0 0 0 0.0016 0.9984 0 0 0 0 0 0 0 0 0 1 0 0 0 0 0 0 0 0 0 1 0 0 0 0 0 0 0 0 0 1 0.132 0.5797 0.2883 0 0 0 0 0 0 0 0 0 0.2953 0.5699 0.1348 0 0 0 0 0 0 0 0 0.021 0.449 0.488 0.042 0 0 0 0 0 0 0 0 0.1094 0.5387 0.3423 0.009599999999999999 0 0 0 0 0 0 0 0.001 0.248 0.5486 0.2024 0 0 0 0 0 0 0 0 0.0272 0.9728 0 0 0 0 0 0 0 0 0 1 0 0 0 0 0 0 0 0 0 1 0 0 0 0 0 0 0 0 0 1 0 0 0 0 0 0 0 0 0 1 0.1198 0.5127 0.3627 0.0048 0 0 0 0 0 0 0 0 0.166 0.5165 0.3156 0.0019 0 0 0 0 0 0 0 0 0.2172 0.5207000000000001 0.2603 0.0018 0 0 0 0 0 0 0 0.002 0.2643 0.514 0.2184 0.0013 0 0 0 0 0 0 0 0.008500000000000001 0.3127 0.6788 0 0 0 0 0 0 0 0 0 1 0 0 0 0 0 0 0 0 0 1 0 0 0 0 0 0 0 0 0 1 0 0 0 0 0 0 0 0 0 1 0 0 0 0 0 0 0 0 0 1 0 0.9383 0.0617 0 0 0 0 0 0 0 0 0.8046 0.1954 0 0 0 0 0 0 0 0 0.6864 0.3136 0 0 0 0 0 0 0 0 0.5579 0.4421 0 0 0 0 0 0 0 0 0.4423 0.5577 0 0 0 0 0 0 0 0 0.3573 0.6346000000000001 0.0081 0 0 0 0 0 0 0 0.3078 0.646 0.0462 0 0 0 0 0 0 0 0.2723 0.6182 0.1095 0 0 0 0 0 0 0 0.2318 0.5856 0.1826 0 0 0 0 0 0 0 0.2213 0.5234 0.2553 0 0 0 0 0 0 0 0.8098 0.1902 0 0 0 0 0 0 0 0 0.4346 0.5654 0 0 0 0 0 0 0 0 0.1275 0.8652 0.0073 0 0 0 0 0 0 0 0.012 0.8379 0.1501 0 0 0 0 0 0 0 0 0.5589 0.4411 0 0 0 0 0 0 0 0 0.2823 0.6871 0.0306 0 0 0 0 0 0 0 0.123 0.7016 0.1754 0 0 0 0 0 0 0 0.0432 0.5594 0.3942 0.0032 0 0 0 0 0 0 0.0052 0.4137 0.521 0.0601 0 0 0 0 0 0 0 0.2599 0.5199 0.2202 0 0 0 0 0 0.6872 0.3128 0 0 0 0 0 0 0 0 0.1238 0.8682 0.008 0 0 0 0 0 0 0 0 0.6805 0.3195 0 0 0 0 0 0 0 0 0.1631 0.8089 0.028 0 0 0 0 0 0 0 0.0039 0.6434 0.3527 0 0 0 0 0 0 0 0 0.2093 0.722 0.0687 0 0 0 0 0 0 0 0.0277 0.601 0.3696 0.0017 0 0 0 0 0 0 0 0.2727 0.6115 0.1158 0 0 0 0 0 0 0 0.0667 0.5254 0.3956 0.0123 0 0 0 0 0 0 0.002 0.3234 0.5098 0.1648 0 0 0 0.5647 0.4353 0 0 0 0 0 0 0 0 0.0114 0.8396 0.149 0 0 0 0 0 0 0 0 0.1632 0.8082 0.0286 0 0 0 0 0 0 0 0 0.4602 0.5374 0.0024 0 0 0 0 0 0 0 0.0271 0.7024 0.2705 0 0 0 0 0 0 0 0 0.1706 0.7125 0.1169 0 0 0 0 0 0 0 0.0024 0.3962 0.5635 0.0379 0 0 0 0 0 0 0 0.053 0.5526 0.3834 0.011 0 0 0 0 0 0 0 0.1877 0.572 0.2401 0.0002 0 0 0 0 0 0 0.0122 0.3541 0.4957 0.138 0 0.4443 0.5557 0 0 0 0 0 0 0 0 0 0.5621 0.4379 0 0 0 0 0 0 0 0 0.0058 0.6385999999999999 0.3556 0 0 0 0 0 0 0 0 0.0275 0.6994 0.2731 0 0 0 0 0 0 0 0 0.0641 0.7121 0.2238 0 0 0 0 0 0 0 0 0.1291 0.6892 0.1817 0 0 0 0 0 0 0 0 0.2017 0.6453 0.153 0 0 0 0 0 0 0 0.0005999999999999999 0.2806 0.5884 0.1304 0 0 0 0 0 0 0 0.0107 0.3469 0.6424 0 0 0 0 0 0 0 0 0.0287 0.9713000000000001 0 0.3653 0.6274 0.0073 0 0 0 0 0 0 0 0 0.2883 0.6830000000000001 0.0287 0 0 0 0 0 0 0 0 0.2144 0.7244 0.0612 0 0 0 0 0 0 0 0 0.1616 0.7233000000000001 0.1151 0 0 0 0 0 0 0 0 0.1269 0.697 0.1761 0 0 0 0 0 0 0 0 0.1011 0.6367 0.2616 0.0005999999999999999 0 0 0 0 0 0 0 0.08690000000000001 0.5915 0.3216 0 0 0 0 0 0 0 0 0.0757 0.9243 0 0 0 0 0 0 0 0 0 1 0 0 0 0 0 0 0 0 0 1 0 0.3149 0.6384 0.0467 0 0 0 0 0 0 0 0 0.1171 0.7050999999999999 0.1778 0 0 0 0 0 0 0 0 0.0238 0.5853 0.3892 0.0017 0 0 0 0 0 0 0 0.0018 0.394 0.5601 0.0441 0 0 0 0 0 0 0 0 0.2106 0.6368 0.1526 0 0 0 0 0 0 0 0 0.08019999999999999 0.5853 0.3345 0 0 0 0 0 0 0 0 0.0334 0.9666 0 0 0 0 0 0 0 0 0 1 0 0 0 0 0 0 0 0 0 1 0 0 0 0 0 0 0 0 0 1 0 0.2665 0.6306 0.1029 0 0 0 0 0 0 0 0 0.0404 0.5646 0.393 0.002 0 0 0 0 0 0 0 0 0.2734 0.6083 0.1183 0 0 0 0 0 0 0 0 0.0544 0.5466 0.39 0.008999999999999999 0 0 0 0 0 0 0 0.0018 0.2834 0.5823 0.1325 0 0 0 0 0 0 0 0 0.0736 0.9264 0 0 0 0 0 0 0 0 0 1 0 0 0 0 0 0 0 0 0 1 0 0 0 0 0 0 0 0 0 1 0 0 0 0 0 0 0 0 0 1 0 0.2361 0.5838 0.1801 0 0 0 0 0 0 0 0 0.0043 0.4146 0.5208 0.0603 0 0 0 0 0 0 0 0 0.0641 0.531 0.3929 0.012 0 0 0 0 0 0 0 0 0.1934 0.5610000000000001 0.2436 0.002 0 0 0 0 0 0 0 0.009900000000000001 0.3527 0.6374 0 0 0 0 0 0 0 0 0 1 0 0 0 0 0 0 0 0 0 1 0 0 0 0 0 0 0 0 0 1 0 0 0 0 0 0 0 0 0 1 0 0 0 0 0 0 0 0 0 1 0 0.2074 0.5262 0.2664 0 0 0 0 0 0 0 0 0 0.2634 0.5203 0.2163 0 0 0 0 0 0 0 0 0.0018 0.3177 0.5113 0.1692 0 0 0 0 0 0 0 0 0.0111 0.3674 0.4934 0.1281 0 0 0 0 0 0 0 0 0.0325 0.9675 0 0 0 0 0 0 0 0 0 1 0 0 0 0 0 0 0 0 0 1 0 0 0 0 0 0 0 0 0 1 0 0 0 0 0 0 0 0 0 1 0 0 0 0 0 0 0 0 0 1 0 0 1 0 0 0 0 0 0 0 0 0 0.9761 0.0239 0 0 0 0 0 0 0 0 0.8875 0.1125 0 0 0 0 0 0 0 0 0.7798 0.2202 0 0 0 0 0 0 0 0 0.6574 0.3426 0 0 0 0 0 0 0 0 0.5531 0.4469 0 0 0 0 0 0 0 0 0.4633 0.5304 0.0063 0 0 0 0 0 0 0 0.4042 0.5582 0.0376 0 0 0 0 0 0 0 0.3573 0.552 0.0907 0 0 0 0 0 0 0 0.3189 0.5244 0.1567 0 0 0 0 0 0 0 0.9792 0.0208 0 0 0 0 0 0 0 0 0.7003 0.2997 0 0 0 0 0 0 0 0 0.3154 0.6846 0 0 0 0 0 0 0 0 0.08790000000000001 0.8661 0.046 0 0 0 0 0 0 0 0.0094 0.7323 0.2583 0 0 0 0 0 0 0 0 0.46 0.5373 0.0027 0 0 0 0 0 0 0 0.2399 0.6792 0.0809 0 0 0 0 0 0 0 0.1083 0.6191 0.2726 0 0 0 0 0 0 0 0.032 0.4974 0.4509 0.0197 0 0 0 0 0 0 0.0048 0.3624 0.513 0.1198 0 0 0 0 0 0.8901 0.1099 0 0 0 0 0 0 0 0 0.3268 0.6732 0 0 0 0 0 0 0 0 0.0107 0.8527 0.1366 0 0 0 0 0 0 0 0 0.3329 0.6635 0.0036 0 0 0 0 0 0 0 0.0395 0.7791 0.1814 0 0 0 0 0 0 0 0 0.3739 0.6083 0.0178 0 0 0 0 0 0 0 0.0868 0.6732 0.24 0 0 0 0 0 0 0 0.0047 0.3963 0.5528 0.0462 0 0 0 0 0 0 0 0.1368 0.5686 0.293 0.0016 0 0 0 0 0 0 0.0189 0.4082 0.4833 0.0896 0 0 0 0.7768 0.2232 0 0 0 0 0 0 0 0 0.08840000000000001 0.8666 0.045 0 0 0 0 0 0 0 0 0.3351 0.6607 0.0042 0 0 0 0 0 0 0 0.004 0.6464 0.3496 0 0 0 0 0 0 0 0 0.0887 0.7743 0.137 0 0 0 0 0 0 0 0 0.2988 0.65 0.0512 0 0 0 0 0 0 0 0.0183 0.5213 0.4471 0.0133 0 0 0 0 0 0 0 0.1179 0.613 0.2681 0.001 0 0 0 0 0 0 0.0019 0.2996 0.5453 0.1532 0 0 0 0 0 0 0 0.0406 0.4428 0.5165999999999999 0 0 0.6613 0.3387 0 0 0 0 0 0 0 0 0.012 0.7296 0.2584 0 0 0 0 0 0 0 0 0.0393 0.773 0.1877 0 0 0 0 0 0 0 0 0.0891 0.7735 0.1374 0 0 0 0 0 0 0 0 0.1573 0.7295 0.1132 0 0 0 0 0 0 0 0 0.2422 0.6679 0.08989999999999999 0 0 0 0 0 0 0 0.0019 0.327 0.5911 0.08 0 0 0 0 0 0 0 0.0124 0.3936 0.594 0 0 0 0 0 0 0 0 0.0349 0.9651 0 0 0 0 0 0 0 0 0 1 0 0 0.5481 0.4519 0 0 0 0 0 0 0 0 0 0.4669 0.5296999999999999 0.0034 0 0 0 0 0 0 0 0 0.377 0.6021 0.0209 0 0 0 0 0 0 0 0 0.2946 0.6545 0.0509 0 0 0 0 0 0 0 0 0.2463 0.6626 0.0911 0 0 0 0 0 0 0 0 0.1893 0.6641 0.1466 0 0 0 0 0 0 0 0 0.1655 0.8345 0 0 0 0 0 0 0 0 0 1 0 0 0 0 0 0 0 0 0 1 0 0 0 0 0 0 0 0 0 1 0 0 0.4708 0.5243 0.0049 0 0 0 0 0 0 0 0 0.2362 0.6768999999999999 0.08690000000000001 0 0 0 0 0 0 0 0 0.08740000000000001 0.6758 0.2368 0 0 0 0 0 0 0 0 0.0174 0.5251 0.4454 0.0121 0 0 0 0 0 0 0 0.0014 0.3361 0.5827 0.0798 0 0 0 0 0 0 0 0 0.167 0.833 0 0 0 0 0 0 0 0 0 1 0 0 0 0 0 0 0 0 0 1 0 0 0 0 0 0 0 0 0 1 0 0 0 0 0 0 0 0 0 1 0 0 0.4039 0.5579 0.0382 0 0 0 0 0 0 0 0 0.1075 0.6279 0.2646 0 0 0 0 0 0 0 0 0.0033 0.3906 0.5587 0.0474 0 0 0 0 0 0 0 0 0.116 0.6067 0.2765 0.0008 0 0 0 0 0 0 0 0.0115 0.3951 0.5934 0 0 0 0 0 0 0 0 0 1 0 0 0 0 0 0 0 0 0 1 0 0 0 0 0 0 0 0 0 1 0 0 0 0 0 0 0 0 0 1 0 0 0 0 0 0 0 0 0 1 0 0 0.3602 0.5464 0.0934 0 0 0 0 0 0 0 0 0.0337 0.487 0.4591 0.0202 0 0 0 0 0 0 0 0 0.1381 0.5606 0.299 0.0023 0 0 0 0 0 0 0 0.0017 0.2951 0.5572 0.146 0 0 0 0 0 0 0 0 0.0355 0.9645 0 0 0 0 0 0 0 0 0 1 0 0 0 0 0 0 0 0 0 1 0 0 0 0 0 0 0 0 0 1 0 0 0 0 0 0 0 0 0 1 0 0 0 0 0 0 0 0 0 1 0 0 0.3183 0.5283 0.1534 0 0 0 0 0 0 0 0 0.0043 0.3668 0.5082 0.1207 0 0 0 0 0 0 0 0 0.0183 0.4006 0.4868 0.09429999999999999 0 0 0 0 0 0 0 0 0.0445 0.4408 0.5147 0 0 0 0 0 0 0 0 0 1 0 0 0 0 0 0 0 0 0 1 0 0 0 0 0 0 0 0 0 1 0 0 0 0 0 0 0 0 0 1 0 0 0 0 0 0 0 0 0 1 0 0 0 0 0 0 0 0 0 1 0 0 0.1869 0.8131 0 0 0 0 0 0 0 0 0.0852 0.9147999999999999 0 0 0 0 0 0 0 0 0.0534 0.9325 0.0141 0 0 0 0 0 0 0 0.036 0.886 0.078 0 0 0 0 0 0 0 0.0264 0.8001 0.1735 0 0 0 0 0 0 0 0.025 0.6933 0.2817 0 0 0 0 0 0 0 0.0204 0.6024 0.3772 0 0 0 0 0 0 0 0.0157 0.5169 0.4621 0.0053 0 0 0 0 0 0 0.0141 0.457 0.4946 0.0343 0 0 0 0 0 0 0.0119 0.4074 0.5002 0.0805 0 0 0 0 0 0 0.0848 0.9152 0 0 0 0 0 0 0 0 0 0.9055 0.0945 0 0 0 0 0 0 0 0 0.5638 0.4362 0 0 0 0 0 0 0 0 0.2355 0.759 0.0055 0 0 0 0 0 0 0 0.0665 0.8157 0.1178 0 0 0 0 0 0 0 0.0071 0.6407 0.3522 0 0 0 0 0 0 0 0 0.3977 0.5784 0.0239 0 0 0 0 0 0 0 0.215 0.6403 0.1447 0 0 0 0 0 0 0 0.0934 0.5493 0.3548 0.0025 0 0 0 0 0 0 0.0302 0.447 0.4665 0.0563 0 0 0 0 0.0549 0.9301 0.015 0 0 0 0 0 0 0 0 0.5665 0.4335 0 0 0 0 0 0 0 0 0.07389999999999999 0.8862 0.0399 0 0 0 0 0 0 0 0 0.5598 0.4402 0 0 0 0 0 0 0 0 0.1247 0.7963 0.079 0 0 0 0 0 0 0 0.0034 0.5501 0.4439 0.0026 0 0 0 0 0 0 0 0.1831 0.6825 0.1344 0 0 0 0 0 0 0 0.0224 0.5137 0.4514 0.0125 0 0 0 0 0 0 0 0.239 0.5762 0.1848 0 0 0 0 0 0 0 0.0614 0.4656 0.4345 0.0385 0 0 0.0352 0.8848 0.08 0 0 0 0 0 0 0 0 0.2338 0.7604 0.0058 0 0 0 0 0 0 0 0 0.5652 0.4348 0 0 0 0 0 0 0 0 0.0348 0.7879 0.1773 0 0 0 0 0 0 0 0 0.2043 0.7381 0.0576 0 0 0 0 0 0 0 0.0031 0.4632 0.5203 0.0134 0 0 0 0 0 0 0 0.0571 0.6314 0.31 0.0015 0 0 0 0 0 0 0 0.22 0.6099 0.1701 0 0 0 0 0 0 0 0.0126 0.3929 0.5945 0 0 0 0 0 0 0 0 0.0939 0.9061 0 0 0.0307 0.7965 0.1728 0 0 0 0 0 0 0 0 0.0728 0.8081 0.1191 0 0 0 0 0 0 0 0 0.1256 0.7998 0.0746 0 0 0 0 0 0 0 0 0.2052 0.7337 0.0611 0 0 0 0 0 0 0 0 0.2999 0.6565 0.0436 0 0 0 0 0 0 0 0.0018 0.3847 0.5769 0.0366 0 0 0 0 0 0 0 0.0128 0.4615 0.5256999999999999 0 0 0 0 0 0 0 0 0.0385 0.9615 0 0 0 0 0 0 0 0 0 1 0 0 0 0 0 0 0 0 0 1 0 0 0.0221 0.6961000000000001 0.2818 0 0 0 0 0 0 0 0 0.008500000000000001 0.6228 0.3687 0 0 0 0 0 0 0 0 0.0042 0.5570000000000001 0.4361 0.0027 0 0 0 0 0 0 0 0.0035 0.4579 0.5265 0.0121 0 0 0 0 0 0 0 0.0019 0.39 0.5722 0.0359 0 0 0 0 0 0 0 0.0016 0.3249 0.6735 0 0 0 0 0 0 0 0 0.0015 0.9985000000000001 0 0 0 0 0 0 0 0 0 1 0 0 0 0 0 0 0 0 0 1 0 0 0 0 0 0 0 0 0 1 0 0 0.0191 0.5987 0.3822 0 0 0 0 0 0 0 0 0 0.3825 0.5938 0.0237 0 0 0 0 0 0 0 0 0.189 0.6794 0.1316 0 0 0 0 0 0 0 0 0.0571 0.6219 0.3198 0.0012 0 0 0 0 0 0 0 0.0121 0.4627 0.5252 0 0 0 0 0 0 0 0 0.0018 0.9982 0 0 0 0 0 0 0 0 0 1 0 0 0 0 0 0 0 0 0 1 0 0 0 0 0 0 0 0 0 1 0 0 0 0 0 0 0 0 0 1 0 0 0.0173 0.5092 0.4681 0.0054 0 0 0 0 0 0 0 0 0.2112 0.6418 0.147 0 0 0 0 0 0 0 0 0.0247 0.5145 0.4481 0.0127 0 0 0 0 0 0 0 0 0.2132 0.6141 0.1727 0 0 0 0 0 0 0 0 0.0398 0.9602000000000001 0 0 0 0 0 0 0 0 0 1 0 0 0 0 0 0 0 0 0 1 0 0 0 0 0 0 0 0 0 1 0 0 0 0 0 0 0 0 0 1 0 0 0 0 0 0 0 0 0 1 0 0 0.0159 0.4576 0.4913 0.0352 0 0 0 0 0 0 0 0 0.0984 0.5610000000000001 0.3377 0.0029 0 0 0 0 0 0 0 0 0.235 0.5778 0.1872 0 0 0 0 0 0 0 0 0.0143 0.4048 0.5809 0 0 0 0 0 0 0 0 0 1 0 0 0 0 0 0 0 0 0 1 0 0 0 0 0 0 0 0 0 1 0 0 0 0 0 0 0 0 0 1 0 0 0 0 0 0 0 0 0 1 0 0 0 0 0 0 0 0 0 1 0 0 0.0136 0.4168 0.4893 0.0803 0 0 0 0 0 0 0 0 0.0299 0.4403 0.476 0.0538 0 0 0 0 0 0 0 0 0.0635 0.4604 0.4393 0.0368 0 0 0 0 0 0 0 0 0.0944 0.9056 0 0 0 0 0 0 0 0 0 1 0 0 0 0 0 0 0 0 0 1 0 0 0 0 0 0 0 0 0 1 0 0 0 0 0 0 0 0 0 1 0 0 0 0 0 0 0 0 0 1 0 0 0 0 0 0 0 0 0 1 0 0 0 0.4412 0.5588 0 0 0 0 0 0 0 0 0.3065 0.6935 0 0 0 0 0 0 0 0 0.1949 0.8051 0 0 0 0 0 0 0 0 0.1451 0.8433 0.0116 0 0 0 0 0 0 0 0.111 0.8234 0.06560000000000001 0 0 0 0 0 0 0 0.09329999999999999 0.7595 0.1472 0 0 0 0 0 0 0 0.0798 0.6849 0.2353 0 0 0 0 0 0 0 0.0634 0.5975 0.3391 0 0 0 0 0 0 0 0.0558 0.5347 0.4059 0.0036 0 0 0 0 0 0 0.0528 0.4746 0.4421 0.0305 0 0 0 0 0 0 0.3094 0.6906 0 0 0 0 0 0 0 0 0.0345 0.9532 0.0123 0 0 0 0 0 0 0 0 0.7949000000000001 0.2051 0 0 0 0 0 0 0 0 0.4441 0.5558999999999999 0 0 0 0 0 0 0 0 0.1748 0.7905 0.0347 0 0 0 0 0 0 0 0.0536 0.742 0.2044 0 0 0 0 0 0 0 0.007900000000000001 0.5376 0.4514 0.0031 0 0 0 0 0 0 0 0.3376 0.5899 0.0725 0 0 0 0 0 0 0 0.1792 0.579 0.2418 0 0 0 0 0 0 0 0.08450000000000001 0.4901 0.4102 0.0152 0 0 0 0 0.2032 0.7968 0 0 0 0 0 0 0 0 0 0.802 0.198 0 0 0 0 0 0 0 0 0.2209 0.7746 0.0045 0 0 0 0 0 0 0 0.008 0.757 0.235 0 0 0 0 0 0 0 0 0.2686 0.7071 0.0243 0 0 0 0 0 0 0 0.0338 0.6825 0.2837 0 0 0 0 0 0 0 0 0.3119 0.6315 0.0566 0 0 0 0 0 0 0 0.0743 0.5859 0.3386 0.0012 0 0 0 0 0 0 0.0029 0.3534 0.5475 0.09619999999999999 0 0 0 0 0 0 0 0.1226 0.5067 0.3707 0 0 0 0.1454 0.8413 0.0133 0 0 0 0 0 0 0 0 0.4389 0.5611 0 0 0 0 0 0 0 0 0.007900000000000001 0.7501 0.242 0 0 0 0 0 0 0 0 0.1181 0.8103 0.0716 0 0 0 0 0 0 0 0 0.3684 0.6129 0.0187 0 0 0 0 0 0 0 0.0176 0.6022 0.3787 0.0015 0 0 0 0 0 0 0 0.1358 0.6701 0.1941 0 0 0 0 0 0 0 0.0015 0.3395 0.659 0 0 0 0 0 0 0 0 0.0466 0.9534 0 0 0 0 0 0 0 0 0 1 0 0 0 0.1148 0.8227 0.0625 0 0 0 0 0 0 0 0 0.1759 0.7894 0.0347 0 0 0 0 0 0 0 0 0.2726 0.7060999999999999 0.0213 0 0 0 0 0 0 0 0 0.3684 0.6143 0.0173 0 0 0 0 0 0 0 0.0024 0.4566 0.529 0.012 0 0 0 0 0 0 0 0.0168 0.5305 0.4527 0 0 0 0 0 0 0 0 0.0456 0.9544 0 0 0 0 0 0 0 0 0 1 0 0 0 0 0 0 0 0 0 1 0 0 0 0 0 0 0 0 0 1 0 0 0 0.08840000000000001 0.7643 0.1473 0 0 0 0 0 0 0 0 0.0551 0.7329 0.212 0 0 0 0 0 0 0 0 0.0325 0.677 0.2905 0 0 0 0 0 0 0 0 0.0221 0.6153 0.3606 0.002 0 0 0 0 0 0 0 0.0147 0.5259 0.4594 0 0 0 0 0 0 0 0 0.0114 0.9886 0 0 0 0 0 0 0 0 0 1 0 0 0 0 0 0 0 0 0 1 0 0 0 0 0 0 0 0 0 1 0 0 0 0 0 0 0 0 0 1 0 0 0 0.07770000000000001 0.6846 0.2377 0 0 0 0 0 0 0 0 0.0078 0.5266999999999999 0.4626 0.0029 0 0 0 0 0 0 0 0 0.3143 0.6321 0.0536 0 0 0 0 0 0 0 0 0.1373 0.6672 0.1955 0 0 0 0 0 0 0 0 0.0466 0.9534 0 0 0 0 0 0 0 0 0 1 0 0 0 0 0 0 0 0 0 1 0 0 0 0 0 0 0 0 0 1 0 0 0 0 0 0 0 0 0 1 0 0 0 0 0 0 0 0 0 1 0 0 0 0.06809999999999999 0.5996 0.3323 0 0 0 0 0 0 0 0 0 0.333 0.5975 0.06950000000000001 0 0 0 0 0 0 0 0 0.0745 0.5978 0.325 0.0027 0 0 0 0 0 0 0 0.0019 0.3375 0.6606 0 0 0 0 0 0 0 0 0 1 0 0 0 0 0 0 0 0 0 1 0 0 0 0 0 0 0 0 0 1 0 0 0 0 0 0 0 0 0 1 0 0 0 0 0 0 0 0 0 1 0 0 0 0 0 0 0 0 0 1 0 0 0 0.0614 0.5322 0.4009 0.0055 0 0 0 0 0 0 0 0 0.1873 0.5829 0.2298 0 0 0 0 0 0 0 0 0.0027 0.3514 0.5423 0.1036 0 0 0 0 0 0 0 0 0.0418 0.9582000000000001 0 0 0 0 0 0 0 0 0 1 0 0 0 0 0 0 0 0 0 1 0 0 0 0 0 0 0 0 0 1 0 0 0 0 0 0 0 0 0 1 0 0 0 0 0 0 0 0 0 1 0 0 0 0 0 0 0 0 0 1 0 0 0 0.0542 0.4669 0.4468 0.0321 0 0 0 0 0 0 0 0 0.0888 0.4997 0.3937 0.0178 0 0 0 0 0 0 0 0 0.1279 0.5048 0.3673 0 0 0 0 0 0 0 0 0 1 0 0 0 0 0 0 0 0 0 1 0 0 0 0 0 0 0 0 0 1 0 0 0 0 0 0 0 0 0 1 0 0 0 0 0 0 0 0 0 1 0 0 0 0 0 0 0 0 0 1 0 0 0 0 0 0 0 0 0 1 0 0 0 0 0.6914 0.3086 0 0 0 0 0 0 0 0 0.5629 0.4371 0 0 0 0 0 0 0 0 0.4393 0.5607 0 0 0 0 0 0 0 0 0.3248 0.6752 0 0 0 0 0 0 0 0 0.2515 0.7407 0.0078 0 0 0 0 0 0 0 0.2021 0.7413 0.0566 0 0 0 0 0 0 0 0.1737 0.7065 0.1198 0 0 0 0 0 0 0 0.1483 0.6478 0.2039 0 0 0 0 0 0 0 0.1375 0.5706 0.2919 0 0 0 0 0 0 0 0.1169 0.5105 0.3679 0.0047 0 0 0 0 0 0 0.5605 0.4395 0 0 0 0 0 0 0 0 0.1977 0.8023 0 0 0 0 0 0 0 0 0.0196 0.9186 0.0618 0 0 0 0 0 0 0 0 0.6808 0.3192 0 0 0 0 0 0 0 0 0.3406 0.6546 0.0048 0 0 0 0 0 0 0 0.1462 0.7571 0.09669999999999999 0 0 0 0 0 0 0 0.0459 0.6363 0.3178 0 0 0 0 0 0 0 0.0059 0.457 0.5152 0.0219 0 0 0 0 0 0 0 0.295 0.5635 0.1415 0 0 0 0 0 0 0 0.1615 0.5263 0.3106 0.0016 0 0 0 0 0.4394 0.5606 0 0 0 0 0 0 0 0 0.0178 0.9188 0.0634 0 0 0 0 0 0 0 0 0.4486 0.5514 0 0 0 0 0 0 0 0 0.0506 0.8538 0.0956 0 0 0 0 0 0 0 0 0.4614 0.535 0.0036 0 0 0 0 0 0 0 0.1091 0.7344000000000001 0.1565 0 0 0 0 0 0 0 0.0026 0.4597 0.5222 0.0155 0 0 0 0 0 0 0 0.1555 0.6327 0.2118 0 0 0 0 0 0 0 0.0194 0.462 0.5185999999999999 0 0 0 0 0 0 0 0 0.2096 0.7904 0 0 0 0 0.3244 0.6756 0 0 0 0 0 0 0 0 0 0.6741 0.3259 0 0 0 0 0 0 0 0 0.0523 0.8528 0.0949 0 0 0 0 0 0 0 0 0.2604 0.7163 0.0233 0 0 0 0 0 0 0 0.0046 0.5465 0.4467 0.0022 0 0 0 0 0 0 0 0.07099999999999999 0.6976 0.2314 0 0 0 0 0 0 0 0 0.2575 0.7425 0 0 0 0 0 0 0 0 0.0156 0.9844000000000001 0 0 0 0 0 0 0 0 0 1 0 0 0 0 0 0 0 0 0 1 0 0 0 0 0.2479 0.7417 0.0104 0 0 0 0 0 0 0 0 0.3459 0.6502 0.0039 0 0 0 0 0 0 0 0 0.4593 0.5374 0.0033 0 0 0 0 0 0 0 0.0038 0.5452 0.4492 0.0018 0 0 0 0 0 0 0 0.021 0.621 0.358 0 0 0 0 0 0 0 0 0.0524 0.9476 0 0 0 0 0 0 0 0 0 1 0 0 0 0 0 0 0 0 0 1 0 0 0 0 0 0 0 0 0 1 0 0 0 0 0 0 0 0 0 1 0 0 0 0 0.2111 0.7302 0.0587 0 0 0 0 0 0 0 0 0.145 0.7561 0.0989 0 0 0 0 0 0 0 0 0.1013 0.7452 0.1535 0 0 0 0 0 0 0 0 0.0684 0.7043 0.2273 0 0 0 0 0 0 0 0 0.0537 0.9463 0 0 0 0 0 0 0 0 0 1 0 0 0 0 0 0 0 0 0 1 0 0 0 0 0 0 0 0 0 1 0 0 0 0 0 0 0 0 0 1 0 0 0 0 0 0 0 0 0 1 0 0 0 0 0.1733 0.7062 0.1205 0 0 0 0 0 0 0 0 0.047 0.6545 0.2985 0 0 0 0 0 0 0 0 0.0048 0.464 0.5145999999999999 0.0166 0 0 0 0 0 0 0 0 0.2564 0.7436 0 0 0 0 0 0 0 0 0 1 0 0 0 0 0 0 0 0 0 1 0 0 0 0 0 0 0 0 0 1 0 0 0 0 0 0 0 0 0 1 0 0 0 0 0 0 0 0 0 1 0 0 0 0 0 0 0 0 0 1 0 0 0 0 0.1497 0.6468 0.2035 0 0 0 0 0 0 0 0 0.0065 0.4727 0.499 0.0218 0 0 0 0 0 0 0 0 0.156 0.6352 0.2088 0 0 0 0 0 0 0 0 0.0132 0.9868 0 0 0 0 0 0 0 0 0 1 0 0 0 0 0 0 0 0 0 1 0 0 0 0 0 0 0 0 0 1 0 0 0 0 0 0 0 0 0 1 0 0 0 0 0 0 0 0 0 1 0 0 0 0 0 0 0 0 0 1 0 0 0 0 0.135 0.5714 0.2936 0 0 0 0 0 0 0 0 0 0.2924 0.5724 0.1352 0 0 0 0 0 0 0 0 0.0183 0.4524 0.5293 0 0 0 0 0 0 0 0 0 1 0 0 0 0 0 0 0 0 0 1 0 0 0 0 0 0 0 0 0 1 0 0 0 0 0 0 0 0 0 1 0 0 0 0 0 0 0 0 0 1 0 0 0 0 0 0 0 0 0 1 0 0 0 0 0 0 0 0 0 1 0 0 0 0 0.1156 0.5125 0.368 0.0039 0 0 0 0 0 0 0 0 0.1571 0.5219 0.3192 0.0018 0 0 0 0 0 0 0 0 0.2192 0.7808 0 0 0 0 0 0 0 0 0 1 0 0 0 0 0 0 0 0 0 1 0 0 0 0 0 0 0 0 0 1 0 0 0 0 0 0 0 0 0 1 0 0 0 0 0 0 0 0 0 1 0 0 0 0 0 0 0 0 0 1 0 0 0 0 0 0 0 0 0 1 0 0 0 0 0 0.9405 0.0595 0 0 0 0 0 0 0 0 0.8162 0.1838 0 0 0 0 0 0 0 0 0.6931 0.3069 0 0 0 0 0 0 0 0 0.5574 0.4426 0 0 0 0 0 0 0 0 0.4538 0.5462 0 0 0 0 0 0 0 0 0.3637 0.629 0.0073 0 0 0 0 0 0 0 0.2988 0.6581 0.0431 0 0 0 0 0 0 0 0.2677 0.6248 0.1075 0 0 0 0 0 0 0 0.243 0.5764 0.1806 0 0 0 0 0 0 0 0.2135 0.5221 0.2644 0 0 0 0 0 0 0 0.8124 0.1876 0 0 0 0 0 0 0 0 0.4325 0.5675 0 0 0 0 0 0 0 0 0.1248 0.867 0.008200000000000001 0 0 0 0 0 0 0 0.0133 0.8344 0.1523 0 0 0 0 0 0 0 0 0.5552 0.4448 0 0 0 0 0 0 0 0 0.2839 0.6884 0.0277 0 0 0 0 0 0 0 0.1231 0.6963 0.1806 0 0 0 0 0 0 0 0.042 0.5592 0.3953 0.0035 0 0 0 0 0 0 0.006 0.4146 0.5174 0.062 0 0 0 0 0 0 0 0.2679 0.5273 0.2048 0 0 0 0 0 0.6885 0.3115 0 0 0 0 0 0 0 0 0.1261 0.8672 0.0067 0 0 0 0 0 0 0 0 0.6806 0.3194 0 0 0 0 0 0 0 0 0.1661 0.8058 0.0281 0 0 0 0 0 0 0 0.0043 0.6444 0.3513 0 0 0 0 0 0 0 0 0.2209 0.7148 0.0643 0 0 0 0 0 0 0 0.026 0.587 0.387 0 0 0 0 0 0 0 0 0.2767 0.7233000000000001 0 0 0 0 0 0 0 0 0.0622 0.9378 0 0 0 0 0 0 0 0 0.002 0.998 0 0 0 0 0 0.5678 0.4322 0 0 0 0 0 0 0 0 0.0131 0.8345 0.1524 0 0 0 0 0 0 0 0 0.1604 0.8076 0.032 0 0 0 0 0 0 0 0 0.4537 0.5436 0.0027 0 0 0 0 0 0 0 0.0267 0.6983 0.275 0 0 0 0 0 0 0 0 0.1629 0.8371 0 0 0 0 0 0 0 0 0.0017 0.9983 0 0 0 0 0 0 0 0 0 1 0 0 0 0 0 0 0 0 0 1 0 0 0 0 0 0 0 0 0 1 0 0 0 0 0 0.4591 0.5409 0 0 0 0 0 0 0 0 0 0.5611 0.4389 0 0 0 0 0 0 0 0 0.0061 0.6403 0.3536 0 0 0 0 0 0 0 0 0.0262 0.6969 0.2769 0 0 0 0 0 0 0 0 0.0648 0.9352 0 0 0 0 0 0 0 0 0 1 0 0 0 0 0 0 0 0 0 1 0 0 0 0 0 0 0 0 0 1 0 0 0 0 0 0 0 0 0 1 0 0 0 0 0 0 0 0 0 1 0 0 0 0 0 0.3575 0.6356000000000001 0.0069 0 0 0 0 0 0 0 0 0.2785 0.6904 0.0311 0 0 0 0 0 0 0 0 0.2198 0.7161 0.0641 0 0 0 0 0 0 0 0 0.1642 0.8358 0 0 0 0 0 0 0 0 0 1 0 0 0 0 0 0 0 0 0 1 0 0 0 0 0 0 0 0 0 1 0 0 0 0 0 0 0 0 0 1 0 0 0 0 0 0 0 0 0 1 0 0 0 0 0 0 0 0 0 1 0 0 0 0 0 0.3009 0.6545 0.0446 0 0 0 0 0 0 0 0 0.1218 0.7035 0.1747 0 0 0 0 0 0 0 0 0.0278 0.5931999999999999 0.379 0 0 0 0 0 0 0 0 0.0023 0.9977 0 0 0 0 0 0 0 0 0 1 0 0 0 0 0 0 0 0 0 1 0 0 0 0 0 0 0 0 0 1 0 0 0 0 0 0 0 0 0 1 0 0 0 0 0 0 0 0 0 1 0 0 0 0 0 0 0 0 0 1 0 0 0 0 0 0.2667 0.629 0.1043 0 0 0 0 0 0 0 0 0.0405 0.5568 0.3999 0.0028 0 0 0 0 0 0 0 0 0.2673 0.7327 0 0 0 0 0 0 0 0 0 1 0 0 0 0 0 0 0 0 0 1 0 0 0 0 0 0 0 0 0 1 0 0 0 0 0 0 0 0 0 1 0 0 0 0 0 0 0 0 0 1 0 0 0 0 0 0 0 0 0 1 0 0 0 0 0 0 0 0 0 1 0 0 0 0 0 0.226 0.5881999999999999 0.1858 0 0 0 0 0 0 0 0 0.0058 0.4105 0.5185 0.06519999999999999 0 0 0 0 0 0 0 0 0.06560000000000001 0.9344 0 0 0 0 0 0 0 0 0 1 0 0 0 0 0 0 0 0 0 1 0 0 0 0 0 0 0 0 0 1 0 0 0 0 0 0 0 0 0 1 0 0 0 0 0 0 0 0 0 1 0 0 0 0 0 0 0 0 0 1 0 0 0 0 0 0 0 0 0 1 0 0 0 0 0 0.2147 0.527 0.2583 0 0 0 0 0 0 0 0 0 0.265 0.5227000000000001 0.2123 0 0 0 0 0 0 0 0 0.0015 0.9985000000000001 0 0 0 0 0 0 0 0 0 1 0 0 0 0 0 0 0 0 0 1 0 0 0 0 0 0 0 0 0 1 0 0 0 0 0 0 0 0 0 1 0 0 0 0 0 0 0 0 0 1 0 0 0 0 0 0 0 0 0 1 0 0 0 0 0 0 0 0 0 1 0 0 0 0 0 0 1 0 0 0 0 0 0 0 0 0 0.9758 0.0242 0 0 0 0 0 0 0 0 0.8797 0.1203 0 0 0 0 0 0 0 0 0.7781 0.2219 0 0 0 0 0 0 0 0 0.6629 0.3371 0 0 0 0 0 0 0 0 0.5403 0.4597 0 0 0 0 0 0 0 0 0.4759 0.5175 0.0066 0 0 0 0 0 0 0 0.4078 0.5562 0.036 0 0 0 0 0 0 0 0.3496 0.5593 0.0911 0 0 0 0 0 0 0 0.3095 0.5221 0.1684 0 0 0 0 0 0 0 0.9757 0.0243 0 0 0 0 0 0 0 0 0.6924 0.3076 0 0 0 0 0 0 0 0 0.3255 0.6745 0 0 0 0 0 0 0 0 0.0861 0.8699 0.044 0 0 0 0 0 0 0 0.0102 0.7345 0.2553 0 0 0 0 0 0 0 0 0.4653 0.5315 0.0032 0 0 0 0 0 0 0 0.2431 0.6722 0.0847 0 0 0 0 0 0 0 0.1087 0.6328 0.2585 0 0 0 0 0 0 0 0.0339 0.4926 0.4735 0 0 0 0 0 0 0 0.0054 0.363 0.6316000000000001 0 0 0 0 0 0 0.8865 0.1135 0 0 0 0 0 0 0 0 0.3183 0.6817 0 0 0 0 0 0 0 0 0.0077 0.8583 0.134 0 0 0 0 0 0 0 0 0.338 0.6583 0.0037 0 0 0 0 0 0 0 0.0377 0.7788 0.1835 0 0 0 0 0 0 0 0 0.37 0.63 0 0 0 0 0 0 0 0 0.0881 0.9119 0 0 0 0 0 0 0 0 0.004 0.996 0 0 0 0 0 0 0 0 0 1 0 0 0 0 0 0 0 0 0 1 0 0 0 0 0 0 0.7762 0.2238 0 0 0 0 0 0 0 0 0.08890000000000001 0.8663999999999999 0.0447 0 0 0 0 0 0 0 0 0.3472 0.6494 0.0034 0 0 0 0 0 0 0 0.0051 0.6439 0.351 0 0 0 0 0 0 0 0 0.0887 0.9113 0 0 0 0 0 0 0 0 0 1 0 0 0 0 0 0 0 0 0 1 0 0 0 0 0 0 0 0 0 1 0 0 0 0 0 0 0 0 0 1 0 0 0 0 0 0 0 0 0 1 0 0 0 0 0 0 0.6526 0.3474 0 0 0 0 0 0 0 0 0.013 0.7321 0.2549 0 0 0 0 0 0 0 0 0.0398 0.777 0.1832 0 0 0 0 0 0 0 0 0.09569999999999999 0.9043 0 0 0 0 0 0 0 0 0 1 0 0 0 0 0 0 0 0 0 1 0 0 0 0 0 0 0 0 0 1 0 0 0 0 0 0 0 0 0 1 0 0 0 0 0 0 0 0 0 1 0 0 0 0 0 0 0 0 0 1 0 0 0 0 0 0 0.5494 0.4506 0 0 0 0 0 0 0 0 0 0.4578 0.5384 0.0038 0 0 0 0 0 0 0 0 0.3719 0.6281 0 0 0 0 0 0 0 0 0 1 0 0 0 0 0 0 0 0 0 1 0 0 0 0 0 0 0 0 0 1 0 0 0 0 0 0 0 0 0 1 0 0 0 0 0 0 0 0 0 1 0 0 0 0 0 0 0 0 0 1 0 0 0 0 0 0 0 0 0 1 0 0 0 0 0 0 0.4653 0.5285 0.0062 0 0 0 0 0 0 0 0 0.2328 0.6837 0.0835 0 0 0 0 0 0 0 0 0.08550000000000001 0.9145 0 0 0 0 0 0 0 0 0 1 0 0 0 0 0 0 0 0 0 1 0 0 0 0 0 0 0 0 0 1 0 0 0 0 0 0 0 0 0 1 0 0 0 0 0 0 0 0 0 1 0 0 0 0 0 0 0 0 0 1 0 0 0 0 0 0 0 0 0 1 0 0 0 0 0 0 0.3961 0.5659999999999999 0.0379 0 0 0 0 0 0 0 0 0.1066 0.6237 0.2697 0 0 0 0 0 0 0 0 0.0027 0.9973 0 0 0 0 0 0 0 0 0 1 0 0 0 0 0 0 0 0 0 1 0 0 0 0 0 0 0 0 0 1 0 0 0 0 0 0 0 0 0 1 0 0 0 0 0 0 0 0 0 1 0 0 0 0 0 0 0 0 0 1 0 0 0 0 0 0 0 0 0 1 0 0 0 0 0 0 0.3595 0.5484 0.0921 0 0 0 0 0 0 0 0 0.0351 0.5001 0.4648 0 0 0 0 0 0 0 0 0 1 0 0 0 0 0 0 0 0 0 1 0 0 0 0 0 0 0 0 0 1 0 0 0 0 0 0 0 0 0 1 0 0 0 0 0 0 0 0 0 1 0 0 0 0 0 0 0 0 0 1 0 0 0 0 0 0 0 0 0 1 0 0 0 0 0 0 0 0 0 1 0 0 0 0 0 0 0.3141 0.5245 0.1614 0 0 0 0 0 0 0 0 0.0048 0.3581 0.6371 0 0 0 0 0 0 0 0 0 1 0 0 0 0 0 0 0 0 0 1 0 0 0 0 0 0 0 0 0 1 0 0 0 0 0 0 0 0 0 1 0 0 0 0 0 0 0 0 0 1 0 0 0 0 0 0 0 0 0 1 0 0 0 0 0 0 0 0 0 1 0 0 0 0 0 0 0 0 0 1 0 0 0 0 0 0 0.1897 0.8103 0 0 0 0 0 0 0 0 0.0934 0.9066 0 0 0 0 0 0 0 0 0.0486 0.9358 0.0156 0 0 0 0 0 0 0 0.0374 0.8806 0.082 0 0 0 0 0 0 0 0.0277 0.801 0.1713 0 0 0 0 0 0 0 0.0251 0.6901 0.2848 0 0 0 0 0 0 0 0.0173 0.5927 0.39 0 0 0 0 0 0 0 0.0166 0.5132 0.4645 0.0057 0 0 0 0 0 0 0.0141 0.4624 0.4903 0.0332 0 0 0 0 0 0 0.0142 0.4145 0.4911 0.08019999999999999 0 0 0 0 0 0 0.0881 0.9119 0 0 0 0 0 0 0 0 0 0.9034 0.09660000000000001 0 0 0 0 0 0 0 0 0.5719 0.4281 0 0 0 0 0 0 0 0 0.2335 0.7614 0.0051 0 0 0 0 0 0 0 0.0638 0.8147 0.1215 0 0 0 0 0 0 0 0.0078 0.632 0.3602 0 0 0 0 0 0 0 0 0.3971 0.6029 0 0 0 0 0 0 0 0 0.2096 0.7904 0 0 0 0 0 0 0 0 0.09470000000000001 0.9053 0 0 0 0 0 0 0 0 0.0297 0.9703000000000001 0 0 0 0 0 0 0.0529 0.9297 0.0174 0 0 0 0 0 0 0 0 0.5641 0.4359 0 0 0 0 0 0 0 0 0.0735 0.89 0.0365 0 0 0 0 0 0 0 0 0.5541 0.4459 0 0 0 0 0 0 0 0 0.1283 0.8717 0 0 0 0 0 0 0 0 0.005 0.995 0 0 0 0 0 0 0 0 0 1 0 0 0 0 0 0 0 0 0 1 0 0 0 0 0 0 0 0 0 1 0 0 0 0 0 0 0 0 0 1 0 0 0 0 0 0 0.0379 0.8803 0.0818 0 0 0 0 0 0 0 0 0.2335 0.7613 0.0052 0 0 0 0 0 0 0 0 0.552 0.448 0 0 0 0 0 0 0 0 0.0377 0.9623 0 0 0 0 0 0 0 0 0 1 0 0 0 0 0 0 0 0 0 1 0 0 0 0 0 0 0 0 0 1 0 0 0 0 0 0 0 0 0 1 0 0 0 0 0 0 0 0 0 1 0 0 0 0 0 0 0 0 0 1 0 0 0 0 0 0 0.0283 0.7931 0.1786 0 0 0 0 0 0 0 0 0.0669 0.8156 0.1175 0 0 0 0 0 0 0 0 0.1237 0.8763 0 0 0 0 0 0 0 0 0 1 0 0 0 0 0 0 0 0 0 1 0 0 0 0 0 0 0 0 0 1 0 0 0 0 0 0 0 0 0 1 0 0 0 0 0 0 0 0 0 1 0 0 0 0 0 0 0 0 0 1 0 0 0 0 0 0 0 0 0 1 0 0 0 0 0 0 0.0224 0.7036 0.274 0 0 0 0 0 0 0 0 0.007 0.6314 0.3616 0 0 0 0 0 0 0 0 0.0033 0.9967 0 0 0 0 0 0 0 0 0 1 0 0 0 0 0 0 0 0 0 1 0 0 0 0 0 0 0 0 0 1 0 0 0 0 0 0 0 0 0 1 0 0 0 0 0 0 0 0 0 1 0 0 0 0 0 0 0 0 0 1 0 0 0 0 0 0 0 0 0 1 0 0 0 0 0 0 0.0191 0.5986 0.3823 0 0 0 0 0 0 0 0 0 0.3915 0.6085 0 0 0 0 0 0 0 0 0 1 0 0 0 0 0 0 0 0 0 1 0 0 0 0 0 0 0 0 0 1 0 0 0 0 0 0 0 0 0 1 0 0 0 0 0 0 0 0 0 1 0 0 0 0 0 0 0 0 0 1 0 0 0 0 0 0 0 0 0 1 0 0 0 0 0 0 0 0 0 1 0 0 0 0 0 0 0.016 0.5227000000000001 0.4569 0.0044 0 0 0 0 0 0 0 0 0.2079 0.7921 0 0 0 0 0 0 0 0 0 1 0 0 0 0 0 0 0 0 0 1 0 0 0 0 0 0 0 0 0 1 0 0 0 0 0 0 0 0 0 1 0 0 0 0 0 0 0 0 0 1 0 0 0 0 0 0 0 0 0 1 0 0 0 0 0 0 0 0 0 1 0 0 0 0 0 0 0 0 0 1 0 0 0 0 0 0 0.0131 0.4548 0.4971 0.035 0 0 0 0 0 0 0 0 0.0958 0.9042 0 0 0 0 0 0 0 0 0 1 0 0 0 0 0 0 0 0 0 1 0 0 0 0 0 0 0 0 0 1 0 0 0 0 0 0 0 0 0 1 0 0 0 0 0 0 0 0 0 1 0 0 0 0 0 0 0 0 0 1 0 0 0 0 0 0 0 0 0 1 0 0 0 0 0 0 0 0 0 1 0 0 0 0 0 0 0.0143 0.402 0.4997 0.08400000000000001 0 0 0 0 0 0 0 0 0.0332 0.9668 0 0 0 0 0 0 0 0 0 1 0 0 0 0 0 0 0 0 0 1 0 0 0 0 0 0 0 0 0 1 0 0 0 0 0 0 0 0 0 1 0 0 0 0 0 0 0 0 0 1 0 0 0 0 0 0 0 0 0 1 0 0 0 0 0 0 0 0 0 1 0 0 0 0 0 0 0 0 0 1</probabilities>
		</cpt>
		<cpt id="random_disturbance_t_1">
			<state id="State0" />
			<state id="State1" />
			<state id="State2" />
			<state id="State3" />
			<state id="State4" />
			<state id="State5" />
			<state id="State6" />
			<state id="State7" />
			<state id="State8" />
			<state id="State9" />
			<state id="State10" />
			<intervals>0 0.1 0.2 0.3 0.4 0.5 0.6 0.7 0.8 0.9 1 1.1</intervals>
			<probabilities>0.1427951388888889 0.1434461805555556 0.1375868055555556 0.1184895833333333 0.111328125 0.08702256944444445 0.0759548611111111 0.06228298611111111 0.052734375 0.03493923611111111 0.03342013888888889</probabilities>
		</cpt>
		<cpt id="random_disturbance">
			<state id="State0" />
			<state id="State1" />
			<state id="State2" />
			<state id="State3" />
			<state id="State4" />
			<state id="State5" />
			<state id="State6" />
			<state id="State7" />
			<state id="State8" />
			<state id="State9" />
			<state id="State10" />
			<intervals>0 0.1 0.2 0.3 0.4 0.5 0.6 0.7 0.8 0.9 1 1.1</intervals>
			<parents>random_disturbance_t_1</parents>
			<probabilities>0.7708374975014991 0.1826903857685389 0.04197481511093344 0.003797721367179692 9.994003597841295e-05 9.994003597841295e-05 9.994003597841295e-05 9.994003597841295e-05 9.994003597841295e-05 9.994003597841295e-05 9.994003597841295e-05 0.4367816091954023 0.3385307346326837 0.1799100449775113 0.03958020989505247 0.004497751124437781 0.0001999000499750125 9.995002498750625e-05 9.995002498750625e-05 9.995002498750625e-05 9.995002498750625e-05 9.995002498750625e-05 0.1455417832866853 0.303578568572571 0.3319672131147541 0.1751299480207917 0.03958416633346661 0.003398640543782487 0.0003998400639744102 9.996001599360256e-05 9.996001599360256e-05 9.996001599360256e-05 9.996001599360256e-05 0.0239928021593522 0.1180645806258123 0.2955113465960212 0.3458962311306608 0.1723482955113466 0.04028791362591223 0.003299010296910927 0.0002999100269919024 9.997000899730081e-05 9.997000899730081e-05 9.997000899730081e-05 0.002399520095980804 0.02549490101979604 0.1170765846830634 0.3013397320535893 0.3368326334733053 0.1763647270545891 0.03629274145170966 0.003899220155968806 9.998000399920016e-05 9.998000399920016e-05 9.998000399920016e-05 9.998000399920016e-05 0.002599480103979204 0.02389522095580884 0.1174765046990602 0.2945410917816437 0.3351329734053189 0.1801639672065587 0.04149170165966807 0.004399120175964807 9.998000399920016e-05 9.998000399920016e-05 9.999000099990002e-05 9.999000099990002e-05 0.0012998700129987 0.0260973902609739 0.1165883411658834 0.288971102889711 0.347065293470653 0.1758824117588241 0.0397960203979602 0.003999600039996 9.999000099990002e-05 9.997000899730081e-05 9.997000899730081e-05 9.997000899730081e-05 0.002299310206937919 0.02209337198840348 0.1183644906528042 0.2953114065780266 0.3331000699790063 0.1826452064380686 0.04138758372488253 0.004498650404878537 9.997000899730081e-05 9.997000899730081e-05 9.997000899730081e-05 9.997000899730081e-05 0.002599220233929821 0.02379286214135759 0.1183644906528042 0.2932120363890833 0.3413975807257822 0.1732480255923223 0.04698590422873138 9.995002498750625e-05 9.995002498750625e-05 9.995002498750625e-05 9.995002498750625e-05 9.995002498750625e-05 0.002498750624687656 0.02148925537231384 0.1177411294352824 0.2995502248875562 0.3357321339330335 0.2224887556221889 9.995002498750625e-05 9.995002498750625e-05 9.995002498750625e-05 9.995002498750625e-05 0.0001999000499750125 9.995002498750625e-05 0.001799100449775112 0.02418790604697651 0.1178410794602699 0.296151924037981 0.559320339830085</probabilities>
		</cpt>
		<cpt id="motor_wear_t_1">
			<state id="State0" />
			<state id="State1" />
			<state id="State2" />
			<state id="State3" />
			<state id="State4" />
			<state id="State5" />
			<state id="State6" />
			<state id="State7" />
			<state id="State8" />
			<state id="State9" />
			<intervals>0 0.1 0.2 0.3 0.4 0.5 0.6 0.7 0.8 0.9 1</intervals>
			<probabilities>0.9978126864187711 0.0005965400676078744 0.0001988466892026248 0.0001988466892026248 0.0001988466892026248 0.0001988466892026248 0.0001988466892026248 0.0001988466892026248 0.0001988466892026248 0.0001988466892026248</probabilities>
		</cpt>
		<cpt id="motor_wear">
			<state id="State0" />
			<state id="State1" />
			<state id="State2" />
			<state id="State3" />
			<state id="State4" />
			<state id="State5" />
			<state id="State6" />
			<state id="State7" />
			<state id="State8" />
			<state id="State9" />
			<intervals>0 0.1 0.2 0.3 0.4 0.5 0.6 0.7 0.8 0.9 1</intervals>
			<parents>motor_wear_t_1</parents>
			<probabilities>0.9962903549227993 0.002907559655103269 0.0001002606777621817 0.0001002606777621817 0.0001002606777621817 0.0001002606777621817 0.0001002606777621817 0.0001002606777621817 0.0001002606777621817 0.0001002606777621817 0.00449685220345758 0.9898071350054961 0.0049965024482862 9.9930048965724e-05 9.9930048965724e-05 9.9930048965724e-05 9.9930048965724e-05 9.9930048965724e-05 9.9930048965724e-05 9.9930048965724e-05 9.9930048965724e-05 0.002897971420005996 0.9928050364744678 0.003597481762766064 9.9930048965724e-05 9.9930048965724e-05 9.9930048965724e-05 9.9930048965724e-05 9.9930048965724e-05 9.9930048965724e-05 9.9930048965724e-05 9.9930048965724e-05 0.00399720195862896 0.9914060157889477 0.003897271909663236 9.9930048965724e-05 9.9930048965724e-05 9.9930048965724e-05 9.9930048965724e-05 9.9930048965724e-05 9.9930048965724e-05 9.9930048965724e-05 9.9930048965724e-05 0.003797341860697512 0.9910062955930848 0.00449685220345758 9.9930048965724e-05 9.9930048965724e-05 9.9930048965724e-05 9.9930048965724e-05 9.9930048965724e-05 9.9930048965724e-05 9.9930048965724e-05 9.9930048965724e-05 0.0049965024482862 0.9904067152992905 0.003897271909663236 9.9930048965724e-05 9.9930048965724e-05 9.9930048965724e-05 9.9930048965724e-05 9.9930048965724e-05 9.9930048965724e-05 9.9930048965724e-05 9.9930048965724e-05 0.003797341860697512 0.9919056660337764 0.003597481762766064 9.9930048965724e-05 9.9930048965724e-05 9.9930048965724e-05 9.9930048965724e-05 9.9930048965724e-05 9.9930048965724e-05 9.9930048965724e-05 9.9930048965724e-05 0.004396922154491856 0.991306085739982 0.003597481762766064 9.9930048965724e-05 9.9930048965724e-05 9.9930048965724e-05 9.9930048965724e-05 9.9930048965724e-05 9.9930048965724e-05 9.9930048965724e-05 9.9930048965724e-05 0.003197761566903168 0.9923053862296393 0.003797341860697512 0.0001004924128228319 0.0001004924128228319 0.0001004924128228319 0.0001004924128228319 0.0001004924128228319 0.0001004924128228319 0.0001004924128228319 0.0001004924128228319 0.004220681338558939 0.9949753793588584</probabilities>
		</cpt>
		<cpt id="turbulence_t_1">
			<state id="State0" />
			<state id="State1" />
			<state id="State2" />
			<state id="State3" />
			<state id="State4" />
			<state id="State5" />
			<state id="State6" />
			<state id="State7" />
			<state id="State8" />
			<state id="State9" />
			<intervals>0 0.1 0.2 0.3 0.4 0.5 0.6 0.7 0.8 0.9 1</intervals>
			<probabilities>0.2618806875631952 0.2226491405460061 0.191304347826087 0.1399393326592518 0.08978766430738119 0.05035389282103134 0.02224469160768453 0.01334681496461072 0.006673407482305359 0.001820020222446916</probabilities>
		</cpt>
		<cpt id="turbulence">
			<state id="State0" />
			<state id="State1" />
			<state id="State2" />
			<state id="State3" />
			<state id="State4" />
			<state id="State5" />
			<state id="State6" />
			<state id="State7" />
			<state id="State8" />
			<state id="State9" />
			<intervals>0 0.1 0.2 0.3 0.4 0.5 0.6 0.7 0.8 0.9 1</intervals>
			<parents>turbulence_t_1</parents>
			<probabilities>0.5368650217706822 0.3481857764876633 0.1037735849056604 0.01001451378809869 0.0004354136429608128 0.0001451378809869376 0.0001451378809869376 0.0001451378809869376 0.0001451378809869376 0.0001451378809869376 0.2556805886171824 0.3951525643800043 0.261739883142177 0.07758061025752001 0.009197143475438216 0.0002164033758926639 0.000108201687946332 0.000108201687946332 0.000108201687946332 0.000108201687946332 0.06851385390428212 0.2420151133501259 0.3681612090680101 0.2457430730478589 0.06780856423173803 0.007153652392947104 0.0003022670025188917 0.0001007556675062972 0.0001007556675062972 0.0001007556675062972 0.006900690069006901 0.06790679067906791 0.2393239323932393 0.3659365936593659 0.2455245524552455 0.0661066106610661 0.007700770077007701 0.0004000400040004001 0.0001000100010001 0.0001000100010001 0.0004 0.0075 0.0643 0.2464 0.3654 0.2414 0.06660000000000001 0.0073 0.0005999999999999999 0.0001 9.999000099990002e-05 9.999000099990002e-05 0.006999300069993001 0.07019298070192981 0.2381761823817618 0.3683631636836316 0.2408759124087591 0.06829317068293171 0.0064993500649935 0.0003999600039996001 0.0001000400160064026 0.0001000400160064026 0.0003001200480192077 0.006302521008403362 0.06962785114045618 0.2419967987194878 0.3655462184873949 0.2459983993597439 0.06332533013205283 0.006702681072428972 0.0001007658202337767 0.0001007658202337767 0.0001007658202337767 0.0005038291011688835 0.006247480854494156 0.06781539701733172 0.2417372027408303 0.3740427247077791 0.2407295445384925 0.06862152357920194 0.0001086720278200391 0.0001086720278200391 0.0001086720278200391 0.0001086720278200391 0.0003260160834601174 0.008476418169963052 0.06965876983264507 0.261030210823734 0.3931753966529015 0.2668985003260161 0.0001459427904261529 0.0001459427904261529 0.0001459427904261529 0.0001459427904261529 0.0001459427904261529 0.0001459427904261529 0.009924109748978401 0.09617629889083479 0.345446584938704 0.5475773496789259</probabilities>
		</cpt>
		<cpt id="motoruse_for_other">
			<state id="State0" />
			<state id="State1" />
			<state id="State2" />
			<state id="State3" />
			<state id="State4" />
			<state id="State5" />
			<state id="State6" />
			<state id="State7" />
			<state id="State8" />
			<state id="State9" />
			<state id="State10" />
			<intervals>0 0.1 0.2 0.3 0.4 0.5 0.6 0.7 0.8 0.9 1 1.1</intervals>
			<parents>motor_wear turbulence random_disturbance</parents>
			<probabilities>0.8269 0.1731 0 0 0 0 0 0 0 0 0 0.0762 0.7417 0.1821 0 0 0 0 0 0 0 0 0 0.0825 0.7347 0.1828 0 0 0 0 0 0 0 0 0 0.0823 0.7374000000000001 0.1803 0 0 0 0 0 0 0 0 0 0.0837 0.7332 0.1831 0 0 0 0 0 0 0 0 0 0.07729999999999999 0.734 0.1887 0 0 0 0 0 0 0 0 0 0.08400000000000001 0.7392 0.1768 0 0 0 0 0 0 0 0 0 0.08309999999999999 0.7346 0.1823 0 0 0 0 0 0 0 0 0 0.08690000000000001 0.7358 0.1773 0 0 0 0 0 0 0 0 0 0.08019999999999999 0.7366 0.1832 0 0 0 0 0 0 0 0 0 0.081 0.919 0.6844 0.3156 0 0 0 0 0 0 0 0 0 0.0227 0.6581 0.3192 0 0 0 0 0 0 0 0 0 0.0211 0.661 0.3179 0 0 0 0 0 0 0 0 0 0.022 0.6611 0.3169 0 0 0 0 0 0 0 0 0 0.0237 0.6577 0.3186 0 0 0 0 0 0 0 0 0 0.0214 0.6499 0.3287 0 0 0 0 0 0 0 0 0 0.025 0.6608000000000001 0.3142 0 0 0 0 0 0 0 0 0 0.0218 0.6577 0.3205 0 0 0 0 0 0 0 0 0 0.0231 0.6489 0.328 0 0 0 0 0 0 0 0 0 0.0203 0.6536999999999999 0.326 0 0 0 0 0 0 0 0 0 0.0229 0.9771 0.507 0.4921 0.0009 0 0 0 0 0 0 0 0 0.0015 0.5103 0.4872 0.001 0 0 0 0 0 0 0 0 0.0009 0.498 0.5002 0.0009 0 0 0 0 0 0 0 0 0.0005999999999999999 0.4936 0.5049 0.0009 0 0 0 0 0 0 0 0 0.0015 0.4969 0.501 0.0005999999999999999 0 0 0 0 0 0 0 0 0.0005999999999999999 0.4972 0.5019 0.0003 0 0 0 0 0 0 0 0 0.0009 0.5 0.4985 0.0005999999999999999 0 0 0 0 0 0 0 0 0.0002 0.5095 0.4896 0.0007 0 0 0 0 0 0 0 0 0.0018 0.5049 0.4924 0.0009 0 0 0 0 0 0 0 0 0.0005999999999999999 0.4898 0.5096000000000001 0 0 0 0 0 0 0 0 0 0.0009 0.9991 0.3245 0.6542 0.0213 0 0 0 0 0 0 0 0 0 0.3292 0.6466 0.0242 0 0 0 0 0 0 0 0 0 0.3157 0.6632 0.0211 0 0 0 0 0 0 0 0 0 0.3193 0.6576 0.0231 0 0 0 0 0 0 0 0 0 0.3222 0.6581 0.0197 0 0 0 0 0 0 0 0 0 0.3161 0.6633 0.0206 0 0 0 0 0 0 0 0 0 0.3283 0.6508 0.0209 0 0 0 0 0 0 0 0 0 0.3205 0.6594 0.0201 0 0 0 0 0 0 0 0 0 0.3279 0.6495 0.0226 0 0 0 0 0 0 0 0 0 0.3238 0.6762 0 0 0 0 0 0 0 0 0 0 1 0.1798 0.735 0.0852 0 0 0 0 0 0 0 0 0 0.1804 0.7353 0.0843 0 0 0 0 0 0 0 0 0 0.1878 0.7297 0.0825 0 0 0 0 0 0 0 0 0 0.1836 0.7334000000000001 0.083 0 0 0 0 0 0 0 0 0 0.1787 0.7431 0.07820000000000001 0 0 0 0 0 0 0 0 0 0.1831 0.7383 0.0786 0 0 0 0 0 0 0 0 0 0.1884 0.7324000000000001 0.07920000000000001 0 0 0 0 0 0 0 0 0 0.185 0.7295 0.08550000000000001 0 0 0 0 0 0 0 0 0 0.1786 0.7413999999999999 0.08 0 0 0 0 0 0 0 0 0 0.1824 0.8176 0 0 0 0 0 0 0 0 0 0 1 0.08260000000000001 0.7307 0.1867 0 0 0 0 0 0 0 0 0 0.0806 0.7419 0.1775 0 0 0 0 0 0 0 0 0 0.0863 0.7304 0.1833 0 0 0 0 0 0 0 0 0 0.0798 0.7375 0.1827 0 0 0 0 0 0 0 0 0 0.08359999999999999 0.7329 0.1835 0 0 0 0 0 0 0 0 0 0.0805 0.7407 0.1788 0 0 0 0 0 0 0 0 0 0.08309999999999999 0.7337 0.1832 0 0 0 0 0 0 0 0 0 0.0796 0.7373 0.1831 0 0 0 0 0 0 0 0 0 0.0856 0.7397 0.1747 0 0 0 0 0 0 0 0 0 0.0881 0.9119 0 0 0 0 0 0 0 0 0 0 1 0.0223 0.6533 0.3244 0 0 0 0 0 0 0 0 0 0.0195 0.6473 0.3332 0 0 0 0 0 0 0 0 0 0.0207 0.647 0.3323 0 0 0 0 0 0 0 0 0 0.0232 0.6525 0.3243 0 0 0 0 0 0 0 0 0 0.0224 0.6544 0.3232 0 0 0 0 0 0 0 0 0 0.0195 0.6575 0.323 0 0 0 0 0 0 0 0 0 0.0192 0.6632 0.3176 0 0 0 0 0 0 0 0 0 0.0219 0.6534 0.3247 0 0 0 0 0 0 0 0 0 0.02 0.6576 0.3224 0 0 0 0 0 0 0 0 0 0.0228 0.9772 0 0 0 0 0 0 0 0 0 0 1 0.0011 0.5011 0.4972 0.0005999999999999999 0 0 0 0 0 0 0 0 0.0008 0.5047 0.4939 0.0005999999999999999 0 0 0 0 0 0 0 0 0.0004 0.4961 0.5024999999999999 0.001 0 0 0 0 0 0 0 0 0.0014 0.4939 0.5037 0.001 0 0 0 0 0 0 0 0 0.0008 0.4966 0.5016 0.001 0 0 0 0 0 0 0 0 0.0009 0.4982 0.4994 0.0015 0 0 0 0 0 0 0 0 0.0009 0.4974 0.5007 0.001 0 0 0 0 0 0 0 0 0.0013 0.496 0.5014999999999999 0.0012 0 0 0 0 0 0 0 0 0.0007 0.4961 0.5032 0 0 0 0 0 0 0 0 0 0.0003 0.9997 0 0 0 0 0 0 0 0 0 0 1 0 0.32 0.657 0.023 0 0 0 0 0 0 0 0 0 0.3233 0.654 0.0227 0 0 0 0 0 0 0 0 0 0.3187 0.6591 0.0222 0 0 0 0 0 0 0 0 0 0.3276 0.6498 0.0226 0 0 0 0 0 0 0 0 0 0.3225 0.6574 0.0201 0 0 0 0 0 0 0 0 0 0.3209 0.6575 0.0216 0 0 0 0 0 0 0 0 0 0.3196 0.6583 0.0221 0 0 0 0 0 0 0 0 0 0.326 0.6545 0.0195 0 0 0 0 0 0 0 0 0 0.3196 0.6804 0 0 0 0 0 0 0 0 0 0 1 0 0 0 0 0 0 0 0 0 0 1 0 0.1833 0.738 0.07870000000000001 0 0 0 0 0 0 0 0 0 0.1882 0.7343 0.0775 0 0 0 0 0 0 0 0 0 0.1837 0.7393999999999999 0.0769 0 0 0 0 0 0 0 0 0 0.1793 0.7429 0.07779999999999999 0 0 0 0 0 0 0 0 0 0.1807 0.7395 0.0798 0 0 0 0 0 0 0 0 0 0.1813 0.7379 0.0808 0 0 0 0 0 0 0 0 0 0.1778 0.7371 0.0851 0 0 0 0 0 0 0 0 0 0.1822 0.7333 0.08450000000000001 0 0 0 0 0 0 0 0 0 0.1749 0.8250999999999999 0 0 0 0 0 0 0 0 0 0 1 0 0 0 0 0 0 0 0 0 0 1 0.07920000000000001 0.7376 0.1832 0 0 0 0 0 0 0 0 0 0.07969999999999999 0.7412 0.1791 0 0 0 0 0 0 0 0 0 0.0862 0.7323 0.1815 0 0 0 0 0 0 0 0 0 0.0801 0.7426 0.1773 0 0 0 0 0 0 0 0 0 0.0809 0.7301 0.189 0 0 0 0 0 0 0 0 0 0.0824 0.7317 0.1859 0 0 0 0 0 0 0 0 0 0.0825 0.7357 0.1818 0 0 0 0 0 0 0 0 0 0.0804 0.7359 0.1837 0 0 0 0 0 0 0 0 0 0.0818 0.7345 0.1837 0 0 0 0 0 0 0 0 0 0.0815 0.9185 0 0 0 0 0 0 0 0 0 0 1 0.0229 0.6577 0.3194 0 0 0 0 0 0 0 0 0 0.0203 0.6576 0.3221 0 0 0 0 0 0 0 0 0 0.0228 0.657 0.3202 0 0 0 0 0 0 0 0 0 0.0209 0.6567 0.3224 0 0 0 0 0 0 0 0 0 0.0237 0.6556 0.3207 0 0 0 0 0 0 0 0 0 0.0216 0.6593 0.3191 0 0 0 0 0 0 0 0 0 0.0192 0.6599 0.3209 0 0 0 0 0 0 0 0 0 0.021 0.6644 0.3146 0 0 0 0 0 0 0 0 0 0.0207 0.6513 0.328 0 0 0 0 0 0 0 0 0 0.0231 0.9769 0 0 0 0 0 0 0 0 0 0 1 0.001 0.4972 0.5014 0.0004 0 0 0 0 0 0 0 0 0.0005999999999999999 0.5032 0.4958 0.0004 0 0 0 0 0 0 0 0 0.0003 0.5084 0.4905 0.0008 0 0 0 0 0 0 0 0 0.0009 0.5027 0.4959 0.0005 0 0 0 0 0 0 0 0 0.0008 0.5048 0.4931 0.0013 0 0 0 0 0 0 0 0 0.0005999999999999999 0.5 0.499 0.0004 0 0 0 0 0 0 0 0 0.0014 0.4976 0.5004 0.0005999999999999999 0 0 0 0 0 0 0 0 0.0011 0.496 0.502 0.0009 0 0 0 0 0 0 0 0 0.0009 0.4958 0.5033 0 0 0 0 0 0 0 0 0 0.0007 0.9993 0 0 0 0 0 0 0 0 0 0 1 0 0.318 0.6604 0.0216 0 0 0 0 0 0 0 0 0 0.3302 0.6494 0.0204 0 0 0 0 0 0 0 0 0 0.3281 0.6503 0.0216 0 0 0 0 0 0 0 0 0 0.3222 0.6561 0.0217 0 0 0 0 0 0 0 0 0 0.3214 0.6577 0.0209 0 0 0 0 0 0 0 0 0 0.3168 0.6605 0.0227 0 0 0 0 0 0 0 0 0 0.3232 0.6562 0.0206 0 0 0 0 0 0 0 0 0 0.3278 0.6544 0.0178 0 0 0 0 0 0 0 0 0 0.325 0.675 0 0 0 0 0 0 0 0 0 0 1 0 0 0 0 0 0 0 0 0 0 1 0 0.1788 0.734 0.0872 0 0 0 0 0 0 0 0 0 0.1839 0.7342 0.0819 0 0 0 0 0 0 0 0 0 0.1806 0.7411 0.07829999999999999 0 0 0 0 0 0 0 0 0 0.1769 0.7423999999999999 0.08069999999999999 0 0 0 0 0 0 0 0 0 0.1764 0.7433 0.0803 0 0 0 0 0 0 0 0 0 0.1834 0.7301 0.08649999999999999 0 0 0 0 0 0 0 0 0 0.183 0.7385 0.0785 0 0 0 0 0 0 0 0 0 0.1809 0.7376 0.0815 0 0 0 0 0 0 0 0 0 0.1845 0.8155 0 0 0 0 0 0 0 0 0 0 1 0 0 0 0 0 0 0 0 0 0 1 0 0.0794 0.7305 0.1901 0 0 0 0 0 0 0 0 0 0.074 0.7388 0.1872 0 0 0 0 0 0 0 0 0 0.0851 0.7295 0.1854 0 0 0 0 0 0 0 0 0 0.08 0.7358 0.1842 0 0 0 0 0 0 0 0 0 0.08309999999999999 0.7436 0.1733 0 0 0 0 0 0 0 0 0 0.0822 0.7282999999999999 0.1895 0 0 0 0 0 0 0 0 0 0.082 0.738 0.18 0 0 0 0 0 0 0 0 0 0.0788 0.738 0.1832 0 0 0 0 0 0 0 0 0 0.0806 0.9194 0 0 0 0 0 0 0 0 0 0 1 0 0 0 0 0 0 0 0 0 0 1 0 0.0229 0.6555 0.3216 0 0 0 0 0 0 0 0 0 0.0227 0.66 0.3173 0 0 0 0 0 0 0 0 0 0.0199 0.658 0.3221 0 0 0 0 0 0 0 0 0 0.0219 0.6498 0.3283 0 0 0 0 0 0 0 0 0 0.0234 0.6543 0.3223 0 0 0 0 0 0 0 0 0 0.021 0.6549 0.3241 0 0 0 0 0 0 0 0 0 0.0218 0.6536999999999999 0.3245 0 0 0 0 0 0 0 0 0 0.0204 0.6536999999999999 0.3259 0 0 0 0 0 0 0 0 0 0.0224 0.9776 0 0 0 0 0 0 0 0 0 0 1 0 0 0 0 0 0 0 0 0 0 1 0 0.0011 0.5036 0.494 0.0013 0 0 0 0 0 0 0 0 0.0005999999999999999 0.5011 0.4975 0.0008 0 0 0 0 0 0 0 0 0.0008 0.5108 0.4874 0.001 0 0 0 0 0 0 0 0 0.0008 0.5029 0.4956 0.0007 0 0 0 0 0 0 0 0 0.0005999999999999999 0.4962 0.5027 0.0005 0 0 0 0 0 0 0 0 0.001 0.507 0.4913 0.0007 0 0 0 0 0 0 0 0 0.0008 0.4882 0.5097 0.0013 0 0 0 0 0 0 0 0 0.0003 0.5054 0.4943 0 0 0 0 0 0 0 0 0 0.0012 0.9988 0 0 0 0 0 0 0 0 0 0 1 0 0 0 0 0 0 0 0 0 0 1 0 0 0.3324 0.6453 0.0223 0 0 0 0 0 0 0 0 0 0.3199 0.6572 0.0229 0 0 0 0 0 0 0 0 0 0.3107 0.6674 0.0219 0 0 0 0 0 0 0 0 0 0.3277 0.6495 0.0228 0 0 0 0 0 0 0 0 0 0.3128 0.6652 0.022 0 0 0 0 0 0 0 0 0 0.3225 0.6572 0.0203 0 0 0 0 0 0 0 0 0 0.3229 0.6571 0.02 0 0 0 0 0 0 0 0 0 0.3134 0.6866 0 0 0 0 0 0 0 0 0 0 1 0 0 0 0 0 0 0 0 0 0 1 0 0 0 0 0 0 0 0 0 0 1 0 0 0.1813 0.7379 0.0808 0 0 0 0 0 0 0 0 0 0.1842 0.7337 0.08210000000000001 0 0 0 0 0 0 0 0 0 0.1848 0.734 0.08119999999999999 0 0 0 0 0 0 0 0 0 0.1805 0.739 0.0805 0 0 0 0 0 0 0 0 0 0.1831 0.7388 0.0781 0 0 0 0 0 0 0 0 0 0.1819 0.7369 0.08119999999999999 0 0 0 0 0 0 0 0 0 0.1808 0.7363 0.0829 0 0 0 0 0 0 0 0 0 0.1856 0.8144 0 0 0 0 0 0 0 0 0 0 1 0 0 0 0 0 0 0 0 0 0 1 0 0 0 0 0 0 0 0 0 0 1 0 0.08359999999999999 0.7377 0.1787 0 0 0 0 0 0 0 0 0 0.077 0.7373 0.1857 0 0 0 0 0 0 0 0 0 0.08210000000000001 0.7321 0.1858 0 0 0 0 0 0 0 0 0 0.07829999999999999 0.738 0.1837 0 0 0 0 0 0 0 0 0 0.0805 0.7368 0.1827 0 0 0 0 0 0 0 0 0 0.08160000000000001 0.7333 0.1851 0 0 0 0 0 0 0 0 0 0.0833 0.7357 0.181 0 0 0 0 0 0 0 0 0 0.0823 0.7437 0.174 0 0 0 0 0 0 0 0 0 0.083 0.917 0 0 0 0 0 0 0 0 0 0 1 0 0 0 0 0 0 0 0 0 0 1 0 0.0225 0.6544 0.3231 0 0 0 0 0 0 0 0 0 0.0195 0.6597 0.3208 0 0 0 0 0 0 0 0 0 0.0193 0.6664 0.3143 0 0 0 0 0 0 0 0 0 0.0225 0.651 0.3265 0 0 0 0 0 0 0 0 0 0.0203 0.6624 0.3173 0 0 0 0 0 0 0 0 0 0.0227 0.6555 0.3218 0 0 0 0 0 0 0 0 0 0.0224 0.6528 0.3248 0 0 0 0 0 0 0 0 0 0.0233 0.6516999999999999 0.325 0 0 0 0 0 0 0 0 0 0.0231 0.9769 0 0 0 0 0 0 0 0 0 0 1 0 0 0 0 0 0 0 0 0 0 1 0 0.0005999999999999999 0.4965 0.5018 0.0011 0 0 0 0 0 0 0 0 0.0005 0.5009 0.498 0.0005999999999999999 0 0 0 0 0 0 0 0 0.001 0.5012 0.4966 0.0012 0 0 0 0 0 0 0 0 0.001 0.5002 0.4978 0.001 0 0 0 0 0 0 0 0 0.0012 0.4991 0.4987 0.001 0 0 0 0 0 0 0 0 0.0008 0.4954 0.5028 0.001 0 0 0 0 0 0 0 0 0.0003 0.4983 0.5007 0.0007 0 0 0 0 0 0 0 0 0.0005999999999999999 0.5017 0.4977 0 0 0 0 0 0 0 0 0 0.001 0.999 0 0 0 0 0 0 0 0 0 0 1 0 0 0 0 0 0 0 0 0 0 1 0 0 0.3233 0.6542 0.0225 0 0 0 0 0 0 0 0 0 0.3271 0.6513 0.0216 0 0 0 0 0 0 0 0 0 0.322 0.6574 0.0206 0 0 0 0 0 0 0 0 0 0.3308 0.6464 0.0228 0 0 0 0 0 0 0 0 0 0.3203 0.6595 0.0202 0 0 0 0 0 0 0 0 0 0.3316 0.6459 0.0225 0 0 0 0 0 0 0 0 0 0.3192 0.6596 0.0212 0 0 0 0 0 0 0 0 0 0.3188 0.6812 0 0 0 0 0 0 0 0 0 0 1 0 0 0 0 0 0 0 0 0 0 1 0 0 0 0 0 0 0 0 0 0 1 0 0 0.1873 0.7344000000000001 0.07829999999999999 0 0 0 0 0 0 0 0 0 0.1812 0.7402 0.0786 0 0 0 0 0 0 0 0 0 0.1741 0.7435 0.0824 0 0 0 0 0 0 0 0 0 0.1814 0.734 0.08459999999999999 0 0 0 0 0 0 0 0 0 0.1854 0.7315 0.08309999999999999 0 0 0 0 0 0 0 0 0 0.1834 0.7369 0.07969999999999999 0 0 0 0 0 0 0 0 0 0.193 0.7248 0.0822 0 0 0 0 0 0 0 0 0 0.1806 0.8194 0 0 0 0 0 0 0 0 0 0 1 0 0 0 0 0 0 0 0 0 0 1 0 0 0 0 0 0 0 0 0 0 1 0 0 0.0847 0.7305 0.1848 0 0 0 0 0 0 0 0 0 0.0827 0.7345 0.1828 0 0 0 0 0 0 0 0 0 0.0779 0.7374000000000001 0.1847 0 0 0 0 0 0 0 0 0 0.0862 0.7241 0.1897 0 0 0 0 0 0 0 0 0 0.07480000000000001 0.7435 0.1817 0 0 0 0 0 0 0 0 0 0.08260000000000001 0.7323 0.1851 0 0 0 0 0 0 0 0 0 0.08359999999999999 0.7328 0.1836 0 0 0 0 0 0 0 0 0 0.08649999999999999 0.9135 0 0 0 0 0 0 0 0 0 0 1 0 0 0 0 0 0 0 0 0 0 1 0 0 0 0 0 0 0 0 0 0 1 0 0 0.0206 0.6632 0.3162 0 0 0 0 0 0 0 0 0 0.0213 0.6536 0.3251 0 0 0 0 0 0 0 0 0 0.0241 0.6602 0.3157 0 0 0 0 0 0 0 0 0 0.0246 0.654 0.3214 0 0 0 0 0 0 0 0 0 0.0214 0.6549 0.3237 0 0 0 0 0 0 0 0 0 0.022 0.6607 0.3173 0 0 0 0 0 0 0 0 0 0.0226 0.6553 0.3221 0 0 0 0 0 0 0 0 0 0.0223 0.9777 0 0 0 0 0 0 0 0 0 0 1 0 0 0 0 0 0 0 0 0 0 1 0 0 0 0 0 0 0 0 0 0 1 0 0 0.0011 0.4999 0.4985 0.0005 0 0 0 0 0 0 0 0 0.0009 0.5067 0.4913 0.0011 0 0 0 0 0 0 0 0 0.0008 0.502 0.4963 0.0009 0 0 0 0 0 0 0 0 0.0007 0.5024999999999999 0.4959 0.0009 0 0 0 0 0 0 0 0 0.001 0.4889 0.509 0.0011 0 0 0 0 0 0 0 0 0.001 0.497 0.501 0.001 0 0 0 0 0 0 0 0 0.0005999999999999999 0.5052 0.4942 0 0 0 0 0 0 0 0 0 0.0007 0.9993 0 0 0 0 0 0 0 0 0 0 1 0 0 0 0 0 0 0 0 0 0 1 0 0 0 0 0 0 0 0 0 0 1 0 0 0 0.3204 0.6592 0.0204 0 0 0 0 0 0 0 0 0 0.3183 0.657 0.0247 0 0 0 0 0 0 0 0 0 0.3218 0.655 0.0232 0 0 0 0 0 0 0 0 0 0.3212 0.6565 0.0223 0 0 0 0 0 0 0 0 0 0.3268 0.651 0.0222 0 0 0 0 0 0 0 0 0 0.3199 0.6581 0.022 0 0 0 0 0 0 0 0 0 0.3183 0.6817 0 0 0 0 0 0 0 0 0 0 1 0 0 0 0 0 0 0 0 0 0 1 0 0 0 0 0 0 0 0 0 0 1 0 0 0 0 0 0 0 0 0 0 1 0 0 0 0.1791 0.7428 0.0781 0 0 0 0 0 0 0 0 0 0.1795 0.7411 0.0794 0 0 0 0 0 0 0 0 0 0.1897 0.7309 0.0794 0 0 0 0 0 0 0 0 0 0.1808 0.7335 0.0857 0 0 0 0 0 0 0 0 0 0.1775 0.74 0.0825 0 0 0 0 0 0 0 0 0 0.1804 0.7381 0.0815 0 0 0 0 0 0 0 0 0 0.1796 0.8204 0 0 0 0 0 0 0 0 0 0 1 0 0 0 0 0 0 0 0 0 0 1 0 0 0 0 0 0 0 0 0 0 1 0 0 0 0 0 0 0 0 0 0 1 0 0 0.08400000000000001 0.7352 0.1808 0 0 0 0 0 0 0 0 0 0.0852 0.7272999999999999 0.1875 0 0 0 0 0 0 0 0 0 0.078 0.7339 0.1881 0 0 0 0 0 0 0 0 0 0.0828 0.7345 0.1827 0 0 0 0 0 0 0 0 0 0.0789 0.7368 0.1843 0 0 0 0 0 0 0 0 0 0.0824 0.7355 0.1821 0 0 0 0 0 0 0 0 0 0.0854 0.7342 0.1804 0 0 0 0 0 0 0 0 0 0.0852 0.9147999999999999 0 0 0 0 0 0 0 0 0 0 1 0 0 0 0 0 0 0 0 0 0 1 0 0 0 0 0 0 0 0 0 0 1 0 0 0.02 0.6629 0.3171 0 0 0 0 0 0 0 0 0 0.0232 0.6526999999999999 0.3241 0 0 0 0 0 0 0 0 0 0.0231 0.66 0.3169 0 0 0 0 0 0 0 0 0 0.022 0.6545 0.3235 0 0 0 0 0 0 0 0 0 0.0216 0.6552 0.3232 0 0 0 0 0 0 0 0 0 0.02 0.6617 0.3183 0 0 0 0 0 0 0 0 0 0.0216 0.6546999999999999 0.3237 0 0 0 0 0 0 0 0 0 0.0228 0.9772 0 0 0 0 0 0 0 0 0 0 1 0 0 0 0 0 0 0 0 0 0 1 0 0 0 0 0 0 0 0 0 0 1 0 0 0.0005999999999999999 0.4989 0.4994 0.0011 0 0 0 0 0 0 0 0 0.0009 0.4908 0.5076000000000001 0.0007 0 0 0 0 0 0 0 0 0.0005 0.5079 0.4903 0.0013 0 0 0 0 0 0 0 0 0.0011 0.4894 0.5091 0.0004 0 0 0 0 0 0 0 0 0.0012 0.5075 0.4906 0.0007 0 0 0 0 0 0 0 0 0.0007 0.496 0.5022 0.0011 0 0 0 0 0 0 0 0 0.0011 0.5014999999999999 0.4974 0 0 0 0 0 0 0 0 0 0.0004 0.9996 0 0 0 0 0 0 0 0 0 0 1 0 0 0 0 0 0 0 0 0 0 1 0 0 0 0 0 0 0 0 0 0 1 0 0 0 0.3191 0.6614 0.0195 0 0 0 0 0 0 0 0 0 0.3227 0.6565 0.0208 0 0 0 0 0 0 0 0 0 0.3222 0.6572 0.0206 0 0 0 0 0 0 0 0 0 0.3179 0.6616 0.0205 0 0 0 0 0 0 0 0 0 0.326 0.6523 0.0217 0 0 0 0 0 0 0 0 0 0.3183 0.6619 0.0198 0 0 0 0 0 0 0 0 0 0.3288 0.6712 0 0 0 0 0 0 0 0 0 0 1 0 0 0 0 0 0 0 0 0 0 1 0 0 0 0 0 0 0 0 0 0 1 0 0 0 0 0 0 0 0 0 0 1 0 0 0 0.1847 0.7361 0.07920000000000001 0 0 0 0 0 0 0 0 0 0.1892 0.7307 0.0801 0 0 0 0 0 0 0 0 0 0.1852 0.7342 0.0806 0 0 0 0 0 0 0 0 0 0.1869 0.7347 0.0784 0 0 0 0 0 0 0 0 0 0.1838 0.7326 0.08359999999999999 0 0 0 0 0 0 0 0 0 0.1887 0.7321 0.07920000000000001 0 0 0 0 0 0 0 0 0 0.182 0.8179999999999999 0 0 0 0 0 0 0 0 0 0 1 0 0 0 0 0 0 0 0 0 0 1 0 0 0 0 0 0 0 0 0 0 1 0 0 0 0 0 0 0 0 0 0 1 0 0 0 0.0814 0.7354000000000001 0.1832 0 0 0 0 0 0 0 0 0 0.0806 0.7349 0.1845 0 0 0 0 0 0 0 0 0 0.0809 0.7426 0.1765 0 0 0 0 0 0 0 0 0 0.0804 0.7383 0.1813 0 0 0 0 0 0 0 0 0 0.083 0.7383 0.1787 0 0 0 0 0 0 0 0 0 0.08459999999999999 0.7308 0.1846 0 0 0 0 0 0 0 0 0 0.0791 0.9209000000000001 0 0 0 0 0 0 0 0 0 0 1 0 0 0 0 0 0 0 0 0 0 1 0 0 0 0 0 0 0 0 0 0 1 0 0 0 0 0 0 0 0 0 0 1 0 0 0 0.0214 0.6545 0.3241 0 0 0 0 0 0 0 0 0 0.0201 0.6562 0.3237 0 0 0 0 0 0 0 0 0 0.0206 0.6606 0.3188 0 0 0 0 0 0 0 0 0 0.0219 0.6639 0.3142 0 0 0 0 0 0 0 0 0 0.0246 0.6546999999999999 0.3207 0 0 0 0 0 0 0 0 0 0.0183 0.6654 0.3163 0 0 0 0 0 0 0 0 0 0.0207 0.9792999999999999 0 0 0 0 0 0 0 0 0 0 1 0 0 0 0 0 0 0 0 0 0 1 0 0 0 0 0 0 0 0 0 0 1 0 0 0 0 0 0 0 0 0 0 1 0 0 0 0.0012 0.5038 0.4943 0.0007 0 0 0 0 0 0 0 0 0.0008 0.4975 0.5004999999999999 0.0012 0 0 0 0 0 0 0 0 0.0009 0.4989 0.4993 0.0009 0 0 0 0 0 0 0 0 0.0012 0.4897 0.5077 0.0014 0 0 0 0 0 0 0 0 0.0012 0.4982 0.4998 0.0008 0 0 0 0 0 0 0 0 0.0005 0.494 0.5054999999999999 0 0 0 0 0 0 0 0 0 0.0007 0.9993 0 0 0 0 0 0 0 0 0 0 1 0 0 0 0 0 0 0 0 0 0 1 0 0 0 0 0 0 0 0 0 0 1 0 0 0 0 0 0 0 0 0 0 1 0 0 0 0 0.3293 0.6486 0.0221 0 0 0 0 0 0 0 0 0 0.329 0.6494 0.0216 0 0 0 0 0 0 0 0 0 0.3253 0.6573 0.0174 0 0 0 0 0 0 0 0 0 0.3247 0.6505 0.0248 0 0 0 0 0 0 0 0 0 0.32 0.6592 0.0208 0 0 0 0 0 0 0 0 0 0.3173 0.6827 0 0 0 0 0 0 0 0 0 0 1 0 0 0 0 0 0 0 0 0 0 1 0 0 0 0 0 0 0 0 0 0 1 0 0 0 0 0 0 0 0 0 0 1 0 0 0 0 0 0 0 0 0 0 1 0 0 0 0 0.1892 0.7301 0.08069999999999999 0 0 0 0 0 0 0 0 0 0.1766 0.739 0.0844 0 0 0 0 0 0 0 0 0 0.1818 0.736 0.0822 0 0 0 0 0 0 0 0 0 0.1845 0.7298 0.0857 0 0 0 0 0 0 0 0 0 0.1769 0.7421 0.081 0 0 0 0 0 0 0 0 0 0.1825 0.8175 0 0 0 0 0 0 0 0 0 0 1 0 0 0 0 0 0 0 0 0 0 1 0 0 0 0 0 0 0 0 0 0 1 0 0 0 0 0 0 0 0 0 0 1 0 0 0 0 0 0 0 0 0 0 1 0 0 0 0.08069999999999999 0.7374000000000001 0.1819 0 0 0 0 0 0 0 0 0 0.0854 0.7359 0.1787 0 0 0 0 0 0 0 0 0 0.0759 0.7429 0.1812 0 0 0 0 0 0 0 0 0 0.077 0.7353 0.1877 0 0 0 0 0 0 0 0 0 0.0852 0.731 0.1838 0 0 0 0 0 0 0 0 0 0.0799 0.7366 0.1835 0 0 0 0 0 0 0 0 0 0.0809 0.9191 0 0 0 0 0 0 0 0 0 0 1 0 0 0 0 0 0 0 0 0 0 1 0 0 0 0 0 0 0 0 0 0 1 0 0 0 0 0 0 0 0 0 0 1 0 0 0 0.0221 0.6493 0.3286 0 0 0 0 0 0 0 0 0 0.024 0.6588000000000001 0.3172 0 0 0 0 0 0 0 0 0 0.0216 0.6525 0.3259 0 0 0 0 0 0 0 0 0 0.0211 0.6506 0.3283 0 0 0 0 0 0 0 0 0 0.022 0.6546999999999999 0.3233 0 0 0 0 0 0 0 0 0 0.0208 0.6627 0.3165 0 0 0 0 0 0 0 0 0 0.0196 0.9804 0 0 0 0 0 0 0 0 0 0 1 0 0 0 0 0 0 0 0 0 0 1 0 0 0 0 0 0 0 0 0 0 1 0 0 0 0 0 0 0 0 0 0 1 0 0 0 0.0008 0.4965 0.5021 0.0005999999999999999 0 0 0 0 0 0 0 0 0.0009 0.496 0.5024 0.0007 0 0 0 0 0 0 0 0 0.0007 0.5044 0.4933 0.0016 0 0 0 0 0 0 0 0 0.0018 0.5061 0.491 0.0011 0 0 0 0 0 0 0 0 0.0005 0.4963 0.5024999999999999 0.0007 0 0 0 0 0 0 0 0 0.0009 0.4953 0.5038 0 0 0 0 0 0 0 0 0 0.0011 0.9989 0 0 0 0 0 0 0 0 0 0 1 0 0 0 0 0 0 0 0 0 0 1 0 0 0 0 0 0 0 0 0 0 1 0 0 0 0 0 0 0 0 0 0 1 0 0 0 0 0.3239 0.6545 0.0216 0 0 0 0 0 0 0 0 0 0.3258 0.6536999999999999 0.0205 0 0 0 0 0 0 0 0 0 0.3221 0.6546 0.0233 0 0 0 0 0 0 0 0 0 0.3283 0.6526999999999999 0.019 0 0 0 0 0 0 0 0 0 0.3279 0.6519 0.0202 0 0 0 0 0 0 0 0 0 0.3303 0.6697 0 0 0 0 0 0 0 0 0 0 1 0 0 0 0 0 0 0 0 0 0 1 0 0 0 0 0 0 0 0 0 0 1 0 0 0 0 0 0 0 0 0 0 1 0 0 0 0 0 0 0 0 0 0 1 0 0 0 0 0.1769 0.7409 0.0822 0 0 0 0 0 0 0 0 0 0.1833 0.7369 0.0798 0 0 0 0 0 0 0 0 0 0.1805 0.7425 0.077 0 0 0 0 0 0 0 0 0 0.1736 0.742 0.0844 0 0 0 0 0 0 0 0 0 0.184 0.731 0.08500000000000001 0 0 0 0 0 0 0 0 0 0.1811 0.8189 0 0 0 0 0 0 0 0 0 0 1 0 0 0 0 0 0 0 0 0 0 1 0 0 0 0 0 0 0 0 0 0 1 0 0 0 0 0 0 0 0 0 0 1 0 0 0 0 0 0 0 0 0 0 1 0 0 0 0 0.0809 0.7371 0.182 0 0 0 0 0 0 0 0 0 0.08110000000000001 0.7403 0.1786 0 0 0 0 0 0 0 0 0 0.0822 0.738 0.1798 0 0 0 0 0 0 0 0 0 0.0814 0.738 0.1806 0 0 0 0 0 0 0 0 0 0.0809 0.7386 0.1805 0 0 0 0 0 0 0 0 0 0.0803 0.9197 0 0 0 0 0 0 0 0 0 0 1 0 0 0 0 0 0 0 0 0 0 1 0 0 0 0 0 0 0 0 0 0 1 0 0 0 0 0 0 0 0 0 0 1 0 0 0 0 0 0 0 0 0 0 1 0 0 0 0 0.0254 0.6483 0.3263 0 0 0 0 0 0 0 0 0 0.0208 0.6476 0.3316 0 0 0 0 0 0 0 0 0 0.0219 0.6611 0.317 0 0 0 0 0 0 0 0 0 0.0218 0.6689000000000001 0.3093 0 0 0 0 0 0 0 0 0 0.0234 0.6501 0.3265 0 0 0 0 0 0 0 0 0 0.0226 0.9774 0 0 0 0 0 0 0 0 0 0 1 0 0 0 0 0 0 0 0 0 0 1 0 0 0 0 0 0 0 0 0 0 1 0 0 0 0 0 0 0 0 0 0 1 0 0 0 0 0 0 0 0 0 0 1 0 0 0 0 0.0011 0.496 0.502 0.0009 0 0 0 0 0 0 0 0 0.0014 0.4871 0.5107 0.0008 0 0 0 0 0 0 0 0 0.0009 0.4933 0.5051 0.0007 0 0 0 0 0 0 0 0 0.0005999999999999999 0.4948 0.5034999999999999 0.0011 0 0 0 0 0 0 0 0 0.0018 0.4959 0.5023 0 0 0 0 0 0 0 0 0 0.0003 0.9997 0 0 0 0 0 0 0 0 0 0 1 0 0 0 0 0 0 0 0 0 0 1 0 0 0 0 0 0 0 0 0 0 1 0 0 0 0 0 0 0 0 0 0 1 0 0 0 0 0 0 0 0 0 0 1 0 0 0 0 0 0.3248 0.6552 0.02 0 0 0 0 0 0 0 0 0 0.3251 0.6533 0.0216 0 0 0 0 0 0 0 0 0 0.3271 0.652 0.0209 0 0 0 0 0 0 0 0 0 0.3224 0.6564 0.0212 0 0 0 0 0 0 0 0 0 0.324 0.676 0 0 0 0 0 0 0 0 0 0 1 0 0 0 0 0 0 0 0 0 0 1 0 0 0 0 0 0 0 0 0 0 1 0 0 0 0 0 0 0 0 0 0 1 0 0 0 0 0 0 0 0 0 0 1 0 0 0 0 0 0 0 0 0 0 1 0 0 0 0 0 0.1817 0.7351 0.0832 0 0 0 0 0 0 0 0 0 0.1829 0.7372 0.0799 0 0 0 0 0 0 0 0 0 0.1813 0.7373 0.0814 0 0 0 0 0 0 0 0 0 0.1847 0.7317 0.08359999999999999 0 0 0 0 0 0 0 0 0 0.1762 0.8238 0 0 0 0 0 0 0 0 0 0 1 0 0 0 0 0 0 0 0 0 0 1 0 0 0 0 0 0 0 0 0 0 1 0 0 0 0 0 0 0 0 0 0 1 0 0 0 0 0 0 0 0 0 0 1 0 0 0 0 0 0 0 0 0 0 1 0 0 0 0 0.0806 0.7348 0.1846 0 0 0 0 0 0 0 0 0 0.07829999999999999 0.7363 0.1854 0 0 0 0 0 0 0 0 0 0.08500000000000001 0.7324000000000001 0.1826 0 0 0 0 0 0 0 0 0 0.08450000000000001 0.7341 0.1814 0 0 0 0 0 0 0 0 0 0.08450000000000001 0.734 0.1815 0 0 0 0 0 0 0 0 0 0.08110000000000001 0.9189000000000001 0 0 0 0 0 0 0 0 0 0 1 0 0 0 0 0 0 0 0 0 0 1 0 0 0 0 0 0 0 0 0 0 1 0 0 0 0 0 0 0 0 0 0 1 0 0 0 0 0 0 0 0 0 0 1 0 0 0 0 0.0206 0.6559 0.3235 0 0 0 0 0 0 0 0 0 0.021 0.6586 0.3204 0 0 0 0 0 0 0 0 0 0.0216 0.6582 0.3202 0 0 0 0 0 0 0 0 0 0.022 0.6636 0.3144 0 0 0 0 0 0 0 0 0 0.023 0.6531 0.3239 0 0 0 0 0 0 0 0 0 0.0243 0.9757 0 0 0 0 0 0 0 0 0 0 1 0 0 0 0 0 0 0 0 0 0 1 0 0 0 0 0 0 0 0 0 0 1 0 0 0 0 0 0 0 0 0 0 1 0 0 0 0 0 0 0 0 0 0 1 0 0 0 0 0.0008 0.5069 0.4917 0.0005999999999999999 0 0 0 0 0 0 0 0 0.0008 0.4998 0.4982 0.0012 0 0 0 0 0 0 0 0 0.0011 0.4976 0.5004999999999999 0.0008 0 0 0 0 0 0 0 0 0.001 0.49 0.508 0.001 0 0 0 0 0 0 0 0 0.0004 0.4911 0.5085 0 0 0 0 0 0 0 0 0 0.0005 0.9995000000000001 0 0 0 0 0 0 0 0 0 0 1 0 0 0 0 0 0 0 0 0 0 1 0 0 0 0 0 0 0 0 0 0 1 0 0 0 0 0 0 0 0 0 0 1 0 0 0 0 0 0 0 0 0 0 1 0 0 0 0 0 0.3226 0.6548 0.0226 0 0 0 0 0 0 0 0 0 0.3195 0.6617 0.0188 0 0 0 0 0 0 0 0 0 0.3235 0.6545 0.022 0 0 0 0 0 0 0 0 0 0.3122 0.6644 0.0234 0 0 0 0 0 0 0 0 0 0.3234 0.6766 0 0 0 0 0 0 0 0 0 0 1 0 0 0 0 0 0 0 0 0 0 1 0 0 0 0 0 0 0 0 0 0 1 0 0 0 0 0 0 0 0 0 0 1 0 0 0 0 0 0 0 0 0 0 1 0 0 0 0 0 0 0 0 0 0 1 0 0 0 0 0 0.1829 0.735 0.08210000000000001 0 0 0 0 0 0 0 0 0 0.1828 0.7413 0.0759 0 0 0 0 0 0 0 0 0 0.1788 0.7397 0.0815 0 0 0 0 0 0 0 0 0 0.1837 0.7339 0.0824 0 0 0 0 0 0 0 0 0 0.186 0.8139999999999999 0 0 0 0 0 0 0 0 0 0 1 0 0 0 0 0 0 0 0 0 0 1 0 0 0 0 0 0 0 0 0 0 1 0 0 0 0 0 0 0 0 0 0 1 0 0 0 0 0 0 0 0 0 0 1 0 0 0 0 0 0 0 0 0 0 1 0 0 0 0 0 0.0819 0.7379 0.1802 0 0 0 0 0 0 0 0 0 0.0862 0.7329 0.1809 0 0 0 0 0 0 0 0 0 0.08019999999999999 0.7323 0.1875 0 0 0 0 0 0 0 0 0 0.0775 0.7378 0.1847 0 0 0 0 0 0 0 0 0 0.082 0.918 0 0 0 0 0 0 0 0 0 0 1 0 0 0 0 0 0 0 0 0 0 1 0 0 0 0 0 0 0 0 0 0 1 0 0 0 0 0 0 0 0 0 0 1 0 0 0 0 0 0 0 0 0 0 1 0 0 0 0 0 0 0 0 0 0 1 0 0 0 0 0 0.0208 0.6653 0.3139 0 0 0 0 0 0 0 0 0 0.0233 0.6555 0.3212 0 0 0 0 0 0 0 0 0 0.0209 0.6597 0.3194 0 0 0 0 0 0 0 0 0 0.0219 0.6597 0.3184 0 0 0 0 0 0 0 0 0 0.0211 0.9789 0 0 0 0 0 0 0 0 0 0 1 0 0 0 0 0 0 0 0 0 0 1 0 0 0 0 0 0 0 0 0 0 1 0 0 0 0 0 0 0 0 0 0 1 0 0 0 0 0 0 0 0 0 0 1 0 0 0 0 0 0 0 0 0 0 1 0 0 0 0 0 0.0011 0.4919 0.5065 0.0005 0 0 0 0 0 0 0 0 0.001 0.5058 0.492 0.0012 0 0 0 0 0 0 0 0 0.0005999999999999999 0.492 0.5067 0.0007 0 0 0 0 0 0 0 0 0.0013 0.4945 0.5042 0 0 0 0 0 0 0 0 0 0.0008 0.9992 0 0 0 0 0 0 0 0 0 0 1 0 0 0 0 0 0 0 0 0 0 1 0 0 0 0 0 0 0 0 0 0 1 0 0 0 0 0 0 0 0 0 0 1 0 0 0 0 0 0 0 0 0 0 1 0 0 0 0 0 0 0 0 0 0 1 0 0 0 0 0 0 0.3266 0.6553 0.0181 0 0 0 0 0 0 0 0 0 0.3317 0.6481 0.0202 0 0 0 0 0 0 0 0 0 0.3269 0.6506999999999999 0.0224 0 0 0 0 0 0 0 0 0 0.3181 0.6819 0 0 0 0 0 0 0 0 0 0 1 0 0 0 0 0 0 0 0 0 0 1 0 0 0 0 0 0 0 0 0 0 1 0 0 0 0 0 0 0 0 0 0 1 0 0 0 0 0 0 0 0 0 0 1 0 0 0 0 0 0 0 0 0 0 1 0 0 0 0 0 0 0 0 0 0 1 0 0 0 0 0 0 0.1817 0.7366 0.08169999999999999 0 0 0 0 0 0 0 0 0 0.1819 0.7387 0.0794 0 0 0 0 0 0 0 0 0 0.1876 0.73 0.0824 0 0 0 0 0 0 0 0 0 0.1824 0.8176 0 0 0 0 0 0 0 0 0 0 1 0 0 0 0 0 0 0 0 0 0 1 0 0 0 0 0 0 0 0 0 0 1 0 0 0 0 0 0 0 0 0 0 1 0 0 0 0 0 0 0 0 0 0 1 0 0 0 0 0 0 0 0 0 0 1 0 0 0 0 0 0 0 0 0 0 1 0 0 0 0 0 0.0752 0.7456 0.1792 0 0 0 0 0 0 0 0 0 0.0765 0.7342 0.1893 0 0 0 0 0 0 0 0 0 0.0799 0.737 0.1831 0 0 0 0 0 0 0 0 0 0.0798 0.7419 0.1783 0 0 0 0 0 0 0 0 0 0.08119999999999999 0.9188 0 0 0 0 0 0 0 0 0 0 1 0 0 0 0 0 0 0 0 0 0 1 0 0 0 0 0 0 0 0 0 0 1 0 0 0 0 0 0 0 0 0 0 1 0 0 0 0 0 0 0 0 0 0 1 0 0 0 0 0 0 0 0 0 0 1 0 0 0 0 0 0.021 0.6625 0.3165 0 0 0 0 0 0 0 0 0 0.0219 0.6613 0.3168 0 0 0 0 0 0 0 0 0 0.023 0.6553 0.3217 0 0 0 0 0 0 0 0 0 0.0208 0.66 0.3192 0 0 0 0 0 0 0 0 0 0.0237 0.9762999999999999 0 0 0 0 0 0 0 0 0 0 1 0 0 0 0 0 0 0 0 0 0 1 0 0 0 0 0 0 0 0 0 0 1 0 0 0 0 0 0 0 0 0 0 1 0 0 0 0 0 0 0 0 0 0 1 0 0 0 0 0 0 0 0 0 0 1 0 0 0 0 0 0.0005999999999999999 0.5054999999999999 0.4933 0.0005999999999999999 0 0 0 0 0 0 0 0 0.0003 0.4927 0.5062 0.0008 0 0 0 0 0 0 0 0 0.0008 0.4984 0.5002 0.0005999999999999999 0 0 0 0 0 0 0 0 0.0009 0.5075 0.4916 0 0 0 0 0 0 0 0 0 0.0007 0.9993 0 0 0 0 0 0 0 0 0 0 1 0 0 0 0 0 0 0 0 0 0 1 0 0 0 0 0 0 0 0 0 0 1 0 0 0 0 0 0 0 0 0 0 1 0 0 0 0 0 0 0 0 0 0 1 0 0 0 0 0 0 0 0 0 0 1 0 0 0 0 0 0 0.3273 0.6509 0.0218 0 0 0 0 0 0 0 0 0 0.321 0.6565 0.0225 0 0 0 0 0 0 0 0 0 0.3217 0.6556 0.0227 0 0 0 0 0 0 0 0 0 0.3227 0.6773 0 0 0 0 0 0 0 0 0 0 1 0 0 0 0 0 0 0 0 0 0 1 0 0 0 0 0 0 0 0 0 0 1 0 0 0 0 0 0 0 0 0 0 1 0 0 0 0 0 0 0 0 0 0 1 0 0 0 0 0 0 0 0 0 0 1 0 0 0 0 0 0 0 0 0 0 1 0 0 0 0 0 0 0.1889 0.7287 0.0824 0 0 0 0 0 0 0 0 0 0.1777 0.7377 0.08459999999999999 0 0 0 0 0 0 0 0 0 0.1786 0.7352 0.0862 0 0 0 0 0 0 0 0 0 0.1824 0.8176 0 0 0 0 0 0 0 0 0 0 1 0 0 0 0 0 0 0 0 0 0 1 0 0 0 0 0 0 0 0 0 0 1 0 0 0 0 0 0 0 0 0 0 1 0 0 0 0 0 0 0 0 0 0 1 0 0 0 0 0 0 0 0 0 0 1 0 0 0 0 0 0 0 0 0 0 1 0 0 0 0 0 0 0.0788 0.7406 0.1806 0 0 0 0 0 0 0 0 0 0.0829 0.7346 0.1825 0 0 0 0 0 0 0 0 0 0.08409999999999999 0.7337 0.1822 0 0 0 0 0 0 0 0 0 0.08359999999999999 0.9164 0 0 0 0 0 0 0 0 0 0 1 0 0 0 0 0 0 0 0 0 0 1 0 0 0 0 0 0 0 0 0 0 1 0 0 0 0 0 0 0 0 0 0 1 0 0 0 0 0 0 0 0 0 0 1 0 0 0 0 0 0 0 0 0 0 1 0 0 0 0 0 0 0 0 0 0 1 0 0 0 0 0 0 0.0226 0.6573 0.3201 0 0 0 0 0 0 0 0 0 0.024 0.6603 0.3157 0 0 0 0 0 0 0 0 0 0.0202 0.6579 0.3219 0 0 0 0 0 0 0 0 0 0.0219 0.9781 0 0 0 0 0 0 0 0 0 0 1 0 0 0 0 0 0 0 0 0 0 1 0 0 0 0 0 0 0 0 0 0 1 0 0 0 0 0 0 0 0 0 0 1 0 0 0 0 0 0 0 0 0 0 1 0 0 0 0 0 0 0 0 0 0 1 0 0 0 0 0 0 0 0 0 0 1 0 0 0 0 0 0 0.0009 0.5026 0.4962 0.0003 0 0 0 0 0 0 0 0 0.001 0.5023 0.4957 0.001 0 0 0 0 0 0 0 0 0.0009 0.4986 0.5004999999999999 0 0 0 0 0 0 0 0 0 0.001 0.999 0 0 0 0 0 0 0 0 0 0 1 0 0 0 0 0 0 0 0 0 0 1 0 0 0 0 0 0 0 0 0 0 1 0 0 0 0 0 0 0 0 0 0 1 0 0 0 0 0 0 0 0 0 0 1 0 0 0 0 0 0 0 0 0 0 1 0 0 0 0 0 0 0 0 0 0 1 0 0 0 0 0 0 0 0.3216 0.658 0.0204 0 0 0 0 0 0 0 0 0 0.3209 0.6556 0.0235 0 0 0 0 0 0 0 0 0 0.3176 0.6824 0 0 0 0 0 0 0 0 0 0 1 0 0 0 0 0 0 0 0 0 0 1 0 0 0 0 0 0 0 0 0 0 1 0 0 0 0 0 0 0 0 0 0 1 0 0 0 0 0 0 0 0 0 0 1 0 0 0 0 0 0 0 0 0 0 1 0 0 0 0 0 0 0 0 0 0 1 0 0 0 0 0 0 0 0 0 0 1 0 0 0 0 0 0 0 0.1781 0.7378 0.08409999999999999 0 0 0 0 0 0 0 0 0 0.1786 0.7357 0.0857 0 0 0 0 0 0 0 0 0 0.1792 0.8208 0 0 0 0 0 0 0 0 0 0 1 0 0 0 0 0 0 0 0 0 0 1 0 0 0 0 0 0 0 0 0 0 1 0 0 0 0 0 0 0 0 0 0 1 0 0 0 0 0 0 0 0 0 0 1 0 0 0 0 0 0 0 0 0 0 1 0 0 0 0 0 0 0 0 0 0 1 0 0 0 0 0 0 0 0 0 0 1 0 0 0 0 0 0 0.0824 0.733 0.1846 0 0 0 0 0 0 0 0 0 0.0877 0.7291 0.1832 0 0 0 0 0 0 0 0 0 0.0786 0.7315 0.1899 0 0 0 0 0 0 0 0 0 0.0795 0.9205 0 0 0 0 0 0 0 0 0 0 1 0 0 0 0 0 0 0 0 0 0 1 0 0 0 0 0 0 0 0 0 0 1 0 0 0 0 0 0 0 0 0 0 1 0 0 0 0 0 0 0 0 0 0 1 0 0 0 0 0 0 0 0 0 0 1 0 0 0 0 0 0 0 0 0 0 1 0 0 0 0 0 0 0.0229 0.6545 0.3226 0 0 0 0 0 0 0 0 0 0.0234 0.6582 0.3184 0 0 0 0 0 0 0 0 0 0.0205 0.658 0.3215 0 0 0 0 0 0 0 0 0 0.0235 0.9765 0 0 0 0 0 0 0 0 0 0 1 0 0 0 0 0 0 0 0 0 0 1 0 0 0 0 0 0 0 0 0 0 1 0 0 0 0 0 0 0 0 0 0 1 0 0 0 0 0 0 0 0 0 0 1 0 0 0 0 0 0 0 0 0 0 1 0 0 0 0 0 0 0 0 0 0 1 0 0 0 0 0 0 0.0008 0.5081 0.4904 0.0007 0 0 0 0 0 0 0 0 0.0011 0.5 0.4984 0.0005 0 0 0 0 0 0 0 0 0.001 0.5016 0.4974 0 0 0 0 0 0 0 0 0 0.0007 0.9993 0 0 0 0 0 0 0 0 0 0 1 0 0 0 0 0 0 0 0 0 0 1 0 0 0 0 0 0 0 0 0 0 1 0 0 0 0 0 0 0 0 0 0 1 0 0 0 0 0 0 0 0 0 0 1 0 0 0 0 0 0 0 0 0 0 1 0 0 0 0 0 0 0 0 0 0 1 0 0 0 0 0 0 0 0.3209 0.6577 0.0214 0 0 0 0 0 0 0 0 0 0.3172 0.6612 0.0216 0 0 0 0 0 0 0 0 0 0.32 0.68 0 0 0 0 0 0 0 0 0 0 1 0 0 0 0 0 0 0 0 0 0 1 0 0 0 0 0 0 0 0 0 0 1 0 0 0 0 0 0 0 0 0 0 1 0 0 0 0 0 0 0 0 0 0 1 0 0 0 0 0 0 0 0 0 0 1 0 0 0 0 0 0 0 0 0 0 1 0 0 0 0 0 0 0 0 0 0 1 0 0 0 0 0 0 0 0.1822 0.7307 0.0871 0 0 0 0 0 0 0 0 0 0.1814 0.7409 0.07770000000000001 0 0 0 0 0 0 0 0 0 0.182 0.8179999999999999 0 0 0 0 0 0 0 0 0 0 1 0 0 0 0 0 0 0 0 0 0 1 0 0 0 0 0 0 0 0 0 0 1 0 0 0 0 0 0 0 0 0 0 1 0 0 0 0 0 0 0 0 0 0 1 0 0 0 0 0 0 0 0 0 0 1 0 0 0 0 0 0 0 0 0 0 1 0 0 0 0 0 0 0 0 0 0 1 0 0 0 0 0 0 0 0.079 0.7311 0.1899 0 0 0 0 0 0 0 0 0 0.08450000000000001 0.7324000000000001 0.1831 0 0 0 0 0 0 0 0 0 0.0827 0.9173 0 0 0 0 0 0 0 0 0 0 1 0 0 0 0 0 0 0 0 0 0 1 0 0 0 0 0 0 0 0 0 0 1 0 0 0 0 0 0 0 0 0 0 1 0 0 0 0 0 0 0 0 0 0 1 0 0 0 0 0 0 0 0 0 0 1 0 0 0 0 0 0 0 0 0 0 1 0 0 0 0 0 0 0 0 0 0 1 0 0 0 0 0 0 0 0.0215 0.6546 0.3239 0 0 0 0 0 0 0 0 0 0.0214 0.6554 0.3232 0 0 0 0 0 0 0 0 0 0.0225 0.9775 0 0 0 0 0 0 0 0 0 0 1 0 0 0 0 0 0 0 0 0 0 1 0 0 0 0 0 0 0 0 0 0 1 0 0 0 0 0 0 0 0 0 0 1 0 0 0 0 0 0 0 0 0 0 1 0 0 0 0 0 0 0 0 0 0 1 0 0 0 0 0 0 0 0 0 0 1 0 0 0 0 0 0 0 0 0 0 1 0 0 0 0 0 0 0 0.0005 0.5004 0.4981 0.001 0 0 0 0 0 0 0 0 0.0009 0.5038 0.4953 0 0 0 0 0 0 0 0 0 0.0011 0.9989 0 0 0 0 0 0 0 0 0 0 1 0 0 0 0 0 0 0 0 0 0 1 0 0 0 0 0 0 0 0 0 0 1 0 0 0 0 0 0 0 0 0 0 1 0 0 0 0 0 0 0 0 0 0 1 0 0 0 0 0 0 0 0 0 0 1 0 0 0 0 0 0 0 0 0 0 1 0 0 0 0 0 0 0 0 0 0 1 0 0 0 0 0 0 0 0 0.324 0.6566 0.0194 0 0 0 0 0 0 0 0 0 0.3276 0.6724 0 0 0 0 0 0 0 0 0 0 1 0 0 0 0 0 0 0 0 0 0 1 0 0 0 0 0 0 0 0 0 0 1 0 0 0 0 0 0 0 0 0 0 1 0 0 0 0 0 0 0 0 0 0 1 0 0 0 0 0 0 0 0 0 0 1 0 0 0 0 0 0 0 0 0 0 1 0 0 0 0 0 0 0 0 0 0 1 0 0 0 0 0 0 0 0 0 0 1 0 0 0 0 0 0 0 0 0.1778 0.7377 0.08450000000000001 0 0 0 0 0 0 0 0 0 0.1838 0.8162 0 0 0 0 0 0 0 0 0 0 1 0 0 0 0 0 0 0 0 0 0 1 0 0 0 0 0 0 0 0 0 0 1 0 0 0 0 0 0 0 0 0 0 1 0 0 0 0 0 0 0 0 0 0 1 0 0 0 0 0 0 0 0 0 0 1 0 0 0 0 0 0 0 0 0 0 1 0 0 0 0 0 0 0 0 0 0 1 0 0 0 0 0 0 0 0 0 0 1 0 0 0 0 0 0 0 0.0838 0.7343 0.1819 0 0 0 0 0 0 0 0 0 0.0776 0.7408 0.1816 0 0 0 0 0 0 0 0 0 0.082 0.918 0 0 0 0 0 0 0 0 0 0 1 0 0 0 0 0 0 0 0 0 0 1 0 0 0 0 0 0 0 0 0 0 1 0 0 0 0 0 0 0 0 0 0 1 0 0 0 0 0 0 0 0 0 0 1 0 0 0 0 0 0 0 0 0 0 1 0 0 0 0 0 0 0 0 0 0 1 0 0 0 0 0 0 0 0 0 0 1 0 0 0 0 0 0 0 0.0208 0.6597 0.3195 0 0 0 0 0 0 0 0 0 0.0234 0.66 0.3166 0 0 0 0 0 0 0 0 0 0.0204 0.9796 0 0 0 0 0 0 0 0 0 0 1 0 0 0 0 0 0 0 0 0 0 1 0 0 0 0 0 0 0 0 0 0 1 0 0 0 0 0 0 0 0 0 0 1 0 0 0 0 0 0 0 0 0 0 1 0 0 0 0 0 0 0 0 0 0 1 0 0 0 0 0 0 0 0 0 0 1 0 0 0 0 0 0 0 0 0 0 1 0 0 0 0 0 0 0 0.0011 0.4972 0.5012 0.0005 0 0 0 0 0 0 0 0 0.0005 0.4939 0.5056 0 0 0 0 0 0 0 0 0 0.0011 0.9989 0 0 0 0 0 0 0 0 0 0 1 0 0 0 0 0 0 0 0 0 0 1 0 0 0 0 0 0 0 0 0 0 1 0 0 0 0 0 0 0 0 0 0 1 0 0 0 0 0 0 0 0 0 0 1 0 0 0 0 0 0 0 0 0 0 1 0 0 0 0 0 0 0 0 0 0 1 0 0 0 0 0 0 0 0 0 0 1 0 0 0 0 0 0 0 0 0.3237 0.6535 0.0228 0 0 0 0 0 0 0 0 0 0.3234 0.6766 0 0 0 0 0 0 0 0 0 0 1 0 0 0 0 0 0 0 0 0 0 1 0 0 0 0 0 0 0 0 0 0 1 0 0 0 0 0 0 0 0 0 0 1 0 0 0 0 0 0 0 0 0 0 1 0 0 0 0 0 0 0 0 0 0 1 0 0 0 0 0 0 0 0 0 0 1 0 0 0 0 0 0 0 0 0 0 1 0 0 0 0 0 0 0 0 0 0 1 0 0 0 0 0 0 0 0 0.1824 0.7423999999999999 0.0752 0 0 0 0 0 0 0 0 0 0.1818 0.8182 0 0 0 0 0 0 0 0 0 0 1 0 0 0 0 0 0 0 0 0 0 1 0 0 0 0 0 0 0 0 0 0 1 0 0 0 0 0 0 0 0 0 0 1 0 0 0 0 0 0 0 0 0 0 1 0 0 0 0 0 0 0 0 0 0 1 0 0 0 0 0 0 0 0 0 0 1 0 0 0 0 0 0 0 0 0 0 1 0 0 0 0 0 0 0 0 0 0 1 0 0 0 0 0 0 0 0 0.08110000000000001 0.7423 0.1766 0 0 0 0 0 0 0 0 0 0.0772 0.9228 0 0 0 0 0 0 0 0 0 0 1 0 0 0 0 0 0 0 0 0 0 1 0 0 0 0 0 0 0 0 0 0 1 0 0 0 0 0 0 0 0 0 0 1 0 0 0 0 0 0 0 0 0 0 1 0 0 0 0 0 0 0 0 0 0 1 0 0 0 0 0 0 0 0 0 0 1 0 0 0 0 0 0 0 0 0 0 1 0 0 0 0 0 0 0 0 0 0 1 0 0 0 0 0 0 0 0 0.0216 0.6606 0.3178 0 0 0 0 0 0 0 0 0 0.0202 0.9798 0 0 0 0 0 0 0 0 0 0 1 0 0 0 0 0 0 0 0 0 0 1 0 0 0 0 0 0 0 0 0 0 1 0 0 0 0 0 0 0 0 0 0 1 0 0 0 0 0 0 0 0 0 0 1 0 0 0 0 0 0 0 0 0 0 1 0 0 0 0 0 0 0 0 0 0 1 0 0 0 0 0 0 0 0 0 0 1 0 0 0 0 0 0 0 0 0 0 1 0 0 0 0 0 0 0 0 0.0005999999999999999 0.5043 0.4951 0 0 0 0 0 0 0 0 0 0.0013 0.9987 0 0 0 0 0 0 0 0 0 0 1 0 0 0 0 0 0 0 0 0 0 1 0 0 0 0 0 0 0 0 0 0 1 0 0 0 0 0 0 0 0 0 0 1 0 0 0 0 0 0 0 0 0 0 1 0 0 0 0 0 0 0 0 0 0 1 0 0 0 0 0 0 0 0 0 0 1 0 0 0 0 0 0 0 0 0 0 1 0 0 0 0 0 0 0 0 0 0 1 0 0 0 0 0 0 0 0 0 0.3226 0.6774 0 0 0 0 0 0 0 0 0 0 1 0 0 0 0 0 0 0 0 0 0 1 0 0 0 0 0 0 0 0 0 0 1 0 0 0 0 0 0 0 0 0 0 1 0 0 0 0 0 0 0 0 0 0 1 0 0 0 0 0 0 0 0 0 0 1 0 0 0 0 0 0 0 0 0 0 1 0 0 0 0 0 0 0 0 0 0 1 0 0 0 0 0 0 0 0 0 0 1 0 0 0 0 0 0 0 0 0 0 1 0 0 0 0 0 0 0 0 0 0.1798 0.8202 0 0 0 0 0 0 0 0 0 0 1 0 0 0 0 0 0 0 0 0 0 1 0 0 0 0 0 0 0 0 0 0 1 0 0 0 0 0 0 0 0 0 0 1 0 0 0 0 0 0 0 0 0 0 1 0 0 0 0 0 0 0 0 0 0 1 0 0 0 0 0 0 0 0 0 0 1 0 0 0 0 0 0 0 0 0 0 1 0 0 0 0 0 0 0 0 0 0 1 0 0 0 0 0 0 0 0 0 0 1 0 0 0 0 0 0 0 0 0.0806 0.747 0.1724 0 0 0 0 0 0 0 0 0 0.0848 0.9152 0 0 0 0 0 0 0 0 0 0 1 0 0 0 0 0 0 0 0 0 0 1 0 0 0 0 0 0 0 0 0 0 1 0 0 0 0 0 0 0 0 0 0 1 0 0 0 0 0 0 0 0 0 0 1 0 0 0 0 0 0 0 0 0 0 1 0 0 0 0 0 0 0 0 0 0 1 0 0 0 0 0 0 0 0 0 0 1 0 0 0 0 0 0 0 0 0 0 1 0 0 0 0 0 0 0 0 0.0211 0.6535 0.3254 0 0 0 0 0 0 0 0 0 0.0212 0.9788 0 0 0 0 0 0 0 0 0 0 1 0 0 0 0 0 0 0 0 0 0 1 0 0 0 0 0 0 0 0 0 0 1 0 0 0 0 0 0 0 0 0 0 1 0 0 0 0 0 0 0 0 0 0 1 0 0 0 0 0 0 0 0 0 0 1 0 0 0 0 0 0 0 0 0 0 1 0 0 0 0 0 0 0 0 0 0 1 0 0 0 0 0 0 0 0 0 0 1 0 0 0 0 0 0 0 0 0.0005999999999999999 0.5004999999999999 0.4989 0 0 0 0 0 0 0 0 0 0.001 0.999 0 0 0 0 0 0 0 0 0 0 1 0 0 0 0 0 0 0 0 0 0 1 0 0 0 0 0 0 0 0 0 0 1 0 0 0 0 0 0 0 0 0 0 1 0 0 0 0 0 0 0 0 0 0 1 0 0 0 0 0 0 0 0 0 0 1 0 0 0 0 0 0 0 0 0 0 1 0 0 0 0 0 0 0 0 0 0 1 0 0 0 0 0 0 0 0 0 0 1 0 0 0 0 0 0 0 0 0 0.3242 0.6758 0 0 0 0 0 0 0 0 0 0 1 0 0 0 0 0 0 0 0 0 0 1 0 0 0 0 0 0 0 0 0 0 1 0 0 0 0 0 0 0 0 0 0 1 0 0 0 0 0 0 0 0 0 0 1 0 0 0 0 0 0 0 0 0 0 1 0 0 0 0 0 0 0 0 0 0 1 0 0 0 0 0 0 0 0 0 0 1 0 0 0 0 0 0 0 0 0 0 1 0 0 0 0 0 0 0 0 0 0 1 0 0 0 0 0 0 0 0 0 0.182 0.8179999999999999 0 0 0 0 0 0 0 0 0 0 1 0 0 0 0 0 0 0 0 0 0 1 0 0 0 0 0 0 0 0 0 0 1 0 0 0 0 0 0 0 0 0 0 1 0 0 0 0 0 0 0 0 0 0 1 0 0 0 0 0 0 0 0 0 0 1 0 0 0 0 0 0 0 0 0 0 1 0 0 0 0 0 0 0 0 0 0 1 0 0 0 0 0 0 0 0 0 0 1 0 0 0 0 0 0 0 0 0 0 1 0 0 0 0 0 0 0 0 0 0.0793 0.9207 0 0 0 0 0 0 0 0 0 0 1 0 0 0 0 0 0 0 0 0 0 1 0 0 0 0 0 0 0 0 0 0 1 0 0 0 0 0 0 0 0 0 0 1 0 0 0 0 0 0 0 0 0 0 1 0 0 0 0 0 0 0 0 0 0 1 0 0 0 0 0 0 0 0 0 0 1 0 0 0 0 0 0 0 0 0 0 1 0 0 0 0 0 0 0 0 0 0 1 0 0 0 0 0 0 0 0 0 0 1 0 0 0 0 0 0 0 0 0 0.0225 0.9775 0 0 0 0 0 0 0 0 0 0 1 0 0 0 0 0 0 0 0 0 0 1 0 0 0 0 0 0 0 0 0 0 1 0 0 0 0 0 0 0 0 0 0 1 0 0 0 0 0 0 0 0 0 0 1 0 0 0 0 0 0 0 0 0 0 1 0 0 0 0 0 0 0 0 0 0 1 0 0 0 0 0 0 0 0 0 0 1 0 0 0 0 0 0 0 0 0 0 1 0 0 0 0 0 0 0 0 0 0 1 0 0 0 0 0 0 0 0 0 0.001 0.999 0 0 0 0 0 0 0 0 0 0 1 0 0 0 0 0 0 0 0 0 0 1 0 0 0 0 0 0 0 0 0 0 1 0 0 0 0 0 0 0 0 0 0 1 0 0 0 0 0 0 0 0 0 0 1 0 0 0 0 0 0 0 0 0 0 1 0 0 0 0 0 0 0 0 0 0 1 0 0 0 0 0 0 0 0 0 0 1 0 0 0 0 0 0 0 0 0 0 1 0 0 0 0 0 0 0 0 0 0 1 0 0 0 0 0 0 0 0 0 0 1 0 0 0 0 0 0 0 0 0 0 1 0 0 0 0 0 0 0 0 0 0 1 0 0 0 0 0 0 0 0 0 0 1 0 0 0 0 0 0 0 0 0 0 1 0 0 0 0 0 0 0 0 0 0 1 0 0 0 0 0 0 0 0 0 0 1 0 0 0 0 0 0 0 0 0 0 1 0 0 0 0 0 0 0 0 0 0 1 0 0 0 0 0 0 0 0 0 0 1 0 0 0 0 0 0 0 0 0 0 1 0 0 0 0 0 0 0 0 0 0 1 0 0 0 0 0 0 0 0 0 0 1 0 0 0 0 0 0 0 0 0 0 1 0 0 0 0 0 0 0 0 0 0 1 0 0 0 0 0 0 0 0 0 0 1 0 0 0 0 0 0 0 0 0 0 1 0 0 0 0 0 0 0 0 0 0 1 0 0 0 0 0 0 0 0 0 0 1 0 0 0 0 0 0 0 0 0 0 1 0 0 0 0 0 0 0 0 0 0 1 0 0 0 0 0 0 0 0 0 0 1</probabilities>
		</cpt>
		<cpt id="mean_motor">
			<state id="State0" />
			<state id="State1" />
			<state id="State2" />
			<state id="State3" />
			<state id="State4" />
			<state id="State5" />
			<state id="State6" />
			<state id="State7" />
			<state id="State8" />
			<state id="State9" />
			<state id="State10" />
			<intervals>0 0.1 0.2 0.3 0.4 0.5 0.6 0.7 0.8 0.9 1 1.1</intervals>
			<parents>motoruse_for_tether motoruse_for_other</parents>
