<?xml version="1.0" encoding="UTF-8"?>
<!-- This network was created in GeNIe Academic, which can be used for academic teaching and research purposes only -->
<smile version="1.0" id="Network2" numsamples="10000" discsamples="10000">
	<nodes>
		<cpt id="tether_tension_motor_use_scaling_factor_t_1">
			<state id="State0" />
			<state id="State1" />
			<state id="State2" />
			<state id="State3" />
			<state id="State4" />
			<state id="State5" />
			<state id="State6" />
			<state id="State7" />
			<state id="State8" />
			<state id="State9" />
			<intervals>0 0.2 0.4 0.6 0.8 1 1.2 1.4 1.6 1.8 2</intervals>
			<probabilities>0.0949 0.1021 0.1004 0.0993 0.0993 0.09959999999999999 0.1041 0.0985 0.1062 0.0956</probabilities>
		</cpt>
		<cpt id="tether_tension_motor_use_scaling_factor">
			<state id="State0" />
			<state id="State1" />
			<state id="State2" />
			<state id="State3" />
			<state id="State4" />
			<state id="State5" />
			<state id="State6" />
			<state id="State7" />
			<state id="State8" />
			<state id="State9" />
			<intervals>0 0.2 0.4 0.6 0.8 1 1.2 1.4 1.6 1.8 2</intervals>
			<parents>tether_tension_motor_use_scaling_factor_t_1</parents>
			<probabilities>0.1535433070866142 0.1498031496062992 0.1395669291338583 0.1271653543307087 0.1220472440944882 0.1025590551181102 0.07283464566929133 0.05807086614173228 0.04291338582677166 0.03149606299212598 0.1343596920923723 0.1445066480055983 0.1403079076277117 0.1270118964310707 0.1123163051084675 0.09989503149055283 0.08554933519944016 0.06403079076277117 0.05020993701889433 0.04181245626312106 0.1172314115946684 0.1252609603340292 0.1275092339810503 0.1326481451742412 0.1141801830737113 0.1067929982334993 0.09506985707403244 0.07788662277180022 0.05540388630158985 0.04801670146137787 0.09557251908396946 0.1145038167938931 0.1187786259541985 0.1270229007633588 0.1250381679389313 0.1022900763358779 0.1001526717557252 0.08473282442748091 0.07572519083969466 0.05618320610687023 0.08538927463436254 0.1031171517210814 0.1075491209927611 0.1161175949180086 0.1103560348648249 0.1164130595361206 0.1128674841187768 0.09602600088639385 0.08258236076229872 0.06958191756537155 0.06504424778761062 0.09218289085545722 0.1023598820058997 0.1051622418879056 0.1222713864306785 0.1206489675516224 0.1075221238938053 0.1063421828908555 0.09365781710914454 0.08480825958702065 0.06296964232040878 0.06943192064923355 0.08400961827472198 0.09948902915539524 0.109858731590021 0.1226330027051398 0.1217312894499549 0.1184250075142771 0.1112113014727983 0.1002404568680493 0.04549069508509623 0.06378240814378877 0.08255129632575155 0.097343725147129 0.09988865913790361 0.1137267377127406 0.1282010497852712 0.1307459837760458 0.1218387148083347 0.1164307300779386 0.03433552748621242 0.05781889343533179 0.07080590642234477 0.08059064223447786 0.1095890410958904 0.1159935954456502 0.1288027041451699 0.1316491727450632 0.1341398327699698 0.1362746842198897 0.02828882294757666 0.04352126607319486 0.05914935707220573 0.08249258160237388 0.09475766567754698 0.1072205736894164 0.1335311572700297 0.1450049455984174 0.1564787339268051 0.1495548961424332</probabilities>
		</cpt>
		<cpt id="height_over_ground">
			<state id="State0" />
			<state id="State1" />
			<state id="State2" />
			<state id="State3" />
			<state id="State4" />
			<state id="State5" />
			<state id="State6" />
			<state id="State7" />
			<state id="State8" />
			<state id="State9" />
			<intervals>0 0.1 0.2 0.3 0.4 0.5 0.6 0.7 0.8 0.9 1</intervals>
			<probabilities>0.0949 0.1021 0.1004 0.0993 0.0993 0.09959999999999999 0.1041 0.0985 0.1062 0.0956</probabilities>
		</cpt>
		<cpt id="drone_tilt">
			<state id="State0" />
			<state id="State1" />
			<state id="State2" />
			<state id="State3" />
			<state id="State4" />
			<state id="State5" />
			<state id="State6" />
			<state id="State7" />
			<state id="State8" />
			<state id="State9" />
			<intervals>0 0.1 0.2 0.3 0.4 0.5 0.6 0.7 0.8 0.9 1</intervals>
			<probabilities>0.0954 0.0994 0.1005 0.1015 0.0983 0.09959999999999999 0.1058 0.1014 0.1028 0.0953</probabilities>
		</cpt>
		<cpt id="motoruse_for_tether">
			<state id="State0" />
			<state id="State1" />
			<state id="State2" />
			<state id="State3" />
			<state id="State4" />
			<state id="State5" />
			<state id="State6" />
			<state id="State7" />
			<state id="State8" />
			<state id="State9" />
			<intervals>0 0.1 0.2 0.3 0.4 0.5 0.6 0.7 0.8 0.9 1</intervals>
			<parents>height_over_ground tether_tension_motor_use_scaling_factor drone_tilt</parents>
			<probabilities>1 0 0 0 0 0 0 0 0 0 1 0 0 0 0 0 0 0 0 0 1 0 0 0 0 0 0 0 0 0 0.999 0.001 0 0 0 0 0 0 0 0 0.9678 0.0322 0 0 0 0 0 0 0 0 0.8945 0.1055 0 0 0 0 0 0 0 0 0.8089 0.1911 0 0 0 0 0 0 0 0 0.7048 0.2952 0 0 0 0 0 0 0 0 0.6065 0.3925 0.001 0 0 0 0 0 0 0 0.5524 0.4287 0.0189 0 0 0 0 0 0 0 1 0 0 0 0 0 0 0 0 0 0.998 0.002 0 0 0 0 0 0 0 0 0.8656 0.1344 0 0 0 0 0 0 0 0 0.5044999999999999 0.4955 0 0 0 0 0 0 0 0 0.2104 0.7726 0.017 0 0 0 0 0 0 0 0.0638 0.7644 0.1718 0 0 0 0 0 0 0 0.008399999999999999 0.5766 0.4148 0.0002 0 0 0 0 0 0 0 0.3723 0.5785 0.0492 0 0 0 0 0 0 0 0.2118 0.5848 0.2034 0 0 0 0 0 0 0 0.097 0.5107 0.3836 0.008699999999999999 0 0 0 0 0 1 0 0 0 0 0 0 0 0 0 0.8649 0.1351 0 0 0 0 0 0 0 0 0.2592 0.74 0.0008 0 0 0 0 0 0 0 0.007 0.8077 0.1853 0 0 0 0 0 0 0 0 0.3084 0.6814 0.0102 0 0 0 0 0 0 0 0.0379 0.7235 0.2386 0 0 0 0 0 0 0 0 0.353 0.6071 0.0399 0 0 0 0 0 0 0 0.0833 0.6216 0.2947 0.0004 0 0 0 0 0 0 0.0041 0.3787 0.5381 0.0791 0 0 0 0 0 0 0 0.1398 0.5197000000000001 0.3362 0.0043 0 0 0 0.9987 0.0013 0 0 0 0 0 0 0 0 0.4999 0.5001 0 0 0 0 0 0 0 0 0.0074 0.8094 0.1832 0 0 0 0 0 0 0 0 0.1253 0.8278 0.0469 0 0 0 0 0 0 0 0 0.4108 0.5814 0.0078 0 0 0 0 0 0 0 0.0215 0.6548 0.3234 0.0003 0 0 0 0 0 0 0 0.1579 0.6833 0.1588 0 0 0 0 0 0 0 0.0019 0.3623 0.5679 0.0679 0 0 0 0 0 0 0 0.0533 0.507 0.4178 0.0219 0 0 0 0 0 0 0 0.1924 0.5301 0.2722 0.0053 0 0.9686 0.0314 0 0 0 0 0 0 0 0 0.2023 0.7813 0.0164 0 0 0 0 0 0 0 0 0.3058 0.6811 0.0131 0 0 0 0 0 0 0 0 0.412 0.5813 0.0067 0 0 0 0 0 0 0 0.0029 0.5075 0.4838 0.0058 0 0 0 0 0 0 0 0.0198 0.5735 0.4006 0.0061 0 0 0 0 0 0 0 0.0516 0.5981 0.3441 0.0062 0 0 0 0 0 0 0 0.1041 0.5911 0.3012 0.0036 0 0 0 0 0 0 0 0.1756 0.5557 0.2645 0.0042 0 0 0 0 0 0 0.0012 0.2473 0.5128 0.2387 0.8952 0.1048 0 0 0 0 0 0 0 0 0.0566 0.773 0.1704 0 0 0 0 0 0 0 0 0.0319 0.7198 0.2483 0 0 0 0 0 0 0 0 0.0226 0.6467000000000001 0.3307 0 0 0 0 0 0 0 0 0.0203 0.5674 0.4067 0.0056 0 0 0 0 0 0 0 0.0136 0.4925 0.4711 0.0228 0 0 0 0 0 0 0 0.0118 0.4272 0.5134 0.0476 0 0 0 0 0 0 0 0.008399999999999999 0.3673 0.5355 0.0888 0 0 0 0 0 0 0 0.0104 0.3318 0.6578000000000001 0 0 0 0 0 0 0 0 0.007900000000000001 0.9921 0.8070000000000001 0.193 0 0 0 0 0 0 0 0 0.0068 0.5735 0.4194 0.0003 0 0 0 0 0 0 0 0 0.3533 0.6105 0.0362 0 0 0 0 0 0 0 0 0.161 0.678 0.161 0 0 0 0 0 0 0 0 0.0515 0.5988 0.3445 0.0052 0 0 0 0 0 0 0 0.0135 0.4286 0.5078 0.0501 0 0 0 0 0 0 0 0.0005 0.2529 0.5865 0.1601 0 0 0 0 0 0 0 0 0.1355 0.8645 0 0 0 0 0 0 0 0 0 1 0 0 0 0 0 0 0 0 0 1 0.7066 0.2934 0 0 0 0 0 0 0 0 0 0.3709 0.579 0.0501 0 0 0 0 0 0 0 0 0.0825 0.6171 0.3001 0.0003 0 0 0 0 0 0 0 0.0028 0.3689 0.5629 0.0654 0 0 0 0 0 0 0 0 0.1002 0.5911999999999999 0.3048 0.0038 0 0 0 0 0 0 0 0.0101 0.3653 0.53 0.0946 0 0 0 0 0 0 0 0 0.1345 0.8655 0 0 0 0 0 0 0 0 0 1 0 0 0 0 0 0 0 0 0 1 0 0 0 0 0 0 0 0 0 1 0.6202 0.3789 0.0009 0 0 0 0 0 0 0 0 0.2089 0.5874 0.2037 0 0 0 0 0 0 0 0 0.0027 0.3682 0.5512 0.0779 0 0 0 0 0 0 0 0 0.0512 0.4996 0.4283 0.0209 0 0 0 0 0 0 0 0 0.1793 0.5616 0.2557 0.0034 0 0 0 0 0 0 0 0.0083 0.3316 0.6601 0 0 0 0 0 0 0 0 0 1 0 0 0 0 0 0 0 0 0 1 0 0 0 0 0 0 0 0 0 1 0 0 0 0 0 0 0 0 0 1 0.5511 0.4349 0.014 0 0 0 0 0 0 0 0 0.0956 0.504 0.3917 0.008699999999999999 0 0 0 0 0 0 0 0 0.1436 0.5163 0.3353 0.0048 0 0 0 0 0 0 0 0 0.1971 0.5154 0.2828 0.0047 0 0 0 0 0 0 0 0.0014 0.2355 0.5259 0.2372 0 0 0 0 0 0 0 0 0.0089 0.9911 0 0 0 0 0 0 0 0 0 1 0 0 0 0 0 0 0 0 0 1 0 0 0 0 0 0 0 0 0 1 0 0 0 0 0 0 0 0 0 1 0.9265 0.0735 0 0 0 0 0 0 0 0 0.7848000000000001 0.2152 0 0 0 0 0 0 0 0 0.6348 0.3652 0 0 0 0 0 0 0 0 0.5078 0.4922 0 0 0 0 0 0 0 0 0.3911 0.6089 0 0 0 0 0 0 0 0 0.31 0.6825 0.0075 0 0 0 0 0 0 0 0.2765 0.6728 0.0507 0 0 0 0 0 0 0 0.235 0.6464 0.1186 0 0 0 0 0 0 0 0.2103 0.5841 0.2056 0 0 0 0 0 0 0 0.1823 0.526 0.2917 0 0 0 0 0 0 0 0.787 0.213 0 0 0 0 0 0 0 0 0.3549 0.6451 0 0 0 0 0 0 0 0 0.0673 0.9258 0.0069 0 0 0 0 0 0 0 0.0023 0.8239 0.1738 0 0 0 0 0 0 0 0 0.4978 0.5022 0 0 0 0 0 0 0 0 0.238 0.7264 0.0356 0 0 0 0 0 0 0 0.09039999999999999 0.7064 0.2032 0 0 0 0 0 0 0 0.0214 0.5531 0.4223 0.0032 0 0 0 0 0 0 0.0009 0.3912 0.5335 0.07439999999999999 0 0 0 0 0 0 0 0.2345 0.5326 0.2329 0 0 0 0 0 0.6332 0.3668 0 0 0 0 0 0 0 0 0.0674 0.9242 0.008399999999999999 0 0 0 0 0 0 0 0 0.6346000000000001 0.3654 0 0 0 0 0 0 0 0 0.1134 0.8511 0.0355 0 0 0 0 0 0 0 0.0007 0.6032 0.3961 0 0 0 0 0 0 0 0 0.1764 0.7539 0.0697 0 0 0 0 0 0 0 0.0116 0.5645 0.422 0.0019 0 0 0 0 0 0 0 0.2348 0.6302 0.135 0 0 0 0 0 0 0 0.0451 0.518 0.4231 0.0138 0 0 0 0 0 0 0.0002 0.2913 0.5213 0.1872 0 0 0 0.5006 0.4994 0 0 0 0 0 0 0 0 0.0023 0.8282 0.1695 0 0 0 0 0 0 0 0 0.1097 0.856 0.0343 0 0 0 0 0 0 0 0 0.4009 0.5961 0.003 0 0 0 0 0 0 0 0.0132 0.673 0.3138 0 0 0 0 0 0 0 0 0.1244 0.7447 0.1309 0 0 0 0 0 0 0 0.0005 0.3524 0.5988 0.0483 0 0 0 0 0 0 0 0.0347 0.5373 0.4161 0.0119 0 0 0 0 0 0 0 0.1603 0.5689 0.2687 0.0021 0 0 0 0 0 0 0.0047 0.3439 0.5042 0.1472 0 0.383 0.617 0 0 0 0 0 0 0 0 0 0.4911 0.5089 0 0 0 0 0 0 0 0 0.0005 0.6073 0.3922 0 0 0 0 0 0 0 0 0.013 0.6829 0.3041 0 0 0 0 0 0 0 0 0.0456 0.7099 0.2445 0 0 0 0 0 0 0 0 0.09420000000000001 0.7027 0.2031 0 0 0 0 0 0 0 0 0.1736 0.6556999999999999 0.1707 0 0 0 0 0 0 0 0.0002 0.2559 0.5962 0.1477 0 0 0 0 0 0 0 0.0056 0.3241 0.538 0.1323 0 0 0 0 0 0 0 0.021 0.3856 0.5934 0.3279 0.6631 0.008999999999999999 0 0 0 0 0 0 0 0 0.2423 0.7247 0.033 0 0 0 0 0 0 0 0 0.1757 0.7534 0.0709 0 0 0 0 0 0 0 0 0.1309 0.7392 0.1299 0 0 0 0 0 0 0 0 0.0992 0.7014 0.1994 0 0 0 0 0 0 0 0 0.0765 0.6562 0.2661 0.0012 0 0 0 0 0 0 0 0.0673 0.5807 0.3431 0.0089 0 0 0 0 0 0 0 0.0571 0.5129 0.43 0 0 0 0 0 0 0 0 0.0531 0.9469 0 0 0 0 0 0 0 0 0 1 0.2682 0.6818 0.05 0 0 0 0 0 0 0 0 0.0911 0.7081 0.2008 0 0 0 0 0 0 0 0 0.0142 0.5754 0.4083 0.0021 0 0 0 0 0 0 0 0.0003 0.3606 0.5901999999999999 0.0489 0 0 0 0 0 0 0 0 0.1711 0.6528 0.1761 0 0 0 0 0 0 0 0 0.063 0.58 0.3477 0.009299999999999999 0 0 0 0 0 0 0 0.0218 0.4222 0.556 0 0 0 0 0 0 0 0 0.004 0.996 0 0 0 0 0 0 0 0 0 1 0 0 0 0 0 0 0 0 0 1 0.2364 0.6424 0.1212 0 0 0 0 0 0 0 0 0.0202 0.5497 0.4274 0.0027 0 0 0 0 0 0 0 0 0.2314 0.6404 0.1282 0 0 0 0 0 0 0 0 0.037 0.5413 0.4091 0.0126 0 0 0 0 0 0 0 0.0002 0.2483 0.598 0.1535 0 0 0 0 0 0 0 0 0.0555 0.5167 0.4278 0 0 0 0 0 0 0 0 0.0035 0.9965000000000001 0 0 0 0 0 0 0 0 0 1 0 0 0 0 0 0 0 0 0 1 0 0 0 0 0 0 0 0 0 1 0.2081 0.5851 0.2068 0 0 0 0 0 0 0 0 0.0008 0.3879 0.5423 0.06900000000000001 0 0 0 0 0 0 0 0 0.0463 0.5208 0.4189 0.014 0 0 0 0 0 0 0 0 0.1598 0.5717 0.267 0.0015 0 0 0 0 0 0 0 0.0043 0.3306 0.5358000000000001 0.1293 0 0 0 0 0 0 0 0 0.0483 0.9517 0 0 0 0 0 0 0 0 0 1 0 0 0 0 0 0 0 0 0 1 0 0 0 0 0 0 0 0 0 1 0 0 0 0 0 0 0 0 0 1 0.1841 0.5337 0.2822 0 0 0 0 0 0 0 0 0 0.2297 0.5261 0.2442 0 0 0 0 0 0 0 0 0.0002 0.2843 0.5279 0.1876 0 0 0 0 0 0 0 0 0.0049 0.3364 0.5129 0.1458 0 0 0 0 0 0 0 0 0.022 0.3743 0.6037 0 0 0 0 0 0 0 0 0 1 0 0 0 0 0 0 0 0 0 1 0 0 0 0 0 0 0 0 0 1 0 0 0 0 0 0 0 0 0 1 0 0 0 0 0 0 0 0 0 1 0 1 0 0 0 0 0 0 0 0 0 0.9961 0.0039 0 0 0 0 0 0 0 0 0.9396 0.0604 0 0 0 0 0 0 0 0 0.8431 0.1569 0 0 0 0 0 0 0 0 0.7022 0.2978 0 0 0 0 0 0 0 0 0.595 0.405 0 0 0 0 0 0 0 0 0.496 0.503 0.001 0 0 0 0 0 0 0 0.4339 0.5449000000000001 0.0212 0 0 0 0 0 0 0 0.3766 0.5543 0.06909999999999999 0 0 0 0 0 0 0 0.3442 0.5203 0.1355 0 0 0 0 0 0 0 0.997 0.003 0 0 0 0 0 0 0 0 0.7762 0.2238 0 0 0 0 0 0 0 0 0.3656 0.6344 0 0 0 0 0 0 0 0 0.101 0.8794 0.0196 0 0 0 0 0 0 0 0.0139 0.7894 0.1967 0 0 0 0 0 0 0 0 0.5021 0.4975 0.0004 0 0 0 0 0 0 0 0.2713 0.6766 0.0521 0 0 0 0 0 0 0 0.1169 0.6512 0.2319 0 0 0 0 0 0 0 0.0418 0.5183 0.4291 0.0108 0 0 0 0 0 0 0.0058 0.3873 0.5074 0.09950000000000001 0 0 0 0 0 0.9407 0.0593 0 0 0 0 0 0 0 0 0.3643 0.6357 0 0 0 0 0 0 0 0 0.01 0.8998 0.0902 0 0 0 0 0 0 0 0 0.3868 0.6127 0.0005 0 0 0 0 0 0 0 0.0436 0.8107 0.1457 0 0 0 0 0 0 0 0 0.4157 0.5760999999999999 0.008200000000000001 0 0 0 0 0 0 0 0.0987 0.6957 0.2056 0 0 0 0 0 0 0 0.0038 0.4451 0.5175999999999999 0.0335 0 0 0 0 0 0 0 0.1533 0.5816 0.2651 0 0 0 0 0 0 0 0.0218 0.434 0.4753 0.0689 0 0 0 0.8328 0.1672 0 0 0 0 0 0 0 0 0.09569999999999999 0.8819 0.0224 0 0 0 0 0 0 0 0 0.3876 0.6113 0.0011 0 0 0 0 0 0 0 0.0051 0.705 0.2899 0 0 0 0 0 0 0 0 0.0988 0.7968 0.1044 0 0 0 0 0 0 0 0 0.3359 0.6328 0.0313 0 0 0 0 0 0 0 0.0184 0.5566 0.4195 0.0055 0 0 0 0 0 0 0 0.1324 0.6251 0.2423 0.0002 0 0 0 0 0 0 0.0026 0.3238 0.5477 0.1259 0 0 0 0 0 0 0 0.0438 0.4569 0.4447 0.0546 0 0.7186 0.2814 0 0 0 0 0 0 0 0 0.0106 0.7862 0.2032 0 0 0 0 0 0 0 0 0.0419 0.8080000000000001 0.1501 0 0 0 0 0 0 0 0 0.0968 0.7952 0.108 0 0 0 0 0 0 0 0 0.1786 0.7359 0.08550000000000001 0 0 0 0 0 0 0 0 0.2703 0.6586 0.0711 0 0 0 0 0 0 0 0.0017 0.355 0.583 0.0603 0 0 0 0 0 0 0 0.014 0.4288 0.506 0.0512 0 0 0 0 0 0 0 0.0364 0.4639 0.4997 0 0 0 0 0 0 0 0 0.0864 0.9136 0 0.5962 0.4038 0 0 0 0 0 0 0 0 0 0.5006 0.4988 0.0005999999999999999 0 0 0 0 0 0 0 0 0.4156 0.5748 0.009599999999999999 0 0 0 0 0 0 0 0 0.3399 0.6304 0.0297 0 0 0 0 0 0 0 0 0.2665 0.665 0.06850000000000001 0 0 0 0 0 0 0 0 0.2206 0.6541 0.1253 0 0 0 0 0 0 0 0 0.1816 0.6325 0.1859 0 0 0 0 0 0 0 0 0.1577 0.8423 0 0 0 0 0 0 0 0 0 1 0 0 0 0 0 0 0 0 0 1 0 0.504 0.4947 0.0013 0 0 0 0 0 0 0 0 0.2729 0.673 0.0541 0 0 0 0 0 0 0 0 0.0955 0.6913 0.2132 0 0 0 0 0 0 0 0 0.0191 0.5638 0.4125 0.0046 0 0 0 0 0 0 0 0.0021 0.3633 0.5745 0.0601 0 0 0 0 0 0 0 0 0.1838 0.6331 0.1831 0 0 0 0 0 0 0 0 0.0814 0.9186 0 0 0 0 0 0 0 0 0 1 0 0 0 0 0 0 0 0 0 1 0 0 0 0 0 0 0 0 0 1 0 0.4311 0.5496 0.0193 0 0 0 0 0 0 0 0 0.1221 0.6382 0.2397 0 0 0 0 0 0 0 0 0.0034 0.4336 0.5294 0.0336 0 0 0 0 0 0 0 0 0.1411 0.6176 0.241 0.0003 0 0 0 0 0 0 0 0.0152 0.4379 0.4919 0.055 0 0 0 0 0 0 0 0 0.1588 0.8411999999999999 0 0 0 0 0 0 0 0 0 1 0 0 0 0 0 0 0 0 0 1 0 0 0 0 0 0 0 0 0 1 0 0 0 0 0 0 0 0 0 1 0 0.3871 0.5462 0.0667 0 0 0 0 0 0 0 0 0.0406 0.521 0.4297 0.008699999999999999 0 0 0 0 0 0 0 0 0.1552 0.5799 0.2647 0.0002 0 0 0 0 0 0 0 0.0018 0.3323 0.5463 0.1196 0 0 0 0 0 0 0 0 0.04 0.4677 0.4923 0 0 0 0 0 0 0 0 0 1 0 0 0 0 0 0 0 0 0 1 0 0 0 0 0 0 0 0 0 1 0 0 0 0 0 0 0 0 0 1 0 0 0 0 0 0 0 0 0 1 0 0.3433 0.5241 0.1326 0 0 0 0 0 0 0 0 0.0054 0.3894 0.5083 0.0969 0 0 0 0 0 0 0 0 0.0212 0.4246 0.4821 0.0721 0 0 0 0 0 0 0 0 0.0435 0.4577 0.4479 0.0509 0 0 0 0 0 0 0 0 0.0838 0.9162 0 0 0 0 0 0 0 0 0 1 0 0 0 0 0 0 0 0 0 1 0 0 0 0 0 0 0 0 0 1 0 0 0 0 0 0 0 0 0 1 0 0 0 0 0 0 0 0 0 1 0 0.3547 0.6453 0 0 0 0 0 0 0 0 0.2115 0.7885 0 0 0 0 0 0 0 0 0.1307 0.8693 0 0 0 0 0 0 0 0 0.0911 0.8942 0.0147 0 0 0 0 0 0 0 0.0696 0.8552999999999999 0.0751 0 0 0 0 0 0 0 0.0582 0.778 0.1638 0 0 0 0 0 0 0 0.0473 0.6826 0.2701 0 0 0 0 0 0 0 0.0418 0.6008 0.3574 0 0 0 0 0 0 0 0.0357 0.5173 0.4406 0.0064 0 0 0 0 0 0 0.0332 0.4712 0.4619 0.0337 0 0 0 0 0 0 0.2232 0.7768 0 0 0 0 0 0 0 0 0.0047 0.9842 0.0111 0 0 0 0 0 0 0 0 0.7576000000000001 0.2424 0 0 0 0 0 0 0 0 0.3657 0.6343 0 0 0 0 0 0 0 0 0.1375 0.821 0.0415 0 0 0 0 0 0 0 0.0293 0.7419 0.2288 0 0 0 0 0 0 0 0.0005999999999999999 0.5006 0.4954 0.0034 0 0 0 0 0 0 0 0.2975 0.624 0.0785 0 0 0 0 0 0 0 0.1574 0.5810999999999999 0.2615 0 0 0 0 0 0 0 0.0629 0.4835 0.4344 0.0192 0 0 0 0 0.1313 0.8687 0 0 0 0 0 0 0 0 0 0.7633 0.2367 0 0 0 0 0 0 0 0 0.1605 0.8358 0.0037 0 0 0 0 0 0 0 0.0019 0.7235 0.2746 0 0 0 0 0 0 0 0 0.216 0.7576000000000001 0.0264 0 0 0 0 0 0 0 0.0174 0.6573 0.3253 0 0 0 0 0 0 0 0 0.285 0.654 0.061 0 0 0 0 0 0 0 0.0501 0.5838 0.3642 0.0019 0 0 0 0 0 0 0.0002 0.3353 0.5467 0.1178 0 0 0 0 0 0 0 0.1002 0.5021 0.3841 0.0136 0 0 0.0945 0.8955 0.01 0 0 0 0 0 0 0 0 0.3757 0.6243 0 0 0 0 0 0 0 0 0.0011 0.7316 0.2673 0 0 0 0 0 0 0 0 0.0805 0.8323 0.0872 0 0 0 0 0 0 0 0 0.3207 0.6624 0.0169 0 0 0 0 0 0 0 0.009900000000000001 0.5833 0.4055 0.0013 0 0 0 0 0 0 0 0.1034 0.6808 0.2158 0 0 0 0 0 0 0 0.0005999999999999999 0.3111 0.5889 0.0994 0 0 0 0 0 0 0 0.0303 0.4758 0.4575 0.0364 0 0 0 0 0 0 0 0.1505 0.5098 0.3397 0 0.075 0.8512 0.0738 0 0 0 0 0 0 0 0 0.1356 0.8272 0.0372 0 0 0 0 0 0 0 0 0.2152 0.7572 0.0276 0 0 0 0 0 0 0 0 0.3168 0.6633 0.0199 0 0 0 0 0 0 0 0.0002 0.4176 0.5674 0.0148 0 0 0 0 0 0 0 0.0067 0.4994 0.4817 0.0122 0 0 0 0 0 0 0 0.0304 0.5436 0.4156 0.0104 0 0 0 0 0 0 0 0.06950000000000001 0.5674 0.3631 0 0 0 0 0 0 0 0 0.1262 0.8738 0 0 0 0 0 0 0 0 0 1 0 0.0612 0.7799 0.1589 0 0 0 0 0 0 0 0 0.0282 0.737 0.2348 0 0 0 0 0 0 0 0 0.0161 0.6614 0.3225 0 0 0 0 0 0 0 0 0.0102 0.5769 0.4109 0.002 0 0 0 0 0 0 0 0.0077 0.4919 0.4871 0.0133 0 0 0 0 0 0 0 0.005 0.4283 0.5291 0.0376 0 0 0 0 0 0 0 0.0046 0.367 0.6284 0 0 0 0 0 0 0 0 0.0034 0.9966 0 0 0 0 0 0 0 0 0 1 0 0 0 0 0 0 0 0 0 1 0 0.0468 0.6842 0.269 0 0 0 0 0 0 0 0 0.0014 0.5042 0.4908 0.0036 0 0 0 0 0 0 0 0 0.2816 0.6579 0.0605 0 0 0 0 0 0 0 0 0.1042 0.681 0.2148 0 0 0 0 0 0 0 0 0.0352 0.5525 0.4028 0.0095 0 0 0 0 0 0 0 0.0039 0.3638 0.6323 0 0 0 0 0 0 0 0 0.0003 0.9997 0 0 0 0 0 0 0 0 0 1 0 0 0 0 0 0 0 0 0 1 0 0 0 0 0 0 0 0 0 1 0 0.044 0.5933 0.3627 0 0 0 0 0 0 0 0 0 0.304 0.6152 0.0808 0 0 0 0 0 0 0 0 0.0552 0.5846 0.3583 0.0019 0 0 0 0 0 0 0 0.0003 0.3104 0.5901999999999999 0.09909999999999999 0 0 0 0 0 0 0 0 0.0669 0.5666 0.3665 0 0 0 0 0 0 0 0 0.0046 0.9954 0 0 0 0 0 0 0 0 0 1 0 0 0 0 0 0 0 0 0 1 0 0 0 0 0 0 0 0 0 1 0 0 0 0 0 0 0 0 0 1 0 0.0391 0.5157 0.4393 0.0059 0 0 0 0 0 0 0 0 0.1515 0.5821 0.2664 0 0 0 0 0 0 0 0 0.0002 0.332 0.5570000000000001 0.1108 0 0 0 0 0 0 0 0 0.027 0.4753 0.46 0.0377 0 0 0 0 0 0 0 0 0.1251 0.8749 0 0 0 0 0 0 0 0 0 1 0 0 0 0 0 0 0 0 0 1 0 0 0 0 0 0 0 0 0 1 0 0 0 0 0 0 0 0 0 1 0 0 0 0 0 0 0 0 0 1 0 0.0331 0.4624 0.4696 0.0349 0 0 0 0 0 0 0 0 0.0586 0.4899 0.4296 0.0219 0 0 0 0 0 0 0 0 0.1029 0.5026 0.384 0.0105 0 0 0 0 0 0 0 0 0.1532 0.5161 0.3307 0 0 0 0 0 0 0 0 0.0002 0.9998 0 0 0 0 0 0 0 0 0 1 0 0 0 0 0 0 0 0 0 1 0 0 0 0 0 0 0 0 0 1 0 0 0 0 0 0 0 0 0 1 0 0 0 0 0 0 0 0 0 1 0 0 0.7832 0.2168 0 0 0 0 0 0 0 0 0.6429 0.3571 0 0 0 0 0 0 0 0 0.4949 0.5051 0 0 0 0 0 0 0 0 0.3762 0.6238 0 0 0 0 0 0 0 0 0.2839 0.7148 0.0013 0 0 0 0 0 0 0 0.2361 0.7359 0.028 0 0 0 0 0 0 0 0.1944 0.7133 0.09229999999999999 0 0 0 0 0 0 0 0.1732 0.6571 0.1697 0 0 0 0 0 0 0 0.1474 0.5828 0.2698 0 0 0 0 0 0 0 0.1355 0.5304 0.334 0.0001 0 0 0 0 0 0 0.6469 0.3531 0 0 0 0 0 0 0 0 0.2265 0.7735 0 0 0 0 0 0 0 0 0.0207 0.9503 0.029 0 0 0 0 0 0 0 0 0.7427 0.2573 0 0 0 0 0 0 0 0 0.3951 0.6046 0.0003 0 0 0 0 0 0 0 0.1703 0.7622 0.0675 0 0 0 0 0 0 0 0.0533 0.6744 0.2723 0 0 0 0 0 0 0 0.0075 0.5044999999999999 0.4769 0.0111 0 0 0 0 0 0 0 0.3231 0.5678 0.1091 0 0 0 0 0 0 0 0.1863 0.5241 0.2891 0.0005 0 0 0 0 0.5014999999999999 0.4985 0 0 0 0 0 0 0 0 0.0207 0.9479 0.0314 0 0 0 0 0 0 0 0 0.5085 0.4915 0 0 0 0 0 0 0 0 0.0611 0.8753 0.0636 0 0 0 0 0 0 0 0 0.5135 0.4856 0.0009 0 0 0 0 0 0 0 0.1195 0.7617 0.1188 0 0 0 0 0 0 0 0.0045 0.4909 0.4961 0.008500000000000001 0 0 0 0 0 0 0 0.1808 0.6395999999999999 0.1796 0 0 0 0 0 0 0 0.0233 0.4799 0.468 0.0288 0 0 0 0 0 0 0 0.2473 0.5161 0.2364 0.0002 0 0 0.3681 0.6319 0 0 0 0 0 0 0 0 0 0.7353 0.2647 0 0 0 0 0 0 0 0 0.0575 0.8831 0.0594 0 0 0 0 0 0 0 0 0.2977 0.6919 0.0104 0 0 0 0 0 0 0 0.005 0.5975 0.3973 0.0002 0 0 0 0 0 0 0 0.0808 0.7309 0.1883 0 0 0 0 0 0 0 0 0.2879 0.6363 0.07580000000000001 0 0 0 0 0 0 0 0.0161 0.4899 0.4705 0.0235 0 0 0 0 0 0 0 0.1204 0.5583 0.3213 0 0 0 0 0 0 0 0.0021 0.2922 0.7057 0 0 0.2828 0.7157 0.0015 0 0 0 0 0 0 0 0 0.4025 0.5971 0.0004 0 0 0 0 0 0 0 0 0.5122 0.4873 0.0005 0 0 0 0 0 0 0 0.0039 0.6065 0.3894 0.0002 0 0 0 0 0 0 0 0.0229 0.6552 0.3214 0.0005 0 0 0 0 0 0 0 0.062 0.677 0.261 0 0 0 0 0 0 0 0 0.1197 0.6514 0.2289 0 0 0 0 0 0 0 0 0.193 0.8070000000000001 0 0 0 0 0 0 0 0 0.0009 0.9991 0 0 0 0 0 0 0 0 0 1 0 0 0.2294 0.7433999999999999 0.0272 0 0 0 0 0 0 0 0 0.1645 0.7719 0.0636 0 0 0 0 0 0 0 0 0.1116 0.7685 0.1199 0 0 0 0 0 0 0 0 0.0859 0.7262 0.1879 0 0 0 0 0 0 0 0 0.0616 0.6717 0.2663 0.0004 0 0 0 0 0 0 0 0.0507 0.6048 0.3445 0 0 0 0 0 0 0 0 0.0429 0.9571 0 0 0 0 0 0 0 0 0 1 0 0 0 0 0 0 0 0 0 1 0 0 0 0 0 0 0 0 0 1 0 0 0.199 0.7135 0.08749999999999999 0 0 0 0 0 0 0 0 0.0546 0.6741 0.2713 0 0 0 0 0 0 0 0 0.004 0.5037 0.4849 0.0074 0 0 0 0 0 0 0 0 0.2938 0.6299 0.07630000000000001 0 0 0 0 0 0 0 0 0.1163 0.658 0.2257 0 0 0 0 0 0 0 0 0.0398 0.9602000000000001 0 0 0 0 0 0 0 0 0 1 0 0 0 0 0 0 0 0 0 1 0 0 0 0 0 0 0 0 0 1 0 0 0 0 0 0 0 0 0 1 0 0 0.1717 0.6573 0.171 0 0 0 0 0 0 0 0 0.0072 0.491 0.4907 0.0111 0 0 0 0 0 0 0 0 0.1832 0.6375999999999999 0.1792 0 0 0 0 0 0 0 0 0.0155 0.4945 0.4668 0.0232 0 0 0 0 0 0 0 0 0.2007 0.7993 0 0 0 0 0 0 0 0 0 1 0 0 0 0 0 0 0 0 0 1 0 0 0 0 0 0 0 0 0 1 0 0 0 0 0 0 0 0 0 1 0 0 0 0 0 0 0 0 0 1 0 0 0.1497 0.593 0.2573 0 0 0 0 0 0 0 0 0 0.326 0.5665 0.1075 0 0 0 0 0 0 0 0 0.0242 0.482 0.4682 0.0256 0 0 0 0 0 0 0 0 0.1227 0.555 0.3223 0 0 0 0 0 0 0 0 0.0013 0.9987 0 0 0 0 0 0 0 0 0 1 0 0 0 0 0 0 0 0 0 1 0 0 0 0 0 0 0 0 0 1 0 0 0 0 0 0 0 0 0 1 0 0 0 0 0 0 0 0 0 1 0 0 0.1343 0.5207000000000001 0.3446 0.0004 0 0 0 0 0 0 0 0 0.1899 0.5261 0.2838 0.0002 0 0 0 0 0 0 0 0 0.2387 0.5215 0.2398 0 0 0 0 0 0 0 0 0.0023 0.2881 0.7096 0 0 0 0 0 0 0 0 0 1 0 0 0 0 0 0 0 0 0 1 0 0 0 0 0 0 0 0 0 1 0 0 0 0 0 0 0 0 0 1 0 0 0 0 0 0 0 0 0 1 0 0 0 0 0 0 0 0 0 1 0 0 0 1 0 0 0 0 0 0 0 0 0 0.9727 0.0273 0 0 0 0 0 0 0 0 0.8719 0.1281 0 0 0 0 0 0 0 0 0.7478 0.2522 0 0 0 0 0 0 0 0 0.615 0.385 0 0 0 0 0 0 0 0 0.4983 0.5017 0 0 0 0 0 0 0 0 0.4111 0.582 0.0069 0 0 0 0 0 0 0 0.3673 0.5863 0.0464 0 0 0 0 0 0 0 0.3181 0.5743 0.1076 0 0 0 0 0 0 0 0.2966 0.5238 0.1796 0 0 0 0 0 0 0 0.9739 0.0261 0 0 0 0 0 0 0 0 0.6449 0.3551 0 0 0 0 0 0 0 0 0.2425 0.7575 0 0 0 0 0 0 0 0 0.0437 0.9036 0.0527 0 0 0 0 0 0 0 0.0008 0.7052 0.294 0 0 0 0 0 0 0 0 0.4244 0.5709 0.0047 0 0 0 0 0 0 0 0.1951 0.7112000000000001 0.09370000000000001 0 0 0 0 0 0 0 0.08210000000000001 0.6239 0.294 0 0 0 0 0 0 0 0.0178 0.4788 0.4785 0.0249 0 0 0 0 0 0 0.0005999999999999999 0.3392 0.517 0.1432 0 0 0 0 0 0.8764999999999999 0.1235 0 0 0 0 0 0 0 0 0.2449 0.7551 0 0 0 0 0 0 0 0 0.0009 0.8433 0.1558 0 0 0 0 0 0 0 0 0.269 0.7272999999999999 0.0037 0 0 0 0 0 0 0 0.0202 0.7577 0.2221 0 0 0 0 0 0 0 0 0.3318 0.6464 0.0218 0 0 0 0 0 0 0 0.0589 0.6701 0.271 0 0 0 0 0 0 0 0.0003 0.3697 0.5731000000000001 0.0569 0 0 0 0 0 0 0 0.1131 0.5678 0.3172 0.0019 0 0 0 0 0 0 0.0081 0.3855 0.5021 0.1043 0 0 0 0.7497 0.2503 0 0 0 0 0 0 0 0 0.0449 0.9059 0.0492 0 0 0 0 0 0 0 0 0.2794 0.7168 0.0038 0 0 0 0 0 0 0 0.0005999999999999999 0.6259 0.3735 0 0 0 0 0 0 0 0 0.0606 0.778 0.1614 0 0 0 0 0 0 0 0 0.2515 0.6914 0.0571 0 0 0 0 0 0 0 0.01 0.4973 0.4792 0.0135 0 0 0 0 0 0 0 0.089 0.6106 0.3004 0 0 0 0 0 0 0 0.0004 0.2665 0.7331 0 0 0 0 0 0 0 0 0.0272 0.9728 0 0 0 0.6132 0.3868 0 0 0 0 0 0 0 0 0.0016 0.7076 0.2908 0 0 0 0 0 0 0 0 0.0194 0.7657 0.2149 0 0 0 0 0 0 0 0 0.0568 0.7773 0.1659 0 0 0 0 0 0 0 0 0.1219 0.7504999999999999 0.1276 0 0 0 0 0 0 0 0 0.2064 0.6847 0.1089 0 0 0 0 0 0 0 0.0001 0.2845 0.7154 0 0 0 0 0 0 0 0 0.0046 0.9954 0 0 0 0 0 0 0 0 0 1 0 0 0 0 0 0 0 0 0 1 0 0 0 0.5044 0.4956 0 0 0 0 0 0 0 0 0 0.4128 0.5826 0.0046 0 0 0 0 0 0 0 0 0.3156 0.6641 0.0203 0 0 0 0 0 0 0 0 0.2615 0.6869 0.0516 0 0 0 0 0 0 0 0 0.2052 0.6876 0.1072 0 0 0 0 0 0 0 0 0.1643 0.8357 0 0 0 0 0 0 0 0 0 1 0 0 0 0 0 0 0 0 0 1 0 0 0 0 0 0 0 0 0 1 0 0 0 0 0 0 0 0 0 1 0 0 0 0.434 0.5582 0.0078 0 0 0 0 0 0 0 0 0.1994 0.7059 0.09470000000000001 0 0 0 0 0 0 0 0 0.0586 0.6647 0.2767 0 0 0 0 0 0 0 0 0.008699999999999999 0.5012 0.4766 0.0135 0 0 0 0 0 0 0 0.0002 0.2864 0.7134 0 0 0 0 0 0 0 0 0 1 0 0 0 0 0 0 0 0 0 1 0 0 0 0 0 0 0 0 0 1 0 0 0 0 0 0 0 0 0 1 0 0 0 0 0 0 0 0 0 1 0 0 0 0.3615 0.5935 0.045 0 0 0 0 0 0 0 0 0.0808 0.6251 0.2941 0 0 0 0 0 0 0 0 0.0003 0.364 0.5833 0.0524 0 0 0 0 0 0 0 0 0.0979 0.6062 0.2959 0 0 0 0 0 0 0 0 0.0058 0.9942 0 0 0 0 0 0 0 0 0 1 0 0 0 0 0 0 0 0 0 1 0 0 0 0 0 0 0 0 0 1 0 0 0 0 0 0 0 0 0 1 0 0 0 0 0 0 0 0 0 1 0 0 0 0.3302 0.5666 0.1032 0 0 0 0 0 0 0 0 0.0155 0.4896 0.4746 0.0203 0 0 0 0 0 0 0 0 0.1062 0.569 0.3227 0.0021 0 0 0 0 0 0 0 0.0004 0.2765 0.7231 0 0 0 0 0 0 0 0 0 1 0 0 0 0 0 0 0 0 0 1 0 0 0 0 0 0 0 0 0 1 0 0 0 0 0 0 0 0 0 1 0 0 0 0 0 0 0 0 0 1 0 0 0 0 0 0 0 0 0 1 0 0 0 0.2907 0.5256 0.1837 0 0 0 0 0 0 0 0 0.0008 0.34 0.5194 0.1398 0 0 0 0 0 0 0 0 0.0101 0.3903 0.4981 0.1015 0 0 0 0 0 0 0 0 0.0264 0.9736 0 0 0 0 0 0 0 0 0 1 0 0 0 0 0 0 0 0 0 1 0 0 0 0 0 0 0 0 0 1 0 0 0 0 0 0 0 0 0 1 0 0 0 0 0 0 0 0 0 1 0 0 0 0 0 0 0 0 0 1 0 0 0 0.2104 0.7896 0 0 0 0 0 0 0 0 0.09429999999999999 0.9056999999999999 0 0 0 0 0 0 0 0 0.055 0.9419 0.0031 0 0 0 0 0 0 0 0.0411 0.9157999999999999 0.0431 0 0 0 0 0 0 0 0.0303 0.8427 0.127 0 0 0 0 0 0 0 0.0263 0.7365 0.2372 0 0 0 0 0 0 0 0.0225 0.6314 0.3461 0 0 0 0 0 0 0 0.02 0.5397999999999999 0.4397 0.0005 0 0 0 0 0 0 0.0159 0.4838 0.482 0.0183 0 0 0 0 0 0 0.0148 0.4357 0.4854 0.0641 0 0 0 0 0 0 0.096 0.904 0 0 0 0 0 0 0 0 0 0.9552 0.0448 0 0 0 0 0 0 0 0 0.6401 0.3599 0 0 0 0 0 0 0 0 0.2705 0.7287 0.0008 0 0 0 0 0 0 0 0.07190000000000001 0.8448 0.0833 0 0 0 0 0 0 0 0.0074 0.6695 0.3231 0 0 0 0 0 0 0 0 0.428 0.5597 0.0123 0 0 0 0 0 0 0 0.2398 0.6429 0.1173 0 0 0 0 0 0 0 0.1007 0.5684 0.3308 0.0001 0 0 0 0 0 0 0.0372 0.4586 0.4647 0.0395 0 0 0 0 0.0553 0.9426 0.0021 0 0 0 0 0 0 0 0 0.6341 0.3659 0 0 0 0 0 0 0 0 0.0907 0.8887 0.0206 0 0 0 0 0 0 0 0 0.6161 0.3839 0 0 0 0 0 0 0 0 0.1513 0.7936 0.0551 0 0 0 0 0 0 0 0.0053 0.5992 0.3952 0.0003 0 0 0 0 0 0 0 0.2089 0.6891 0.102 0 0 0 0 0 0 0 0.0251 0.5468 0.4213 0.0068 0 0 0 0 0 0 0 0.2784 0.5599 0.1617 0 0 0 0 0 0 0 0.0658 0.4908 0.4434 0 0 0 0.0416 0.9137 0.0447 0 0 0 0 0 0 0 0 0.2685 0.731 0.0005 0 0 0 0 0 0 0 0 0.6222 0.3778 0 0 0 0 0 0 0 0 0.0412 0.8286 0.1302 0 0 0 0 0 0 0 0 0.2302 0.7329 0.0369 0 0 0 0 0 0 0 0.0024 0.5038 0.4873 0.0065 0 0 0 0 0 0 0 0.0723 0.6519 0.2758 0 0 0 0 0 0 0 0 0.2444 0.7556 0 0 0 0 0 0 0 0 0.0145 0.9855 0 0 0 0 0 0 0 0 0 1 0 0 0 0.0334 0.841 0.1256 0 0 0 0 0 0 0 0 0.0814 0.8445 0.0741 0 0 0 0 0 0 0 0 0.1463 0.7997 0.054 0 0 0 0 0 0 0 0 0.229 0.7324000000000001 0.0386 0 0 0 0 0 0 0 0 0.3297 0.6428 0.0275 0 0 0 0 0 0 0 0.0018 0.4286 0.5696 0 0 0 0 0 0 0 0 0.0144 0.9856 0 0 0 0 0 0 0 0 0 1 0 0 0 0 0 0 0 0 0 1 0 0 0 0 0 0 0 0 0 1 0 0 0 0.0241 0.7383999999999999 0.2375 0 0 0 0 0 0 0 0 0.009299999999999999 0.6751 0.3156 0 0 0 0 0 0 0 0 0.0045 0.5815 0.4134 0.0005999999999999999 0 0 0 0 0 0 0 0.0037 0.5037 0.4848 0.0078 0 0 0 0 0 0 0 0.002 0.4191 0.5789 0 0 0 0 0 0 0 0 0.0024 0.9976 0 0 0 0 0 0 0 0 0 1 0 0 0 0 0 0 0 0 0 1 0 0 0 0 0 0 0 0 0 1 0 0 0 0 0 0 0 0 0 1 0 0 0 0.0214 0.6328 0.3458 0 0 0 0 0 0 0 0 0 0.4251 0.5627 0.0122 0 0 0 0 0 0 0 0 0.2135 0.6925 0.094 0 0 0 0 0 0 0 0 0.0694 0.6575 0.2731 0 0 0 0 0 0 0 0 0.0169 0.9831 0 0 0 0 0 0 0 0 0 1 0 0 0 0 0 0 0 0 0 1 0 0 0 0 0 0 0 0 0 1 0 0 0 0 0 0 0 0 0 1 0 0 0 0 0 0 0 0 0 1 0 0 0 0.0223 0.5413 0.4354 0.001 0 0 0 0 0 0 0 0 0.2349 0.6445 0.1206 0 0 0 0 0 0 0 0 0.0246 0.5507 0.4175 0.0072 0 0 0 0 0 0 0 0 0.2421 0.7579 0 0 0 0 0 0 0 0 0 1 0 0 0 0 0 0 0 0 0 1 0 0 0 0 0 0 0 0 0 1 0 0 0 0 0 0 0 0 0 1 0 0 0 0 0 0 0 0 0 1 0 0 0 0 0 0 0 0 0 1 0 0 0 0.0154 0.4825 0.4833 0.0188 0 0 0 0 0 0 0 0 0.1033 0.5752 0.3209 0.0005999999999999999 0 0 0 0 0 0 0 0 0.2726 0.5713 0.1561 0 0 0 0 0 0 0 0 0.0165 0.9835 0 0 0 0 0 0 0 0 0 1 0 0 0 0 0 0 0 0 0 1 0 0 0 0 0 0 0 0 0 1 0 0 0 0 0 0 0 0 0 1 0 0 0 0 0 0 0 0 0 1 0 0 0 0 0 0 0 0 0 1 0 0 0 0.016 0.4364 0.4891 0.0585 0 0 0 0 0 0 0 0 0.0363 0.4622 0.4624 0.0391 0 0 0 0 0 0 0 0 0.065 0.4919 0.4431 0 0 0 0 0 0 0 0 0 1 0 0 0 0 0 0 0 0 0 1 0 0 0 0 0 0 0 0 0 1 0 0 0 0 0 0 0 0 0 1 0 0 0 0 0 0 0 0 0 1 0 0 0 0 0 0 0 0 0 1 0 0 0 0 0 0 0 0 0 1 0 0 0 0 0.6361 0.3639 0 0 0 0 0 0 0 0 0.5038 0.4962 0 0 0 0 0 0 0 0 0.3616 0.6384 0 0 0 0 0 0 0 0 0.2584 0.7416 0 0 0 0 0 0 0 0 0.2046 0.7862 0.0092 0 0 0 0 0 0 0 0.1649 0.776 0.0591 0 0 0 0 0 0 0 0.1415 0.718 0.1405 0 0 0 0 0 0 0 0.1136 0.6556999999999999 0.2307 0 0 0 0 0 0 0 0.1054 0.5688 0.3258 0 0 0 0 0 0 0 0.0951 0.5122 0.389 0.0037 0 0 0 0 0 0 0.5018 0.4982 0 0 0 0 0 0 0 0 0.1152 0.8848 0 0 0 0 0 0 0 0 0.0027 0.9241 0.0732 0 0 0 0 0 0 0 0 0.6284 0.3716 0 0 0 0 0 0 0 0 0.2917 0.7024 0.0059 0 0 0 0 0 0 0 0.1049 0.7835 0.1116 0 0 0 0 0 0 0 0.0267 0.6241 0.3492 0 0 0 0 0 0 0 0.0008 0.4348 0.5397 0.0247 0 0 0 0 0 0 0 0.2642 0.5903 0.1455 0 0 0 0 0 0 0 0.1404 0.519 0.3381 0.0025 0 0 0 0 0.3536 0.6464 0 0 0 0 0 0 0 0 0.0027 0.9267 0.0706 0 0 0 0 0 0 0 0 0.3649 0.6351 0 0 0 0 0 0 0 0 0.0248 0.8595 0.1157 0 0 0 0 0 0 0 0 0.4046 0.5911999999999999 0.0042 0 0 0 0 0 0 0 0.07000000000000001 0.7482 0.1818 0 0 0 0 0 0 0 0.0002 0.4266 0.5524 0.0208 0 0 0 0 0 0 0 0.1306 0.635 0.2344 0 0 0 0 0 0 0 0.0118 0.4337 0.5545 0 0 0 0 0 0 0 0 0.195 0.805 0 0 0 0 0.2493 0.7507 0 0 0 0 0 0 0 0 0 0.6288 0.3712 0 0 0 0 0 0 0 0 0.0257 0.8618 0.1125 0 0 0 0 0 0 0 0 0.2022 0.7692 0.0286 0 0 0 0 0 0 0 0.0005 0.5069 0.4905 0.0021 0 0 0 0 0 0 0 0.0459 0.6985 0.2556 0 0 0 0 0 0 0 0 0.2075 0.7925 0 0 0 0 0 0 0 0 0.0078 0.9922 0 0 0 0 0 0 0 0 0 1 0 0 0 0 0 0 0 0 0 1 0 0 0 0 0.1947 0.7958 0.0095 0 0 0 0 0 0 0 0 0.285 0.7098 0.0052 0 0 0 0 0 0 0 0 0.4022 0.5939 0.0039 0 0 0 0 0 0 0 0.0005999999999999999 0.5058 0.4914 0.0022 0 0 0 0 0 0 0 0.008399999999999999 0.5822000000000001 0.4094 0 0 0 0 0 0 0 0 0.0348 0.9651999999999999 0 0 0 0 0 0 0 0 0 1 0 0 0 0 0 0 0 0 0 1 0 0 0 0 0 0 0 0 0 1 0 0 0 0 0 0 0 0 0 1 0 0 0 0 0.1639 0.7749 0.0612 0 0 0 0 0 0 0 0 0.1019 0.7889 0.1092 0 0 0 0 0 0 0 0 0.0677 0.7614 0.1709 0 0 0 0 0 0 0 0 0.0483 0.6984 0.2533 0 0 0 0 0 0 0 0 0.0385 0.9615 0 0 0 0 0 0 0 0 0 1 0 0 0 0 0 0 0 0 0 1 0 0 0 0 0 0 0 0 0 1 0 0 0 0 0 0 0 0 0 1 0 0 0 0 0 0 0 0 0 1 0 0 0 0 0.143 0.7205 0.1365 0 0 0 0 0 0 0 0 0.0226 0.6354 0.342 0 0 0 0 0 0 0 0 0.0002 0.4266 0.5532 0.02 0 0 0 0 0 0 0 0 0.2171 0.7829 0 0 0 0 0 0 0 0 0 1 0 0 0 0 0 0 0 0 0 1 0 0 0 0 0 0 0 0 0 1 0 0 0 0 0 0 0 0 0 1 0 0 0 0 0 0 0 0 0 1 0 0 0 0 0 0 0 0 0 1 0 0 0 0 0.1175 0.6425 0.24 0 0 0 0 0 0 0 0 0.0015 0.4402 0.5359 0.0224 0 0 0 0 0 0 0 0 0.127 0.6433 0.2297 0 0 0 0 0 0 0 0 0.0081 0.9919 0 0 0 0 0 0 0 0 0 1 0 0 0 0 0 0 0 0 0 1 0 0 0 0 0 0 0 0 0 1 0 0 0 0 0 0 0 0 0 1 0 0 0 0 0 0 0 0 0 1 0 0 0 0 0 0 0 0 0 1 0 0 0 0 0.1059 0.5749 0.3192 0 0 0 0 0 0 0 0 0 0.2602 0.5832000000000001 0.1566 0 0 0 0 0 0 0 0 0.0092 0.436 0.5548 0 0 0 0 0 0 0 0 0 1 0 0 0 0 0 0 0 0 0 1 0 0 0 0 0 0 0 0 0 1 0 0 0 0 0 0 0 0 0 1 0 0 0 0 0 0 0 0 0 1 0 0 0 0 0 0 0 0 0 1 0 0 0 0 0 0 0 0 0 1 0 0 0 0 0.09950000000000001 0.5081 0.3866 0.0058 0 0 0 0 0 0 0 0 0.1407 0.5269 0.3308 0.0016 0 0 0 0 0 0 0 0 0.1839 0.8161 0 0 0 0 0 0 0 0 0 1 0 0 0 0 0 0 0 0 0 1 0 0 0 0 0 0 0 0 0 1 0 0 0 0 0 0 0 0 0 1 0 0 0 0 0 0 0 0 0 1 0 0 0 0 0 0 0 0 0 1 0 0 0 0 0 0 0 0 0 1 0 0 0 0 0 0.9923 0.0077 0 0 0 0 0 0 0 0 0.9052 0.0948 0 0 0 0 0 0 0 0 0.7706 0.2294 0 0 0 0 0 0 0 0 0.6329 0.3671 0 0 0 0 0 0 0 0 0.5076000000000001 0.4924 0 0 0 0 0 0 0 0 0.4091 0.5901 0.0008 0 0 0 0 0 0 0 0.3536 0.6209 0.0255 0 0 0 0 0 0 0 0.3054 0.6196 0.075 0 0 0 0 0 0 0 0.267 0.5847 0.1483 0 0 0 0 0 0 0 0.2358 0.5235 0.2407 0 0 0 0 0 0 0 0.9045 0.0955 0 0 0 0 0 0 0 0 0.498 0.502 0 0 0 0 0 0 0 0 0.1419 0.8573 0.0008 0 0 0 0 0 0 0 0.0132 0.8842 0.1026 0 0 0 0 0 0 0 0 0.6072 0.3928 0 0 0 0 0 0 0 0 0.331 0.6555 0.0135 0 0 0 0 0 0 0 0.146 0.7145 0.1395 0 0 0 0 0 0 0 0.0443 0.5933 0.3623 0.0001 0 0 0 0 0 0 0.0046 0.4383 0.5144 0.0427 0 0 0 0 0 0 0 0.2945 0.5241 0.1814 0 0 0 0 0 0.7705 0.2295 0 0 0 0 0 0 0 0 0.1443 0.8545 0.0012 0 0 0 0 0 0 0 0 0.7508 0.2492 0 0 0 0 0 0 0 0 0.1895 0.7969000000000001 0.0136 0 0 0 0 0 0 0 0.0053 0.7060999999999999 0.2886 0 0 0 0 0 0 0 0 0.2455 0.7048 0.0497 0 0 0 0 0 0 0 0.029 0.629 0.342 0 0 0 0 0 0 0 0 0.3126 0.6874 0 0 0 0 0 0 0 0 0.0689 0.9311 0 0 0 0 0 0 0 0 0.002 0.998 0 0 0 0 0 0.6277 0.3723 0 0 0 0 0 0 0 0 0.0125 0.8934 0.0941 0 0 0 0 0 0 0 0 0.1855 0.8021 0.0124 0 0 0 0 0 0 0 0 0.493 0.5067 0.0003 0 0 0 0 0 0 0 0.0333 0.7381 0.2286 0 0 0 0 0 0 0 0 0.1837 0.8163 0 0 0 0 0 0 0 0 0.0027 0.9973 0 0 0 0 0 0 0 0 0 1 0 0 0 0 0 0 0 0 0 1 0 0 0 0 0 0 0 0 0 1 0 0 0 0 0 0.4932 0.5068 0 0 0 0 0 0 0 0 0 0.618 0.382 0 0 0 0 0 0 0 0 0.0063 0.6975 0.2962 0 0 0 0 0 0 0 0 0.0318 0.7419 0.2263 0 0 0 0 0 0 0 0 0.0788 0.9212 0 0 0 0 0 0 0 0 0 1 0 0 0 0 0 0 0 0 0 1 0 0 0 0 0 0 0 0 0 1 0 0 0 0 0 0 0 0 0 1 0 0 0 0 0 0 0 0 0 1 0 0 0 0 0 0.4122 0.5871 0.0007 0 0 0 0 0 0 0 0 0.33 0.6571 0.0129 0 0 0 0 0 0 0 0 0.2449 0.7122000000000001 0.0429 0 0 0 0 0 0 0 0 0.1895 0.8105 0 0 0 0 0 0 0 0 0 1 0 0 0 0 0 0 0 0 0 1 0 0 0 0 0 0 0 0 0 1 0 0 0 0 0 0 0 0 0 1 0 0 0 0 0 0 0 0 0 1 0 0 0 0 0 0 0 0 0 1 0 0 0 0 0 0.3454 0.6337 0.0209 0 0 0 0 0 0 0 0 0.1416 0.7126 0.1458 0 0 0 0 0 0 0 0 0.0283 0.622 0.3497 0 0 0 0 0 0 0 0 0.0025 0.9975000000000001 0 0 0 0 0 0 0 0 0 1 0 0 0 0 0 0 0 0 0 1 0 0 0 0 0 0 0 0 0 1 0 0 0 0 0 0 0 0 0 1 0 0 0 0 0 0 0 0 0 1 0 0 0 0 0 0 0 0 0 1 0 0 0 0 0 0.3038 0.62 0.0762 0 0 0 0 0 0 0 0 0.048 0.5907 0.3607 0.0005999999999999999 0 0 0 0 0 0 0 0 0.3047 0.6953 0 0 0 0 0 0 0 0 0 1 0 0 0 0 0 0 0 0 0 1 0 0 0 0 0 0 0 0 0 1 0 0 0 0 0 0 0 0 0 1 0 0 0 0 0 0 0 0 0 1 0 0 0 0 0 0 0 0 0 1 0 0 0 0 0 0 0 0 0 1 0 0 0 0 0 0.2653 0.5852000000000001 0.1495 0 0 0 0 0 0 0 0 0.0075 0.4389 0.5118 0.0418 0 0 0 0 0 0 0 0 0.0765 0.9235 0 0 0 0 0 0 0 0 0 1 0 0 0 0 0 0 0 0 0 1 0 0 0 0 0 0 0 0 0 1 0 0 0 0 0 0 0 0 0 1 0 0 0 0 0 0 0 0 0 1 0 0 0 0 0 0 0 0 0 1 0 0 0 0 0 0 0 0 0 1 0 0 0 0 0 0.2372 0.5288 0.234 0 0 0 0 0 0 0 0 0 0.2956 0.5206 0.1838 0 0 0 0 0 0 0 0 0.0032 0.9968 0 0 0 0 0 0 0 0 0 1 0 0 0 0 0 0 0 0 0 1 0 0 0 0 0 0 0 0 0 1 0 0 0 0 0 0 0 0 0 1 0 0 0 0 0 0 0 0 0 1 0 0 0 0 0 0 0 0 0 1 0 0 0 0 0 0 0 0 0 1 0 0 0 0 0 0.0795 0.9205 0 0 0 0 0 0 0 0 0.0254 0.9746 0 0 0 0 0 0 0 0 0.0148 0.969 0.0162 0 0 0 0 0 0 0 0.008200000000000001 0.9013 0.0905 0 0 0 0 0 0 0 0.008200000000000001 0.7995 0.1923 0 0 0 0 0 0 0 0.0055 0.6751 0.3194 0 0 0 0 0 0 0 0.0073 0.5756 0.4171 0 0 0 0 0 0 0 0.0053 0.4958 0.4927 0.0062 0 0 0 0 0 0 0.0048 0.4401 0.5135999999999999 0.0415 0 0 0 0 0 0 0.0033 0.3992 0.5058 0.0917 0 0 0 0 0 0 0.0243 0.9757 0 0 0 0 0 0 0 0 0 0.8918 0.1082 0 0 0 0 0 0 0 0 0.4963 0.5037 0 0 0 0 0 0 0 0 0.1672 0.8277 0.0051 0 0 0 0 0 0 0 0.0363 0.8333 0.1304 0 0 0 0 0 0 0 0.0015 0.5942 0.4043 0 0 0 0 0 0 0 0 0.3392 0.6318 0.029 0 0 0 0 0 0 0 0.1825 0.6385999999999999 0.1789 0 0 0 0 0 0 0 0.0707 0.5476 0.3817 0 0 0 0 0 0 0 0.0178 0.4384 0.5438 0 0 0 0 0 0.015 0.9668 0.0182 0 0 0 0 0 0 0 0 0.495 0.505 0 0 0 0 0 0 0 0 0.0357 0.916 0.0483 0 0 0 0 0 0 0 0 0.5008 0.4992 0 0 0 0 0 0 0 0 0.0859 0.8233 0.09080000000000001 0 0 0 0 0 0 0 0.0005999999999999999 0.5017 0.4977 0 0 0 0 0 0 0 0 0.1424 0.8576 0 0 0 0 0 0 0 0 0.0122 0.9878 0 0 0 0 0 0 0 0 0 1 0 0 0 0 0 0 0 0 0 1 0 0 0 0 0 0.0113 0.8958 0.0929 0 0 0 0 0 0 0 0 0.1726 0.8214 0.006 0 0 0 0 0 0 0 0 0.5081 0.4919 0 0 0 0 0 0 0 0 0.0183 0.7725 0.2092 0 0 0 0 0 0 0 0 0.155 0.845 0 0 0 0 0 0 0 0 0.0008 0.9992 0 0 0 0 0 0 0 0 0 1 0 0 0 0 0 0 0 0 0 1 0 0 0 0 0 0 0 0 0 1 0 0 0 0 0 0 0 0 0 1 0 0 0 0 0 0.0086 0.7951 0.1963 0 0 0 0 0 0 0 0 0.0368 0.8322000000000001 0.131 0 0 0 0 0 0 0 0 0.08799999999999999 0.8222 0.0898 0 0 0 0 0 0 0 0 0.1556 0.8444 0 0 0 0 0 0 0 0 0 1 0 0 0 0 0 0 0 0 0 1 0 0 0 0 0 0 0 0 0 1 0 0 0 0 0 0 0 0 0 1 0 0 0 0 0 0 0 0 0 1 0 0 0 0 0 0 0 0 0 1 0 0 0 0 0 0.0074 0.6758 0.3168 0 0 0 0 0 0 0 0 0.0015 0.5964 0.4021 0 0 0 0 0 0 0 0 0.0004 0.4946 0.505 0 0 0 0 0 0 0 0 0.0004 0.9996 0 0 0 0 0 0 0 0 0 1 0 0 0 0 0 0 0 0 0 1 0 0 0 0 0 0 0 0 0 1 0 0 0 0 0 0 0 0 0 1 0 0 0 0 0 0 0 0 0 1 0 0 0 0 0 0 0 0 0 1 0 0 0 0 0 0.0054 0.5754 0.4192 0 0 0 0 0 0 0 0 0 0.3465 0.6266 0.0269 0 0 0 0 0 0 0 0 0.148 0.852 0 0 0 0 0 0 0 0 0 1 0 0 0 0 0 0 0 0 0 1 0 0 0 0 0 0 0 0 0 1 0 0 0 0 0 0 0 0 0 1 0 0 0 0 0 0 0 0 0 1 0 0 0 0 0 0 0 0 0 1 0 0 0 0 0 0 0 0 0 1 0 0 0 0 0 0.0044 0.4982 0.4913 0.0061 0 0 0 0 0 0 0 0 0.1743 0.6512 0.1745 0 0 0 0 0 0 0 0 0.0112 0.9888 0 0 0 0 0 0 0 0 0 1 0 0 0 0 0 0 0 0 0 1 0 0 0 0 0 0 0 0 0 1 0 0 0 0 0 0 0 0 0 1 0 0 0 0 0 0 0 0 0 1 0 0 0 0 0 0 0 0 0 1 0 0 0 0 0 0 0 0 0 1 0 0 0 0 0 0.0035 0.4417 0.517 0.0378 0 0 0 0 0 0 0 0 0.06950000000000001 0.5463 0.3842 0 0 0 0 0 0 0 0 0 1 0 0 0 0 0 0 0 0 0 1 0 0 0 0 0 0 0 0 0 1 0 0 0 0 0 0 0 0 0 1 0 0 0 0 0 0 0 0 0 1 0 0 0 0 0 0 0 0 0 1 0 0 0 0 0 0 0 0 0 1 0 0 0 0 0 0 0 0 0 1 0 0 0 0 0 0.0032 0.3944 0.5133 0.0891 0 0 0 0 0 0 0 0 0.0166 0.4301 0.5533 0 0 0 0 0 0 0 0 0 1 0 0 0 0 0 0 0 0 0 1 0 0 0 0 0 0 0 0 0 1 0 0 0 0 0 0 0 0 0 1 0 0 0 0 0 0 0 0 0 1 0 0 0 0 0 0 0 0 0 1 0 0 0 0 0 0 0 0 0 1 0 0 0 0 0 0 0 0 0 1</probabilities>
		</cpt>
		<cpt id="random_disturbance_t_1">
			<state id="State0" />
			<state id="State1" />
			<state id="State2" />
			<state id="State3" />
			<state id="State4" />
			<state id="State5" />
			<state id="State6" />
			<state id="State7" />
			<state id="State8" />
			<state id="State9" />
			<state id="State10" />
			<intervals>0 0.1 0.2 0.3 0.4 0.5 0.6 0.7 0.8 0.9 1 1.1</intervals>
			<probabilities>0.1467189884456072 0.1334205362982341 0.1281883584041857 0.1231741879223894 0.1079136690647482 0.09090909090909091 0.08088074994549815 0.06736429038587312 0.05123174187922389 0.04185742315238718 0.02834096359276216</probabilities>
		</cpt>
		<cpt id="random_disturbance">
			<state id="State0" />
			<state id="State1" />
			<state id="State2" />
			<state id="State3" />
			<state id="State4" />
			<state id="State5" />
			<state id="State6" />
			<state id="State7" />
			<state id="State8" />
			<state id="State9" />
			<state id="State10" />
			<intervals>0 0.1 0.2 0.3 0.4 0.5 0.6 0.7 0.8 0.9 1 1.1</intervals>
			<parents>random_disturbance_t_1</parents>
			<probabilities>0.5962807438512298 0.1754649070185963 0.117876424715057 0.07138572285542892 0.02649470105978804 0.009398120375924815 0.002499500099980004 0.0002999400119976005 9.998000399920016e-05 9.998000399920016e-05 9.998000399920016e-05 0.4078592140785922 0.1953804619538046 0.1700829917008299 0.1184881511848815 0.06249375062493751 0.0321967803219678 0.009899010098990101 0.002999700029997 0.0002999700029997 0.0001999800019998 9.999000099990002e-05 0.2256774322567743 0.1756824317568243 0.198980101989801 0.1780821917808219 0.1150884911508849 0.0634936506349365 0.0295970402959704 0.009899010098990101 0.002999700029997 0.0003999600039996001 9.999000099990002e-05 0.1071 0.1147 0.1685 0.2055 0.1755 0.119 0.0692 0.0291 0.0086 0.0022 0.0005999999999999999 0.0431 0.0645 0.1246 0.1723 0.1971 0.1713 0.1219 0.0653 0.0276 0.0098 0.0025 0.013 0.0318 0.0672 0.1223 0.1728 0.1982 0.1703 0.1204 0.0646 0.0292 0.0102 0.003 0.0116 0.027 0.0673 0.1186 0.1756 0.1895 0.1745 0.1231 0.0682 0.0416 0.0005999999999999999 0.0021 0.009599999999999999 0.0294 0.06619999999999999 0.1245 0.1715 0.1959 0.168 0.1161 0.1161 0.0001 0.0004 0.0025 0.008999999999999999 0.031 0.06610000000000001 0.1182 0.175 0.1944 0.1711 0.2322 9.999000099990002e-05 0.0003999600039996001 0.0003999600039996001 0.0022997700229977 0.009499050094990502 0.0270972902709729 0.06669333066693331 0.1162883711628837 0.1835816418358164 0.1880811918808119 0.4055594440555945 9.997000899730081e-05 9.997000899730081e-05 9.997000899730081e-05 0.0006997900629811056 0.003299010296910927 0.009497150854743577 0.02559232230330901 0.06638008597420773 0.1197640707787664 0.1705488353493952 0.6039188243526942</probabilities>
		</cpt>
		<cpt id="motor_wear_t_1">
			<state id="State0" />
			<state id="State1" />
			<state id="State2" />
			<state id="State3" />
			<state id="State4" />
			<state id="State5" />
			<state id="State6" />
			<state id="State7" />
			<state id="State8" />
			<state id="State9" />
			<intervals>0 0.1 0.2 0.3 0.4 0.5 0.6 0.7 0.8 0.9 1</intervals>
			<probabilities>0.9982114467408585 0.0001987281399046105 0.0001987281399046105 0.0001987281399046105 0.0001987281399046105 0.0001987281399046105 0.0001987281399046105 0.0001987281399046105 0.0001987281399046105 0.0001987281399046105</probabilities>
		</cpt>
		<cpt id="motor_wear">
			<state id="State0" />
			<state id="State1" />
			<state id="State2" />
			<state id="State3" />
			<state id="State4" />
			<state id="State5" />
			<state id="State6" />
			<state id="State7" />
			<state id="State8" />
			<state id="State9" />
			<intervals>0 0.1 0.2 0.3 0.4 0.5 0.6 0.7 0.8 0.9 1</intervals>
			<parents>motor_wear_t_1</parents>
			<probabilities>0.9580331976197933 0.04113164213383443 0.0001043950307965341 0.0001043950307965341 0.0001043950307965341 0.0001043950307965341 0.0001043950307965341 0.0001043950307965341 0.0001043950307965341 0.0001043950307965341 0.03967222943939243 0.9211551913660437 0.03847306885180374 9.9930048965724e-05 9.9930048965724e-05 9.9930048965724e-05 9.9930048965724e-05 9.9930048965724e-05 9.9930048965724e-05 9.9930048965724e-05 9.9930048965724e-05 0.03927250924352953 0.9212551214150095 0.03877285899870091 9.9930048965724e-05 9.9930048965724e-05 9.9930048965724e-05 9.9930048965724e-05 9.9930048965724e-05 9.9930048965724e-05 9.9930048965724e-05 9.9930048965724e-05 0.03597481762766064 0.923253722394324 0.04007194963525532 9.9930048965724e-05 9.9930048965724e-05 9.9930048965724e-05 9.9930048965724e-05 9.9930048965724e-05 9.9930048965724e-05 9.9930048965724e-05 9.9930048965724e-05 0.03817327870490657 0.9230538622963925 0.03807334865594084 9.9930048965724e-05 9.9930048965724e-05 9.9930048965724e-05 9.9930048965724e-05 9.9930048965724e-05 9.9930048965724e-05 9.9930048965724e-05 9.9930048965724e-05 0.03837313880283801 0.9190566603377636 0.04187069051663835 9.9930048965724e-05 9.9930048965724e-05 9.9930048965724e-05 9.9930048965724e-05 9.9930048965724e-05 9.9930048965724e-05 9.9930048965724e-05 9.9930048965724e-05 0.0374737683621465 0.9208554012191466 0.04097132007594684 9.9930048965724e-05 9.9930048965724e-05 9.9930048965724e-05 9.9930048965724e-05 9.9930048965724e-05 9.9930048965724e-05 9.9930048965724e-05 9.9930048965724e-05 0.03897271909663236 0.9205556110722495 0.03977215948835815 9.9930048965724e-05 9.9930048965724e-05 9.9930048965724e-05 9.9930048965724e-05 9.9930048965724e-05 9.9930048965724e-05 9.9930048965724e-05 9.9930048965724e-05 0.03837313880283801 0.9224542820025982 0.03847306885180374 0.0001041558171023852 0.0001041558171023852 0.0001041558171023852 0.0001041558171023852 0.0001041558171023852 0.0001041558171023852 0.0001041558171023852 0.0001041558171023852 0.04041245703572544 0.9587542964274555</probabilities>
		</cpt>
		<cpt id="turbulence_t_1">
			<state id="State0" />
			<state id="State1" />
			<state id="State2" />
			<state id="State3" />
			<state id="State4" />
			<state id="State5" />
			<state id="State6" />
			<state id="State7" />
			<state id="State8" />
			<state id="State9" />
			<intervals>0 0.1 0.2 0.3 0.4 0.5 0.6 0.7 0.8 0.9 1</intervals>
			<probabilities>0.2642714570858283 0.236127744510978 0.1900199600798403 0.136127744510978 0.08522954091816368 0.04730538922155689 0.02435129740518962 0.009181636726546906 0.005788423153692615 0.001596806387225549</probabilities>
		</cpt>
		<cpt id="turbulence">
			<state id="State0" />
			<state id="State1" />
			<state id="State2" />
			<state id="State3" />
			<state id="State4" />
			<state id="State5" />
			<state id="State6" />
			<state id="State7" />
			<state id="State8" />
			<state id="State9" />
			<intervals>0 0.1 0.2 0.3 0.4 0.5 0.6 0.7 0.8 0.9 1</intervals>
			<parents>turbulence_t_1</parents>
			<probabilities>0.5269661287977904 0.3589184474487571 0.1020497165285652 0.01075737752580317 0.0005814798662596307 0.0001453699665649077 0.0001453699665649077 0.0001453699665649077 0.0001453699665649077 0.0001453699665649077 0.2579067492663841 0.3982175850451038 0.2580154331050973 0.07716552548636017 0.007933920226062385 0.00032605151613955 0.0001086838387131834 0.0001086838387131834 0.0001086838387131834 0.0001086838387131834 0.06805807622504537 0.2465214761040532 0.3730590844928413 0.2372454123815285 0.06553740673522887 0.009074410163339383 0.0002016535591853196 0.0001008267795926598 0.0001008267795926598 0.0001008267795926598 0.006401920576172852 0.06361908572571771 0.2459737921376413 0.3647094128238472 0.2401720516154846 0.07122136640992298 0.00740222066619986 0.0003000900270081024 0.0001000300090027008 0.0001000300090027008 0.0002999700029997 0.008899110088991101 0.0715928407159284 0.2363763623637636 0.3707629237076293 0.2390760923907609 0.064993500649935 0.0071992800719928 0.0006999300069993001 9.999000099990002e-05 9.999000099990002e-05 0.0003999600039996001 0.006799320067993201 0.07089291070892911 0.2401759824017598 0.3664633536646336 0.2440755924407559 0.06359364063593641 0.007099290070992901 0.0003999600039996001 0.0001000400160064026 0.0001000400160064026 0.0005002000800320128 0.007302921168467387 0.07202881152460984 0.2333933573429372 0.3664465786314526 0.2381952781112445 0.0742296918767507 0.007703081232492998 0.0001009489198465576 0.0001009489198465576 0.0001009489198465576 0.0005047445992327882 0.009489198465576418 0.06390066626287098 0.2476277003836059 0.369473046638401 0.2419745608721987 0.0667272360185746 0.0001084010840108401 0.0001084010840108401 0.0001084010840108401 0.0001084010840108401 0.0003252032520325203 0.008888888888888889 0.06775067750677506 0.2623306233062331 0.4015176151761518 0.2587533875338753 0.0001454968718172559 0.0001454968718172559 0.0001454968718172559 0.0001454968718172559 0.0001454968718172559 0.001018478102720791 0.01018478102720792 0.09282700421940929 0.3470100392841554 0.5482322130074203</probabilities>
		</cpt>
		<cpt id="motoruse_for_other">
			<state id="State0" />
			<state id="State1" />
			<state id="State2" />
			<state id="State3" />
			<state id="State4" />
			<state id="State5" />
			<state id="State6" />
			<state id="State7" />
			<state id="State8" />
			<state id="State9" />
			<state id="State10" />
			<intervals>0 0.1 0.2 0.3 0.4 0.5 0.6 0.7 0.8 0.9 1 1.1</intervals>
			<parents>motor_wear turbulence random_disturbance</parents>
			<probabilities>0.8179 0.1821 0 0 0 0 0 0 0 0 0 0.08309999999999999 0.7403 0.1766 0 0 0 0 0 0 0 0 0 0.0848 0.728 0.1872 0 0 0 0 0 0 0 0 0 0.0813 0.7332 0.1855 0 0 0 0 0 0 0 0 0 0.0799 0.7427 0.1774 0 0 0 0 0 0 0 0 0 0.0786 0.7354000000000001 0.186 0 0 0 0 0 0 0 0 0 0.0829 0.7371 0.18 0 0 0 0 0 0 0 0 0 0.0832 0.7342 0.1826 0 0 0 0 0 0 0 0 0 0.07290000000000001 0.7466 0.1805 0 0 0 0 0 0 0 0 0 0.0774 0.7349 0.1877 0 0 0 0 0 0 0 0 0 0.08069999999999999 0.9193 0.6830000000000001 0.317 0 0 0 0 0 0 0 0 0 0.0243 0.654 0.3217 0 0 0 0 0 0 0 0 0 0.0232 0.6596 0.3172 0 0 0 0 0 0 0 0 0 0.0207 0.66 0.3193 0 0 0 0 0 0 0 0 0 0.0224 0.6449 0.3327 0 0 0 0 0 0 0 0 0 0.0243 0.6613 0.3144 0 0 0 0 0 0 0 0 0 0.0209 0.6505 0.3286 0 0 0 0 0 0 0 0 0 0.0225 0.6532 0.3243 0 0 0 0 0 0 0 0 0 0.022 0.652 0.326 0 0 0 0 0 0 0 0 0 0.0226 0.6579 0.3195 0 0 0 0 0 0 0 0 0 0.0234 0.9766 0.5049 0.4944 0.0007 0 0 0 0 0 0 0 0 0.0009 0.4979 0.5002 0.001 0 0 0 0 0 0 0 0 0.0005 0.4991 0.4999 0.0005 0 0 0 0 0 0 0 0 0.0008 0.5061 0.492 0.0011 0 0 0 0 0 0 0 0 0.0002 0.506 0.4932 0.0005999999999999999 0 0 0 0 0 0 0 0 0.0005 0.5069 0.4921 0.0005 0 0 0 0 0 0 0 0 0.0009 0.4975 0.5004 0.0012 0 0 0 0 0 0 0 0 0.0009 0.4899 0.5085 0.0007 0 0 0 0 0 0 0 0 0.0011 0.5069 0.491 0.001 0 0 0 0 0 0 0 0 0.0004 0.5079 0.4917 0 0 0 0 0 0 0 0 0 0.0008 0.9992 0.3172 0.6566 0.0262 0 0 0 0 0 0 0 0 0 0.3249 0.6542 0.0209 0 0 0 0 0 0 0 0 0 0.3275 0.6514 0.0211 0 0 0 0 0 0 0 0 0 0.315 0.6619 0.0231 0 0 0 0 0 0 0 0 0 0.3168 0.6611 0.0221 0 0 0 0 0 0 0 0 0 0.3268 0.6531 0.0201 0 0 0 0 0 0 0 0 0 0.3272 0.65 0.0228 0 0 0 0 0 0 0 0 0 0.3255 0.6533 0.0212 0 0 0 0 0 0 0 0 0 0.3328 0.6482 0.019 0 0 0 0 0 0 0 0 0 0.3187 0.6813 0 0 0 0 0 0 0 0 0 0 1 0.1829 0.7376 0.0795 0 0 0 0 0 0 0 0 0 0.1831 0.7352 0.08169999999999999 0 0 0 0 0 0 0 0 0 0.1845 0.7343 0.08119999999999999 0 0 0 0 0 0 0 0 0 0.1863 0.7341 0.0796 0 0 0 0 0 0 0 0 0 0.18 0.736 0.08400000000000001 0 0 0 0 0 0 0 0 0 0.1825 0.7365 0.081 0 0 0 0 0 0 0 0 0 0.1803 0.7381 0.08160000000000001 0 0 0 0 0 0 0 0 0 0.1835 0.7295 0.08699999999999999 0 0 0 0 0 0 0 0 0 0.1809 0.7402 0.0789 0 0 0 0 0 0 0 0 0 0.1783 0.8217 0 0 0 0 0 0 0 0 0 0 1 0.0818 0.7393 0.1789 0 0 0 0 0 0 0 0 0 0.0861 0.7284 0.1855 0 0 0 0 0 0 0 0 0 0.0844 0.7305 0.1851 0 0 0 0 0 0 0 0 0 0.0776 0.7366 0.1858 0 0 0 0 0 0 0 0 0 0.0798 0.7354000000000001 0.1848 0 0 0 0 0 0 0 0 0 0.0756 0.7441 0.1803 0 0 0 0 0 0 0 0 0 0.0842 0.7403 0.1755 0 0 0 0 0 0 0 0 0 0.0788 0.7358 0.1854 0 0 0 0 0 0 0 0 0 0.083 0.7328 0.1842 0 0 0 0 0 0 0 0 0 0.082 0.918 0 0 0 0 0 0 0 0 0 0 1 0.0227 0.6516999999999999 0.3256 0 0 0 0 0 0 0 0 0 0.0223 0.6582 0.3195 0 0 0 0 0 0 0 0 0 0.0196 0.6526999999999999 0.3277 0 0 0 0 0 0 0 0 0 0.0206 0.6565 0.3229 0 0 0 0 0 0 0 0 0 0.0208 0.6558 0.3234 0 0 0 0 0 0 0 0 0 0.0218 0.6601 0.3181 0 0 0 0 0 0 0 0 0 0.0225 0.6593 0.3182 0 0 0 0 0 0 0 0 0 0.0205 0.6601 0.3194 0 0 0 0 0 0 0 0 0 0.0222 0.6368 0.341 0 0 0 0 0 0 0 0 0 0.0233 0.9767 0 0 0 0 0 0 0 0 0 0 1 0.0011 0.4961 0.502 0.0008 0 0 0 0 0 0 0 0 0.0012 0.4922 0.5059 0.0007 0 0 0 0 0 0 0 0 0.0007 0.5002 0.4985 0.0005999999999999999 0 0 0 0 0 0 0 0 0.0005 0.5004999999999999 0.4984 0.0005999999999999999 0 0 0 0 0 0 0 0 0.0002 0.5007 0.4982 0.0009 0 0 0 0 0 0 0 0 0.0011 0.5067 0.4915 0.0007 0 0 0 0 0 0 0 0 0.0005999999999999999 0.4991 0.4995 0.0008 0 0 0 0 0 0 0 0 0.0013 0.4911 0.507 0.0005999999999999999 0 0 0 0 0 0 0 0 0.0003 0.501 0.4987 0 0 0 0 0 0 0 0 0 0.0007 0.9993 0 0 0 0 0 0 0 0 0 0 1 0 0.3198 0.6568000000000001 0.0234 0 0 0 0 0 0 0 0 0 0.3212 0.6594 0.0194 0 0 0 0 0 0 0 0 0 0.3219 0.6546999999999999 0.0234 0 0 0 0 0 0 0 0 0 0.3157 0.6625 0.0218 0 0 0 0 0 0 0 0 0 0.3161 0.6632 0.0207 0 0 0 0 0 0 0 0 0 0.3275 0.6495 0.023 0 0 0 0 0 0 0 0 0 0.3203 0.6589 0.0208 0 0 0 0 0 0 0 0 0 0.3227 0.6546 0.0227 0 0 0 0 0 0 0 0 0 0.3215 0.6785 0 0 0 0 0 0 0 0 0 0 1 0 0 0 0 0 0 0 0 0 0 1 0 0.182 0.7385 0.0795 0 0 0 0 0 0 0 0 0 0.1836 0.7379 0.0785 0 0 0 0 0 0 0 0 0 0.1798 0.7346 0.0856 0 0 0 0 0 0 0 0 0 0.1768 0.7446 0.0786 0 0 0 0 0 0 0 0 0 0.1891 0.7323 0.0786 0 0 0 0 0 0 0 0 0 0.1782 0.7369 0.0849 0 0 0 0 0 0 0 0 0 0.174 0.7403999999999999 0.0856 0 0 0 0 0 0 0 0 0 0.1711 0.745 0.0839 0 0 0 0 0 0 0 0 0 0.1749 0.8250999999999999 0 0 0 0 0 0 0 0 0 0 1 0 0 0 0 0 0 0 0 0 0 1 0.0838 0.7321 0.1841 0 0 0 0 0 0 0 0 0 0.07480000000000001 0.7373 0.1879 0 0 0 0 0 0 0 0 0 0.08450000000000001 0.7355 0.18 0 0 0 0 0 0 0 0 0 0.0804 0.739 0.1806 0 0 0 0 0 0 0 0 0 0.0798 0.7377 0.1825 0 0 0 0 0 0 0 0 0 0.08260000000000001 0.7324000000000001 0.185 0 0 0 0 0 0 0 0 0 0.0819 0.738 0.1801 0 0 0 0 0 0 0 0 0 0.0813 0.7412 0.1775 0 0 0 0 0 0 0 0 0 0.0798 0.7399 0.1803 0 0 0 0 0 0 0 0 0 0.0837 0.9163 0 0 0 0 0 0 0 0 0 0 1 0.0231 0.6504 0.3265 0 0 0 0 0 0 0 0 0 0.0207 0.6605 0.3188 0 0 0 0 0 0 0 0 0 0.0234 0.6521 0.3245 0 0 0 0 0 0 0 0 0 0.02 0.6554 0.3246 0 0 0 0 0 0 0 0 0 0.0229 0.6661 0.311 0 0 0 0 0 0 0 0 0 0.0216 0.6653 0.3131 0 0 0 0 0 0 0 0 0 0.0228 0.6595 0.3177 0 0 0 0 0 0 0 0 0 0.02 0.6617 0.3183 0 0 0 0 0 0 0 0 0 0.021 0.6542 0.3248 0 0 0 0 0 0 0 0 0 0.0234 0.9766 0 0 0 0 0 0 0 0 0 0 1 0.0003 0.4926 0.5064 0.0007 0 0 0 0 0 0 0 0 0.0011 0.4955 0.5026 0.0008 0 0 0 0 0 0 0 0 0.0005999999999999999 0.5014 0.4973 0.0007 0 0 0 0 0 0 0 0 0.0004 0.4915 0.5068 0.0013 0 0 0 0 0 0 0 0 0.0004 0.4949 0.5041 0.0005999999999999999 0 0 0 0 0 0 0 0 0.0003 0.4915 0.507 0.0012 0 0 0 0 0 0 0 0 0.0013 0.5023 0.4951 0.0013 0 0 0 0 0 0 0 0 0.0008 0.4987 0.4998 0.0007 0 0 0 0 0 0 0 0 0.0016 0.4917 0.5067 0 0 0 0 0 0 0 0 0 0.0007 0.9993 0 0 0 0 0 0 0 0 0 0 1 0 0.3253 0.655 0.0197 0 0 0 0 0 0 0 0 0 0.3285 0.6493 0.0222 0 0 0 0 0 0 0 0 0 0.3206 0.6564 0.023 0 0 0 0 0 0 0 0 0 0.3203 0.6576 0.0221 0 0 0 0 0 0 0 0 0 0.3169 0.6598000000000001 0.0233 0 0 0 0 0 0 0 0 0 0.3192 0.6581 0.0227 0 0 0 0 0 0 0 0 0 0.3171 0.6634 0.0195 0 0 0 0 0 0 0 0 0 0.3179 0.6618000000000001 0.0203 0 0 0 0 0 0 0 0 0 0.3244 0.6756 0 0 0 0 0 0 0 0 0 0 1 0 0 0 0 0 0 0 0 0 0 1 0 0.1814 0.7366 0.082 0 0 0 0 0 0 0 0 0 0.1778 0.7369 0.0853 0 0 0 0 0 0 0 0 0 0.1822 0.7393999999999999 0.0784 0 0 0 0 0 0 0 0 0 0.1791 0.7398 0.08110000000000001 0 0 0 0 0 0 0 0 0 0.1806 0.7314000000000001 0.08799999999999999 0 0 0 0 0 0 0 0 0 0.1792 0.7349 0.0859 0 0 0 0 0 0 0 0 0 0.1789 0.7411 0.08 0 0 0 0 0 0 0 0 0 0.1806 0.737 0.0824 0 0 0 0 0 0 0 0 0 0.1754 0.8246 0 0 0 0 0 0 0 0 0 0 1 0 0 0 0 0 0 0 0 0 0 1 0 0.07489999999999999 0.7457 0.1794 0 0 0 0 0 0 0 0 0 0.0813 0.7372 0.1815 0 0 0 0 0 0 0 0 0 0.0838 0.7371 0.1791 0 0 0 0 0 0 0 0 0 0.0801 0.7378 0.1821 0 0 0 0 0 0 0 0 0 0.0774 0.7399 0.1827 0 0 0 0 0 0 0 0 0 0.0814 0.7353 0.1833 0 0 0 0 0 0 0 0 0 0.0805 0.7335 0.186 0 0 0 0 0 0 0 0 0 0.0813 0.7392 0.1795 0 0 0 0 0 0 0 0 0 0.0813 0.9187 0 0 0 0 0 0 0 0 0 0 1 0 0 0 0 0 0 0 0 0 0 1 0 0.0233 0.6594 0.3173 0 0 0 0 0 0 0 0 0 0.0229 0.6585 0.3186 0 0 0 0 0 0 0 0 0 0.023 0.6552 0.3218 0 0 0 0 0 0 0 0 0 0.0205 0.659 0.3205 0 0 0 0 0 0 0 0 0 0.0241 0.6549 0.321 0 0 0 0 0 0 0 0 0 0.0219 0.6589 0.3192 0 0 0 0 0 0 0 0 0 0.0214 0.6571 0.3215 0 0 0 0 0 0 0 0 0 0.0217 0.6621 0.3162 0 0 0 0 0 0 0 0 0 0.0227 0.9772999999999999 0 0 0 0 0 0 0 0 0 0 1 0 0 0 0 0 0 0 0 0 0 1 0 0.0009 0.5004 0.4976 0.0011 0 0 0 0 0 0 0 0 0.0011 0.4934 0.5042 0.0013 0 0 0 0 0 0 0 0 0.0007 0.4946 0.5041 0.0005999999999999999 0 0 0 0 0 0 0 0 0.0005999999999999999 0.4925 0.5059 0.001 0 0 0 0 0 0 0 0 0.0014 0.4978 0.4996 0.0012 0 0 0 0 0 0 0 0 0.001 0.5012 0.497 0.0008 0 0 0 0 0 0 0 0 0.0009 0.4991 0.4995 0.0005 0 0 0 0 0 0 0 0 0.0007 0.4914 0.5079 0 0 0 0 0 0 0 0 0 0.0007 0.9993 0 0 0 0 0 0 0 0 0 0 1 0 0 0 0 0 0 0 0 0 0 1 0 0 0.3255 0.6522 0.0223 0 0 0 0 0 0 0 0 0 0.3226 0.6555 0.0219 0 0 0 0 0 0 0 0 0 0.3173 0.6604 0.0223 0 0 0 0 0 0 0 0 0 0.3273 0.6503 0.0224 0 0 0 0 0 0 0 0 0 0.3288 0.6493 0.0219 0 0 0 0 0 0 0 0 0 0.3199 0.6578000000000001 0.0223 0 0 0 0 0 0 0 0 0 0.3214 0.6569 0.0217 0 0 0 0 0 0 0 0 0 0.3169 0.6831 0 0 0 0 0 0 0 0 0 0 1 0 0 0 0 0 0 0 0 0 0 1 0 0 0 0 0 0 0 0 0 0 1 0 0 0.1798 0.7438 0.0764 0 0 0 0 0 0 0 0 0 0.1811 0.7377 0.08119999999999999 0 0 0 0 0 0 0 0 0 0.1867 0.7354000000000001 0.0779 0 0 0 0 0 0 0 0 0 0.1794 0.7361 0.08450000000000001 0 0 0 0 0 0 0 0 0 0.1873 0.7313 0.0814 0 0 0 0 0 0 0 0 0 0.18 0.7372 0.0828 0 0 0 0 0 0 0 0 0 0.1791 0.7383 0.08260000000000001 0 0 0 0 0 0 0 0 0 0.1791 0.8209 0 0 0 0 0 0 0 0 0 0 1 0 0 0 0 0 0 0 0 0 0 1 0 0 0 0 0 0 0 0 0 0 1 0 0.0825 0.737 0.1805 0 0 0 0 0 0 0 0 0 0.08019999999999999 0.7357 0.1841 0 0 0 0 0 0 0 0 0 0.0844 0.7357 0.1799 0 0 0 0 0 0 0 0 0 0.0824 0.7374000000000001 0.1802 0 0 0 0 0 0 0 0 0 0.08160000000000001 0.7373 0.1811 0 0 0 0 0 0 0 0 0 0.0808 0.7355 0.1837 0 0 0 0 0 0 0 0 0 0.08459999999999999 0.7325 0.1829 0 0 0 0 0 0 0 0 0 0.0824 0.7401 0.1775 0 0 0 0 0 0 0 0 0 0.0844 0.9156 0 0 0 0 0 0 0 0 0 0 1 0 0 0 0 0 0 0 0 0 0 1 0 0.024 0.6503 0.3257 0 0 0 0 0 0 0 0 0 0.0221 0.6571 0.3208 0 0 0 0 0 0 0 0 0 0.0213 0.6598000000000001 0.3189 0 0 0 0 0 0 0 0 0 0.0212 0.6515 0.3273 0 0 0 0 0 0 0 0 0 0.0213 0.6523 0.3264 0 0 0 0 0 0 0 0 0 0.0209 0.6577 0.3214 0 0 0 0 0 0 0 0 0 0.0202 0.6615 0.3183 0 0 0 0 0 0 0 0 0 0.0214 0.6591 0.3195 0 0 0 0 0 0 0 0 0 0.0224 0.9776 0 0 0 0 0 0 0 0 0 0 1 0 0 0 0 0 0 0 0 0 0 1 0 0.001 0.497 0.5016 0.0004 0 0 0 0 0 0 0 0 0.0005999999999999999 0.5103 0.4883 0.0008 0 0 0 0 0 0 0 0 0.0013 0.4988 0.4991 0.0008 0 0 0 0 0 0 0 0 0.0008 0.5024999999999999 0.4964 0.0003 0 0 0 0 0 0 0 0 0.0012 0.492 0.5062 0.0005999999999999999 0 0 0 0 0 0 0 0 0.0005 0.5089 0.4898 0.0008 0 0 0 0 0 0 0 0 0.0008 0.4968 0.5014999999999999 0.0009 0 0 0 0 0 0 0 0 0.0013 0.5001 0.4986 0 0 0 0 0 0 0 0 0 0.0005999999999999999 0.9994 0 0 0 0 0 0 0 0 0 0 1 0 0 0 0 0 0 0 0 0 0 1 0 0 0.3259 0.6539 0.0202 0 0 0 0 0 0 0 0 0 0.3149 0.6643 0.0208 0 0 0 0 0 0 0 0 0 0.326 0.6531 0.0209 0 0 0 0 0 0 0 0 0 0.3221 0.6564 0.0215 0 0 0 0 0 0 0 0 0 0.3181 0.6592 0.0227 0 0 0 0 0 0 0 0 0 0.3196 0.658 0.0224 0 0 0 0 0 0 0 0 0 0.3148 0.6616 0.0236 0 0 0 0 0 0 0 0 0 0.318 0.6820000000000001 0 0 0 0 0 0 0 0 0 0 1 0 0 0 0 0 0 0 0 0 0 1 0 0 0 0 0 0 0 0 0 0 1 0 0 0.1784 0.7389 0.0827 0 0 0 0 0 0 0 0 0 0.1802 0.7379 0.0819 0 0 0 0 0 0 0 0 0 0.1724 0.741 0.0866 0 0 0 0 0 0 0 0 0 0.1834 0.7358 0.0808 0 0 0 0 0 0 0 0 0 0.1803 0.7418 0.0779 0 0 0 0 0 0 0 0 0 0.1826 0.736 0.0814 0 0 0 0 0 0 0 0 0 0.1819 0.7371 0.081 0 0 0 0 0 0 0 0 0 0.1777 0.8223 0 0 0 0 0 0 0 0 0 0 1 0 0 0 0 0 0 0 0 0 0 1 0 0 0 0 0 0 0 0 0 0 1 0 0 0.0788 0.7393999999999999 0.1818 0 0 0 0 0 0 0 0 0 0.08110000000000001 0.7356 0.1833 0 0 0 0 0 0 0 0 0 0.08069999999999999 0.7407 0.1786 0 0 0 0 0 0 0 0 0 0.08119999999999999 0.7336 0.1852 0 0 0 0 0 0 0 0 0 0.07920000000000001 0.7401 0.1807 0 0 0 0 0 0 0 0 0 0.0795 0.7447 0.1758 0 0 0 0 0 0 0 0 0 0.0822 0.7383999999999999 0.1794 0 0 0 0 0 0 0 0 0 0.0799 0.9201 0 0 0 0 0 0 0 0 0 0 1 0 0 0 0 0 0 0 0 0 0 1 0 0 0 0 0 0 0 0 0 0 1 0 0 0.0183 0.6556 0.3261 0 0 0 0 0 0 0 0 0 0.0207 0.6586 0.3207 0 0 0 0 0 0 0 0 0 0.0235 0.6571 0.3194 0 0 0 0 0 0 0 0 0 0.022 0.6522 0.3258 0 0 0 0 0 0 0 0 0 0.0228 0.6533 0.3239 0 0 0 0 0 0 0 0 0 0.0217 0.65 0.3283 0 0 0 0 0 0 0 0 0 0.0206 0.6476 0.3318 0 0 0 0 0 0 0 0 0 0.0251 0.9749 0 0 0 0 0 0 0 0 0 0 1 0 0 0 0 0 0 0 0 0 0 1 0 0 0 0 0 0 0 0 0 0 1 0 0 0.0013 0.4994 0.4987 0.0005999999999999999 0 0 0 0 0 0 0 0 0.0012 0.5004999999999999 0.4976 0.0007 0 0 0 0 0 0 0 0 0.0007 0.4986 0.4997 0.001 0 0 0 0 0 0 0 0 0.0009 0.5088 0.4893 0.001 0 0 0 0 0 0 0 0 0.0011 0.4945 0.5039 0.0005 0 0 0 0 0 0 0 0 0.001 0.5054999999999999 0.4923 0.0012 0 0 0 0 0 0 0 0 0.0005 0.4941 0.5054 0 0 0 0 0 0 0 0 0 0.0009 0.9991 0 0 0 0 0 0 0 0 0 0 1 0 0 0 0 0 0 0 0 0 0 1 0 0 0 0 0 0 0 0 0 0 1 0 0 0 0.3237 0.6554 0.0209 0 0 0 0 0 0 0 0 0 0.3274 0.652 0.0206 0 0 0 0 0 0 0 0 0 0.319 0.6597 0.0213 0 0 0 0 0 0 0 0 0 0.32 0.6556 0.0244 0 0 0 0 0 0 0 0 0 0.3219 0.6565 0.0216 0 0 0 0 0 0 0 0 0 0.3235 0.6536999999999999 0.0228 0 0 0 0 0 0 0 0 0 0.3174 0.6826 0 0 0 0 0 0 0 0 0 0 1 0 0 0 0 0 0 0 0 0 0 1 0 0 0 0 0 0 0 0 0 0 1 0 0 0 0 0 0 0 0 0 0 1 0 0 0 0.1771 0.7393 0.08359999999999999 0 0 0 0 0 0 0 0 0 0.18 0.7385 0.0815 0 0 0 0 0 0 0 0 0 0.1864 0.7312 0.0824 0 0 0 0 0 0 0 0 0 0.1796 0.736 0.0844 0 0 0 0 0 0 0 0 0 0.1779 0.7381 0.08400000000000001 0 0 0 0 0 0 0 0 0 0.1801 0.7412 0.07870000000000001 0 0 0 0 0 0 0 0 0 0.186 0.8139999999999999 0 0 0 0 0 0 0 0 0 0 1 0 0 0 0 0 0 0 0 0 0 1 0 0 0 0 0 0 0 0 0 0 1 0 0 0 0 0 0 0 0 0 0 1 0 0 0.08260000000000001 0.7425 0.1749 0 0 0 0 0 0 0 0 0 0.0793 0.7409 0.1798 0 0 0 0 0 0 0 0 0 0.0801 0.7358 0.1841 0 0 0 0 0 0 0 0 0 0.0813 0.734 0.1847 0 0 0 0 0 0 0 0 0 0.08599999999999999 0.7391 0.1749 0 0 0 0 0 0 0 0 0 0.0785 0.7347 0.1868 0 0 0 0 0 0 0 0 0 0.0842 0.736 0.1798 0 0 0 0 0 0 0 0 0 0.0809 0.9191 0 0 0 0 0 0 0 0 0 0 1 0 0 0 0 0 0 0 0 0 0 1 0 0 0 0 0 0 0 0 0 0 1 0 0 0.0201 0.656 0.3239 0 0 0 0 0 0 0 0 0 0.02 0.6613 0.3187 0 0 0 0 0 0 0 0 0 0.0224 0.6513 0.3263 0 0 0 0 0 0 0 0 0 0.0223 0.6602 0.3175 0 0 0 0 0 0 0 0 0 0.0231 0.661 0.3159 0 0 0 0 0 0 0 0 0 0.0192 0.6596 0.3212 0 0 0 0 0 0 0 0 0 0.0217 0.6599 0.3184 0 0 0 0 0 0 0 0 0 0.0216 0.9784 0 0 0 0 0 0 0 0 0 0 1 0 0 0 0 0 0 0 0 0 0 1 0 0 0 0 0 0 0 0 0 0 1 0 0 0.001 0.4993 0.4992 0.0005 0 0 0 0 0 0 0 0 0.0011 0.4942 0.5036 0.0011 0 0 0 0 0 0 0 0 0.0008 0.5062 0.4925 0.0005 0 0 0 0 0 0 0 0 0.0007 0.5095 0.4892 0.0005999999999999999 0 0 0 0 0 0 0 0 0.0007 0.5024999999999999 0.4963 0.0005 0 0 0 0 0 0 0 0 0.001 0.4944 0.5039 0.0007 0 0 0 0 0 0 0 0 0.0008 0.4905 0.5087 0 0 0 0 0 0 0 0 0 0.0003 0.9997 0 0 0 0 0 0 0 0 0 0 1 0 0 0 0 0 0 0 0 0 0 1 0 0 0 0 0 0 0 0 0 0 1 0 0 0 0.3189 0.6569 0.0242 0 0 0 0 0 0 0 0 0 0.319 0.6592 0.0218 0 0 0 0 0 0 0 0 0 0.3147 0.6637 0.0216 0 0 0 0 0 0 0 0 0 0.3197 0.6583 0.022 0 0 0 0 0 0 0 0 0 0.3233 0.6542 0.0225 0 0 0 0 0 0 0 0 0 0.3226 0.656 0.0214 0 0 0 0 0 0 0 0 0 0.3191 0.6808999999999999 0 0 0 0 0 0 0 0 0 0 1 0 0 0 0 0 0 0 0 0 0 1 0 0 0 0 0 0 0 0 0 0 1 0 0 0 0 0 0 0 0 0 0 1 0 0 0 0.1829 0.738 0.0791 0 0 0 0 0 0 0 0 0 0.1818 0.7337 0.08450000000000001 0 0 0 0 0 0 0 0 0 0.173 0.7407 0.0863 0 0 0 0 0 0 0 0 0 0.1721 0.7481 0.0798 0 0 0 0 0 0 0 0 0 0.1901 0.7296 0.0803 0 0 0 0 0 0 0 0 0 0.1793 0.7375 0.0832 0 0 0 0 0 0 0 0 0 0.1877 0.8123 0 0 0 0 0 0 0 0 0 0 1 0 0 0 0 0 0 0 0 0 0 1 0 0 0 0 0 0 0 0 0 0 1 0 0 0 0 0 0 0 0 0 0 1 0 0 0 0.0818 0.7359 0.1823 0 0 0 0 0 0 0 0 0 0.0837 0.7312 0.1851 0 0 0 0 0 0 0 0 0 0.0834 0.7366 0.18 0 0 0 0 0 0 0 0 0 0.0795 0.7325 0.188 0 0 0 0 0 0 0 0 0 0.0752 0.736 0.1888 0 0 0 0 0 0 0 0 0 0.0838 0.7382 0.178 0 0 0 0 0 0 0 0 0 0.08210000000000001 0.9179 0 0 0 0 0 0 0 0 0 0 1 0 0 0 0 0 0 0 0 0 0 1 0 0 0 0 0 0 0 0 0 0 1 0 0 0 0 0 0 0 0 0 0 1 0 0 0 0.0208 0.6589 0.3203 0 0 0 0 0 0 0 0 0 0.0192 0.6599 0.3209 0 0 0 0 0 0 0 0 0 0.0196 0.6551 0.3253 0 0 0 0 0 0 0 0 0 0.021 0.6525 0.3265 0 0 0 0 0 0 0 0 0 0.0236 0.6487000000000001 0.3277 0 0 0 0 0 0 0 0 0 0.0204 0.6515 0.3281 0 0 0 0 0 0 0 0 0 0.0241 0.9759 0 0 0 0 0 0 0 0 0 0 1 0 0 0 0 0 0 0 0 0 0 1 0 0 0 0 0 0 0 0 0 0 1 0 0 0 0 0 0 0 0 0 0 1 0 0 0 0.0011 0.4986 0.4996 0.0007 0 0 0 0 0 0 0 0 0.0012 0.5007 0.4975 0.0005999999999999999 0 0 0 0 0 0 0 0 0.0012 0.49 0.5077 0.0011 0 0 0 0 0 0 0 0 0.0009 0.5007 0.4981 0.0003 0 0 0 0 0 0 0 0 0.0005 0.5057 0.4928 0.001 0 0 0 0 0 0 0 0 0.0007 0.4912 0.5081 0 0 0 0 0 0 0 0 0 0.0009 0.9991 0 0 0 0 0 0 0 0 0 0 1 0 0 0 0 0 0 0 0 0 0 1 0 0 0 0 0 0 0 0 0 0 1 0 0 0 0 0 0 0 0 0 0 1 0 0 0 0 0.3256 0.6545 0.0199 0 0 0 0 0 0 0 0 0 0.3239 0.6521 0.024 0 0 0 0 0 0 0 0 0 0.324 0.6546999999999999 0.0213 0 0 0 0 0 0 0 0 0 0.3296 0.6512 0.0192 0 0 0 0 0 0 0 0 0 0.3238 0.6555 0.0207 0 0 0 0 0 0 0 0 0 0.3168 0.6832 0 0 0 0 0 0 0 0 0 0 1 0 0 0 0 0 0 0 0 0 0 1 0 0 0 0 0 0 0 0 0 0 1 0 0 0 0 0 0 0 0 0 0 1 0 0 0 0 0 0 0 0 0 0 1 0 0 0 0 0.1785 0.7375 0.08400000000000001 0 0 0 0 0 0 0 0 0 0.1815 0.7393999999999999 0.0791 0 0 0 0 0 0 0 0 0 0.1797 0.7412 0.0791 0 0 0 0 0 0 0 0 0 0.1835 0.7342 0.0823 0 0 0 0 0 0 0 0 0 0.1773 0.7377 0.08500000000000001 0 0 0 0 0 0 0 0 0 0.1732 0.8268 0 0 0 0 0 0 0 0 0 0 1 0 0 0 0 0 0 0 0 0 0 1 0 0 0 0 0 0 0 0 0 0 1 0 0 0 0 0 0 0 0 0 0 1 0 0 0 0 0 0 0 0 0 0 1 0 0 0 0.07729999999999999 0.7449 0.1778 0 0 0 0 0 0 0 0 0 0.0842 0.7356 0.1802 0 0 0 0 0 0 0 0 0 0.0795 0.741 0.1795 0 0 0 0 0 0 0 0 0 0.0823 0.7375 0.1802 0 0 0 0 0 0 0 0 0 0.0805 0.7403 0.1792 0 0 0 0 0 0 0 0 0 0.0883 0.7374000000000001 0.1743 0 0 0 0 0 0 0 0 0 0.08210000000000001 0.9179 0 0 0 0 0 0 0 0 0 0 1 0 0 0 0 0 0 0 0 0 0 1 0 0 0 0 0 0 0 0 0 0 1 0 0 0 0 0 0 0 0 0 0 1 0 0 0 0.0177 0.6529 0.3294 0 0 0 0 0 0 0 0 0 0.0247 0.6598000000000001 0.3155 0 0 0 0 0 0 0 0 0 0.0197 0.6543 0.326 0 0 0 0 0 0 0 0 0 0.0192 0.6536999999999999 0.3271 0 0 0 0 0 0 0 0 0 0.0218 0.6552 0.323 0 0 0 0 0 0 0 0 0 0.0208 0.6576 0.3216 0 0 0 0 0 0 0 0 0 0.0202 0.9798 0 0 0 0 0 0 0 0 0 0 1 0 0 0 0 0 0 0 0 0 0 1 0 0 0 0 0 0 0 0 0 0 1 0 0 0 0 0 0 0 0 0 0 1 0 0 0 0.0009 0.5004999999999999 0.4979 0.0007 0 0 0 0 0 0 0 0 0.0005999999999999999 0.5028 0.496 0.0005999999999999999 0 0 0 0 0 0 0 0 0.001 0.4973 0.5013 0.0004 0 0 0 0 0 0 0 0 0.001 0.492 0.5066000000000001 0.0004 0 0 0 0 0 0 0 0 0.0004 0.4936 0.5054 0.0005999999999999999 0 0 0 0 0 0 0 0 0.0005999999999999999 0.506 0.4934 0 0 0 0 0 0 0 0 0 0.0007 0.9993 0 0 0 0 0 0 0 0 0 0 1 0 0 0 0 0 0 0 0 0 0 1 0 0 0 0 0 0 0 0 0 0 1 0 0 0 0 0 0 0 0 0 0 1 0 0 0 0 0.3174 0.6592 0.0234 0 0 0 0 0 0 0 0 0 0.3228 0.6561 0.0211 0 0 0 0 0 0 0 0 0 0.3228 0.6553 0.0219 0 0 0 0 0 0 0 0 0 0.3212 0.6562 0.0226 0 0 0 0 0 0 0 0 0 0.3176 0.6625 0.0199 0 0 0 0 0 0 0 0 0 0.3221 0.6778999999999999 0 0 0 0 0 0 0 0 0 0 1 0 0 0 0 0 0 0 0 0 0 1 0 0 0 0 0 0 0 0 0 0 1 0 0 0 0 0 0 0 0 0 0 1 0 0 0 0 0 0 0 0 0 0 1 0 0 0 0 0.1798 0.7406 0.0796 0 0 0 0 0 0 0 0 0 0.1817 0.7388 0.0795 0 0 0 0 0 0 0 0 0 0.1826 0.7379 0.0795 0 0 0 0 0 0 0 0 0 0.1902 0.7286 0.08119999999999999 0 0 0 0 0 0 0 0 0 0.1868 0.7294 0.0838 0 0 0 0 0 0 0 0 0 0.1796 0.8204 0 0 0 0 0 0 0 0 0 0 1 0 0 0 0 0 0 0 0 0 0 1 0 0 0 0 0 0 0 0 0 0 1 0 0 0 0 0 0 0 0 0 0 1 0 0 0 0 0 0 0 0 0 0 1 0 0 0 0 0.08119999999999999 0.7361 0.1827 0 0 0 0 0 0 0 0 0 0.0789 0.7425 0.1786 0 0 0 0 0 0 0 0 0 0.08459999999999999 0.7326 0.1828 0 0 0 0 0 0 0 0 0 0.08459999999999999 0.7338 0.1816 0 0 0 0 0 0 0 0 0 0.076 0.7372 0.1868 0 0 0 0 0 0 0 0 0 0.0784 0.9216 0 0 0 0 0 0 0 0 0 0 1 0 0 0 0 0 0 0 0 0 0 1 0 0 0 0 0 0 0 0 0 0 1 0 0 0 0 0 0 0 0 0 0 1 0 0 0 0 0 0 0 0 0 0 1 0 0 0 0 0.0231 0.6552 0.3217 0 0 0 0 0 0 0 0 0 0.0233 0.6642 0.3125 0 0 0 0 0 0 0 0 0 0.0221 0.6548 0.3231 0 0 0 0 0 0 0 0 0 0.0215 0.6538 0.3247 0 0 0 0 0 0 0 0 0 0.022 0.6685 0.3095 0 0 0 0 0 0 0 0 0 0.0214 0.9786 0 0 0 0 0 0 0 0 0 0 1 0 0 0 0 0 0 0 0 0 0 1 0 0 0 0 0 0 0 0 0 0 1 0 0 0 0 0 0 0 0 0 0 1 0 0 0 0 0 0 0 0 0 0 1 0 0 0 0 0.0002 0.4948 0.5044 0.0005999999999999999 0 0 0 0 0 0 0 0 0.0009 0.4964 0.502 0.0007 0 0 0 0 0 0 0 0 0.0007 0.4957 0.5027 0.0009 0 0 0 0 0 0 0 0 0.0009 0.4885 0.5093 0.0013 0 0 0 0 0 0 0 0 0.0005999999999999999 0.5027 0.4967 0 0 0 0 0 0 0 0 0 0.0007 0.9993 0 0 0 0 0 0 0 0 0 0 1 0 0 0 0 0 0 0 0 0 0 1 0 0 0 0 0 0 0 0 0 0 1 0 0 0 0 0 0 0 0 0 0 1 0 0 0 0 0 0 0 0 0 0 1 0 0 0 0 0 0.326 0.6546999999999999 0.0193 0 0 0 0 0 0 0 0 0 0.3201 0.6597 0.0202 0 0 0 0 0 0 0 0 0 0.3176 0.6623 0.0201 0 0 0 0 0 0 0 0 0 0.3251 0.6526 0.0223 0 0 0 0 0 0 0 0 0 0.3206 0.6794 0 0 0 0 0 0 0 0 0 0 1 0 0 0 0 0 0 0 0 0 0 1 0 0 0 0 0 0 0 0 0 0 1 0 0 0 0 0 0 0 0 0 0 1 0 0 0 0 0 0 0 0 0 0 1 0 0 0 0 0 0 0 0 0 0 1 0 0 0 0 0 0.1765 0.7433 0.08019999999999999 0 0 0 0 0 0 0 0 0 0.1786 0.7333 0.0881 0 0 0 0 0 0 0 0 0 0.1799 0.7353 0.0848 0 0 0 0 0 0 0 0 0 0.184 0.7364000000000001 0.0796 0 0 0 0 0 0 0 0 0 0.1809 0.8191000000000001 0 0 0 0 0 0 0 0 0 0 1 0 0 0 0 0 0 0 0 0 0 1 0 0 0 0 0 0 0 0 0 0 1 0 0 0 0 0 0 0 0 0 0 1 0 0 0 0 0 0 0 0 0 0 1 0 0 0 0 0 0 0 0 0 0 1 0 0 0 0 0.0804 0.7351 0.1845 0 0 0 0 0 0 0 0 0 0.0756 0.7356 0.1888 0 0 0 0 0 0 0 0 0 0.08260000000000001 0.7359 0.1815 0 0 0 0 0 0 0 0 0 0.0819 0.7319 0.1862 0 0 0 0 0 0 0 0 0 0.081 0.7339 0.1851 0 0 0 0 0 0 0 0 0 0.0863 0.9137 0 0 0 0 0 0 0 0 0 0 1 0 0 0 0 0 0 0 0 0 0 1 0 0 0 0 0 0 0 0 0 0 1 0 0 0 0 0 0 0 0 0 0 1 0 0 0 0 0 0 0 0 0 0 1 0 0 0 0 0.0205 0.6599 0.3196 0 0 0 0 0 0 0 0 0 0.0237 0.6616 0.3147 0 0 0 0 0 0 0 0 0 0.0202 0.6618000000000001 0.318 0 0 0 0 0 0 0 0 0 0.0221 0.6567 0.3212 0 0 0 0 0 0 0 0 0 0.0212 0.6604 0.3184 0 0 0 0 0 0 0 0 0 0.0243 0.9757 0 0 0 0 0 0 0 0 0 0 1 0 0 0 0 0 0 0 0 0 0 1 0 0 0 0 0 0 0 0 0 0 1 0 0 0 0 0 0 0 0 0 0 1 0 0 0 0 0 0 0 0 0 0 1 0 0 0 0 0.0013 0.4943 0.5034999999999999 0.0009 0 0 0 0 0 0 0 0 0.0007 0.4996 0.4983 0.0014 0 0 0 0 0 0 0 0 0.0012 0.4963 0.5016 0.0009 0 0 0 0 0 0 0 0 0.0003 0.4969 0.5024999999999999 0.0003 0 0 0 0 0 0 0 0 0.0004 0.5004 0.4992 0 0 0 0 0 0 0 0 0 0.0012 0.9988 0 0 0 0 0 0 0 0 0 0 1 0 0 0 0 0 0 0 0 0 0 1 0 0 0 0 0 0 0 0 0 0 1 0 0 0 0 0 0 0 0 0 0 1 0 0 0 0 0 0 0 0 0 0 1 0 0 0 0 0 0.3195 0.6551 0.0254 0 0 0 0 0 0 0 0 0 0.3292 0.6516 0.0192 0 0 0 0 0 0 0 0 0 0.3223 0.6568000000000001 0.0209 0 0 0 0 0 0 0 0 0 0.3213 0.658 0.0207 0 0 0 0 0 0 0 0 0 0.3221 0.6778999999999999 0 0 0 0 0 0 0 0 0 0 1 0 0 0 0 0 0 0 0 0 0 1 0 0 0 0 0 0 0 0 0 0 1 0 0 0 0 0 0 0 0 0 0 1 0 0 0 0 0 0 0 0 0 0 1 0 0 0 0 0 0 0 0 0 0 1 0 0 0 0 0 0.1822 0.7383999999999999 0.0794 0 0 0 0 0 0 0 0 0 0.1881 0.732 0.0799 0 0 0 0 0 0 0 0 0 0.1821 0.7392 0.07870000000000001 0 0 0 0 0 0 0 0 0 0.1806 0.7403999999999999 0.079 0 0 0 0 0 0 0 0 0 0.1754 0.8246 0 0 0 0 0 0 0 0 0 0 1 0 0 0 0 0 0 0 0 0 0 1 0 0 0 0 0 0 0 0 0 0 1 0 0 0 0 0 0 0 0 0 0 1 0 0 0 0 0 0 0 0 0 0 1 0 0 0 0 0 0 0 0 0 0 1 0 0 0 0 0 0.0828 0.7416 0.1756 0 0 0 0 0 0 0 0 0 0.0799 0.7409 0.1792 0 0 0 0 0 0 0 0 0 0.0842 0.7447 0.1711 0 0 0 0 0 0 0 0 0 0.0862 0.7285 0.1853 0 0 0 0 0 0 0 0 0 0.0834 0.9166 0 0 0 0 0 0 0 0 0 0 1 0 0 0 0 0 0 0 0 0 0 1 0 0 0 0 0 0 0 0 0 0 1 0 0 0 0 0 0 0 0 0 0 1 0 0 0 0 0 0 0 0 0 0 1 0 0 0 0 0 0 0 0 0 0 1 0 0 0 0 0 0.0187 0.6579 0.3234 0 0 0 0 0 0 0 0 0 0.0211 0.6598000000000001 0.3191 0 0 0 0 0 0 0 0 0 0.0222 0.6637999999999999 0.314 0 0 0 0 0 0 0 0 0 0.0222 0.656 0.3218 0 0 0 0 0 0 0 0 0 0.0213 0.9787 0 0 0 0 0 0 0 0 0 0 1 0 0 0 0 0 0 0 0 0 0 1 0 0 0 0 0 0 0 0 0 0 1 0 0 0 0 0 0 0 0 0 0 1 0 0 0 0 0 0 0 0 0 0 1 0 0 0 0 0 0 0 0 0 0 1 0 0 0 0 0 0.0009 0.4989 0.4989 0.0013 0 0 0 0 0 0 0 0 0.0014 0.5002 0.4977 0.0007 0 0 0 0 0 0 0 0 0.0007 0.4926 0.5057 0.001 0 0 0 0 0 0 0 0 0.0007 0.4934 0.5059 0 0 0 0 0 0 0 0 0 0.0007 0.9993 0 0 0 0 0 0 0 0 0 0 1 0 0 0 0 0 0 0 0 0 0 1 0 0 0 0 0 0 0 0 0 0 1 0 0 0 0 0 0 0 0 0 0 1 0 0 0 0 0 0 0 0 0 0 1 0 0 0 0 0 0 0 0 0 0 1 0 0 0 0 0 0 0.3226 0.6526 0.0248 0 0 0 0 0 0 0 0 0 0.3194 0.6606 0.02 0 0 0 0 0 0 0 0 0 0.3226 0.6571 0.0203 0 0 0 0 0 0 0 0 0 0.3274 0.6726 0 0 0 0 0 0 0 0 0 0 1 0 0 0 0 0 0 0 0 0 0 1 0 0 0 0 0 0 0 0 0 0 1 0 0 0 0 0 0 0 0 0 0 1 0 0 0 0 0 0 0 0 0 0 1 0 0 0 0 0 0 0 0 0 0 1 0 0 0 0 0 0 0 0 0 0 1 0 0 0 0 0 0 0.1875 0.7354000000000001 0.0771 0 0 0 0 0 0 0 0 0 0.1803 0.7393 0.0804 0 0 0 0 0 0 0 0 0 0.1807 0.7411 0.07820000000000001 0 0 0 0 0 0 0 0 0 0.1782 0.8218 0 0 0 0 0 0 0 0 0 0 1 0 0 0 0 0 0 0 0 0 0 1 0 0 0 0 0 0 0 0 0 0 1 0 0 0 0 0 0 0 0 0 0 1 0 0 0 0 0 0 0 0 0 0 1 0 0 0 0 0 0 0 0 0 0 1 0 0 0 0 0 0 0 0 0 0 1 0 0 0 0 0 0.0829 0.7386 0.1785 0 0 0 0 0 0 0 0 0 0.0809 0.7311 0.188 0 0 0 0 0 0 0 0 0 0.0834 0.7274 0.1892 0 0 0 0 0 0 0 0 0 0.0798 0.7392 0.181 0 0 0 0 0 0 0 0 0 0.0772 0.9228 0 0 0 0 0 0 0 0 0 0 1 0 0 0 0 0 0 0 0 0 0 1 0 0 0 0 0 0 0 0 0 0 1 0 0 0 0 0 0 0 0 0 0 1 0 0 0 0 0 0 0 0 0 0 1 0 0 0 0 0 0 0 0 0 0 1 0 0 0 0 0 0.022 0.6624 0.3156 0 0 0 0 0 0 0 0 0 0.0201 0.6639 0.316 0 0 0 0 0 0 0 0 0 0.0197 0.6625 0.3178 0 0 0 0 0 0 0 0 0 0.0235 0.6499 0.3266 0 0 0 0 0 0 0 0 0 0.0206 0.9794 0 0 0 0 0 0 0 0 0 0 1 0 0 0 0 0 0 0 0 0 0 1 0 0 0 0 0 0 0 0 0 0 1 0 0 0 0 0 0 0 0 0 0 1 0 0 0 0 0 0 0 0 0 0 1 0 0 0 0 0 0 0 0 0 0 1 0 0 0 0 0 0.0005999999999999999 0.499 0.4996 0.0008 0 0 0 0 0 0 0 0 0.001 0.4997 0.4982 0.0011 0 0 0 0 0 0 0 0 0.0007 0.484 0.514 0.0013 0 0 0 0 0 0 0 0 0.0008 0.4945 0.5047 0 0 0 0 0 0 0 0 0 0.0005 0.9995000000000001 0 0 0 0 0 0 0 0 0 0 1 0 0 0 0 0 0 0 0 0 0 1 0 0 0 0 0 0 0 0 0 0 1 0 0 0 0 0 0 0 0 0 0 1 0 0 0 0 0 0 0 0 0 0 1 0 0 0 0 0 0 0 0 0 0 1 0 0 0 0 0 0 0.3153 0.6599 0.0248 0 0 0 0 0 0 0 0 0 0.313 0.664 0.023 0 0 0 0 0 0 0 0 0 0.327 0.6516 0.0214 0 0 0 0 0 0 0 0 0 0.3141 0.6859 0 0 0 0 0 0 0 0 0 0 1 0 0 0 0 0 0 0 0 0 0 1 0 0 0 0 0 0 0 0 0 0 1 0 0 0 0 0 0 0 0 0 0 1 0 0 0 0 0 0 0 0 0 0 1 0 0 0 0 0 0 0 0 0 0 1 0 0 0 0 0 0 0 0 0 0 1 0 0 0 0 0 0 0.1795 0.7375 0.083 0 0 0 0 0 0 0 0 0 0.186 0.7317 0.0823 0 0 0 0 0 0 0 0 0 0.1821 0.7341 0.0838 0 0 0 0 0 0 0 0 0 0.1845 0.8155 0 0 0 0 0 0 0 0 0 0 1 0 0 0 0 0 0 0 0 0 0 1 0 0 0 0 0 0 0 0 0 0 1 0 0 0 0 0 0 0 0 0 0 1 0 0 0 0 0 0 0 0 0 0 1 0 0 0 0 0 0 0 0 0 0 1 0 0 0 0 0 0 0 0 0 0 1 0 0 0 0 0 0 0.08309999999999999 0.7429 0.174 0 0 0 0 0 0 0 0 0 0.08 0.7372 0.1828 0 0 0 0 0 0 0 0 0 0.0815 0.7446 0.1739 0 0 0 0 0 0 0 0 0 0.08160000000000001 0.9184 0 0 0 0 0 0 0 0 0 0 1 0 0 0 0 0 0 0 0 0 0 1 0 0 0 0 0 0 0 0 0 0 1 0 0 0 0 0 0 0 0 0 0 1 0 0 0 0 0 0 0 0 0 0 1 0 0 0 0 0 0 0 0 0 0 1 0 0 0 0 0 0 0 0 0 0 1 0 0 0 0 0 0 0.019 0.668 0.313 0 0 0 0 0 0 0 0 0 0.0233 0.6496 0.3271 0 0 0 0 0 0 0 0 0 0.0213 0.6556999999999999 0.323 0 0 0 0 0 0 0 0 0 0.0203 0.9797 0 0 0 0 0 0 0 0 0 0 1 0 0 0 0 0 0 0 0 0 0 1 0 0 0 0 0 0 0 0 0 0 1 0 0 0 0 0 0 0 0 0 0 1 0 0 0 0 0 0 0 0 0 0 1 0 0 0 0 0 0 0 0 0 0 1 0 0 0 0 0 0 0 0 0 0 1 0 0 0 0 0 0 0.0001 0.5084 0.4902 0.0013 0 0 0 0 0 0 0 0 0.0007 0.4963 0.5023 0.0007 0 0 0 0 0 0 0 0 0.0003 0.5028 0.4969 0 0 0 0 0 0 0 0 0 0.001 0.999 0 0 0 0 0 0 0 0 0 0 1 0 0 0 0 0 0 0 0 0 0 1 0 0 0 0 0 0 0 0 0 0 1 0 0 0 0 0 0 0 0 0 0 1 0 0 0 0 0 0 0 0 0 0 1 0 0 0 0 0 0 0 0 0 0 1 0 0 0 0 0 0 0 0 0 0 1 0 0 0 0 0 0 0 0.3305 0.6478 0.0217 0 0 0 0 0 0 0 0 0 0.3242 0.6553 0.0205 0 0 0 0 0 0 0 0 0 0.3259 0.6741 0 0 0 0 0 0 0 0 0 0 1 0 0 0 0 0 0 0 0 0 0 1 0 0 0 0 0 0 0 0 0 0 1 0 0 0 0 0 0 0 0 0 0 1 0 0 0 0 0 0 0 0 0 0 1 0 0 0 0 0 0 0 0 0 0 1 0 0 0 0 0 0 0 0 0 0 1 0 0 0 0 0 0 0 0 0 0 1 0 0 0 0 0 0 0 0.1811 0.7397 0.07920000000000001 0 0 0 0 0 0 0 0 0 0.1886 0.729 0.0824 0 0 0 0 0 0 0 0 0 0.1822 0.8178 0 0 0 0 0 0 0 0 0 0 1 0 0 0 0 0 0 0 0 0 0 1 0 0 0 0 0 0 0 0 0 0 1 0 0 0 0 0 0 0 0 0 0 1 0 0 0 0 0 0 0 0 0 0 1 0 0 0 0 0 0 0 0 0 0 1 0 0 0 0 0 0 0 0 0 0 1 0 0 0 0 0 0 0 0 0 0 1 0 0 0 0 0 0 0.077 0.7366 0.1864 0 0 0 0 0 0 0 0 0 0.0762 0.7456 0.1782 0 0 0 0 0 0 0 0 0 0.08450000000000001 0.732 0.1835 0 0 0 0 0 0 0 0 0 0.0827 0.9173 0 0 0 0 0 0 0 0 0 0 1 0 0 0 0 0 0 0 0 0 0 1 0 0 0 0 0 0 0 0 0 0 1 0 0 0 0 0 0 0 0 0 0 1 0 0 0 0 0 0 0 0 0 0 1 0 0 0 0 0 0 0 0 0 0 1 0 0 0 0 0 0 0 0 0 0 1 0 0 0 0 0 0 0.0227 0.6589 0.3184 0 0 0 0 0 0 0 0 0 0.0209 0.6591 0.32 0 0 0 0 0 0 0 0 0 0.0219 0.6608000000000001 0.3173 0 0 0 0 0 0 0 0 0 0.0242 0.9758 0 0 0 0 0 0 0 0 0 0 1 0 0 0 0 0 0 0 0 0 0 1 0 0 0 0 0 0 0 0 0 0 1 0 0 0 0 0 0 0 0 0 0 1 0 0 0 0 0 0 0 0 0 0 1 0 0 0 0 0 0 0 0 0 0 1 0 0 0 0 0 0 0 0 0 0 1 0 0 0 0 0 0 0.0012 0.5008 0.4974 0.0005999999999999999 0 0 0 0 0 0 0 0 0.001 0.4901 0.5072 0.0017 0 0 0 0 0 0 0 0 0.0005 0.5007 0.4988 0 0 0 0 0 0 0 0 0 0.0008 0.9992 0 0 0 0 0 0 0 0 0 0 1 0 0 0 0 0 0 0 0 0 0 1 0 0 0 0 0 0 0 0 0 0 1 0 0 0 0 0 0 0 0 0 0 1 0 0 0 0 0 0 0 0 0 0 1 0 0 0 0 0 0 0 0 0 0 1 0 0 0 0 0 0 0 0 0 0 1 0 0 0 0 0 0 0 0.3242 0.6526 0.0232 0 0 0 0 0 0 0 0 0 0.3156 0.6576 0.0268 0 0 0 0 0 0 0 0 0 0.3283 0.6717 0 0 0 0 0 0 0 0 0 0 1 0 0 0 0 0 0 0 0 0 0 1 0 0 0 0 0 0 0 0 0 0 1 0 0 0 0 0 0 0 0 0 0 1 0 0 0 0 0 0 0 0 0 0 1 0 0 0 0 0 0 0 0 0 0 1 0 0 0 0 0 0 0 0 0 0 1 0 0 0 0 0 0 0 0 0 0 1 0 0 0 0 0 0 0 0.1821 0.7389 0.079 0 0 0 0 0 0 0 0 0 0.188 0.7274 0.08459999999999999 0 0 0 0 0 0 0 0 0 0.1816 0.8184 0 0 0 0 0 0 0 0 0 0 1 0 0 0 0 0 0 0 0 0 0 1 0 0 0 0 0 0 0 0 0 0 1 0 0 0 0 0 0 0 0 0 0 1 0 0 0 0 0 0 0 0 0 0 1 0 0 0 0 0 0 0 0 0 0 1 0 0 0 0 0 0 0 0 0 0 1 0 0 0 0 0 0 0 0 0 0 1 0 0 0 0 0 0 0 0.0819 0.7312 0.1869 0 0 0 0 0 0 0 0 0 0.083 0.7405 0.1765 0 0 0 0 0 0 0 0 0 0.0842 0.9157999999999999 0 0 0 0 0 0 0 0 0 0 1 0 0 0 0 0 0 0 0 0 0 1 0 0 0 0 0 0 0 0 0 0 1 0 0 0 0 0 0 0 0 0 0 1 0 0 0 0 0 0 0 0 0 0 1 0 0 0 0 0 0 0 0 0 0 1 0 0 0 0 0 0 0 0 0 0 1 0 0 0 0 0 0 0 0 0 0 1 0 0 0 0 0 0 0 0.0204 0.6622 0.3174 0 0 0 0 0 0 0 0 0 0.0194 0.6572 0.3234 0 0 0 0 0 0 0 0 0 0.0217 0.9782999999999999 0 0 0 0 0 0 0 0 0 0 1 0 0 0 0 0 0 0 0 0 0 1 0 0 0 0 0 0 0 0 0 0 1 0 0 0 0 0 0 0 0 0 0 1 0 0 0 0 0 0 0 0 0 0 1 0 0 0 0 0 0 0 0 0 0 1 0 0 0 0 0 0 0 0 0 0 1 0 0 0 0 0 0 0 0 0 0 1 0 0 0 0 0 0 0 0.0014 0.4979 0.5002 0.0005 0 0 0 0 0 0 0 0 0.0009 0.492 0.5071 0 0 0 0 0 0 0 0 0 0.001 0.999 0 0 0 0 0 0 0 0 0 0 1 0 0 0 0 0 0 0 0 0 0 1 0 0 0 0 0 0 0 0 0 0 1 0 0 0 0 0 0 0 0 0 0 1 0 0 0 0 0 0 0 0 0 0 1 0 0 0 0 0 0 0 0 0 0 1 0 0 0 0 0 0 0 0 0 0 1 0 0 0 0 0 0 0 0 0 0 1 0 0 0 0 0 0 0 0 0.3243 0.655 0.0207 0 0 0 0 0 0 0 0 0 0.3196 0.6804 0 0 0 0 0 0 0 0 0 0 1 0 0 0 0 0 0 0 0 0 0 1 0 0 0 0 0 0 0 0 0 0 1 0 0 0 0 0 0 0 0 0 0 1 0 0 0 0 0 0 0 0 0 0 1 0 0 0 0 0 0 0 0 0 0 1 0 0 0 0 0 0 0 0 0 0 1 0 0 0 0 0 0 0 0 0 0 1 0 0 0 0 0 0 0 0 0 0 1 0 0 0 0 0 0 0 0 0.1786 0.7423 0.0791 0 0 0 0 0 0 0 0 0 0.1817 0.8183 0 0 0 0 0 0 0 0 0 0 1 0 0 0 0 0 0 0 0 0 0 1 0 0 0 0 0 0 0 0 0 0 1 0 0 0 0 0 0 0 0 0 0 1 0 0 0 0 0 0 0 0 0 0 1 0 0 0 0 0 0 0 0 0 0 1 0 0 0 0 0 0 0 0 0 0 1 0 0 0 0 0 0 0 0 0 0 1 0 0 0 0 0 0 0 0 0 0 1 0 0 0 0 0 0 0 0.0762 0.7398 0.184 0 0 0 0 0 0 0 0 0 0.0798 0.7395 0.1807 0 0 0 0 0 0 0 0 0 0.0806 0.9194 0 0 0 0 0 0 0 0 0 0 1 0 0 0 0 0 0 0 0 0 0 1 0 0 0 0 0 0 0 0 0 0 1 0 0 0 0 0 0 0 0 0 0 1 0 0 0 0 0 0 0 0 0 0 1 0 0 0 0 0 0 0 0 0 0 1 0 0 0 0 0 0 0 0 0 0 1 0 0 0 0 0 0 0 0 0 0 1 0 0 0 0 0 0 0 0.0219 0.6581 0.32 0 0 0 0 0 0 0 0 0 0.0224 0.657 0.3206 0 0 0 0 0 0 0 0 0 0.021 0.979 0 0 0 0 0 0 0 0 0 0 1 0 0 0 0 0 0 0 0 0 0 1 0 0 0 0 0 0 0 0 0 0 1 0 0 0 0 0 0 0 0 0 0 1 0 0 0 0 0 0 0 0 0 0 1 0 0 0 0 0 0 0 0 0 0 1 0 0 0 0 0 0 0 0 0 0 1 0 0 0 0 0 0 0 0 0 0 1 0 0 0 0 0 0 0 0.0009 0.504 0.4945 0.0005999999999999999 0 0 0 0 0 0 0 0 0.0012 0.4947 0.5041 0 0 0 0 0 0 0 0 0 0.0011 0.9989 0 0 0 0 0 0 0 0 0 0 1 0 0 0 0 0 0 0 0 0 0 1 0 0 0 0 0 0 0 0 0 0 1 0 0 0 0 0 0 0 0 0 0 1 0 0 0 0 0 0 0 0 0 0 1 0 0 0 0 0 0 0 0 0 0 1 0 0 0 0 0 0 0 0 0 0 1 0 0 0 0 0 0 0 0 0 0 1 0 0 0 0 0 0 0 0 0.322 0.6559 0.0221 0 0 0 0 0 0 0 0 0 0.3228 0.6772 0 0 0 0 0 0 0 0 0 0 1 0 0 0 0 0 0 0 0 0 0 1 0 0 0 0 0 0 0 0 0 0 1 0 0 0 0 0 0 0 0 0 0 1 0 0 0 0 0 0 0 0 0 0 1 0 0 0 0 0 0 0 0 0 0 1 0 0 0 0 0 0 0 0 0 0 1 0 0 0 0 0 0 0 0 0 0 1 0 0 0 0 0 0 0 0 0 0 1 0 0 0 0 0 0 0 0 0.1825 0.7358 0.08169999999999999 0 0 0 0 0 0 0 0 0 0.1878 0.8122 0 0 0 0 0 0 0 0 0 0 1 0 0 0 0 0 0 0 0 0 0 1 0 0 0 0 0 0 0 0 0 0 1 0 0 0 0 0 0 0 0 0 0 1 0 0 0 0 0 0 0 0 0 0 1 0 0 0 0 0 0 0 0 0 0 1 0 0 0 0 0 0 0 0 0 0 1 0 0 0 0 0 0 0 0 0 0 1 0 0 0 0 0 0 0 0 0 0 1 0 0 0 0 0 0 0 0 0.0795 0.7382 0.1823 0 0 0 0 0 0 0 0 0 0.0799 0.9201 0 0 0 0 0 0 0 0 0 0 1 0 0 0 0 0 0 0 0 0 0 1 0 0 0 0 0 0 0 0 0 0 1 0 0 0 0 0 0 0 0 0 0 1 0 0 0 0 0 0 0 0 0 0 1 0 0 0 0 0 0 0 0 0 0 1 0 0 0 0 0 0 0 0 0 0 1 0 0 0 0 0 0 0 0 0 0 1 0 0 0 0 0 0 0 0 0 0 1 0 0 0 0 0 0 0 0 0.0245 0.6576 0.3179 0 0 0 0 0 0 0 0 0 0.0225 0.9775 0 0 0 0 0 0 0 0 0 0 1 0 0 0 0 0 0 0 0 0 0 1 0 0 0 0 0 0 0 0 0 0 1 0 0 0 0 0 0 0 0 0 0 1 0 0 0 0 0 0 0 0 0 0 1 0 0 0 0 0 0 0 0 0 0 1 0 0 0 0 0 0 0 0 0 0 1 0 0 0 0 0 0 0 0 0 0 1 0 0 0 0 0 0 0 0 0 0 1 0 0 0 0 0 0 0 0 0.0004 0.5047 0.4949 0 0 0 0 0 0 0 0 0 0.0007 0.9993 0 0 0 0 0 0 0 0 0 0 1 0 0 0 0 0 0 0 0 0 0 1 0 0 0 0 0 0 0 0 0 0 1 0 0 0 0 0 0 0 0 0 0 1 0 0 0 0 0 0 0 0 0 0 1 0 0 0 0 0 0 0 0 0 0 1 0 0 0 0 0 0 0 0 0 0 1 0 0 0 0 0 0 0 0 0 0 1 0 0 0 0 0 0 0 0 0 0 1 0 0 0 0 0 0 0 0 0 0.3225 0.6775 0 0 0 0 0 0 0 0 0 0 1 0 0 0 0 0 0 0 0 0 0 1 0 0 0 0 0 0 0 0 0 0 1 0 0 0 0 0 0 0 0 0 0 1 0 0 0 0 0 0 0 0 0 0 1 0 0 0 0 0 0 0 0 0 0 1 0 0 0 0 0 0 0 0 0 0 1 0 0 0 0 0 0 0 0 0 0 1 0 0 0 0 0 0 0 0 0 0 1 0 0 0 0 0 0 0 0 0 0 1 0 0 0 0 0 0 0 0 0 0.1801 0.8199 0 0 0 0 0 0 0 0 0 0 1 0 0 0 0 0 0 0 0 0 0 1 0 0 0 0 0 0 0 0 0 0 1 0 0 0 0 0 0 0 0 0 0 1 0 0 0 0 0 0 0 0 0 0 1 0 0 0 0 0 0 0 0 0 0 1 0 0 0 0 0 0 0 0 0 0 1 0 0 0 0 0 0 0 0 0 0 1 0 0 0 0 0 0 0 0 0 0 1 0 0 0 0 0 0 0 0 0 0 1 0 0 0 0 0 0 0 0 0.078 0.741 0.181 0 0 0 0 0 0 0 0 0 0.0764 0.9236 0 0 0 0 0 0 0 0 0 0 1 0 0 0 0 0 0 0 0 0 0 1 0 0 0 0 0 0 0 0 0 0 1 0 0 0 0 0 0 0 0 0 0 1 0 0 0 0 0 0 0 0 0 0 1 0 0 0 0 0 0 0 0 0 0 1 0 0 0 0 0 0 0 0 0 0 1 0 0 0 0 0 0 0 0 0 0 1 0 0 0 0 0 0 0 0 0 0 1 0 0 0 0 0 0 0 0 0.0198 0.6595 0.3207 0 0 0 0 0 0 0 0 0 0.022 0.978 0 0 0 0 0 0 0 0 0 0 1 0 0 0 0 0 0 0 0 0 0 1 0 0 0 0 0 0 0 0 0 0 1 0 0 0 0 0 0 0 0 0 0 1 0 0 0 0 0 0 0 0 0 0 1 0 0 0 0 0 0 0 0 0 0 1 0 0 0 0 0 0 0 0 0 0 1 0 0 0 0 0 0 0 0 0 0 1 0 0 0 0 0 0 0 0 0 0 1 0 0 0 0 0 0 0 0 0.0009 0.5002 0.4989 0 0 0 0 0 0 0 0 0 0.0007 0.9993 0 0 0 0 0 0 0 0 0 0 1 0 0 0 0 0 0 0 0 0 0 1 0 0 0 0 0 0 0 0 0 0 1 0 0 0 0 0 0 0 0 0 0 1 0 0 0 0 0 0 0 0 0 0 1 0 0 0 0 0 0 0 0 0 0 1 0 0 0 0 0 0 0 0 0 0 1 0 0 0 0 0 0 0 0 0 0 1 0 0 0 0 0 0 0 0 0 0 1 0 0 0 0 0 0 0 0 0 0.3206 0.6794 0 0 0 0 0 0 0 0 0 0 1 0 0 0 0 0 0 0 0 0 0 1 0 0 0 0 0 0 0 0 0 0 1 0 0 0 0 0 0 0 0 0 0 1 0 0 0 0 0 0 0 0 0 0 1 0 0 0 0 0 0 0 0 0 0 1 0 0 0 0 0 0 0 0 0 0 1 0 0 0 0 0 0 0 0 0 0 1 0 0 0 0 0 0 0 0 0 0 1 0 0 0 0 0 0 0 0 0 0 1 0 0 0 0 0 0 0 0 0 0.1811 0.8189 0 0 0 0 0 0 0 0 0 0 1 0 0 0 0 0 0 0 0 0 0 1 0 0 0 0 0 0 0 0 0 0 1 0 0 0 0 0 0 0 0 0 0 1 0 0 0 0 0 0 0 0 0 0 1 0 0 0 0 0 0 0 0 0 0 1 0 0 0 0 0 0 0 0 0 0 1 0 0 0 0 0 0 0 0 0 0 1 0 0 0 0 0 0 0 0 0 0 1 0 0 0 0 0 0 0 0 0 0 1 0 0 0 0 0 0 0 0 0 0.0856 0.9144 0 0 0 0 0 0 0 0 0 0 1 0 0 0 0 0 0 0 0 0 0 1 0 0 0 0 0 0 0 0 0 0 1 0 0 0 0 0 0 0 0 0 0 1 0 0 0 0 0 0 0 0 0 0 1 0 0 0 0 0 0 0 0 0 0 1 0 0 0 0 0 0 0 0 0 0 1 0 0 0 0 0 0 0 0 0 0 1 0 0 0 0 0 0 0 0 0 0 1 0 0 0 0 0 0 0 0 0 0 1 0 0 0 0 0 0 0 0 0 0.022 0.978 0 0 0 0 0 0 0 0 0 0 1 0 0 0 0 0 0 0 0 0 0 1 0 0 0 0 0 0 0 0 0 0 1 0 0 0 0 0 0 0 0 0 0 1 0 0 0 0 0 0 0 0 0 0 1 0 0 0 0 0 0 0 0 0 0 1 0 0 0 0 0 0 0 0 0 0 1 0 0 0 0 0 0 0 0 0 0 1 0 0 0 0 0 0 0 0 0 0 1 0 0 0 0 0 0 0 0 0 0 1 0 0 0 0 0 0 0 0 0 0.0008 0.9992 0 0 0 0 0 0 0 0 0 0 1 0 0 0 0 0 0 0 0 0 0 1 0 0 0 0 0 0 0 0 0 0 1 0 0 0 0 0 0 0 0 0 0 1 0 0 0 0 0 0 0 0 0 0 1 0 0 0 0 0 0 0 0 0 0 1 0 0 0 0 0 0 0 0 0 0 1 0 0 0 0 0 0 0 0 0 0 1 0 0 0 0 0 0 0 0 0 0 1 0 0 0 0 0 0 0 0 0 0 1 0 0 0 0 0 0 0 0 0 0 1 0 0 0 0 0 0 0 0 0 0 1 0 0 0 0 0 0 0 0 0 0 1 0 0 0 0 0 0 0 0 0 0 1 0 0 0 0 0 0 0 0 0 0 1 0 0 0 0 0 0 0 0 0 0 1 0 0 0 0 0 0 0 0 0 0 1 0 0 0 0 0 0 0 0 0 0 1 0 0 0 0 0 0 0 0 0 0 1 0 0 0 0 0 0 0 0 0 0 1 0 0 0 0 0 0 0 0 0 0 1 0 0 0 0 0 0 0 0 0 0 1 0 0 0 0 0 0 0 0 0 0 1 0 0 0 0 0 0 0 0 0 0 1 0 0 0 0 0 0 0 0 0 0 1 0 0 0 0 0 0 0 0 0 0 1 0 0 0 0 0 0 0 0 0 0 1 0 0 0 0 0 0 0 0 0 0 1 0 0 0 0 0 0 0 0 0 0 1 0 0 0 0 0 0 0 0 0 0 1 0 0 0 0 0 0 0 0 0 0 1 0 0 0 0 0 0 0 0 0 0 1</probabilities>
		</cpt>
		<cpt id="mean_motor">
			<state id="State0" />
			<state id="State1" />
			<state id="State2" />
			<state id="State3" />
			<state id="State4" />
			<state id="State5" />
			<state id="State6" />
			<state id="State7" />
			<state id="State8" />
			<state id="State9" />
			<state id="State10" />
			<intervals>0 0.1 0.2 0.3 0.4 0.5 0.6 0.7 0.8 0.9 1 1.1</intervals>
			<parents>motoruse_for_tether motoruse_for_other</parents>
			<probabilities>0.9434339396362182 0.04417349590245852 0.01029382370577653 0.001399160503697781 9.994003597841295e-05 9.994003597841295e-05 9.994003597841295e-05 9.994003597841295e-05 9.994003597841295e-05 9.994003597841295e-05 9.994003597841295e-05 0.8437937237657406 0.09854087547471517 0.04307415550669598 0.01199280431740955 0.001998800719568259 9.994003597841295e-05 9.994003597841295e-05 9.994003597841295e-05 9.994003597841295e-05 9.994003597841295e-05 9.994003597841295e-05 0.7157137145141943 0.1311475409836066 0.09516193522590964 0.04358256697321072 0.01289484206317473 0.0009996001599360256 9.996001599360256e-05 9.996001599360256e-05 9.996001599360256e-05 9.996001599360256e-05 9.996001599360256e-05 0.602519244226732 0.1237628711386584 0.1257622713186044 0.09397180845746277 0.04088773367989603 0.01149655103468959 0.00119964010796761 9.997000899730081e-05 9.997000899730081e-05 9.997000899730081e-05 9.997000899730081e-05 0.4806038792241552 0.1084783043391322 0.120375924815037 0.1309738052389522 0.1025794841031794 0.04329134173165367 0.01249750049990002 0.0008998200359928015 9.998000399920016e-05 9.998000399920016e-05 9.998000399920016e-05 0.3997200559888022 0.08398320335932813 0.1096780643871226 0.1266746650669866 0.1269746050789842 0.09548090381923616 0.04549090181963607 0.01069786042791442 0.001099780043991202 9.998000399920016e-05 9.998000399920016e-05 0.3222677732226777 0.07029297070292971 0.08809119088091191 0.1121887811218878 0.1270872912708729 0.1290870912908709 0.09679032096790322 0.04299570042995701 0.0100989901009899 0.0009999000099990001 9.999000099990002e-05 0.2681 0.0623 0.06859999999999999 0.08599999999999999 0.09959999999999999 0.1301 0.1333 0.0965 0.0446 0.0097 0.0012 0.2127 0.0485 0.0583 0.0761 0.0843 0.114 0.1217 0.1354 0.09320000000000001 0.0448 0.011 0.1865 0.0358 0.0494 0.0631 0.0692 0.08599999999999999 0.1021 0.127 0.1259 0.0988 0.0562 0.1456 0.0301 0.0416 0.046 0.0554 0.0736 0.08790000000000001 0.1082 0.1268 0.1313 0.1535 0.8379810094952523 0.1043478260869565 0.04517741129435282 0.01079460269865067 0.001099450274862569 9.995002498750625e-05 9.995002498750625e-05 9.995002498750625e-05 9.995002498750625e-05 9.995002498750625e-05 9.995002498750625e-05 0.7230107956817273 0.1291483406637345 0.09546181527389044 0.04188324670131947 0.009096361455417833 0.0007996801279488205 0.0001999200319872051 9.996001599360256e-05 9.996001599360256e-05 9.996001599360256e-05 9.996001599360256e-05 0.5884646141543383 0.1244502199120352 0.1289484206317473 0.1006597361055578 0.04548180727708916 0.01039584166333467 0.001199520191923231 9.996001599360256e-05 9.996001599360256e-05 9.996001599360256e-05 9.996001599360256e-05 0.4887022595480904 0.1036792641471706 0.133373325334933 0.1224755048990202 0.09278144371125775 0.04699060187962407 0.01059788042391522 0.0008998200359928015 0.0002999400119976005 9.998000399920016e-05 9.998000399920016e-05 0.4020195960807839 0.08718256348730254 0.1026794641071786 0.1251749650069986 0.128374325134973 0.09568086382723455 0.04539092181563687 0.01199760047990402 0.001299740051989602 9.998000399920016e-05 9.998000399920016e-05 0.3201679832016798 0.07699230076992301 0.09059094090590941 0.1023897610238976 0.130986901309869 0.1287871212878712 0.0973902609739026 0.0430956904309569 0.008899110088991101 0.0005999400059994001 9.999000099990002e-05 0.2721 0.0587 0.0717 0.08690000000000001 0.1063 0.1209 0.1343 0.0945 0.0408 0.0122 0.0016 0.2222 0.0475 0.0584 0.0701 0.0892 0.1052 0.1239 0.1277 0.0999 0.0439 0.012 0.1736 0.0397 0.0494 0.0562 0.0738 0.0891 0.1105 0.1245 0.1273 0.1011 0.0548 0.146 0.0305 0.0414 0.0507 0.0549 0.07240000000000001 0.0856 0.1049 0.1235 0.1335 0.1566 0.1244 0.0283 0.0312 0.0367 0.0515 0.0594 0.0709 0.0863 0.1027 0.1241 0.2845 0.7159136345461815 0.1306477409036385 0.09836065573770492 0.04188324670131947 0.01099560175929628 0.001499400239904038 0.0002998800479808077 9.996001599360256e-05 9.996001599360256e-05 9.996001599360256e-05 9.996001599360256e-05 0.5844246725982205 0.1264620613815855 0.1318604418674398 0.1008697390782765 0.04468659402179346 0.00989703089073278 0.001399580125962211 9.997000899730081e-05 9.997000899730081e-05 9.997000899730081e-05 9.997000899730081e-05 0.4848030393921215 0.1010797840431914 0.1275744851029794 0.1312737452509498 0.100379924015197 0.04359128174365127 0.009398120375924815 0.001599680063987202 9.998000399920016e-05 9.998000399920016e-05 9.998000399920016e-05 0.3863227354529094 0.08268346330733853 0.1076784643071386 0.132873425314937 0.1344731053789242 0.09738052389522095 0.04719056188762247 0.01029794041191762 0.0008998200359928015 9.998000399920016e-05 9.998000399920016e-05 0.3201 0.0727 0.08799999999999999 0.1083 0.1255 0.1279 0.095 0.0488 0.0121 0.0015 0.0001 0.2606 0.06279999999999999 0.068 0.08799999999999999 0.1093 0.1234 0.1346 0.0969 0.0447 0.0097 0.002 0.2135 0.0489 0.0604 0.0713 0.0857 0.1066 0.1264 0.1283 0.09950000000000001 0.046 0.0134 0.1732 0.037 0.0499 0.0561 0.0721 0.0915 0.1122 0.1252 0.1311 0.0959 0.0558 0.1421 0.0354 0.0382 0.0476 0.0619 0.073 0.0844 0.1056 0.1254 0.1271 0.1593 0.1151 0.0246 0.0341 0.0401 0.0458 0.0547 0.068 0.08890000000000001 0.1077 0.1282 0.2928 0.0961 0.0213 0.0254 0.0318 0.0383 0.048 0.0617 0.07530000000000001 0.0859 0.1065 0.4097 0.5840663734506197 0.1254498200719712 0.1328468612554978 0.100859656137545 0.04528188724510196 0.009496201519392244 0.001599360255897641 9.996001599360256e-05 9.996001599360256e-05 9.996001599360256e-05 9.996001599360256e-05 0.48250349930014 0.1070785842831434 0.1255748850229954 0.1305738852229554 0.09868026394721056 0.04329134173165367 0.01049790041991602 0.001499700059988002 9.998000399920016e-05 9.998000399920016e-05 9.998000399920016e-05 0.3965603439656034 0.08559144085591441 0.114988501149885 0.121987801219878 0.1310868913108689 0.09609039096090391 0.0421957804219578 0.0106989301069893 0.0005999400059994001 9.999000099990002e-05 9.999000099990002e-05 0.3164683531646835 0.0674932506749325 0.0922907709229077 0.1038896110388961 0.1307869213078692 0.136986301369863 0.0943905609439056 0.0443955604439556 0.0117988201179882 0.0013998600139986 9.999000099990002e-05 0.2692 0.0572 0.0703 0.0867 0.1052 0.1254 0.1303 0.09810000000000001 0.0457 0.0105 0.0014 0.222 0.0433 0.06419999999999999 0.0718 0.0876 0.09619999999999999 0.1264 0.134 0.1003 0.0425 0.0117 0.1774 0.0399 0.049 0.0573 0.0733 0.0882 0.1005 0.1272 0.1313 0.0953 0.0606 0.144 0.0301 0.0402 0.0502 0.0568 0.07340000000000001 0.0906 0.1053 0.1263 0.1223 0.1608 0.1201 0.0264 0.0336 0.0393 0.0487 0.0579 0.0779 0.08400000000000001 0.1038 0.1296 0.2787 0.0987 0.0217 0.023 0.0366 0.0392 0.0465 0.0613 0.0709 0.0915 0.1024 0.4082 0.0776 0.0177 0.0218 0.0277 0.0322 0.0397 0.047 0.0602 0.0745 0.0853 0.5163 0.4841547535739278 0.1119664100769769 0.1256623013096071 0.1265620313905828 0.09417174847545737 0.04518644406677996 0.01049685094471658 0.001499550134959512 9.997000899730081e-05 9.997000899730081e-05 9.997000899730081e-05 0.3954209158168366 0.08738252349530094 0.1031793641271746 0.126874625074985 0.1317736452709458 0.09808038392321536 0.04369126174765047 0.01249750049990002 0.0008998200359928015 9.998000399920016e-05 9.998000399920016e-05 0.3204 0.0698 0.09130000000000001 0.1053 0.13 0.1317 0.0985 0.0424 0.0091 0.0013 0.0002 0.267 0.0573 0.0701 0.0862 0.1029 0.1238 0.1322 0.1041 0.0421 0.012 0.0023 0.2184 0.0475 0.0558 0.0704 0.09080000000000001 0.1087 0.1211 0.1253 0.1014 0.0473 0.0133 0.1721 0.0389 0.0519 0.058 0.07389999999999999 0.0853 0.1062 0.1244 0.1312 0.0994 0.0587 0.1459 0.0301 0.0418 0.0463 0.056 0.0673 0.09130000000000001 0.1124 0.122 0.1305 0.1564 0.121 0.025 0.03 0.0387 0.0505 0.0564 0.0723 0.0861 0.1047 0.1282 0.2871 0.0964 0.0208 0.0272 0.0329 0.0413 0.0514 0.0553 0.0701 0.0859 0.1077 0.411 0.0834 0.0166 0.0228 0.0256 0.0307 0.0405 0.0466 0.0597 0.06900000000000001 0.08649999999999999 0.5185999999999999 0.0645 0.0146 0.0182 0.0212 0.0273 0.0309 0.0391 0.0465 0.0578 0.07099999999999999 0.6089 0.3954604539546046 0.08479152084791521 0.1107889211078892 0.1221877812218778 0.1318868113188681 0.09579042095790422 0.0451954804519548 0.0115988401159884 0.0020997900209979 9.999000099990002e-05 9.999000099990002e-05 0.3243675632436756 0.07529247075292471 0.09049095090490951 0.1066893310668933 0.1235876412358764 0.131986801319868 0.08959104089591041 0.04579542045795421 0.0106989301069893 0.0013998600139986 9.999000099990002e-05 0.2662 0.0607 0.07190000000000001 0.0863 0.1115 0.123 0.1303 0.0993 0.0386 0.0105 0.0017 0.2157 0.0455 0.0591 0.0693 0.08989999999999999 0.1075 0.121 0.1331 0.1003 0.0457 0.0129 0.1804 0.0385 0.0454 0.0549 0.0698 0.0882 0.1033 0.132 0.1284 0.101 0.0581 0.1438 0.0321 0.0422 0.0508 0.0575 0.0735 0.0885 0.1065 0.1225 0.1313 0.1513 0.1228 0.0265 0.0304 0.0403 0.0494 0.0613 0.0742 0.0881 0.112 0.1212 0.2738 0.0998 0.0224 0.024 0.0341 0.0361 0.0475 0.0572 0.0688 0.0902 0.1087 0.4112 0.082 0.0188 0.0237 0.0259 0.0324 0.0408 0.0506 0.0579 0.07140000000000001 0.08740000000000001 0.5091 0.0636 0.0142 0.0192 0.0197 0.0272 0.0338 0.0411 0.051 0.0584 0.0708 0.601 0.0522 0.012 0.0163 0.0182 0.0229 0.0272 0.0302 0.0421 0.048 0.061 0.6699000000000001 0.3168683131686831 0.07369263073692631 0.0897910208979102 0.10998900109989 0.127987201279872 0.124987501249875 0.09899010098990101 0.04579542045795421 0.0105989401059894 0.0011998800119988 9.999000099990002e-05 0.2657 0.0565 0.06909999999999999 0.0935 0.1068 0.1188 0.1307 0.1017 0.0457 0.009599999999999999 0.0019 0.2156 0.046 0.0582 0.0689 0.08699999999999999 0.1034 0.1289 0.1379 0.1002 0.0426 0.0113 0.1834 0.0385 0.0456 0.0575 0.0692 0.0901 0.1031 0.1291 0.1298 0.1003 0.0534 0.1475 0.0306 0.0373 0.048 0.0593 0.07049999999999999 0.0847 0.1081 0.1264 0.1324 0.1552 0.1282 0.0282 0.0334 0.0403 0.0462 0.06 0.0679 0.0873 0.1025 0.1186 0.2874 0.096 0.024 0.0229 0.0354 0.041 0.0479 0.0599 0.0738 0.0872 0.1015 0.4104 0.0823 0.0186 0.0225 0.0272 0.0288 0.0411 0.0485 0.0548 0.0743 0.0883 0.5135999999999999 0.0665 0.0138 0.0195 0.0214 0.0251 0.0322 0.039 0.0523 0.0572 0.06900000000000001 0.604 0.051 0.0108 0.0168 0.0178 0.021 0.0257 0.0324 0.0364 0.0486 0.0567 0.6828 0.0459 0.0114 0.0103 0.0144 0.0161 0.0215 0.0235 0.0355 0.038 0.0434 0.74 0.2682 0.0581 0.068 0.08840000000000001 0.1039 0.1256 0.1295 0.09959999999999999 0.0475 0.0101 0.0011 0.2223 0.0478 0.0532 0.07199999999999999 0.0873 0.1092 0.125 0.1259 0.09710000000000001 0.047 0.0132 0.1754 0.0441 0.0509 0.0562 0.07290000000000001 0.08210000000000001 0.1055 0.1267 0.1308 0.0948 0.0606 0.1455 0.0335 0.0362 0.0468 0.0603 0.0732 0.08599999999999999 0.1034 0.1309 0.134 0.1502 0.1267 0.0273 0.0333 0.036 0.0457 0.0631 0.0702 0.0871 0.1084 0.1224 0.2798 0.09810000000000001 0.0234 0.0247 0.0321 0.0425 0.0489 0.0618 0.0687 0.0914 0.1077 0.4007 0.0779 0.0191 0.0209 0.0244 0.0302 0.0382 0.0479 0.0586 0.0699 0.08840000000000001 0.5245 0.0674 0.0141 0.0155 0.0194 0.026 0.0321 0.0381 0.049 0.0585 0.06950000000000001 0.6104000000000001 0.0533 0.0125 0.013 0.019 0.0217 0.0254 0.0343 0.0409 0.0469 0.0551 0.6778999999999999 0.0444 0.008800000000000001 0.0109 0.0131 0.0166 0.0206 0.0273 0.0333 0.0383 0.0481 0.7386 0.034 0.008500000000000001 0.012 0.0112 0.0144 0.018 0.0214 0.0267 0.0343 0.04 0.7795 0.2177 0.0493 0.0588 0.0745 0.0888 0.1052 0.1251 0.1276 0.0973 0.0422 0.0135 0.1802 0.0417 0.0474 0.0578 0.0723 0.09130000000000001 0.1049 0.1213 0.1288 0.0999 0.0544 0.151 0.0326 0.0342 0.0477 0.0577 0.0736 0.0829 0.1102 0.1275 0.1299 0.1527 0.1212 0.0271 0.0322 0.0393 0.048 0.06 0.0709 0.0864 0.1078 0.121 0.2861 0.1006 0.0194 0.027 0.0291 0.037 0.0499 0.0629 0.0756 0.089 0.09959999999999999 0.4099 0.0805 0.0171 0.0218 0.0257 0.0303 0.0396 0.0481 0.0566 0.0752 0.0911 0.514 0.0677 0.0159 0.0144 0.0229 0.0269 0.0305 0.0418 0.05 0.0589 0.0699 0.6011 0.0546 0.01 0.0143 0.0175 0.023 0.0244 0.0338 0.0385 0.0495 0.0598 0.6746 0.0416 0.008999999999999999 0.012 0.0146 0.0177 0.0217 0.0274 0.0315 0.0354 0.0476 0.7415 0.036 0.0077 0.0091 0.0143 0.0154 0.017 0.0211 0.026 0.03 0.0407 0.7827 0.031 0.0057 0.0077 0.0095 0.0129 0.0136 0.0175 0.0236 0.0261 0.0293 0.8231000000000001 0.177 0.04 0.0487 0.0577 0.0682 0.0926 0.1023 0.1265 0.1335 0.0964 0.0571 0.1419 0.032 0.0364 0.0478 0.0573 0.0757 0.08599999999999999 0.1115 0.1231 0.1354 0.1529 0.1204 0.0269 0.03 0.0396 0.0531 0.0562 0.0689 0.0866 0.104 0.1251 0.2892 0.1012 0.0237 0.0242 0.032 0.0378 0.0434 0.0649 0.0704 0.0851 0.1057 0.4116 0.082 0.0206 0.0212 0.0272 0.0319 0.0386 0.0482 0.0579 0.0713 0.08740000000000001 0.5137 0.06510000000000001 0.0159 0.0168 0.0205 0.0277 0.0339 0.0375 0.0491 0.0566 0.06619999999999999 0.6107 0.0541 0.011 0.0106 0.0162 0.0209 0.0248 0.0332 0.0415 0.0449 0.0618 0.681 0.0438 0.0091 0.0113 0.0137 0.0176 0.0214 0.0297 0.0309 0.0383 0.0479 0.7363 0.0368 0.008 0.008699999999999999 0.0121 0.0126 0.0171 0.0224 0.0249 0.0331 0.039 0.7853 0.0296 0.0068 0.0072 0.008800000000000001 0.0127 0.0152 0.0163 0.0207 0.0254 0.0325 0.8248 0.0274 0.0049 0.0056 0.0068 0.0098 0.0106 0.0135 0.0166 0.0223 0.0272 0.8552999999999999</probabilities>
		</cpt>
		<cpt id="frequency_of_loss_of_control_due_to_motor_wear">
			<state id="State0" />
			<state id="State1" />
			<state id="State2" />
			<state id="State3" />
			<state id="State4" />
			<state id="State5" />
			<state id="State6" />
			<state id="State7" />
			<state id="State8" />
			<state id="State9" />
			<intervals>0 0.005908012045062 0.01527158011626 0.03011183540944 0.053632054998 0.09090909090909 0.1499892113597 0.2436248920717 0.3920274450035 0.6272296408891 1</intervals>
			<parents>motor_wear</parents>
			<probabilities>1 0 0 0 0 0 0 0 0 0 1 0 0 0 0 0 0 0 0 0 1 0 0 0 0 0 0 0 0 0 0.5921 0.4079 0 0 0 0 0 0 0 0 0 0.3425 0.6239 0.0336 0 0 0 0 0 0 0 0 0 0.5686 0.4314 0 0 0 0 0 0 0 0 0 0.1925 0.6497000000000001 0.1578 0 0 0 0 0 0 0 0 0 0.5389 0.4611 0 0 0 0 0 0 0 0 0 0.2903 0.7097 0 0 0 0 0 0 0 0 0 0.1133 0.8867</probabilities>
		</cpt>
		<cpt id="max_upwards_acceleration">
			<state id="State0" />
			<state id="State1" />
			<state id="State2" />
			<state id="State3" />
			<state id="State4" />
			<intervals>0.5 0.8 1.1 1.4 1.7 2</intervals>
			<probabilities>0.6084551560647965 0.3909521928091663 0.0001975503753457131 0.0001975503753457131 0.0001975503753457131</probabilities>
		</cpt>
		<cpt id="safety_margin">
			<state id="State0" />
			<state id="State1" />
			<state id="State2" />
			<state id="State3" />
			<state id="State4" />
			<state id="State5" />
			<state id="State6" />
			<state id="State7" />
			<state id="State8" />
			<state id="State9" />
			<intervals>0.1 0.21 0.32 0.43 0.54 0.65 0.76 0.87 0.98 1.09 1.2</intervals>
			<probabilities>0.1064915327833261 0.09845853234910985 0.100412505427703 0.09813287016934433 0.1025835866261398 0.1019322622666088 0.1007381676074685 0.09834997828918801 0.09140251845419019 0.1014980460269214</probabilities>
		</cpt>
		<cpt id="motoruse_for_other_prediction_side">
			<state id="State0" />
			<state id="State1" />
			<state id="State2" />
			<state id="State3" />
			<state id="State4" />
			<state id="State5" />
			<state id="State6" />
			<state id="State7" />
			<state id="State8" />
			<state id="State9" />
			<intervals>0 0.1 0.2 0.3 0.4 0.5 0.6 0.7 0.8 0.9 1</intervals>
			<parents>motor_wear turbulence random_disturbance</parents>
