<?xml version="1.0" encoding="UTF-8"?>
<!-- This network was created in GeNIe Academic, which can be used for academic teaching and research purposes only -->
<smile version="1.0" id="Network2" numsamples="10000" discsamples="10000">
	<nodes>
		<cpt id="tether_tension_motor_use_scaling_factor_t_1">
			<state id="State0" />
			<state id="State1" />
			<state id="State2" />
			<state id="State3" />
			<state id="State4" />
			<state id="State5" />
			<state id="State6" />
			<state id="State7" />
			<state id="State8" />
			<state id="State9" />
			<intervals>0 0.2 0.4 0.6 0.8 1 1.2 1.4 1.6 1.8 2</intervals>
			<probabilities>0.1664233576642336 0.1516162669447341 0.145985401459854 0.1267987486965589 0.1217935349322211 0.09280500521376434 0.07466110531803963 0.05380604796663191 0.0383733055265902 0.02773722627737226</probabilities>
		</cpt>
		<cpt id="tether_tension_motor_use_scaling_factor">
			<state id="State0" />
			<state id="State1" />
			<state id="State2" />
			<state id="State3" />
			<state id="State4" />
			<state id="State5" />
			<state id="State6" />
			<state id="State7" />
			<state id="State8" />
			<state id="State9" />
			<intervals>0 0.2 0.4 0.6 0.8 1 1.2 1.4 1.6 1.8 2</intervals>
			<parents>tether_tension_motor_use_scaling_factor_t_1</parents>
			<probabilities>0.9558701082431307 0.04329725228975854 0.0001040799333888426 0.0001040799333888426 0.0001040799333888426 0.0001040799333888426 0.0001040799333888426 0.0001040799333888426 0.0001040799333888426 0.0001040799333888426 0.04296992105526132 0.9164584790646547 0.03987208953732387 9.9930048965724e-05 9.9930048965724e-05 9.9930048965724e-05 9.9930048965724e-05 9.9930048965724e-05 9.9930048965724e-05 9.9930048965724e-05 9.9930048965724e-05 0.04117118017387829 0.9188568002398321 0.03927250924352953 9.9930048965724e-05 9.9930048965724e-05 9.9930048965724e-05 9.9930048965724e-05 9.9930048965724e-05 9.9930048965724e-05 9.9930048965724e-05 9.9930048965724e-05 0.04187069051663835 0.9175577096032778 0.03987208953732387 9.9930048965724e-05 9.9930048965724e-05 9.9930048965724e-05 9.9930048965724e-05 9.9930048965724e-05 9.9930048965724e-05 9.9930048965724e-05 9.9930048965724e-05 0.04007194963525532 0.9206555411212152 0.03857299890076946 9.9930048965724e-05 9.9930048965724e-05 9.9930048965724e-05 9.9930048965724e-05 9.9930048965724e-05 9.9930048965724e-05 9.9930048965724e-05 9.9930048965724e-05 0.04237034076146697 0.9161586889177575 0.04077145997801539 9.9930048965724e-05 9.9930048965724e-05 9.9930048965724e-05 9.9930048965724e-05 9.9930048965724e-05 9.9930048965724e-05 9.9930048965724e-05 9.9930048965724e-05 0.04147097032077546 0.9182572199460378 0.0395722993904267 9.9930048965724e-05 9.9930048965724e-05 9.9930048965724e-05 9.9930048965724e-05 9.9930048965724e-05 9.9930048965724e-05 9.9930048965724e-05 9.9930048965724e-05 0.04157090036974118 0.918557010092935 0.03917257919456381 9.9930048965724e-05 9.9930048965724e-05 9.9930048965724e-05 9.9930048965724e-05 9.9930048965724e-05 9.9930048965724e-05 9.9930048965724e-05 9.9930048965724e-05 0.04047166983111822 0.9192565204356951 0.0395722993904267 0.0001037236801161705 0.0001037236801161705 0.0001037236801161705 0.0001037236801161705 0.0001037236801161705 0.0001037236801161705 0.0001037236801161705 0.0001037236801161705 0.04263043252774609 0.9565397780313245</probabilities>
		</cpt>
		<cpt id="height_over_ground">
			<state id="State0" />
			<state id="State1" />
			<state id="State2" />
			<state id="State3" />
			<state id="State4" />
			<state id="State5" />
			<state id="State6" />
			<state id="State7" />
			<state id="State8" />
			<state id="State9" />
			<intervals>0 0.1 0.2 0.3 0.4 0.5 0.6 0.7 0.8 0.9 1</intervals>
			<probabilities>0.0924 0.1009 0.09619999999999999 0.1016 0.1043 0.1016 0.1054 0.09760000000000001 0.1043 0.09569999999999999</probabilities>
		</cpt>
		<cpt id="drone_tilt">
			<state id="State0" />
			<state id="State1" />
			<state id="State2" />
			<state id="State3" />
			<state id="State4" />
			<state id="State5" />
			<state id="State6" />
			<state id="State7" />
			<state id="State8" />
			<state id="State9" />
			<intervals>0 0.1 0.2 0.3 0.4 0.5 0.6 0.7 0.8 0.9 1</intervals>
			<probabilities>0.0951 0.099 0.0963 0.1024 0.1009 0.1032 0.1022 0.0988 0.1034 0.0987</probabilities>
		</cpt>
		<cpt id="motoruse_for_tether">
			<state id="State0" />
			<state id="State1" />
			<state id="State2" />
			<state id="State3" />
			<state id="State4" />
			<state id="State5" />
			<state id="State6" />
			<state id="State7" />
			<state id="State8" />
			<state id="State9" />
			<intervals>0 0.1 0.2 0.3 0.4 0.5 0.6 0.7 0.8 0.9 1</intervals>
			<parents>height_over_ground tether_tension_motor_use_scaling_factor drone_tilt</parents>
			<probabilities>1 0 0 0 0 0 0 0 0 0 1 0 0 0 0 0 0 0 0 0 1 0 0 0 0 0 0 0 0 0 0.9887 0.0113 0 0 0 0 0 0 0 0 0.9340000000000001 0.066 0 0 0 0 0 0 0 0 0.8588 0.1412 0 0 0 0 0 0 0 0 0.7706 0.2294 0 0 0 0 0 0 0 0 0.6713 0.3287 0 0 0 0 0 0 0 0 0.594 0.4006 0.0054 0 0 0 0 0 0 0 0.5259 0.4442 0.0299 0 0 0 0 0 0 0 1 0 0 0 0 0 0 0 0 0 0.9883999999999999 0.0116 0 0 0 0 0 0 0 0 0.7965 0.2035 0 0 0 0 0 0 0 0 0.443 0.5570000000000001 0 0 0 0 0 0 0 0 0.1866 0.7748 0.0386 0 0 0 0 0 0 0 0.0529 0.737 0.2101 0 0 0 0 0 0 0 0.0068 0.5338000000000001 0.4568 0.0026 0 0 0 0 0 0 0 0.3388 0.5901999999999999 0.07099999999999999 0 0 0 0 0 0 0 0.1901 0.5726 0.2373 0 0 0 0 0 0 0 0.0834 0.4958 0.405 0.0158 0 0 0 0 0 1 0 0 0 0 0 0 0 0 0 0.7961 0.2039 0 0 0 0 0 0 0 0 0.2239 0.7715 0.0046 0 0 0 0 0 0 0 0.0065 0.7491 0.2444 0 0 0 0 0 0 0 0 0.2697 0.7067 0.0236 0 0 0 0 0 0 0 0.0347 0.6840000000000001 0.2813 0 0 0 0 0 0 0 0 0.3184 0.623 0.0586 0 0 0 0 0 0 0 0.0751 0.5938 0.3298 0.0013 0 0 0 0 0 0 0.0029 0.3683 0.5292 0.09959999999999999 0 0 0 0 0 0 0 0.1254 0.5021 0.3613 0.0112 0 0 0 0.9887 0.0113 0 0 0 0 0 0 0 0 0.4408 0.5592 0 0 0 0 0 0 0 0 0.0065 0.7536 0.2399 0 0 0 0 0 0 0 0 0.1192 0.8139999999999999 0.0668 0 0 0 0 0 0 0 0 0.3654 0.6188 0.0158 0 0 0 0 0 0 0 0.0224 0.6052999999999999 0.3702 0.0021 0 0 0 0 0 0 0 0.1395 0.6717 0.1888 0 0 0 0 0 0 0 0.0025 0.3405 0.5777 0.0793 0 0 0 0 0 0 0 0.0467 0.4922 0.429 0.0321 0 0 0 0 0 0 0 0.1801 0.5047 0.3053 0.009900000000000001 0 0.9371 0.0629 0 0 0 0 0 0 0 0 0.1855 0.7826 0.0319 0 0 0 0 0 0 0 0 0.2672 0.7109 0.0219 0 0 0 0 0 0 0 0 0.3693 0.614 0.0167 0 0 0 0 0 0 0 0.0026 0.4632 0.519 0.0152 0 0 0 0 0 0 0 0.0212 0.5342 0.4328 0.0118 0 0 0 0 0 0 0 0.0444 0.5615 0.3846 0.0095 0 0 0 0 0 0 0 0.08790000000000001 0.5784 0.3253 0.008399999999999999 0 0 0 0 0 0 0 0.154 0.55 0.287 0.008999999999999999 0 0 0 0 0 0 0.0011 0.2205 0.5083 0.2701 0.8586 0.1414 0 0 0 0 0 0 0 0 0.0515 0.7431 0.2054 0 0 0 0 0 0 0 0 0.0338 0.6808 0.2854 0 0 0 0 0 0 0 0 0.0199 0.6108 0.3673 0.002 0 0 0 0 0 0 0 0.0163 0.5273 0.4439 0.0125 0 0 0 0 0 0 0 0.014 0.4573 0.4974 0.0313 0 0 0 0 0 0 0 0.0108 0.4008 0.5207000000000001 0.0677 0 0 0 0 0 0 0 0.0092 0.3371 0.5442 0.1095 0 0 0 0 0 0 0 0.0072 0.2975 0.6953 0 0 0 0 0 0 0 0 0.0072 0.9928 0.7591 0.2409 0 0 0 0 0 0 0 0 0.0066 0.5322 0.4577 0.0035 0 0 0 0 0 0 0 0 0.3119 0.6314 0.0567 0 0 0 0 0 0 0 0 0.1417 0.6663 0.192 0 0 0 0 0 0 0 0 0.0447 0.5738 0.3718 0.0097 0 0 0 0 0 0 0 0.0114 0.3933 0.5325 0.06279999999999999 0 0 0 0 0 0 0 0.0008 0.235 0.5837 0.1805 0 0 0 0 0 0 0 0 0.1177 0.8823 0 0 0 0 0 0 0 0 0 1 0 0 0 0 0 0 0 0 0 1 0.6715 0.3285 0 0 0 0 0 0 0 0 0 0.3368 0.5911999999999999 0.07199999999999999 0 0 0 0 0 0 0 0 0.07049999999999999 0.6016 0.326 0.0019 0 0 0 0 0 0 0 0.0014 0.3311 0.5805 0.08699999999999999 0 0 0 0 0 0 0 0 0.09089999999999999 0.572 0.3283 0.008800000000000001 0 0 0 0 0 0 0 0.01 0.3412 0.5352 0.1136 0 0 0 0 0 0 0 0 0.1181 0.8819 0 0 0 0 0 0 0 0 0 1 0 0 0 0 0 0 0 0 0 1 0 0 0 0 0 0 0 0 0 1 0.5911 0.4043 0.0046 0 0 0 0 0 0 0 0 0.1848 0.5743 0.2409 0 0 0 0 0 0 0 0 0.0026 0.3534 0.5462 0.0978 0 0 0 0 0 0 0 0 0.0473 0.4822 0.4417 0.0288 0 0 0 0 0 0 0 0 0.1615 0.5423 0.2893 0.0069 0 0 0 0 0 0 0 0.008399999999999999 0.2946 0.697 0 0 0 0 0 0 0 0 0 1 0 0 0 0 0 0 0 0 0 1 0 0 0 0 0 0 0 0 0 1 0 0 0 0 0 0 0 0 0 1 0.5205 0.4483 0.0312 0 0 0 0 0 0 0 0 0.08699999999999999 0.4891 0.407 0.0169 0 0 0 0 0 0 0 0 0.1295 0.5105 0.3485 0.0115 0 0 0 0 0 0 0 0 0.1666 0.5154 0.3105 0.0075 0 0 0 0 0 0 0 0.0007 0.2201 0.5197000000000001 0.2595 0 0 0 0 0 0 0 0 0.0077 0.9923 0 0 0 0 0 0 0 0 0 1 0 0 0 0 0 0 0 0 0 1 0 0 0 0 0 0 0 0 0 1 0 0 0 0 0 0 0 0 0 1 0.6899999999999999 0.31 0 0 0 0 0 0 0 0 0.5718 0.4282 0 0 0 0 0 0 0 0 0.4382 0.5618 0 0 0 0 0 0 0 0 0.3218 0.6782 0 0 0 0 0 0 0 0 0.2473 0.7448 0.007900000000000001 0 0 0 0 0 0 0 0.2009 0.7487 0.0504 0 0 0 0 0 0 0 0.1752 0.703 0.1218 0 0 0 0 0 0 0 0.1558 0.6407 0.2035 0 0 0 0 0 0 0 0.1304 0.5712 0.2984 0 0 0 0 0 0 0 0.1186 0.5225 0.353 0.0059 0 0 0 0 0 0 0.5637 0.4363 0 0 0 0 0 0 0 0 0.1954 0.8046 0 0 0 0 0 0 0 0 0.0181 0.9214 0.0605 0 0 0 0 0 0 0 0 0.6768 0.3232 0 0 0 0 0 0 0 0 0.3448 0.6502 0.005 0 0 0 0 0 0 0 0.1461 0.7573 0.09660000000000001 0 0 0 0 0 0 0 0.0414 0.6514 0.3072 0 0 0 0 0 0 0 0.0045 0.4708 0.5043 0.0204 0 0 0 0 0 0 0 0.2902 0.5793 0.1305 0 0 0 0 0 0 0 0.167 0.5266999999999999 0.3052 0.0011 0 0 0 0 0.439 0.5610000000000001 0 0 0 0 0 0 0 0 0.0176 0.9244 0.058 0 0 0 0 0 0 0 0 0.446 0.554 0 0 0 0 0 0 0 0 0.0539 0.8445 0.1016 0 0 0 0 0 0 0 0 0.4612 0.5374 0.0014 0 0 0 0 0 0 0 0.1049 0.7428 0.1523 0 0 0 0 0 0 0 0.0031 0.4522 0.5259 0.0188 0 0 0 0 0 0 0 0.1581 0.6294999999999999 0.2124 0 0 0 0 0 0 0 0.0197 0.4537 0.4826 0.044 0 0 0 0 0 0 0 0.2171 0.526 0.2555 0.0014 0 0 0.3338 0.6662 0 0 0 0 0 0 0 0 0 0.674 0.326 0 0 0 0 0 0 0 0 0.0497 0.8463000000000001 0.104 0 0 0 0 0 0 0 0 0.2628 0.7186 0.0186 0 0 0 0 0 0 0 0.0025 0.5517 0.4436 0.0022 0 0 0 0 0 0 0 0.07679999999999999 0.6927 0.2305 0 0 0 0 0 0 0 0 0.2559 0.6424 0.1017 0 0 0 0 0 0 0 0.016 0.4623 0.488 0.0337 0 0 0 0 0 0 0 0.1068 0.5413 0.3455 0.0064 0 0 0 0 0 0 0.0014 0.2675 0.5131 0.2167 0.0013 0.2573 0.7329 0.0098 0 0 0 0 0 0 0 0 0.3472 0.649 0.0038 0 0 0 0 0 0 0 0 0.4545 0.5424 0.0031 0 0 0 0 0 0 0 0.0035 0.5535 0.4409 0.0021 0 0 0 0 0 0 0 0.0212 0.6163 0.3615 0.001 0 0 0 0 0 0 0 0.0509 0.6521 0.2954 0.0016 0 0 0 0 0 0 0 0.1055 0.635 0.2575 0.002 0 0 0 0 0 0 0 0.1748 0.6016 0.2227 0.0009 0 0 0 0 0 0 0.0011 0.2483 0.551 0.1996 0 0 0 0 0 0 0 0.0102 0.3102 0.6796 0.2108 0.737 0.0522 0 0 0 0 0 0 0 0 0.148 0.7557 0.0963 0 0 0 0 0 0 0 0 0.1036 0.7388 0.1576 0 0 0 0 0 0 0 0 0.0687 0.7044 0.2269 0 0 0 0 0 0 0 0 0.0575 0.6487000000000001 0.2923 0.0015 0 0 0 0 0 0 0 0.0423 0.5769 0.3724 0.008399999999999999 0 0 0 0 0 0 0 0.0372 0.5061 0.4298 0.0269 0 0 0 0 0 0 0 0.0302 0.4433 0.5265 0 0 0 0 0 0 0 0 0.029 0.971 0 0 0 0 0 0 0 0 0 1 0.1837 0.6876 0.1287 0 0 0 0 0 0 0 0 0.0475 0.6352 0.3173 0 0 0 0 0 0 0 0 0.0028 0.4568 0.5238 0.0166 0 0 0 0 0 0 0 0 0.2483 0.6503 0.1014 0 0 0 0 0 0 0 0 0.1059 0.6314 0.2617 0.001 0 0 0 0 0 0 0 0.0377 0.5048 0.4335 0.024 0 0 0 0 0 0 0 0.0094 0.3412 0.6494 0 0 0 0 0 0 0 0 0.0008 0.9992 0 0 0 0 0 0 0 0 0 1 0 0 0 0 0 0 0 0 0 1 0.153 0.6412 0.2058 0 0 0 0 0 0 0 0 0.0066 0.4684 0.505 0.02 0 0 0 0 0 0 0 0 0.1639 0.6254 0.2107 0 0 0 0 0 0 0 0 0.0153 0.4584 0.4904 0.0359 0 0 0 0 0 0 0 0 0.1737 0.5991 0.2258 0.0014 0 0 0 0 0 0 0 0.0322 0.4401 0.5276999999999999 0 0 0 0 0 0 0 0 0.0007 0.9993 0 0 0 0 0 0 0 0 0 1 0 0 0 0 0 0 0 0 0 1 0 0 0 0 0 0 0 0 0 1 0.1308 0.5760999999999999 0.2931 0 0 0 0 0 0 0 0 0 0.2936 0.5691000000000001 0.1373 0 0 0 0 0 0 0 0 0.0195 0.4574 0.478 0.0451 0 0 0 0 0 0 0 0 0.103 0.5424 0.3462 0.008399999999999999 0 0 0 0 0 0 0 0.0011 0.2423 0.5592 0.1974 0 0 0 0 0 0 0 0 0.0273 0.9727 0 0 0 0 0 0 0 0 0 1 0 0 0 0 0 0 0 0 0 1 0 0 0 0 0 0 0 0 0 1 0 0 0 0 0 0 0 0 0 1 0.1193 0.506 0.3704 0.0043 0 0 0 0 0 0 0 0 0.1614 0.5207000000000001 0.3159 0.002 0 0 0 0 0 0 0 0 0.2064 0.5216 0.2707 0.0013 0 0 0 0 0 0 0 0.0022 0.2616 0.5295 0.2058 0.0009 0 0 0 0 0 0 0 0.0102 0.3128 0.677 0 0 0 0 0 0 0 0 0 1 0 0 0 0 0 0 0 0 0 1 0 0 0 0 0 0 0 0 0 1 0 0 0 0 0 0 0 0 0 1 0 0 0 0 0 0 0 0 0 1 0 0.9331 0.0669 0 0 0 0 0 0 0 0 0.8120000000000001 0.188 0 0 0 0 0 0 0 0 0.6853 0.3147 0 0 0 0 0 0 0 0 0.5662 0.4338 0 0 0 0 0 0 0 0 0.4449 0.5551 0 0 0 0 0 0 0 0 0.3714 0.6202 0.008399999999999999 0 0 0 0 0 0 0 0.3108 0.6462 0.043 0 0 0 0 0 0 0 0.2667 0.6286 0.1047 0 0 0 0 0 0 0 0.2307 0.5901 0.1792 0 0 0 0 0 0 0 0.2095 0.5311 0.2594 0 0 0 0 0 0 0 0.8179999999999999 0.182 0 0 0 0 0 0 0 0 0.43 0.57 0 0 0 0 0 0 0 0 0.1259 0.8668 0.0073 0 0 0 0 0 0 0 0.0127 0.8403 0.147 0 0 0 0 0 0 0 0 0.5610000000000001 0.439 0 0 0 0 0 0 0 0 0.281 0.6876 0.0314 0 0 0 0 0 0 0 0.1301 0.6896 0.1803 0 0 0 0 0 0 0 0.0407 0.546 0.4102 0.0031 0 0 0 0 0 0 0.0052 0.4149 0.515 0.0649 0 0 0 0 0 0 0 0.2614 0.5231 0.2155 0 0 0 0 0 0.6801 0.3199 0 0 0 0 0 0 0 0 0.1248 0.8673 0.007900000000000001 0 0 0 0 0 0 0 0 0.6841 0.3159 0 0 0 0 0 0 0 0 0.1623 0.8091 0.0286 0 0 0 0 0 0 0 0.0059 0.646 0.3481 0 0 0 0 0 0 0 0 0.2098 0.7245 0.06569999999999999 0 0 0 0 0 0 0 0.027 0.5945 0.3771 0.0014 0 0 0 0 0 0 0 0.266 0.6194 0.1146 0 0 0 0 0 0 0 0.0614 0.5234 0.4011 0.0141 0 0 0 0 0 0 0.0031 0.3209 0.5097 0.1663 0 0 0 0.5684 0.4316 0 0 0 0 0 0 0 0 0.0132 0.8441 0.1427 0 0 0 0 0 0 0 0 0.1631 0.8082 0.0287 0 0 0 0 0 0 0 0 0.4546 0.5427 0.0027 0 0 0 0 0 0 0 0.0289 0.6954 0.2757 0 0 0 0 0 0 0 0 0.17 0.7087 0.1213 0 0 0 0 0 0 0 0.0026 0.3864 0.5683 0.0427 0 0 0 0 0 0 0 0.0507 0.552 0.3861 0.0112 0 0 0 0 0 0 0 0.1922 0.5614 0.2451 0.0013 0 0 0 0 0 0 0.0122 0.3585 0.4932 0.1361 0 0.4408 0.5592 0 0 0 0 0 0 0 0 0 0.5578 0.4422 0 0 0 0 0 0 0 0 0.0041 0.6491 0.3468 0 0 0 0 0 0 0 0 0.0247 0.7000999999999999 0.2752 0 0 0 0 0 0 0 0 0.07099999999999999 0.7118 0.2172 0 0 0 0 0 0 0 0 0.1278 0.6955 0.1767 0 0 0 0 0 0 0 0 0.2029 0.6434 0.1537 0 0 0 0 0 0 0 0.0015 0.2774 0.5862000000000001 0.1349 0 0 0 0 0 0 0 0.0118 0.3483 0.6399 0 0 0 0 0 0 0 0 0.0251 0.9749 0 0.3648 0.6294 0.0058 0 0 0 0 0 0 0 0 0.2817 0.6881 0.0302 0 0 0 0 0 0 0 0 0.2184 0.7177 0.0639 0 0 0 0 0 0 0 0 0.166 0.7171 0.1169 0 0 0 0 0 0 0 0 0.129 0.6907 0.1803 0 0 0 0 0 0 0 0 0.1043 0.6388 0.2548 0.0021 0 0 0 0 0 0 0 0.0886 0.5760999999999999 0.3353 0 0 0 0 0 0 0 0 0.0756 0.9244 0 0 0 0 0 0 0 0 0 1 0 0 0 0 0 0 0 0 0 1 0 0.3093 0.6478 0.0429 0 0 0 0 0 0 0 0 0.1263 0.6934 0.1803 0 0 0 0 0 0 0 0 0.0256 0.6004 0.3722 0.0018 0 0 0 0 0 0 0 0.0026 0.3893 0.5639999999999999 0.0441 0 0 0 0 0 0 0 0 0.2068 0.6363 0.1569 0 0 0 0 0 0 0 0 0.0877 0.5896 0.3227 0 0 0 0 0 0 0 0 0.0343 0.9657 0 0 0 0 0 0 0 0 0 1 0 0 0 0 0 0 0 0 0 1 0 0 0 0 0 0 0 0 0 1 0 0.2658 0.6247 0.1095 0 0 0 0 0 0 0 0 0.0402 0.5601 0.397 0.0027 0 0 0 0 0 0 0 0 0.2649 0.6197 0.1154 0 0 0 0 0 0 0 0 0.0538 0.5547 0.3799 0.0116 0 0 0 0 0 0 0 0.0016 0.2768 0.5894 0.1322 0 0 0 0 0 0 0 0 0.0747 0.9253 0 0 0 0 0 0 0 0 0 1 0 0 0 0 0 0 0 0 0 1 0 0 0 0 0 0 0 0 0 1 0 0 0 0 0 0 0 0 0 1 0 0.2352 0.5846 0.1802 0 0 0 0 0 0 0 0 0.0058 0.4069 0.5269 0.0604 0 0 0 0 0 0 0 0 0.0658 0.5259 0.3963 0.012 0 0 0 0 0 0 0 0 0.1878 0.5738 0.2373 0.0011 0 0 0 0 0 0 0 0.0108 0.3507 0.6385 0 0 0 0 0 0 0 0 0 1 0 0 0 0 0 0 0 0 0 1 0 0 0 0 0 0 0 0 0 1 0 0 0 0 0 0 0 0 0 1 0 0 0 0 0 0 0 0 0 1 0 0.2137 0.5256 0.2607 0 0 0 0 0 0 0 0 0 0.2673 0.5207000000000001 0.212 0 0 0 0 0 0 0 0 0.0022 0.3241 0.5063 0.1674 0 0 0 0 0 0 0 0 0.0133 0.3561 0.5038 0.1268 0 0 0 0 0 0 0 0 0.0317 0.9683 0 0 0 0 0 0 0 0 0 1 0 0 0 0 0 0 0 0 0 1 0 0 0 0 0 0 0 0 0 1 0 0 0 0 0 0 0 0 0 1 0 0 0 0 0 0 0 0 0 1 0 0 1 0 0 0 0 0 0 0 0 0 0.9747 0.0253 0 0 0 0 0 0 0 0 0.8946 0.1054 0 0 0 0 0 0 0 0 0.7691 0.2309 0 0 0 0 0 0 0 0 0.6594 0.3406 0 0 0 0 0 0 0 0 0.5466 0.4534 0 0 0 0 0 0 0 0 0.4665 0.5275 0.006 0 0 0 0 0 0 0 0.3977 0.5626 0.0397 0 0 0 0 0 0 0 0.3557 0.5528 0.0915 0 0 0 0 0 0 0 0.3142 0.5237000000000001 0.1621 0 0 0 0 0 0 0 0.9755 0.0245 0 0 0 0 0 0 0 0 0.6766 0.3234 0 0 0 0 0 0 0 0 0.3196 0.6804 0 0 0 0 0 0 0 0 0.0882 0.863 0.0488 0 0 0 0 0 0 0 0.0113 0.7319 0.2568 0 0 0 0 0 0 0 0 0.4541 0.5429 0.003 0 0 0 0 0 0 0 0.2387 0.6836 0.07770000000000001 0 0 0 0 0 0 0 0.109 0.6262 0.2648 0 0 0 0 0 0 0 0.0318 0.4978 0.4502 0.0202 0 0 0 0 0 0 0.0049 0.3715 0.5069 0.1167 0 0 0 0 0 0.8842 0.1158 0 0 0 0 0 0 0 0 0.3244 0.6756 0 0 0 0 0 0 0 0 0.0116 0.8544 0.134 0 0 0 0 0 0 0 0 0.3429 0.6536999999999999 0.0034 0 0 0 0 0 0 0 0.0393 0.7732 0.1875 0 0 0 0 0 0 0 0 0.3684 0.6119 0.0197 0 0 0 0 0 0 0 0.0939 0.6691 0.237 0 0 0 0 0 0 0 0.0041 0.4111 0.5395 0.0453 0 0 0 0 0 0 0 0.1381 0.5759 0.2843 0.0017 0 0 0 0 0 0 0.0176 0.408 0.4851 0.0893 0 0 0 0.771 0.229 0 0 0 0 0 0 0 0 0.0873 0.868 0.0447 0 0 0 0 0 0 0 0 0.3472 0.649 0.0038 0 0 0 0 0 0 0 0.0037 0.6389 0.3574 0 0 0 0 0 0 0 0 0.0905 0.7652 0.1443 0 0 0 0 0 0 0 0 0.3059 0.6432 0.0509 0 0 0 0 0 0 0 0.018 0.5274 0.4421 0.0125 0 0 0 0 0 0 0 0.1189 0.6009 0.279 0.0012 0 0 0 0 0 0 0.0019 0.2978 0.5517 0.1486 0 0 0 0 0 0 0 0.0404 0.4395 0.5201 0 0 0.6645 0.3355 0 0 0 0 0 0 0 0 0.0095 0.7376 0.2529 0 0 0 0 0 0 0 0 0.0384 0.7693 0.1923 0 0 0 0 0 0 0 0 0.0902 0.772 0.1378 0 0 0 0 0 0 0 0 0.1513 0.7371 0.1116 0 0 0 0 0 0 0 0 0.2461 0.66 0.0939 0 0 0 0 0 0 0 0.0014 0.3265 0.5944 0.07770000000000001 0 0 0 0 0 0 0 0.0106 0.4019 0.5875 0 0 0 0 0 0 0 0 0.0366 0.9634 0 0 0 0 0 0 0 0 0 1 0 0 0.544 0.456 0 0 0 0 0 0 0 0 0 0.4673 0.5294 0.0033 0 0 0 0 0 0 0 0 0.3708 0.6085 0.0207 0 0 0 0 0 0 0 0 0.3022 0.648 0.0498 0 0 0 0 0 0 0 0 0.2454 0.6556 0.099 0 0 0 0 0 0 0 0 0.2 0.6551 0.1449 0 0 0 0 0 0 0 0 0.1687 0.8313 0 0 0 0 0 0 0 0 0 1 0 0 0 0 0 0 0 0 0 1 0 0 0 0 0 0 0 0 0 1 0 0 0.4585 0.5339 0.0076 0 0 0 0 0 0 0 0 0.2396 0.6786 0.0818 0 0 0 0 0 0 0 0 0.08 0.6715 0.2485 0 0 0 0 0 0 0 0 0.0195 0.5224 0.4461 0.012 0 0 0 0 0 0 0 0.0014 0.3217 0.5986 0.07829999999999999 0 0 0 0 0 0 0 0 0.1709 0.8290999999999999 0 0 0 0 0 0 0 0 0 1 0 0 0 0 0 0 0 0 0 1 0 0 0 0 0 0 0 0 0 1 0 0 0 0 0 0 0 0 0 1 0 0 0.3981 0.5622 0.0397 0 0 0 0 0 0 0 0 0.1088 0.6188 0.2724 0 0 0 0 0 0 0 0 0.0027 0.3971 0.5512 0.049 0 0 0 0 0 0 0 0 0.1198 0.6098 0.269 0.0014 0 0 0 0 0 0 0 0.0113 0.3974 0.5913 0 0 0 0 0 0 0 0 0 1 0 0 0 0 0 0 0 0 0 1 0 0 0 0 0 0 0 0 0 1 0 0 0 0 0 0 0 0 0 1 0 0 0 0 0 0 0 0 0 1 0 0 0.3508 0.5603 0.08890000000000001 0 0 0 0 0 0 0 0 0.0357 0.4865 0.4585 0.0193 0 0 0 0 0 0 0 0 0.136 0.5676 0.2951 0.0013 0 0 0 0 0 0 0 0.0015 0.2911 0.5483 0.1591 0 0 0 0 0 0 0 0 0.0345 0.9655 0 0 0 0 0 0 0 0 0 1 0 0 0 0 0 0 0 0 0 1 0 0 0 0 0 0 0 0 0 1 0 0 0 0 0 0 0 0 0 1 0 0 0 0 0 0 0 0 0 1 0 0 0.3123 0.5219 0.1658 0 0 0 0 0 0 0 0 0.0055 0.3614 0.5082 0.1249 0 0 0 0 0 0 0 0 0.0167 0.4058 0.4912 0.0863 0 0 0 0 0 0 0 0 0.0419 0.4415 0.5165999999999999 0 0 0 0 0 0 0 0 0 1 0 0 0 0 0 0 0 0 0 1 0 0 0 0 0 0 0 0 0 1 0 0 0 0 0 0 0 0 0 1 0 0 0 0 0 0 0 0 0 1 0 0 0 0 0 0 0 0 0 1 0 0 0.18 0.82 0 0 0 0 0 0 0 0 0.0892 0.9108000000000001 0 0 0 0 0 0 0 0 0.054 0.9326 0.0134 0 0 0 0 0 0 0 0.0343 0.8817 0.08400000000000001 0 0 0 0 0 0 0 0.0304 0.7985 0.1711 0 0 0 0 0 0 0 0.025 0.6918 0.2832 0 0 0 0 0 0 0 0.0184 0.5993000000000001 0.3823 0 0 0 0 0 0 0 0.0185 0.5161 0.4598 0.0056 0 0 0 0 0 0 0.0132 0.4586 0.4934 0.0348 0 0 0 0 0 0 0.0147 0.4113 0.4848 0.0892 0 0 0 0 0 0 0.0856 0.9144 0 0 0 0 0 0 0 0 0 0.9039 0.0961 0 0 0 0 0 0 0 0 0.5757 0.4243 0 0 0 0 0 0 0 0 0.2312 0.7637 0.0051 0 0 0 0 0 0 0 0.0639 0.8233 0.1128 0 0 0 0 0 0 0 0.0073 0.6339 0.3588 0 0 0 0 0 0 0 0 0.3876 0.5831 0.0293 0 0 0 0 0 0 0 0.2129 0.6387 0.1484 0 0 0 0 0 0 0 0.0963 0.5573 0.3439 0.0025 0 0 0 0 0 0 0.032 0.4475 0.4652 0.0553 0 0 0 0 0.0497 0.9356 0.0147 0 0 0 0 0 0 0 0 0.5725 0.4275 0 0 0 0 0 0 0 0 0.0764 0.8848 0.0388 0 0 0 0 0 0 0 0 0.5632 0.4368 0 0 0 0 0 0 0 0 0.1302 0.7924 0.0774 0 0 0 0 0 0 0 0.0043 0.5525 0.4407 0.0025 0 0 0 0 0 0 0 0.1827 0.6832 0.1341 0 0 0 0 0 0 0 0.022 0.5087 0.4548 0.0145 0 0 0 0 0 0 0 0.237 0.5691000000000001 0.1939 0 0 0 0 0 0 0 0.0577 0.4682 0.434 0.0401 0 0 0.0351 0.8821 0.0828 0 0 0 0 0 0 0 0 0.2292 0.7658 0.005 0 0 0 0 0 0 0 0 0.5557 0.4443 0 0 0 0 0 0 0 0 0.035 0.7836 0.1814 0 0 0 0 0 0 0 0 0.2071 0.7362 0.0567 0 0 0 0 0 0 0 0.0038 0.4624 0.519 0.0148 0 0 0 0 0 0 0 0.0609 0.6266 0.3103 0.0022 0 0 0 0 0 0 0 0.2172 0.6123 0.1705 0 0 0 0 0 0 0 0.0137 0.3966 0.5897 0 0 0 0 0 0 0 0 0.0963 0.9036999999999999 0 0 0.0267 0.7889 0.1844 0 0 0 0 0 0 0 0 0.0672 0.8192 0.1136 0 0 0 0 0 0 0 0 0.1265 0.7938 0.07969999999999999 0 0 0 0 0 0 0 0 0.2066 0.7377 0.0557 0 0 0 0 0 0 0 0 0.304 0.6476 0.0484 0 0 0 0 0 0 0 0.0026 0.3896 0.5699 0.0379 0 0 0 0 0 0 0 0.0141 0.4575 0.5284 0 0 0 0 0 0 0 0 0.0398 0.9602000000000001 0 0 0 0 0 0 0 0 0 1 0 0 0 0 0 0 0 0 0 1 0 0 0.0221 0.6962 0.2817 0 0 0 0 0 0 0 0 0.0083 0.6319 0.3598 0 0 0 0 0 0 0 0 0.0028 0.5382 0.4559 0.0031 0 0 0 0 0 0 0 0.0031 0.455 0.5301 0.0118 0 0 0 0 0 0 0 0.0018 0.3854 0.5749 0.0379 0 0 0 0 0 0 0 0.0015 0.3234 0.6751 0 0 0 0 0 0 0 0 0.0031 0.9969 0 0 0 0 0 0 0 0 0 1 0 0 0 0 0 0 0 0 0 1 0 0 0 0 0 0 0 0 0 1 0 0 0.0202 0.593 0.3868 0 0 0 0 0 0 0 0 0 0.3859 0.5889 0.0252 0 0 0 0 0 0 0 0 0.1785 0.6871 0.1344 0 0 0 0 0 0 0 0 0.0623 0.6264999999999999 0.3094 0.0018 0 0 0 0 0 0 0 0.014 0.4511 0.5349 0 0 0 0 0 0 0 0 0.0012 0.9988 0 0 0 0 0 0 0 0 0 1 0 0 0 0 0 0 0 0 0 1 0 0 0 0 0 0 0 0 0 1 0 0 0 0 0 0 0 0 0 1 0 0 0.016 0.5121 0.4669 0.005 0 0 0 0 0 0 0 0 0.2129 0.6343 0.1528 0 0 0 0 0 0 0 0 0.0226 0.5178 0.4435 0.0161 0 0 0 0 0 0 0 0 0.2219 0.6098 0.1683 0 0 0 0 0 0 0 0 0.0393 0.9607 0 0 0 0 0 0 0 0 0 1 0 0 0 0 0 0 0 0 0 1 0 0 0 0 0 0 0 0 0 1 0 0 0 0 0 0 0 0 0 1 0 0 0 0 0 0 0 0 0 1 0 0 0.0156 0.4542 0.4961 0.0341 0 0 0 0 0 0 0 0 0.09329999999999999 0.5534 0.3512 0.0021 0 0 0 0 0 0 0 0 0.2476 0.5669999999999999 0.1854 0 0 0 0 0 0 0 0 0.0125 0.4048 0.5827 0 0 0 0 0 0 0 0 0 1 0 0 0 0 0 0 0 0 0 1 0 0 0 0 0 0 0 0 0 1 0 0 0 0 0 0 0 0 0 1 0 0 0 0 0 0 0 0 0 1 0 0 0 0 0 0 0 0 0 1 0 0 0.0131 0.4006 0.4991 0.0872 0 0 0 0 0 0 0 0 0.0306 0.4453 0.4698 0.0543 0 0 0 0 0 0 0 0 0.0589 0.4752 0.4242 0.0417 0 0 0 0 0 0 0 0 0.0958 0.9042 0 0 0 0 0 0 0 0 0 1 0 0 0 0 0 0 0 0 0 1 0 0 0 0 0 0 0 0 0 1 0 0 0 0 0 0 0 0 0 1 0 0 0 0 0 0 0 0 0 1 0 0 0 0 0 0 0 0 0 1 0 0 0 0.4435 0.5565 0 0 0 0 0 0 0 0 0.3035 0.6965 0 0 0 0 0 0 0 0 0.1985 0.8015 0 0 0 0 0 0 0 0 0.1415 0.8492 0.009299999999999999 0 0 0 0 0 0 0 0.1147 0.8215 0.0638 0 0 0 0 0 0 0 0.0934 0.7653 0.1413 0 0 0 0 0 0 0 0.075 0.6869 0.2381 0 0 0 0 0 0 0 0.066 0.5938 0.3402 0 0 0 0 0 0 0 0.0615 0.5289 0.4052 0.0044 0 0 0 0 0 0 0.0497 0.4711 0.4488 0.0304 0 0 0 0 0 0 0.3129 0.6871 0 0 0 0 0 0 0 0 0.0324 0.9557 0.0119 0 0 0 0 0 0 0 0 0.7988 0.2012 0 0 0 0 0 0 0 0 0.4489 0.5511 0 0 0 0 0 0 0 0 0.1757 0.7897 0.0346 0 0 0 0 0 0 0 0.0551 0.7383 0.2066 0 0 0 0 0 0 0 0.0063 0.54 0.4511 0.0026 0 0 0 0 0 0 0 0.337 0.5935 0.06950000000000001 0 0 0 0 0 0 0 0.1838 0.5799 0.2363 0 0 0 0 0 0 0 0.0819 0.5012 0.4025 0.0144 0 0 0 0 0.2123 0.7877 0 0 0 0 0 0 0 0 0 0.7944 0.2056 0 0 0 0 0 0 0 0 0.2291 0.7671 0.0038 0 0 0 0 0 0 0 0.0065 0.7538 0.2397 0 0 0 0 0 0 0 0 0.2733 0.7034 0.0233 0 0 0 0 0 0 0 0.032 0.6781 0.2899 0 0 0 0 0 0 0 0 0.3098 0.6341 0.0561 0 0 0 0 0 0 0 0.0738 0.5982 0.3265 0.0015 0 0 0 0 0 0 0.0032 0.3504 0.5432 0.1032 0 0 0 0 0 0 0 0.1281 0.4958 0.3761 0 0 0 0.1389 0.8491 0.012 0 0 0 0 0 0 0 0 0.438 0.5620000000000001 0 0 0 0 0 0 0 0 0.0058 0.7529 0.2413 0 0 0 0 0 0 0 0 0.1162 0.8081 0.0757 0 0 0 0 0 0 0 0 0.3559 0.6259 0.0182 0 0 0 0 0 0 0 0.0242 0.6015 0.3729 0.0014 0 0 0 0 0 0 0 0.1418 0.6713 0.1869 0 0 0 0 0 0 0 0.0017 0.3377 0.6606 0 0 0 0 0 0 0 0 0.0448 0.9552 0 0 0 0 0 0 0 0 0 1 0 0 0 0.1094 0.8243 0.0663 0 0 0 0 0 0 0 0 0.1792 0.7808 0.04 0 0 0 0 0 0 0 0 0.2658 0.7091 0.0251 0 0 0 0 0 0 0 0 0.3698 0.6138 0.0164 0 0 0 0 0 0 0 0.0023 0.4509 0.5318000000000001 0.015 0 0 0 0 0 0 0 0.0166 0.5294 0.454 0 0 0 0 0 0 0 0 0.0482 0.9518 0 0 0 0 0 0 0 0 0 1 0 0 0 0 0 0 0 0 0 1 0 0 0 0 0 0 0 0 0 1 0 0 0 0.0951 0.7639 0.141 0 0 0 0 0 0 0 0 0.0555 0.7393999999999999 0.2051 0 0 0 0 0 0 0 0 0.0327 0.6798999999999999 0.2874 0 0 0 0 0 0 0 0 0.0222 0.6039 0.3713 0.0026 0 0 0 0 0 0 0 0.0145 0.53 0.4555 0 0 0 0 0 0 0 0 0.0123 0.9877 0 0 0 0 0 0 0 0 0 1 0 0 0 0 0 0 0 0 0 1 0 0 0 0 0 0 0 0 0 1 0 0 0 0 0 0 0 0 0 1 0 0 0 0.0757 0.6859 0.2384 0 0 0 0 0 0 0 0 0.0054 0.5431 0.4498 0.0017 0 0 0 0 0 0 0 0 0.3174 0.6297 0.0529 0 0 0 0 0 0 0 0 0.1354 0.667 0.1976 0 0 0 0 0 0 0 0 0.0454 0.9546 0 0 0 0 0 0 0 0 0 1 0 0 0 0 0 0 0 0 0 1 0 0 0 0 0 0 0 0 0 1 0 0 0 0 0 0 0 0 0 1 0 0 0 0 0 0 0 0 0 1 0 0 0 0.0678 0.6031 0.3291 0 0 0 0 0 0 0 0 0 0.3367 0.5911 0.0722 0 0 0 0 0 0 0 0 0.07199999999999999 0.5927 0.3326 0.0027 0 0 0 0 0 0 0 0.002 0.3417 0.6563 0 0 0 0 0 0 0 0 0 1 0 0 0 0 0 0 0 0 0 1 0 0 0 0 0 0 0 0 0 1 0 0 0 0 0 0 0 0 0 1 0 0 0 0 0 0 0 0 0 1 0 0 0 0 0 0 0 0 0 1 0 0 0 0.0538 0.5337 0.4084 0.0041 0 0 0 0 0 0 0 0 0.1821 0.5794 0.2385 0 0 0 0 0 0 0 0 0.0024 0.3543 0.5458 0.0975 0 0 0 0 0 0 0 0 0.0486 0.9514 0 0 0 0 0 0 0 0 0 1 0 0 0 0 0 0 0 0 0 1 0 0 0 0 0 0 0 0 0 1 0 0 0 0 0 0 0 0 0 1 0 0 0 0 0 0 0 0 0 1 0 0 0 0 0 0 0 0 0 1 0 0 0 0.0548 0.4828 0.4304 0.032 0 0 0 0 0 0 0 0 0.0819 0.4991 0.4056 0.0134 0 0 0 0 0 0 0 0 0.1166 0.5173 0.3661 0 0 0 0 0 0 0 0 0 1 0 0 0 0 0 0 0 0 0 1 0 0 0 0 0 0 0 0 0 1 0 0 0 0 0 0 0 0 0 1 0 0 0 0 0 0 0 0 0 1 0 0 0 0 0 0 0 0 0 1 0 0 0 0 0 0 0 0 0 1 0 0 0 0 0.6854 0.3146 0 0 0 0 0 0 0 0 0.5595 0.4405 0 0 0 0 0 0 0 0 0.4346 0.5654 0 0 0 0 0 0 0 0 0.3219 0.6781 0 0 0 0 0 0 0 0 0.2514 0.7386 0.01 0 0 0 0 0 0 0 0.198 0.7451 0.0569 0 0 0 0 0 0 0 0.1704 0.7043 0.1253 0 0 0 0 0 0 0 0.1488 0.651 0.2002 0 0 0 0 0 0 0 0.1313 0.572 0.2967 0 0 0 0 0 0 0 0.1203 0.5117 0.3633 0.0047 0 0 0 0 0 0 0.5706 0.4294 0 0 0 0 0 0 0 0 0.1969 0.8031 0 0 0 0 0 0 0 0 0.018 0.9239000000000001 0.0581 0 0 0 0 0 0 0 0 0.6729000000000001 0.3271 0 0 0 0 0 0 0 0 0.3485 0.6466 0.0049 0 0 0 0 0 0 0 0.1433 0.7579 0.0988 0 0 0 0 0 0 0 0.0401 0.6486 0.3113 0 0 0 0 0 0 0 0.0071 0.4547 0.5165 0.0217 0 0 0 0 0 0 0 0.3018 0.5663 0.1319 0 0 0 0 0 0 0 0.1569 0.531 0.3103 0.0018 0 0 0 0 0.4356 0.5644 0 0 0 0 0 0 0 0 0.0178 0.9214 0.0608 0 0 0 0 0 0 0 0 0.4458 0.5542 0 0 0 0 0 0 0 0 0.0517 0.8455 0.1028 0 0 0 0 0 0 0 0 0.4538 0.5427999999999999 0.0034 0 0 0 0 0 0 0 0.0959 0.747 0.1571 0 0 0 0 0 0 0 0.0027 0.4686 0.5125999999999999 0.0161 0 0 0 0 0 0 0 0.1546 0.6372 0.2082 0 0 0 0 0 0 0 0.0209 0.4541 0.525 0 0 0 0 0 0 0 0 0.2143 0.7857 0 0 0 0 0.3273 0.6727 0 0 0 0 0 0 0 0 0 0.6752 0.3248 0 0 0 0 0 0 0 0 0.0518 0.8504 0.0978 0 0 0 0 0 0 0 0 0.2641 0.7147 0.0212 0 0 0 0 0 0 0 0.0038 0.5536 0.4404 0.0022 0 0 0 0 0 0 0 0.07340000000000001 0.7081 0.2185 0 0 0 0 0 0 0 0 0.2567 0.7433 0 0 0 0 0 0 0 0 0.0141 0.9859 0 0 0 0 0 0 0 0 0 1 0 0 0 0 0 0 0 0 0 1 0 0 0 0 0.2572 0.7344000000000001 0.008399999999999999 0 0 0 0 0 0 0 0 0.3443 0.651 0.0047 0 0 0 0 0 0 0 0 0.4441 0.5523 0.0036 0 0 0 0 0 0 0 0.0036 0.5409 0.4533 0.0022 0 0 0 0 0 0 0 0.0197 0.6162 0.3641 0 0 0 0 0 0 0 0 0.0532 0.9468 0 0 0 0 0 0 0 0 0 1 0 0 0 0 0 0 0 0 0 1 0 0 0 0 0 0 0 0 0 1 0 0 0 0 0 0 0 0 0 1 0 0 0 0 0.2081 0.7364000000000001 0.0555 0 0 0 0 0 0 0 0 0.1429 0.7582 0.0989 0 0 0 0 0 0 0 0 0.1024 0.7433 0.1543 0 0 0 0 0 0 0 0 0.0732 0.6972 0.2296 0 0 0 0 0 0 0 0 0.0546 0.9454 0 0 0 0 0 0 0 0 0 1 0 0 0 0 0 0 0 0 0 1 0 0 0 0 0 0 0 0 0 1 0 0 0 0 0 0 0 0 0 1 0 0 0 0 0 0 0 0 0 1 0 0 0 0 0.1754 0.6976 0.127 0 0 0 0 0 0 0 0 0.0461 0.6461 0.3078 0 0 0 0 0 0 0 0 0.0025 0.4677 0.5135999999999999 0.0162 0 0 0 0 0 0 0 0 0.2535 0.7465000000000001 0 0 0 0 0 0 0 0 0 1 0 0 0 0 0 0 0 0 0 1 0 0 0 0 0 0 0 0 0 1 0 0 0 0 0 0 0 0 0 1 0 0 0 0 0 0 0 0 0 1 0 0 0 0 0 0 0 0 0 1 0 0 0 0 0.1483 0.6415 0.2102 0 0 0 0 0 0 0 0 0.007 0.4618 0.509 0.0222 0 0 0 0 0 0 0 0 0.1508 0.6347 0.2145 0 0 0 0 0 0 0 0 0.0157 0.9843 0 0 0 0 0 0 0 0 0 1 0 0 0 0 0 0 0 0 0 1 0 0 0 0 0 0 0 0 0 1 0 0 0 0 0 0 0 0 0 1 0 0 0 0 0 0 0 0 0 1 0 0 0 0 0 0 0 0 0 1 0 0 0 0 0.137 0.5753 0.2877 0 0 0 0 0 0 0 0 0 0.2979 0.5604 0.1417 0 0 0 0 0 0 0 0 0.022 0.4586 0.5194 0 0 0 0 0 0 0 0 0 1 0 0 0 0 0 0 0 0 0 1 0 0 0 0 0 0 0 0 0 1 0 0 0 0 0 0 0 0 0 1 0 0 0 0 0 0 0 0 0 1 0 0 0 0 0 0 0 0 0 1 0 0 0 0 0 0 0 0 0 1 0 0 0 0 0.1169 0.5203 0.3592 0.0036 0 0 0 0 0 0 0 0 0.1649 0.5251 0.3083 0.0017 0 0 0 0 0 0 0 0 0.213 0.787 0 0 0 0 0 0 0 0 0 1 0 0 0 0 0 0 0 0 0 1 0 0 0 0 0 0 0 0 0 1 0 0 0 0 0 0 0 0 0 1 0 0 0 0 0 0 0 0 0 1 0 0 0 0 0 0 0 0 0 1 0 0 0 0 0 0 0 0 0 1 0 0 0 0 0 0.9359 0.0641 0 0 0 0 0 0 0 0 0.8198 0.1802 0 0 0 0 0 0 0 0 0.6907 0.3093 0 0 0 0 0 0 0 0 0.5639 0.4361 0 0 0 0 0 0 0 0 0.4449 0.5551 0 0 0 0 0 0 0 0 0.3569 0.636 0.0071 0 0 0 0 0 0 0 0.2973 0.6567 0.046 0 0 0 0 0 0 0 0.2629 0.6323 0.1048 0 0 0 0 0 0 0 0.2405 0.5790999999999999 0.1804 0 0 0 0 0 0 0 0.2078 0.5254 0.2668 0 0 0 0 0 0 0 0.8108 0.1892 0 0 0 0 0 0 0 0 0.4332 0.5668 0 0 0 0 0 0 0 0 0.1258 0.8673 0.0069 0 0 0 0 0 0 0 0.0149 0.8336 0.1515 0 0 0 0 0 0 0 0 0.5563 0.4437 0 0 0 0 0 0 0 0 0.288 0.6846 0.0274 0 0 0 0 0 0 0 0.1275 0.702 0.1705 0 0 0 0 0 0 0 0.0387 0.5708 0.3886 0.0019 0 0 0 0 0 0 0.0043 0.4122 0.5198 0.06370000000000001 0 0 0 0 0 0 0 0.2731 0.516 0.2109 0 0 0 0 0 0.6860000000000001 0.314 0 0 0 0 0 0 0 0 0.1191 0.873 0.007900000000000001 0 0 0 0 0 0 0 0 0.6723 0.3277 0 0 0 0 0 0 0 0 0.1605 0.8112 0.0283 0 0 0 0 0 0 0 0.0072 0.6442 0.3486 0 0 0 0 0 0 0 0 0.2174 0.7159 0.0667 0 0 0 0 0 0 0 0.0276 0.5926 0.3798 0 0 0 0 0 0 0 0 0.2664 0.7336 0 0 0 0 0 0 0 0 0.0669 0.9331 0 0 0 0 0 0 0 0 0.0024 0.9976 0 0 0 0 0 0.5600000000000001 0.44 0 0 0 0 0 0 0 0 0.0107 0.8486 0.1407 0 0 0 0 0 0 0 0 0.1604 0.8102 0.0294 0 0 0 0 0 0 0 0 0.4516 0.5463 0.0021 0 0 0 0 0 0 0 0.0274 0.6986 0.274 0 0 0 0 0 0 0 0 0.1672 0.8328 0 0 0 0 0 0 0 0 0.0024 0.9976 0 0 0 0 0 0 0 0 0 1 0 0 0 0 0 0 0 0 0 1 0 0 0 0 0 0 0 0 0 1 0 0 0 0 0 0.449 0.551 0 0 0 0 0 0 0 0 0 0.5603 0.4397 0 0 0 0 0 0 0 0 0.0057 0.6536999999999999 0.3406 0 0 0 0 0 0 0 0 0.0276 0.6928 0.2796 0 0 0 0 0 0 0 0 0.0659 0.9341 0 0 0 0 0 0 0 0 0 1 0 0 0 0 0 0 0 0 0 1 0 0 0 0 0 0 0 0 0 1 0 0 0 0 0 0 0 0 0 1 0 0 0 0 0 0 0 0 0 1 0 0 0 0 0 0.3727 0.6193 0.008 0 0 0 0 0 0 0 0 0.279 0.6952 0.0258 0 0 0 0 0 0 0 0 0.2223 0.7114 0.0663 0 0 0 0 0 0 0 0 0.1674 0.8326 0 0 0 0 0 0 0 0 0 1 0 0 0 0 0 0 0 0 0 1 0 0 0 0 0 0 0 0 0 1 0 0 0 0 0 0 0 0 0 1 0 0 0 0 0 0 0 0 0 1 0 0 0 0 0 0 0 0 0 1 0 0 0 0 0 0.3145 0.6401 0.0454 0 0 0 0 0 0 0 0 0.1244 0.699 0.1766 0 0 0 0 0 0 0 0 0.0284 0.5968 0.3748 0 0 0 0 0 0 0 0 0.002 0.998 0 0 0 0 0 0 0 0 0 1 0 0 0 0 0 0 0 0 0 1 0 0 0 0 0 0 0 0 0 1 0 0 0 0 0 0 0 0 0 1 0 0 0 0 0 0 0 0 0 1 0 0 0 0 0 0 0 0 0 1 0 0 0 0 0 0.2672 0.6293 0.1035 0 0 0 0 0 0 0 0 0.0404 0.5712 0.3855 0.0029 0 0 0 0 0 0 0 0 0.2734 0.7266 0 0 0 0 0 0 0 0 0 1 0 0 0 0 0 0 0 0 0 1 0 0 0 0 0 0 0 0 0 1 0 0 0 0 0 0 0 0 0 1 0 0 0 0 0 0 0 0 0 1 0 0 0 0 0 0 0 0 0 1 0 0 0 0 0 0 0 0 0 1 0 0 0 0 0 0.2347 0.5874 0.1779 0 0 0 0 0 0 0 0 0.0046 0.408 0.5219 0.0655 0 0 0 0 0 0 0 0 0.0605 0.9395 0 0 0 0 0 0 0 0 0 1 0 0 0 0 0 0 0 0 0 1 0 0 0 0 0 0 0 0 0 1 0 0 0 0 0 0 0 0 0 1 0 0 0 0 0 0 0 0 0 1 0 0 0 0 0 0 0 0 0 1 0 0 0 0 0 0 0 0 0 1 0 0 0 0 0 0.2041 0.5285 0.2674 0 0 0 0 0 0 0 0 0 0.2664 0.5229 0.2107 0 0 0 0 0 0 0 0 0.0028 0.9972 0 0 0 0 0 0 0 0 0 1 0 0 0 0 0 0 0 0 0 1 0 0 0 0 0 0 0 0 0 1 0 0 0 0 0 0 0 0 0 1 0 0 0 0 0 0 0 0 0 1 0 0 0 0 0 0 0 0 0 1 0 0 0 0 0 0 0 0 0 1 0 0 0 0 0 0 1 0 0 0 0 0 0 0 0 0 0.9772 0.0228 0 0 0 0 0 0 0 0 0.8885999999999999 0.1114 0 0 0 0 0 0 0 0 0.7841 0.2159 0 0 0 0 0 0 0 0 0.6639 0.3361 0 0 0 0 0 0 0 0 0.5515 0.4485 0 0 0 0 0 0 0 0 0.4669 0.5262 0.0069 0 0 0 0 0 0 0 0.4067 0.5568 0.0365 0 0 0 0 0 0 0 0.3601 0.5521 0.0878 0 0 0 0 0 0 0 0.3116 0.5253 0.1631 0 0 0 0 0 0 0 0.9762999999999999 0.0237 0 0 0 0 0 0 0 0 0.6844 0.3156 0 0 0 0 0 0 0 0 0.3151 0.6849 0 0 0 0 0 0 0 0 0.0867 0.8696 0.0437 0 0 0 0 0 0 0 0.011 0.7369 0.2521 0 0 0 0 0 0 0 0 0.4513 0.5452 0.0035 0 0 0 0 0 0 0 0.2389 0.6812 0.0799 0 0 0 0 0 0 0 0.1074 0.63 0.2626 0 0 0 0 0 0 0 0.0382 0.4991 0.4627 0 0 0 0 0 0 0 0.0049 0.3615 0.6336000000000001 0 0 0 0 0 0 0.8862 0.1138 0 0 0 0 0 0 0 0 0.3227 0.6773 0 0 0 0 0 0 0 0 0.008800000000000001 0.8612 0.13 0 0 0 0 0 0 0 0 0.3368 0.6604 0.0028 0 0 0 0 0 0 0 0.0407 0.7641 0.1952 0 0 0 0 0 0 0 0 0.364 0.636 0 0 0 0 0 0 0 0 0.0851 0.9149 0 0 0 0 0 0 0 0 0.0023 0.9977 0 0 0 0 0 0 0 0 0 1 0 0 0 0 0 0 0 0 0 1 0 0 0 0 0 0 0.7774 0.2226 0 0 0 0 0 0 0 0 0.0901 0.863 0.0469 0 0 0 0 0 0 0 0 0.3382 0.6593 0.0025 0 0 0 0 0 0 0 0.0048 0.6477000000000001 0.3475 0 0 0 0 0 0 0 0 0.0856 0.9144 0 0 0 0 0 0 0 0 0 1 0 0 0 0 0 0 0 0 0 1 0 0 0 0 0 0 0 0 0 1 0 0 0 0 0 0 0 0 0 1 0 0 0 0 0 0 0 0 0 1 0 0 0 0 0 0 0.6649 0.3351 0 0 0 0 0 0 0 0 0.008500000000000001 0.7454 0.2461 0 0 0 0 0 0 0 0 0.0411 0.7685999999999999 0.1903 0 0 0 0 0 0 0 0 0.0925 0.9075 0 0 0 0 0 0 0 0 0 1 0 0 0 0 0 0 0 0 0 1 0 0 0 0 0 0 0 0 0 1 0 0 0 0 0 0 0 0 0 1 0 0 0 0 0 0 0 0 0 1 0 0 0 0 0 0 0 0 0 1 0 0 0 0 0 0 0.5554 0.4446 0 0 0 0 0 0 0 0 0 0.4635 0.5314 0.0051 0 0 0 0 0 0 0 0 0.3774 0.6226 0 0 0 0 0 0 0 0 0 1 0 0 0 0 0 0 0 0 0 1 0 0 0 0 0 0 0 0 0 1 0 0 0 0 0 0 0 0 0 1 0 0 0 0 0 0 0 0 0 1 0 0 0 0 0 0 0 0 0 1 0 0 0 0 0 0 0 0 0 1 0 0 0 0 0 0 0.4674 0.527 0.0056 0 0 0 0 0 0 0 0 0.2489 0.6698 0.0813 0 0 0 0 0 0 0 0 0.0825 0.9175 0 0 0 0 0 0 0 0 0 1 0 0 0 0 0 0 0 0 0 1 0 0 0 0 0 0 0 0 0 1 0 0 0 0 0 0 0 0 0 1 0 0 0 0 0 0 0 0 0 1 0 0 0 0 0 0 0 0 0 1 0 0 0 0 0 0 0 0 0 1 0 0 0 0 0 0 0.4003 0.5627 0.037 0 0 0 0 0 0 0 0 0.114 0.6272 0.2588 0 0 0 0 0 0 0 0 0.0026 0.9974 0 0 0 0 0 0 0 0 0 1 0 0 0 0 0 0 0 0 0 1 0 0 0 0 0 0 0 0 0 1 0 0 0 0 0 0 0 0 0 1 0 0 0 0 0 0 0 0 0 1 0 0 0 0 0 0 0 0 0 1 0 0 0 0 0 0 0 0 0 1 0 0 0 0 0 0 0.3534 0.5488 0.0978 0 0 0 0 0 0 0 0 0.0362 0.5009 0.4629 0 0 0 0 0 0 0 0 0 1 0 0 0 0 0 0 0 0 0 1 0 0 0 0 0 0 0 0 0 1 0 0 0 0 0 0 0 0 0 1 0 0 0 0 0 0 0 0 0 1 0 0 0 0 0 0 0 0 0 1 0 0 0 0 0 0 0 0 0 1 0 0 0 0 0 0 0 0 0 1 0 0 0 0 0 0 0.3195 0.5142 0.1663 0 0 0 0 0 0 0 0 0.0045 0.3632 0.6323 0 0 0 0 0 0 0 0 0 1 0 0 0 0 0 0 0 0 0 1 0 0 0 0 0 0 0 0 0 1 0 0 0 0 0 0 0 0 0 1 0 0 0 0 0 0 0 0 0 1 0 0 0 0 0 0 0 0 0 1 0 0 0 0 0 0 0 0 0 1 0 0 0 0 0 0 0 0 0 1 0 0 0 0 0 0 0.1956 0.8044 0 0 0 0 0 0 0 0 0.08649999999999999 0.9135 0 0 0 0 0 0 0 0 0.0504 0.9349 0.0147 0 0 0 0 0 0 0 0.0371 0.8806 0.0823 0 0 0 0 0 0 0 0.0269 0.8008999999999999 0.1722 0 0 0 0 0 0 0 0.0213 0.7005 0.2782 0 0 0 0 0 0 0 0.0206 0.6009 0.3785 0 0 0 0 0 0 0 0.0171 0.5144 0.464 0.0045 0 0 0 0 0 0 0.0155 0.4638 0.4879 0.0328 0 0 0 0 0 0 0.0145 0.4101 0.4956 0.0798 0 0 0 0 0 0 0.0901 0.9099 0 0 0 0 0 0 0 0 0 0.9032 0.0968 0 0 0 0 0 0 0 0 0.5615 0.4385 0 0 0 0 0 0 0 0 0.2351 0.7599 0.005 0 0 0 0 0 0 0 0.0696 0.8169999999999999 0.1134 0 0 0 0 0 0 0 0.0091 0.621 0.3699 0 0 0 0 0 0 0 0 0.3839 0.6161 0 0 0 0 0 0 0 0 0.2076 0.7924 0 0 0 0 0 0 0 0 0.0906 0.9094 0 0 0 0 0 0 0 0 0.0323 0.9677 0 0 0 0 0 0 0.052 0.9368 0.0112 0 0 0 0 0 0 0 0 0.5589 0.4411 0 0 0 0 0 0 0 0 0.0732 0.8857 0.0411 0 0 0 0 0 0 0 0 0.5602 0.4398 0 0 0 0 0 0 0 0 0.1309 0.8691 0 0 0 0 0 0 0 0 0.0039 0.9961 0 0 0 0 0 0 0 0 0 1 0 0 0 0 0 0 0 0 0 1 0 0 0 0 0 0 0 0 0 1 0 0 0 0 0 0 0 0 0 1 0 0 0 0 0 0 0.0352 0.8796 0.0852 0 0 0 0 0 0 0 0 0.2323 0.7633 0.0044 0 0 0 0 0 0 0 0 0.5561 0.4439 0 0 0 0 0 0 0 0 0.0369 0.9631 0 0 0 0 0 0 0 0 0 1 0 0 0 0 0 0 0 0 0 1 0 0 0 0 0 0 0 0 0 1 0 0 0 0 0 0 0 0 0 1 0 0 0 0 0 0 0 0 0 1 0 0 0 0 0 0 0 0 0 1 0 0 0 0 0 0 0.0266 0.8 0.1734 0 0 0 0 0 0 0 0 0.0673 0.8224 0.1103 0 0 0 0 0 0 0 0 0.1222 0.8778 0 0 0 0 0 0 0 0 0 1 0 0 0 0 0 0 0 0 0 1 0 0 0 0 0 0 0 0 0 1 0 0 0 0 0 0 0 0 0 1 0 0 0 0 0 0 0 0 0 1 0 0 0 0 0 0 0 0 0 1 0 0 0 0 0 0 0 0 0 1 0 0 0 0 0 0 0.0225 0.7022 0.2753 0 0 0 0 0 0 0 0 0.008699999999999999 0.6257 0.3656 0 0 0 0 0 0 0 0 0.0045 0.9955000000000001 0 0 0 0 0 0 0 0 0 1 0 0 0 0 0 0 0 0 0 1 0 0 0 0 0 0 0 0 0 1 0 0 0 0 0 0 0 0 0 1 0 0 0 0 0 0 0 0 0 1 0 0 0 0 0 0 0 0 0 1 0 0 0 0 0 0 0 0 0 1 0 0 0 0 0 0 0.02 0.6022999999999999 0.3777 0 0 0 0 0 0 0 0 0 0.3839 0.6161 0 0 0 0 0 0 0 0 0 1 0 0 0 0 0 0 0 0 0 1 0 0 0 0 0 0 0 0 0 1 0 0 0 0 0 0 0 0 0 1 0 0 0 0 0 0 0 0 0 1 0 0 0 0 0 0 0 0 0 1 0 0 0 0 0 0 0 0 0 1 0 0 0 0 0 0 0 0 0 1 0 0 0 0 0 0 0.0176 0.5149 0.4622 0.0053 0 0 0 0 0 0 0 0 0.2115 0.7885 0 0 0 0 0 0 0 0 0 1 0 0 0 0 0 0 0 0 0 1 0 0 0 0 0 0 0 0 0 1 0 0 0 0 0 0 0 0 0 1 0 0 0 0 0 0 0 0 0 1 0 0 0 0 0 0 0 0 0 1 0 0 0 0 0 0 0 0 0 1 0 0 0 0 0 0 0 0 0 1 0 0 0 0 0 0 0.0152 0.4656 0.4864 0.0328 0 0 0 0 0 0 0 0 0.0948 0.9052 0 0 0 0 0 0 0 0 0 1 0 0 0 0 0 0 0 0 0 1 0 0 0 0 0 0 0 0 0 1 0 0 0 0 0 0 0 0 0 1 0 0 0 0 0 0 0 0 0 1 0 0 0 0 0 0 0 0 0 1 0 0 0 0 0 0 0 0 0 1 0 0 0 0 0 0 0 0 0 1 0 0 0 0 0 0 0.009900000000000001 0.4107 0.5002 0.07920000000000001 0 0 0 0 0 0 0 0 0.0318 0.9681999999999999 0 0 0 0 0 0 0 0 0 1 0 0 0 0 0 0 0 0 0 1 0 0 0 0 0 0 0 0 0 1 0 0 0 0 0 0 0 0 0 1 0 0 0 0 0 0 0 0 0 1 0 0 0 0 0 0 0 0 0 1 0 0 0 0 0 0 0 0 0 1 0 0 0 0 0 0 0 0 0 1</probabilities>
		</cpt>
		<cpt id="random_disturbance_t_1">
			<state id="State0" />
			<state id="State1" />
			<state id="State2" />
			<state id="State3" />
			<state id="State4" />
			<state id="State5" />
			<state id="State6" />
			<state id="State7" />
			<state id="State8" />
			<state id="State9" />
			<intervals>0 0.1 0.2 0.3 0.4 0.5 0.6 0.7 0.8 0.9 1</intervals>
			<probabilities>0.2578479763079961 0.2341559723593287 0.1875616979269497 0.1385982230997038 0.09002961500493584 0.04461994076999013 0.02388943731490622 0.01599210266535044 0.005923000987166831 0.001382033563672261</probabilities>
		</cpt>
		<cpt id="random_disturbance">
			<state id="State0" />
			<state id="State1" />
			<state id="State2" />
			<state id="State3" />
			<state id="State4" />
			<state id="State5" />
			<state id="State6" />
			<state id="State7" />
			<state id="State8" />
			<state id="State9" />
			<intervals>0 0.1 0.2 0.3 0.4 0.5 0.6 0.7 0.8 0.9 1</intervals>
			<parents>random_disturbance_t_1</parents>
			<probabilities>0.3830058224163028 0.2132099437488659 0.2107452966714906 0.2054143040058533 0.2030575539568345 0.2231783229586232 0.2227624707365388 0.2174714338370807 0.2047128129602356 0.2112495419567607 0.1955967976710335 0.3703502086735619 0.1868668596237337 0.1891348088531187 0.1915467625899281 0.1924203588429147 0.1917882225823879 0.1879837817913749 0.1949558173784978 0.1964089410040308 0.1644832605531296 0.1562329885683179 0.3489507959479016 0.1587708066581306 0.1516187050359712 0.1515928231417063 0.1464073473797947 0.1513085145595282 0.1551914580265096 0.1520703554415537 0.1078966521106259 0.1112320812919615 0.1041968162083936 0.2996158770806658 0.1032374100719424 0.113328451116807 0.110390779758689 0.108920014743826 0.1056701030927835 0.1097471601319164 0.07187045123726346 0.07022318998366903 0.06964544138929088 0.06987378818364734 0.2669064748201439 0.06938850238008056 0.07167296956600036 0.0720604496866937 0.07124447717231222 0.07163796262367167 0.0398471615720524 0.04082743603701688 0.039616497829233 0.03877812328516554 0.04370503597122302 0.2132918344928598 0.04303979830722132 0.03741245853298931 0.04491899852724595 0.03755954562110663 0.02365356622998544 0.02123026673924877 0.02369753979739508 0.02341320651179806 0.02464028776978417 0.02087147564994507 0.198631370430398 0.02377441946185035 0.023379970544919 0.02455111762550385 0.008915574963609897 0.01088731627653783 0.009949348769898697 0.009511615145417962 0.009172661870503597 0.008787989747345295 0.009724473257698542 0.1959085882786583 0.01067746686303387 0.008794430194210334 0.003275109170305677 0.004536381781890764 0.004703328509406657 0.003841229193341869 0.004856115107913669 0.004943244232881728 0.004141905276427157 0.004054552156284556 0.1877761413843888 0.004213997801392451 0.001455604075691412 0.001270186898929414 0.001628075253256151 0.001646241082860801 0.001258992805755396 0.002196997436836324 0.001440662704844228 0.00110578695171397 0.001472754050073638 0.1837669475998534</probabilities>
		</cpt>
		<cpt id="motor_wear_t_1">
			<state id="State0" />
			<state id="State1" />
			<state id="State2" />
			<state id="State3" />
			<state id="State4" />
			<state id="State5" />
			<state id="State6" />
			<state id="State7" />
			<state id="State8" />
			<state id="State9" />
			<intervals>0 0.1 0.2 0.3 0.4 0.5 0.6 0.7 0.8 0.9 1</intervals>
			<probabilities>0.9530227948463825 0.04539147670961348 0.0001982160555004955 0.0001982160555004955 0.0001982160555004955 0.0001982160555004955 0.0001982160555004955 0.0001982160555004955 0.0001982160555004955 0.0001982160555004955</probabilities>
		</cpt>
		<cpt id="motor_wear">
			<state id="State0" />
			<state id="State1" />
			<state id="State2" />
			<state id="State3" />
			<state id="State4" />
			<state id="State5" />
			<state id="State6" />
			<state id="State7" />
			<state id="State8" />
			<state id="State9" />
			<intervals>0 0.1 0.2 0.3 0.4 0.5 0.6 0.7 0.8 0.9 1</intervals>
			<parents>motor_wear_t_1</parents>
			<probabilities>0.9963869931754316 0.002810116419108792 0.0001003613006824568 0.0001003613006824568 0.0001003613006824568 0.0001003613006824568 0.0001003613006824568 0.0001003613006824568 0.0001003613006824568 0.0001003613006824568 0.00349755171380034 0.9926051763765364 0.003197761566903168 9.9930048965724e-05 9.9930048965724e-05 9.9930048965724e-05 9.9930048965724e-05 9.9930048965724e-05 9.9930048965724e-05 9.9930048965724e-05 9.9930048965724e-05 0.004396922154491856 0.9917058059358449 0.003197761566903168 9.9930048965724e-05 9.9930048965724e-05 9.9930048965724e-05 9.9930048965724e-05 9.9930048965724e-05 9.9930048965724e-05 9.9930048965724e-05 9.9930048965724e-05 0.003897271909663236 0.9926051763765364 0.002798041371040272 9.9930048965724e-05 9.9930048965724e-05 9.9930048965724e-05 9.9930048965724e-05 9.9930048965724e-05 9.9930048965724e-05 9.9930048965724e-05 9.9930048965724e-05 0.0049965024482862 0.9911062256420505 0.003197761566903168 9.9930048965724e-05 9.9930048965724e-05 9.9930048965724e-05 9.9930048965724e-05 9.9930048965724e-05 9.9930048965724e-05 9.9930048965724e-05 9.9930048965724e-05 0.003897271909663236 0.9915059458379135 0.003897271909663236 9.9930048965724e-05 9.9930048965724e-05 9.9930048965724e-05 9.9930048965724e-05 9.9930048965724e-05 9.9930048965724e-05 9.9930048965724e-05 9.9930048965724e-05 0.005096432497251923 0.9901069251523933 0.004097132007594683 9.9930048965724e-05 9.9930048965724e-05 9.9930048965724e-05 9.9930048965724e-05 9.9930048965724e-05 9.9930048965724e-05 9.9930048965724e-05 9.9930048965724e-05 0.003297691615868892 0.992405316278605 0.003597481762766064 9.9930048965724e-05 9.9930048965724e-05 9.9930048965724e-05 9.9930048965724e-05 9.9930048965724e-05 9.9930048965724e-05 9.9930048965724e-05 9.9930048965724e-05 0.003897271909663236 0.9921055261317078 0.003297691615868892 0.0001002004008016032 0.0001002004008016032 0.0001002004008016032 0.0001002004008016032 0.0001002004008016032 0.0001002004008016032 0.0001002004008016032 0.0001002004008016032 0.003707414829659319 0.9954909819639278</probabilities>
		</cpt>
		<cpt id="turbulence_t_1">
			<state id="State0" />
			<state id="State1" />
			<state id="State2" />
			<state id="State3" />
			<state id="State4" />
			<state id="State5" />
			<state id="State6" />
			<state id="State7" />
			<state id="State8" />
			<state id="State9" />
			<intervals>0 0.1 0.2 0.3 0.4 0.5 0.6 0.7 0.8 0.9 1</intervals>
			<probabilities>0.2637384677095869 0.2292418772563177 0.1935419173686322 0.132571199358203 0.08403529883674288 0.05214600882470918 0.02787805856397914 0.009827517047733655 0.005816285599679102 0.001203369434416366</probabilities>
		</cpt>
		<cpt id="turbulence">
			<state id="State0" />
			<state id="State1" />
			<state id="State2" />
			<state id="State3" />
			<state id="State4" />
			<state id="State5" />
			<state id="State6" />
			<state id="State7" />
			<state id="State8" />
			<state id="State9" />
			<intervals>0 0.1 0.2 0.3 0.4 0.5 0.6 0.7 0.8 0.9 1</intervals>
			<parents>turbulence_t_1</parents>
			<probabilities>0.9596043727225403 0.03956272774596564 0.0001041124414367517 0.0001041124414367517 0.0001041124414367517 0.0001041124414367517 0.0001041124414367517 0.0001041124414367517 0.0001041124414367517 0.0001041124414367517 0.03647446787248926 0.9196562406315579 0.04316978115319277 9.9930048965724e-05 9.9930048965724e-05 9.9930048965724e-05 9.9930048965724e-05 9.9930048965724e-05 9.9930048965724e-05 9.9930048965724e-05 9.9930048965724e-05 0.03797341860697512 0.9204556810232837 0.04087139002698111 9.9930048965724e-05 9.9930048965724e-05 9.9930048965724e-05 9.9930048965724e-05 9.9930048965724e-05 9.9930048965724e-05 9.9930048965724e-05 9.9930048965724e-05 0.04336964125112421 0.9165584091136205 0.03937243929249525 9.9930048965724e-05 9.9930048965724e-05 9.9930048965724e-05 9.9930048965724e-05 9.9930048965724e-05 9.9930048965724e-05 9.9930048965724e-05 9.9930048965724e-05 0.03887278904766663 0.9187568701908664 0.04167083041870691 9.9930048965724e-05 9.9930048965724e-05 9.9930048965724e-05 9.9930048965724e-05 9.9930048965724e-05 9.9930048965724e-05 9.9930048965724e-05 9.9930048965724e-05 0.03677425801938643 0.9205556110722495 0.04197062056560408 9.9930048965724e-05 9.9930048965724e-05 9.9930048965724e-05 9.9930048965724e-05 9.9930048965724e-05 9.9930048965724e-05 9.9930048965724e-05 9.9930048965724e-05 0.0420705506145698 0.9186569401419007 0.03857299890076946 9.9930048965724e-05 9.9930048965724e-05 9.9930048965724e-05 9.9930048965724e-05 9.9930048965724e-05 9.9930048965724e-05 9.9930048965724e-05 9.9930048965724e-05 0.04087139002698111 0.9164584790646547 0.04197062056560408 9.9930048965724e-05 9.9930048965724e-05 9.9930048965724e-05 9.9930048965724e-05 9.9930048965724e-05 9.9930048965724e-05 9.9930048965724e-05 9.9930048965724e-05 0.04267013090836415 0.9127610672529229 0.04386929149595283 0.0001041775184915095 0.0001041775184915095 0.0001041775184915095 0.0001041775184915095 0.0001041775184915095 0.0001041775184915095 0.0001041775184915095 0.0001041775184915095 0.04083758724867174 0.9583289926033962</probabilities>
		</cpt>
		<cpt id="motoruse_for_other">
			<state id="State0" />
			<state id="State1" />
			<state id="State2" />
			<state id="State3" />
			<state id="State4" />
			<state id="State5" />
			<state id="State6" />
			<state id="State7" />
			<state id="State8" />
			<state id="State9" />
			<intervals>0 0.1 0.2 0.3 0.4 0.5 0.6 0.7 0.8 0.9 1</intervals>
			<parents>motor_wear turbulence</parents>
			<probabilities>0.9764 0.0236 0 0 0 0 0 0 0 0 0.7954 0.2046 0 0 0 0 0 0 0 0 0.5996 0.4004 0 0 0 0 0 0 0 0 0.4021 0.5979 0 0 0 0 0 0 0 0 0.1941 0.8058999999999999 0 0 0 0 0 0 0 0 0.0253 0.9510999999999999 0.0236 0 0 0 0 0 0 0 0 0.7996 0.2004 0 0 0 0 0 0 0 0 0.6049 0.3951 0 0 0 0 0 0 0 0 0.4023 0.5977 0 0 0 0 0 0 0 0 0.2096 0.7904 0 0 0 0 0 0 0 0.0257 0.9496 0.0247 0 0 0 0 0 0 0 0 0.7931 0.2069 0 0 0 0 0 0 0 0 0.6052 0.3948 0 0 0 0 0 0 0 0 0.4007 0.5993000000000001 0 0 0 0 0 0 0 0 0.2022 0.7978 0 0 0 0 0 0 0 0 0.0227 0.9512 0.0261 0 0 0 0 0 0 0 0 0.8023 0.1977 0 0 0 0 0 0 0 0 0.5967 0.4033 0 0 0 0 0 0 0 0 0.3999 0.6001 0 0 0 0 0 0 0 0 0.1956 0.8044 0 0 0 0 0 0 0 0.025 0.948 0.027 0 0 0 0 0 0 0 0 0.7963 0.2037 0 0 0 0 0 0 0 0 0.6055 0.3945 0 0 0 0 0 0 0 0 0.3969 0.6031 0 0 0 0 0 0 0 0 0.1938 0.8062 0 0 0 0 0 0 0 0 0.0246 0.9494 0.026 0 0 0 0 0 0 0 0 0.7996 0.2004 0 0 0 0 0 0 0 0 0.5958 0.4042 0 0 0 0 0 0 0 0 0.3928 0.6072 0 0 0 0 0 0 0 0 0.193 0.8070000000000001 0 0 0 0 0 0 0 0.0258 0.9493 0.0249 0 0 0 0 0 0 0 0 0.8064 0.1936 0 0 0 0 0 0 0 0 0.5991 0.4009 0 0 0 0 0 0 0 0 0.3998 0.6002 0 0 0 0 0 0 0 0 0.1976 0.8024 0 0 0 0 0 0 0 0 0.0268 0.9502 0.023 0 0 0 0 0 0 0 0 0.7938 0.2062 0 0 0 0 0 0 0 0 0.6004 0.3996 0 0 0 0 0 0 0 0 0.4058 0.5942 0 0 0 0 0 0 0 0 0.1969 0.8031 0 0 0 0 0 0 0 0.0265 0.9504 0.0231 0 0 0 0 0 0 0 0 0.7984 0.2016 0 0 0 0 0 0 0 0 0.5952 0.4048 0 0 0 0 0 0 0 0 0.3957 0.6042999999999999 0 0 0 0 0 0 0 0 0.1942 0.8058 0 0 0 0 0 0 0 0 0.0242 0.952 0.0238 0 0 0 0 0 0 0 0 0.802 0.198 0 0 0 0 0 0 0 0 0.5995 0.4005 0 0 0 0 0 0 0 0 0.4022 0.5978 0 0 0 0 0 0 0 0 0.2027 0.7973 0 0 0 0 0 0 0 0.024 0.9502 0.0258 0 0 0 0 0 0 0 0 0.801 0.199 0 0 0 0 0 0 0 0 0.5936 0.4064 0 0 0 0 0 0 0 0 0.404 0.596 0 0 0 0 0 0 0 0 0.2033 0.7967 0 0 0 0 0 0 0 0 0.024 0.9517 0.0243 0 0 0 0 0 0 0 0 0.8048999999999999 0.1951 0 0 0 0 0 0 0 0 0.6017 0.3983 0 0 0 0 0 0 0 0 0.4038 0.5962 0 0 0 0 0 0 0 0 0.199 0.801 0 0 0 0 0 0 0 0.0238 0.9525 0.0237 0 0 0 0 0 0 0 0 0.7955 0.2045 0 0 0 0 0 0 0 0 0.6042 0.3958 0 0 0 0 0 0 0 0 0.4026 0.5974 0 0 0 0 0 0 0 0 0.2037 0.7963 0 0 0 0 0 0 0 0 0.0251 0.9507 0.0242 0 0 0 0 0 0 0 0 0.7893 0.2107 0 0 0 0 0 0 0 0 0.5988 0.4012 0 0 0 0 0 0 0 0 0.4053 0.5947 0 0 0 0 0 0 0 0 0.201 0.799 0 0 0 0 0 0 0 0.0264 0.9507 0.0229 0 0 0 0 0 0 0 0 0.799 0.201 0 0 0 0 0 0 0 0 0.6017 0.3983 0 0 0 0 0 0 0 0 0.3963 0.6037 0 0 0 0 0 0 0 0 0.1983 0.8017 0 0 0 0 0 0 0 0 0.0251 0.95 0.0249 0 0 0 0 0 0 0 0 0.7993 0.2007 0 0 0 0 0 0 0 0 0.6022999999999999 0.3977 0 0 0 0 0 0 0 0 0.4006 0.5994 0 0 0 0 0 0 0 0 0.1972 0.8028 0 0 0 0 0 0 0 0.0243 0.9502 0.0255 0 0 0 0 0 0 0 0 0.8001 0.1999 0 0 0 0 0 0 0 0 0.5942 0.4058 0 0 0 0 0 0 0 0 0.3964 0.6036 0 0 0 0 0 0 0 0 0.1965 0.8035 0 0 0 0 0 0 0 0 0.0227 0.9772999999999999 0 0 0 0 0 0 0 0 0 1 0 0 0 0 0 0 0 0 0 1 0 0 0 0 0 0 0 0 0 1 0 0 0 0 0 0 0 0 0 1 0 0 0 0 0 0 0 0 0.022 0.978 0 0 0 0 0 0 0 0 0 1 0 0 0 0 0 0 0 0 0 1 0 0 0 0 0 0 0 0 0 1 0 0 0 0 0 0 0 0 0 1 0 0 0 0 0 0 0 0 0 1 0 0 0 0 0 0 0 0 0 1 0 0 0 0 0 0 0 0 0 1 0 0 0 0 0 0 0 0 0 1 0 0 0 0 0 0 0 0 0 1</probabilities>
		</cpt>
		<cpt id="mean_motor">
			<state id="State0" />
			<state id="State1" />
			<state id="State2" />
			<state id="State3" />
			<state id="State4" />
			<state id="State5" />
			<state id="State6" />
			<state id="State7" />
			<state id="State8" />
			<state id="State9" />
			<intervals>0 0.1 0.2 0.3 0.4 0.5 0.6 0.7 0.8 0.9 1</intervals>
			<parents>motoruse_for_tether random_disturbance motoruse_for_other</parents>
			<probabilities>0.7534725692015589 0.230638553012891 0.01518936744279005 9.9930048965724e-05 9.9930048965724e-05 9.9930048965724e-05 9.9930048965724e-05 9.9930048965724e-05 9.9930048965724e-05 9.9930048965724e-05 0.2463768115942029 0.512143928035982 0.2233883058470765 0.01719140429785107 0.000399800099950025 9.995002498750625e-05 9.995002498750625e-05 9.995002498750625e-05 9.995002498750625e-05 9.995002498750625e-05 0.01479408236705318 0.2240103958416633 0.5130947620951619 0.2314074370251899 0.01619352259096361 9.996001599360256e-05 9.996001599360256e-05 9.996001599360256e-05 9.996001599360256e-05 9.996001599360256e-05 0.0005998200539838049 0.01649505148455463 0.221333599920024 0.5168449465160452 0.2284314705588323 0.01589523143057083 9.997000899730081e-05 9.997000899730081e-05 9.997000899730081e-05 9.997000899730081e-05 9.996001599360256e-05 9.996001599360256e-05 0.01819272291083567 0.2284086365453818 0.515593762495002 0.2219112355057977 0.01539384246301479 9.996001599360256e-05 9.996001599360256e-05 9.996001599360256e-05 9.997000899730081e-05 9.997000899730081e-05 9.997000899730081e-05 0.01379586124162751 0.2201339598120564 0.52074377686694 0.2287313805858243 0.01579526142157353 0.0003998800359892032 9.997000899730081e-05 9.997000899730081e-05 9.997000899730081e-05 9.997000899730081e-05 9.997000899730081e-05 0.01619514145756273 0.2238328501449565 0.5133459962011396 0.2307307807657703 0.01529541137658702 0.0001999400179946016 9.996001599360256e-05 9.996001599360256e-05 9.996001599360256e-05 9.996001599360256e-05 9.996001599360256e-05 0.01699320271891244 0.2362055177928828 0.5044982007197121 0.2235105957616953 0.01829268292682927 9.994003597841295e-05 9.994003597841295e-05 9.994003597841295e-05 9.994003597841295e-05 9.994003597841295e-05 9.994003597841295e-05 0.01489106536078353 0.2257645412752348 0.5176893863681791 0.241055366779932 9.994003597841295e-05 9.994003597841295e-05 9.994003597841295e-05 9.994003597841295e-05 9.994003597841295e-05 9.994003597841295e-05 9.994003597841295e-05 0.01678992604437338 0.2291625024985009 0.7533479912052768 0.2435782108945527 0.5102448775612194 0.2273863068465767 0.01809095452273863 0.0001999000499750125 9.995002498750625e-05 9.995002498750625e-05 9.995002498750625e-05 9.995002498750625e-05 9.995002498750625e-05 0.01719312275089964 0.2260095961615354 0.509296281487405 0.2305077968812475 0.01649340263894442 9.996001599360256e-05 9.996001599360256e-05 9.996001599360256e-05 9.996001599360256e-05 9.996001599360256e-05 9.996001599360256e-05 0.01419432227109156 0.2195121951219512 0.521391443422631 0.2309076369452219 0.01329468212714914 0.0002998800479808077 9.996001599360256e-05 9.996001599360256e-05 9.996001599360256e-05 9.996001599360256e-05 9.996001599360256e-05 0.0156937225109956 0.2215113954418233 0.5215913634546182 0.2249100359856057 0.01579368252698921 9.996001599360256e-05 9.996001599360256e-05 9.996001599360256e-05 9.997000899730081e-05 9.997000899730081e-05 0.0003998800359892032 0.01589523143057083 0.2195341397580726 0.5223432970108968 0.2231330600819754 0.01809457162851145 0.0002999100269919024 9.997000899730081e-05 9.997000899730081e-05 9.997000899730081e-05 9.997000899730081e-05 0.0001999400179946016 0.01689493152054384 0.2234329701089673 0.5102469259222233 0.2312306308107568 0.01759472158352494 9.997000899730081e-05 9.995002498750625e-05 9.995002498750625e-05 9.995002498750625e-05 9.995002498750625e-05 9.995002498750625e-05 0.01739130434782609 0.2256871564217891 0.5191404297851074 0.2220889555222389 0.01519240379810095 9.995002498750625e-05 9.995002498750625e-05 9.995002498750625e-05 9.995002498750625e-05 9.995002498750625e-05 9.995002498750625e-05 0.01569215392303848 0.2284857571214393 0.5181409295352324 0.2370814592703648 9.994003597841295e-05 9.994003597841295e-05 9.994003597841295e-05 9.994003597841295e-05 9.994003597841295e-05 9.994003597841295e-05 9.994003597841295e-05 0.01639016590045973 0.2185688586847891 0.7643413951629022 9.9930048965724e-05 9.9930048965724e-05 9.9930048965724e-05 9.9930048965724e-05 9.9930048965724e-05 9.9930048965724e-05 9.9930048965724e-05 9.9930048965724e-05 0.01738782852003597 0.9818127310882382 0.0156937225109956 0.2238104758096761 0.5164934026389444 0.2262095161935226 0.01729308276689324 9.996001599360256e-05 9.996001599360256e-05 9.996001599360256e-05 9.996001599360256e-05 9.996001599360256e-05 9.996001599360256e-05 0.01579368252698921 0.2299080367852859 0.5116953218712516 0.2232107157137145 0.01889244302279088 9.996001599360256e-05 9.996001599360256e-05 9.996001599360256e-05 9.996001599360256e-05 9.997000899730081e-05 0.000499850044986504 0.01609517144856543 0.216035189443167 0.5225432370288914 0.2261321603518944 0.01829451164650605 9.997000899730081e-05 9.997000899730081e-05 9.997000899730081e-05 9.996001599360256e-05 9.996001599360256e-05 0.0002998800479808077 0.015593762495002 0.225609756097561 0.5214914034386245 0.2213114754098361 0.01529388244702119 9.996001599360256e-05 9.996001599360256e-05 9.997000899730081e-05 9.997000899730081e-05 9.997000899730081e-05 9.997000899730081e-05 0.01639508147555733 0.227331800459862 0.5159452164350695 0.2237328801359592 0.01599520143956813 0.0001999400179946016 9.996001599360256e-05 9.996001599360256e-05 9.996001599360256e-05 9.996001599360256e-05 0.0001999200319872051 0.01799280287884846 0.2258096761295482 0.5042982806877249 0.2357057177129148 0.015593762495002 9.995002498750625e-05 9.995002498750625e-05 9.995002498750625e-05 9.995002498750625e-05 9.995002498750625e-05 9.995002498750625e-05 0.01539230384807596 0.2271864067966017 0.5191404297851074 0.2376811594202899 9.994003597841295e-05 9.994003597841295e-05 9.994003597841295e-05 9.994003597841295e-05 9.994003597841295e-05 9.994003597841295e-05 0.0001998800719568259 0.01708974615230862 0.2281631021387168 0.7539476314211473 9.9930048965724e-05 9.9930048965724e-05 9.9930048965724e-05 9.9930048965724e-05 9.9930048965724e-05 9.9930048965724e-05 9.9930048965724e-05 9.9930048965724e-05 0.01588887778555011 0.9833116818227241 9.992006394884092e-05 9.992006394884092e-05 9.992006394884092e-05 9.992006394884092e-05 9.992006394884092e-05 9.992006394884092e-05 9.992006394884092e-05 9.992006394884092e-05 9.992006394884092e-05 0.9991007194244604 9.997000899730081e-05 0.01429571128661402 0.219334199740078 0.5221433569929022 0.2276317104868539 0.01599520143956813 0.0001999400179946016 9.997000899730081e-05 9.997000899730081e-05 9.997000899730081e-05 9.995002498750625e-05 9.995002498750625e-05 0.01619190404797601 0.2270864567716142 0.5174412793603198 0.223888055972014 0.01489255372313843 9.995002498750625e-05 9.995002498750625e-05 9.995002498750625e-05 9.996001599360256e-05 9.996001599360256e-05 9.996001599360256e-05 0.01709316273490604 0.2196121551379448 0.5220911635345862 0.2209116353458617 0.01979208316673331 9.996001599360256e-05 9.996001599360256e-05 9.997000899730081e-05 9.997000899730081e-05 9.997000899730081e-05 9.997000899730081e-05 0.01609517144856543 0.2274317704688593 0.5187443766869939 0.2214335699290213 0.01579526142157353 9.997000899730081e-05 9.995002498750625e-05 9.995002498750625e-05 9.995002498750625e-05 9.995002498750625e-05 9.995002498750625e-05 0.01569215392303848 0.2228885557221389 0.5232383808095952 0.2224887556221889 0.01519240379810095 9.994003597841295e-05 9.994003597841295e-05 9.994003597841295e-05 9.994003597841295e-05 9.994003597841295e-05 9.994003597841295e-05 0.01479112532480512 0.2306616030381771 0.5203877673395962 0.2335598640815511 9.9930048965724e-05 9.9930048965724e-05 9.9930048965724e-05 9.9930048965724e-05 9.9930048965724e-05 9.9930048965724e-05 9.9930048965724e-05 0.01588887778555011 0.2252423303687419 0.7581692815029479 9.992006394884092e-05 9.992006394884092e-05 9.992006394884092e-05 9.992006394884092e-05 9.992006394884092e-05 9.992006394884092e-05 9.992006394884092e-05 9.992006394884092e-05 0.01838529176658673 0.9808153477218226 9.992006394884092e-05 9.992006394884092e-05 9.992006394884092e-05 9.992006394884092e-05 9.992006394884092e-05 9.992006394884092e-05 9.992006394884092e-05 9.992006394884092e-05 9.992006394884092e-05 0.9991007194244604 9.991008092716555e-05 9.991008092716555e-05 9.991008092716555e-05 9.991008092716555e-05 9.991008092716555e-05 9.991008092716555e-05 9.991008092716555e-05 9.991008092716555e-05 9.991008092716555e-05 0.9991008092716556 9.996001599360256e-05 0.0001999200319872051 0.01619352259096361 0.2259096361455418 0.5136945221911235 0.2286085565773691 0.01499400239904038 9.996001599360256e-05 9.996001599360256e-05 9.996001599360256e-05 9.997000899730081e-05 9.997000899730081e-05 0.0002999100269919024 0.01649505148455463 0.228631410576827 0.5070478856343097 0.2298310506847946 0.01719484154753574 0.0001999400179946016 9.997000899730081e-05 9.997000899730081e-05 9.997000899730081e-05 9.997000899730081e-05 9.997000899730081e-05 0.01389583125062481 0.2256323103069079 0.5243426971908427 0.2228331500549835 0.0127961611516545 9.997000899730081e-05 9.996001599360256e-05 9.996001599360256e-05 9.996001599360256e-05 9.996001599360256e-05 9.996001599360256e-05 0.01629348260695722 0.2265093962415034 0.5099960015993602 0.2292083166733307 0.01749300279888045 9.995002498750625e-05 9.995002498750625e-05 9.995002498750625e-05 9.995002498750625e-05 9.995002498750625e-05 0.0002998500749625187 0.01459270364817591 0.231784107946027 0.5136431784107947 0.2391804097951024 9.994003597841295e-05 9.994003597841295e-05 9.994003597841295e-05 9.994003597841295e-05 9.994003597841295e-05 9.994003597841295e-05 0.0001998800719568259 0.01479112532480512 0.2322606436138317 0.7521487107735358 9.9930048965724e-05 9.9930048965724e-05 9.9930048965724e-05 9.9930048965724e-05 9.9930048965724e-05 9.9930048965724e-05 9.9930048965724e-05 0.000399720195862896 0.01728789847107025 0.9816128709903068 9.992006394884092e-05 9.992006394884092e-05 9.992006394884092e-05 9.992006394884092e-05 9.992006394884092e-05 9.992006394884092e-05 9.992006394884092e-05 9.992006394884092e-05 9.992006394884092e-05 0.9991007194244604 9.991008092716555e-05 9.991008092716555e-05 9.991008092716555e-05 9.991008092716555e-05 9.991008092716555e-05 9.991008092716555e-05 9.991008092716555e-05 9.991008092716555e-05 9.991008092716555e-05 0.9991008092716556 9.991008092716555e-05 9.991008092716555e-05 9.991008092716555e-05 9.991008092716555e-05 9.991008092716555e-05 9.991008092716555e-05 9.991008092716555e-05 9.991008092716555e-05 9.991008092716555e-05 0.9991008092716556 9.997000899730081e-05 9.997000899730081e-05 9.997000899730081e-05 0.01519544136758972 0.2293312006398081 0.5164450664800559 0.2214335699290213 0.01709487153853844 9.997000899730081e-05 9.997000899730081e-05 9.996001599360256e-05 9.996001599360256e-05 9.996001599360256e-05 9.996001599360256e-05 0.01679328268692523 0.226109556177529 0.5201919232307077 0.2179128348660536 0.01849260295881647 9.996001599360256e-05 9.996001599360256e-05 9.996001599360256e-05 9.996001599360256e-05 9.996001599360256e-05 0.0001999200319872051 0.01499400239904038 0.2182127149140344 0.5200919632147141 0.2289084366253498 0.01719312275089964 9.995002498750625e-05 9.995002498750625e-05 9.995002498750625e-05 9.995002498750625e-05 9.995002498750625e-05 0.0002998500749625187 0.01459270364817591 0.2265867066466767 0.512743628185907 0.2452773613193403 9.994003597841295e-05 9.994003597841295e-05 9.994003597841295e-05 9.994003597841295e-05 9.994003597841295e-05 9.994003597841295e-05 9.994003597841295e-05 0.01589046572056766 0.2240655606636018 0.7593443933639816 9.9930048965724e-05 9.9930048965724e-05 9.9930048965724e-05 9.9930048965724e-05 9.9930048965724e-05 9.9930048965724e-05 9.9930048965724e-05 9.9930048965724e-05 0.01438992705106426 0.9848106325572099 9.992006394884092e-05 9.992006394884092e-05 9.992006394884092e-05 9.992006394884092e-05 9.992006394884092e-05 9.992006394884092e-05 9.992006394884092e-05 9.992006394884092e-05 0.0003996802557953637 0.9988009592326139 9.991008092716555e-05 9.991008092716555e-05 9.991008092716555e-05 9.991008092716555e-05 9.991008092716555e-05 9.991008092716555e-05 9.991008092716555e-05 9.991008092716555e-05 9.991008092716555e-05 0.9991008092716556 9.991008092716555e-05 9.991008092716555e-05 9.991008092716555e-05 9.991008092716555e-05 9.991008092716555e-05 9.991008092716555e-05 9.991008092716555e-05 9.991008092716555e-05 9.991008092716555e-05 0.9991008092716556 9.991008092716555e-05 9.991008092716555e-05 9.991008092716555e-05 9.991008092716555e-05 9.991008092716555e-05 9.991008092716555e-05 9.991008092716555e-05 9.991008092716555e-05 9.991008092716555e-05 0.9991008092716556 9.995002498750625e-05 9.995002498750625e-05 9.995002498750625e-05 9.995002498750625e-05 0.01409295352323838 0.2274862568715642 0.5146426786606697 0.2261869065467266 0.01709145427286357 9.995002498750625e-05 9.996001599360256e-05 9.996001599360256e-05 9.996001599360256e-05 9.996001599360256e-05 9.996001599360256e-05 0.0156937225109956 0.2290083966413435 0.5103958416633346 0.2282087165133946 0.01619352259096361 9.995002498750625e-05 9.995002498750625e-05 9.995002498750625e-05 9.995002498750625e-05 9.995002498750625e-05 0.0001999000499750125 0.01729135432283858 0.2246876561719141 0.5139430284857571 0.2433783108445777 9.994003597841295e-05 9.994003597841295e-05 9.994003597841295e-05 9.994003597841295e-05 9.994003597841295e-05 9.994003597841295e-05 9.994003597841295e-05 0.01748950629622227 0.2281631021387168 0.7536478113132121 9.9930048965724e-05 9.9930048965724e-05 9.9930048965724e-05 9.9930048965724e-05 9.9930048965724e-05 9.9930048965724e-05 9.9930048965724e-05 0.000199860097931448 0.01638852803037873 0.9827121015289297 9.991008092716555e-05 9.991008092716555e-05 9.991008092716555e-05 9.991008092716555e-05 9.991008092716555e-05 9.991008092716555e-05 9.991008092716555e-05 9.991008092716555e-05 9.991008092716555e-05 0.9991008092716556 9.991008092716555e-05 9.991008092716555e-05 9.991008092716555e-05 9.991008092716555e-05 9.991008092716555e-05 9.991008092716555e-05 9.991008092716555e-05 9.991008092716555e-05 9.991008092716555e-05 0.9991008092716556 9.991008092716555e-05 9.991008092716555e-05 9.991008092716555e-05 9.991008092716555e-05 9.991008092716555e-05 9.991008092716555e-05 9.991008092716555e-05 9.991008092716555e-05 9.991008092716555e-05 0.9991008092716556 9.991008092716555e-05 9.991008092716555e-05 9.991008092716555e-05 9.991008092716555e-05 9.991008092716555e-05 9.991008092716555e-05 9.991008092716555e-05 9.991008092716555e-05 9.991008092716555e-05 0.9991008092716556 9.991008092716555e-05 9.991008092716555e-05 9.991008092716555e-05 9.991008092716555e-05 9.991008092716555e-05 9.991008092716555e-05 9.991008092716555e-05 9.991008092716555e-05 9.991008092716555e-05 0.9991008092716556 9.996001599360256e-05 9.996001599360256e-05 9.996001599360256e-05 9.996001599360256e-05 9.996001599360256e-05 0.0156937225109956 0.2305077968812475 0.5070971611355458 0.2277089164334266 0.01849260295881647 9.995002498750625e-05 9.995002498750625e-05 9.995002498750625e-05 9.995002498750625e-05 9.995002498750625e-05 9.995002498750625e-05 0.01819090454772614 0.2237881059470265 0.5178410794602699 0.2395802098950525 9.994003597841295e-05 9.994003597841295e-05 9.994003597841295e-05 9.994003597841295e-05 9.994003597841295e-05 9.994003597841295e-05 9.994003597841295e-05 0.01788926644013592 0.2288626823905656 0.7525484709174496 9.9930048965724e-05 9.9930048965724e-05 9.9930048965724e-05 9.9930048965724e-05 9.9930048965724e-05 9.9930048965724e-05 9.9930048965724e-05 9.9930048965724e-05 0.01668831817727591 0.9825122414309984 9.991008092716555e-05 9.991008092716555e-05 9.991008092716555e-05 9.991008092716555e-05 9.991008092716555e-05 9.991008092716555e-05 9.991008092716555e-05 9.991008092716555e-05 9.991008092716555e-05 0.9991008092716556 9.991008092716555e-05 9.991008092716555e-05 9.991008092716555e-05 9.991008092716555e-05 9.991008092716555e-05 9.991008092716555e-05 9.991008092716555e-05 9.991008092716555e-05 9.991008092716555e-05 0.9991008092716556 9.991008092716555e-05 9.991008092716555e-05 9.991008092716555e-05 9.991008092716555e-05 9.991008092716555e-05 9.991008092716555e-05 9.991008092716555e-05 9.991008092716555e-05 9.991008092716555e-05 0.9991008092716556 9.991008092716555e-05 9.991008092716555e-05 9.991008092716555e-05 9.991008092716555e-05 9.991008092716555e-05 9.991008092716555e-05 9.991008092716555e-05 9.991008092716555e-05 9.991008092716555e-05 0.9991008092716556 9.991008092716555e-05 9.991008092716555e-05 9.991008092716555e-05 9.991008092716555e-05 9.991008092716555e-05 9.991008092716555e-05 9.991008092716555e-05 9.991008092716555e-05 9.991008092716555e-05 0.9991008092716556 9.991008092716555e-05 9.991008092716555e-05 9.991008092716555e-05 9.991008092716555e-05 9.991008092716555e-05 9.991008092716555e-05 9.991008092716555e-05 9.991008092716555e-05 9.991008092716555e-05 0.9991008092716556 9.994003597841295e-05 9.994003597841295e-05 9.994003597841295e-05 9.994003597841295e-05 9.994003597841295e-05 9.994003597841295e-05 0.01449130521686988 0.2273635818508895 0.5143913651808915 0.2431541075354787 9.9930048965724e-05 9.9930048965724e-05 9.9930048965724e-05 9.9930048965724e-05 9.9930048965724e-05 9.9930048965724e-05 9.9930048965724e-05 0.01628859798141301 0.2207454781652843 0.7622664135105426 9.992006394884092e-05 9.992006394884092e-05 9.992006394884092e-05 9.992006394884092e-05 9.992006394884092e-05 9.992006394884092e-05 9.992006394884092e-05 9.992006394884092e-05 0.01618705035971223 0.9830135891286971 9.992006394884092e-05 9.992006394884092e-05 9.992006394884092e-05 9.992006394884092e-05 9.992006394884092e-05 9.992006394884092e-05 9.992006394884092e-05 9.992006394884092e-05 0.0001998401278976818 0.9990007993605116 9.991008092716555e-05 9.991008092716555e-05 9.991008092716555e-05 9.991008092716555e-05 9.991008092716555e-05 9.991008092716555e-05 9.991008092716555e-05 9.991008092716555e-05 9.991008092716555e-05 0.9991008092716556 9.991008092716555e-05 9.991008092716555e-05 9.991008092716555e-05 9.991008092716555e-05 9.991008092716555e-05 9.991008092716555e-05 9.991008092716555e-05 9.991008092716555e-05 9.991008092716555e-05 0.9991008092716556 9.991008092716555e-05 9.991008092716555e-05 9.991008092716555e-05 9.991008092716555e-05 9.991008092716555e-05 9.991008092716555e-05 9.991008092716555e-05 9.991008092716555e-05 9.991008092716555e-05 0.9991008092716556 9.991008092716555e-05 9.991008092716555e-05 9.991008092716555e-05 9.991008092716555e-05 9.991008092716555e-05 9.991008092716555e-05 9.991008092716555e-05 9.991008092716555e-05 9.991008092716555e-05 0.9991008092716556 9.991008092716555e-05 9.991008092716555e-05 9.991008092716555e-05 9.991008092716555e-05 9.991008092716555e-05 9.991008092716555e-05 9.991008092716555e-05 9.991008092716555e-05 9.991008092716555e-05 0.9991008092716556 9.991008092716555e-05 9.991008092716555e-05 9.991008092716555e-05 9.991008092716555e-05 9.991008092716555e-05 9.991008092716555e-05 9.991008092716555e-05 9.991008092716555e-05 9.991008092716555e-05 0.9991008092716556 9.994003597841295e-05 9.994003597841295e-05 9.994003597841295e-05 9.994003597841295e-05 9.994003597841295e-05 9.994003597841295e-05 0.0003997601439136518 0.01439136518089146 0.2269638217069758 0.7576454127523486 9.9930048965724e-05 9.9930048965724e-05 9.9930048965724e-05 9.9930048965724e-05 9.9930048965724e-05 9.9930048965724e-05 9.9930048965724e-05 0.000199860097931448 0.01548915758968722 0.9836114719696213 9.992006394884092e-05 9.992006394884092e-05 9.992006394884092e-05 9.992006394884092e-05 9.992006394884092e-05 9.992006394884092e-05 9.992006394884092e-05 9.992006394884092e-05 9.992006394884092e-05 0.9991007194244604 9.991008092716555e-05 9.991008092716555e-05 9.991008092716555e-05 9.991008092716555e-05 9.991008092716555e-05 9.991008092716555e-05 9.991008092716555e-05 9.991008092716555e-05 9.991008092716555e-05 0.9991008092716556 9.991008092716555e-05 9.991008092716555e-05 9.991008092716555e-05 9.991008092716555e-05 9.991008092716555e-05 9.991008092716555e-05 9.991008092716555e-05 9.991008092716555e-05 9.991008092716555e-05 0.9991008092716556 9.991008092716555e-05 9.991008092716555e-05 9.991008092716555e-05 9.991008092716555e-05 9.991008092716555e-05 9.991008092716555e-05 9.991008092716555e-05 9.991008092716555e-05 9.991008092716555e-05 0.9991008092716556 9.991008092716555e-05 9.991008092716555e-05 9.991008092716555e-05 9.991008092716555e-05 9.991008092716555e-05 9.991008092716555e-05 9.991008092716555e-05 9.991008092716555e-05 9.991008092716555e-05 0.9991008092716556 9.991008092716555e-05 9.991008092716555e-05 9.991008092716555e-05 9.991008092716555e-05 9.991008092716555e-05 9.991008092716555e-05 9.991008092716555e-05 9.991008092716555e-05 9.991008092716555e-05 0.9991008092716556 9.991008092716555e-05 9.991008092716555e-05 9.991008092716555e-05 9.991008092716555e-05 9.991008092716555e-05 9.991008092716555e-05 9.991008092716555e-05 9.991008092716555e-05 9.991008092716555e-05 0.9991008092716556 9.991008092716555e-05 9.991008092716555e-05 9.991008092716555e-05 9.991008092716555e-05 9.991008092716555e-05 9.991008092716555e-05 9.991008092716555e-05 9.991008092716555e-05 9.991008092716555e-05 0.9991008092716556 0.2391565060963422 0.5155906456126325 0.2249650209874076 0.01968818708774735 9.994003597841295e-05 9.994003597841295e-05 9.994003597841295e-05 9.994003597841295e-05 9.994003597841295e-05 9.994003597841295e-05 0.01629348260695722 0.2320071971211515 0.5115953618552579 0.2232107157137145 0.01609356257497001 0.0003998400639744102 9.996001599360256e-05 9.996001599360256e-05 9.996001599360256e-05 9.996001599360256e-05 9.995002498750625e-05 0.01619190404797601 0.2301849075462269 0.511344327836082 0.2277861069465267 0.01399300349825087 9.995002498750625e-05 9.995002498750625e-05 9.995002498750625e-05 9.995002498750625e-05 9.996001599360256e-05 9.996001599360256e-05 0.01489404238304678 0.2333066773290684 0.5126949220311875 0.2233106757297081 0.01529388244702119 9.996001599360256e-05 9.996001599360256e-05 9.996001599360256e-05 9.997000899730081e-05 9.997000899730081e-05 9.997000899730081e-05 0.01709487153853844 0.2282315305408378 0.5088473457962611 0.2298310506847946 0.01549535139458163 9.997000899730081e-05 9.997000899730081e-05 9.996001599360256e-05 9.996001599360256e-05 9.996001599360256e-05 9.996001599360256e-05 0.01519392243102759 0.2240103958416633 0.5078968412634945 0.2356057576969212 0.01669332267093163 0.0001999200319872051 9.995002498750625e-05 9.995002498750625e-05 9.995002498750625e-05 9.995002498750625e-05 9.995002498750625e-05 0.01609195402298851 0.2225887056471764 0.52063968015992 0.2266866566716642 0.01349325337331334 9.994003597841295e-05 9.994003597841295e-05 9.994003597841295e-05 9.994003597841295e-05 9.994003597841295e-05 9.994003597841295e-05 0.01609034579252449 0.2199680191884869 0.5144913052168699 0.2488506895862483 9.9930048965724e-05 9.9930048965724e-05 9.9930048965724e-05 9.9930048965724e-05 9.9930048965724e-05 9.9930048965724e-05 9.9930048965724e-05 0.01878684920555611 0.2225442190466673 0.7579694214050164 9.9930048965724e-05 9.9930048965724e-05 9.9930048965724e-05 9.9930048965724e-05 9.9930048965724e-05 9.9930048965724e-05 9.9930048965724e-05 0.000199860097931448 0.0149895073448586 0.9841111222144499 0.01389305347326337 0.2290854572713643 0.5104447776111944 0.2303848075962019 0.01569215392303848 9.995002498750625e-05 9.995002498750625e-05 9.995002498750625e-05 9.995002498750625e-05 9.995002498750625e-05 9.996001599360256e-05 0.01299480207916833 0.232906837265094 0.505797680927629 0.2297081167532987 0.01809276289484206 9.996001599360256e-05 9.996001599360256e-05 9.996001599360256e-05 9.996001599360256e-05 9.996001599360256e-05 9.996001599360256e-05 0.01669332267093163 0.2253098760495802 0.5104958016793283 0.2311075569772091 0.01589364254298281 9.996001599360256e-05 9.996001599360256e-05 9.996001599360256e-05 9.995002498750625e-05 9.995002498750625e-05 9.995002498750625e-05 0.01669165417291354 0.2277861069465267 0.5039480259870065 0.232783608195902 0.01829085457271364 9.995002498750625e-05 9.995002498750625e-05 9.996001599360256e-05 9.996001599360256e-05 9.996001599360256e-05 0.0001999200319872051 0.01459416233506597 0.2186125549780088 0.5141943222710915 0.2366053578568573 0.01539384246301479 9.996001599360256e-05 9.995002498750625e-05 9.995002498750625e-05 9.995002498750625e-05 9.995002498750625e-05 9.995002498750625e-05 0.01479260369815092 0.2260869565217391 0.5137431284357821 0.2274862568715642 0.01739130434782609 9.995002498750625e-05 9.995002498750625e-05 9.995002498750625e-05 9.995002498750625e-05 9.995002498750625e-05 0.0001999000499750125 0.01409295352323838 0.2251874062968516 0.5089455272363818 0.2510744627686157 9.9930048965724e-05 9.9930048965724e-05 9.9930048965724e-05 9.9930048965724e-05 9.9930048965724e-05 9.9930048965724e-05 9.9930048965724e-05 0.01558908763865294 0.2214449885080444 0.7622664135105426 9.9930048965724e-05 9.9930048965724e-05 9.9930048965724e-05 9.9930048965724e-05 9.9930048965724e-05 9.9930048965724e-05 9.9930048965724e-05 0.000199860097931448 0.01518936744279005 0.9839112621165185 9.992006394884092e-05 9.992006394884092e-05 9.992006394884092e-05 9.992006394884092e-05 9.992006394884092e-05 9.992006394884092e-05 9.992006394884092e-05 9.992006394884092e-05 0.0001998401278976818 0.9990007993605116 0.0001999200319872051 0.01639344262295082 0.2211115553778489 0.5206917233106757 0.2240103958416633 0.01719312275089964 9.996001599360256e-05 9.996001599360256e-05 9.996001599360256e-05 9.996001599360256e-05 9.996001599360256e-05 9.996001599360256e-05 0.01689324270291883 0.2207117153138745 0.5186925229908037 0.2268092762894842 0.01639344262295082 9.996001599360256e-05 9.996001599360256e-05 9.996001599360256e-05 9.997000899730081e-05 9.997000899730081e-05 0.0001999400179946016 0.01739478156553034 0.218334499650105 0.5136459062281316 0.2327301809457163 0.01729481155653304 9.997000899730081e-05 9.997000899730081e-05 9.997000899730081e-05 9.997000899730081e-05 9.997000899730081e-05 0.0003998800359892032 0.01679496151154653 0.2219334199740078 0.517444766570029 0.2277316804958512 0.01519544136758972 0.0001999400179946016 9.996001599360256e-05 9.996001599360256e-05 9.996001599360256e-05 9.996001599360256e-05 9.996001599360256e-05 0.01269492203118753 0.2200119952019192 0.5202918832467013 0.2305077968812475 0.01599360255897641 9.995002498750625e-05 9.995002498750625e-05 9.995002498750625e-05 9.995002498750625e-05 9.995002498750625e-05 0.0001999000499750125 0.01619190404797601 0.2251874062968516 0.5141429285357322 0.2437781109445277 9.994003597841295e-05 9.994003597841295e-05 9.994003597841295e-05 9.994003597841295e-05 9.994003597841295e-05 9.994003597841295e-05 9.994003597841295e-05 0.01449130521686988 0.2208674795122926 0.7639416350189886 9.9930048965724e-05 9.9930048965724e-05 9.9930048965724e-05 9.9930048965724e-05 9.9930048965724e-05 9.9930048965724e-05 9.9930048965724e-05 9.9930048965724e-05 0.01658838812831018 0.982612171479964 9.992006394884092e-05 9.992006394884092e-05 9.992006394884092e-05 9.992006394884092e-05 9.992006394884092e-05 9.992006394884092e-05 9.992006394884092e-05 9.992006394884092e-05 0.0001998401278976818 0.9990007993605116 9.991008092716555e-05 9.991008092716555e-05 9.991008092716555e-05 9.991008092716555e-05 9.991008092716555e-05 9.991008092716555e-05 9.991008092716555e-05 9.991008092716555e-05 9.991008092716555e-05 0.9991008092716556 9.997000899730081e-05 9.997000899730081e-05 0.01519544136758972 0.2199340197940618 0.5160451864440668 0.2347295811256623 0.01359592122363291 9.997000899730081e-05 9.997000899730081e-05 9.997000899730081e-05 9.997000899730081e-05 9.997000899730081e-05 9.997000899730081e-05 0.01619514145756273 0.2269319204238728 0.5118464460661801 0.2288313505948215 0.01569529141257623 9.997000899730081e-05 9.997000899730081e-05 9.997000899730081e-05 9.997000899730081e-05 9.997000899730081e-05 9.997000899730081e-05 0.01629511146656003 0.2290312906128162 0.5114465660301909 0.2277316804958512 0.01489553134059782 0.0001999400179946016 9.996001599360256e-05 9.996001599360256e-05 9.996001599360256e-05 9.996001599360256e-05 0.0001999200319872051 0.0156937225109956 0.2244102359056377 0.5099960015993602 0.2311075569772091 0.01819272291083567 9.995002498750625e-05 9.995002498750625e-05 9.995002498750625e-05 9.995002498750625e-05 9.995002498750625e-05 0.0002998500749625187 0.01739130434782609 0.224087956021989 0.5149425287356322 0.2427786106946527 9.9930048965724e-05 9.9930048965724e-05 9.9930048965724e-05 9.9930048965724e-05 9.9930048965724e-05 9.9930048965724e-05 9.9930048965724e-05 0.01858698910762466 0.2274407914459878 0.7532727091036274 9.9930048965724e-05 9.9930048965724e-05 9.9930048965724e-05 9.9930048965724e-05 9.9930048965724e-05 9.9930048965724e-05 9.9930048965724e-05 0.000299790146897172 0.01109223543519536 0.9879084640751474 9.991008092716555e-05 9.991008092716555e-05 9.991008092716555e-05 9.991008092716555e-05 9.991008092716555e-05 9.991008092716555e-05 9.991008092716555e-05 9.991008092716555e-05 9.991008092716555e-05 0.9991008092716556 9.991008092716555e-05 9.991008092716555e-05 9.991008092716555e-05 9.991008092716555e-05 9.991008092716555e-05 9.991008092716555e-05 9.991008092716555e-05 9.991008092716555e-05 9.991008092716555e-05 0.9991008092716556 9.991008092716555e-05 9.991008092716555e-05 9.991008092716555e-05 9.991008092716555e-05 9.991008092716555e-05 9.991008092716555e-05 9.991008092716555e-05 9.991008092716555e-05 9.991008092716555e-05 0.9991008092716556 9.996001599360256e-05 9.996001599360256e-05 9.996001599360256e-05 0.0156937225109956 0.2242103158736505 0.516593362654938 0.2285085965613755 0.01449420231907237 9.996001599360256e-05 9.996001599360256e-05 9.997000899730081e-05 9.997000899730081e-05 9.997000899730081e-05 9.997000899730081e-05 0.01769469159252225 0.2281315605318404 0.5005498350494851 0.2355293411976407 0.01749475157452764 0.0001999400179946016 9.995002498750625e-05 9.995002498750625e-05 9.995002498750625e-05 9.995002498750625e-05 9.995002498750625e-05 0.01589205397301349 0.2272863568215892 0.5095452273863068 0.2310844577711144 0.01569215392303848 9.994003597841295e-05 9.994003597841295e-05 9.994003597841295e-05 9.994003597841295e-05 9.994003597841295e-05 9.994003597841295e-05 0.01649010593643814 0.2311613032180692 0.5174895062962223 0.2342594443334 9.9930048965724e-05 9.9930048965724e-05 9.9930048965724e-05 9.9930048965724e-05 9.9930048965724e-05 9.9930048965724e-05 9.9930048965724e-05 0.01259118616968122 0.2289397421804737 0.7577695613070851 9.9930048965724e-05 9.9930048965724e-05 9.9930048965724e-05 9.9930048965724e-05 9.9930048965724e-05 9.9930048965724e-05 9.9930048965724e-05 0.000199860097931448 0.01349055661037274 0.9856100729489358 9.991008092716555e-05 9.991008092716555e-05 9.991008092716555e-05 9.991008092716555e-05 9.991008092716555e-05 9.991008092716555e-05 9.991008092716555e-05 9.991008092716555e-05 9.991008092716555e-05 0.9991008092716556 9.991008092716555e-05 9.991008092716555e-05 9.991008092716555e-05 9.991008092716555e-05 9.991008092716555e-05 9.991008092716555e-05 9.991008092716555e-05 9.991008092716555e-05 9.991008092716555e-05 0.9991008092716556 9.991008092716555e-05 9.991008092716555e-05 9.991008092716555e-05 9.991008092716555e-05 9.991008092716555e-05 9.991008092716555e-05 9.991008092716555e-05 9.991008092716555e-05 9.991008092716555e-05 0.9991008092716556 9.991008092716555e-05 9.991008092716555e-05 9.991008092716555e-05 9.991008092716555e-05 9.991008092716555e-05 9.991008092716555e-05 9.991008092716555e-05 9.991008092716555e-05 9.991008092716555e-05 0.9991008092716556 9.996001599360256e-05 9.996001599360256e-05 9.996001599360256e-05 9.996001599360256e-05 0.01349460215913635 0.2189124350259896 0.5227908836465414 0.2282087165133946 0.01609356257497001 9.996001599360256e-05 9.995002498750625e-05 9.995002498750625e-05 9.995002498750625e-05 9.995002498750625e-05 9.995002498750625e-05 0.01669165417291354 0.2294852573713143 0.5182408795602199 0.2198900549725137 0.01519240379810095 9.995002498750625e-05 9.995002498750625e-05 9.995002498750625e-05 9.995002498750625e-05 9.995002498750625e-05 9.995002498750625e-05 0.01519240379810095 0.2296851574212894 0.5097451274362819 0.2447776111944028 9.994003597841295e-05 9.994003597841295e-05 9.994003597841295e-05 9.994003597841295e-05 9.994003597841295e-05 9.994003597841295e-05 0.0001998800719568259 0.01778932640415751 0.2252648410953428 0.7561463122126724 9.9930048965724e-05 9.9930048965724e-05 9.9930048965724e-05 9.9930048965724e-05 9.9930048965724e-05 9.9930048965724e-05 9.9930048965724e-05 0.000299790146897172 0.01578894773658439 0.9832117517737584 9.992006394884092e-05 9.992006394884092e-05 9.992006394884092e-05 9.992006394884092e-05 9.992006394884092e-05 9.992006394884092e-05 9.992006394884092e-05 9.992006394884092e-05 9.992006394884092e-05 0.9991007194244604 9.991008092716555e-05 9.991008092716555e-05 9.991008092716555e-05 9.991008092716555e-05 9.991008092716555e-05 9.991008092716555e-05 9.991008092716555e-05 9.991008092716555e-05 9.991008092716555e-05 0.9991008092716556 9.991008092716555e-05 9.991008092716555e-05 9.991008092716555e-05 9.991008092716555e-05 9.991008092716555e-05 9.991008092716555e-05 9.991008092716555e-05 9.991008092716555e-05 9.991008092716555e-05 0.9991008092716556 9.991008092716555e-05 9.991008092716555e-05 9.991008092716555e-05 9.991008092716555e-05 9.991008092716555e-05 9.991008092716555e-05 9.991008092716555e-05 9.991008092716555e-05 9.991008092716555e-05 0.9991008092716556 9.991008092716555e-05 9.991008092716555e-05 9.991008092716555e-05 9.991008092716555e-05 9.991008092716555e-05 9.991008092716555e-05 9.991008092716555e-05 9.991008092716555e-05 9.991008092716555e-05 0.9991008092716556 9.996001599360256e-05 9.996001599360256e-05 9.996001599360256e-05 9.996001599360256e-05 0.0001999200319872051 0.01619352259096361 0.2243102758896441 0.5224910035985606 0.219312275089964 0.01709316273490604 9.994003597841295e-05 9.994003597841295e-05 9.994003597841295e-05 9.994003597841295e-05 9.994003597841295e-05 9.994003597841295e-05 0.01778932640415751 0.2258644813112133 0.5160903457925244 0.2396562062762343 9.994003597841295e-05 9.994003597841295e-05 9.994003597841295e-05 9.994003597841295e-05 9.994003597841295e-05 9.994003597841295e-05 9.994003597841295e-05 0.01449130521686988 0.2314611233260044 0.7533479912052768 9.9930048965724e-05 9.9930048965724e-05 9.9930048965724e-05 9.9930048965724e-05 9.9930048965724e-05 9.9930048965724e-05 9.9930048965724e-05 9.9930048965724e-05 0.01528929749175577 0.9839112621165185 9.992006394884092e-05 9.992006394884092e-05 9.992006394884092e-05 9.992006394884092e-05 9.992006394884092e-05 9.992006394884092e-05 9.992006394884092e-05 9.992006394884092e-05 9.992006394884092e-05 0.9991007194244604 9.991008092716555e-05 9.991008092716555e-05 9.991008092716555e-05 9.991008092716555e-05 9.991008092716555e-05 9.991008092716555e-05 9.991008092716555e-05 9.991008092716555e-05 9.991008092716555e-05 0.9991008092716556 9.991008092716555e-05 9.991008092716555e-05 9.991008092716555e-05 9.991008092716555e-05 9.991008092716555e-05 9.991008092716555e-05 9.991008092716555e-05 9.991008092716555e-05 9.991008092716555e-05 0.9991008092716556 9.991008092716555e-05 9.991008092716555e-05 9.991008092716555e-05 9.991008092716555e-05 9.991008092716555e-05 9.991008092716555e-05 9.991008092716555e-05 9.991008092716555e-05 9.991008092716555e-05 0.9991008092716556 9.991008092716555e-05 9.991008092716555e-05 9.991008092716555e-05 9.991008092716555e-05 9.991008092716555e-05 9.991008092716555e-05 9.991008092716555e-05 9.991008092716555e-05 9.991008092716555e-05 0.9991008092716556 9.991008092716555e-05 9.991008092716555e-05 9.991008092716555e-05 9.991008092716555e-05 9.991008092716555e-05 9.991008092716555e-05 9.991008092716555e-05 9.991008092716555e-05 9.991008092716555e-05 0.9991008092716556 9.995002498750625e-05 9.995002498750625e-05 9.995002498750625e-05 9.995002498750625e-05 9.995002498750625e-05 9.995002498750625e-05 0.01589205397301349 0.2232883558220889 0.5146426786606697 0.2455772113943029 9.9930048965724e-05 9.9930048965724e-05 9.9930048965724e-05 9.9930048965724e-05 9.9930048965724e-05 9.9930048965724e-05 9.9930048965724e-05 0.01608873788348156 0.2322374337963426 0.7509743179774158 9.9930048965724e-05 9.9930048965724e-05 9.9930048965724e-05 9.9930048965724e-05 9.9930048965724e-05 9.9930048965724e-05 9.9930048965724e-05 9.9930048965724e-05 0.01598880783451584 0.9832117517737584 9.992006394884092e-05 9.992006394884092e-05 9.992006394884092e-05 9.992006394884092e-05 9.992006394884092e-05 9.992006394884092e-05 9.992006394884092e-05 9.992006394884092e-05 9.992006394884092e-05 0.9991007194244604 9.991008092716555e-05 9.991008092716555e-05 9.991008092716555e-05 9.991008092716555e-05 9.991008092716555e-05 9.991008092716555e-05 9.991008092716555e-05 9.991008092716555e-05 9.991008092716555e-05 0.9991008092716556 9.991008092716555e-05 9.991008092716555e-05 9.991008092716555e-05 9.991008092716555e-05 9.991008092716555e-05 9.991008092716555e-05 9.991008092716555e-05 9.991008092716555e-05 9.991008092716555e-05 0.9991008092716556 9.991008092716555e-05 9.991008092716555e-05 9.991008092716555e-05 9.991008092716555e-05 9.991008092716555e-05 9.991008092716555e-05 9.991008092716555e-05 9.991008092716555e-05 9.991008092716555e-05 0.9991008092716556 9.991008092716555e-05 9.991008092716555e-05 9.991008092716555e-05 9.991008092716555e-05 9.991008092716555e-05 9.991008092716555e-05 9.991008092716555e-05 9.991008092716555e-05 9.991008092716555e-05 0.9991008092716556 9.991008092716555e-05 9.991008092716555e-05 9.991008092716555e-05 9.991008092716555e-05 9.991008092716555e-05 9.991008092716555e-05 9.991008092716555e-05 9.991008092716555e-05 9.991008092716555e-05 0.9991008092716556 9.991008092716555e-05 9.991008092716555e-05 9.991008092716555e-05 9.991008092716555e-05 9.991008092716555e-05 9.991008092716555e-05 9.991008092716555e-05 9.991008092716555e-05 9.991008092716555e-05 0.9991008092716556 9.994003597841295e-05 9.994003597841295e-05 9.994003597841295e-05 9.994003597841295e-05 9.994003597841295e-05 9.994003597841295e-05 0.0001998800719568259 0.01649010593643814 0.2287627423545872 0.7539476314211473 9.9930048965724e-05 9.9930048965724e-05 9.9930048965724e-05 9.9930048965724e-05 9.9930048965724e-05 9.9930048965724e-05 9.9930048965724e-05 0.000199860097931448 0.01448985710002998 0.9846107724592785 9.992006394884092e-05 9.992006394884092e-05 9.992006394884092e-05 9.992006394884092e-05 9.992006394884092e-05 9.992006394884092e-05 9.992006394884092e-05 9.992006394884092e-05 9.992006394884092e-05 0.9991007194244604 9.991008092716555e-05 9.991008092716555e-05 9.991008092716555e-05 9.991008092716555e-05 9.991008092716555e-05 9.991008092716555e-05 9.991008092716555e-05 9.991008092716555e-05 9.991008092716555e-05 0.9991008092716556 9.991008092716555e-05 9.991008092716555e-05 9.991008092716555e-05 9.991008092716555e-05 9.991008092716555e-05 9.991008092716555e-05 9.991008092716555e-05 9.991008092716555e-05 9.991008092716555e-05 0.9991008092716556 9.991008092716555e-05 9.991008092716555e-05 9.991008092716555e-05 9.991008092716555e-05 9.991008092716555e-05 9.991008092716555e-05 9.991008092716555e-05 9.991008092716555e-05 9.991008092716555e-05 0.9991008092716556 9.991008092716555e-05 9.991008092716555e-05 9.991008092716555e-05 9.991008092716555e-05 9.991008092716555e-05 9.991008092716555e-05 9.991008092716555e-05 9.991008092716555e-05 9.991008092716555e-05 0.9991008092716556 9.991008092716555e-05 9.991008092716555e-05 9.991008092716555e-05 9.991008092716555e-05 9.991008092716555e-05 9.991008092716555e-05 9.991008092716555e-05 9.991008092716555e-05 9.991008092716555e-05 0.9991008092716556 9.991008092716555e-05 9.991008092716555e-05 9.991008092716555e-05 9.991008092716555e-05 9.991008092716555e-05 9.991008092716555e-05 9.991008092716555e-05 9.991008092716555e-05 9.991008092716555e-05 0.9991008092716556 9.991008092716555e-05 9.991008092716555e-05 9.991008092716555e-05 9.991008092716555e-05 9.991008092716555e-05 9.991008092716555e-05 9.991008092716555e-05 9.991008092716555e-05 9.991008092716555e-05 0.9991008092716556 9.9930048965724e-05 9.9930048965724e-05 9.9930048965724e-05 9.9930048965724e-05 9.9930048965724e-05 9.9930048965724e-05 9.9930048965724e-05 9.9930048965724e-05 0.01698810832417308 0.9822124512841012 9.992006394884092e-05 9.992006394884092e-05 9.992006394884092e-05 9.992006394884092e-05 9.992006394884092e-05 9.992006394884092e-05 9.992006394884092e-05 9.992006394884092e-05 9.992006394884092e-05 0.9991007194244604 9.991008092716555e-05 9.991008092716555e-05 9.991008092716555e-05 9.991008092716555e-05 9.991008092716555e-05 9.991008092716555e-05 9.991008092716555e-05 9.991008092716555e-05 9.991008092716555e-05 0.9991008092716556 9.991008092716555e-05 9.991008092716555e-05 9.991008092716555e-05 9.991008092716555e-05 9.991008092716555e-05 9.991008092716555e-05 9.991008092716555e-05 9.991008092716555e-05 9.991008092716555e-05 0.9991008092716556 9.991008092716555e-05 9.991008092716555e-05 9.991008092716555e-05 9.991008092716555e-05 9.991008092716555e-05 9.991008092716555e-05 9.991008092716555e-05 9.991008092716555e-05 9.991008092716555e-05 0.9991008092716556 9.991008092716555e-05 9.991008092716555e-05 9.991008092716555e-05 9.991008092716555e-05 9.991008092716555e-05 9.991008092716555e-05 9.991008092716555e-05 9.991008092716555e-05 9.991008092716555e-05 0.9991008092716556 9.991008092716555e-05 9.991008092716555e-05 9.991008092716555e-05 9.991008092716555e-05 9.991008092716555e-05 9.991008092716555e-05 9.991008092716555e-05 9.991008092716555e-05 9.991008092716555e-05 0.9991008092716556 9.991008092716555e-05 9.991008092716555e-05 9.991008092716555e-05 9.991008092716555e-05 9.991008092716555e-05 9.991008092716555e-05 9.991008092716555e-05 9.991008092716555e-05 9.991008092716555e-05 0.9991008092716556 9.991008092716555e-05 9.991008092716555e-05 9.991008092716555e-05 9.991008092716555e-05 9.991008092716555e-05 9.991008092716555e-05 9.991008092716555e-05 9.991008092716555e-05 9.991008092716555e-05 0.9991008092716556 9.991008092716555e-05 9.991008092716555e-05 9.991008092716555e-05 9.991008092716555e-05 9.991008092716555e-05 9.991008092716555e-05 9.991008092716555e-05 9.991008092716555e-05 9.991008092716555e-05 0.9991008092716556 0.015593762495002 0.2309076369452219 0.514094362255098 0.2200119952019192 0.01879248300679728 0.0001999200319872051 9.996001599360256e-05 9.996001599360256e-05 9.996001599360256e-05 9.996001599360256e-05 9.996001599360256e-05 0.01509396241503399 0.2308076769292283 0.5136945221911235 0.2238104758096761 0.01609356257497001 9.996001599360256e-05 9.996001599360256e-05 9.996001599360256e-05 9.996001599360256e-05 9.996001599360256e-05 9.996001599360256e-05 0.01539384246301479 0.2299080367852859 0.5153938424630148 0.2242103158736505 0.01439424230307877 0.0002998800479808077 9.996001599360256e-05 9.996001599360256e-05 9.996001599360256e-05 9.996001599360256e-05 9.996001599360256e-05 0.01519392243102759 0.2219112355057977 0.5174930027988804 0.2289084366253498 0.01589364254298281 0.0001999200319872051 9.996001599360256e-05 9.996001599360256e-05 9.996001599360256e-05 9.996001599360256e-05 9.996001599360256e-05 0.0156937225109956 0.2235105957616953 0.5087964814074371 0.234906037584966 0.01659336265493802 9.996001599360256e-05 9.996001599360256e-05 9.996001599360256e-05 9.996001599360256e-05 9.996001599360256e-05 0.0002998800479808077 0.0156937225109956 0.2248100759696122 0.5166933226709316 0.224610155937625 0.01749300279888045 9.995002498750625e-05 9.995002498750625e-05 9.995002498750625e-05 9.995002498750625e-05 9.995002498750625e-05 9.995002498750625e-05 0.01669165417291354 0.2247876061969016 0.5166416791604198 0.2412793603198401 9.9930048965724e-05 9.9930048965724e-05 9.9930048965724e-05 9.9930048965724e-05 9.9930048965724e-05 9.9930048965724e-05 9.9930048965724e-05 0.01568901768761867 0.2240431697811532 0.759568302188468 9.992006394884092e-05 9.992006394884092e-05 9.992006394884092e-05 9.992006394884092e-05 9.992006394884092e-05 9.992006394884092e-05 9.992006394884092e-05 9.992006394884092e-05 0.01618705035971223 0.9830135891286971 9.992006394884092e-05 9.992006394884092e-05 9.992006394884092e-05 9.992006394884092e-05 9.992006394884092e-05 9.992006394884092e-05 9.992006394884092e-05 9.992006394884092e-05 0.0001998401278976818 0.9990007993605116 9.997000899730081e-05 0.01799460161951415 0.2328301509547136 0.5076477056882935 0.2267319804058782 0.01409577126861941 0.0002999100269919024 9.997000899730081e-05 9.997000899730081e-05 9.997000899730081e-05 9.995002498750625e-05 9.995002498750625e-05 0.01699150424787606 0.224287856071964 0.5139430284857571 0.2290854572713643 0.01519240379810095 9.995002498750625e-05 9.995002498750625e-05 9.995002498750625e-05 9.995002498750625e-05 9.995002498750625e-05 9.995002498750625e-05 0.01529235382308846 0.2219890054972514 0.5189405297351324 0.2278860569715142 0.01539230384807596 9.995002498750625e-05 9.995002498750625e-05 9.997000899730081e-05 9.997000899730081e-05 9.997000899730081e-05 0.0002999100269919024 0.01449565130460862 0.2250324902529241 0.5199440167949615 0.2231330600819754 0.01659502149355193 0.0001999400179946016 9.996001599360256e-05 9.996001599360256e-05 9.996001599360256e-05 9.996001599360256e-05 9.996001599360256e-05 0.0194922031187525 0.219312275089964 0.5172930827668932 0.2286085565773691 0.01479408236705318 9.995002498750625e-05 9.995002498750625e-05 9.995002498750625e-05 9.995002498750625e-05 9.995002498750625e-05 0.0001999000499750125 0.01679160419790105 0.2281859070464768 0.5089455272363818 0.2453773113443278 9.994003597841295e-05 9.994003597841295e-05 9.994003597841295e-05 9.994003597841295e-05 9.994003597841295e-05 9.994003597841295e-05 0.0001998800719568259 0.01509094543274036 0.2218668798720768 0.7622426544073556 9.9930048965724e-05 9.9930048965724e-05 9.9930048965724e-05 9.9930048965724e-05 9.9930048965724e-05 9.9930048965724e-05 9.9930048965724e-05 0.000399720195862896 0.01628859798141301 0.982612171479964 9.992006394884092e-05 9.992006394884092e-05 9.992006394884092e-05 9.992006394884092e-05 9.992006394884092e-05 9.992006394884092e-05 9.992006394884092e-05 9.992006394884092e-05 0.0001998401278976818 0.9990007993605116 9.991008092716555e-05 9.991008092716555e-05 9.991008092716555e-05 9.991008092716555e-05 9.991008092716555e-05 9.991008092716555e-05 9.991008092716555e-05 9.991008092716555e-05 9.991008092716555e-05 0.9991008092716556 9.996001599360256e-05 9.996001599360256e-05 0.01529388244702119 0.2194122351059576 0.5174930027988804 0.2318072770891643 0.0154938024790084 9.996001599360256e-05 9.996001599360256e-05 9.996001599360256e-05 9.996001599360256e-05 9.996001599360256e-05 0.0003998400639744102 0.01519392243102759 0.2270091963214714 0.5191923230707717 0.2222111155537785 0.015593762495002 9.996001599360256e-05 9.996001599360256e-05 9.997000899730081e-05 9.997000899730081e-05 9.997000899730081e-05 9.997000899730081e-05 0.01579526142157353 0.2205338398480456 0.5230430870738778 0.2241327601719484 0.01599520143956813 9.997000899730081e-05 9.996001599360256e-05 9.996001599360256e-05 9.996001599360256e-05 9.996001599360256e-05 9.996001599360256e-05 0.01489404238304678 0.2302079168332667 0.5112954818072771 0.2284086365453818 0.01469412235105958 9.995002498750625e-05 9.995002498750625e-05 9.995002498750625e-05 9.995002498750625e-05 9.995002498750625e-05 9.995002498750625e-05 0.01819090454772614 0.2336831584207896 0.5065467266366817 0.2409795102448776 9.994003597841295e-05 9.994003597841295e-05 9.994003597841295e-05 9.994003597841295e-05 9.994003597841295e-05 9.994003597841295e-05 9.994003597841295e-05 0.01728962622426544 0.2205676594043574 0.7614431341195282 9.9930048965724e-05 9.9930048965724e-05 9.9930048965724e-05 9.9930048965724e-05 9.9930048965724e-05 9.9930048965724e-05 9.9930048965724e-05 9.9930048965724e-05 0.01319076646347557 0.9860097931447986 9.992006394884092e-05 9.992006394884092e-05 9.992006394884092e-05 9.992006394884092e-05 9.992006394884092e-05 9.992006394884092e-05 9.992006394884092e-05 9.992006394884092e-05 9.992006394884092e-05 0.9991007194244604 9.991008092716555e-05 9.991008092716555e-05 9.991008092716555e-05 9.991008092716555e-05 9.991008092716555e-05 9.991008092716555e-05 9.991008092716555e-05 9.991008092716555e-05 9.991008092716555e-05 0.9991008092716556 9.991008092716555e-05 9.991008092716555e-05 9.991008092716555e-05 9.991008092716555e-05 9.991008092716555e-05 9.991008092716555e-05 9.991008092716555e-05 9.991008092716555e-05 9.991008092716555e-05 0.9991008092716556 9.997000899730081e-05 9.997000899730081e-05 9.997000899730081e-05 0.01829451164650605 0.2237328801359592 0.5092472258322503 0.2313306008197541 0.01649505148455463 0.000499850044986504 9.997000899730081e-05 9.996001599360256e-05 9.996001599360256e-05 9.996001599360256e-05 9.996001599360256e-05 0.01639344262295082 0.2279088364654138 0.5138944422231108 0.2262095161935226 0.01509396241503399 9.996001599360256e-05 9.995002498750625e-05 9.995002498750625e-05 9.995002498750625e-05 9.995002498750625e-05 9.995002498750625e-05 0.01399300349825087 0.2267866066966517 0.512743628185907 0.2295852073963018 0.01639180409795103 9.995002498750625e-05 9.995002498750625e-05 9.995002498750625e-05 9.995002498750625e-05 9.995002498750625e-05 0.0002998500749625187 0.01619190404797601 0.2263868065967017 0.5193403298350825 0.2372813593203398 9.9930048965724e-05 9.9930048965724e-05 9.9930048965724e-05 9.9930048965724e-05 9.9930048965724e-05 9.9930048965724e-05 9.9930048965724e-05 0.0149895073448586 0.2259418407115019 0.7583691416008794 9.9930048965724e-05 9.9930048965724e-05 9.9930048965724e-05 9.9930048965724e-05 9.9930048965724e-05 9.9930048965724e-05 9.9930048965724e-05 9.9930048965724e-05 0.01698810832417308 0.9822124512841012 9.991008092716555e-05 9.991008092716555e-05 9.991008092716555e-05 9.991008092716555e-05 9.991008092716555e-05 9.991008092716555e-05 9.991008092716555e-05 9.991008092716555e-05 9.991008092716555e-05 0.9991008092716556 9.991008092716555e-05 9.991008092716555e-05 9.991008092716555e-05 9.991008092716555e-05 9.991008092716555e-05 9.991008092716555e-05 9.991008092716555e-05 9.991008092716555e-05 9.991008092716555e-05 0.9991008092716556 9.991008092716555e-05 9.991008092716555e-05 9.991008092716555e-05 9.991008092716555e-05 9.991008092716555e-05 9.991008092716555e-05 9.991008092716555e-05 9.991008092716555e-05 9.991008092716555e-05 0.9991008092716556 9.991008092716555e-05 9.991008092716555e-05 9.991008092716555e-05 9.991008092716555e-05 9.991008092716555e-05 9.991008092716555e-05 9.991008092716555e-05 9.991008092716555e-05 9.991008092716555e-05 0.9991008092716556 9.997000899730081e-05 9.997000899730081e-05 9.997000899730081e-05 0.0001999400179946016 0.01629511146656003 0.2265320403878836 0.5162451264620613 0.2241327601719484 0.01619514145756273 9.997000899730081e-05 9.996001599360256e-05 9.996001599360256e-05 9.996001599360256e-05 9.996001599360256e-05 0.0001999200319872051 0.01629348260695722 