<?xml version="1.0" encoding="UTF-8"?>
<!-- This network was created in GeNIe Academic, which can be used for academic teaching and research purposes only -->
<smile version="1.0" id="Network2" numsamples="10000" discsamples="10000">
	<nodes>
		<cpt id="tether_tension_motor_use_scaling_factor_t_1">
			<state id="State0" />
			<state id="State1" />
			<state id="State2" />
			<state id="State3" />
			<state id="State4" />
			<state id="State5" />
			<state id="State6" />
			<state id="State7" />
			<state id="State8" />
			<state id="State9" />
			<intervals>0 0.2 0.4 0.6 0.8 1 1.2 1.4 1.6 1.8 2</intervals>
			<probabilities>0.1034 0.0992 0.099 0.0993 0.09660000000000001 0.104 0.09569999999999999 0.0982 0.1009 0.1037</probabilities>
		</cpt>
		<cpt id="tether_tension_motor_use_scaling_factor">
			<state id="State0" />
			<state id="State1" />
			<state id="State2" />
			<state id="State3" />
			<state id="State4" />
			<state id="State5" />
			<state id="State6" />
			<state id="State7" />
			<state id="State8" />
			<state id="State9" />
			<intervals>0 0.2 0.4 0.6 0.8 1 1.2 1.4 1.6 1.8 2</intervals>
			<parents>tether_tension_motor_use_scaling_factor_t_1</parents>
			<probabilities>0.152755905511811 0.1466535433070866 0.1486220472440945 0.1397637795275591 0.1033464566929134 0.09468503937007874 0.07992125984251969 0.05866141732283465 0.04370078740157481 0.03188976377952756 0.127652112923023 0.1434332807294406 0.1401017008591969 0.1323864632649483 0.1197615290198141 0.1018762055058741 0.08346484306505349 0.06435209538839208 0.0487462738909346 0.03822549535332281 0.1184608045794244 0.1216409604070599 0.1268882175226586 0.1233900461122595 0.1213229448242964 0.1066942280171728 0.09222451900143107 0.07346159961838131 0.0656702178406742 0.05024646207664175 0.09840024147298521 0.1054935104135225 0.1201328101418654 0.1252641110775732 0.1174162390582554 0.1070027165710836 0.1038333836402053 0.08708119529127679 0.07606399034108059 0.05931180199215213 0.08144863266814487 0.09312638580931264 0.1108647450110865 0.1092387287509239 0.1176644493717664 0.1118994826311899 0.1124907612712491 0.100369549150037 0.08913525498891353 0.0737620103473762 0.0705571071586065 0.09187123327943554 0.1020138174334852 0.1065706306041452 0.1083345582831104 0.1128913714537704 0.1193591062766427 0.1096575040423343 0.09525209466411877 0.08349257680435102 0.0565237157145022 0.06652523109562054 0.08880133353538415 0.1083497499621155 0.1147143506591908 0.1153205031065313 0.1148658887710259 0.1142597363236854 0.1168358842248826 0.1038036066070617 0.0503655564581641 0.06157595450852965 0.08074735987002438 0.0958570268074736 0.10446791226645 0.1176279447603574 0.1177904142973192 0.1314378554021121 0.1254264825345248 0.1147034930950447 0.03349197955226511 0.05200070509430636 0.06522122333862154 0.08531641106998061 0.1034725894588401 0.114401551207474 0.1269169751454257 0.1362594747047418 0.1441917856513309 0.1387273047770139 0.02939424031777557 0.04250248262164846 0.05998013902681231 0.07149950347567031 0.09513406156901688 0.1104270109235353 0.1225422045680238 0.1483614697120159 0.1594836146971202 0.1606752730883813</probabilities>
		</cpt>
		<cpt id="height_over_ground">
			<state id="State0" />
			<state id="State1" />
			<state id="State2" />
			<state id="State3" />
			<state id="State4" />
			<state id="State5" />
			<state id="State6" />
			<state id="State7" />
			<state id="State8" />
			<state id="State9" />
			<intervals>0 0.1 0.2 0.3 0.4 0.5 0.6 0.7 0.8 0.9 1</intervals>
			<probabilities>0.1034 0.0992 0.099 0.0993 0.09660000000000001 0.104 0.09569999999999999 0.0982 0.1009 0.1037</probabilities>
		</cpt>
		<cpt id="drone_tilt">
			<state id="State0" />
			<state id="State1" />
			<state id="State2" />
			<state id="State3" />
			<state id="State4" />
			<state id="State5" />
			<state id="State6" />
			<state id="State7" />
			<state id="State8" />
			<state id="State9" />
			<intervals>0 0.1 0.2 0.3 0.4 0.5 0.6 0.7 0.8 0.9 1</intervals>
			<probabilities>0.102 0.103 0.0982 0.0993 0.0988 0.1005 0.0975 0.0993 0.09810000000000001 0.1033</probabilities>
		</cpt>
		<cpt id="motoruse_for_tether">
			<state id="State0" />
			<state id="State1" />
			<state id="State2" />
			<state id="State3" />
			<state id="State4" />
			<state id="State5" />
			<state id="State6" />
			<state id="State7" />
			<state id="State8" />
			<state id="State9" />
			<intervals>0 0.1 0.2 0.3 0.4 0.5 0.6 0.7 0.8 0.9 1</intervals>
			<parents>height_over_ground tether_tension_motor_use_scaling_factor drone_tilt</parents>
			<probabilities>1 0 0 0 0 0 0 0 0 0 1 0 0 0 0 0 0 0 0 0 1 0 0 0 0 0 0 0 0 0 0.9984 0.0016 0 0 0 0 0 0 0 0 0.9648 0.0352 0 0 0 0 0 0 0 0 0.896 0.104 0 0 0 0 0 0 0 0 0.804 0.196 0 0 0 0 0 0 0 0 0.7043 0.2957 0 0 0 0 0 0 0 0 0.6172 0.3827 0.0001 0 0 0 0 0 0 0 0.5478 0.4362 0.016 0 0 0 0 0 0 0 1 0 0 0 0 0 0 0 0 0 0.998 0.002 0 0 0 0 0 0 0 0 0.8598 0.1402 0 0 0 0 0 0 0 0 0.5095 0.4905 0 0 0 0 0 0 0 0 0.203 0.7821 0.0149 0 0 0 0 0 0 0 0.0592 0.7746 0.1662 0 0 0 0 0 0 0 0.0068 0.5738 0.4188 0.0005999999999999999 0 0 0 0 0 0 0 0.3817 0.5728 0.0455 0 0 0 0 0 0 0 0.2058 0.5901 0.2041 0 0 0 0 0 0 0 0.0907 0.5138 0.3872 0.0083 0 0 0 0 0 1 0 0 0 0 0 0 0 0 0 0.8554 0.1446 0 0 0 0 0 0 0 0 0.2653 0.7341 0.0005999999999999999 0 0 0 0 0 0 0 0.0072 0.8128 0.18 0 0 0 0 0 0 0 0 0.3066 0.6823 0.0111 0 0 0 0 0 0 0 0.0356 0.727 0.2374 0 0 0 0 0 0 0 0 0.3479 0.6163 0.0358 0 0 0 0 0 0 0 0.0838 0.6145 0.3012 0.0005 0 0 0 0 0 0 0.0034 0.3779 0.5397999999999999 0.0789 0 0 0 0 0 0 0 0.1379 0.5192 0.3382 0.0047 0 0 0 0.9989 0.0011 0 0 0 0 0 0 0 0 0.5054 0.4946 0 0 0 0 0 0 0 0 0.0078 0.8071 0.1851 0 0 0 0 0 0 0 0 0.1305 0.8226 0.0469 0 0 0 0 0 0 0 0 0.4008 0.59 0.0092 0 0 0 0 0 0 0 0.0269 0.6536999999999999 0.3189 0.0005 0 0 0 0 0 0 0 0.1589 0.6853 0.1558 0 0 0 0 0 0 0 0.0018 0.3675 0.5669999999999999 0.06370000000000001 0 0 0 0 0 0 0 0.052 0.5158 0.412 0.0202 0 0 0 0 0 0 0 0.1912 0.5173 0.2885 0.003 0 0.9666 0.0334 0 0 0 0 0 0 0 0 0.2072 0.7727000000000001 0.0201 0 0 0 0 0 0 0 0 0.3005 0.6892 0.0103 0 0 0 0 0 0 0 0 0.4118 0.5796 0.0086 0 0 0 0 0 0 0 0.0014 0.5094 0.4836 0.0056 0 0 0 0 0 0 0 0.0183 0.5812 0.3952 0.0053 0 0 0 0 0 0 0 0.0524 0.6001 0.3427 0.0048 0 0 0 0 0 0 0 0.108 0.5848 0.3034 0.0038 0 0 0 0 0 0 0 0.1761 0.5544 0.2659 0.0036 0 0 0 0 0 0 0.0011 0.244 0.5135999999999999 0.2413 0.8978 0.1022 0 0 0 0 0 0 0 0 0.0624 0.7703 0.1673 0 0 0 0 0 0 0 0 0.0388 0.7107 0.2505 0 0 0 0 0 0 0 0 0.0228 0.6473 0.3292 0.0007 0 0 0 0 0 0 0 0.0206 0.5728 0.4021 0.0045 0 0 0 0 0 0 0 0.0141 0.4939 0.4706 0.0214 0 0 0 0 0 0 0 0.0154 0.4285 0.5062 0.0499 0 0 0 0 0 0 0 0.0121 0.3728 0.5234 0.0917 0 0 0 0 0 0 0 0.009599999999999999 0.3233 0.6671 0 0 0 0 0 0 0 0 0.0074 0.9926 0.7981 0.2019 0 0 0 0 0 0 0 0 0.007900000000000001 0.5727 0.4191 0.0003 0 0 0 0 0 0 0 0 0.3506 0.613 0.0364 0 0 0 0 0 0 0 0 0.1602 0.6778 0.162 0 0 0 0 0 0 0 0 0.0509 0.601 0.3428 0.0053 0 0 0 0 0 0 0 0.0128 0.4208 0.5173 0.0491 0 0 0 0 0 0 0 0.0015 0.2499 0.5877 0.1609 0 0 0 0 0 0 0 0 0.1322 0.8678 0 0 0 0 0 0 0 0 0 1 0 0 0 0 0 0 0 0 0 1 0.6906 0.3094 0 0 0 0 0 0 0 0 0 0.3663 0.5877 0.046 0 0 0 0 0 0 0 0 0.0867 0.6123 0.3009 0.0001 0 0 0 0 0 0 0 0.0021 0.3743 0.5567 0.0669 0 0 0 0 0 0 0 0 0.0984 0.5937 0.305 0.0029 0 0 0 0 0 0 0 0.0114 0.3652 0.5323 0.0911 0 0 0 0 0 0 0 0 0.1336 0.8663999999999999 0 0 0 0 0 0 0 0 0 1 0 0 0 0 0 0 0 0 0 1 0 0 0 0 0 0 0 0 0 1 0.628 0.372 0 0 0 0 0 0 0 0 0 0.2073 0.5967 0.196 0 0 0 0 0 0 0 0 0.0032 0.3802 0.5361 0.0805 0 0 0 0 0 0 0 0 0.0514 0.5026 0.4241 0.0219 0 0 0 0 0 0 0 0 0.1731 0.5561 0.268 0.0028 0 0 0 0 0 0 0 0.0102 0.3222 0.6676 0 0 0 0 0 0 0 0 0 1 0 0 0 0 0 0 0 0 0 1 0 0 0 0 0 0 0 0 0 1 0 0 0 0 0 0 0 0 0 1 0.5511 0.433 0.0159 0 0 0 0 0 0 0 0 0.0978 0.5049 0.3887 0.0086 0 0 0 0 0 0 0 0 0.1403 0.5105 0.3431 0.0061 0 0 0 0 0 0 0 0 0.1907 0.5248 0.2797 0.0048 0 0 0 0 0 0 0 0.0012 0.2452 0.5175999999999999 0.236 0 0 0 0 0 0 0 0 0.0083 0.9917 0 0 0 0 0 0 0 0 0 1 0 0 0 0 0 0 0 0 0 1 0 0 0 0 0 0 0 0 0 1 0 0 0 0 0 0 0 0 0 1 0.9282 0.0718 0 0 0 0 0 0 0 0 0.7915 0.2085 0 0 0 0 0 0 0 0 0.6369 0.3631 0 0 0 0 0 0 0 0 0.4957 0.5043 0 0 0 0 0 0 0 0 0.3869 0.6131 0 0 0 0 0 0 0 0 0.3213 0.6691 0.009599999999999999 0 0 0 0 0 0 0 0.275 0.6726 0.0524 0 0 0 0 0 0 0 0.2305 0.6486 0.1209 0 0 0 0 0 0 0 0.205 0.5911 0.2039 0 0 0 0 0 0 0 0.1791 0.5369 0.284 0 0 0 0 0 0 0 0.7877 0.2123 0 0 0 0 0 0 0 0 0.3642 0.6358 0 0 0 0 0 0 0 0 0.0668 0.9255 0.0077 0 0 0 0 0 0 0 0.0019 0.832 0.1661 0 0 0 0 0 0 0 0 0.5119 0.4881 0 0 0 0 0 0 0 0 0.2448 0.7207 0.0345 0 0 0 0 0 0 0 0.089 0.7046 0.2064 0 0 0 0 0 0 0 0.0216 0.5511 0.4248 0.0025 0 0 0 0 0 0 0.0007 0.3846 0.5432 0.07149999999999999 0 0 0 0 0 0 0 0.2448 0.5239 0.2313 0 0 0 0 0 0.6336000000000001 0.3664 0 0 0 0 0 0 0 0 0.0664 0.9264 0.0072 0 0 0 0 0 0 0 0 0.6337 0.3663 0 0 0 0 0 0 0 0 0.1102 0.8572 0.0326 0 0 0 0 0 0 0 0.0007 0.6059 0.3934 0 0 0 0 0 0 0 0 0.1774 0.7444 0.07820000000000001 0 0 0 0 0 0 0 0.0141 0.5616 0.422 0.0023 0 0 0 0 0 0 0 0.2393 0.6264999999999999 0.1342 0 0 0 0 0 0 0 0.047 0.5164 0.4215 0.0151 0 0 0 0 0 0 0.0005999999999999999 0.2986 0.5143 0.1865 0 0 0 0.5043 0.4957 0 0 0 0 0 0 0 0 0.0025 0.8283 0.1692 0 0 0 0 0 0 0 0 0.1109 0.8549 0.0342 0 0 0 0 0 0 0 0 0.4051 0.5919 0.003 0 0 0 0 0 0 0 0.0142 0.6828 0.303 0 0 0 0 0 0 0 0 0.1325 0.7324000000000001 0.1351 0 0 0 0 0 0 0 0.0001 0.3582 0.5959 0.0458 0 0 0 0 0 0 0 0.0342 0.5363 0.4173 0.0122 0 0 0 0 0 0 0 0.1615 0.5735 0.2632 0.0018 0 0 0 0 0 0 0.0061 0.3437 0.5107 0.1395 0 0.394 0.606 0 0 0 0 0 0 0 0 0 0.5071 0.4929 0 0 0 0 0 0 0 0 0.0009 0.6102 0.3889 0 0 0 0 0 0 0 0 0.0132 0.6820000000000001 0.3048 0 0 0 0 0 0 0 0 0.0459 0.7062 0.2479 0 0 0 0 0 0 0 0 0.0974 0.6982 0.2044 0 0 0 0 0 0 0 0 0.1686 0.6596 0.1718 0 0 0 0 0 0 0 0.0001 0.26 0.5948 0.1451 0 0 0 0 0 0 0 0.0056 0.3364 0.5233 0.1347 0 0 0 0 0 0 0 0.0227 0.3804 0.5969 0.3224 0.67 0.0076 0 0 0 0 0 0 0 0 0.234 0.7311 0.0349 0 0 0 0 0 0 0 0 0.173 0.7577 0.0693 0 0 0 0 0 0 0 0 0.1255 0.7385 0.136 0 0 0 0 0 0 0 0 0.0969 0.7004 0.2027 0 0 0 0 0 0 0 0 0.082 0.6374 0.2796 0.001 0 0 0 0 0 0 0 0.0636 0.5891 0.3376 0.0097 0 0 0 0 0 0 0 0.0523 0.5202 0.4275 0 0 0 0 0 0 0 0 0.0509 0.9491000000000001 0 0 0 0 0 0 0 0 0 1 0.2649 0.6839 0.0512 0 0 0 0 0 0 0 0 0.0905 0.7069 0.2026 0 0 0 0 0 0 0 0 0.0142 0.5737 0.4102 0.0019 0 0 0 0 0 0 0 0.0005999999999999999 0.361 0.5953000000000001 0.0431 0 0 0 0 0 0 0 0 0.1775 0.6546 0.1679 0 0 0 0 0 0 0 0 0.06610000000000001 0.5790999999999999 0.3455 0.009299999999999999 0 0 0 0 0 0 0 0.0217 0.423 0.5553 0 0 0 0 0 0 0 0 0.0045 0.9955000000000001 0 0 0 0 0 0 0 0 0 1 0 0 0 0 0 0 0 0 0 1 0.2386 0.6405 0.1209 0 0 0 0 0 0 0 0 0.0202 0.5482 0.4287 0.0029 0 0 0 0 0 0 0 0 0.2375 0.6326000000000001 0.1299 0 0 0 0 0 0 0 0 0.0327 0.5377999999999999 0.4161 0.0134 0 0 0 0 0 0 0 0.0003 0.2464 0.6026 0.1507 0 0 0 0 0 0 0 0 0.0553 0.517 0.4277 0 0 0 0 0 0 0 0 0.0039 0.9961 0 0 0 0 0 0 0 0 0 1 0 0 0 0 0 0 0 0 0 1 0 0 0 0 0 0 0 0 0 1 0.2084 0.5813 0.2103 0 0 0 0 0 0 0 0 0.0008 0.3896 0.5373 0.0723 0 0 0 0 0 0 0 0 0.0422 0.5206 0.4232 0.014 0 0 0 0 0 0 0 0 0.1661 0.5685 0.2643 0.0011 0 0 0 0 0 0 0 0.005 0.3256 0.5353 0.1341 0 0 0 0 0 0 0 0 0.0489 0.9510999999999999 0 0 0 0 0 0 0 0 0 1 0 0 0 0 0 0 0 0 0 1 0 0 0 0 0 0 0 0 0 1 0 0 0 0 0 0 0 0 0 1 0.1832 0.5281 0.2887 0 0 0 0 0 0 0 0 0 0.2411 0.5211 0.2378 0 0 0 0 0 0 0 0 0.0004 0.2988 0.517 0.1838 0 0 0 0 0 0 0 0 0.0057 0.3379 0.512 0.1444 0 0 0 0 0 0 0 0 0.02 0.3822 0.5978 0 0 0 0 0 0 0 0 0 1 0 0 0 0 0 0 0 0 0 1 0 0 0 0 0 0 0 0 0 1 0 0 0 0 0 0 0 0 0 1 0 0 0 0 0 0 0 0 0 1 0 1 0 0 0 0 0 0 0 0 0 0.9968 0.0032 0 0 0 0 0 0 0 0 0.9418 0.0582 0 0 0 0 0 0 0 0 0.8371 0.1629 0 0 0 0 0 0 0 0 0.7197 0.2803 0 0 0 0 0 0 0 0 0.5946 0.4054 0 0 0 0 0 0 0 0 0.5024999999999999 0.4967 0.0008 0 0 0 0 0 0 0 0.4289 0.5493 0.0218 0 0 0 0 0 0 0 0.3838 0.5482 0.068 0 0 0 0 0 0 0 0.3333 0.528 0.1387 0 0 0 0 0 0 0 0.9975000000000001 0.0025 0 0 0 0 0 0 0 0 0.7786 0.2214 0 0 0 0 0 0 0 0 0.3677 0.6323 0 0 0 0 0 0 0 0 0.09719999999999999 0.8826000000000001 0.0202 0 0 0 0 0 0 0 0.0122 0.7833 0.2045 0 0 0 0 0 0 0 0 0.5073 0.4925 0.0002 0 0 0 0 0 0 0 0.2754 0.6677 0.0569 0 0 0 0 0 0 0 0.1285 0.6346000000000001 0.2369 0 0 0 0 0 0 0 0.0426 0.5144 0.4333 0.0097 0 0 0 0 0 0 0.0043 0.3981 0.4965 0.1011 0 0 0 0 0 0.9424 0.0576 0 0 0 0 0 0 0 0 0.3648 0.6352 0 0 0 0 0 0 0 0 0.0095 0.8991 0.0914 0 0 0 0 0 0 0 0 0.3805 0.6183 0.0012 0 0 0 0 0 0 0 0.0449 0.8075 0.1476 0 0 0 0 0 0 0 0 0.4218 0.5682 0.01 0 0 0 0 0 0 0 0.0941 0.7035 0.2024 0 0 0 0 0 0 0 0.0046 0.4262 0.5387999999999999 0.0304 0 0 0 0 0 0 0 0.158 0.5803 0.2613 0.0004 0 0 0 0 0 0 0.0223 0.4165 0.492 0.0692 0 0 0 0.8374 0.1626 0 0 0 0 0 0 0 0 0.1017 0.8799 0.0184 0 0 0 0 0 0 0 0 0.3896 0.6098 0.0005999999999999999 0 0 0 0 0 0 0 0.0047 0.7068 0.2885 0 0 0 0 0 0 0 0 0.1005 0.7931 0.1064 0 0 0 0 0 0 0 0 0.3412 0.6294999999999999 0.0293 0 0 0 0 0 0 0 0.0236 0.5659 0.4049 0.0056 0 0 0 0 0 0 0 0.1356 0.6214 0.2429 0.0001 0 0 0 0 0 0 0.0026 0.325 0.5438 0.1286 0 0 0 0 0 0 0 0.0446 0.4578 0.4481 0.0495 0 0.7144 0.2856 0 0 0 0 0 0 0 0 0.0114 0.7915 0.1971 0 0 0 0 0 0 0 0 0.0435 0.8079 0.1486 0 0 0 0 0 0 0 0 0.1023 0.7897999999999999 0.1079 0 0 0 0 0 0 0 0 0.1761 0.7339 0.09 0 0 0 0 0 0 0 0 0.2691 0.6585 0.07240000000000001 0 0 0 0 0 0 0 0.0018 0.3544 0.5881999999999999 0.0556 0 0 0 0 0 0 0 0.0149 0.4171 0.5108 0.0572 0 0 0 0 0 0 0 0.0414 0.4596 0.499 0 0 0 0 0 0 0 0 0.0799 0.9201 0 0.5884 0.4116 0 0 0 0 0 0 0 0 0 0.5074 0.4919 0.0007 0 0 0 0 0 0 0 0 0.4192 0.5713 0.0095 0 0 0 0 0 0 0 0 0.3374 0.6306 0.032 0 0 0 0 0 0 0 0 0.2688 0.6616 0.0696 0 0 0 0 0 0 0 0 0.2251 0.6524 0.1225 0 0 0 0 0 0 0 0 0.1862 0.6337 0.1801 0 0 0 0 0 0 0 0 0.1629 0.8371 0 0 0 0 0 0 0 0 0 1 0 0 0 0 0 0 0 0 0 1 0 0.4975 0.5018 0.0007 0 0 0 0 0 0 0 0 0.2738 0.6677 0.0585 0 0 0 0 0 0 0 0 0.0979 0.6918 0.2103 0 0 0 0 0 0 0 0 0.021 0.5676 0.4054 0.006 0 0 0 0 0 0 0 0.0022 0.3616 0.5775 0.0587 0 0 0 0 0 0 0 0 0.1906 0.6271 0.1823 0 0 0 0 0 0 0 0 0.0843 0.9157 0 0 0 0 0 0 0 0 0 1 0 0 0 0 0 0 0 0 0 1 0 0 0 0 0 0 0 0 0 1 0 0.4382 0.5415 0.0203 0 0 0 0 0 0 0 0 0.1218 0.6442 0.234 0 0 0 0 0 0 0 0 0.0036 0.434 0.5303 0.0321 0 0 0 0 0 0 0 0 0.1376 0.618 0.2444 0 0 0 0 0 0 0 0 0.0135 0.426 0.5065 0.054 0 0 0 0 0 0 0 0 0.158 0.842 0 0 0 0 0 0 0 0 0 1 0 0 0 0 0 0 0 0 0 1 0 0 0 0 0 0 0 0 0 1 0 0 0 0 0 0 0 0 0 1 0 0.3792 0.548 0.0728 0 0 0 0 0 0 0 0 0.0402 0.5228 0.4277 0.009299999999999999 0 0 0 0 0 0 0 0 0.1563 0.5748 0.2689 0 0 0 0 0 0 0 0 0.0018 0.3316 0.5385 0.1281 0 0 0 0 0 0 0 0 0.0361 0.4557 0.5082 0 0 0 0 0 0 0 0 0 1 0 0 0 0 0 0 0 0 0 1 0 0 0 0 0 0 0 0 0 1 0 0 0 0 0 0 0 0 0 1 0 0 0 0 0 0 0 0 0 1 0 0.3504 0.5164 0.1332 0 0 0 0 0 0 0 0 0.0057 0.3824 0.5106000000000001 0.1013 0 0 0 0 0 0 0 0 0.0239 0.4346 0.4747 0.0668 0 0 0 0 0 0 0 0 0.0464 0.4636 0.4357 0.0543 0 0 0 0 0 0 0 0 0.0838 0.9162 0 0 0 0 0 0 0 0 0 1 0 0 0 0 0 0 0 0 0 1 0 0 0 0 0 0 0 0 0 1 0 0 0 0 0 0 0 0 0 1 0 0 0 0 0 0 0 0 0 1 0 0.3603 0.6397 0 0 0 0 0 0 0 0 0.2124 0.7876 0 0 0 0 0 0 0 0 0.1298 0.8702 0 0 0 0 0 0 0 0 0.09429999999999999 0.8938 0.0119 0 0 0 0 0 0 0 0.0701 0.855 0.07489999999999999 0 0 0 0 0 0 0 0.0603 0.7726 0.1671 0 0 0 0 0 0 0 0.0474 0.6803 0.2723 0 0 0 0 0 0 0 0.043 0.5974 0.3596 0 0 0 0 0 0 0 0.0373 0.5248 0.4318 0.0061 0 0 0 0 0 0 0.0346 0.466 0.4675 0.0319 0 0 0 0 0 0 0.2124 0.7876 0 0 0 0 0 0 0 0 0.0053 0.9824000000000001 0.0123 0 0 0 0 0 0 0 0 0.7651 0.2349 0 0 0 0 0 0 0 0 0.3763 0.6237 0 0 0 0 0 0 0 0 0.1337 0.8270999999999999 0.0392 0 0 0 0 0 0 0 0.0295 0.7314000000000001 0.2391 0 0 0 0 0 0 0 0.0012 0.4989 0.4961 0.0038 0 0 0 0 0 0 0 0.301 0.6232 0.07580000000000001 0 0 0 0 0 0 0 0.1531 0.5858 0.2611 0 0 0 0 0 0 0 0.0563 0.5001 0.4238 0.0198 0 0 0 0 0.1331 0.8669 0 0 0 0 0 0 0 0 0 0.7683 0.2317 0 0 0 0 0 0 0 0 0.1646 0.8283 0.0071 0 0 0 0 0 0 0 0.0009 0.7278 0.2713 0 0 0 0 0 0 0 0 0.2188 0.7552 0.026 0 0 0 0 0 0 0 0.0152 0.6642 0.3206 0 0 0 0 0 0 0 0 0.2746 0.6637999999999999 0.0616 0 0 0 0 0 0 0 0.0492 0.5847 0.3643 0.0018 0 0 0 0 0 0 0.0003 0.3271 0.5575 0.1151 0 0 0 0 0 0 0 0.1013 0.5114 0.3755 0.0118 0 0 0.0876 0.8993 0.0131 0 0 0 0 0 0 0 0 0.3759 0.6241 0 0 0 0 0 0 0 0 0.0012 0.7277 0.2711 0 0 0 0 0 0 0 0 0.0776 0.8409 0.0815 0 0 0 0 0 0 0 0 0.3191 0.6598000000000001 0.0211 0 0 0 0 0 0 0 0.009900000000000001 0.5687 0.4194 0.002 0 0 0 0 0 0 0 0.1069 0.6827 0.2104 0 0 0 0 0 0 0 0 0.3047 0.5964 0.0989 0 0 0 0 0 0 0 0.0318 0.4735 0.4593 0.0354 0 0 0 0 0 0 0 0.1506 0.5068 0.3426 0 0.0711 0.857 0.07190000000000001 0 0 0 0 0 0 0 0 0.1333 0.8234 0.0433 0 0 0 0 0 0 0 0 0.2087 0.7647 0.0266 0 0 0 0 0 0 0 0 0.3239 0.6554 0.0207 0 0 0 0 0 0 0 0.0009 0.4247 0.5572 0.0172 0 0 0 0 0 0 0 0.0086 0.4971 0.4815 0.0128 0 0 0 0 0 0 0 0.0284 0.5464 0.4136 0.0116 0 0 0 0 0 0 0 0.0694 0.5644 0.3662 0 0 0 0 0 0 0 0 0.1237 0.8763 0 0 0 0 0 0 0 0 0.0002 0.9998 0 0.0568 0.7779 0.1653 0 0 0 0 0 0 0 0 0.0297 0.7316 0.2387 0 0 0 0 0 0 0 0 0.0133 0.6599 0.3268 0 0 0 0 0 0 0 0 0.0108 0.5804 0.4068 0.002 0 0 0 0 0 0 0 0.0073 0.4957 0.4821 0.0149 0 0 0 0 0 0 0 0.006 0.4242 0.5342 0.0356 0 0 0 0 0 0 0 0.0052 0.3594 0.6354 0 0 0 0 0 0 0 0 0.005 0.995 0 0 0 0 0 0 0 0 0 1 0 0 0 0 0 0 0 0 0 1 0 0.0486 0.6777 0.2737 0 0 0 0 0 0 0 0 0.0009 0.5167 0.4787 0.0037 0 0 0 0 0 0 0 0 0.278 0.661 0.061 0 0 0 0 0 0 0 0 0.1081 0.6767 0.2152 0 0 0 0 0 0 0 0 0.0294 0.5556 0.404 0.011 0 0 0 0 0 0 0 0.0047 0.3571 0.6382 0 0 0 0 0 0 0 0 0.0002 0.9998 0 0 0 0 0 0 0 0 0 1 0 0 0 0 0 0 0 0 0 1 0 0 0 0 0 0 0 0 0 1 0 0.045 0.5886 0.3664 0 0 0 0 0 0 0 0 0 0.2992 0.6209 0.0799 0 0 0 0 0 0 0 0 0.0467 0.5897 0.3625 0.0011 0 0 0 0 0 0 0 0.0003 0.3063 0.5993000000000001 0.0941 0 0 0 0 0 0 0 0 0.0731 0.5671 0.3598 0 0 0 0 0 0 0 0 0.0035 0.9965000000000001 0 0 0 0 0 0 0 0 0 1 0 0 0 0 0 0 0 0 0 1 0 0 0 0 0 0 0 0 0 1 0 0 0 0 0 0 0 0 0 1 0 0.0356 0.5275 0.432 0.0049 0 0 0 0 0 0 0 0 0.1533 0.578 0.2687 0 0 0 0 0 0 0 0 0.0003 0.3227 0.5655 0.1115 0 0 0 0 0 0 0 0 0.0303 0.4652 0.4681 0.0364 0 0 0 0 0 0 0 0 0.1307 0.8693 0 0 0 0 0 0 0 0 0 1 0 0 0 0 0 0 0 0 0 1 0 0 0 0 0 0 0 0 0 1 0 0 0 0 0 0 0 0 0 1 0 0 0 0 0 0 0 0 0 1 0 0.0334 0.4633 0.4675 0.0358 0 0 0 0 0 0 0 0 0.0598 0.495 0.425 0.0202 0 0 0 0 0 0 0 0 0.1013 0.5051 0.3821 0.0115 0 0 0 0 0 0 0 0 0.1436 0.5153 0.3411 0 0 0 0 0 0 0 0 0.0003 0.9997 0 0 0 0 0 0 0 0 0 1 0 0 0 0 0 0 0 0 0 1 0 0 0 0 0 0 0 0 0 1 0 0 0 0 0 0 0 0 0 1 0 0 0 0 0 0 0 0 0 1 0 0 0.7867 0.2133 0 0 0 0 0 0 0 0 0.6373 0.3627 0 0 0 0 0 0 0 0 0.5042 0.4958 0 0 0 0 0 0 0 0 0.3654 0.6346000000000001 0 0 0 0 0 0 0 0 0.287 0.7117 0.0013 0 0 0 0 0 0 0 0.2358 0.7369 0.0273 0 0 0 0 0 0 0 0.1998 0.7096 0.0906 0 0 0 0 0 0 0 0.1708 0.6568000000000001 0.1724 0 0 0 0 0 0 0 0.1528 0.576 0.2712 0 0 0 0 0 0 0 0.141 0.5181 0.3404 0.0005 0 0 0 0 0 0 0.6479 0.3521 0 0 0 0 0 0 0 0 0.2232 0.7768 0 0 0 0 0 0 0 0 0.0225 0.9485 0.029 0 0 0 0 0 0 0 0 0.734 0.266 0 0 0 0 0 0 0 0 0.3961 0.6032999999999999 0.0005999999999999999 0 0 0 0 0 0 0 0.1713 0.7632 0.0655 0 0 0 0 0 0 0 0.0538 0.6742 0.272 0 0 0 0 0 0 0 0.0067 0.4938 0.49 0.0095 0 0 0 0 0 0 0 0.3244 0.5695 0.1061 0 0 0 0 0 0 0 0.1874 0.5237000000000001 0.2888 0.0001 0 0 0 0 0.4994 0.5006 0 0 0 0 0 0 0 0 0.0215 0.9506 0.0279 0 0 0 0 0 0 0 0 0.5022 0.4978 0 0 0 0 0 0 0 0 0.0565 0.8829 0.0606 0 0 0 0 0 0 0 0 0.5095 0.4899 0.0005999999999999999 0 0 0 0 0 0 0 0.1122 0.7674 0.1204 0 0 0 0 0 0 0 0.0041 0.5004999999999999 0.4885 0.0069 0 0 0 0 0 0 0 0.1743 0.644 0.1817 0 0 0 0 0 0 0 0.0253 0.4759 0.473 0.0258 0 0 0 0 0 0 0 0.2399 0.5221 0.2379 0.0001 0 0 0.3632 0.6368 0 0 0 0 0 0 0 0 0 0.7368 0.2632 0 0 0 0 0 0 0 0 0.0571 0.878 0.0649 0 0 0 0 0 0 0 0 0.298 0.6928 0.0092 0 0 0 0 0 0 0 0.0044 0.5974 0.398 0.0002 0 0 0 0 0 0 0 0.0771 0.7417 0.1812 0 0 0 0 0 0 0 0 0.2829 0.6435999999999999 0.0735 0 0 0 0 0 0 0 0.0165 0.484 0.4759 0.0236 0 0 0 0 0 0 0 0.1212 0.553 0.3258 0 0 0 0 0 0 0 0.0019 0.2929 0.7052 0 0 0.2915 0.7076 0.0009 0 0 0 0 0 0 0 0 0.3965 0.6029 0.0005999999999999999 0 0 0 0 0 0 0 0 0.5163 0.4833 0.0004 0 0 0 0 0 0 0 0.0037 0.5983000000000001 0.3977 0.0003 0 0 0 0 0 0 0 0.0207 0.6561 0.3229 0.0003 0 0 0 0 0 0 0 0.06519999999999999 0.6701 0.2646 0.0001 0 0 0 0 0 0 0 0.1238 0.6559 0.2203 0 0 0 0 0 0 0 0 0.1967 0.8033 0 0 0 0 0 0 0 0 0.0016 0.9984 0 0 0 0 0 0 0 0 0 1 0 0 0.232 0.7422 0.0258 0 0 0 0 0 0 0 0 0.166 0.7669 0.06710000000000001 0 0 0 0 0 0 0 0 0.1097 0.7697000000000001 0.1206 0 0 0 0 0 0 0 0 0.0856 0.7309 0.1835 0 0 0 0 0 0 0 0 0.0616 0.6749000000000001 0.2635 0 0 0 0 0 0 0 0 0.0523 0.6029 0.3448 0 0 0 0 0 0 0 0 0.0416 0.9584 0 0 0 0 0 0 0 0 0 1 0 0 0 0 0 0 0 0 0 1 0 0 0 0 0 0 0 0 0 1 0 0 0.1957 0.7159 0.08840000000000001 0 0 0 0 0 0 0 0 0.0545 0.6732 0.2723 0 0 0 0 0 0 0 0 0.0047 0.5069 0.48 0.008399999999999999 0 0 0 0 0 0 0 0 0.2884 0.6395999999999999 0.07199999999999999 0 0 0 0 0 0 0 0 0.1211 0.6524 0.2265 0 0 0 0 0 0 0 0 0.0392 0.9608 0 0 0 0 0 0 0 0 0 1 0 0 0 0 0 0 0 0 0 1 0 0 0 0 0 0 0 0 0 1 0 0 0 0 0 0 0 0 0 1 0 0 0.1705 0.6442 0.1853 0 0 0 0 0 0 0 0 0.0065 0.4972 0.4865 0.0098 0 0 0 0 0 0 0 0 0.1832 0.6361 0.1807 0 0 0 0 0 0 0 0 0.0196 0.4868 0.4701 0.0235 0 0 0 0 0 0 0 0 0.1924 0.8076 0 0 0 0 0 0 0 0 0 1 0 0 0 0 0 0 0 0 0 1 0 0 0 0 0 0 0 0 0 1 0 0 0 0 0 0 0 0 0 1 0 0 0 0 0 0 0 0 0 1 0 0 0.1484 0.5737 0.2779 0 0 0 0 0 0 0 0 0 0.332 0.5603 0.1077 0 0 0 0 0 0 0 0 0.023 0.4741 0.4732 0.0297 0 0 0 0 0 0 0 0 0.1189 0.5623 0.3188 0 0 0 0 0 0 0 0 0.0014 0.9986 0 0 0 0 0 0 0 0 0 1 0 0 0 0 0 0 0 0 0 1 0 0 0 0 0 0 0 0 0 1 0 0 0 0 0 0 0 0 0 1 0 0 0 0 0 0 0 0 0 1 0 0 0.1392 0.5203 0.3397 0.0008 0 0 0 0 0 0 0 0 0.1849 0.5317 0.2832 0.0002 0 0 0 0 0 0 0 0 0.2361 0.534 0.2298 0.0001 0 0 0 0 0 0 0 0.002 0.2916 0.7064 0 0 0 0 0 0 0 0 0 1 0 0 0 0 0 0 0 0 0 1 0 0 0 0 0 0 0 0 0 1 0 0 0 0 0 0 0 0 0 1 0 0 0 0 0 0 0 0 0 1 0 0 0 0 0 0 0 0 0 1 0 0 0 1 0 0 0 0 0 0 0 0 0 0.9743000000000001 0.0257 0 0 0 0 0 0 0 0 0.8768 0.1232 0 0 0 0 0 0 0 0 0.7474 0.2526 0 0 0 0 0 0 0 0 0.6101 0.3899 0 0 0 0 0 0 0 0 0.5043 0.4957 0 0 0 0 0 0 0 0 0.427 0.5663 0.0067 0 0 0 0 0 0 0 0.3672 0.5919 0.0409 0 0 0 0 0 0 0 0.323 0.5709 0.1061 0 0 0 0 0 0 0 0.2986 0.5174 0.184 0 0 0 0 0 0 0 0.9729 0.0271 0 0 0 0 0 0 0 0 0.6358 0.3642 0 0 0 0 0 0 0 0 0.2401 0.7599 0 0 0 0 0 0 0 0 0.0463 0.9029 0.0508 0 0 0 0 0 0 0 0.0015 0.7119 0.2866 0 0 0 0 0 0 0 0 0.4183 0.578 0.0037 0 0 0 0 0 0 0 0.2022 0.7035 0.09429999999999999 0 0 0 0 0 0 0 0.0796 0.6215000000000001 0.2989 0 0 0 0 0 0 0 0.0199 0.4798 0.4787 0.0216 0 0 0 0 0 0 0.0013 0.3512 0.5086000000000001 0.1389 0 0 0 0 0 0.879 0.121 0 0 0 0 0 0 0 0 0.2416 0.7584 0 0 0 0 0 0 0 0 0.0012 0.8391999999999999 0.1596 0 0 0 0 0 0 0 0 0.2812 0.7149 0.0039 0 0 0 0 0 0 0 0.0202 0.7693 0.2105 0 0 0 0 0 0 0 0 0.3282 0.65 0.0218 0 0 0 0 0 0 0 0.0545 0.6596 0.2859 0 0 0 0 0 0 0 0.0007 0.3703 0.5705 0.0585 0 0 0 0 0 0 0 0.1155 0.5706 0.3117 0.0022 0 0 0 0 0 0 0.008800000000000001 0.387 0.5064 0.0978 0 0 0 0.743 0.257 0 0 0 0 0 0 0 0 0.0447 0.9029 0.0524 0 0 0 0 0 0 0 0 0.2748 0.7204 0.0048 0 0 0 0 0 0 0 0.0005999999999999999 0.6115 0.3879 0 0 0 0 0 0 0 0 0.0584 0.7835 0.1581 0 0 0 0 0 0 0 0 0.2644 0.6812 0.0544 0 0 0 0 0 0 0 0.008399999999999999 0.4996 0.4763 0.0157 0 0 0 0 0 0 0 0.0885 0.6072 0.3043 0 0 0 0 0 0 0 0.0003 0.273 0.7267 0 0 0 0 0 0 0 0 0.0266 0.9734 0 0 0 0.6132 0.3868 0 0 0 0 0 0 0 0 0.0017 0.7079 0.2904 0 0 0 0 0 0 0 0 0.0178 0.7731 0.2091 0 0 0 0 0 0 0 0 0.0603 0.7843 0.1554 0 0 0 0 0 0 0 0 0.1181 0.7593 0.1226 0 0 0 0 0 0 0 0 0.2038 0.6879 0.1083 0 0 0 0 0 0 0 0 0.2933 0.7067 0 0 0 0 0 0 0 0 0.0066 0.9933999999999999 0 0 0 0 0 0 0 0 0 1 0 0 0 0 0 0 0 0 0 1 0 0 0 0.4951 0.5049 0 0 0 0 0 0 0 0 0 0.4071 0.5881 0.0048 0 0 0 0 0 0 0 0 0.339 0.6392 0.0218 0 0 0 0 0 0 0 0 0.257 0.6901 0.0529 0 0 0 0 0 0 0 0 0.2016 0.6928 0.1056 0 0 0 0 0 0 0 0 0.1677 0.8323 0 0 0 0 0 0 0 0 0 1 0 0 0 0 0 0 0 0 0 1 0 0 0 0 0 0 0 0 0 1 0 0 0 0 0 0 0 0 0 1 0 0 0 0.4323 0.5597 0.008 0 0 0 0 0 0 0 0 0.2033 0.7039 0.09279999999999999 0 0 0 0 0 0 0 0 0.0548 0.6707 0.2745 0 0 0 0 0 0 0 0 0.008399999999999999 0.5144 0.4642 0.013 0 0 0 0 0 0 0 0.0002 0.2838 0.716 0 0 0 0 0 0 0 0 0 1 0 0 0 0 0 0 0 0 0 1 0 0 0 0 0 0 0 0 0 1 0 0 0 0 0 0 0 0 0 1 0 0 0 0 0 0 0 0 0 1 0 0 0 0.366 0.5887 0.0453 0 0 0 0 0 0 0 0 0.0829 0.6205000000000001 0.2966 0 0 0 0 0 0 0 0 0.0003 0.3724 0.5721000000000001 0.0552 0 0 0 0 0 0 0 0 0.093 0.6163 0.2907 0 0 0 0 0 0 0 0 0.0059 0.9941 0 0 0 0 0 0 0 0 0 1 0 0 0 0 0 0 0 0 0 1 0 0 0 0 0 0 0 0 0 1 0 0 0 0 0 0 0 0 0 1 0 0 0 0 0 0 0 0 0 1 0 0 0 0.3232 0.5737 0.1031 0 0 0 0 0 0 0 0 0.0196 0.4787 0.479 0.0227 0 0 0 0 0 0 0 0 0.1132 0.5628 0.3229 0.0011 0 0 0 0 0 0 0 0.0001 0.2725 0.7274 0 0 0 0 0 0 0 0 0 1 0 0 0 0 0 0 0 0 0 1 0 0 0 0 0 0 0 0 0 1 0 0 0 0 0 0 0 0 0 1 0 0 0 0 0 0 0 0 0 1 0 0 0 0 0 0 0 0 0 1 0 0 0 0.2953 0.5261 0.1786 0 0 0 0 0 0 0 0 0.0009 0.3453 0.5202 0.1336 0 0 0 0 0 0 0 0 0.0076 0.3864 0.5062 0.0998 0 0 0 0 0 0 0 0 0.0287 0.9713000000000001 0 0 0 0 0 0 0 0 0 1 0 0 0 0 0 0 0 0 0 1 0 0 0 0 0 0 0 0 0 1 0 0 0 0 0 0 0 0 0 1 0 0 0 0 0 0 0 0 0 1 0 0 0 0 0 0 0 0 0 1 0 0 0 0.2208 0.7792 0 0 0 0 0 0 0 0 0.0968 0.9032 0 0 0 0 0 0 0 0 0.0583 0.9394 0.0023 0 0 0 0 0 0 0 0.043 0.914 0.043 0 0 0 0 0 0 0 0.0313 0.8446 0.1241 0 0 0 0 0 0 0 0.0251 0.7371 0.2378 0 0 0 0 0 0 0 0.0228 0.6286 0.3486 0 0 0 0 0 0 0 0.018 0.538 0.4434 0.0005999999999999999 0 0 0 0 0 0 0.0172 0.4852 0.4778 0.0198 0 0 0 0 0 0 0.0161 0.4331 0.4886 0.0622 0 0 0 0 0 0 0.095 0.905 0 0 0 0 0 0 0 0 0 0.9597 0.0403 0 0 0 0 0 0 0 0 0.6481 0.3519 0 0 0 0 0 0 0 0 0.2667 0.7331 0.0002 0 0 0 0 0 0 0 0.08069999999999999 0.8403 0.079 0 0 0 0 0 0 0 0.011 0.6681 0.3209 0 0 0 0 0 0 0 0 0.4269 0.5600000000000001 0.0131 0 0 0 0 0 0 0 0.2329 0.6411 0.126 0 0 0 0 0 0 0 0.1113 0.571 0.3173 0.0004 0 0 0 0 0 0 0.0336 0.46 0.4688 0.0376 0 0 0 0 0.0564 0.9406 0.003 0 0 0 0 0 0 0 0 0.6368 0.3632 0 0 0 0 0 0 0 0 0.0876 0.8935 0.0189 0 0 0 0 0 0 0 0 0.6162 0.3838 0 0 0 0 0 0 0 0 0.14 0.8091 0.0509 0 0 0 0 0 0 0 0.0036 0.5919 0.4043 0.0002 0 0 0 0 0 0 0 0.1999 0.7022 0.0979 0 0 0 0 0 0 0 0.0255 0.5562 0.4115 0.0068 0 0 0 0 0 0 0 0.2687 0.5765 0.1548 0 0 0 0 0 0 0 0.066 0.4842 0.4498 0 0 0 0.0392 0.9176 0.0432 0 0 0 0 0 0 0 0 0.272 0.7276 0.0004 0 0 0 0 0 0 0 0 0.6282 0.3718 0 0 0 0 0 0 0 0 0.0389 0.8224 0.1387 0 0 0 0 0 0 0 0 0.2241 0.7351 0.0408 0 0 0 0 0 0 0 0.003 0.5113 0.4791 0.0066 0 0 0 0 0 0 0 0.0707 0.6594 0.2699 0 0 0 0 0 0 0 0 0.2471 0.7529 0 0 0 0 0 0 0 0 0.0158 0.9842 0 0 0 0 0 0 0 0 0 1 0 0 0 0.0353 0.8368 0.1279 0 0 0 0 0 0 0 0 0.0791 0.8437 0.0772 0 0 0 0 0 0 0 0 0.1412 0.8053 0.0535 0 0 0 0 0 0 0 0 0.2264 0.7373 0.0363 0 0 0 0 0 0 0 0 0.3361 0.6333 0.0306 0 0 0 0 0 0 0 0.0023 0.4188 0.5789 0 0 0 0 0 0 0 0 0.0152 0.9848 0 0 0 0 0 0 0 0 0 1 0 0 0 0 0 0 0 0 0 1 0 0 0 0 0 0 0 0 0 1 0 0 0 0.0271 0.7323 0.2406 0 0 0 0 0 0 0 0 0.01 0.6715 0.3185 0 0 0 0 0 0 0 0 0.0055 0.5816 0.4125 0.0004 0 0 0 0 0 0 0 0.0028 0.5057 0.4847 0.0068 0 0 0 0 0 0 0 0.0019 0.4115 0.5866 0 0 0 0 0 0 0 0 0.0023 0.9977 0 0 0 0 0 0 0 0 0 1 0 0 0 0 0 0 0 0 0 1 0 0 0 0 0 0 0 0 0 1 0 0 0 0 0 0 0 0 0 1 0 0 0 0.021 0.6342 0.3448 0 0 0 0 0 0 0 0 0 0.4305 0.5576 0.0119 0 0 0 0 0 0 0 0 0.2102 0.6882 0.1016 0 0 0 0 0 0 0 0 0.0673 0.6481 0.2846 0 0 0 0 0 0 0 0 0.0163 0.9837 0 0 0 0 0 0 0 0 0 1 0 0 0 0 0 0 0 0 0 1 0 0 0 0 0 0 0 0 0 1 0 0 0 0 0 0 0 0 0 1 0 0 0 0 0 0 0 0 0 1 0 0 0 0.022 0.5436 0.4335 0.0009 0 0 0 0 0 0 0 0 0.2379 0.6392 0.1229 0 0 0 0 0 0 0 0 0.0258 0.5404 0.4268 0.007 0 0 0 0 0 0 0 0 0.2385 0.7615 0 0 0 0 0 0 0 0 0 1 0 0 0 0 0 0 0 0 0 1 0 0 0 0 0 0 0 0 0 1 0 0 0 0 0 0 0 0 0 1 0 0 0 0 0 0 0 0 0 1 0 0 0 0 0 0 0 0 0 1 0 0 0 0.0172 0.487 0.4776 0.0182 0 0 0 0 0 0 0 0 0.1067 0.5664 0.326 0.0009 0 0 0 0 0 0 0 0 0.2721 0.5689 0.159 0 0 0 0 0 0 0 0 0.0133 0.9867 0 0 0 0 0 0 0 0 0 1 0 0 0 0 0 0 0 0 0 1 0 0 0 0 0 0 0 0 0 1 0 0 0 0 0 0 0 0 0 1 0 0 0 0 0 0 0 0 0 1 0 0 0 0 0 0 0 0 0 1 0 0 0 0.0153 0.4316 0.4919 0.0612 0 0 0 0 0 0 0 0 0.0367 0.4712 0.452 0.0401 0 0 0 0 0 0 0 0 0.066 0.4939 0.4401 0 0 0 0 0 0 0 0 0 1 0 0 0 0 0 0 0 0 0 1 0 0 0 0 0 0 0 0 0 1 0 0 0 0 0 0 0 0 0 1 0 0 0 0 0 0 0 0 0 1 0 0 0 0 0 0 0 0 0 1 0 0 0 0 0 0 0 0 0 1 0 0 0 0 0.6414 0.3586 0 0 0 0 0 0 0 0 0.4988 0.5012 0 0 0 0 0 0 0 0 0.3578 0.6422 0 0 0 0 0 0 0 0 0.2567 0.7433 0 0 0 0 0 0 0 0 0.1912 0.7986 0.0102 0 0 0 0 0 0 0 0.1725 0.764 0.0635 0 0 0 0 0 0 0 0.1358 0.7233000000000001 0.1409 0 0 0 0 0 0 0 0.1192 0.6503 0.2305 0 0 0 0 0 0 0 0.1029 0.572 0.3251 0 0 0 0 0 0 0 0.0951 0.5103 0.3899 0.0047 0 0 0 0 0 0 0.4989 0.5011 0 0 0 0 0 0 0 0 0.1187 0.8813 0 0 0 0 0 0 0 0 0.0024 0.9273 0.0703 0 0 0 0 0 0 0 0 0.6218 0.3782 0 0 0 0 0 0 0 0 0.2838 0.712 0.0042 0 0 0 0 0 0 0 0.1077 0.7827 0.1096 0 0 0 0 0 0 0 0.0236 0.6231 0.3533 0 0 0 0 0 0 0 0.0007 0.4261 0.5492 0.024 0 0 0 0 0 0 0 0.2576 0.585 0.1574 0 0 0 0 0 0 0 0.136 0.524 0.3366 0.0034 0 0 0 0 0.3569 0.6431 0 0 0 0 0 0 0 0 0.0029 0.9298 0.0673 0 0 0 0 0 0 0 0 0.3792 0.6208 0 0 0 0 0 0 0 0 0.0236 0.8611 0.1153 0 0 0 0 0 0 0 0 0.4037 0.5927 0.0036 0 0 0 0 0 0 0 0.07290000000000001 0.7469 0.1802 0 0 0 0 0 0 0 0.0007 0.4282 0.5534 0.0177 0 0 0 0 0 0 0 0.127 0.6391 0.2339 0 0 0 0 0 0 0 0.0098 0.4328 0.5574 0 0 0 0 0 0 0 0 0.1851 0.8149 0 0 0 0 0.2554 0.7446 0 0 0 0 0 0 0 0 0 0.6371 0.3629 0 0 0 0 0 0 0 0 0.0279 0.8609 0.1112 0 0 0 0 0 0 0 0 0.208 0.7652 0.0268 0 0 0 0 0 0 0 0.0002 0.5064 0.4915 0.0019 0 0 0 0 0 0 0 0.0458 0.7124 0.2418 0 0 0 0 0 0 0 0 0.2257 0.7743 0 0 0 0 0 0 0 0 0.008500000000000001 0.9915 0 0 0 0 0 0 0 0 0 1 0 0 0 0 0 0 0 0 0 1 0 0 0 0 0.198 0.7909 0.0111 0 0 0 0 0 0 0 0 0.2945 0.7004 0.0051 0 0 0 0 0 0 0 0 0.4042 0.5923 0.0035 0 0 0 0 0 0 0 0.0003 0.5143 0.4834 0.002 0 0 0 0 0 0 0 0.0097 0.5737 0.4166 0 0 0 0 0 0 0 0 0.0352 0.9648 0 0 0 0 0 0 0 0 0 1 0 0 0 0 0 0 0 0 0 1 0 0 0 0 0 0 0 0 0 1 0 0 0 0 0 0 0 0 0 1 0 0 0 0 0.1652 0.7769 0.0579 0 0 0 0 0 0 0 0 0.1069 0.784 0.1091 0 0 0 0 0 0 0 0 0.0704 0.7566000000000001 0.173 0 0 0 0 0 0 0 0 0.049 0.702 0.249 0 0 0 0 0 0 0 0 0.0354 0.9646 0 0 0 0 0 0 0 0 0 1 0 0 0 0 0 0 0 0 0 1 0 0 0 0 0 0 0 0 0 1 0 0 0 0 0 0 0 0 0 1 0 0 0 0 0 0 0 0 0 1 0 0 0 0 0.1422 0.7205 0.1373 0 0 0 0 0 0 0 0 0.026 0.6312 0.3428 0 0 0 0 0 0 0 0 0.0002 0.4258 0.5542 0.0198 0 0 0 0 0 0 0 0 0.206 0.794 0 0 0 0 0 0 0 0 0 1 0 0 0 0 0 0 0 0 0 1 0 0 0 0 0 0 0 0 0 1 0 0 0 0 0 0 0 0 0 1 0 0 0 0 0 0 0 0 0 1 0 0 0 0 0 0 0 0 0 1 0 0 0 0 0.1163 0.6462 0.2375 0 0 0 0 0 0 0 0 0.0009 0.4333 0.5446 0.0212 0 0 0 0 0 0 0 0 0.1246 0.6321 0.2433 0 0 0 0 0 0 0 0 0.0075 0.9925 0 0 0 0 0 0 0 0 0 1 0 0 0 0 0 0 0 0 0 1 0 0 0 0 0 0 0 0 0 1 0 0 0 0 0 0 0 0 0 1 0 0 0 0 0 0 0 0 0 1 0 0 0 0 0 0 0 0 0 1 0 0 0 0 0.1089 0.5656 0.3255 0 0 0 0 0 0 0 0 0 0.2666 0.5812 0.1522 0 0 0 0 0 0 0 0 0.0083 0.4353 0.5564 0 0 0 0 0 0 0 0 0 1 0 0 0 0 0 0 0 0 0 1 0 0 0 0 0 0 0 0 0 1 0 0 0 0 0 0 0 0 0 1 0 0 0 0 0 0 0 0 0 1 0 0 0 0 0 0 0 0 0 1 0 0 0 0 0 0 0 0 0 1 0 0 0 0 0.0853 0.5181 0.3919 0.0047 0 0 0 0 0 0 0 0 0.1386 0.5233 0.3358 0.0023 0 0 0 0 0 0 0 0 0.1913 0.8087 0 0 0 0 0 0 0 0 0 1 0 0 0 0 0 0 0 0 0 1 0 0 0 0 0 0 0 0 0 1 0 0 0 0 0 0 0 0 0 1 0 0 0 0 0 0 0 0 0 1 0 0 0 0 0 0 0 0 0 1 0 0 0 0 0 0 0 0 0 1 0 0 0 0 0 0.9933 0.0067 0 0 0 0 0 0 0 0 0.8993 0.1007 0 0 0 0 0 0 0 0 0.773 0.227 0 0 0 0 0 0 0 0 0.6254999999999999 0.3745 0 0 0 0 0 0 0 0 0.502 0.498 0 0 0 0 0 0 0 0 0.4129 0.5862000000000001 0.0009 0 0 0 0 0 0 0 0.3523 0.6245000000000001 0.0232 0 0 0 0 0 0 0 0.2996 0.6195000000000001 0.0809 0 0 0 0 0 0 0 0.2584 0.5865 0.1551 0 0 0 0 0 0 0 0.2406 0.5291 0.2303 0 0 0 0 0 0 0 0.9072 0.09279999999999999 0 0 0 0 0 0 0 0 0.4987 0.5013 0 0 0 0 0 0 0 0 0.1401 0.8584000000000001 0.0015 0 0 0 0 0 0 0 0.0141 0.8874 0.0985 0 0 0 0 0 0 0 0 0.6108 0.3892 0 0 0 0 0 0 0 0 0.3198 0.6677999999999999 0.0124 0 0 0 0 0 0 0 0.1418 0.713 0.1452 0 0 0 0 0 0 0 0.045 0.5862000000000001 0.3684 0.0004 0 0 0 0 0 0 0.0058 0.4292 0.5189 0.0461 0 0 0 0 0 0 0 0.295 0.5204 0.1846 0 0 0 0 0 0.7721 0.2279 0 0 0 0 0 0 0 0 0.1415 0.8574000000000001 0.0011 0 0 0 0 0 0 0 0 0.7421 0.2579 0 0 0 0 0 0 0 0 0.1922 0.7939000000000001 0.0139 0 0 0 0 0 0 0 0.0057 0.6965 0.2978 0 0 0 0 0 0 0 0 0.2462 0.711 0.0428 0 0 0 0 0 0 0 0.029 0.623 0.348 0 0 0 0 0 0 0 0 0.3098 0.6902 0 0 0 0 0 0 0 0 0.0717 0.9283 0 0 0 0 0 0 0 0 0.0032 0.9968 0 0 0 0 0 0.6355 0.3645 0 0 0 0 0 0 0 0 0.0136 0.884 0.1024 0 0 0 0 0 0 0 0 0.1784 0.8068 0.0148 0 0 0 0 0 0 0 0 0.5044 0.4951 0.0005 0 0 0 0 0 0 0 0.0274 0.7457 0.2269 0 0 0 0 0 0 0 0 0.1872 0.8128 0 0 0 0 0 0 0 0 0.0033 0.9967 0 0 0 0 0 0 0 0 0 1 0 0 0 0 0 0 0 0 0 1 0 0 0 0 0 0 0 0 0 1 0 0 0 0 0 0.5036 0.4964 0 0 0 0 0 0 0 0 0 0.6118 0.3882 0 0 0 0 0 0 0 0 0.0066 0.6939 0.2995 0 0 0 0 0 0 0 0 0.0286 0.7439 0.2275 0 0 0 0 0 0 0 0 0.0799 0.9201 0 0 0 0 0 0 0 0 0 1 0 0 0 0 0 0 0 0 0 1 0 0 0 0 0 0 0 0 0 1 0 0 0 0 0 0 0 0 0 1 0 0 0 0 0 0 0 0 0 1 0 0 0 0 0 0.4119 0.5868 0.0013 0 0 0 0 0 0 0 0 0.318 0.6686 0.0134 0 0 0 0 0 0 0 0 0.2555 0.7035 0.041 0 0 0 0 0 0 0 0 0.1882 0.8118 0 0 0 0 0 0 0 0 0 1 0 0 0 0 0 0 0 0 0 1 0 0 0 0 0 0 0 0 0 1 0 0 0 0 0 0 0 0 0 1 0 0 0 0 0 0 0 0 0 1 0 0 0 0 0 0 0 0 0 1 0 0 0 0 0 0.3454 0.6314 0.0232 0 0 0 0 0 0 0 0 0.1423 0.7193000000000001 0.1384 0 0 0 0 0 0 0 0 0.0339 0.6235000000000001 0.3426 0 0 0 0 0 0 0 0 0.0023 0.9977 0 0 0 0 0 0 0 0 0 1 0 0 0 0 0 0 0 0 0 1 0 0 0 0 0 0 0 0 0 1 0 0 0 0 0 0 0 0 0 1 0 0 0 0 0 0 0 0 0 1 0 0 0 0 0 0 0 0 0 1 0 0 0 0 0 0.2987 0.6239 0.0774 0 0 0 0 0 0 0 0 0.0446 0.5969 0.3581 0.0004 0 0 0 0 0 0 0 0 0.3151 0.6849 0 0 0 0 0 0 0 0 0 1 0 0 0 0 0 0 0 0 0 1 0 0 0 0 0 0 0 0 0 1 0 0 0 0 0 0 0 0 0 1 0 0 0 0 0 0 0 0 0 1 0 0 0 0 0 0 0 0 0 1 0 0 0 0 0 0 0 0 0 1 0 0 0 0 0 0.2684 0.5799 0.1517 0 0 0 0 0 0 0 0 0.0056 0.4388 0.5143 0.0413 0 0 0 0 0 0 0 0 0.0713 0.9287 0 0 0 0 0 0 0 0 0 1 0 0 0 0 0 0 0 0 0 1 0 0 0 0 0 0 0 0 0 1 0 0 0 0 0 0 0 0 0 1 0 0 0 0 0 0 0 0 0 1 0 0 0 0 0 0 0 0 0 1 0 0 0 0 0 0 0 0 0 1 0 0 0 0 0 0.241 0.5241 0.2349 0 0 0 0 0 0 0 0 0 0.2853 0.531 0.1837 0 0 0 0 0 0 0 0 0.0024 0.9976 0 0 0 0 0 0 0 0 0 1 0 0 0 0 0 0 0 0 0 1 0 0 0 0 0 0 0 0 0 1 0 0 0 0 0 0 0 0 0 1 0 0 0 0 0 0 0 0 0 1 0 0 0 0 0 0 0 0 0 1 0 0 0 0 0 0 0 0 0 1 0 0 0 0 0 0.0764 0.9236 0 0 0 0 0 0 0 0 0.026 0.974 0 0 0 0 0 0 0 0 0.0133 0.9671 0.0196 0 0 0 0 0 0 0 0.0105 0.8988 0.0907 0 0 0 0 0 0 0 0.008999999999999999 0.7875 0.2035 0 0 0 0 0 0 0 0.0069 0.6732 0.3199 0 0 0 0 0 0 0 0.0057 0.5745 0.4198 0 0 0 0 0 0 0 0.0059 0.5012 0.487 0.0059 0 0 0 0 0 0 0.0038 0.4424 0.5168 0.037 0 0 0 0 0 0 0.004 0.3998 0.4998 0.0964 0 0 0 0 0 0 0.024 0.976 0 0 0 0 0 0 0 0 0 0.8948 0.1052 0 0 0 0 0 0 0 0 0.5008 0.4992 0 0 0 0 0 0 0 0 0.1692 0.8250999999999999 0.0057 0 0 0 0 0 0 0 0.0345 0.8292 0.1363 0 0 0 0 0 0 0 0.0007 0.5832000000000001 0.4161 0 0 0 0 0 0 0 0 0.3493 0.6245000000000001 0.0262 0 0 0 0 0 0 0 0.1766 0.6478 0.1756 0 0 0 0 0 0 0 0.06569999999999999 0.5536 0.3807 0 0 0 0 0 0 0 0.0172 0.4322 0.5506 0 0 0 0 0 0.0123 0.9676 0.0201 0 0 0 0 0 0 0 0 0.5011 0.4989 0 0 0 0 0 0 0 0 0.0332 0.9229000000000001 0.0439 0 0 0 0 0 0 0 0 0.5132 0.4868 0 0 0 0 0 0 0 0 0.0895 0.8229 0.0876 0 0 0 0 0 0 0 0.0007 0.4956 0.5037 0 0 0 0 0 0 0 0 0.1537 0.8463000000000001 0 0 0 0 0 0 0 0 0.0109 0.9891 0 0 0 0 0 0 0 0 0 1 0 0 0 0 0 0 0 0 0 1 0 0 0 0 0 0.0111 0.8962 0.0927 0 0 0 0 0 0 0 0 0.1718 0.8232 0.005 0 0 0 0 0 0 0 0 0.5085 0.4915 0 0 0 0 0 0 0 0 0.0161 0.7796999999999999 0.2042 0 0 0 0 0 0 0 0 0.1573 0.8427 0 0 0 0 0 0 0 0 0.0005 0.9995000000000001 0 0 0 0 0 0 0 0 0 1 0 0 0 0 0 0 0 0 0 1 0 0 0 0 0 0 0 0 0 1 0 0 0 0 0 0 0 0 0 1 0 0 0 0 0 0.0091 0.7911 0.1998 0 0 0 0 0 0 0 0 0.0353 0.8283 0.1364 0 0 0 0 0 0 0 0 0.0863 0.8243 0.08939999999999999 0 0 0 0 0 0 0 0 0.1628 0.8372000000000001 0 0 0 0 0 0 0 0 0 1 0 0 0 0 0 0 0 0 0 1 0 0 0 0 0 0 0 0 0 1 0 0 0 0 0 0 0 0 0 1 0 0 0 0 0 0 0 0 0 1 0 0 0 0 0 0 0 0 0 1 0 0 0 0 0 0.0069 0.6812 0.3119 0 0 0 0 0 0 0 0 0.0016 0.6041 0.3943 0 0 0 0 0 0 0 0 0.0005999999999999999 0.5002 0.4992 0 0 0 0 0 0 0 0 0.0005 0.9995000000000001 0 0 0 0 0 0 0 0 0 1 0 0 0 0 0 0 0 0 0 1 0 0 0 0 0 0 0 0 0 1 0 0 0 0 0 0 0 0 0 1 0 0 0 0 0 0 0 0 0 1 0 0 0 0 0 0 0 0 0 1 0 0 0 0 0 0.0054 0.578 0.4166 0 0 0 0 0 0 0 0 0 0.3511 0.6217 0.0272 0 0 0 0 0 0 0 0 0.1469 0.8531 0 0 0 0 0 0 0 0 0 1 0 0 0 0 0 0 0 0 0 1 0 0 0 0 0 0 0 0 0 1 0 0 0 0 0 0 0 0 0 1 0 0 0 0 0 0 0 0 0 1 0 0 0 0 0 0 0 0 0 1 0 0 0 0 0 0 0 0 0 1 0 0 0 0 0 0.0059 0.4868 0.5002 0.0071 0 0 0 0 0 0 0 0 0.1783 0.6442 0.1775 0 0 0 0 0 0 0 0 0.0098 0.9902 0 0 0 0 0 0 0 0 0 1 0 0 0 0 0 0 0 0 0 1 0 0 0 0 0 0 0 0 0 1 0 0 0 0 0 0 0 0 0 1 0 0 0 0 0 0 0 0 0 1 0 0 0 0 0 0 0 0 0 1 0 0 0 0 0 0 0 0 0 1 0 0 0 0 0 0.0054 0.4322 0.5232 0.0392 0 0 0 0 0 0 0 0 0.06909999999999999 0.547 0.3839 0 0 0 0 0 0 0 0 0 1 0 0 0 0 0 0 0 0 0 1 0 0 0 0 0 0 0 0 0 1 0 0 0 0 0 0 0 0 0 1 0 0 0 0 0 0 0 0 0 1 0 0 0 0 0 0 0 0 0 1 0 0 0 0 0 0 0 0 0 1 0 0 0 0 0 0 0 0 0 1 0 0 0 0 0 0.0031 0.3905 0.5116000000000001 0.0948 0 0 0 0 0 0 0 0 0.0163 0.4372 0.5465 0 0 0 0 0 0 0 0 0 1 0 0 0 0 0 0 0 0 0 1 0 0 0 0 0 0 0 0 0 1 0 0 0 0 0 0 0 0 0 1 0 0 0 0 0 0 0 0 0 1 0 0 0 0 0 0 0 0 0 1 0 0 0 0 0 0 0 0 0 1 0 0 0 0 0 0 0 0 0 1</probabilities>
		</cpt>
		<cpt id="random_disturbance_t_1">
			<state id="State0" />
			<state id="State1" />
			<state id="State2" />
			<state id="State3" />
			<state id="State4" />
			<state id="State5" />
			<state id="State6" />
			<state id="State7" />
			<state id="State8" />
			<state id="State9" />
			<state id="State10" />
			<intervals>0 0.1 0.2 0.3 0.4 0.5 0.6 0.7 0.8 0.9 1 1.1</intervals>
			<probabilities>0.1371107266435986 0.1399221453287197 0.1351643598615917 0.122621107266436 0.1038062283737024 0.08996539792387544 0.07244809688581315 0.05968858131487889 0.05839100346020761 0.04541522491349481 0.03546712802768166</probabilities>
		</cpt>
		<cpt id="random_disturbance">
			<state id="State0" />
			<state id="State1" />
			<state id="State2" />
			<state id="State3" />
			<state id="State4" />
			<state id="State5" />
			<state id="State6" />
			<state id="State7" />
			<state id="State8" />
			<state id="State9" />
			<state id="State10" />
			<intervals>0 0.1 0.2 0.3 0.4 0.5 0.6 0.7 0.8 0.9 1 1.1</intervals>
			<parents>random_disturbance_t_1</parents>
			<probabilities>0.6000799840031994 0.1721655668866227 0.1197760447910418 0.06758648270345931 0.02749450109978004 0.009398120375924815 0.002899420115976805 0.0002999400119976005 9.998000399920016e-05 9.998000399920016e-05 9.998000399920016e-05 0.4031596840315969 0.1950804919508049 0.16998300169983 0.1211878812118788 0.06959304069593041 0.0288971102889711 0.008799120087991202 0.0025997400259974 0.0003999600039996001 0.0001999800019998 9.999000099990002e-05 0.2276 0.1727 0.1977 0.1704 0.1176 0.07000000000000001 0.0317 0.0095 0.0024 0.0003 0.0001 0.1099 0.1221 0.1705 0.1973 0.1748 0.1178 0.06610000000000001 0.0298 0.0083 0.003 0.0004 0.0416 0.06610000000000001 0.1192 0.177 0.1986 0.1681 0.119 0.0704 0.027 0.009599999999999999 0.0034 0.0115 0.0278 0.0697 0.1161 0.1736 0.1941 0.1739 0.1237 0.0667 0.0299 0.013 0.0034 0.0097 0.0286 0.0688 0.1167 0.1801 0.1979 0.1722 0.1213 0.0622 0.0391 0.0005 0.0018 0.0098 0.029 0.0659 0.1204 0.1704 0.201 0.1741 0.1187 0.1084 0.0001 0.0003 0.0028 0.0095 0.0294 0.0625 0.1255 0.1738 0.1971 0.1671 0.2319 9.998000399920016e-05 9.998000399920016e-05 0.0001999600079984003 0.002399520095980804 0.01129774045190962 0.02849430113977204 0.0642871425714857 0.121375724855029 0.1694661067786443 0.1985602879424115 0.4037192561487702 9.998000399920016e-05 9.998000399920016e-05 9.998000399920016e-05 0.0002999400119976005 0.002999400119976005 0.008198360327934412 0.02809438112377525 0.06538692261547691 0.1234753049390122 0.1703659268146371 0.6008798240351929</probabilities>
		</cpt>
		<cpt id="motor_wear_t_1">
			<state id="State0" />
			<state id="State1" />
			<state id="State2" />
			<state id="State3" />
			<state id="State4" />
			<state id="State5" />
			<state id="State6" />
			<state id="State7" />
			<state id="State8" />
			<state id="State9" />
			<intervals>0 0.1 0.2 0.3 0.4 0.5 0.6 0.7 0.8 0.9 1</intervals>
			<probabilities>0.9981996399279855 0.0002000400080016003 0.0002000400080016003 0.0002000400080016003 0.0002000400080016003 0.0002000400080016003 0.0002000400080016003 0.0002000400080016003 0.0002000400080016003 0.0002000400080016003</probabilities>
		</cpt>
		<cpt id="motor_wear">
			<state id="State0" />
			<state id="State1" />
			<state id="State2" />
			<state id="State3" />
			<state id="State4" />
			<state id="State5" />
			<state id="State6" />
			<state id="State7" />
			<state id="State8" />
			<state id="State9" />
			<intervals>0 0.1 0.2 0.3 0.4 0.5 0.6 0.7 0.8 0.9 1</intervals>
			<parents>motor_wear_t_1</parents>
			<probabilities>0.9573253037067802 0.04184404527048074 0.000103831377842384 0.000103831377842384 0.000103831377842384 0.000103831377842384 0.000103831377842384 0.000103831377842384 0.000103831377842384 0.000103831377842384 0.0420705506145698 0.9189567302887979 0.03827320875387229 9.9930048965724e-05 9.9930048965724e-05 9.9930048965724e-05 9.9930048965724e-05 9.9930048965724e-05 9.9930048965724e-05 9.9930048965724e-05 9.9930048965724e-05 0.03917257919456381 0.9154591785749975 0.04466873188767863 9.9930048965724e-05 9.9930048965724e-05 9.9930048965724e-05 9.9930048965724e-05 9.9930048965724e-05 9.9930048965724e-05 9.9930048965724e-05 9.9930048965724e-05 0.03757369841111222 0.9253522534226042 0.03637453782352353 9.9930048965724e-05 9.9930048965724e-05 9.9930048965724e-05 9.9930048965724e-05 9.9930048965724e-05 9.9930048965724e-05 9.9930048965724e-05 9.9930048965724e-05 0.04306985110422704 0.9133606475467173 0.04286999100629559 9.9930048965724e-05 9.9930048965724e-05 9.9930048965724e-05 9.9930048965724e-05 9.9930048965724e-05 9.9930048965724e-05 9.9930048965724e-05 9.9930048965724e-05 0.0399720195862896 0.9193564504846607 0.0399720195862896 9.9930048965724e-05 9.9930048965724e-05 9.9930048965724e-05 9.9930048965724e-05 9.9930048965724e-05 9.9930048965724e-05 9.9930048965724e-05 9.9930048965724e-05 0.04117118017387829 0.9168581992605176 0.04127111022284401 9.9930048965724e-05 9.9930048965724e-05 9.9930048965724e-05 9.9930048965724e-05 9.9930048965724e-05 9.9930048965724e-05 9.9930048965724e-05 9.9930048965724e-05 0.03837313880283801 0.9217547716598381 0.03917257919456381 9.9930048965724e-05 9.9930048965724e-05 9.9930048965724e-05 9.9930048965724e-05 9.9930048965724e-05 9.9930048965724e-05 9.9930048965724e-05 9.9930048965724e-05 0.03797341860697512 0.918557010092935 0.04277006095732987 0.0001039717196922437 0.0001039717196922437 0.0001039717196922437 0.0001039717196922437 0.0001039717196922437 0.0001039717196922437 0.0001039717196922437 0.0001039717196922437 0.0404449989602828 0.9587232272821793</probabilities>
		</cpt>
		<cpt id="turbulence_t_1">
			<state id="State0" />
			<state id="State1" />
			<state id="State2" />
			<state id="State3" />
			<state id="State4" />
			<state id="State5" />
			<state id="State6" />
			<state id="State7" />
			<state id="State8" />
			<state id="State9" />
			<intervals>0 0.1 0.2 0.3 0.4 0.5 0.6 0.7 0.8 0.9 1</intervals>
			<probabilities>0.2562956945572705 0.2426888708367181 0.183387489845654 0.1421608448415922 0.08326563769293258 0.04772542648253453 0.02741673436230707 0.0111697806661251 0.004264825345247766 0.001624695369618197</probabilities>
		</cpt>
		<cpt id="turbulence">
			<state id="State0" />
			<state id="State1" />
			<state id="State2" />
			<state id="State3" />
			<state id="State4" />
			<state id="State5" />
			<state id="State6" />
			<state id="State7" />
			<state id="State8" />
			<state id="State9" />
			<intervals>0 0.1 0.2 0.3 0.4 0.5 0.6 0.7 0.8 0.9 1</intervals>
			<parents>turbulence_t_1</parents>
			<probabilities>0.7667337695017614 0.2297433316557625 0.002642174131857071 0.0001258178158027177 0.0001258178158027177 0.0001258178158027177 0.0001258178158027177 0.0001258178158027177 0.0001258178158027177 0.0001258178158027177 0.2274419072527915 0.6157328236595916 0.1531033095262046 0.003118398551453576 0.0001005935016597928 0.0001005935016597928 0.0001005935016597928 0.0001005935016597928 0.0001005935016597928 0.0001005935016597928 0.007296351824087956 0.2517741129435282 0.6050974512743628 0.1335332333833084 0.001799100449775112 9.995002498750625e-05 9.995002498750625e-05 9.995002498750625e-05 9.995002498750625e-05 9.995002498750625e-05 9.995002498750625e-05 0.009695152423788106 0.2746626686656672 0.5912043978010995 0.1224387806096952 0.001499250374812594 9.995002498750625e-05 9.995002498750625e-05 9.995002498750625e-05 9.995002498750625e-05 9.995002498750625e-05 9.995002498750625e-05 0.01329335332333833 0.3029485257371314 0.5767116441779111 0.1057471264367816 0.00079960019990005 9.995002498750625e-05 9.995002498750625e-05 9.995002498750625e-05 9.995002498750625e-05 9.995002498750625e-05 9.995002498750625e-05 0.01399300349825087 0.326936531734133 0.5706146926536732 0.08715642178910545 0.00079960019990005 9.995002498750625e-05 9.995002498750625e-05 9.996001599360256e-05 9.996001599360256e-05 9.996001599360256e-05 9.996001599360256e-05 0.01869252299080368 0.3668532586965214 0.5382846861255498 0.07497001199520192 0.0006997201119552179 9.996001599360256e-05 9.996001599360256e-05 9.996001599360256e-05 9.996001599360256e-05 9.996001599360256e-05 9.996001599360256e-05 0.0271891243502599 0.3894442223110756 0.5205917632946822 0.06217512994802079 9.996001599360256e-05 9.997000899730081e-05 9.997000899730081e-05 9.997000899730081e-05 9.997000899730081e-05 9.997000899730081e-05 9.997000899730081e-05 0.02769169249225232 0.4212736179146256 0.4957512746176147 0.05468359492152354 0.0001042970379641218 0.0001042970379641218 0.0001042970379641218 0.0001042970379641218 0.0001042970379641218 0.0001042970379641218 0.0001042970379641218 0.03598247809762203 0.467459324155194 0.4958281184814352</probabilities>
		</cpt>
		<cpt id="motoruse_for_other">
			<state id="State0" />
			<state id="State1" />
			<state id="State2" />
			<state id="State3" />
			<state id="State4" />
			<state id="State5" />
			<state id="State6" />
			<state id="State7" />
			<state id="State8" />
			<state id="State9" />
			<state id="State10" />
			<intervals>0 0.1 0.2 0.3 0.4 0.5 0.6 0.7 0.8 0.9 1 1.1</intervals>
			<parents>motor_wear turbulence random_disturbance</parents>
			<probabilities>0.8203 0.1797 0 0 0 0 0 0 0 0 0 0.0863 0.7349 0.1788 0 0 0 0 0 0 0 0 0 0.0781 0.7441 0.1778 0 0 0 0 0 0 0 0 0 0.08359999999999999 0.7343 0.1821 0 0 0 0 0 0 0 0 0 0.0843 0.7304 0.1853 0 0 0 0 0 0 0 0 0 0.081 0.7322 0.1868 0 0 0 0 0 0 0 0 0 0.0881 0.7374000000000001 0.1745 0 0 0 0 0 0 0 0 0 0.07779999999999999 0.7341 0.1881 0 0 0 0 0 0 0 0 0 0.0835 0.7338 0.1827 0 0 0 0 0 0 0 0 0 0.07870000000000001 0.7463 0.175 0 0 0 0 0 0 0 0 0 0.08160000000000001 0.9184 0.6848 0.3152 0 0 0 0 0 0 0 0 0 0.0209 0.6538 0.3253 0 0 0 0 0 0 0 0 0 0.0223 0.668 0.3097 0 0 0 0 0 0 0 0 0 0.0204 0.6556 0.324 0 0 0 0 0 0 0 0 0 0.0198 0.6744 0.3058 0 0 0 0 0 0 0 0 0 0.0235 0.6556 0.3209 0 0 0 0 0 0 0 0 0 0.0261 0.6567 0.3172 0 0 0 0 0 0 0 0 0 0.0201 0.6481 0.3318 0 0 0 0 0 0 0 0 0 0.0196 0.6535 0.3269 0 0 0 0 0 0 0 0 0 0.0229 0.6592 0.3179 0 0 0 0 0 0 0 0 0 0.0194 0.9806 0.4972 0.5024 0.0004 0 0 0 0 0 0 0 0 0.0007 0.4977 0.5009 0.0007 0 0 0 0 0 0 0 0 0.0009 0.4967 0.5014999999999999 0.0009 0 0 0 0 0 0 0 0 0.0008 0.5096000000000001 0.4889 0.0007 0 0 0 0 0 0 0 0 0.0005999999999999999 0.5071 0.4914 0.0009 0 0 0 0 0 0 0 0 0.0005 0.5008 0.498 0.0007 0 0 0 0 0 0 0 0 0.0009 0.5044999999999999 0.4941 0.0005 0 0 0 0 0 0 0 0 0.0012 0.4923 0.5058 0.0007 0 0 0 0 0 0 0 0 0.0005999999999999999 0.4935 0.5048 0.0011 0 0 0 0 0 0 0 0 0.0005999999999999999 0.4953 0.5041 0 0 0 0 0 0 0 0 0 0.0009 0.9991 0.3172 0.6636 0.0192 0 0 0 0 0 0 0 0 0 0.323 0.6535 0.0235 0 0 0 0 0 0 0 0 0 0.3149 0.6622 0.0229 0 0 0 0 0 0 0 0 0 0.3237 0.653 0.0233 0 0 0 0 0 0 0 0 0 0.3165 0.659 0.0245 0 0 0 0 0 0 0 0 0 0.3169 0.6594 0.0237 0 0 0 0 0 0 0 0 0 0.3172 0.6618000000000001 0.021 0 0 0 0 0 0 0 0 0 0.3244 0.652 0.0236 0 0 0 0 0 0 0 0 0 0.3231 0.6542 0.0227 0 0 0 0 0 0 0 0 0 0.3198 0.6802 0 0 0 0 0 0 0 0 0 0 1 0.1789 0.7397 0.0814 0 0 0 0 0 0 0 0 0 0.1794 0.7433999999999999 0.0772 0 0 0 0 0 0 0 0 0 0.1847 0.7316 0.0837 0 0 0 0 0 0 0 0 0 0.1776 0.744 0.0784 0 0 0 0 0 0 0 0 0 0.178 0.7399 0.08210000000000001 0 0 0 0 0 0 0 0 0 0.1806 0.7411 0.07829999999999999 0 0 0 0 0 0 0 0 0 0.1796 0.7377 0.0827 0 0 0 0 0 0 0 0 0 0.1799 0.741 0.0791 0 0 0 0 0 0 0 0 0 0.1827 0.737 0.0803 0 0 0 0 0 0 0 0 0 0.1731 0.8269 0 0 0 0 0 0 0 0 0 0 1 0.08110000000000001 0.7433999999999999 0.1755 0 0 0 0 0 0 0 0 0 0.0842 0.7374000000000001 0.1784 0 0 0 0 0 0 0 0 0 0.08309999999999999 0.7392 0.1777 0 0 0 0 0 0 0 0 0 0.0804 0.7387 0.1809 0 0 0 0 0 0 0 0 0 0.0857 0.7292999999999999 0.185 0 0 0 0 0 0 0 0 0 0.08169999999999999 0.7339 0.1844 0 0 0 0 0 0 0 0 0 0.0795 0.7406 0.1799 0 0 0 0 0 0 0 0 0 0.08260000000000001 0.7308 0.1866 0 0 0 0 0 0 0 0 0 0.0793 0.7398 0.1809 0 0 0 0 0 0 0 0 0 0.0888 0.9112 0 0 0 0 0 0 0 0 0 0 1 0.02 0.6564 0.3236 0 0 0 0 0 0 0 0 0 0.02 0.6617 0.3183 0 0 0 0 0 0 0 0 0 0.0189 0.6551 0.326 0 0 0 0 0 0 0 0 0 0.0213 0.6669 0.3118 0 0 0 0 0 0 0 0 0 0.0233 0.6559 0.3208 0 0 0 0 0 0 0 0 0 0.0236 0.6521 0.3243 0 0 0 0 0 0 0 0 0 0.0194 0.6519 0.3287 0 0 0 0 0 0 0 0 0 0.0213 0.6598000000000001 0.3189 0 0 0 0 0 0 0 0 0 0.0213 0.6617 0.317 0 0 0 0 0 0 0 0 0 0.0212 0.9788 0 0 0 0 0 0 0 0 0 0 1 0.0005999999999999999 0.4935 0.505 0.0009 0 0 0 0 0 0 0 0 0.0005999999999999999 0.4955 0.503 0.0009 0 0 0 0 0 0 0 0 0.0008 0.5074 0.4908 0.001 0 0 0 0 0 0 0 0 0.0003 0.4984 0.5003 0.001 0 0 0 0 0 0 0 0 0.0009 0.4967 0.5019 0.0005 0 0 0 0 0 0 0 0 0.0007 0.5001 0.4989 0.0003 0 0 0 0 0 0 0 0 0.001 0.4925 0.5059 0.0005999999999999999 0 0 0 0 0 0 0 0 0.0011 0.507 0.4914 0.0005 0 0 0 0 0 0 0 0 0.001 0.5004 0.4986 0 0 0 0 0 0 0 0 0 0.001 0.999 0 0 0 0 0 0 0 0 0 0 1 0 0.3242 0.6528 0.023 0 0 0 0 0 0 0 0 0 0.3213 0.6576 0.0211 0 0 0 0 0 0 0 0 0 0.3179 0.6617 0.0204 0 0 0 0 0 0 0 0 0 0.3204 0.6595 0.0201 0 0 0 0 0 0 0 0 0 0.3207 0.6587 0.0206 0 0 0 0 0 0 0 0 0 0.3217 0.657 0.0213 0 0 0 0 0 0 0 0 0 0.3215 0.6579 0.0206 0 0 0 0 0 0 0 0 0 0.317 0.6608000000000001 0.0222 0 0 0 0 0 0 0 0 0 0.3226 0.6774 0 0 0 0 0 0 0 0 0 0 1 0 0 0 0 0 0 0 0 0 0 1 0 0.1814 0.7385 0.0801 0 0 0 0 0 0 0 0 0 0.1784 0.74 0.08160000000000001 0 0 0 0 0 0 0 0 0 0.184 0.7367 0.0793 0 0 0 0 0 0 0 0 0 0.1784 0.7435 0.0781 0 0 0 0 0 0 0 0 0 0.1798 0.7383 0.0819 0 0 0 0 0 0 0 0 0 0.1809 0.7372 0.0819 0 0 0 0 0 0 0 0 0 0.1793 0.7403999999999999 0.0803 0 0 0 0 0 0 0 0 0 0.1832 0.7379 0.0789 0 0 0 0 0 0 0 0 0 0.1776 0.8224 0 0 0 0 0 0 0 0 0 0 1 0 0 0 0 0 0 0 0 0 0 1 0.0771 0.7415 0.1814 0 0 0 0 0 0 0 0 0 0.07829999999999999 0.7428 0.1789 0 0 0 0 0 0 0 0 0 0.0791 0.7377 0.1832 0 0 0 0 0 0 0 0 0 0.0788 0.7426 0.1786 0 0 0 0 0 0 0 0 0 0.0788 0.7379 0.1833 0 0 0 0 0 0 0 0 0 0.0785 0.7451 0.1764 0 0 0 0 0 0 0 0 0 0.0843 0.732 0.1837 0 0 0 0 0 0 0 0 0 0.078 0.747 0.175 0 0 0 0 0 0 0 0 0 0.07969999999999999 0.7438 0.1765 0 0 0 0 0 0 0 0 0 0.0767 0.9233 0 0 0 0 0 0 0 0 0 0 1 0.0205 0.6532 0.3263 0 0 0 0 0 0 0 0 0 0.0213 0.6601 0.3186 0 0 0 0 0 0 0 0 0 0.0196 0.6573 0.3231 0 0 0 0 0 0 0 0 0 0.0217 0.654 0.3243 0 0 0 0 0 0 0 0 0 0.0214 0.6597 0.3189 0 0 0 0 0 0 0 0 0 0.021 0.6556999999999999 0.3233 0 0 0 0 0 0 0 0 0 0.0227 0.6609 0.3164 0 0 0 0 0 0 0 0 0 0.0193 0.6608000000000001 0.3199 0 0 0 0 0 0 0 0 0 0.0202 0.6577 0.3221 0 0 0 0 0 0 0 0 0 0.0212 0.9788 0 0 0 0 0 0 0 0 0 0 1 0.001 0.5012 0.4976 0.0002 0 0 0 0 0 0 0 0 0.0013 0.4922 0.5054999999999999 0.001 0 0 0 0 0 0 0 0 0.0012 0.4934 0.5044 0.001 0 0 0 0 0 0 0 0 0.001 0.4948 0.5034999999999999 0.0007 0 0 0 0 0 0 0 0 0.0008 0.4878 0.5109 0.0005 0 0 0 0 0 0 0 0 0.0009 0.5001 0.4979 0.0011 0 0 0 0 0 0 0 0 0.001 0.4998 0.4984 0.0008 0 0 0 0 0 0 0 0 0.0008 0.4913 0.5074 0.0005 0 0 0 0 0 0 0 0 0.0008 0.507 0.4922 0 0 0 0 0 0 0 0 0 0.0012 0.9988 0 0 0 0 0 0 0 0 0 0 1 0 0.325 0.6558 0.0192 0 0 0 0 0 0 0 0 0 0.3203 0.6591 0.0206 0 0 0 0 0 0 0 0 0 0.3162 0.6629 0.0209 0 0 0 0 0 0 0 0 0 0.3207 0.6573 0.022 0 0 0 0 0 0 0 0 0 0.3145 0.6627 0.0228 0 0 0 0 0 0 0 0 0 0.3196 0.6588000000000001 0.0216 0 0 0 0 0 0 0 0 0 0.3243 0.6534 0.0223 0 0 0 0 0 0 0 0 0 0.3323 0.6469 0.0208 0 0 0 0 0 0 0 0 0 0.3227 0.6773 0 0 0 0 0 0 0 0 0 0 1 0 0 0 0 0 0 0 0 0 0 1 0 0.185 0.7365 0.0785 0 0 0 0 0 0 0 0 0 0.1825 0.732 0.08550000000000001 0 0 0 0 0 0 0 0 0 0.1768 0.7428 0.0804 0 0 0 0 0 0 0 0 0 0.1752 0.7458 0.079 0 0 0 0 0 0 0 0 0 0.18 0.7391 0.0809 0 0 0 0 0 0 0 0 0 0.1833 0.7353 0.0814 0 0 0 0 0 0 0 0 0 0.1881 0.7265 0.0854 0 0 0 0 0 0 0 0 0 0.1847 0.7307 0.08459999999999999 0 0 0 0 0 0 0 0 0 0.1752 0.8248 0 0 0 0 0 0 0 0 0 0 1 0 0 0 0 0 0 0 0 0 0 1 0 0.08 0.7374000000000001 0.1826 0 0 0 0 0 0 0 0 0 0.0861 0.7302999999999999 0.1836 0 0 0 0 0 0 0 0 0 0.0771 0.7401 0.1828 0 0 0 0 0 0 0 0 0 0.0843 0.7323 0.1834 0 0 0 0 0 0 0 0 0 0.078 0.7429 0.1791 0 0 0 0 0 0 0 0 0 0.08359999999999999 0.7379 0.1785 0 0 0 0 0 0 0 0 0 0.0809 0.7371 0.182 0 0 0 0 0 0 0 0 0 0.0827 0.7399 0.1774 0 0 0 0 0 0 0 0 0 0.0781 0.9219000000000001 0 0 0 0 0 0 0 0 0 0 1 0 0 0 0 0 0 0 0 0 0 1 0 0.0215 0.6631 0.3154 0 0 0 0 0 0 0 0 0 0.0217 0.6584 0.3199 0 0 0 0 0 0 0 0 0 0.019 0.6561 0.3249 0 0 0 0 0 0 0 0 0 0.0207 0.6526999999999999 0.3266 0 0 0 0 0 0 0 0 0 0.0222 0.6568000000000001 0.321 0 0 0 0 0 0 0 0 0 0.0186 0.6565 0.3249 0 0 0 0 0 0 0 0 0 0.0206 0.6546 0.3248 0 0 0 0 0 0 0 0 0 0.0223 0.6637999999999999 0.3139 0 0 0 0 0 0 0 0 0 0.0221 0.9779 0 0 0 0 0 0 0 0 0 0 1 0 0 0 0 0 0 0 0 0 0 1 0 0.0007 0.4951 0.5036 0.0005999999999999999 0 0 0 0 0 0 0 0 0.0014 0.4996 0.4981 0.0009 0 0 0 0 0 0 0 0 0.001 0.4991 0.4991 0.0008 0 0 0 0 0 0 0 0 0.0008 0.5016 0.4965 0.0011 0 0 0 0 0 0 0 0 0.001 0.4944 0.5038 0.0008 0 0 0 0 0 0 0 0 0.0009 0.4921 0.5063 0.0007 0 0 0 0 0 0 0 0 0.0009 0.5004 0.4975 0.0012 0 0 0 0 0 0 0 0 0.0008 0.5007 0.4985 0 0 0 0 0 0 0 0 0 0.0005 0.9995000000000001 0 0 0 0 0 0 0 0 0 0 1 0 0 0 0 0 0 0 0 0 0 1 0 0 0.3226 0.6539 0.0235 0 0 0 0 0 0 0 0 0 0.3234 0.6562 0.0204 0 0 0 0 0 0 0 0 0 0.3275 0.6504 0.0221 0 0 0 0 0 0 0 0 0 0.3199 0.6579 0.0222 0 0 0 0 0 0 0 0 0 0.3229 0.6555 0.0216 0 0 0 0 0 0 0 0 0 0.3213 0.658 0.0207 0 0 0 0 0 0 0 0 0 0.3223 0.6582 0.0195 0 0 0 0 0 0 0 0 0 0.3278 0.6722 0 0 0 0 0 0 0 0 0 0 1 0 0 0 0 0 0 0 0 0 0 1 0 0 0 0 0 0 0 0 0 0 1 0 0 0.18 0.7417 0.07829999999999999 0 0 0 0 0 0 0 0 0 0.1817 0.7391 0.07920000000000001 0 0 0 0 0 0 0 0 0 0.1841 0.7367 0.07920000000000001 0 0 0 0 0 0 0 0 0 0.1835 0.7362 0.0803 0 0 0 0 0 0 0 0 0 0.1742 0.7443 0.0815 0 0 0 0 0 0 0 0 0 0.1867 0.7364000000000001 0.0769 0 0 0 0 0 0 0 0 0 0.1844 0.7348 0.0808 0 0 0 0 0 0 0 0 0 0.1743 0.8257 0 0 0 0 0 0 0 0 0 0 1 0 0 0 0 0 0 0 0 0 0 1 0 0 0 0 0 0 0 0 0 0 1 0 0.0827 0.7355 0.1818 0 0 0 0 0 0 0 0 0 0.08649999999999999 0.7285 0.185 0 0 0 0 0 0 0 0 0 0.0801 0.7382 0.1817 0 0 0 0 0 0 0 0 0 0.0822 0.7351 0.1827 0 0 0 0 0 0 0 0 0 0.0823 0.7422 0.1755 0 0 0 0 0 0 0 0 0 0.0809 0.7389 0.1802 0 0 0 0 0 0 0 0 0 0.08260000000000001 0.733 0.1844 0 0 0 0 0 0 0 0 0 0.0835 0.7355 0.181 0 0 0 0 0 0 0 0 0 0.0786 0.9214 0 0 0 0 0 0 0 0 0 0 1 0 0 0 0 0 0 0 0 0 0 1 0 0.0214 0.655 0.3236 0 0 0 0 0 0 0 0 0 0.0223 0.6534 0.3243 0 0 0 0 0 0 0 0 0 0.0216 0.6589 0.3195 0 0 0 0 0 0 0 0 0 0.0211 0.6599 0.319 0 0 0 0 0 0 0 0 0 0.0199 0.6624 0.3177 0 0 0 0 0 0 0 0 0 0.023 0.656 0.321 0 0 0 0 0 0 0 0 0 0.0228 0.6599 0.3173 0 0 0 0 0 0 0 0 0 0.0205 0.6625 0.317 0 0 0 0 0 0 0 0 0 0.0198 0.9802 0 0 0 0 0 0 0 0 0 0 1 0 0 0 0 0 0 0 0 0 0 1 0 0.0005999999999999999 0.4961 0.5024 0.0009 0 0 0 0 0 0 0 0 0.0009 0.5016 0.4966 0.0009 0 0 0 0 0 0 0 0 0.001 0.5044999999999999 0.4932 0.0013 0 0 0 0 0 0 0 0 0.0011 0.5032 0.4952 0.0005 0 0 0 0 0 0 0 0 0.0009 0.4985 0.4996 0.001 0 0 0 0 0 0 0 0 0.0005999999999999999 0.5029 0.4958 0.0007 0 0 0 0 0 0 0 0 0.0008 0.5046 0.4944 0.0002 0 0 0 0 0 0 0 0 0.0005999999999999999 0.4937 0.5057 0 0 0 0 0 0 0 0 0 0.0003 0.9997 0 0 0 0 0 0 0 0 0 0 1 0 0 0 0 0 0 0 0 0 0 1 0 0 0.3214 0.6587 0.0199 0 0 0 0 0 0 0 0 0 0.3222 0.6546 0.0232 0 0 0 0 0 0 0 0 0 0.322 0.6561 0.0219 0 0 0 0 0 0 0 0 0 0.3201 0.6578000000000001 0.0221 0 0 0 0 0 0 0 0 0 0.3186 0.6611 0.0203 0 0 0 0 0 0 0 0 0 0.3188 0.6604 0.0208 0 0 0 0 0 0 0 0 0 0.3294 0.6503 0.0203 0 0 0 0 0 0 0 0 0 0.3158 0.6842 0 0 0 0 0 0 0 0 0 0 1 0 0 0 0 0 0 0 0 0 0 1 0 0 0 0 0 0 0 0 0 0 1 0 0 0.1778 0.7427 0.0795 0 0 0 0 0 0 0 0 0 0.1825 0.7369 0.0806 0 0 0 0 0 0 0 0 0 0.1818 0.7335 0.0847 0 0 0 0 0 0 0 0 0 0.1845 0.735 0.0805 0 0 0 0 0 0 0 0 0 0.1808 0.7381 0.08110000000000001 0 0 0 0 0 0 0 0 0 0.1774 0.737 0.0856 0 0 0 0 0 0 0 0 0 0.178 0.741 0.081 0 0 0 0 0 0 0 0 0 0.1778 0.8222 0 0 0 0 0 0 0 0 0 0 1 0 0 0 0 0 0 0 0 0 0 1 0 0 0 0 0 0 0 0 0 0 1 0 0 0.0784 0.7461 0.1755 0 0 0 0 0 0 0 0 0 0.08309999999999999 0.7369 0.18 0 0 0 0 0 0 0 0 0 0.0795 0.7417 0.1788 0 0 0 0 0 0 0 0 0 0.0847 0.7412 0.1741 0 0 0 0 0 0 0 0 0 0.0794 0.736 0.1846 0 0 0 0 0 0 0 0 0 0.08309999999999999 0.7335 0.1834 0 0 0 0 0 0 0 0 0 0.0803 0.7353 0.1844 0 0 0 0 0 0 0 0 0 0.07829999999999999 0.9217 0 0 0 0 0 0 0 0 0 0 1 0 0 0 0 0 0 0 0 0 0 1 0 0 0 0 0 0 0 0 0 0 1 0 0 0.0239 0.6618000000000001 0.3143 0 0 0 0 0 0 0 0 0 0.0199 0.664 0.3161 0 0 0 0 0 0 0 0 0 0.0235 0.6558 0.3207 0 0 0 0 0 0 0 0 0 0.021 0.6516 0.3274 0 0 0 0 0 0 0 0 0 0.0218 0.6617 0.3165 0 0 0 0 0 0 0 0 0 0.0221 0.6526999999999999 0.3252 0 0 0 0 0 0 0 0 0 0.0213 0.6515 0.3272 0 0 0 0 0 0 0 0 0 0.0216 0.9784 0 0 0 0 0 0 0 0 0 0 1 0 0 0 0 0 0 0 0 0 0 1 0 0 0 0 0 0 0 0 0 0 1 0 0 0.0013 0.4991 0.4985 0.0011 0 0 0 0 0 0 0 0 0.0009 0.4996 0.4989 0.0005999999999999999 0 0 0 0 0 0 0 0 0.0012 0.4904 0.5075 0.0009 0 0 0 0 0 0 0 0 0.0013 0.4945 0.5033 0.0009 0 0 0 0 0 0 0 0 0.0008 0.4872 0.5111 0.0009 0 0 0 0 0 0 0 0 0.0007 0.4982 0.5 0.0011 0 0 0 0 0 0 0 0 0.001 0.4948 0.5042 0 0 0 0 0 0 0 0 0 0.0011 0.9989 0 0 0 0 0 0 0 0 0 0 1 0 0 0 0 0 0 0 0 0 0 1 0 0 0 0 0 0 0 0 0 0 1 0 0 0 0.3354 0.6429 0.0217 0 0 0 0 0 0 0 0 0 0.3149 0.6629 0.0222 0 0 0 0 0 0 0 0 0 0.3226 0.6536999999999999 0.0237 0 0 0 0 0 0 0 0 0 0.3174 0.6578000000000001 0.0248 0 0 0 0 0 0 0 0 0 0.3165 0.6603 0.0232 0 0 0 0 0 0 0 0 0 0.3181 0.662 0.0199 0 0 0 0 0 0 0 0 0 0.3215 0.6785 0 0 0 0 0 0 0 0 0 0 1 0 0 0 0 0 0 0 0 0 0 1 0 0 0 0 0 0 0 0 0 0 1 0 0 0 0 0 0 0 0 0 0 1 0 0 0 0.1804 0.7358 0.0838 0 0 0 0 0 0 0 0 0 0.184 0.7339 0.08210000000000001 0 0 0 0 0 0 0 0 0 0.1873 0.7321 0.0806 0 0 0 0 0 0 0 0 0 0.1789 0.7343 0.0868 0 0 0 0 0 0 0 0 0 0.1865 0.73 0.0835 0 0 0 0 0 0 0 0 0 0.1822 0.7326 0.0852 0 0 0 0 0 0 0 0 0 0.1814 0.8186 0 0 0 0 0 0 0 0 0 0 1 0 0 0 0 0 0 0 0 0 0 1 0 0 0 0 0 0 0 0 0 0 1 0 0 0 0 0 0 0 0 0 0 1 0 0 0.0804 0.7322 0.1874 0 0 0 0 0 0 0 0 0 0.0798 0.7474 0.1728 0 0 0 0 0 0 0 0 0 0.0796 0.7389 0.1815 0 0 0 0 0 0 0 0 0 0.08119999999999999 0.7361 0.1827 0 0 0 0 0 0 0 0 0 0.0791 0.7416 0.1793 0 0 0 0 0 0 0 0 0 0.08119999999999999 0.7332 0.1856 0 0 0 0 0 0 0 0 0 0.0774 0.7439 0.1787 0 0 0 0 0 0 0 0 0 0.0813 0.9187 0 0 0 0 0 0 0 0 0 0 1 0 0 0 0 0 0 0 0 0 0 1 0 0 0 0 0 0 0 0 0 0 1 0 0 0.0198 0.655 0.3252 0 0 0 0 0 0 0 0 0 0.0234 0.6519 0.3247 0 0 0 0 0 0 0 0 0 0.0227 0.6559 0.3214 0 0 0 0 0 0 0 0 0 0.0189 0.6602 0.3209 0 0 0 0 0 0 0 0 0 0.0216 0.6589 0.3195 0 0 0 0 0 0 0 0 0 0.0254 0.6585 0.3161 0 0 0 0 0 0 0 0 0 0.0198 0.6523 0.3279 0 0 0 0 0 0 0 0 0 0.0227 0.9772999999999999 0 0 0 0 0 0 0 0 0 0 1 0 0 0 0 0 0 0 0 0 0 1 0 0 0 0 0 0 0 0 0 0 1 0 0 0.0007 0.5049 0.4931 0.0013 0 0 0 0 0 0 0 0 0.0011 0.4946 0.5037 0.0005999999999999999 0 0 0 0 0 0 0 0 0.0012 0.5057 0.4922 0.0009 0 0 0 0 0 0 0 0 0.0008 0.5043 0.4937 0.0012 0 0 0 0 0 0 0 0 0.0005 0.4963 0.502 0.0012 0 0 0 0 0 0 0 0 0.0008 0.5046 0.4937 0.0009 0 0 0 0 0 0 0 0 0.0007 0.4974 0.5019 0 0 0 0 0 0 0 0 0 0.0009 0.9991 0 0 0 0 0 0 0 0 0 0 1 0 0 0 0 0 0 0 0 0 0 1 0 0 0 0 0 0 0 0 0 0 1 0 0 0 0.32 0.6607 0.0193 0 0 0 0 0 0 0 0 0 0.3193 0.658 0.0227 0 0 0 0 0 0 0 0 0 0.3231 0.6541 0.0228 0 0 0 0 0 0 0 0 0 0.3287 0.6505 0.0208 0 0 0 0 0 0 0 0 0 0.3203 0.6568000000000001 0.0229 0 0 0 0 0 0 0 0 0 0.3229 0.661 0.0161 0 0 0 0 0 0 0 0 0 0.3271 0.6729000000000001 0 0 0 0 0 0 0 0 0 0 1 0 0 0 0 0 0 0 0 0 0 1 0 0 0 0 0 0 0 0 0 0 1 0 0 0 0 0 0 0 0 0 0 1 0 0 0 0.1874 0.7315 0.08110000000000001 0 0 0 0 0 0 0 0 0 0.1805 0.7396 0.0799 0 0 0 0 0 0 0 0 0 0.1808 0.7402 0.079 0 0 0 0 0 0 0 0 0 0.181 0.7439 0.0751 0 0 0 0 0 0 0 0 0 0.1814 0.7353 0.0833 0 0 0 0 0 0 0 0 0 0.1826 0.738 0.0794 0 0 0 0 0 0 0 0 0 0.1786 0.8214 0 0 0 0 0 0 0 0 0 0 1 0 0 0 0 0 0 0 0 0 0 1 0 0 0 0 0 0 0 0 0 0 1 0 0 0 0 0 0 0 0 0 0 1 0 0 0 0.0804 0.7341 0.1855 0 0 0 0 0 0 0 0 0 0.082 0.744 0.174 0 0 0 0 0 0 0 0 0 0.0833 0.7358 0.1809 0 0 0 0 0 0 0 0 0 0.08119999999999999 0.7373 0.1815 0 0 0 0 0 0 0 0 0 0.08260000000000001 0.7307 0.1867 0 0 0 0 0 0 0 0 0 0.0833 0.7343 0.1824 0 0 0 0 0 0 0 0 0 0.0774 0.9226 0 0 0 0 0 0 0 0 0 0 1 0 0 0 0 0 0 0 0 0 0 1 0 0 0 0 0 0 0 0 0 0 1 0 0 0 0 0 0 0 0 0 0 1 0 0 0 0.0228 0.6516 0.3256 0 0 0 0 0 0 0 0 0 0.0207 0.66 0.3193 0 0 0 0 0 0 0 0 0 0.0239 0.657 0.3191 0 0 0 0 0 0 0 0 0 0.0212 0.6519 0.3269 0 0 0 0 0 0 0 0 0 0.0224 0.6513 0.3263 0 0 0 0 0 0 0 0 0 0.0212 0.652 0.3268 0 0 0 0 0 0 0 0 0 0.0235 0.9765 0 0 0 0 0 0 0 0 0 0 1 0 0 0 0 0 0 0 0 0 0 1 0 0 0 0 0 0 0 0 0 0 1 0 0 0 0 0 0 0 0 0 0 1 0 0 0 0.0005999999999999999 0.4928 0.5054 0.0012 0 0 0 0 0 0 0 0 0.0009 0.5053 0.4926 0.0012 0 0 0 0 0 0 0 0 0.0005999999999999999 0.5 0.4986 0.0008 0 0 0 0 0 0 0 0 0.0008 0.4903 0.5083 0.0005999999999999999 0 0 0 0 0 0 0 0 0.0007 0.4953 0.5033 0.0007 0 0 0 0 0 0 0 0 0.0011 0.4897 0.5092 0 0 0 0 0 0 0 0 0 0.0012 0.9988 0 0 0 0 0 0 0 0 0 0 1 0 0 0 0 0 0 0 0 0 0 1 0 0 0 0 0 0 0 0 0 0 1 0 0 0 0 0 0 0 0 0 0 1 0 0 0 0 0.3282 0.6491 0.0227 0 0 0 0 0 0 0 0 0 0.315 0.6618000000000001 0.0232 0 0 0 0 0 0 0 0 0 0.3237 0.655 0.0213 0 0 0 0 0 0 0 0 0 0.3272 0.6502 0.0226 0 0 0 0 0 0 0 0 0 0.3182 0.6615 0.0203 0 0 0 0 0 0 0 0 0 0.3175 0.6825 0 0 0 0 0 0 0 0 0 0 1 0 0 0 0 0 0 0 0 0 0 1 0 0 0 0 0 0 0 0 0 0 1 0 0 0 0 0 0 0 0 0 0 1 0 0 0 0 0 0 0 0 0 0 1 0 0 0 0 0.1753 0.7432 0.0815 0 0 0 0 0 0 0 0 0 0.1866 0.7335 0.0799 0 0 0 0 0 0 0 0 0 0.1868 0.7359 0.07729999999999999 0 0 0 0 0 0 0 0 0 0.1792 0.7385 0.0823 0 0 0 0 0 0 0 0 0 0.1834 0.7391 0.0775 0 0 0 0 0 0 0 0 0 0.1795 0.8205 0 0 0 0 0 0 0 0 0 0 1 0 0 0 0 0 0 0 0 0 0 1 0 0 0 0 0 0 0 0 0 0 1 0 0 0 0 0 0 0 0 0 0 1 0 0 0 0 0 0 0 0 0 0 1 0 0 0 0.0801 0.7381 0.1818 0 0 0 0 0 0 0 0 0 0.0769 0.7375 0.1856 0 0 0 0 0 0 0 0 0 0.0799 0.744 0.1761 0 0 0 0 0 0 0 0 0 0.08160000000000001 0.7395 0.1789 0 0 0 0 0 0 0 0 0 0.0795 0.7413999999999999 0.1791 0 0 0 0 0 0 0 0 0 0.0755 0.7468 0.1777 0 0 0 0 0 0 0 0 0 0.0829 0.9171 0 0 0 0 0 0 0 0 0 0 1 0 0 0 0 0 0 0 0 0 0 1 0 0 0 0 0 0 0 0 0 0 1 0 0 0 0 0 0 0 0 0 0 1 0 0 0 0.0239 0.6664 0.3097 0 0 0 0 0 0 0 0 0 0.023 0.6522 0.3248 0 0 0 0 0 0 0 0 0 0.0226 0.6653 0.3121 0 0 0 0 0 0 0 0 0 0.0196 0.6592 0.3212 0 0 0 0 0 0 0 0 0 0.0204 0.6654 0.3142 0 0 0 0 0 0 0 0 0 0.0227 0.653 0.3243 0 0 0 0 0 0 0 0 0 0.0222 0.9778 0 0 0 0 0 0 0 0 0 0 1 0 0 0 0 0 0 0 0 0 0 1 0 0 0 0 0 0 0 0 0 0 1 0 0 0 0 0 0 0 0 0 0 1 0 0 0 0.0011 0.5013 0.4966 0.001 0 0 0 0 0 0 0 0 0.0011 0.498 0.5004 0.0005 0 0 0 0 0 0 0 0 0.0011 0.4969 0.5014999999999999 0.0005 0 0 0 0 0 0 0 0 0.0007 0.5033 0.4953 0.0007 0 0 0 0 0 0 0 0 0.0009 0.4943 0.5039 0.0009 0 0 0 0 0 0 0 0 0.0008 0.4973 0.5019 0 0 0 0 0 0 0 0 0 0.0012 0.9988 0 0 0 0 0 0 0 0 0 0 1 0 0 0 0 0 0 0 0 0 0 1 0 0 0 0 0 0 0 0 0 0 1 0 0 0 0 0 0 0 0 0 0 1 0 0 0 0 0.3201 0.6589 0.021 0 0 0 0 0 0 0 0 0 0.3214 0.6576 0.021 0 0 0 0 0 0 0 0 0 0.3166 0.6623 0.0211 0 0 0 0 0 0 0 0 0 0.317 0.6621 0.0209 0 0 0 0 0 0 0 0 0 0.3196 0.66 0.0204 0 0 0 0 0 0 0 0 0 0.3246 0.6754 0 0 0 0 0 0 0 0 0 0 1 0 0 0 0 0 0 0 0 0 0 1 0 0 0 0 0 0 0 0 0 0 1 0 0 0 0 0 0 0 0 0 0 1 0 0 0 0 0 0 0 0 0 0 1 0 0 0 0 0.1759 0.7411 0.083 0 0 0 0 0 0 0 0 0 0.1785 0.7426 0.0789 0 0 0 0 0 0 0 0 0 0.1785 0.7367 0.0848 0 0 0 0 0 0 0 0 0 0.1821 0.7361 0.0818 0 0 0 0 0 0 0 0 0 0.1852 0.7345 0.0803 0 0 0 0 0 0 0 0 0 0.1828 0.8172 0 0 0 0 0 0 0 0 0 0 1 0 0 0 0 0 0 0 0 0 0 1 0 0 0 0 0 0 0 0 0 0 1 0 0 0 0 0 0 0 0 0 0 1 0 0 0 0 0 0 0 0 0 0 1 0 0 0 0 0.0771 0.7365 0.1864 0 0 0 0 0 0 0 0 0 0.079 0.7433999999999999 0.1776 0 0 0 0 0 0 0 0 0 0.0805 0.7321 0.1874 0 0 0 0 0 0 0 0 0 0.0747 0.7431 0.1822 0 0 0 0 0 0 0 0 0 0.0834 0.7345 0.1821 0 0 0 0 0 0 0 0 0 0.0798 0.9202 0 0 0 0 0 0 0 0 0 0 1 0 0 0 0 0 0 0 0 0 0 1 0 0 0 0 0 0 0 0 0 0 1 0 0 0 0 0 0 0 0 0 0 1 0 0 0 0 0 0 0 0 0 0 1 0 0 0 0 0.021 0.662 0.317 0 0 0 0 0 0 0 0 0 0.0201 0.6644 0.3155 0 0 0 0 0 0 0 0 0 0.0187 0.662 0.3193 0 0 0 0 0 0 0 0 0 0.0226 0.6609 0.3165 0 0 0 0 0 0 0 0 0 0.0178 0.6613 0.3209 0 0 0 0 0 0 0 0 0 0.0212 0.9788 0 0 0 0 0 0 0 0 0 0 1 0 0 0 0 0 0 0 0 0 0 1 0 0 0 0 0 0 0 0 0 0 1 0 0 0 0 0 0 0 0 0 0 1 0 0 0 0 0 0 0 0 0 0 1 0 0 0 0 0.0011 0.5038 0.4944 0.0007 0 0 0 0 0 0 0 0 0.0002 0.503 0.4961 0.0007 0 0 0 0 0 0 0 0 0.0011 0.4995 0.4988 0.0005999999999999999 0 0 0 0 0 0 0 0 0.001 0.5064 0.4916 0.001 0 0 0 0 0 0 0 0 0.0004 0.4986 0.501 0 0 0 0 0 0 0 0 0 0.0008 0.9992 0 0 0 0 0 0 0 0 0 0 1 0 0 0 0 0 0 0 0 0 0 1 0 0 0 0 0 0 0 0 0 0 1 0 0 0 0 0 0 0 0 0 0 1 0 0 0 0 0 0 0 0 0 0 1 0 0 0 0 0 0.3214 0.6581 0.0205 0 0 0 0 0 0 0 0 0 0.3231 0.6562 0.0207 0 0 0 0 0 0 0 0 0 0.3123 0.6647999999999999 0.0229 0 0 0 0 0 0 0 0 0 0.3171 0.6607 0.0222 0 0 0 0 0 0 0 0 0 0.3179 0.6821 0 0 0 0 0 0 0 0 0 0 1 0 0 0 0 0 0 0 0 0 0 1 0 0 0 0 0 0 0 0 0 0 1 0 0 0 0 0 0 0 0 0 0 1 0 0 0 0 0 0 0 0 0 0 1 0 0 0 0 0 0 0 0 0 0 1 0 0 0 0 0 0.1841 0.7376 0.07829999999999999 0 0 0 0 0 0 0 0 0 0.1799 0.7377 0.0824 0 0 0 0 0 0 0 0 0 0.1817 0.7341 0.0842 0 0 0 0 0 0 0 0 0 0.1818 0.7428 0.07539999999999999 0 0 0 0 0 0 0 0 0 0.1824 0.8176 0 0 0 0 0 0 0 0 0 0 1 0 0 0 0 0 0 0 0 0 0 1 0 0 0 0 0 0 0 0 0 0 1 0 0 0 0 0 0 0 0 0 0 1 0 0 0 0 0 0 0 0 0 0 1 0 0 0 0 0 0 0 0 0 0 1 0 0 0 0 0.0819 0.7322 0.1859 0 0 0 0 0 0 0 0 0 0.08409999999999999 0.7364000000000001 0.1795 0 0 0 0 0 0 0 0 0 0.0819 0.7367 0.1814 0 0 0 0 0 0 0 0 0 0.0864 0.7336 0.18 0 0 0 0 0 0 0 0 0 0.0838 0.7415 0.1747 0 0 0 0 0 0 0 0 0 0.0798 0.9202 0 0 0 0 0 0 0 0 0 0 1 0 0 0 0 0 0 0 0 0 0 1 0 0 0 0 0 0 0 0 0 0 1 0 0 0 0 0 0 0 0 0 0 1 0 0 0 0 0 0 0 0 0 0 1 0 0 0 0 0.023 0.6528 0.3242 0 0 0 0 0 0 0 0 0 0.0225 0.6551 0.3224 0 0 0 0 0 0 0 0 0 0.0229 0.6613 0.3158 0 0 0 0 0 0 0 0 0 0.0222 0.6588000000000001 0.319 0 0 0 0 0 0 0 0 0 0.0236 0.6496 0.3268 0 0 0 0 0 0 0 0 0 0.0216 0.9784 0 0 0 0 0 0 0 0 0 0 1 0 0 0 0 0 0 0 0 0 0 1 0 0 0 0 0 0 0 0 0 0 1 0 0 0 0 0 0 0 0 0 0 1 0 0 0 0 0 0 0 0 0 0 1 0 0 0 0 0.0005 0.5028 0.496 0.0007 0 0 0 0 0 0 0 0 0.0005999999999999999 0.497 0.5018 0.0005999999999999999 0 0 0 0 0 0 0 0 0.001 0.505 0.4935 0.0005 0 0 0 0 0 0 0 0 0.0005999999999999999 0.5019 0.497 0.0005 0 0 0 0 0 0 0 0 0.0004 0.4935 0.5061 0 0 0 0 0 0 0 0 0 0.0012 0.9988 0 0 0 0 0 0 0 0 0 0 1 0 0 0 0 0 0 0 0 0 0 1 0 0 0 0 0 0 0 0 0 0 1 0 0 0 0 0 0 0 0 0 0 1 0 0 0 0 0 0 0 0 0 0 1 0 0 0 0 0 0.3264 0.653 0.0206 0 0 0 0 0 0 0 0 0 0.3197 0.6594 0.0209 0 0 0 0 0 0 0 0 0 0.3303 0.65 0.0197 0 0 0 0 0 0 0 0 0 0.3135 0.6669 0.0196 0 0 0 0 0 0 0 0 0 0.3178 0.6822 0 0 0 0 0 0 0 0 0 0 1 0 0 0 0 0 0 0 0 0 0 1 0 0 0 0 0 0 0 0 0 0 1 0 0 0 0 0 0 0 0 0 0 1 0 0 0 0 0 0 0 0 0 0 1 0 0 0 0 0 0 0 0 0 0 1 0 0 0 0 0 0.1797 0.7378 0.0825 0 0 0 0 0 0 0 0 0 0.1916 0.7268 0.08160000000000001 0 0 0 0 0 0 0 0 0 0.18 0.7356 0.0844 0 0 0 0 0 0 0 0 0 0.1804 0.7352 0.0844 0 0 0 0 0 0 0 0 0 0.1866 0.8134 0 0 0 0 0 0 0 0 0 0 1 0 0 0 0 0 0 0 0 0 0 1 0 0 0 0 0 0 0 0 0 0 1 0 0 0 0 0 0 0 0 0 0 1 0 0 0 0 0 0 0 0 0 0 1 0 0 0 0 0 0 0 0 0 0 1 0 0 0 0 0 0.0813 0.7369 0.1818 0 0 0 0 0 0 0 0 0 0.0808 0.7323 0.1869 0 0 0 0 0 0 0 0 0 0.081 0.7368 0.1822 0 0 0 0 0 0 0 0 0 0.08110000000000001 0.7355 0.1834 0 0 0 0 0 0 0 0 0 0.0832 0.9167999999999999 0 0 0 0 0 0 0 0 0 0 1 0 0 0 0 0 0 0 0 0 0 1 0 0 0 0 0 0 0 0 0 0 1 0 0 0 0 0 0 0 0 0 0 1 0 0 0 0 0 0 0 0 0 0 1 0 0 0 0 0 0 0 0 0 0 1 0 0 0 0 0 0.0208 0.6539 0.3253 0 0 0 0 0 0 0 0 0 0.0233 0.656 0.3207 0 0 0 0 0 0 0 0 0 0.0211 0.6645 0.3144 0 0 0 0 0 0 0 0 0 0.0204 0.6627999999999999 0.3168 0 0 0 0 0 0 0 0 0 0.0209 0.9791 0 0 0 0 0 0 0 0 0 0 1 0 0 0 0 0 0 0 0 0 0 1 0 0 0 0 0 0 0 0 0 0 1 0 0 0 0 0 0 0 0 0 0 1 0 0 0 0 0 0 0 0 0 0 1 0 0 0 0 0 0 0 0 0 0 1 0 0 0 0 0 0.0014 0.5054999999999999 0.4923 0.0008 0 0 0 0 0 0 0 0 0.0009 0.4979 0.5006 0.0005999999999999999 0 0 0 0 0 0 0 0 0.0008 0.5039 0.4946 0.0007 0 0 0 0 0 0 0 0 0.0005999999999999999 0.4982 0.5012 0 0 0 0 0 0 0 0 0 0.0005 0.9995000000000001 0 0 0 0 0 0 0 0 0 0 1 0 0 0 0 0 0 0 0 0 0 1 0 0 0 0 0 0 0 0 0 0 1 0 0 0 0 0 0 0 0 0 0 1 0 0 0 0 0 0 0 0 0 0 1 0 0 0 0 0 0 0 0 0 0 1 0 0 0 0 0 0 0.3221 0.656 0.0219 0 0 0 0 0 0 0 0 0 0.329 0.6492 0.0218 0 0 0 0 0 0 0 0 0 0.3291 0.6484 0.0225 0 0 0 0 0 0 0 0 0 0.3248 0.6752 0 0 0 0 0 0 0 0 0 0 1 0 0 0 0 0 0 0 0 0 0 1 0 0 0 0 0 0 0 0 0 0 1 0 0 0 0 0 0 0 0 0 0 1 0 0 0 0 0 0 0 0 0 0 1 0 0 0 0 0 0 0 0 0 0 1 0 0 0 0 0 0 0 0 0 0 1 0 0 0 0 0 0 0.1886 0.7291 0.0823 0 0 0 0 0 0 0 0 0 0.1776 0.7391 0.0833 0 0 0 0 0 0 0 0 0 0.1836 0.7307 0.0857 0 0 0 0 0 0 0 0 0 0.1772 0.8228 0 0 0 0 0 0 0 0 0 0 1 0 0 0 0 0 0 0 0 0 0 1 0 0 0 0 0 0 0 0 0 0 1 0 0 0 0 0 0 0 0 0 0 1 0 0 0 0 0 0 0 0 0 0 1 0 0 0 0 0 0 0 0 0 0 1 0 0 0 0 0 0 0 0 0 0 1 0 0 0 0 0 0.07770000000000001 0.7513 0.171 0 0 0 0 0 0 0 0 0 0.0805 0.7401 0.1794 0 0 0 0 0 0 0 0 0 0.07920000000000001 0.7413 0.1795 0 0 0 0 0 0 0 0 0 0.0775 0.7328 0.1897 0 0 0 0 0 0 0 0 0 0.0856 0.9144 0 0 0 0 0 0 0 0 0 0 1 0 0 0 0 0 0 0 0 0 0 1 0 0 0 0 0 0 0 0 0 0 1 0 0 0 0 0 0 0 0 0 0 1 0 0 0 0 0 0 0 0 0 0 1 0 0 0 0 0 0 0 0 0 0 1 0 0 0 0 0 0.0195 0.6523 0.3282 0 0 0 0 0 0 0 0 0 0.0208 0.6516 0.3276 0 0 0 0 0 0 0 0 0 0.0194 0.6617 0.3189 0 0 0 0 0 0 0 0 0 0.0223 0.6508 0.3269 0 0 0 0 0 0 0 0 0 0.0221 0.9779 0 0 0 0 0 0 0 0 0 0 1 0 0 0 0 0 0 0 0 0 0 1 0 0 0 0 0 0 0 0 0 0 1 0 0 0 0 0 0 0 0 0 0 1 0 0 0 0 0 0 0 0 0 0 1 0 0 0 0 0 0 0 0 0 0 1 0 0 0 0 0 0.0007 0.4936 0.5054 0.0003 0 0 0 0 0 0 0 0 0.0012 0.4969 0.501 0.0009 0 0 0 0 0 0 0 0 0.001 0.5007 0.4978 0.0005 0 0 0 0 0 0 0 0 0.0007 0.4993 0.5 0 0 0 0 0 0 0 0 0 0.0003 0.9997 0 0 0 0 0 0 0 0 0 0 1 0 0 0 0 0 0 0 0 0 0 1 0 0 0 0 0 0 0 0 0 0 1 0 0 0 0 0 0 0 0 0 0 1 0 0 0 0 0 0 0 0 0 0 1 0 0 0 0 0 0 0 0 0 0 1 0 0 0 0 0 0 0.3205 0.6571 0.0224 0 0 0 0 0 0 0 0 0 0.3154 0.6615 0.0231 0 0 0 0 0 0 0 0 0 0.3167 0.6619 0.0214 0 0 0 0 0 0 0 0 0 0.3257 0.6743 0 0 0 0 0 0 0 0 0 0 1 0 0 0 0 0 0 0 0 0 0 1 0 0 0 0 0 0 0 0 0 0 1 0 0 0 0 0 0 0 0 0 0 1 0 0 0 0 0 0 0 0 0 0 1 0 0 0 0 0 0 0 0 0 0 1 0 0 0 0 0 0 0 0 0 0 1 0 0 0 0 0 0 0.1794 0.744 0.0766 0 0 0 0 0 0 0 0 0 0.1824 0.7345 0.08309999999999999 0 0 0 0 0 0 0 0 0 0.1776 0.7435 0.0789 0 0 0 0 0 0 0 0 0 0.1802 0.8198 0 0 0 0 0 0 0 0 0 0 1 0 0 0 0 0 0 0 0 0 0 1 0 0 0 0 0 0 0 0 0 0 1 0 0 0 0 0 0 0 0 0 0 1 0 0 0 0 0 0 0 0 0 0 1 0 0 0 0 0 0 0 0 0 0 1 0 0 0 0 0 0 0 0 0 0 1 0 0 0 0 0 0 0.08260000000000001 0.7316 0.1858 0 0 0 0 0 0 0 0 0 0.0789 0.7416 0.1795 0 0 0 0 0 0 0 0 0 0.0868 0.7368 0.1764 0 0 0 0 0 0 0 0 0 0.0805 0.9195 0 0 0 0 0 0 0 0 0 0 1 0 0 0 0 0 0 0 0 0 0 1 0 0 0 0 0 0 0 0 0 0 1 0 0 0 0 0 0 0 0 0 0 1 0 0 0 0 0 0 0 0 0 0 1 0 0 0 0 0 0 0 0 0 0 1 0 0 0 0 0 0 0 0 0 0 1 0 0 0 0 0 0 0.0216 0.6594 0.319 0 0 0 0 0 0 0 0 0 0.0206 0.6616 0.3178 0 0 0 0 0 0 0 0 0 0.0185 0.6552 0.3263 0 0 0 0 0 0 0 0 0 0.0213 0.9787 0 0 0 0 0 0 0 0 0 0 1 0 0 0 0 0 0 0 0 0 0 1 0 0 0 0 0 0 0 0 0 0 1 0 0 0 0 0 0 0 0 0 0 1 0 0 0 0 0 0 0 0 0 0 1 0 0 0 0 0 0 0 0 0 0 1 0 0 0 0 0 0 0 0 0 0 1 0 0 0 0 0 0 0.0007 0.4979 0.5009 0.0005 0 0 0 0 0 0 0 0 0.0005 0.5046 0.4945 0.0004 0 0 0 0 0 0 0 0 0.0008 0.4947 0.5044999999999999 0 0 0 0 0 0 0 0 0 0.0008 0.9992 0 0 0 0 0 0 0 0 0 0 1 0 0 0 0 0 0 0 0 0 0 1 0 0 0 0 0 0 0 0 0 0 1 0 0 0 0 0 0 0 0 0 0 1 0 0 0 0 0 0 0 0 0 0 1 0 0 0 0 0 0 0 0 0 0 1 0 0 0 0 0 0 0 0 0 0 1 0 0 0 0 0 0 0 0.3131 0.6631 0.0238 0 0 0 0 0 0 0 0 0 0.3219 0.6554 0.0227 0 0 0 0 0 0 0 0 0 0.319 0.681 0 0 0 0 0 0 0 0 0 0 1 0 0 0 0 0 0 0 0 0 0 1 0 0 0 0 0 0 0 0 0 0 1 0 0 0 0 0 0 0 0 0 0 1 0 0 0 0 0 0 0 0 0 0 1 0 0 0 0 0 0 0 0 0 0 1 0 0 0 0 0 0 0 0 0 0 1 0 0 0 0 0 0 0 0 0 0 1 0 0 0 0 0 0 0 0.1801 0.7374000000000001 0.0825 0 0 0 0 0 0 0 0 0 0.1855 0.7305 0.08400000000000001 0 0 0 0 0 0 0 0 0 0.1837 0.8163 0 0 0 0 0 0 0 0 0 0 1 0 0 0 0 0 0 0 0 0 0 1 0 0 0 0 0 0 0 0 0 0 1 0 0 0 0 0 0 0 0 0 0 1 0 0 0 0 0 0 0 0 0 0 1 0 0 0 0 0 0 0 0 0 0 1 0 0 0 0 0 0 0 0 0 0 1 0 0 0 0 0 0 0 0 0 0 1 0 0 0 0 0 0 0.0844 0.7299 0.1857 0 0 0 0 0 0 0 0 0 0.08409999999999999 0.7379 0.178 0 0 0 0 0 0 0 0 0 0.0791 0.734 0.1869 0 0 0 0 0 0 0 0 0 0.0809 0.9191 0 0 0 0 0 0 0 0 0 0 1 0 0 0 0 0 0 0 0 0 0 1 0 0 0 0 0 0 0 0 0 0 1 0 0 0 0 0 0 0 0 0 0 1 0 0 0 0 0 0 0 0 0 0 1 0 0 0 0 0 0 0 0 0 0 1 0 0 0 0 0 0 0 0 0 0 1 0 0 0 0 0 0 0.0242 0.6554 0.3204 0 0 0 0 0 0 0 0 0 0.022 0.6562 0.3218 0 0 0 0 0 0 0 0 0 0.0192 0.6632 0.3176 0 0 0 0 0 0 0 0 0 0.0202 0.9798 0 0 0 0 0 0 0 0 0 0 1 0 0 0 0 0 0 0 0 0 0 1 0 0 0 0 0 0 0 0 0 0 1 0 0 0 0 0 0 0 0 0 0 1 0 0 0 0 0 0 0 0 0 0 1 0 0 0 0 0 0 0 0 0 0 1 0 0 0 0 0 0 0 0 0 0 1 0 0 0 0 0 0 0.001 0.4968 0.5014999999999999 0.0007 0 0 0 0 0 0 0 0 0.0009 0.5044999999999999 0.4942 0.0004 0 0 0 0 0 0 0 0 0.0004 0.5029 0.4967 0 0 0 0 0 0 0 0 0 0.0009 0.9991 0 0 0 0 0 0 0 0 0 0 1 0 0 0 0 0 0 0 0 0 0 1 0 0 0 0 0 0 0 0 0 0 1 0 0 0 0 0 0 0 0 0 0 1 0 0 0 0 0 0 0 0 0 0 1 0 0 0 0 0 0 0 0 0 0 1 0 0 0 0 0 0 0 0 0 0 1 0 0 0 0 0 0 0 0.3175 0.66 0.0225 0 0 0 0 0 0 0 0 0 0.313 0.6655 0.0215 0 0 0 0 0 0 0 0 0 0.3189 0.6811 0 0 0 0 0 0 0 0 0 0 1 0 0 0 0 0 0 0 0 0 0 1 0 0 0 0 0 0 0 0 0 0 1 0 0 0 0 0 0 0 0 0 0 1 0 0 0 0 0 0 0 0 0 0 1 0 0 0 0 0 0 0 0 0 0 1 0 0 0 0 0 0 0 0 0 0 1 0 0 0 0 0 0 0 0 0 0 1 0 0 0 0 0 0 0 0.1803 0.7361 0.08359999999999999 0 0 0 0 0 0 0 0 0 0.1831 0.733 0.0839 0 0 0 0 0 0 0 0 0 0.1846 0.8154 0 0 0 0 0 0 0 0 0 0 1 0 0 0 0 0 0 0 0 0 0 1 0 0 0 0 0 0 0 0 0 0 1 0 0 0 0 0 0 0 0 0 0 1 0 0 0 0 0 0 0 0 0 0 1 0 0 0 0 0 0 0 0 0 0 1 0 0 0 0 0 0 0 0 0 0 1 0 0 0 0 0 0 0 0 0 0 1 0 0 0 0 0 0 0 0.08459999999999999 0.7344000000000001 0.181 0 0 0 0 0 0 0 0 0 0.08690000000000001 0.7305 0.1826 0 0 0 0 0 0 0 0 0 0.0804 0.9196 0 0 0 0 0 0 0 0 0 0 1 0 0 0 0 0 0 0 0 0 0 1 0 0 0 0 0 0 0 0 0 0 1 0 0 0 0 0 0 0 0 0 0 1 0 0 0 0 0 0 0 0 0 0 1 0 0 0 0 0 0 0 0 0 0 1 0 0 0 0 0 0 0 0 0 0 1 0 0 0 0 0 0 0 0 0 0 1 0 0 0 0 0 0 0 0.02 0.6476 0.3324 0 0 0 0 0 0 0 0 0 0.0227 0.6576 0.3197 0 0 0 0 0 0 0 0 0 0.0231 0.9769 0 0 0 0 0 0 0 0 0 0 1 0 0 0 0 0 0 0 0 0 0 1 0 0 0 0 0 0 0 0 0 0 1 0 0 0 0 0 0 0 0 0 0 1 0 0 0 0 0 0 0 0 0 0 1 0 0 0 0 0 0 0 0 0 0 1 0 0 0 0 0 0 0 0 0 0 1 0 0 0 0 0 0 0 0 0 0 1 0 0 0 0 0 0 0 0.0009 0.5004999999999999 0.4977 0.0009 0 0 0 0 0 0 0 0 0.001 0.5024999999999999 0.4965 0 0 0 0 0 0 0 0 0 0.0007 0.9993 0 0 0 0 0 0 0 0 0 0 1 0 0 0 0 0 0 0 0 0 0 1 0 0 0 0 0 0 0 0 0 0 1 0 0 0 0 0 0 0 0 0 0 1 0 0 0 0 0 0 0 0 0 0 1 0 0 0 0 0 0 0 0 0 0 1 0 0 0 0 0 0 0 0 0 0 1 0 0 0 0 0 0 0 0 0 0 1 0 0 0 0 0 0 0 0 0.3192 0.6596 0.0212 0 0 0 0 0 0 0 0 0 0.3136 0.6864 0 0 0 0 0 0 0 0 0 0 1 0 0 0 0 0 0 0 0 0 0 1 0 0 0 0 0 0 0 0 0 0 1 0 0 0 0 0 0 0 0 0 0 1 0 0 0 0 0 0 0 0 0 0 1 0 0 0 0 0 0 0 0 0 0 1 0 0 0 0 0 0 0 0 0 0 1 0 0 0 0 0 0 0 0 0 0 1 0 0 0 0 0 0 0 0 0 0 1 0 0 0 0 0 0 0 0 0.1732 0.7447 0.08210000000000001 0 0 0 0 0 0 0 0 0 0.1745 0.8255 0 0 0 0 0 0 0 0 0 0 1 0 0 0 0 0 0 0 0 0 0 1 0 0 0 0 0 0 0 0 0 0 1 0 0 0 0 0 0 0 0 0 0 1 0 0 0 0 0 0 0 0 0 0 1 0 0 0 0 0 0 0 0 0 0 1 0 0 0 0 0 0 0 0 0 0 1 0 0 0 0 0 0 0 0 0 0 1 0 0 0 0 0 0 0 0 0 0 1 0 0 0 0 0 0 0 0.0791 0.7344000000000001 0.1865 0 0 0 0 0 0 0 0 0 0.082 0.7431 0.1749 0 0 0 0 0 0 0 0 0 0.08160000000000001 0.9184 0 0 0 0 0 0 0 0 0 0 1 0 0 0 0 0 0 0 0 0 0 1 0 0 0 0 0 0 0 0 0 0 1 0 0 0 0 0 0 0 0 0 0 1 0 0 0 0 0 0 0 0 0 0 1 0 0 0 0 0 0 0 0 0 0 1 0 0 0 0 0 0 0 0 0 0 1 0 0 0 0 0 0 0 0 0 0 1 0 0 0 0 0 0 0 0.0222 0.6556999999999999 0.3221 0 0 0 0 0 0 0 0 0 0.0218 0.6564 0.3218 0 0 0 0 0 0 0 0 0 0.022 0.978 0 0 0 0 0 0 0 0 0 0 1 0 0 0 0 0 0 0 0 0 0 1 0 0 0 0 0 0 0 0 0 0 1 0 0 0 0 0 0 0 0 0 0 1 0 0 0 0 0 0 0 0 0 0 1 0 0 0 0 0 0 0 0 0 0 1 0 0 0 0 0 0 0 0 0 0 1 0 0 0 0 0 0 0 0 0 0 1 0 0 0 0 0 0 0 0.0007 0.5017 0.4966 0.001 0 0 0 0 0 0 0 0 0.0008 0.508 0.4912 0 0 0 0 0 0 0 0 0 0.0011 0.9989 0 0 0 0 0 0 0 0 0 0 1 0 0 0 0 0 0 0 0 0 0 1 0 0 0 0 0 0 0 0 0 0 1 0 0 0 0 0 0 0 0 0 0 1 0 0 0 0 0 0 0 0 0 0 1 0 0 0 0 0 0 0 0 0 0 1 0 0 0 0 0 0 0 0 0 0 1 0 0 0 0 0 0 0 0 0 0 1 0 0 0 0 0 0 0 0 0.3244 0.6544 0.0212 0 0 0 0 0 0 0 0 0 0.3227 0.6773 0 0 0 0 0 0 0 0 0 0 1 0 0 0 0 0 0 0 0 0 0 1 0 0 0 0 0 0 0 0 0 0 1 0 0 0 0 0 0 0 0 0 0 1 0 0 0 0 0 0 0 0 0 0 1 0 0 0 0 0 0 0 0 0 0 1 0 0 0 0 0 0 0 0 0 0 1 0 0 0 0 0 0 0 0 0 0 1 0 0 0 0 0 0 0 0 0 0 1 0 0 0 0 0 0 0 0 0.1833 0.7399 0.07679999999999999 0 0 0 0 0 0 0 0 0 0.1852 0.8148 0 0 0 0 0 0 0 0 0 0 1 0 0 0 0 0 0 0 0 0 0 1 0 0 0 0 0 0 0 0 0 0 1 0 0 0 0 0 0 0 0 0 0 1 0 0 0 0 0 0 0 0 0 0 1 0 0 0 0 0 0 0 0 0 0 1 0 0 0 0 0 0 0 0 0 0 1 0 0 0 0 0 0 0 0 0 0 1 0 0 0 0 0 0 0 0 0 0 1 0 0 0 0 0 0 0 0 0.0788 0.7421 0.1791 0 0 0 0 0 0 0 0 0 0.0794 0.9206 0 0 0 0 0 0 0 0 0 0 1 0 0 0 0 0 0 0 0 0 0 1 0 0 0 0 0 0 0 0 0 0 1 0 0 0 0 0 0 0 0 0 0 1 0 0 0 0 0 0 0 0 0 0 1 0 0 0 0 0 0 0 0 0 0 1 0 0 0 0 0 0 0 0 0 0 1 0 0 0 0 0 0 0 0 0 0 1 0 0 0 0 0 0 0 0 0 0 1 0 0 0 0 0 0 0 0 0.0212 0.6582 0.3206 0 0 0 0 0 0 0 0 0 0.0224 0.9776 0 0 0 0 0 0 0 0 0 0 1 0 0 0 0 0 0 0 0 0 0 1 0 0 0 0 0 0 0 0 0 0 1 0 0 0 0 0 0 0 0 0 0 1 0 0 0 0 0 0 0 0 0 0 1 0 0 0 0 0 0 0 0 0 0 1 0 0 0 0 0 0 0 0 0 0 1 0 0 0 0 0 0 0 0 0 0 1 0 0 0 0 0 0 0 0 0 0 1 0 0 0 0 0 0 0 0 0.001 0.491 0.508 0 0 0 0 0 0 0 0 0 0.0009 0.9991 0 0 0 0 0 0 0 0 0 0 1 0 0 0 0 0 0 0 0 0 0 1 0 0 0 0 0 0 0 0 0 0 1 0 0 0 0 0 0 0 0 0 0 1 0 0 0 0 0 0 0 0 0 0 1 0 0 0 0 0 0 0 0 0 0 1 0 0 0 0 0 0 0 0 0 0 1 0 0 0 0 0 0 0 0 0 0 1 0 0 0 0 0 0 0 0 0 0 1 0 0 0 0 0 0 0 0 0 0.3175 0.6825 0 0 0 0 0 0 0 0 0 0 1 0 0 0 0 0 0 0 0 0 0 1 0 0 0 0 0 0 0 0 0 0 1 0 0 0 0 0 0 0 0 0 0 1 0 0 0 0 0 0 0 0 0 0 1 0 0 0 0 0 0 0 0 0 0 1 0 0 0 0 0 0 0 0 0 0 1 0 0 0 0 0 0 0 0 0 0 1 0 0 0 0 0 0 0 0 0 0 1 0 0 0 0 0 0 0 0 0 0 1 0 0 0 0 0 0 0 0 0 0.1842 0.8158 0 0 0 0 0 0 0 0 0 0 1 0 0 0 0 0 0 0 0 0 0 1 0 0 0 0 0 0 0 0 0 0 1 0 0 0 0 0 0 0 0 0 0 1 0 0 0 0 0 0 0 0 0 0 1 0 0 0 0 0 0 0 0 0 0 1 0 0 0 0 0 0 0 0 0 0 1 0 0 0 0 0 0 0 0 0 0 1 0 0 0 0 0 0 0 0 0 0 1 0 0 0 0 0 0 0 0 0 0 1 0 0 0 0 0 0 0 0 0.0858 0.7321 0.1821 0 0 0 0 0 0 0 0 0 0.08450000000000001 0.9155 0 0 0 0 0 0 0 0 0 0 1 0 0 0 0 0 0 0 0 0 0 1 0 0 0 0 0 0 0 0 0 0 1 0 0 0 0 0 0 0 0 0 0 1 0 0 0 0 0 0 0 0 0 0 1 0 0 0 0 0 0 0 0 0 0 1 0 0 0 0 0 0 0 0 0 0 1 0 0 0 0 0 0 0 0 0 0 1 0 0 0 0 0 0 0 0 0 0 1 0 0 0 0 0 0 0 0 0.0227 0.6561 0.3212 0 0 0 0 0 0 0 0 0 0.0191 0.9809 0 0 0 0 0 0 0 0 0 0 1 0 0 0 0 0 0 0 0 0 0 1 0 0 0 0 0 0 0 0 0 0 1 0 0 0 0 0 0 0 0 0 0 1 0 0 0 0 0 0 0 0 0 0 1 0 0 0 0 0 0 0 0 0 0 1 0 0 0 0 0 0 0 0 0 0 1 0 0 0 0 0 0 0 0 0 0 1 0 0 0 0 0 0 0 0 0 0 1 0 0 0 0 0 0 0 0 0.0011 0.5006 0.4983 0 0 0 0 0 0 0 0 0 0.0013 0.9987 0 0 0 0 0 0 0 0 0 0 1 0 0 0 0 0 0 0 0 0 0 1 0 0 0 0 0 0 0 0 0 0 1 0 0 0 0 0 0 0 0 0 0 1 0 0 0 0 0 0 0 0 0 0 1 0 0 0 0 0 0 0 0 0 0 1 0 0 0 0 0 0 0 0 0 0 1 0 0 0 0 0 0 0 0 0 0 1 0 0 0 0 0 0 0 0 0 0 1 0 0 0 0 0 0 0 0 0 0.322 0.678 0 0 0 0 0 0 0 0 0 0 1 0 0 0 0 0 0 0 0 0 0 1 0 0 0 0 0 0 0 0 0 0 1 0 0 0 0 0 0 0 0 0 0 1 0 0 0 0 0 0 0 0 0 0 1 0 0 0 0 0 0 0 0 0 0 1 0 0 0 0 0 0 0 0 0 0 1 0 0 0 0 0 0 0 0 0 0 1 0 0 0 0 0 0 0 0 0 0 1 0 0 0 0 0 0 0 0 0 0 1 0 0 0 0 0 0 0 0 0 0.1771 0.8229 0 0 0 0 0 0 0 0 0 0 1 0 0 0 0 0 0 0 0 0 0 1 0 0 0 0 0 0 0 0 0 0 1 0 0 0 0 0 0 0 0 0 0 1 0 0 0 0 0 0 0 0 0 0 1 0 0 0 0 0 0 0 0 0 0 1 0 0 0 0 0 0 0 0 0 0 1 0 0 0 0 0 0 0 0 0 0 1 0 0 0 0 0 0 0 0 0 0 1 0 0 0 0 0 0 0 0 0 0 1 0 0 0 0 0 0 0 0 0 0.0833 0.9167 0 0 0 0 0 0 0 0 0 0 1 0 0 0 0 0 0 0 0 0 0 1 0 0 0 0 0 0 0 0 0 0 1 0 0 0 0 0 0 0 0 0 0 1 0 0 0 0 0 0 0 0 0 0 1 0 0 0 0 0 0 0 0 0 0 1 0 0 0 0 0 0 0 0 0 0 1 0 0 0 0 0 0 0 0 0 0 1 0 0 0 0 0 0 0 0 0 0 1 0 0 0 0 0 0 0 0 0 0 1 0 0 0 0 0 0 0 0 0 0.0217 0.9782999999999999 0 0 0 0 0 0 0 0 0 0 1 0 0 0 0 0 0 0 0 0 0 1 0 0 0 0 0 0 0 0 0 0 1 0 0 0 0 0 0 0 0 0 0 1 0 0 0 0 0 0 0 0 0 0 1 0 0 0 0 0 0 0 0 0 0 1 0 0 0 0 0 0 0 0 0 0 1 0 0 0 0 0 0 0 0 0 0 1 0 0 0 0 0 0 0 0 0 0 1 0 0 0 0 0 0 0 0 0 0 1 0 0 0 0 0 0 0 0 0 0.0009 0.9991 0 0 0 0 0 0 0 0 0 0 1 0 0 0 0 0 0 0 0 0 0 1 0 0 0 0 0 0 0 0 0 0 1 0 0 0 0 0 0 0 0 0 0 1 0 0 0 0 0 0 0 0 0 0 1 0 0 0 0 0 0 0 0 0 0 1 0 0 0 0 0 0 0 0 0 0 1 0 0 0 0 0 0 0 0 0 0 1 0 0 0 0 0 0 0 0 0 0 1 0 0 0 0 0 0 0 0 0 0 1 0 0 0 0 0 0 0 0 0 0 1 0 0 0 0 0 0 0 0 0 0 1 0 0 0 0 0 0 0 0 0 0 1 0 0 0 0 0 0 0 0 0 0 1 0 0 0 0 0 0 0 0 0 0 1 0 0 0 0 0 0 0 0 0 0 1 0 0 0 0 0 0 0 0 0 0 1 0 0 0 0 0 0 0 0 0 0 1 0 0 0 0 0 0 0 0 0 0 1 0 0 0 0 0 0 0 0 0 0 1 0 0 0 0 0 0 0 0 0 0 1 0 0 0 0 0 0 0 0 0 0 1 0 0 0 0 0 0 0 0 0 0 1 0 0 0 0 0 0 0 0 0 0 1 0 0 0 0 0 0 0 0 0 0 1 0 0 0 0 0 0 0 0 0 0 1 0 0 0 0 0 0 0 0 0 0 1 0 0 0 0 0 0 0 0 0 0 1 0 0 0 0 0 0 0 0 0 0 1 0 0 0 0 0 0 0 0 0 0 1 0 0 0 0 0 0 0 0 0 0 1 0 0 0 0 0 0 0 0 0 0 1</probabilities>
		</cpt>
		<cpt id="mean_motor">
			<state id="State0" />
			<state id="State1" />
			<state id="State2" />
			<state id="State3" />
			<state id="State4" />
			<state id="State5" />
			<state id="State6" />
			<state id="State7" />
			<state id="State8" />
			<state id="State9" />
			<state id="State10" />
			<intervals>0 0.1 0.2 0.3 0.4 0.5 0.6 0.7 0.8 0.9 1 1.1</intervals>
			<parents>motoruse_for_tether motoruse_for_other</parents>
			<probabilities>0.9456326204277433 0.04287427543473916 0.009694183489906057 0.0009994003597841295 0.0001998800719568259 9.994003597841295e-05 9.994003597841295e-05 9.994003597841295e-05 9.994003597841295e-05 9.994003597841295e-05 9.994003597841295e-05 0.8443778110944528 0.09725137431284357 0.04497751124437781 0.01129435282358821 0.001499250374812594 9.995002498750625e-05 9.995002498750625e-05 9.995002498750625e-05 9.995002498750625e-05 9.995002498750625e-05 9.995002498750625e-05 0.71781287485006 0.1307477009196321 0.09256297481007597 0.04658136745301879 0.01049580167932827 0.001299480207916833 9.996001599360256e-05 9.996001599360256e-05 9.996001599360256e-05 9.996001599360256e-05 9.996001599360256e-05 0.5894231730480856 0.1273617914625612 0.1291612516245126 0.09627111866440068 0.04488653403978806 0.01099670098970309 0.001499550134959512 9.997000899730081e-05 9.997000899730081e-05 9.997000899730081e-05 9.997000899730081e-05 0.4827551734479656 0.1071678496451065 0.1274617614715585 0.1326602019394182 0.09217234829551135 0.04658602419274218 0.009497150854743577 0.001399580125962211 9.997000899730081e-05 9.997000899730081e-05 9.997000899730081e-05 0.3956604339566043 0.08819118088191182 0.1064893510648935 0.1254874512548745 0.1317868213178682 0.09709029097090291 0.04349565043495651 0.009999000099990002 0.0015998400159984 9.999000099990002e-05 9.999000099990002e-05 0.3221677832216778 0.0694930506949305 0.08599140085991401 0.1115888411158884 0.1258874112588741 0.1305869413058694 0.09579042095790422 0.0458954104589541 0.0111988801119888 0.0012998700129987 9.999000099990002e-05 0.2681 0.0591 0.0708 0.0862 0.1023 0.1254 0.1335 0.0968 0.0464 0.009900000000000001 0.0015 0.2122 0.0447 0.058 0.0732 0.09089999999999999 0.1064 0.1284 0.1312 0.1005 0.0419 0.0126 0.1801 0.041 0.0502 0.0571 0.0733 0.0893 0.1024 0.1347 0.1244 0.09569999999999999 0.0518 0.1471 0.0355 0.0396 0.049 0.0588 0.0721 0.0833 0.1016 0.1279 0.1344 0.1507 0.8499900059964022 0.09524285428742754 0.04227463521886868 0.01099340395762542 0.0008994603238057165 9.994003597841295e-05 9.994003597841295e-05 9.994003597841295e-05 9.994003597841295e-05 9.994003597841295e-05 9.994003597841295e-05 0.7145141943222711 0.1288484606157537 0.09896041583366653 0.04608156737305078 0.01009596161535386 0.0009996001599360256 9.996001599360256e-05 9.996001599360256e-05 9.996001599360256e-05 9.996001599360256e-05 9.996001599360256e-05 0.5825669732107157 0.1271491403438625 0.1357457017193123 0.09706117552978809 0.04368252698920431 0.0116953218712515 0.001699320271891244 9.996001599360256e-05 9.996001599360256e-05 9.996001599360256e-05 9.996001599360256e-05 0.4789042191561688 0.1090781843631274 0.1239752049590082 0.1331733653269346 0.09898020395920816 0.04279144171165767 0.01199760047990402 0.0007998400319936012 9.998000399920016e-05 9.998000399920016e-05 9.998000399920016e-05 0.3968603139686032 0.08499150084991501 0.1105889411058894 0.1246875312468753 0.127987201279872 0.09579042095790422 0.04739526047395261 0.0105989401059894 0.0008999100089991 9.999000099990002e-05 9.999000099990002e-05 0.319 0.0711 0.0837 0.1059 0.1244 0.1289 0.101 0.0502 0.0136 0.0021 0.0001 0.2561 0.0608 0.06900000000000001 0.0851 0.1035 0.131 0.132 0.1015 0.0483 0.0112 0.0015 0.2162 0.0501 0.058 0.0713 0.0833 0.1056 0.1221 0.1344 0.0999 0.0489 0.0102 0.1791 0.0381 0.0473 0.0604 0.07140000000000001 0.0852 0.1103 0.1227 0.1307 0.09859999999999999 0.0562 0.1496 0.0303 0.0373 0.0487 0.063 0.0708 0.08699999999999999 0.1082 0.1264 0.1298 0.1489 0.1158 0.026 0.0313 0.0419 0.0535 0.0599 0.0689 0.0849 0.1103 0.118 0.2895 0.7157421289355322 0.1324337831084458 0.09805097451274362 0.04207896051974013 0.009795102448775612 0.001399300349825088 9.995002498750625e-05 9.995002498750625e-05 9.995002498750625e-05 9.995002498750625e-05 9.995002498750625e-05 0.585265893642543 0.1289484206317473 0.134046381447421 0.09896041583366653 0.04088364654138345 0.009796081567373051 0.001699320271891244 9.996001599360256e-05 9.996001599360256e-05 9.996001599360256e-05 9.996001599360256e-05 0.4833033393321336 0.1076784643071386 0.1245750849830034 0.1296740651869626 0.09488102379524095 0.04729054189162168 0.01049790041991602 0.001799640071985603 9.998000399920016e-05 9.998000399920016e-05 9.998000399920016e-05 0.3934213157368526 0.09078184363127374 0.108378324335133 0.1306738652269546 0.1262747450509898 0.09548090381923616 0.04399120175964807 0.008898220355928814 0.001899620075984803 9.998000399920016e-05 9.998000399920016e-05 0.3281 0.0692 0.0866 0.1082 0.1183 0.1342 0.0978 0.0462 0.0098 0.0015 0.0001 0.2739 0.0601 0.07140000000000001 0.0878 0.1073 0.1243 0.1237 0.0982 0.0428 0.009599999999999999 0.0009 0.2194 0.048 0.0584 0.0696 0.08790000000000001 0.1102 0.1282 0.1246 0.1026 0.04 0.0111 0.1819 0.0328 0.0491 0.0617 0.07729999999999999 0.0864 0.103 0.1283 0.1308 0.0945 0.0542 0.1409 0.0312 0.0401 0.0509 0.0582 0.06900000000000001 0.0892 0.1126 0.1245 0.1289 0.1545 0.117 0.0284 0.0335 0.0383 0.0469 0.0584 0.07439999999999999 0.0876 0.1077 0.1251 0.2827 0.0973 0.023 0.0268 0.0331 0.0392 0.049 0.0599 0.0701 0.0882 0.1056 0.4078 0.5955213435969209 0.1283614915525342 0.12296311106668 0.0981705488353494 0.04458662401279616 0.00869739078276517 0.001299610116964911 9.997000899730081e-05 9.997000899730081e-05 9.997000899730081e-05 9.997000899730081e-05 0.4928014397120576 0.1106778644271146 0.1216756648670266 0.1224755048990202 0.09878024395120975 0.04139172165566887 0.01079784043191362 0.0009998000399920016 0.0001999600079984003 9.998000399920016e-05 9.998000399920016e-05 0.4021597840215979 0.09449055094490551 0.1038896110388961 0.1238876112388761 0.1243875612438756 0.0978902109789021 0.04079592040795921 0.0110988901109889 0.0011998800119988 9.999000099990002e-05 9.999000099990002e-05 0.3194 0.06909999999999999 0.0857 0.1109 0.123 0.1344 0.0987 0.0462 0.0112 0.0013 0.0001 0.2682 0.057 0.07199999999999999 0.097 0.1038 0.1264 0.1262 0.097 0.0416 0.0097 0.0011 0.2157 0.0453 0.0594 0.07190000000000001 0.08749999999999999 0.1062 0.1258 0.1337 0.0984 0.0448 0.0113 0.1845 0.0388 0.0539 0.0599 0.0683 0.0927 0.1111 0.1245 0.1212 0.0921 0.053 0.1485 0.0345 0.0386 0.0475 0.0608 0.07389999999999999 0.0912 0.1071 0.1269 0.127 0.144 0.1197 0.0245 0.0347 0.0423 0.0503 0.0565 0.0728 0.0866 0.1121 0.1256 0.2749 0.09429999999999999 0.0209 0.0252 0.032 0.0392 0.0467 0.0605 0.07099999999999999 0.09030000000000001 0.1029 0.417 0.07770000000000001 0.0193 0.0191 0.0255 0.0311 0.0394 0.0488 0.0603 0.0702 0.08890000000000001 0.5197000000000001 0.4898020395920816 0.1004799040191962 0.1286742651469706 0.130373925214957 0.09418116376724656 0.04509098180363928 0.009998000399920015 0.001099780043991202 9.998000399920016e-05 9.998000399920016e-05 9.998000399920016e-05 0.3917216556688662 0.08868226354729054 0.1125774845030994 0.1180763847230554 0.1281743651269746 0.1012797440511898 0.04709058188362328 0.01079784043191362 0.001399720055988802 9.998000399920016e-05 9.998000399920016e-05 0.3295 0.0736 0.0834 0.0994 0.1235 0.1328 0.0963 0.0469 0.0129 0.0016 0.0001 0.2664 0.0598 0.0728 0.0955 0.104 0.1307 0.1227 0.09279999999999999 0.0424 0.0115 0.0014 0.2138 0.0506 0.0578 0.0712 0.0888 0.1117 0.126 0.1304 0.09180000000000001 0.0462 0.0117 0.1832 0.037 0.0468 0.06 0.0717 0.08840000000000001 0.1089 0.1279 0.1239 0.09859999999999999 0.0536 0.1391 0.0334 0.0389 0.0462 0.0534 0.07240000000000001 0.0896 0.1128 0.1283 0.132 0.1539 0.1169 0.0261 0.0344 0.0391 0.0505 0.0609 0.0702 0.0876 0.101 0.1269 0.2864 0.0994 0.0218 0.0252 0.0345 0.0383 0.046 0.058 0.0696 0.0886 0.1074 0.4112 0.0801 0.0171 0.0233 0.026 0.0286 0.0382 0.0478 0.06320000000000001 0.07630000000000001 0.0808 0.5185999999999999 0.0684 0.0145 0.0185 0.0239 0.0276 0.0316 0.0396 0.0486 0.0597 0.0689 0.5987 0.394621075784843 0.08638272345530894 0.1085782843431314 0.1242751449710058 0.1280743851229754 0.1001799640071986 0.04479104179164167 0.01139772045590882 0.001499700059988002 9.998000399920016e-05 9.998000399920016e-05 0.3275672432756724 0.07069293070692931 0.0917908209179082 0.1060893910608939 0.1232876712328767 0.1297870212978702 0.0927907209279072 0.0451954804519548 0.0112988701129887 0.0013998600139986 9.999000099990002e-05 0.2664 0.0577 0.07290000000000001 0.0854 0.1106 0.1192 0.1301 0.1016 0.0455 0.0089 0.0017 0.2205 0.0476 0.0589 0.0708 0.0897 0.1061 0.1269 0.1313 0.09379999999999999 0.0428 0.0116 0.1719 0.0382 0.0495 0.0596 0.0713 0.09279999999999999 0.1028 0.1313 0.1294 0.0965 0.0567 0.1468 0.032 0.0404 0.043 0.0578 0.0712 0.0864 0.1089 0.1245 0.1334 0.1556 0.124 0.0244 0.0315 0.038 0.0475 0.0583 0.0732 0.0824 0.1044 0.1308 0.2855 0.09710000000000001 0.0207 0.027 0.0312 0.0413 0.05 0.0565 0.0755 0.0866 0.1077 0.4064 0.0804 0.0152 0.0203 0.0262 0.034 0.0384 0.0407 0.0599 0.0721 0.0934 0.5194 0.06859999999999999 0.013 0.0183 0.0228 0.0277 0.0307 0.0418 0.0489 0.0591 0.0723 0.5968 0.058 0.012 0.0154 0.016 0.0223 0.0252 0.0336 0.0379 0.0468 0.0606 0.6722 0.323 0.0673 0.09379999999999999 0.1081 0.1292 0.13 0.0921 0.0455 0.009900000000000001 0.0007 0.0004 0.2613 0.0581 0.07630000000000001 0.0847 0.1054 0.1281 0.1257 0.1025 0.0457 0.0108 0.0014 0.217 0.0513 0.056 0.0709 0.0906 0.1051 0.1274 0.1302 0.0956 0.0445 0.0114 0.1755 0.0399 0.0471 0.0618 0.0723 0.0895 0.1074 0.1287 0.1302 0.09520000000000001 0.0524 0.1436 0.0321 0.0426 0.0473 0.0604 0.07240000000000001 0.08409999999999999 0.0982 0.1319 0.1319 0.1555 0.1212 0.0322 0.0324 0.0409 0.0464 0.0584 0.0737 0.0876 0.1033 0.1306 0.2733 0.09660000000000001 0.0209 0.0275 0.0295 0.0368 0.0468 0.0575 0.0728 0.0916 0.1078 0.4122 0.07820000000000001 0.0153 0.0212 0.0265 0.0309 0.0388 0.0485 0.0598 0.0731 0.0858 0.5219 0.0607 0.0146 0.0177 0.0225 0.026 0.0313 0.0401 0.0508 0.0595 0.0693 0.6075 0.0498 0.0117 0.0151 0.0203 0.0219 0.0257 0.031 0.0396 0.0494 0.0564 0.6791 0.0406 0.008800000000000001 0.0132 0.0144 0.0165 0.0203 0.0281 0.0345 0.0398 0.0506 0.7332 0.2652 0.0551 0.0755 0.0891 0.106 0.1271 0.128 0.1003 0.0405 0.0117 0.0015 0.2181 0.0499 0.06 0.0677 0.0848 0.1084 0.132 0.127 0.0926 0.0445 0.015 0.1782 0.0416 0.0498 0.0592 0.07199999999999999 0.08690000000000001 0.1051 0.1287 0.1284 0.0983 0.0518 0.1503 0.0309 0.0384 0.0474 0.0606 0.07049999999999999 0.091 0.1061 0.1239 0.1262 0.1547 0.1215 0.0262 0.0313 0.0393 0.048 0.0566 0.0722 0.08649999999999999 0.1104 0.1257 0.2823 0.09420000000000001 0.0202 0.0248 0.0334 0.0388 0.0468 0.0608 0.0708 0.09520000000000001 0.1035 0.4115 0.07829999999999999 0.0165 0.0217 0.0237 0.0309 0.0403 0.0447 0.0599 0.06809999999999999 0.0911 0.5248 0.0677 0.0148 0.0181 0.0209 0.0235 0.0317 0.0373 0.0472 0.0567 0.0726 0.6095 0.0564 0.0107 0.0138 0.0185 0.0214 0.025 0.0313 0.041 0.0514 0.0556 0.6749000000000001 0.0451 0.0091 0.0129 0.0144 0.0194 0.0186 0.027 0.0304 0.0426 0.0506 0.7299 0.0344 0.0104 0.0101 0.0102 0.0134 0.0171 0.0226 0.0267 0.0308 0.0421 0.7822 0.2143 0.0466 0.0532 0.0752 0.08740000000000001 0.1107 0.1258 0.1347 0.0965 0.0449 0.0107 0.1772 0.043 0.0464 0.0563 0.0762 0.08359999999999999 0.1042 0.1299 0.1286 0.0958 0.0588 0.1398 0.0327 0.0397 0.048 0.0599 0.07099999999999999 0.0878 0.1071 0.1291 0.1315 0.1534 0.1295 0.0244 0.0326 0.041 0.0508 0.055 0.0727 0.0897 0.1072 0.1263 0.2708 0.101 0.0208 0.0287 0.0318 0.0394 0.049 0.0582 0.074 0.0892 0.1059 0.402 0.07679999999999999 0.017 0.0206 0.0266 0.0315 0.0389 0.0474 0.0607 0.07530000000000001 0.0864 0.5188 0.06569999999999999 0.015 0.0186 0.0213 0.0297 0.0321 0.0387 0.0476 0.0584 0.0747 0.5982 0.0536 0.0113 0.0156 0.0194 0.0233 0.024 0.0322 0.0388 0.0446 0.0564 0.6808 0.0475 0.0091 0.0127 0.0132 0.0188 0.0208 0.0257 0.0346 0.0365 0.0459 0.7352 0.0359 0.0076 0.0086 0.0125 0.0161 0.0193 0.0232 0.0263 0.0337 0.0376 0.7792 0.0286 0.0061 0.0074 0.0103 0.0109 0.0159 0.0193 0.0222 0.0255 0.0287 0.8250999999999999 0.1697 0.0385 0.0463 0.0617 0.07190000000000001 0.0891 0.1087 0.135 0.1251 0.0975 0.0565 0.1468 0.0337 0.0394 0.0438 0.0615 0.06900000000000001 0.0858 0.1142 0.1317 0.1232 0.1509 0.1218 0.0245 0.0342 0.0379 0.0516 0.0553 0.0717 0.0849 0.1067 0.1223 0.2891 0.1008 0.0209 0.0219 0.035 0.0391 0.0472 0.0583 0.0745 0.08699999999999999 0.1059 0.4094 0.0822 0.0185 0.0213 0.0277 0.031 0.0389 0.0484 0.0579 0.0692 0.091 0.5139 0.0672 0.0163 0.0171 0.0208 0.0256 0.0323 0.0376 0.0477 0.0554 0.0732 0.6068 0.052 0.0105 0.0135 0.0192 0.0217 0.0301 0.0336 0.0405 0.0468 0.0596 0.6725 0.043 0.0106 0.012 0.0159 0.0161 0.021 0.0274 0.032 0.0394 0.0493 0.7333 0.0353 0.0101 0.0098 0.0107 0.013 0.0197 0.0208 0.0239 0.0334 0.0409 0.7824 0.0282 0.008 0.0081 0.009299999999999999 0.0124 0.0153 0.016 0.0211 0.0241 0.0326 0.8249 0.0252 0.0055 0.0061 0.008 0.0104 0.0107 0.016 0.0183 0.0206 0.0269 0.8522999999999999</probabilities>
		</cpt>
		<cpt id="frequency_of_loss_of_control_due_to_motor_wear">
			<state id="State0" />
			<state id="State1" />
			<state id="State2" />
			<state id="State3" />
			<state id="State4" />
			<state id="State5" />
			<state id="State6" />
			<state id="State7" />
			<state id="State8" />
			<state id="State9" />
			<intervals>0 0.005908012045062 0.01527158011626 0.03011183540944 0.053632054998 0.09090909090909 0.1499892113597 0.2436248920717 0.3920274450035 0.6272296408891 1</intervals>
			<parents>motor_wear</parents>
			<probabilities>1 0 0 0 0 0 0 0 0 0 1 0 0 0 0 0 0 0 0 0 1 0 0 0 0 0 0 0 0 0 0.583 0.417 0 0 0 0 0 0 0 0 0 0.3312 0.6331 0.0357 0 0 0 0 0 0 0 0 0 0.5658 0.4342 0 0 0 0 0 0 0 0 0 0.1892 0.6523 0.1585 0 0 0 0 0 0 0 0 0 0.5511 0.4489 0 0 0 0 0 0 0 0 0 0.2891 0.7109 0 0 0 0 0 0 0 0 0 0.1038 0.8962</probabilities>
		</cpt>
		<cpt id="max_upwards_acceleration">
			<state id="State0" />
			<state id="State1" />
			<state id="State2" />
			<state id="State3" />
			<state id="State4" />
			<intervals>0.5 0.8 1.1 1.4 1.7 2</intervals>
			<probabilities>0.5936744560838034 0.4057211925866237 0.000201450443190975 0.000201450443190975 0.000201450443190975</probabilities>
		</cpt>
		<cpt id="safety_margin">
			<state id="State0" />
			<state id="State1" />
			<state id="State2" />
			<state id="State3" />
			<state id="State4" />
			<state id="State5" />
			<state id="State6" />
			<state id="State7" />
			<state id="State8" />
			<state id="State9" />
			<intervals>0.1 0.21 0.32 0.43 0.54 0.65 0.76 0.87 0.98 1.09 1.2</intervals>
			<probabilities>0.0984342494251615 0.1036899156903537 0.1009525895105661 0.09471148582065039 0.1025949852184386 0.1030329574072046 0.1010620825577576 0.09887222161392752 0.09624438848133143 0.1004051242746086</probabilities>
		</cpt>
		<cpt id="motoruse_for_other_prediction_side">
			<state id="State0" />
			<state id="State1" />
			<state id="State2" />
			<state id="State3" />
			<state id="State4" />
			<state id="State5" />
			<state id="State6" />
			<state id="State7" />
			<state id="State8" />
			<state id="State9" />
			<intervals>0 0.1 0.2 0.3 0.4 0.5 0.6 0.7 0.8 0.9 1</intervals>
			<parents>motor_wear turbulence random_disturbance</parents>
