<?xml version="1.0" encoding="UTF-8"?>
<!-- This network was created in GeNIe Academic, which can be used for academic teaching and research purposes only -->
<smile version="1.0" id="Network2" numsamples="10000" discsamples="10000">
	<nodes>
		<cpt id="turbulence_t_1">
			<state id="State0" />
			<state id="State1" />
			<state id="State2" />
			<state id="State3" />
			<state id="State4" />
			<state id="State5" />
			<state id="State6" />
			<state id="State7" />
			<state id="State8" />
			<state id="State9" />
			<intervals>0 0.1 0.2 0.3 0.4 0.5 0.6 0.7 0.8 0.9 1</intervals>
			<probabilities>0.2754620526936689 0.2235548564687377 0.1869838773102635 0.1333071175776642 0.08769170271333071 0.04836806920959497 0.02713330711757767 0.01022414471097129 0.004915454187966968 0.002359418010224145</probabilities>
		</cpt>
		<cpt id="turbulence">
			<state id="State0" />
			<state id="State1" />
			<state id="State2" />
			<state id="State3" />
			<state id="State4" />
			<state id="State5" />
			<state id="State6" />
			<state id="State7" />
			<state id="State8" />
			<state id="State9" />
			<intervals>0 0.1 0.2 0.3 0.4 0.5 0.6 0.7 0.8 0.9 1</intervals>
			<parents>turbulence_t_1</parents>
			<probabilities>0.8173278704906566 0.1786749275507145 0.003297691615868892 9.9930048965724e-05 9.9930048965724e-05 9.9930048965724e-05 9.9930048965724e-05 9.9930048965724e-05 9.9930048965724e-05 9.9930048965724e-05 0.2282630421746952 0.6132320607635419 0.1557065760543674 0.002198680791525085 9.994003597841295e-05 9.994003597841295e-05 9.994003597841295e-05 9.994003597841295e-05 9.994003597841295e-05 9.994003597841295e-05 0.007396301849075462 0.2446776611694153 0.6072963518240879 0.1380309845077461 0.002098950524737631 9.995002498750625e-05 9.995002498750625e-05 9.995002498750625e-05 9.995002498750625e-05 9.995002498750625e-05 9.995002498750625e-05 0.01029485257371314 0.2754622688655672 0.5947026486756621 0.1172413793103448 0.001799100449775112 9.995002498750625e-05 9.995002498750625e-05 9.995002498750625e-05 9.995002498750625e-05 9.995002498750625e-05 9.995002498750625e-05 0.01079460269865067 0.3039480259870065 0.5833083458270865 0.1006496751624188 0.00079960019990005 9.995002498750625e-05 9.995002498750625e-05 9.995002498750625e-05 9.995002498750625e-05 9.995002498750625e-05 9.995002498750625e-05 0.01499250374812594 0.3318340829585207 0.5683158420789605 0.08375812093953024 0.0005997001499250374 9.995002498750625e-05 9.995002498750625e-05 9.995002498750625e-05 9.995002498750625e-05 9.995002498750625e-05 9.995002498750625e-05 0.01949025487256372 0.3497251374312844 0.5588205897051475 0.07106446776611694 0.000399800099950025 9.995002498750625e-05 9.995002498750625e-05 9.995002498750625e-05 9.995002498750625e-05 9.995002498750625e-05 9.995002498750625e-05 0.02188905547226387 0.384807596201899 0.5283358320839581 0.063968015992004 0.0004997501249375312 9.994003597841295e-05 9.994003597841295e-05 9.994003597841295e-05 9.994003597841295e-05 9.994003597841295e-05 9.994003597841295e-05 0.03128123126124326 0.4168498900659604 0.4965020987407556 0.0547671397161703 9.994003597841295e-05 9.994003597841295e-05 9.994003597841295e-05 9.994003597841295e-05 9.994003597841295e-05 9.994003597841295e-05 9.994003597841295e-05 0.03807715370777533 0.4447331601039377 0.5164901059364382</probabilities>
		</cpt>
		<cpt id="motor_wear_t_1">
			<state id="State0" />
			<state id="State1" />
			<state id="State2" />
			<state id="State3" />
			<state id="State4" />
			<state id="State5" />
			<state id="State6" />
			<state id="State7" />
			<state id="State8" />
			<state id="State9" />
			<intervals>0 0.1 0.2 0.3 0.4 0.5 0.6 0.7 0.8 0.9 1</intervals>
			<probabilities>0.9991008092716556 9.991008092716555e-05 9.991008092716555e-05 9.991008092716555e-05 9.991008092716555e-05 9.991008092716555e-05 9.991008092716555e-05 9.991008092716555e-05 9.991008092716555e-05 9.991008092716555e-05</probabilities>
		</cpt>
		<cpt id="motor_wear">
			<state id="State0" />
			<state id="State1" />
			<state id="State2" />
			<state id="State3" />
			<state id="State4" />
			<state id="State5" />
			<state id="State6" />
			<state id="State7" />
			<state id="State8" />
			<state id="State9" />
			<intervals>0 0.1 0.2 0.3 0.4 0.5 0.6 0.7 0.8 0.9 1</intervals>
			<parents>motor_wear_t_1</parents>
			<probabilities>0.9989008792965628 0.0002997601918465228 9.992006394884092e-05 9.992006394884092e-05 9.992006394884092e-05 9.992006394884092e-05 9.992006394884092e-05 9.992006394884092e-05 9.992006394884092e-05 9.992006394884092e-05 9.992006394884092e-05 0.9990007993605116 0.0001998401278976818 9.992006394884092e-05 9.992006394884092e-05 9.992006394884092e-05 9.992006394884092e-05 9.992006394884092e-05 9.992006394884092e-05 9.992006394884092e-05 9.992006394884092e-05 9.992006394884092e-05 0.998701039168665 0.0004996003197442046 9.992006394884092e-05 9.992006394884092e-05 9.992006394884092e-05 9.992006394884092e-05 9.992006394884092e-05 9.992006394884092e-05 9.992006394884092e-05 9.992006394884092e-05 9.992006394884092e-05 0.9989008792965628 0.0002997601918465228 9.992006394884092e-05 9.992006394884092e-05 9.992006394884092e-05 9.992006394884092e-05 9.992006394884092e-05 9.992006394884092e-05 9.992006394884092e-05 9.992006394884092e-05 9.992006394884092e-05 0.9988009592326139 0.0003996802557953637 9.992006394884092e-05 9.992006394884092e-05 9.992006394884092e-05 9.992006394884092e-05 9.992006394884092e-05 9.992006394884092e-05 9.992006394884092e-05 9.992006394884092e-05 9.992006394884092e-05 0.9984012789768185 0.0007993605115907274 9.992006394884092e-05 9.992006394884092e-05 9.992006394884092e-05 9.992006394884092e-05 9.992006394884092e-05 9.992006394884092e-05 9.992006394884092e-05 9.992006394884092e-05 9.992006394884092e-05 0.9989008792965628 0.0002997601918465228 9.992006394884092e-05 9.992006394884092e-05 9.992006394884092e-05 9.992006394884092e-05 9.992006394884092e-05 9.992006394884092e-05 9.992006394884092e-05 9.992006394884092e-05 9.992006394884092e-05 0.9986011191047163 0.0005995203836930455 9.992006394884092e-05 9.992006394884092e-05 9.992006394884092e-05 9.992006394884092e-05 9.992006394884092e-05 9.992006394884092e-05 9.992006394884092e-05 9.992006394884092e-05 9.992006394884092e-05 0.9984012789768185 0.0007993605115907274 9.991008092716555e-05 9.991008092716555e-05 9.991008092716555e-05 9.991008092716555e-05 9.991008092716555e-05 9.991008092716555e-05 9.991008092716555e-05 9.991008092716555e-05 9.991008092716555e-05 0.9991008092716556</probabilities>
		</cpt>
		<cpt id="height_over_ground">
			<state id="State0" />
			<state id="State1" />
			<state id="State2" />
			<state id="State3" />
			<state id="State4" />
			<state id="State5" />
			<state id="State6" />
			<state id="State7" />
			<state id="State8" />
			<state id="State9" />
			<intervals>0 0.1 0.2 0.3 0.4 0.5 0.6 0.7 0.8 0.9 1</intervals>
			<probabilities>0.1009 0.0945 0.09669999999999999 0.1026 0.0963 0.1044 0.1036 0.1007 0.0992 0.1011</probabilities>
		</cpt>
		<cpt id="drone_tilt">
			<state id="State0" />
			<state id="State1" />
			<state id="State2" />
			<state id="State3" />
			<state id="State4" />
			<state id="State5" />
			<state id="State6" />
			<state id="State7" />
			<state id="State8" />
			<state id="State9" />
			<intervals>0 0.1 0.2 0.3 0.4 0.5 0.6 0.7 0.8 0.9 1</intervals>
			<probabilities>0.1012 0.1017 0.0989 0.09959999999999999 0.0985 0.1 0.0999 0.1027 0.0982 0.0993</probabilities>
		</cpt>
		<cpt id="motoruse_for_tether">
			<state id="State0" />
			<state id="State1" />
			<state id="State2" />
			<state id="State3" />
			<state id="State4" />
			<state id="State5" />
			<state id="State6" />
			<state id="State7" />
			<state id="State8" />
			<state id="State9" />
			<intervals>0 0.1 0.2 0.3 0.4 0.5 0.6 0.7 0.8 0.9 1</intervals>
			<parents>height_over_ground drone_tilt</parents>
			<probabilities>0.6586389527330868 0.3376636354551814 0.00299790146897172 9.9930048965724e-05 9.9930048965724e-05 9.9930048965724e-05 9.9930048965724e-05 9.9930048965724e-05 9.9930048965724e-05 9.9930048965724e-05 0.06006996501749125 0.5631184407796102 0.3473263368315842 0.02858570714642679 0.000399800099950025 9.995002498750625e-05 9.995002498750625e-05 9.995002498750625e-05 9.995002498750625e-05 9.995002498750625e-05 0.01109667099870039 0.1388583424972508 0.4337698690392882 0.3296011196641008 0.07917624712586224 0.006697990602819154 0.000499850044986504 9.997000899730081e-05 9.997000899730081e-05 9.997000899730081e-05 0.002999400119976005 0.03899220155968806 0.1818636272745451 0.3352329534093181 0.2903419316136773 0.116876624675065 0.02889422115576885 0.004599080183963208 9.998000399920016e-05 9.998000399920016e-05 0.0018 0.0154 0.07190000000000001 0.1848 0.2818 0.2447 0.1356 0.0496 0.0129 0.0015 0.0008 0.0094 0.0367 0.0934 0.1752 0.227 0.2139 0.1434 0.0709 0.0293 0.0014 0.0055 0.0178 0.0508 0.0985 0.1571 0.2019 0.1878 0.1418 0.1374 0.0015 0.0033 0.0098 0.0295 0.0589 0.1068 0.1464 0.174 0.1623 0.3075 0.0014 0.0023 0.008800000000000001 0.0195 0.0397 0.0698 0.1084 0.1368 0.1446 0.4687 0.0014 0.0016 0.0063 0.0117 0.0238 0.0445 0.0721 0.1018 0.1168 0.62 0.0732560463721767 0.7869278432940235 0.1388167099740156 0.0003997601439136518 9.994003597841295e-05 9.994003597841295e-05 9.994003597841295e-05 9.994003597841295e-05 9.994003597841295e-05 9.994003597841295e-05 0.0009996001599360256 0.1711315473810476 0.6195521791283487 0.195921631347461 0.01189524190323871 9.996001599360256e-05 9.996001599360256e-05 9.996001599360256e-05 9.996001599360256e-05 9.996001599360256e-05 0.0001999600079984003 0.02499500099980004 0.2330533893221356 0.4531093781243751 0.2424515096980604 0.04279144171165767 0.003099380123975205 9.998000399920016e-05 9.998000399920016e-05 9.998000399920016e-05 0.0003999600039996001 0.008699130086991301 0.07029297070292971 0.2401759824017598 0.3422657734226577 0.2363763623637636 0.08529147085291471 0.0154984501549845 0.0008999100089991 9.999000099990002e-05 0.0003 0.0045 0.0272 0.1075 0.2181 0.2725 0.2214 0.1088 0.0306 0.0091 0.0005999999999999999 0.0022 0.0132 0.05 0.1166 0.1937 0.2369 0.1994 0.1183 0.06909999999999999 0.0001 0.0014 0.008699999999999999 0.0236 0.0629 0.1255 0.1778 0.1954 0.1715 0.2331 0.0004 0.001 0.004 0.016 0.0331 0.07000000000000001 0.1187 0.1559 0.1756 0.4253 0.0009 0.001 0.0042 0.0109 0.0245 0.0478 0.0733 0.1186 0.1439 0.5749 0.0001 0.0007 0.003 0.0078 0.017 0.0295 0.0554 0.07920000000000001 0.1085 0.6988 9.9930048965724e-05 0.276606375537124 0.6837213950234836 0.03897271909663236 9.9930048965724e-05 9.9930048965724e-05 9.9930048965724e-05 9.9930048965724e-05 9.9930048965724e-05 9.9930048965724e-05 9.995002498750625e-05 0.008395802098950524 0.3479260369815093 0.5431284357821089 0.09785107446276861 0.002198900549725138 9.995002498750625e-05 9.995002498750625e-05 9.995002498750625e-05 9.995002498750625e-05 9.997000899730081e-05 0.001799460161951415 0.05818254523642907 0.3308007597720684 0.4315705288413476 0.1542537238828351 0.02179346196141158 0.001299610116964911 9.997000899730081e-05 9.997000899730081e-05 9.999000099990002e-05 0.0006999300069993001 0.0190980901909809 0.1094890510948905 0.2840715928407159 0.3368663133686631 0.1860813918608139 0.0553944605539446 0.007599240075992401 0.0005999400059994001 9.999000099990002e-05 0.0007999200079992001 0.0084991500849915 0.04459554044595541 0.1352864713528647 0.2473752624737526 0.2765723427657234 0.182981701829817 0.07539246075392461 0.0283971602839716 0.0004 0.0007 0.0039 0.0229 0.0641 0.1415 0.2192 0.2317 0.1698 0.1458 0.0001 0.0007 0.0028 0.0123 0.033 0.0779 0.1379 0.1914 0.1923 0.3516 0.0001 0.0005 0.0024 0.0081 0.021 0.0453 0.0878 0.1287 0.1705 0.5356 9.999000099990002e-05 0.0005999400059994001 0.0016998300169983 0.0045995400459954 0.0117988201179882 0.0273972602739726 0.05519448055194481 0.0882911708829117 0.121987801219878 0.6883311668833116 9.999000099990002e-05 0.0004999500049995 0.0009999000099990001 0.0034996500349965 0.009099090090990901 0.0186981301869813 0.03339666033396661 0.0598940105989401 0.08939106089391061 0.7844215578442156 9.9930048965724e-05 9.9930048965724e-05 0.5750974317977415 0.4167083041870691 0.0074947536724293 9.9930048965724e-05 9.9930048965724e-05 9.9930048965724e-05 9.9930048965724e-05 9.9930048965724e-05 9.996001599360256e-05 0.0001999200319872051 0.03548580567772891 0.5231907237105158 0.3916433426629348 0.04828068772491004 0.0007996801279488205 9.996001599360256e-05 9.996001599360256e-05 9.996001599360256e-05 9.998000399920016e-05 9.998000399920016e-05 0.005898820235952809 0.1144771045790842 0.4120175964807039 0.3624275144971006 0.09618076384723055 0.008498300339932013 0.0001999600079984003 9.998000399920016e-05 9.999000099990002e-05 9.999000099990002e-05 0.0027997200279972 0.0342965703429657 0.1592840715928407 0.3290670932906709 0.3035696430356964 0.1337866213378662 0.031996800319968 0.004999500049995001 9.998000399920016e-05 9.998000399920016e-05 0.001399720055988802 0.01569686062787443 0.0638872225554889 0.1668666266746651 0.268246350729854 0.2586482703459308 0.1530693861227755 0.07198560287942411 9.998000399920016e-05 9.998000399920016e-05 0.001299740051989602 0.007598480303939212 0.03109378124375125 0.08088382323535293 0.1602679464107178 0.235252949410118 0.2215556888622276 0.2618476304739052 9.999000099990002e-05 0.0001999800019998 0.0009999000099990001 0.0032996700329967 0.0143985601439856 0.04859514048595141 0.09709029097090291 0.1571842815718428 0.1947805219478052 0.4833516648335167 0.0001 0.0001 0.0014 0.0028 0.009900000000000001 0.0271 0.0594 0.0992 0.145 0.655 9.999000099990002e-05 9.999000099990002e-05 0.0006999300069993001 0.0022997700229977 0.005499450054994501 0.0171982801719828 0.0367963203679632 0.063993600639936 0.09549045095490451 0.7778222177782221 0.0002 0.0001 0.0003 0.0021 0.0047 0.0122 0.0234 0.0419 0.0682 0.8469 9.994003597841295e-05 9.994003597841295e-05 0.0308814711173296 0.7765340795522686 0.1914851089346392 0.0004997001798920647 9.994003597841295e-05 9.994003597841295e-05 9.994003597841295e-05 9.994003597841295e-05 9.996001599360256e-05 9.996001599360256e-05 9.996001599360256e-05 0.1204518192722911 0.6216513394642144 0.2410035985605758 0.01629348260695722 9.996001599360256e-05 9.996001599360256e-05 9.996001599360256e-05 9.997000899730081e-05 9.997000899730081e-05 9.997000899730081e-05 0.01669499150254923 0.2018394481655503 0.4567629711086674 0.2670198940317904 0.05228431470558832 0.004998500449865041 9.997000899730081e-05 9.998000399920016e-05 9.998000399920016e-05 0.0004999000199960008 0.008098380323935212 0.05838832233553289 0.2156568686262748 0.3484303139372126 0.2560487902419516 0.09388122375524895 0.01879624075184963 9.998000399920016e-05 9.998000399920016e-05 0.0002999400119976005 0.003699260147970406 0.01959608078384323 0.09188162367526495 0.2071585682863427 0.2789442111577685 0.2306538692261548 0.1675664867026595 9.998000399920016e-05 9.998000399920016e-05 0.0002999400119976005 0.002199560087982404 0.01229754049190162 0.04289142171565687 0.09998000399920016 0.1855628874225155 0.2364527094581084 0.4201159768046391 9.998000399920016e-05 9.998000399920016e-05 0.0003999200159968006 0.001799640071985603 0.007098580283943211 0.02169566086782643 0.05508898220355929 0.1120775844831034 0.1693661267746451 0.6322735452909418 9.998000399920016e-05 9.998000399920016e-05 9.998000399920016e-05 0.001399720055988802 0.004299140171965607 0.01249750049990002 0.03519296140771846 0.07038592281543692 0.1110777844431114 0.7648470305938813 9.998000399920016e-05 9.998000399920016e-05 9.998000399920016e-05 0.001899620075984803 0.002999400119976005 0.007598480303939212 0.02069586082783443 0.04509098180363928 0.07298540291941612 0.8484303139372126 0.0001 0.0001 0.0002 0.0014 0.0028 0.0065 0.0132 0.0264 0.0473 0.902 9.9930048965724e-05 9.9930048965724e-05 9.9930048965724e-05 0.1935645048466074 0.7442790046967123 0.06145698011392026 9.9930048965724e-05 9.9930048965724e-05 9.9930048965724e-05 9.9930048965724e-05 9.995002498750625e-05 9.995002498750625e-05 9.995002498750625e-05 0.00399800099950025 0.2767616191904048 0.5845077461269366 0.1293353323338331 0.004897551224387806 9.995002498750625e-05 9.995002498750625e-05 9.997000899730081e-05 9.997000899730081e-05 9.997000899730081e-05 0.00119964010796761 0.04798560431870439 0.2916125162451265 0.4400679796061182 0.1920423872838149 0.0250924722583225 0.001699490152954114 9.997000899730081e-05 9.997000899730081e-05 9.997000899730081e-05 0.001099670098970309 0.0121963410976707 0.09547135859242227 0.2702189343197041 0.3477956613016095 0.2024392682195341 0.07047885634309707 9.997000899730081e-05 9.997000899730081e-05 9.997000899730081e-05 0.0002999100269919024 0.005998200539838049 0.03498950314905528 0.1261621513545936 0.240627811656503 0.2739178246526042 0.317704688593422 9.997000899730081e-05 9.997000899730081e-05 9.997000899730081e-05 0.0003998800359892032 0.004398680395881235 0.02209337198840348 0.05798260521843447 0.132260321903429 0.2076377086873938 0.5749275217434769 9.998000399920016e-05 9.998000399920016e-05 0.0001999600079984003 0.0003999200159968006 0.001999600079984003 0.009498100379924015 0.03259348130373925 0.07198560287942411 0.1321735652869426 0.7509498100379924 9.998000399920016e-05 9.998000399920016e-05 9.998000399920016e-05 0.0003999200159968006 0.001399720055988802 0.007098580283943211 0.01529694061187763 0.04059188162367527 0.08118376324735053 0.8537292541491701 9.997000899730081e-05 9.997000899730081e-05 9.997000899730081e-05 0.000499850044986504 0.0009997000899730081 0.004398680395881235 0.01099670098970309 0.02759172248325502 0.05078476457062881 0.9044286713985804 9.999000099990002e-05 9.999000099990002e-05 0.0001999800019998 0.0005999400059994001 0.0013998600139986 0.0031996800319968 0.008999100089991 0.0155984401559844 0.0327967203279672 0.937006299370063 9.9930048965724e-05 9.9930048965724e-05 9.9930048965724e-05 9.9930048965724e-05 0.4732687119016689 0.5150394723693414 0.01099230538622964 9.9930048965724e-05 9.9930048965724e-05 9.9930048965724e-05 9.995002498750625e-05 9.995002498750625e-05 9.995002498750625e-05 9.995002498750625e-05 0.02298850574712644 0.4709645177411295 0.4441779110444777 0.06026986506746627 0.001099450274862569 9.995002498750625e-05 9.996001599360256e-05 9.996001599360256e-05 9.996001599360256e-05 9.996001599360256e-05 0.003998400639744102 0.09656137544982007 0.3884446221511396 0.3818472610955618 0.1156537385045982 0.01309476209516193 9.996001599360256e-05 9.996001599360256e-05 9.996001599360256e-05 9.996001599360256e-05 0.001699320271891244 0.02778888444622151 0.1419432227109156 0.3259696121551379 0.313374650139944 0.1888244702119152 9.996001599360256e-05 9.996001599360256e-05 9.996001599360256e-05 9.996001599360256e-05 0.001999200319872051 0.01049580167932827 0.05527788884446221 0.1560375849660136 0.26609356257497 0.5096961215513794 9.997000899730081e-05 9.997000899730081e-05 9.997000899730081e-05 0.0001999400179946016 0.0008997300809757073 0.00619814055783265 0.02629211236629011 0.07637708687393782 0.155853244026792 0.7338798360491853 9.997000899730081e-05 9.997000899730081e-05 9.997000899730081e-05 9.997000899730081e-05 0.0009997000899730081 0.003598920323902829 0.01339598120563831 0.04028791362591223 0.08847345796261122 0.8528441467559732 9.996001599360256e-05 9.996001599360256e-05 9.996001599360256e-05 9.996001599360256e-05 0.0007996801279488205 0.002898840463814474 0.008296681327469012 0.02508996401439424 0.05507796881247501 0.9074370251899241 9.998000399920016e-05 9.998000399920016e-05 9.998000399920016e-05 9.998000399920016e-05 0.0008998200359928015 0.001599680063987202 0.005698860227954409 0.01749650069986003 0.03369326134773045 0.9402119576084783 9.997000899730081e-05 9.997000899730081e-05 9.997000899730081e-05 0.0001999400179946016 0.000499850044986504 0.0009997000899730081 0.004198740377886634 0.01069679096271119 0.02069379186244127 0.9624112766170149 9.994003597841295e-05 9.994003597841295e-05 9.994003597841295e-05 9.994003597841295e-05 0.007695382770337798 0.7362582450529682 0.2542474515290826 0.001199280431740955 9.994003597841295e-05 9.994003597841295e-05 9.996001599360256e-05 9.996001599360256e-05 9.996001599360256e-05 9.996001599360256e-05 9.996001599360256e-05 0.08626549380247901 0.6080567772890844 0.280687724910036 0.02429028388644542 0.0001999200319872051 9.996001599360256e-05 9.996001599360256e-05 9.996001599360256e-05 9.996001599360256e-05 0.0001999200319872051 0.01399440223910436 0.171031587365054 0.4370251899240304 0.3037784886045582 0.07357057177129149 9.996001599360256e-05 9.996001599360256e-05 9.996001599360256e-05 9.996001599360256e-05 0.0001999200319872051 0.007197121151539384 0.04798080767692923 0.1962215113954418 0.342562974810076 0.405437824870052 9.996001599360256e-05 9.996001599360256e-05 9.996001599360256e-05 9.996001599360256e-05 9.996001599360256e-05 0.002299080367852859 0.01909236305477809 0.07976809276289484 0.1980207916833267 0.7003198720511795 9.996001599360256e-05 9.996001599360256e-05 9.996001599360256e-05 9.996001599360256e-05 0.0001999200319872051 0.002199120351859256 0.01119552179128349 0.03668532586965214 0.09996001599360256 0.849360255897641 9.996001599360256e-05 9.996001599360256e-05 9.996001599360256e-05 9.996001599360256e-05 9.996001599360256e-05 0.001199520191923231 0.005997600959616154 0.02049180327868852 0.05057976809276289 0.9212315073970412 9.996001599360256e-05 9.996001599360256e-05 9.996001599360256e-05 9.996001599360256e-05 9.996001599360256e-05 0.0005997600959616154 0.004098360655737705 0.01219512195121951 0.03168732506997201 0.9509196321471411 9.997000899730081e-05 9.997000899730081e-05 9.997000899730081e-05 9.997000899730081e-05 9.997000899730081e-05 0.001799460161951415 0.00239928021593522 0.007597720683794862 0.01919424172748176 0.9685094471658502 9.997000899730081e-05 9.997000899730081e-05 9.997000899730081e-05 9.997000899730081e-05 9.997000899730081e-05 0.001099670098970309 0.002199340197940618 0.006598020593821853 0.0127961611516545 0.9768069579126262 9.9930048965724e-05 9.9930048965724e-05 9.9930048965724e-05 9.9930048965724e-05 9.9930048965724e-05 0.1275107424802638 0.7762566203657439 0.09553312681123213 9.9930048965724e-05 9.9930048965724e-05 9.995002498750625e-05 9.995002498750625e-05 9.995002498750625e-05 9.995002498750625e-05 9.995002498750625e-05 0.001999000499750125 0.2202898550724638 0.6059970014992504 0.1637181409295352 0.007496251874062968 9.995002498750625e-05 9.995002498750625e-05 9.995002498750625e-05 9.995002498750625e-05 9.995002498750625e-05 0.0005997001499250374 0.0303848075962019 0.2701649175412294 0.4529735132433783 0.2453773113443278 9.995002498750625e-05 9.995002498750625e-05 9.995002498750625e-05 9.995002498750625e-05 9.995002498750625e-05 0.0001999000499750125 0.01019490254872564 0.08705647176411795 0.2596701649175412 0.6423788105947027 9.995002498750625e-05 9.995002498750625e-05 9.995002498750625e-05 9.995002498750625e-05 9.995002498750625e-05 9.995002498750625e-05 0.004897551224387806 0.03228385807096452 0.1107446276861569 0.8514742628685658 9.995002498750625e-05 9.995002498750625e-05 9.995002498750625e-05 9.995002498750625e-05 9.995002498750625e-05 0.0002998500749625187 0.002998500749625187 0.01779110444777611 0.05467266366816591 0.9237381309345327 9.996001599360256e-05 9.996001599360256e-05 9.996001599360256e-05 9.996001599360256e-05 9.996001599360256e-05 0.0001999200319872051 0.002499000399840064 0.008896441423430627 0.02918832467013195 0.9587165133946421 9.995002498750625e-05 9.995002498750625e-05 9.995002498750625e-05 9.995002498750625e-05 9.995002498750625e-05 0.0002998500749625187 0.001299350324837581 0.006196901549225388 0.01699150424787606 0.9747126436781609 9.995002498750625e-05 9.995002498750625e-05 9.995002498750625e-05 9.995002498750625e-05 9.995002498750625e-05 0.0001999000499750125 0.001399300349825088 0.003898050974512744 0.009695152423788106 0.9843078460769615 9.995002498750625e-05 9.995002498750625e-05 9.995002498750625e-05 9.995002498750625e-05 9.995002498750625e-05 0.0002998500749625187 0.001099450274862569 0.0031984007996002 0.008895552223888057 0.9860069965017492 9.9930048965724e-05 9.9930048965724e-05 9.9930048965724e-05 9.9930048965724e-05 9.9930048965724e-05 9.9930048965724e-05 0.3859298491056261 0.5909863095832917 0.02238433096832217 9.9930048965724e-05 9.994003597841295e-05 9.994003597841295e-05 9.994003597841295e-05 9.994003597841295e-05 9.994003597841295e-05 9.994003597841295e-05 0.0115930441734959 0.4160503697781331 0.4906056366180292 0.08115130921447132 9.994003597841295e-05 9.994003597841295e-05 9.994003597841295e-05 9.994003597841295e-05 9.994003597841295e-05 9.994003597841295e-05 0.002598440935438737 0.0724565260843494 0.3699780131920847 0.5543673795722567 9.994003597841295e-05 9.994003597841295e-05 9.994003597841295e-05 9.994003597841295e-05 9.994003597841295e-05 9.994003597841295e-05 0.001599040575654607 0.01848890665600639 0.1259244453328003 0.8533879672196683 9.994003597841295e-05 9.994003597841295e-05 9.994003597841295e-05 9.994003597841295e-05 9.994003597841295e-05 9.994003597841295e-05 0.0008994603238057165 0.007395562662402559 0.04757145712572457 0.9435338796721967 9.995002498750625e-05 9.995002498750625e-05 9.995002498750625e-05 9.995002498750625e-05 9.995002498750625e-05 9.995002498750625e-05 0.0005997001499250374 0.005297351324337831 0.02508745627186407 0.968415792103948 9.995002498750625e-05 9.995002498750625e-05 9.995002498750625e-05 9.995002498750625e-05 9.995002498750625e-05 9.995002498750625e-05 0.0005997001499250374 0.003298350824587706 0.01329335332333833 0.9822088955522239 9.995002498750625e-05 9.995002498750625e-05 9.995002498750625e-05 9.995002498750625e-05 9.995002498750625e-05 9.995002498750625e-05 0.00079960019990005 0.001799100449775112 0.007396301849075462 0.9894052973513243 9.995002498750625e-05 9.995002498750625e-05 9.995002498750625e-05 9.995002498750625e-05 9.995002498750625e-05 9.995002498750625e-05 0.00079960019990005 0.001899050474762619 0.005697151424287856 0.9910044977511244 9.996001599360256e-05 9.996001599360256e-05 9.996001599360256e-05 9.996001599360256e-05 9.996001599360256e-05 0.0002998800479808077 0.0004998000799680128 0.0009996001599360256 0.004098360655737705 0.9936025589764095</probabilities>
		</cpt>
		<cpt id="random_disturbance_t_1">
			<state id="State0" />
			<state id="State1" />
			<state id="State2" />
			<state id="State3" />
			<state id="State4" />
			<state id="State5" />
			<state id="State6" />
			<state id="State7" />
			<state id="State8" />
			<state id="State9" />
			<intervals>0 0.1 0.2 0.3 0.4 0.5 0.6 0.7 0.8 0.9 1</intervals>
			<probabilities>0.147078727723889 0.1434694337920144 0.127453191969321 0.116174148432213 0.1060230092488157 0.09812767877284007 0.0875253778479585 0.07105797428378073 0.0550417324610873 0.0480487254680803</probabilities>
		</cpt>
		<cpt id="random_disturbance">
			<state id="State0" />
			<state id="State1" />
			<state id="State2" />
			<state id="State3" />
			<state id="State4" />
			<state id="State5" />
			<state id="State6" />
			<state id="State7" />
			<state id="State8" />
			<state id="State9" />
			<intervals>0 0.1 0.2 0.3 0.4 0.5 0.6 0.7 0.8 0.9 1</intervals>
			<parents>random_disturbance_t_1</parents>
			<probabilities>0.5924407559244076 0.1781821817818218 0.1225877412258774 0.06569343065693431 0.0270972902709729 0.010998900109989 0.0023997600239976 0.0002999700029997 0.0001999800019998 9.999000099990002e-05 0.4058 0.1915 0.1811 0.1174 0.0645 0.0272 0.0089 0.0031 0.0003 0.0002 0.2272 0.1731 0.1911 0.1797 0.1198 0.06610000000000001 0.0293 0.009900000000000001 0.0033 0.0005 0.1082 0.1174 0.1682 0.1938 0.1835 0.1238 0.0641 0.0277 0.0098 0.0035 0.0428 0.0621 0.1234 0.1729 0.1879 0.1696 0.1254 0.0721 0.0316 0.0122 0.0114 0.0283 0.0658 0.1211 0.1756 0.2003 0.1728 0.1238 0.0641 0.0368 0.0032 0.0104 0.03 0.0622 0.1209 0.1704 0.1946 0.1684 0.1276 0.1123 0.0003 0.0027 0.008999999999999999 0.027 0.0664 0.1209 0.1716 0.1992 0.1717 0.2312 0.0004 0.001 0.0036 0.0126 0.0286 0.0684 0.119 0.1783 0.1902 0.3979 9.999000099990002e-05 9.999000099990002e-05 0.0003999600039996001 0.0022997700229977 0.0100989901009899 0.0272972702729727 0.06379362063793621 0.1177882211778822 0.1723827617238276 0.6057394260573943</probabilities>
		</cpt>
		<cpt id="filtered_motor_use">
			<state id="State0" />
			<state id="State1" />
			<state id="State2" />
			<state id="State3" />
			<state id="State4" />
			<state id="State5" />
			<state id="State6" />
			<state id="State7" />
			<state id="State8" />
			<state id="State9" />
			<intervals>0 0.1 0.2 0.3 0.4 0.5 0.6 0.7 0.8 0.9 1</intervals>
			<parents>motor_wear random_disturbance</parents>
			<probabilities>0.5009 0.4991 0 0 0 0 0 0 0 0 0 0.5 0.5 0 0 0 0 0 0 0 0 0 0.5024999999999999 0.4975 0 0 0 0 0 0 0 0 0 0.4989 0.5011 0 0 0 0 0 0 0 0 0 0.5113 0.4887 0 0 0 0 0 0 0 0 0 0.4993 0.5007 0 0 0 0 0 0 0 0 0 0.5009 0.4991 0 0 0 0 0 0 0 0 0 0.4928 0.5072 0 0 0 0 0 0 0 0 0 0.4974 0.5026 0 0 0 0 0 0 0 0 0 1 0 0.4992 0.5008 0 0 0 0 0 0 0 0 0 0.4935 0.5065 0 0 0 0 0 0 0 0 0 0.4993 0.5007 0 0 0 0 0 0 0 0 0 0.5054 0.4946 0 0 0 0 0 0 0 0 0 0.4968 0.5032 0 0 0 0 0 0 0 0 0 0.5009 0.4991 0 0 0 0 0 0 0 0 0 0.5012 0.4988 0 0 0 0 0 0 0 0 0 0.5012 0.4988 0 0 0 0 0 0 0 0 0 1 0 0 0 0 0 0 0 0 0 1 0 0 0.5104 0.4896 0 0 0 0 0 0 0 0 0 0.503 0.497 0 0 0 0 0 0 0 0 0 0.497 0.503 0 0 0 0 0 0 0 0 0 0.5054 0.4946 0 0 0 0 0 0 0 0 0 0.5019 0.4981 0 0 0 0 0 0 0 0 0 0.5047 0.4953 0 0 0 0 0 0 0 0 0 0.4977 0.5023 0 0 0 0 0 0 0 0 0 1 0 0 0 0 0 0 0 0 0 1 0 0 0 0 0 0 0 0 0 1 0 0 0 0.5002 0.4998 0 0 0 0 0 0 0 0 0 0.4928 0.5072 0 0 0 0 0 0 0 0 0 0.4951 0.5049 0 0 0 0 0 0 0 0 0 0.501 0.499 0 0 0 0 0 0 0 0 0 0.4956 0.5044 0 0 0 0 0 0 0 0 0 0.5048 0.4952 0 0 0 0 0 0 0 0 0 1 0 0 0 0 0 0 0 0 0 1 0 0 0 0 0 0 0 0 0 1 0 0 0 0 0 0 0 0 0 1 0 0 0 0 0.5014999999999999 0.4985 0 0 0 0 0 0 0 0 0 0.4939 0.5061 0 0 0 0 0 0 0 0 0 0.5047 0.4953 0 0 0 0 0 0 0 0 0 0.4977 0.5023 0 0 0 0 0 0 0 0 0 0.5026 0.4974 0 0 0 0 0 0 0 0 0 1 0 0 0 0 0 0 0 0 0 1 0 0 0 0 0 0 0 0 0 1 0 0 0 0 0 0 0 0 0 1 0 0 0 0 0 0 0 0 0 1 0 0 0 0 0 0.5029 0.4971 0 0 0 0 0 0 0 0 0 0.4973 0.5027 0 0 0 0 0 0 0 0 0 0.494 0.506 0 0 0 0 0 0 0 0 0 0.5009 0.4991 0 0 0 0 0 0 0 0 0 1 0 0 0 0 0 0 0 0 0 1 0 0 0 0 0 0 0 0 0 1 0 0 0 0 0 0 0 0 0 1 0 0 0 0 0 0 0 0 0 1 0 0 0 0 0 0 0 0 0 1 0 0 0 0 0 0 0.4978 0.5022 0 0 0 0 0 0 0 0 0 0.5041 0.4959 0 0 0 0 0 0 0 0 0 0.5008 0.4992 0 0 0 0 0 0 0 0 0 1 0 0 0 0 0 0 0 0 0 1 0 0 0 0 0 0 0 0 0 1 0 0 0 0 0 0 0 0 0 1 0 0 0 0 0 0 0 0 0 1 0 0 0 0 0 0 0 0 0 1 0 0 0 0 0 0 0 0 0 1 0 0 0 0 0 0 0 0.4989 0.5011 0 0 0 0 0 0 0 0 0 0.5027 0.4973 0 0 0 0 0 0 0 0 0 1 0 0 0 0 0 0 0 0 0 1 0 0 0 0 0 0 0 0 0 1 0 0 0 0 0 0 0 0 0 1 0 0 0 0 0 0 0 0 0 1 0 0 0 0 0 0 0 0 0 1 0 0 0 0 0 0 0 0 0 1 0 0 0 0 0 0 0 0 0 1 0 0 0 0 0 0 0 0 0.4978 0.5022 0 0 0 0 0 0 0 0 0 1 0 0 0 0 0 0 0 0 0 1 0 0 0 0 0 0 0 0 0 1 0 0 0 0 0 0 0 0 0 1 0 0 0 0 0 0 0 0 0 1 0 0 0 0 0 0 0 0 0 1 0 0 0 0 0 0 0 0 0 1 0 0 0 0 0 0 0 0 0 1 0 0 0 0 0 0 0 0 0 1 0 0 0 0 0 0 0 0 0 1 0 0 0 0 0 0 0 0 0 1 0 0 0 0 0 0 0 0 0 1 0 0 0 0 0 0 0 0 0 1 0 0 0 0 0 0 0 0 0 1 0 0 0 0 0 0 0 0 0 1 0 0 0 0 0 0 0 0 0 1 0 0 0 0 0 0 0 0 0 1 0 0 0 0 0 0 0 0 0 1 0 0 0 0 0 0 0 0 0 1</probabilities>
		</cpt>
		<cpt id="mean_motor">
			<state id="State0" />
			<state id="State1" />
			<state id="State2" />
			<state id="State3" />
			<state id="State4" />
			<state id="State5" />
			<state id="State6" />
			<state id="State7" />
			<state id="State8" />
			<state id="State9" />
			<intervals>0 0.1 0.2 0.3 0.4 0.5 0.6 0.7 0.8 0.9 1</intervals>
			<parents>filtered_motor_use</parents>
			<probabilities>0.9594202898550724 0.03528235882058971 0.004097951024487756 0.0004997501249375312 0.0001999000499750125 9.995002498750625e-05 9.995002498750625e-05 9.995002498750625e-05 9.995002498750625e-05 9.995002498750625e-05 0.8696651674162919 0.08815592203898051 0.0336831584207896 0.007696151924037981 0.0002998500749625187 9.995002498750625e-05 9.995002498750625e-05 9.995002498750625e-05 9.995002498750625e-05 9.995002498750625e-05 0.7575969612155138 0.1215513794482207 0.08496601359456217 0.02938824470211915 0.005897640943622551 0.0001999200319872051 9.996001599360256e-05 9.996001599360256e-05 9.996001599360256e-05 9.996001599360256e-05 0.612816155153454 0.1289613116065181 0.1296611016694992 0.09227231830450865 0.03049085274417675 0.005198440467859642 0.0002999100269919024 9.997000899730081e-05 9.997000899730081e-05 9.997000899730081e-05 0.5114488551144886 0.1144885511448855 0.1276872312768723 0.1258874112588741 0.08289171082891711 0.0298970102989701 0.006799320067993201 0.0006999300069993001 9.999000099990002e-05 9.999000099990002e-05 0.4217578242175782 0.08949105089491051 0.1107889211078892 0.1308869113088691 0.1240875912408759 0.08329167083291671 0.0310968903109689 0.008099190080991902 0.0003999600039996001 9.999000099990002e-05 0.3441 0.0728 0.0916 0.1077 0.1313 0.1338 0.0825 0.03 0.0059 0.0003 0.2792 0.0607 0.0725 0.0959 0.1104 0.1293 0.1262 0.0853 0.0333 0.0072 0.2242 0.0521 0.0611 0.06950000000000001 0.0931 0.1127 0.1317 0.1304 0.0852 0.04 0.1935 0.0413 0.0514 0.0602 0.07389999999999999 0.0911 0.1126 0.1334 0.1251 0.1175</probabilities>
		</cpt>
		<cpt id="frequency_of_loss_of_control_due_to_motor_wear">
			<state id="State0" />
			<state id="State1" />
			<state id="State2" />
			<state id="State3" />
			<state id="State4" />
			<state id="State5" />
			<state id="State6" />
			<state id="State7" />
			<state id="State8" />
			<state id="State9" />
			<intervals>0 0.005908012045062 0.01527158011626 0.03011183540944 0.053632054998 0.09090909090909 0.1499892113597 0.2436248920717 0.3920274450035 0.6272296408891 1</intervals>
			<parents>motor_wear</parents>
			<probabilities>1 0 0 0 0 0 0 0 0 0 1 0 0 0 0 0 0 0 0 0 1 0 0 0 0 0 0 0 0 0 0.5803 0.4197 0 0 0 0 0 0 0 0 0 0.3291 0.6344 0.0365 0 0 0 0 0 0 0 0 0 0.5709 0.4291 0 0 0 0 0 0 0 0 0 0.1891 0.6518 0.1591 0 0 0 0 0 0 0 0 0 0.541 0.459 0 0 0 0 0 0 0 0 0 0.2931 0.7069 0 0 0 0 0 0 0 0 0 0.1074 0.8925999999999999</probabilities>
		</cpt>
		<cpt id="max_upwards_acceleration">
			<state id="State0" />
			<state id="State1" />
			<state id="State2" />
			<state id="State3" />
			<state id="State4" />
			<intervals>0.5 0.8 1.1 1.4 1.7 2</intervals>
			<probabilities>0.6074074074074074 0.391991991991992 0.0002002002002002002 0.0002002002002002002 0.0002002002002002002</probabilities>
		</cpt>
		<cpt id="safety_margin">
			<state id="State0" />
			<state id="State1" />
			<state id="State2" />
			<state id="State3" />
			<state id="State4" />
			<state id="State5" />
			<state id="State6" />
			<state id="State7" />
			<state id="State8" />
			<state id="State9" />
			<intervals>0.1 0.21 0.32 0.43 0.54 0.65 0.76 0.87 0.98 1.09 1.2</intervals>
			<probabilities>0.09888182416136812 0.09712782284586713 0.1010743258057444 0.1037053277789958 0.09460644595483447 0.09438719579039684 0.101841701381276 0.1000877000657751 0.103595702696777 0.1046919535189651</probabilities>
		</cpt>
		<cpt id="environment_observability_t_1">
			<state id="State0" />
			<state id="State1" />
			<state id="State2" />
			<state id="State3" />
			<state id="State4" />
			<state id="State5" />
			<state id="State6" />
			<state id="State7" />
			<state id="State8" />
			<state id="State9" />
			<intervals>0 0.1 0.2 0.3 0.4 0.5 0.6 0.7 0.8 0.9 1</intervals>
			<probabilities>0.3795216445937932 0.3032219806285827 0.1808657837517296 0.08697371021941096 0.03676615932002372 0.009685708638070766 0.002372010278711208 0.000197667523225934 0.000197667523225934 0.000197667523225934</probabilities>
		</cpt>
		<cpt id="environment_observability">
			<state id="State0" />
			<state id="State1" />
			<state id="State2" />
			<state id="State3" />
			<state id="State4" />
			<state id="State5" />
			<state id="State6" />
			<state id="State7" />
			<state id="State8" />
			<state id="State9" />
			<intervals>0 0.1 0.2 0.3 0.4 0.5 0.6 0.7 0.8 0.9 1</intervals>
			<parents>environment_observability_t_1</parents>
			<probabilities>0.5717 0.1242 0.1071 0.0733 0.0524 0.034 0.0197 0.0098 0.0042 0.0036 0.4554 0.1348 0.1198 0.1023 0.0775 0.05 0.0315 0.0167 0.0078 0.0042 0.3418 0.1259 0.1306 0.1205 0.0968 0.0791 0.0446 0.0302 0.0162 0.0143 0.239 0.1124 0.1323 0.1281 0.1226 0.0964 0.0675 0.0461 0.0292 0.0264 0.1563 0.09370000000000001 0.1135 0.132 0.132 0.1184 0.0902 0.0667 0.0435 0.0537 0.0979 0.0682 0.09229999999999999 0.1187 0.1288 0.1357 0.1149 0.0892 0.0629 0.0914 0.0507 0.0516 0.0721 0.09810000000000001 0.117 0.1297 0.1345 0.1115 0.0922 0.1426 0.0274 0.0306 0.0495 0.07099999999999999 0.1012 0.1237 0.1344 0.1227 0.1157 0.2238 0.014 0.0171 0.0295 0.054 0.07679999999999999 0.0983 0.1234 0.1305 0.1254 0.331 0.0065 0.0081 0.0186 0.0338 0.053 0.08110000000000001 0.1054 0.1246 0.1296 0.4393</probabilities>
		</cpt>
		<cpt id="presence_of_unobservable_obstacle">
			<state id="State0" />
			<state id="State1" />
			<intervals>0 0.5 1</intervals>
			<parents>environment_observability</parents>
			<probabilities>0.9497 0.0503 0.851 0.149 0.7481 0.2519 0.6481 0.3519 0.5505 0.4495 0.4509 0.5491 0.3481 0.6519 0.2482 0.7518 0.1541 0.8459 0.0504 0.9496</probabilities>
		</cpt>
		<cpt id="effective_safety_margin">
			<state id="State0" />
			<state id="State1" />
			<state id="State2" />
			<state id="State3" />
			<state id="State4" />
			<state id="State5" />
			<state id="State6" />
			<state id="State7" />
			<state id="State8" />
			<state id="State9" />
			<state id="State10" />
			<intervals>0 0.1 0.21 0.32 0.43 0.54 0.65 0.76 0.87 0.98 1.09 1.2</intervals>
			<parents>presence_of_unobservable_obstacle safety_margin</parents>
			<probabilities>0 1 0 0 0 0 0 0 0 0 0 0 0 1 0 0 0 0 0 0 0 0 0 0 0 1 0 0 0 0 0 0 0 0 0 0 0 1 0 0 0 0 0 0 0 0 0 0 0 1 0 0 0 0 0 0 0 0 0 0 0 1 0 0 0 0 0 0 0 0 0 0 0 1 0 0 0 0 0 0 0 0 0 0 0 1 0 0 0 0 0 0 0 0 0 0 0 1 0 0 0 0 0 0 0 0 0 0 0 1 1 0 0 0 0 0 0 0 0 0 0 1 0 0 0 0 0 0 0 0 0 0 1 0 0 0 0 0 0 0 0 0 0 1 0 0 0 0 0 0 0 0 0 0 1 0 0 0 0 0 0 0 0 0 0 1 0 0 0 0 0 0 0 0 0 0 1 0 0 0 0 0 0 0 0 0 0 1 0 0 0 0 0 0 0 0 0 0 1 0 0 0 0 0 0 0 0 0 0 1 0 0 0 0 0 0 0 0 0 0</probabilities>
		</cpt>
		<cpt id="frequency_of_exceeding_safety_margin_due_to_turbulence">
			<state id="State0" />
			<state id="State1" />
			<state id="State2" />
			<state id="State3" />
			<state id="State4" />
			<state id="State5" />
			<state id="State6" />
			<state id="State7" />
			<state id="State8" />
			<state id="State9" />
			<intervals>0 0.005908012045062 0.01527158011626 0.03011183540944 0.053632054998 0.09090909090909 0.1499892113597 0.2436248920717 0.3920274450035 0.6272296408891 1</intervals>
			<parents>turbulence effective_safety_margin</parents>
			<probabilities>0.1761 0.6037 0.2199 0.0003 0 0 0 0 0 0 0.9236 0.0764 0 0 0 0 0 0 0 0 1 0 0 0 0 0 0 0 0 0 1 0 0 0 0 0 0 0 0 0 1 0 0 0 0 0 0 0 0 0 1 0 0 0 0 0 0 0 0 0 1 0 0 0 0 0 0 0 0 0 1 0 0 0 0 0 0 0 0 0 1 0 0 0 0 0 0 0 0 0 1 0 0 0 0 0 0 0 0 0 1 0 0 0 0 0 0 0 0 0 0 0.0508 0.4122 0.4459 0.0911 0 0 0 0 0 0.2095 0.5853 0.2045 0.0007 0 0 0 0 0 0 0.9535 0.0465 0 0 0 0 0 0 0 0 1 0 0 0 0 0 0 0 0 0 1 0 0 0 0 0 0 0 0 0 1 0 0 0 0 0 0 0 0 0 1 0 0 0 0 0 0 0 0 0 1 0 0 0 0 0 0 0 0 0 1 0 0 0 0 0 0 0 0 0 1 0 0 0 0 0 0 0 0 0 1 0 0 0 0 0 0 0 0 0 0 0 0 0.1631 0.4967 0.327 0.0132 0 0 0 0 0.0863 0.4271 0.4025 0.08409999999999999 0 0 0 0 0 0.2816 0.5753 0.1431 0 0 0 0 0 0 0 0.9792999999999999 0.0207 0 0 0 0 0 0 0 0 1 0 0 0 0 0 0 0 0 0 1 0 0 0 0 0 0 0 0 0 1 0 0 0 0 0 0 0 0 0 1 0 0 0 0 0 0 0 0 0 1 0 0 0 0 0 0 0 0 0 1 0 0 0 0 0 0 0 0 0 1 0 0 0 0 0 0 0 0 0 0 0 0 0 0.0191 0.3355 0.5387999999999999 0.1066 0 0 0 0 0.0022 0.2014 0.5007 0.2839 0.0118 0 0 0 0 0.1281 0.4744 0.3501 0.0474 0 0 0 0 0 0.355 0.5422 0.1028 0 0 0 0 0 0 0 0.9949 0.0051 0 0 0 0 0 0 0 0 1 0 0 0 0 0 0 0 0 0 1 0 0 0 0 0 0 0 0 0 1 0 0 0 0 0 0 0 0 0 1 0 0 0 0 0 0 0 0 0 1 0 0 0 0 0 0 0 0 0 1 0 0 0 0 0 0 0 0 0 0 0 0 0 0 0 0.1439 0.6049 0.2512 0 0 0 0 0 0.0396 0.3699 0.4933 0.09719999999999999 0 0 0 0 0.0122 0.2538 0.5029 0.2293 0.0018 0 0 0 0 0.1862 0.4914 0.3004 0.022 0 0 0 0 0 0.4456 0.4967 0.0577 0 0 0 0 0 0 0 0.9998 0.0002 0 0 0 0 0 0 0 0 1 0 0 0 0 0 0 0 0 0 1 0 0 0 0 0 0 0 0 0 1 0 0 0 0 0 0 0 0 0 1 0 0 0 0 0 0 0 0 0 1 0 0 0 0 0 0 0 0 0 0 0 0 0 0 0 0 0.0416 0.5596 0.3988 0 0 0 0 0 0 0.1834 0.5794 0.2372 0 0 0 0 0 0.0683 0.4205 0.4513 0.0599 0 0 0 0 0.0321 0.3101 0.4897 0.1681 0 0 0 0 0 0.2443 0.5155999999999999 0.2318 0.0083 0 0 0 0 0 0.5291 0.4392 0.0317 0 0 0 0 0 0 0 1 0 0 0 0 0 0 0 0 0 1 0 0 0 0 0 0 0 0 0 1 0 0 0 0 0 0 0 0 0 1 0 0 0 0 0 0 0 0 0 1 0 0 0 0 0 0 0 0 0 0 0 0 0 0 0 0 0 0.0052 0.9948 0 0 0 0 0 0 0 0.0669 0.5738 0.3593 0 0 0 0 0 0.0007 0.2547 0.5719 0.1727 0 0 0 0 0 0.1109 0.4602 0.3957 0.0332 0 0 0 0 0.0592 0.3649 0.4547 0.1212 0 0 0 0 0.0028 0.3141 0.5059 0.1769 0.0003 0 0 0 0 0 0.6133 0.3742 0.0125 0 0 0 0 0 0 0 1 0 0 0 0 0 0 0 0 0 1 0 0 0 0 0 0 0 0 0 1 0 0 0 0 0 0 0 0 0 1 0 0 0 0 0 0 0 0 0 0 0 0 0 0 0 0 0 0 1 0 0 0 0 0 0 0 0 0.0179 0.9821 0 0 0 0 0 0 0 0.1074 0.6115 0.2811 0 0 0 0 0 0.0114 0.3078 0.5698 0.111 0 0 0 0 0 0.154 0.5119 0.3208 0.0133 0 0 0 0 0.0988 0.4172 0.4092 0.07480000000000001 0 0 0 0 0.0163 0.3844 0.4674 0.1319 0 0 0 0 0 0 0.6943 0.3035 0.0022 0 0 0 0 0 0 0 1 0 0 0 0 0 0 0 0 0 1 0 0 0 0 0 0 0 0 0 1 0 0 0 0 0 0 0 0 0 0 0 0 0 0 0 0 0 0 1 0 0 0 0 0 0 0 0 0 1 0 0 0 0 0 0 0 0 0.0471 0.9529 0 0 0 0 0 0 0 0.1659 0.6216 0.2125 0 0 0 0 0 0.0279 0.375 0.5219 0.0752 0 0 0 0 0.0021 0.2139 0.5189 0.2633 0.0018 0 0 0 0 0.1428 0.4556 0.357 0.0446 0 0 0 0 0.0377 0.4441 0.4323 0.0859 0 0 0 0 0 0 0.7708 0.2292 0 0 0 0 0 0 0 0 1 0 0 0 0 0 0 0 0 0 1 0 0 0 0 0 0 0 0 0 0 0 0 0 0 0 0 0 0 1 0 0 0 0 0 0 0 0 0 1 0 0 0 0 0 0 0 0 0 1 0 0 0 0 0 0 0 0 0.07290000000000001 0.9271 0 0 0 0 0 0 0 0.2179 0.6292 0.1529 0 0 0 0 0 0.0526 0.4367 0.4708 0.0399 0 0 0 0 0.0134 0.2673 0.5209 0.1984 0 0 0 0 0.0005 0.1959 0.4892 0.2919 0.0225 0 0 0 0 0.0687 0.5004999999999999 0.3786 0.0522 0 0 0 0 0 0 0.8270999999999999 0.1729 0 0 0 0 0 0 0 0 1 0 0 0 0 0 0 0 0 0</probabilities>
		</cpt>
		<cpt id="roll_pitch_deviation">
			<state id="State0" />
			<state id="State1" />
			<state id="State2" />
			<state id="State3" />
			<state id="State4" />
			<state id="State5" />
			<state id="State6" />
			<state id="State7" />
			<state id="State8" />
			<state id="State9" />
			<intervals>0 0.1 0.2 0.3 0.4 0.5 0.6 0.7 0.8 0.9 1</intervals>
			<parents>turbulence</parents>
			<probabilities>0.9651209274435338 0.02638416949830102 0.007495502698380971 0.0003997601439136518 9.994003597841295e-05 9.994003597841295e-05 9.994003597841295e-05 9.994003597841295e-05 9.994003597841295e-05 9.994003597841295e-05 0.8760619690154923 0.0847576211894053 0.03178410794602698 0.006096951524237881 0.00079960019990005 9.995002498750625e-05 9.995002498750625e-05 9.995002498750625e-05 9.995002498750625e-05 9.995002498750625e-05 0.7500999600159935 0.1280487804878049 0.08386645341863255 0.03058776489404238 0.006797281087564974 0.0001999200319872051 9.996001599360256e-05 9.996001599360256e-05 9.996001599360256e-05 9.996001599360256e-05 0.6172148355493352 0.1330600819754074 0.1244626612016395 0.08357492752174348 0.03498950314905528 0.005798260521843447 0.0005998200539838049 9.997000899730081e-05 9.997000899730081e-05 9.997000899730081e-05 0.5076984603079384 0.1145770845830834 0.1331733653269346 0.1214757048590282 0.08608278344331134 0.03039392121575685 0.00629874025194961 9.998000399920016e-05 9.998000399920016e-05 9.998000399920016e-05 0.4114588541145885 0.08769123087691232 0.1136886311368863 0.1335866413358664 0.1258874112588741 0.08749125087491251 0.0327967203279672 0.006799320067993201 0.0004999500049995 9.999000099990002e-05 0.3362 0.0759 0.0927 0.1113 0.1314 0.1298 0.0837 0.033 0.0058 0.0002 0.2765 0.0655 0.07630000000000001 0.09229999999999999 0.1093 0.1283 0.1321 0.08309999999999999 0.0313 0.0053 0.2353 0.055 0.0564 0.0733 0.0892 0.1126 0.1255 0.1305 0.08649999999999999 0.0357 0.1807 0.0434 0.051 0.06370000000000001 0.0772 0.0948 0.1147 0.1297 0.1269 0.1179</probabilities>
		</cpt>
		<cpt id="camera_noise">
			<state id="State0" />
			<state id="State1" />
			<intervals>0 0.5 1</intervals>
			<probabilities>0.4984 0.5016</probabilities>
		</cpt>
		<cpt id="number_of_filtered_away_points">
			<state id="State0" />
			<state id="State1" />
			<state id="State2" />
			<state id="State3" />
			<state id="State4" />
			<state id="State5" />
			<state id="State6" />
			<state id="State7" />
			<state id="State8" />
			<state id="State9" />
			<intervals>0 0.1 0.2 0.3 0.4 0.5 0.6 0.7 0.8 0.9 1</intervals>
			<parents>environment_observability camera_noise</parents>
			<probabilities>0.9597241655006996 0.03328003198081151 0.005596642014791126 0.0007995202878273036 9.994003597841295e-05 9.994003597841295e-05 9.994003597841295e-05 9.994003597841295e-05 9.994003597841295e-05 9.994003597841295e-05 0.0969 0.1061 0.1041 0.099 0.0997 0.097 0.1025 0.097 0.1011 0.09660000000000001 0.8783608195902048 0.08565717141429285 0.02968515742128935 0.005497251374312844 0.0002998500749625187 9.995002498750625e-05 9.995002498750625e-05 9.995002498750625e-05 9.995002498750625e-05 9.995002498750625e-05 0.1052 0.09660000000000001 0.1032 0.1037 0.104 0.09959999999999999 0.09370000000000001 0.0983 0.0982 0.0975 0.7520991603358657 0.1275489804078369 0.0817672930827669 0.03238704518192723 0.005197920831667333 0.0005997600959616154 9.996001599360256e-05 9.996001599360256e-05 9.996001599360256e-05 9.996001599360256e-05 0.104 0.1034 0.1026 0.1018 0.09810000000000001 0.09370000000000001 0.0987 0.1009 0.0989 0.0979 0.6194141757472759 0.1273617914625612 0.1307607717684695 0.08507447765670299 0.02919124262721184 0.006897930620813755 0.0009997000899730081 9.997000899730081e-05 9.997000899730081e-05 9.997000899730081e-05 0.1035 0.0994 0.104 0.1046 0.1001 0.1019 0.1017 0.0946 0.0958 0.0944 0.5141971605678864 0.1089782043591282 0.1295740851829634 0.1250749850029994 0.08468306338732254 0.03059388122375525 0.00629874025194961 0.0003999200159968006 9.998000399920016e-05 9.998000399920016e-05 0.09810000000000001 0.101 0.09569999999999999 0.106 0.1026 0.0985 0.1011 0.0984 0.1003 0.0983 0.4182 0.0856 0.1145 0.1292 0.1327 0.0839 0.0297 0.0058 0.0003 0.0001 0.1064 0.1001 0.1033 0.1017 0.0906 0.0994 0.0979 0.0974 0.1029 0.1003 0.3497 0.0781 0.0925 0.1037 0.1323 0.1246 0.0781 0.035 0.0056 0.0004 0.09950000000000001 0.0977 0.0983 0.0998 0.0994 0.1031 0.0978 0.0978 0.0998 0.1068 0.2851 0.0626 0.0738 0.095 0.1123 0.1316 0.1188 0.0815 0.0317 0.0076 0.0992 0.1057 0.1002 0.09710000000000001 0.1015 0.0953 0.1017 0.1044 0.1001 0.0948 0.2266 0.0516 0.0608 0.07389999999999999 0.0925 0.1158 0.1283 0.1258 0.0863 0.0384 0.1047 0.1003 0.1031 0.0983 0.1001 0.09719999999999999 0.1041 0.09810000000000001 0.098 0.0961 0.1866 0.0399 0.0506 0.0615 0.0767 0.0888 0.1052 0.1362 0.1272 0.1273 0.09950000000000001 0.1042 0.1 0.0978 0.1013 0.1024 0.101 0.0999 0.0998 0.0941</probabilities>
		</cpt>
		<cpt id="max_speed">
			<state id="State0" />
			<state id="State1" />
			<state id="State2" />
			<state id="State3" />
			<state id="State4" />
			<state id="State5" />
			<state id="State6" />
			<state id="State7" />
			<state id="State8" />
			<state id="State9" />
			<intervals>0.1 0.24 0.38 0.52 0.66 0.8 0.9399999999999999 1.08 1.22 1.36 1.5</intervals>
			<probabilities>0.0977 0.1023 0.09950000000000001 0.1012 0.0977 0.095 0.1012 0.1006 0.1044 0.1004</probabilities>
		</cpt>
		<cpt id="frequency_of_breaking_distance_exceeding_safety_margin">
			<state id="State0" />
			<state id="State1" />
			<state id="State2" />
			<state id="State3" />
			<state id="State4" />
			<state id="State5" />
			<state id="State6" />
			<state id="State7" />
			<state id="State8" />
			<state id="State9" />
			<intervals>0 0.005908012045062 0.01527158011626 0.03011183540944 0.053632054998 0.09090909090909 0.1499892113597 0.2436248920717 0.3920274450035 0.6272296408891 1</intervals>
			<parents>max_speed effective_safety_margin</parents>
			<probabilities>0.0031 0.183 0.323 0.3044 0.1557 0.0308 0 0 0 0 0.514 0.3691 0.1131 0.0038 0 0 0 0 0 0 0.9978 0.0022 0 0 0 0 0 0 0 0 1 0 0 0 0 0 0 0 0 0 1 0 0 0 0 0 0 0 0 0 1 0 0 0 0 0 0 0 0 0 1 0 0 0 0 0 0 0 0 0 1 0 0 0 0 0 0 0 0 0 1 0 0 0 0 0 0 0 0 0 1 0 0 0 0 0 0 0 0 0 1 0 0 0 0 0 0 0 0 0 0 0 0 0.0397 0.1619 0.2842 0.3023 0.172 0.0399 0 0 0.0939 0.2481 0.3275 0.222 0.1001 0.008399999999999999 0 0 0 0.3904 0.4143 0.1672 0.0281 0 0 0 0 0 0 0.981 0.019 0 0 0 0 0 0 0 0 1 0 0 0 0 0 0 0 0 0 1 0 0 0 0 0 0 0 0 0 1 0 0 0 0 0 0 0 0 0 1 0 0 0 0 0 0 0 0 0 1 0 0 0 0 0 0 0 0 0 1 0 0 0 0 0 0 0 0 0 1 0 0 0 0 0 0 0 0 0 0 0 0 0 0 0 0.0291 0.1583 0.3119 0.5007 0 0 0 0.0074 0.1029 0.2186 0.3121 0.2383 0.1134 0.0073 0 0.0456 0.1991 0.3023 0.2622 0.1567 0.0341 0 0 0 0.2671 0.4424 0.2264 0.064 0.0001 0 0 0 0 0 0.9462 0.0538 0 0 0 0 0 0 0 0 1 0 0 0 0 0 0 0 0 0 1 0 0 0 0 0 0 0 0 0 1 0 0 0 0 0 0 0 0 0 1 0 0 0 0 0 0 0 0 0 1 0 0 0 0 0 0 0 0 0 1 0 0 0 0 0 0 0 0 0 0 0 0 0 0 0 0 0 0 1 0 0 0 0 0 0 0.004 0.1017 0.2295 0.6647999999999999 0 0 0 0 0.0533 0.1688 0.2919 0.2882 0.1643 0.0335 0 0.0123 0.1389 0.2626 0.3132 0.1955 0.0764 0.0011 0 0 0.1799 0.4125 0.279 0.1178 0.0108 0 0 0 0 0 0.8873 0.1127 0 0 0 0 0 0 0 0 1 0 0 0 0 0 0 0 0 0 1 0 0 0 0 0 0 0 0 0 1 0 0 0 0 0 0 0 0 0 1 0 0 0 0 0 0 0 0 0 1 0 0 0 0 0 0 0 0 0 0 0 0 0 0 0 0 0 0 1 0 0 0 0 0 0 0 0 0 1 0 0 0 0 0 0 0 0.0482 0.1817 0.7701 0 0 0 0 0.016 0.1275 0.2514 0.3169 0.2141 0.0741 0 0.0011 0.08790000000000001 0.2216 0.3129 0.2361 0.1235 0.0169 0 0 0.1028 0.3621 0.3274 0.1657 0.042 0 0 0 0 0 0.8166 0.1791 0.0043 0 0 0 0 0 0 0 1 0 0 0 0 0 0 0 0 0 1 0 0 0 0 0 0 0 0 0 1 0 0 0 0 0 0 0 0 0 1 0 0 0 0 0 0 0 0 0 0 0 0 0 0 0 0 0 0 1 0 0 0 0 0 0 0 0 0 1 0 0 0 0 0 0 0 0 0 1 0 0 0 0 0 0 0 0.0157 0.1396 0.8447 0 0 0 0 0.0013 0.0788 0.2047 0.3221 0.2615 0.1316 0 0 0.0417 0.1679 0.274 0.2918 0.1751 0.0495 0 0 0.0543 0.2886 0.3474 0.2191 0.08790000000000001 0.0027 0 0 0 0 0.72 0.2515 0.0285 0 0 0 0 0 0 0 1 0 0 0 0 0 0 0 0 0 1 0 0 0 0 0 0 0 0 0 1 0 0 0 0 0 0 0 0 0 0 0 0 0 0 0 0 0 0 1 0 0 0 0 0 0 0 0 0 1 0 0 0 0 0 0 0 0 0 1 0 0 0 0 0 0 0 0 0 1 0 0 0 0 0 0 0 0.0014 0.0806 0.918 0 0 0 0 0 0.0375 0.1566 0.2779 0.3122 0.2158 0 0 0.0128 0.1219 0.2369 0.3093 0.2151 0.0994 0.0046 0 0.0164 0.2312 0.332 0.2621 0.1346 0.0237 0 0 0 0 0.6111 0.3222 0.0667 0 0 0 0 0 0 0 1 0 0 0 0 0 0 0 0 0 1 0 0 0 0 0 0 0 0 0 0 0 0 0 0 0 0 0 0 1 0 0 0 0 0 0 0 0 0 1 0 0 0 0 0 0 0 0 0 1 0 0 0 0 0 0 0 0 0 1 0 0 0 0 0 0 0 0 0 1 0 0 0 0 0 0 0 0 0.04 0.96 0 0 0 0 0 0.0086 0.1092 0.2338 0.3368 0.3116 0 0 0.0002 0.07190000000000001 0.1902 0.2943 0.2653 0.1488 0.0293 0 0.0016 0.1537 0.3005 0.3042 0.1811 0.0588 0.0001 0 0 0 0.495 0.3807 0.1176 0.0067 0 0 0 0 0 0 0.997 0.003 0 0 0 0 0 0 0 0 0 0 0 0 0 0 0 0 0 1 0 0 0 0 0 0 0 0 0 1 0 0 0 0 0 0 0 0 0 1 0 0 0 0 0 0 0 0 0 1 0 0 0 0 0 0 0 0 0 1 0 0 0 0 0 0 0 0 0 1 0 0 0 0 0 0 0 0 0.0097 0.9903 0 0 0 0 0 0 0.0556 0.19 0.3194 0.435 0 0 0 0.0283 0.1463 0.266 0.2959 0.1979 0.06560000000000001 0 0 0.092 0.2488 0.3189 0.2234 0.1069 0.01 0 0 0 0.361 0.4303 0.1763 0.0324 0 0 0 0 0 0 0 0 0 0 0 0 0 0 0 1 0 0 0 0 0 0 0 0 0 1 0 0 0 0 0 0 0 0 0 1 0 0 0 0 0 0 0 0 0 1 0 0 0 0 0 0 0 0 0 1 0 0 0 0 0 0 0 0 0 1 0 0 0 0 0 0 0 0 0 1 0 0 0 0 0 0 0 0 0 1 0 0 0 0 0 0 0.0203 0.1353 0.2728 0.5716 0 0 0 0.0064 0.093 0.2122 0.3113 0.2451 0.1244 0.0076 0 0.0395 0.1911 0.2998 0.2788 0.1508 0.04 0 0 0</probabilities>
		</cpt>
		<cpt id="frequency_of_motor_saturation_deviating_beyond_safety_margin">
			<state id="State0" />
			<state id="State1" />
			<state id="State2" />
			<state id="State3" />
			<state id="State4" />
			<state id="State5" />
			<state id="State6" />
			<state id="State7" />
			<state id="State8" />
			<state id="State9" />
			<intervals>0 0.005908012045062 0.01527158011626 0.03011183540944 0.053632054998 0.09090909090909 0.1499892113597 0.2436248920717 0.3920274450035 0.6272296408891 1</intervals>
			<parents>effective_safety_margin max_upwards_acceleration filtered_motor_use</parents>
			<probabilities>1 0 0 0 0 0 0 0 0 0 1 0 0 0 0 0 0 0 0 0 1 0 0 0 0 0 0 0 0 0 1 0 0 0 0 0 0 0 0 0 0.6213 0.3787 0 0 0 0 0 0 0 0 0 0.2743 0.5265 0.1992 0 0 0 0 0 0 0 0 0 0.281 0.4745 0.2445 0 0 0 0 0 0 0 0 0 0.2296 0.5011 0.2693 0 0 0 0 0 0 0 0 0 0.2379 0.5448 0.2173 0 0 0 0 0 0 0 0 0 1 1 0 0 0 0 0 0 0 0 0 1 0 0 0 0 0 0 0 0 0 1 0 0 0 0 0 0 0 0 0 1 0 0 0 0 0 0 0 0 0 0.3176 0.6325 0.0499 0 0 0 0 0 0 0 0 0.0288 0.485 0.441 0.0452 0 0 0 0 0 0 0 0 0.0317 0.4334 0.4591 0.07580000000000001 0 0 0 0 0 0 0 0 0.0132 0.408 0.5061 0.0727 0 0 0 0 0 0 0 0 0.0176 0.4576 0.5248 0 0 0 0 0 0 0 0 0 1 1 0 0 0 0 0 0 0 0 0 1 0 0 0 0 0 0 0 0 0 1 0 0 0 0 0 0 0 0 0 0.9692 0.0308 0 0 0 0 0 0 0 0 0.0424 0.6335 0.3241 0 0 0 0 0 0 0 0 0 0.2019 0.4746 0.3235 0 0 0 0 0 0 0 0 0 0.1573 0.4844 0.3574 0.0009 0 0 0 0 0 0 0 0 0.1318 0.5089 0.3593 0 0 0 0 0 0 0 0 0 0.1801 0.8199 0 0 0 0 0 0 0 0 0 1 1 0 0 0 0 0 0 0 0 0 1 0 0 0 0 0 0 0 0 0 1 0 0 0 0 0 0 0 0 0 0.7112000000000001 0.2888 0 0 0 0 0 0 0 0 0 0.3846 0.5094 0.106 0 0 0 0 0 0 0 0 0.0052 0.3737 0.4774 0.1437 0 0 0 0 0 0 0 0 0.0007 0.3357 0.4925 0.1711 0 0 0 0 0 0 0 0 0.0002 0.3411 0.5368000000000001 0.1219 0 0 0 0 0 0 0 0 0.0034 0.9966 0 0 0 0 0 0 0 0 0 1 1 0 0 0 0 0 0 0 0 0 1 0 0 0 0 0 0 0 0 0 1 0 0 0 0 0 0 0 0 0 0.4191 0.5702 0.0107 0 0 0 0 0 0 0 0 0.0878 0.5145 0.3891 0.0086 0 0 0 0 0 0 0 0 0.0929 0.4631 0.4193 0.0247 0 0 0 0 0 0 0 0 0.06 0.4717 0.4497 0.0186 0 0 0 0 0 0 0 0 0.06 0.5244 0.4156 0 0 0 0 0 0 0 0 0 1 0 0 0 0 0 0 0 0 0 1 1 0 0 0 0 0 0 0 0 0 1 0 0 0 0 0 0 0 0 0 1 0 0 0 0 0 0 0 0 0 1 0 0 0 0 0 0 0 0 0 0.6840000000000001 0.316 0 0 0 0 0 0 0 0 0 0.3481 0.5327 0.1192 0 0 0 0 0 0 0 0 0.0033 0.3729 0.4775 0.1463 0 0 0 0 0 0 0 0 0.0004 0.34 0.4954 0.1642 0 0 0 0 0 0 0 0 0.0004 0.3568 0.5392 0.1036 0 0 0 0 0 0 0 0 0.008200000000000001 0.9918 1 0 0 0 0 0 0 0 0 0 1 0 0 0 0 0 0 0 0 0 1 0 0 0 0 0 0 0 0 0 1 0 0 0 0 0 0 0 0 0 0.3814 0.6041 0.0145 0 0 0 0 0 0 0 0 0.0693 0.5094 0.4123 0.008999999999999999 0 0 0 0 0 0 0 0 0.0863 0.4719 0.4191 0.0227 0 0 0 0 0 0 0 0 0.0597 0.477 0.4475 0.0158 0 0 0 0 0 0 0 0 0.0746 0.5202 0.4052 0 0 0 0 0 0 0 0 0 1 1 0 0 0 0 0 0 0 0 0 1 0 0 0 0 0 0 0 0 0 1 0 0 0 0 0 0 0 0 0 0.9906 0.0094 0 0 0 0 0 0 0 0 0.0925 0.6654 0.2421 0 0 0 0 0 0 0 0 0 0.2832 0.4978 0.219 0 0 0 0 0 0 0 0 0 0.2471 0.4924 0.2605 0 0 0 0 0 0 0 0 0 0.2458 0.5184 0.2358 0 0 0 0 0 0 0 0 0 0.3043 0.6957 0 0 0 0 0 0 0 0 0 1 1 0 0 0 0 0 0 0 0 0 1 0 0 0 0 0 0 0 0 0 1 0 0 0 0 0 0 0 0 0 0.783 0.217 0 0 0 0 0 0 0 0 0 0.4582 0.4977 0.0441 0 0 0 0 0 0 0 0 0.0314 0.448 0.4576 0.063 0 0 0 0 0 0 0 0 0.0204 0.4209 0.4806 0.0781 0 0 0 0 0 0 0 0 0.0163 0.4518 0.4921 0.0398 0 0 0 0 0 0 0 0 0.0452 0.9548 0 0 0 0 0 0 0 0 0 1 1 0 0 0 0 0 0 0 0 0 1 0 0 0 0 0 0 0 0 0 1 0 0 0 0 0 0 0 0 0 0.4811 0.5185999999999999 0.0003 0 0 0 0 0 0 0 0 0.1509 0.5396 0.3092 0.0003 0 0 0 0 0 0 0 0 0.1749 0.4811 0.3425 0.0015 0 0 0 0 0 0 0 0 0.1446 0.5021 0.3526 0.0007 0 0 0 0 0 0 0 0 0.1551 0.5528 0.2921 0 0 0 0 0 0 0 0 0 1 0 0 0 0 0 0 0 0 0 1 1 0 0 0 0 0 0 0 0 0 1 0 0 0 0 0 0 0 0 0 1 0 0 0 0 0 0 0 0 0 1 0 0 0 0 0 0 0 0 0 0.772 0.228 0 0 0 0 0 0 0 0 0 0.4559 0.5011 0.043 0 0 0 0 0 0 0 0 0.0338 0.4504 0.4624 0.0534 0 0 0 0 0 0 0 0 0.0273 0.4403 0.4764 0.056 0 0 0 0 0 0 0 0 0.0282 0.4721 0.4802 0.0195 0 0 0 0 0 0 0 0 0.0713 0.9287 1 0 0 0 0 0 0 0 0 0 1 0 0 0 0 0 0 0 0 0 1 0 0 0 0 0 0 0 0 0 1 0 0 0 0 0 0 0 0 0 0.4679 0.5313 0.0008 0 0 0 0 0 0 0 0 0.1485 0.5459000000000001 0.3053 0.0003 0 0 0 0 0 0 0 0 0.185 0.4927 0.3219 0.0004 0 0 0 0 0 0 0 0 0.1657 0.5112 0.3231 0 0 0 0 0 0 0 0 0 0.201 0.5548999999999999 0.2441 0 0 0 0 0 0 0 0 0 1 1 0 0 0 0 0 0 0 0 0 1 0 0 0 0 0 0 0 0 0 1 0 0 0 0 0 0 0 0 0 0.9999 0.0001 0 0 0 0 0 0 0 0 0.1722 0.6774 0.1504 0 0 0 0 0 0 0 0 0.0005999999999999999 0.3896 0.4929 0.1169 0 0 0 0 0 0 0 0 0.0037 0.3683 0.491 0.137 0 0 0 0 0 0 0 0 0.002 0.3756 0.5132 0.1092 0 0 0 0 0 0 0 0 0.0068 0.4396 0.5536 0 0 0 0 0 0 0 0 0 1 1 0 0 0 0 0 0 0 0 0 1 0 0 0 0 0 0 0 0 0 1 0 0 0 0 0 0 0 0 0 0.866 0.134 0 0 0 0 0 0 0 0 0.0012 0.5512 0.4383 0.009299999999999999 0 0 0 0 0 0 0 0 0.09429999999999999 0.4856 0.406 0.0141 0 0 0 0 0 0 0 0 0.09080000000000001 0.4765 0.4215 0.0112 0 0 0 0 0 0 0 0 0.0844 0.5143 0.3995 0.0018 0 0 0 0 0 0 0 0 0.1524 0.8476 0 0 0 0 0 0 0 0 0 1 1 0 0 0 0 0 0 0 0 0 1 0 0 0 0 0 0 0 0 0 1 0 0 0 0 0 0 0 0 0 0.5573 0.4427 0 0 0 0 0 0 0 0 0 0.2494 0.5364 0.2142 0 0 0 0 0 0 0 0 0 0.2932 0.4788 0.228 0 0 0 0 0 0 0 0 0 0.2668 0.5158 0.2174 0 0 0 0 0 0 0 0 0 0.3068 0.549 0.1442 0 0 0 0 0 0 0 0 0.0024 0.9976 0 0 0 0 0 0 0 0 0 1 1 0 0 0 0 0 0 0 0 0 1 0 0 0 0 0 0 0 0 0 1 0 0 0 0 0 0 0 0 0 1 0 0 0 0 0 0 0 0 0 0.8594000000000001 0.1406 0 0 0 0 0 0 0 0 0.0019 0.5591 0.4341 0.0049 0 0 0 0 0 0 0 0 0.1129 0.4948 0.3861 0.0062 0 0 0 0 0 0 0 0 0.1135 0.4961 0.3862 0.0042 0 0 0 0 0 0 0 0 0.1344 0.5266999999999999 0.3389 0 0 0 0 0 0 0 0 0 0.2256 0.7744 1 0 0 0 0 0 0 0 0 0 1 0 0 0 0 0 0 0 0 0 1 0 0 0 0 0 0 0 0 0 1 0 0 0 0 0 0 0 0 0 0.5697 0.4303 0 0 0 0 0 0 0 0 0 0.2612 0.5433 0.1955 0 0 0 0 0 0 0 0 0 0.3134 0.4927 0.1939 0 0 0 0 0 0 0 0 0.0001 0.3089 0.5221 0.1689 0 0 0 0 0 0 0 0 0.0009 0.3603 0.5524 0.0864 0 0 0 0 0 0 0 0 0.0127 0.9873 1 0 0 0 0 0 0 0 0 0 1 0 0 0 0 0 0 0 0 0 1 0 0 0 0 0 0 0 0 0 1 0 0 0 0 0 0 0 0 0 0.2629 0.6683 0.0688 0 0 0 0 0 0 0 0 0.0218 0.4851 0.4599 0.0332 0 0 0 0 0 0 0 0 0.0472 0.4556 0.4611 0.0361 0 0 0 0 0 0 0 0 0.0425 0.4833 0.4563 0.0179 0 0 0 0 0 0 0 0 0.0796 0.5461 0.3743 0 0 0 0 0 0 0 0 0 1 1 0 0 0 0 0 0 0 0 0 1 0 0 0 0 0 0 0 0 0 1 0 0 0 0 0 0 0 0 0 0.9409 0.0591 0 0 0 0 0 0 0 0 0.0206 0.6431 0.3363 0 0 0 0 0 0 0 0 0 0.2081 0.5024999999999999 0.2894 0 0 0 0 0 0 0 0 0 0.2092 0.4975 0.2933 0 0 0 0 0 0 0 0 0 0.2305 0.5326 0.2369 0 0 0 0 0 0 0 0 0 0.3204 0.6796 0 0 0 0 0 0 0 0 0 1 1 0 0 0 0 0 0 0 0 0 1 0 0 0 0 0 0 0 0 0 1 0 0 0 0 0 0 0 0 0 0.6564 0.3436 0 0 0 0 0 0 0 0 0 0.3613 0.5417999999999999 0.0969 0 0 0 0 0 0 0 0 0.008 0.4005 0.4943 0.09719999999999999 0 0 0 0 0 0 0 0 0.0081 0.4051 0.5014999999999999 0.0853 0 0 0 0 0 0 0 0 0.0137 0.4497 0.5052 0.0314 0 0 0 0 0 0 0 0 0.0583 0.9417 0 0 0 0 0 0 0 0 0 1 1 0 0 0 0 0 0 0 0 0 1 0 0 0 0 0 0 0 0 0 1 0 0 0 0 0 0 0 0 0 1 0 0 0 0 0 0 0 0 0 0.9465 0.0535 0 0 0 0 0 0 0 0 0.0288 0.6521 0.3191 0 0 0 0 0 0 0 0 0 0.2451 0.5202 0.2347 0 0 0 0 0 0 0 0 0 0.2725 0.5135 0.214 0 0 0 0 0 0 0 0 0 0.31 0.5402 0.1498 0 0 0 0 0 0 0 0 0.0027 0.4235 0.5738 1 0 0 0 0 0 0 0 0 0 1 0 0 0 0 0 0 0 0 0 1 0 0 0 0 0 0 0 0 0 1 0 0 0 0 0 0 0 0 0 0.675 0.325 0 0 0 0 0 0 0 0 0 0.3846 0.5419 0.0735 0 0 0 0 0 0 0 0 0.0198 0.4473 0.4741 0.0588 0 0 0 0 0 0 0 0 0.0279 0.4554 0.4767 0.04 0 0 0 0 0 0 0 0 0.0443 0.5083 0.4408 0.0066 0 0 0 0 0 0 0 0 0.1327 0.8673 1 0 0 0 0 0 0 0 0 0 1 0 0 0 0 0 0 0 0 0 1 0 0 0 0 0 0 0 0 0 1 0 0 0 0 0 0 0 0 0 0.375 0.616 0.008999999999999999 0 0 0 0 0 0 0 0 0.0946 0.553 0.3511 0.0013 0 0 0 0 0 0 0 0 0.1669 0.515 0.3172 0.0009 0 0 0 0 0 0 0 0 0.1792 0.5321 0.2887 0 0 0 0 0 0 0 0 0 0.255 0.5752 0.1698 0 0 0 0 0 0 0 0 0.0026 0.9974 1 0 0 0 0 0 0 0 0 0 1 0 0 0 0 0 0 0 0 0 1 0 0 0 0 0 0 0 0 0 0.9881 0.0119 0 0 0 0 0 0 0 0 0.0915 0.6987 0.2098 0 0 0 0 0 0 0 0 0 0.3365 0.5212 0.1423 0 0 0 0 0 0 0 0 0.0029 0.3681 0.5032 0.1258 0 0 0 0 0 0 0 0 0.006 0.4016 0.5199 0.0725 0 0 0 0 0 0 0 0 0.0246 0.5009 0.4745 0 0 0 0 0 0 0 0 0 1 1 0 0 0 0 0 0 0 0 0 1 0 0 0 0 0 0 0 0 0 1 0 0 0 0 0 0 0 0 0 0.7816 0.2184 0 0 0 0 0 0 0 0 0 0.4942 0.4857 0.0201 0 0 0 0 0 0 0 0 0.06569999999999999 0.4901 0.4291 0.0151 0 0 0 0 0 0 0 0 0.0859 0.4914 0.4133 0.0094 0 0 0 0 0 0 0 0 0.1174 0.545 0.3376 0 0 0 0 0 0 0 0 0 0.2286 0.7714 0 0 0 0 0 0 0 0 0 1 1 0 0 0 0 0 0 0 0 0 1 0 0 0 0 0 0 0 0 0 1 0 0 0 0 0 0 0 0 0 1 0 0 0 0 0 0 0 0 0 0.9947 0.0053 0 0 0 0 0 0 0 0 0.1198 0.7199 0.1603 0 0 0 0 0 0 0 0 0.0022 0.418 0.5069 0.07290000000000001 0 0 0 0 0 0 0 0 0.0233 0.4419 0.4838 0.051 0 0 0 0 0 0 0 0 0.0384 0.4823 0.4645 0.0148 0 0 0 0 0 0 0 0 0.1028 0.5755 0.3217 1 0 0 0 0 0 0 0 0 0 1 0 0 0 0 0 0 0 0 0 1 0 0 0 0 0 0 0 0 0 1 0 0 0 0 0 0 0 0 0 0.8100000000000001 0.19 0 0 0 0 0 0 0 0 0.0004 0.5472 0.4459 0.0065 0 0 0 0 0 0 0 0 0.1245 0.5172 0.3562 0.0021 0 0 0 0 0 0 0 0 0.1645 0.5192 0.3162 0.0001 0 0 0 0 0 0 0 0 0.2298 0.5622 0.208 0 0 0 0 0 0 0 0 0.0009 0.3672 0.6319 1 0 0 0 0 0 0 0 0 0 1 0 0 0 0 0 0 0 0 0 1 0 0 0 0 0 0 0 0 0 1 0 0 0 0 0 0 0 0 0 0.5165999999999999 0.4834 0 0 0 0 0 0 0 0 0 0.2414 0.5755 0.1831 0 0 0 0 0 0 0 0 0.0004 0.3542 0.51 0.1354 0 0 0 0 0 0 0 0 0.0044 0.3889 0.521 0.0857 0 0 0 0 0 0 0 0 0.0187 0.4787 0.4855 0.0171 0 0 0 0 0 0 0 0 0.0941 0.9059 1 0 0 0 0 0 0 0 0 0 1 0 0 0 0 0 0 0 0 0 1 0 0 0 0 0 0 0 0 0 1 0 0 0 0 0 0 0 0 0 0.2164 0.7118 0.0718 0 0 0 0 0 0 0 0 0.0181 0.4897 0.4667 0.0255 0 0 0 0 0 0 0 0 0.0674 0.4877 0.4293 0.0156 0 0 0 0 0 0 0 0 0.1056 0.5229 0.3698 0.0017 0 0 0 0 0 0 0 0 0.1959 0.5777 0.2264 0 0 0 0 0 0 0 0 0.001 0.999 1 0 0 0 0 0 0 0 0 0 1 0 0 0 0 0 0 0 0 0 1 0 0 0 0 0 0 0 0 0 0.9052 0.0948 0 0 0 0 0 0 0 0 0.0117 0.6301 0.3582 0 0 0 0 0 0 0 0 0 0.2155 0.5238 0.2607 0 0 0 0 0 0 0 0 0 0.2627 0.5215 0.2158 0 0 0 0 0 0 0 0 0.0005 0.3246 0.5527 0.1222 0 0 0 0 0 0 0 0 0.0113 0.4564 0.5323 0 0 0 0 0 0 0 0 0 1 1 0 0 0 0 0 0 0 0 0 1 0 0 0 0 0 0 0 0 0 1 0 0 0 0 0 0 0 0 0 1 0 0 0 0 0 0 0 0 0 1 0 0 0 0 0 0 0 0 0 0.2942 0.6813 0.0245 0 0 0 0 0 0 0 0 0.06619999999999999 0.5661 0.3647 0.003 0 0 0 0 0 0 0 0 0.1795 0.5385 0.282 0 0 0 0 0 0 0 0 0 0.2575 0.5489000000000001 0.1936 0 0 0 0 0 0 0 0 0.0024 0.3964 0.546 0.0552 1 0 0 0 0 0 0 0 0 0 1 0 0 0 0 0 0 0 0 0 1 0 0 0 0 0 0 0 0 0 1 0 0 0 0 0 0 0 0 0 0.9583 0.0417 0 0 0 0 0 0 0 0 0.0425 0.7029 0.2546 0 0 0 0 0 0 0 0 0 0.3349 0.5354 0.1297 0 0 0 0 0 0 0 0 0.01 0.3984 0.5139 0.07770000000000001 0 0 0 0 0 0 0 0 0.031 0.4877 0.4628 0.0185 0 0 0 0 0 0 0 0 0.1091 0.5955 0.2954 1 0 0 0 0 0 0 0 0 0 1 0 0 0 0 0 0 0 0 0 1 0 0 0 0 0 0 0 0 0 1 0 0 0 0 0 0 0 0 0 0.6927 0.3073 0 0 0 0 0 0 0 0 0 0.4474 0.5234 0.0292 0 0 0 0 0 0 0 0 0.0649 0.5199 0.4022 0.013 0 0 0 0 0 0 0 0 0.124 0.5356 0.3388 0.0016 0 0 0 0 0 0 0 0 0.2105 0.5802 0.2093 0 0 0 0 0 0 0 0 0.0022 0.3952 0.6026 1 0 0 0 0 0 0 0 0 0 1 0 0 0 0 0 0 0 0 0 1 0 0 0 0 0 0 0 0 0 1 0 0 0 0 0 0 0 0 0 0.4001 0.5956 0.0043 0 0 0 0 0 0 0 0 0.1443 0.5933 0.2624 0 0 0 0 0 0 0 0 0 0.2864 0.5291 0.1845 0 0 0 0 0 0 0 0 0.0034 0.3495 0.5411 0.106 0 0 0 0 0 0 0 0 0.0222 0.4801 0.4781 0.0196 0 0 0 0 0 0 0 0 0.1166 0.8834 1 0 0 0 0 0 0 0 0 0 1 0 0 0 0 0 0 0 0 0 1 0 0 0 0 0 0 0 0 0 0.9901 0.009900000000000001 0 0 0 0 0 0 0 0 0.1014 0.7431 0.1555 0 0 0 0 0 0 0 0 0.0035 0.4369 0.5034 0.0562 0 0 0 0 0 0 0 0 0.0387 0.476 0.4562 0.0291 0 0 0 0 0 0 0 0 0.0829 0.533 0.3812 0.0029 0 0 0 0 0 0 0 0 0.1916 0.6096 0.1988 0 0 0 0 0 0 0 0 0.0033 0.9967 1 0 0 0 0 0 0 0 0 0 1 0 0 0 0 0 0 0 0 0 1 0 0 0 0 0 0 0 0 0 1 0 0 0 0 0 0 0 0 0 1 0 0 0 0 0 0 0 0 0 0.5429 0.4571 0 0 0 0 0 0 0 0 0 0.3167 0.5913 0.092 0 0 0 0 0 0 0 0 0.0303 0.4763 0.4613 0.0321 0 0 0 0 0 0 0 0 0.0939 0.5274 0.3731 0.0056 0 0 0 0 0 0 0 0 0.2162 0.5837 0.2001 0 1 0 0 0 0 0 0 0 0 0 1 0 0 0 0 0 0 0 0 0 1 0 0 0 0 0 0 0 0 0 1 0 0 0 0 0 0 0 0 0 0.9997 0.0003 0 0 0 0 0 0 0 0 0.2422 0.7127 0.0451 0 0 0 0 0 0 0 0 0.0612 0.5698 0.3659 0.0031 0 0 0 0 0 0 0 0 0.2157 0.5461 0.2382 0 0 0 0 0 0 0 0 0.0039 0.3231 0.55 0.123 0 0 0 0 0 0 0 0 0.0289 0.4778 0.4711 0.0222 1 0 0 0 0 0 0 0 0 0 1 0 0 0 0 0 0 0 0 0 1 0 0 0 0 0 0 0 0 0 1 0 0 0 0 0 0 0 0 0 0.913 0.08699999999999999 0 0 0 0 0 0 0 0 0.0233 0.6964 0.2803 0 0 0 0 0 0 0 0 0.0001 0.3379 0.5436 0.1184 0 0 0 0 0 0 0 0 0.0213 0.4315 0.4956 0.0516 0 0 0 0 0 0 0 0 0.07480000000000001 0.5324 0.3867 0.0061 0 0 0 0 0 0 0 0 0.2155 0.6074000000000001 0.1771 1 0 0 0 0 0 0 0 0 0 1 0 0 0 0 0 0 0 0 0 1 0 0 0 0 0 0 0 0 0 1 0 0 0 0 0 0 0 0 0 0.6364 0.3636 0 0 0 0 0 0 0 0 0 0.4159 0.5442 0.0399 0 0 0 0 0 0 0 0 0.075 0.5351 0.3814 0.008500000000000001 0 0 0 0 0 0 0 0 0.1689 0.5521 0.2784 0.0005999999999999999 0 0 0 0 0 0 0 0.0015 0.3083 0.5648 0.1254 0 0 0 0 0 0 0 0 0.0328 0.5027 0.4645 1 0 0 0 0 0 0 0 0 0 1 0 0 0 0 0 0 0 0 0 1 0 0 0 0 0 0 0 0 0 1 0 0 0 0 0 0 0 0 0 0.3378 0.6497000000000001 0.0125 0 0 0 0 0 0 0 0 0.1333 0.5994 0.2673 0 0 0 0 0 0 0 0 0.0007 0.3068 0.5383 0.1542 0 0 0 0 0 0 0 0 0.0155 0.4167 0.509 0.0588 0 0 0 0 0 0 0 0 0.0697 0.5374 0.3885 0.0044 0 0 0 0 0 0 0 0 0.2437 0.7563 1 0 0 0 0 0 0 0 0 0 1 0 0 0 0 0 0 0 0 0 1 0 0 0 0 0 0 0 0 0 1 0 0 0 0 0 0 0 0 0 1 0 0 0 0 0 0 0 0 0 0.8873 0.1127 0 0 0 0 0 0 0 0 0.0421 0.699 0.2589 0 0 0 0 0 0 0 0 0.0091 0.4061 0.5038 0.081 0 0 0 0 0 0 0 0 0.0946 0.5092 0.3748 0.0214 0 0 0 0 0 0 0 0.0029 0.2247 0.5508 0.2212 0.0004 0 1 0 0 0 0 0 0 0 0 0 1 0 0 0 0 0 0 0 0 0 1 0 0 0 0 0 0 0 0 0 1 0 0 0 0 0 0 0 0 0 1 0 0 0 0 0 0 0 0 0 0.6284999999999999 0.3715 0 0 0 0 0 0 0 0 0.0002 0.4573 0.5071 0.0354 0 0 0 0 0 0 0 0 0.1516 0.5567 0.2877 0.004 0 0 0 0 0 0 0 0.0094 0.3022 0.5399 0.1485 0 0 0 0 0 0 0 0 0.06519999999999999 0.4583 0.4375 0.039 0 1 0 0 0 0 0 0 0 0 0 1 0 0 0 0 0 0 0 0 0 1 0 0 0 0 0 0 0 0 0 1 0 0 0 0 0 0 0 0 0 0.9998 0.0002 0 0 0 0 0 0 0 0 0.3317 0.6492 0.0191 0 0 0 0 0 0 0 0 0.1757 0.619 0.2053 0 0 0 0 0 0 0 0 0.0217 0.3905 0.4959 0.0919 0 0 0 0 0 0 0 0 0.1 0.499 0.3792 0.0218 0 0 0 0 0 0 0 0.0043 0.2407 0.5663 0.1887 0 1 0 0 0 0 0 0 0 0 0 1 0 0 0 0 0 0 0 0 0 1 0 0 0 0 0 0 0 0 0 1 0 0 0 0 0 0 0 0 0 0.9413 0.0587 0 0 0 0 0 0 0 0 0.0864 0.7469 0.1667 0 0 0 0 0 0 0 0 0.027 0.4844 0.4506 0.038 0 0 0 0 0 0 0 0 0.1603 0.5382 0.2926 0.0089 0 0 0 0 0 0 0 0.0092 0.309 0.5328000000000001 0.149 0 0 0 0 0 0 0 0 0.0747 0.4786 0.4196 0.0271 1 0 0 0 0 0 0 0 0 0 1 0 0 0 0 0 0 0 0 0 1 0 0 0 0 0 0 0 0 0 1 0 0 0 0 0 0 0 0 0 0.7219 0.2781 0 0 0 0 0 0 0 0 0.004 0.5508 0.4343 0.0109 0 0 0 0 0 0 0 0 0.2261 0.5691000000000001 0.2046 0.0002 0 0 0 0 0 0 0 0.0257 0.3885 0.4885 0.0973 0 0 0 0 0 0 0 0 0.108 0.511 0.3635 0.0175 0 0 0 0 0 0 0 0.0052 0.271 0.5727 0.1511 1 0 0 0 0 0 0 0 0 0 1 0 0 0 0 0 0 0 0 0 1 0 0 0 0 0 0 0 0 0 1 0 0 0 0 0 0 0 0 0 1 0 0 0 0 0 0 0 0 0 1 0 0 0 0 0 0 0 0 0 0.7067 0.2932 0.0001 0 0 0 0 0 0 0 0.166 0.4854 0.3177 0.0309 0 0 0 0 0 0 0.0038 0.1684 0.3085 0.3765 0.1419 0.0009 0 0 0 0 0 0.0113 0.1128 0.204 0.3241 0.2931 0.0547 0 0 0 1 0 0 0 0 0 0 0 0 0 1 0 0 0 0 0 0 0 0 0 1 0 0 0 0 0 0 0 0 0 1 0 0 0 0 0 0 0 0 0 1 0 0 0 0 0 0 0 0 0 0.9919 0.0081 0 0 0 0 0 0 0 0 0.4989 0.4698 0.0313 0 0 0 0 0 0 0 0.0864 0.3618 0.4227 0.1291 0 0 0 0 0 0 0.0004 0.09619999999999999 0.2325 0.3533 0.2815 0.0361 0 0 0 0 0 0.0011 0.07049999999999999 0.1579 0.2584 0.351 0.1592 0.0019 0 0 1 0 0 0 0 0 0 0 0 0 1 0 0 0 0 0 0 0 0 0 1 0 0 0 0 0 0 0 0 0 1 0 0 0 0 0 0 0 0 0 1 0 0 0 0 0 0 0 0 0 0.9118000000000001 0.0882 0 0 0 0 0 0 0 0 0.3332 0.539 0.1278 0 0 0 0 0 0 0 0.0387 0.2685 0.4108 0.2619 0.0201 0 0 0 0 0 0 0.0512 0.176 0.2832 0.3517 0.137 0.0009 0 0 0 0 0 0.0308 0.125 0.2049 0.3214 0.2798 0.0381 0 0 1 0 0 0 0 0 0 0 0 0 1 0 0 0 0 0 0 0 0 0 1 0 0 0 0 0 0 0 0 0 1 0 0 0 0 0 0 0 0 0 1 0 0 0 0 0 0 0 0 0 0.7609 0.2391 0 0 0 0 0 0 0 0 0.1947 0.5123 0.2821 0.0109 0 0 0 0 0 0 0.0119 0.1964 0.3215 0.3567 0.1135 0 0 0 0 0 0 0.0172 0.1255 0.2258 0.3444 0.2545 0.0326 0 0 0 0 0 0.01 0.091 0.1574 0.2707 0.3357 0.135 0.0002 0 1 0 0 0 0 0 0 0 0 0 1 0 0 0 0 0 0 0 0 0 1 0 0 0 0 0 0 0 0 0 1 0 0 0 0 0 0 0 0 0 0.9985000000000001 0.0015 0 0 0 0 0 0 0 0 0.5692 0.4214 0.0094 0 0 0 0 0 0 0 0.1123 0.3956 0.4075 0.08459999999999999 0 0 0 0 0 0 0.0015 0.1121 0.2587 0.3781 0.2314 0.0182 0 0 0 0 0 0.0031 0.0856 0.1795 0.2732 0.3339 0.1247 0 0 0 0 0 0.0014 0.0516 0.1296 0.214 0.3258 0.2522 0.0254 0 1 0 0 0 0 0 0 0 0 0 1 0 0 0 0 0 0 0 0 0 1 0 0 0 0 0 0 0 0 0 1 0 0 0 0 0 0 0 0 0 1 0 0 0 0 0 0 0 0 0 1 0 0 0 0 0 0 0 0 0 1 0 0 0 0 0 0 0 0 0 1 0 0 0 0 0 0 0 0 0 0.973 0.027 0 0 0 0 0 0 0 0 0.9089 0.0742 0.0169 0 0 0 0 0 0 0 1 0 0 0 0 0 0 0 0 0 1 0 0 0 0 0 0 0 0 0 1 0 0 0 0 0 0 0 0 0 1 0 0 0 0 0 0 0 0 0 1 0 0 0 0 0 0 0 0 0 1 0 0 0 0 0 0 0 0 0 1 0 0 0 0 0 0 0 0 0 0.9996 0.0004 0 0 0 0 0 0 0 0 0.9553 0.0447 0 0 0 0 0 0 0 0 0.8969 0.06569999999999999 0.0373 0.0001 0 0 0 0 0 0 1 0 0 0 0 0 0 0 0 0 1 0 0 0 0 0 0 0 0 0 1 0 0 0 0 0 0 0 0 0 1 0 0 0 0 0 0 0 0 0 1 0 0 0 0 0 0 0 0 0 1 0 0 0 0 0 0 0 0 0 1 0 0 0 0 0 0 0 0 0 0.9951 0.0049 0 0 0 0 0 0 0 0 0.9351 0.0629 0.002 0 0 0 0 0 0 0 0.893 0.0523 0.05 0.0047 0 0 0 0 0 0 1 0 0 0 0 0 0 0 0 0 1 0 0 0 0 0 0 0 0 0 1 0 0 0 0 0 0 0 0 0 1 0 0 0 0 0 0 0 0 0 1 0 0 0 0 0 0 0 0 0 1 0 0 0 0 0 0 0 0 0 1 0 0 0 0 0 0 0 0 0 0.9814000000000001 0.0186 0 0 0 0 0 0 0 0 0.9222 0.0674 0.0104 0 0 0 0 0 0 0 0.8891 0.0394 0.0559 0.0156 0 0 0 0 0 0 1 0 0 0 0 0 0 0 0 0 1 0 0 0 0 0 0 0 0 0 1 0 0 0 0 0 0 0 0 0 1 0 0 0 0 0 0 0 0 0 1 0 0 0 0 0 0 0 0 0 1 0 0 0 0 0 0 0 0 0 1 0 0 0 0 0 0 0 0 0 0.962 0.038 0 0 0 0 0 0 0 0 0.9046999999999999 0.0699 0.0254 0 0 0 0 0 0 0 0.885 0.0308 0.0554 0.0287 0.0001 0 0 0 0 0</probabilities>
		</cpt>
		<cpt id="frequency_of_loss_of_control_due_to_turbulence">
			<state id="State0" />
			<state id="State1" />
			<state id="State2" />
			<state id="State3" />
			<state id="State4" />
			<state id="State5" />
			<state id="State6" />
			<state id="State7" />
			<state id="State8" />
			<state id="State9" />
			<intervals>0 0.005908012045062 0.01527158011626 0.03011183540944 0.053632054998 0.09090909090909 0.1499892113597 0.2436248920717 0.3920274450035 0.6272296408891 1</intervals>
			<parents>turbulence</parents>
			<probabilities>1 0 0 0 0 0 0 0 0 0 1 0 0 0 0 0 0 0 0 0 1 0 0 0 0 0 0 0 0 0 1 0 0 0 0 0 0 0 0 0 1 0 0 0 0 0 0 0 0 0 1 0 0 0 0 0 0 0 0 0 1 0 0 0 0 0 0 0 0 0 0.8957000000000001 0.1043 0 0 0 0 0 0 0 0 0 0.4078 0.3811 0.2111 0 0 0 0 0 0 0 0 0 0.148 0.3281 0.32 0.2039 0 0 0</probabilities>
		</cpt>
	</nodes>
	<extensions>
		<genie version="1.0" app="GeNIe 4.0.1922.0 ACADEMIC" name="Network2">
			<node id="turbulence_t_1">
				<name>turbulence t-1</name>
				<interior color="e5f6f7" />
				<outline color="000080" />
				<font color="000000" name="Arial" size="8" />
				<position>851 630 915 670</position>
				<barchart active="true" width="128" height="198" />
			</node>
			<node id="height_over_ground">
				<name>height over ground</name>
				<interior color="339966" />
				<outline color="003300" />
				<font color="000000" name="Arial" size="8" />
				<position>427 1030 522 1089</position>
				<barchart active="true" width="128" height="198" />
			</node>
			<node id="mean_motor">
				<name>mean motor</name>
				<interior color="339966" />
				<outline color="003300" />
				<font color="000000" name="Arial" size="8" />
				<position>78 778 181 828</position>
				<comment>m p forhnd filtrere ut alle kjente faktorer, slik som joystick input</comment>
				<barchart active="true" width="128" height="216" />
			</node>
			<node id="safety_margin">
				<name>safety margin</name>
				<interior color="33cccd" />
				<outline color="003366" />
				<font color="000000" name="Arial" size="8" />
				<position>690 642 768 690</position>
				<comment>0 - maximum margin\n1 - minimum margin</comment>
				<barchart active="true" width="128" height="198" />
			</node>
			<node id="frequency_of_loss_of_control_due_to_motor_wear">
				<name>frequency of loss of control due to motor wear</name>
				<interior color="e5f6f7" />
				<outline color="000080" />
				<font color="000000" name="Arial" size="8" />
				<position>548 120 681 196</position>
				<barchart active="true" width="128" height="233" />
			</node>
			<node id="drone_tilt">
				<name>drone tilt</name>
				<interior color="339966" />
				<outline color="003300" />
				<font color="000000" name="Arial" size="8" />
				<position>263 1020 356 1078</position>
				<barchart active="true" width="128" height="199" />
			</node>
			<node id="turbulence">
				<name>turbulence</name>
				<interior color="e5f6f7" />
				<outline color="000080" />
				<font color="000000" name="Arial" size="8" />
				<position>879 644 943 684</position>
				<barchart active="true" width="128" height="198" />
			</node>
			<node id="frequency_of_exceeding_safety_margin_due_to_turbulence">
				<name>frequency of exceeding safety margin due to turbulence</name>
				<interior color="e5f6f7" />
				<outline color="000080" />
				<font color="000000" name="Arial" size="8" />
				<position>742 126 875 209</position>
				<barchart active="true" width="128" height="198" />
			</node>
			<node id="roll_pitch_deviation">
				<name>roll-pitch deviation</name>
				<interior color="339966" />
				<outline color="003300" />
				<font color="000000" name="Arial" size="8" />
				<position>860 865 953 923</position>
				<barchart active="true" width="128" height="198" />
			</node>
			<node id="number_of_filtered_away_points">
				<name>number of filtered away points</name>
				<interior color="339966" />
				<outline color="003300" />
				<font color="000000" name="Arial" size="8" />
				<position>1351 902 1454 966</position>
				<barchart active="true" width="128" height="220" />
			</node>
			<node id="max_upwards_acceleration">
				<name>max upwards acceleration</name>
				<interior color="33cccd" />
				<outline color="000080" />
				<font color="000000" name="Arial" size="8" />
				<position>46 358 145 419</position>
				<barchart active="true" width="128" height="108" />
			</node>
			<node id="camera_noise">
				<name>camera noise</name>
				<interior color="339966" />
				<outline color="003300" />
				<font color="000000" name="Arial" size="8" />
				<position>1194 645 1270 692</position>
				<barchart active="true" width="128" height="198" />
			</node>
			<node id="max_speed">
				<name>max speed</name>
				<interior color="33cccd" />
				<outline color="003366" />
				<font color="000000" name="Arial" size="8" />
				<position>1035 646 1113 694</position>
				<comment>0 - maximum margin\n1 - minimum margin</comment>
				<barchart active="true" width="128" height="198" />
			</node>
			<node id="frequency_of_breaking_distance_exceeding_safety_margin">
				<name>frequency of breaking distance exceeding safety margin</name>
				<interior color="e5f6f7" />
				<outline color="000080" />
				<font color="000000" name="Arial" size="8" />
				<position>1063 164 1196 247</position>
				<barchart active="true" width="128" height="198" />
			</node>
			<node id="frequency_of_motor_saturation_deviating_beyond_safety_margin">
				<name>frequency of motor saturation deviating beyond safety margin</name>
				<interior color="e5f6f7" />
				<outline color="000080" />
				<font color="000000" name="Arial" size="8" />
				<position>314 176 454 263</position>
				<barchart active="true" width="128" height="198" />
			</node>
			<node id="frequency_of_loss_of_control_due_to_turbulence">
				<name>frequency of loss of control due to turbulence</name>
				<interior color="e5f6f7" />
				<outline color="000080" />
				<font color="000000" name="Arial" size="8" />
				<position>926 120 1049 196</position>
				<barchart active="true" width="128" height="198" />
			</node>
			<node id="motor_wear_t_1">
				<name>motor wear t-1</name>
				<interior color="e5f6f7" />
				<outline color="000080" />
				<font color="000000" name="Arial" size="8" />
				<position>520 776 589 819</position>
				<barchart active="true" width="128" height="216" />
			</node>
			<node id="motor_wear">
				<name>motor wear</name>
				<interior color="e5f6f7" />
				<outline color="000080" />
				<font color="000000" name="Arial" size="8" />
				<position>376 774 445 817</position>
				<barchart active="true" width="128" height="216" />
			</node>
			<node id="presence_of_unobservable_obstacle">
				<name>presence of unobservable obstacle</name>
				<interior color="e5f6f7" />
				<outline color="000080" />
				<font color="000000" name="Arial" size="8" />
				<position>1210 422 1315 487</position>
				<barchart active="true" width="128" height="108" />
			</node>
			<node id="environment_observability_t_1">
				<name>environment observability t-1</name>
				<interior color="e5f6f7" />
				<outline color="000080" />
				<font color="000000" name="Arial" size="8" />
				<position>1405 557 1446 582</position>
				<barchart active="true" width="128" height="218" />
			</node>
			<node id="environment_observability">
				<name>environment observability</name>
				<interior color="e5f6f7" />
				<outline color="000080" />
				<font color="000000" name="Arial" size="8" />
				<position>1382 647 1423 672</position>
				<barchart active="true" width="128" height="218" />
			</node>
			<node id="effective_safety_margin">
				<name>effective safety margin</name>
				<interior color="e5f6f7" />
				<outline color="000080" />
				<font color="000000" name="Arial" size="8" />
				<position>683 388 761 436</position>
				<comment>0 - maximum margin\n1 - minimum margin</comment>
				<barchart active="true" width="128" height="216" />
			</node>
			<node id="filtered_motor_use">
				<name>filtered motor use</name>
				<interior color="e5f6f7" />
				<outline color="000080" />
				<font color="000000" name="Arial" size="8" />
				<position>183 603 269 656</position>
			</node>
			<node id="motoruse_for_tether">
				<name>motoruse for tether</name>
				<interior color="e5f6f7" />
				<outline color="000080" />
				<font color="000000" name="Arial" size="8" />
				<position>244 792 330 845</position>
			</node>
			<node id="random_disturbance_t_1">
				<name>random_disturbance t-1</name>
				<interior color="e5f6f7" />
				<outline color="000080" />
				<font color="000000" name="Arial" size="8" />
				<position>510 521 579 564</position>
				<barchart active="true" width="128" height="216" />
			</node>
			<node id="random_disturbance">
				<name>random_disturbance</name>
				<interior color="e5f6f7" />
				<outline color="000080" />
				<font color="000000" name="Arial" size="8" />
				<position>364 538 433 581</position>
				<barchart active="true" width="128" height="216" />
			</node>
		</genie>
	</extensions>
</smile>
