<?xml version="1.0" encoding="UTF-8"?>
<!-- This network was created in GeNIe Academic, which can be used for academic teaching and research purposes only -->
<smile version="1.0" id="Network2" numsamples="10000" discsamples="10000">
	<nodes>
		<cpt id="tether_tension_motor_use_scaling_factor_t_1">
			<state id="State0" />
			<state id="State1" />
			<state id="State2" />
			<state id="State3" />
			<state id="State4" />
			<state id="State5" />
			<state id="State6" />
			<state id="State7" />
			<state id="State8" />
			<state id="State9" />
			<intervals>0 0.2 0.4 0.6 0.8 1 1.2 1.4 1.6 1.8 2</intervals>
			<probabilities>0.1498824032499465 0.1453923455206329 0.1503100277955955 0.1353431686978833 0.118024374599102 0.09471883686123583 0.08103485140047038 0.05772931366260423 0.04062433183664742 0.02694034637588198</probabilities>
		</cpt>
		<cpt id="tether_tension_motor_use_scaling_factor">
			<state id="State0" />
			<state id="State1" />
			<state id="State2" />
			<state id="State3" />
			<state id="State4" />
			<state id="State5" />
			<state id="State6" />
			<state id="State7" />
			<state id="State8" />
			<state id="State9" />
			<intervals>0 0.2 0.4 0.6 0.8 1 1.2 1.4 1.6 1.8 2</intervals>
			<parents>tether_tension_motor_use_scaling_factor_t_1</parents>
			<probabilities>0.5460604265402843 0.3462677725118483 0.09493483412322275 0.01125592417061611 0.000740521327014218 0.0001481042654028436 0.0001481042654028436 0.0001481042654028436 0.0001481042654028436 0.0001481042654028436 0.2696397569444444 0.3936631944444444 0.2577039930555556 0.06879340277777778 0.009114583333333334 0.0006510416666666666 0.0001085069444444444 0.0001085069444444444 0.0001085069444444444 0.0001085069444444444 0.06474093525906474 0.2476517523482477 0.3734976265023735 0.2421977578022422 0.06433693566306434 0.006867993132006868 0.000403999596000404 0.000100999899000101 0.000100999899000101 0.000100999899000101 0.0080040020010005 0.064032016008004 0.240520260130065 0.3700850425212606 0.2415207603801901 0.06743371685842922 0.008104052026013006 0.0001000500250125063 0.0001000500250125063 0.0001000500250125063 0.0004 0.0083 0.06850000000000001 0.2462 0.3593 0.2378 0.0718 0.0068 0.0008 0.0001 9.999000099990002e-05 0.0001999800019998 0.006999300069993001 0.06429357064293571 0.2402759724027597 0.3723627637236276 0.2382761723827617 0.07029297070292971 0.006899310068993101 0.0002999700029997 9.998000399920016e-05 9.998000399920016e-05 9.998000399920016e-05 0.008398320335932814 0.0673865226954609 0.2379524095180964 0.3699260147970406 0.24375124975005 0.06548690261947611 0.006798640271945611 0.000100664384940608 0.000100664384940608 0.000100664384940608 0.0003019931548218241 0.00865713710489229 0.06714314475538555 0.2474330581840145 0.3709482585061405 0.2422991745520435 0.06291524058788001 0.0001079447322970639 0.0001079447322970639 0.0001079447322970639 0.0001079447322970639 0.0003238341968911917 0.008635578583765112 0.07448186528497409 0.2556131260794473 0.4053324697754749 0.2551813471502591 0.000145032632342277 0.000145032632342277 0.000145032632342277 0.000145032632342277 0.000145032632342277 0.0007251631617113851 0.01044234952864394 0.09427121102248005 0.3402465554749819 0.5535895576504714</probabilities>
		</cpt>
		<cpt id="height_over_ground">
			<state id="State0" />
			<state id="State1" />
			<state id="State2" />
			<state id="State3" />
			<state id="State4" />
			<state id="State5" />
			<state id="State6" />
			<state id="State7" />
			<state id="State8" />
			<state id="State9" />
			<intervals>0 0.1 0.2 0.3 0.4 0.5 0.6 0.7 0.8 0.9 1</intervals>
			<probabilities>0.0985 0.1011 0.1045 0.0973 0.095 0.1018 0.1007 0.1002 0.1009 0.1</probabilities>
		</cpt>
		<cpt id="drone_tilt">
			<state id="State0" />
			<state id="State1" />
			<state id="State2" />
			<state id="State3" />
			<state id="State4" />
			<state id="State5" />
			<state id="State6" />
			<state id="State7" />
			<state id="State8" />
			<state id="State9" />
			<intervals>0 0.1 0.2 0.3 0.4 0.5 0.6 0.7 0.8 0.9 1</intervals>
			<probabilities>0.0969 0.09660000000000001 0.0983 0.1018 0.1059 0.1036 0.1028 0.0949 0.1002 0.099</probabilities>
		</cpt>
		<cpt id="motoruse_for_tether">
			<state id="State0" />
			<state id="State1" />
			<state id="State2" />
			<state id="State3" />
			<state id="State4" />
			<state id="State5" />
			<state id="State6" />
			<state id="State7" />
			<state id="State8" />
			<state id="State9" />
			<intervals>0 0.1 0.2 0.3 0.4 0.5 0.6 0.7 0.8 0.9 1</intervals>
			<parents>height_over_ground tether_tension_motor_use_scaling_factor drone_tilt</parents>
			<probabilities>1 0 0 0 0 0 0 0 0 0 1 0 0 0 0 0 0 0 0 0 1 0 0 0 0 0 0 0 0 0 0.9882 0.0118 0 0 0 0 0 0 0 0 0.9385 0.0615 0 0 0 0 0 0 0 0 0.8589 0.1411 0 0 0 0 0 0 0 0 0.7613 0.2387 0 0 0 0 0 0 0 0 0.6653 0.3347 0 0 0 0 0 0 0 0 0.5947 0.4005 0.0048 0 0 0 0 0 0 0 0.5311 0.4396 0.0293 0 0 0 0 0 0 0 1 0 0 0 0 0 0 0 0 0 0.991 0.008999999999999999 0 0 0 0 0 0 0 0 0.7978 0.2022 0 0 0 0 0 0 0 0 0.4357 0.5643 0 0 0 0 0 0 0 0 0.184 0.7793 0.0367 0 0 0 0 0 0 0 0.0508 0.7401 0.2091 0 0 0 0 0 0 0 0.0064 0.5262 0.4641 0.0033 0 0 0 0 0 0 0 0.3413 0.5867 0.07199999999999999 0 0 0 0 0 0 0 0.1829 0.5756 0.2415 0 0 0 0 0 0 0 0.0854 0.4977 0.4017 0.0152 0 0 0 0 0 1 0 0 0 0 0 0 0 0 0 0.7872 0.2128 0 0 0 0 0 0 0 0 0.2229 0.7735 0.0036 0 0 0 0 0 0 0 0.0076 0.7598 0.2326 0 0 0 0 0 0 0 0 0.2716 0.7069 0.0215 0 0 0 0 0 0 0 0.035 0.6829 0.2821 0 0 0 0 0 0 0 0 0.32 0.6239 0.0561 0 0 0 0 0 0 0 0.07240000000000001 0.5936 0.3318 0.0022 0 0 0 0 0 0 0.0015 0.3461 0.5445 0.1079 0 0 0 0 0 0 0 0.1219 0.5074 0.3594 0.0113 0 0 0 0.989 0.011 0 0 0 0 0 0 0 0 0.4478 0.5522 0 0 0 0 0 0 0 0 0.0069 0.7524 0.2407 0 0 0 0 0 0 0 0 0.1141 0.8116 0.0743 0 0 0 0 0 0 0 0 0.3598 0.6233 0.0169 0 0 0 0 0 0 0 0.0202 0.6137 0.3649 0.0012 0 0 0 0 0 0 0 0.1446 0.6695 0.1859 0 0 0 0 0 0 0 0.0017 0.3367 0.5764 0.0852 0 0 0 0 0 0 0 0.0479 0.4943 0.4285 0.0293 0 0 0 0 0 0 0 0.1732 0.5119 0.3062 0.008699999999999999 0 0.9393 0.0607 0 0 0 0 0 0 0 0 0.1818 0.785 0.0332 0 0 0 0 0 0 0 0 0.2658 0.7127 0.0215 0 0 0 0 0 0 0 0 0.3677 0.6163999999999999 0.0159 0 0 0 0 0 0 0 0.0022 0.4626 0.5212 0.014 0 0 0 0 0 0 0 0.0175 0.5289 0.442 0.0116 0 0 0 0 0 0 0 0.0461 0.5678 0.3791 0.007 0 0 0 0 0 0 0 0.0906 0.5804 0.319 0.01 0 0 0 0 0 0 0 0.1578 0.5419 0.2916 0.008699999999999999 0 0 0 0 0 0 0.0009 0.2184 0.513 0.2677 0.8556 0.1444 0 0 0 0 0 0 0 0 0.0554 0.7357 0.2089 0 0 0 0 0 0 0 0 0.0346 0.6798 0.2856 0 0 0 0 0 0 0 0 0.0214 0.5966 0.3804 0.0016 0 0 0 0 0 0 0 0.0154 0.5335 0.4389 0.0122 0 0 0 0 0 0 0 0.0125 0.4569 0.4981 0.0325 0 0 0 0 0 0 0 0.0117 0.3819 0.5412 0.06519999999999999 0 0 0 0 0 0 0 0.0073 0.3485 0.5341 0.1101 0 0 0 0 0 0 0 0.0073 0.2981 0.6946 0 0 0 0 0 0 0 0 0.0072 0.9928 0.7645999999999999 0.2354 0 0 0 0 0 0 0 0 0.007 0.5351 0.4548 0.0031 0 0 0 0 0 0 0 0 0.3081 0.6345 0.0574 0 0 0 0 0 0 0 0 0.1407 0.6706 0.1887 0 0 0 0 0 0 0 0 0.047 0.5719 0.3725 0.0086 0 0 0 0 0 0 0 0.0095 0.3868 0.5382 0.0655 0 0 0 0 0 0 0 0.0017 0.2205 0.5931999999999999 0.1846 0 0 0 0 0 0 0 0 0.1223 0.8777 0 0 0 0 0 0 0 0 0 1 0 0 0 0 0 0 0 0 0 1 0.6715 0.3285 0 0 0 0 0 0 0 0 0 0.3332 0.5933 0.0735 0 0 0 0 0 0 0 0 0.0699 0.5931999999999999 0.3353 0.0016 0 0 0 0 0 0 0 0.0024 0.3439 0.5681 0.0856 0 0 0 0 0 0 0 0 0.09089999999999999 0.5737 0.3256 0.0098 0 0 0 0 0 0 0 0.0097 0.344 0.5372 0.1091 0 0 0 0 0 0 0 0 0.1183 0.8817 0 0 0 0 0 0 0 0 0 1 0 0 0 0 0 0 0 0 0 1 0 0 0 0 0 0 0 0 0 1 0.5928 0.4027 0.0045 0 0 0 0 0 0 0 0 0.1845 0.5773 0.2382 0 0 0 0 0 0 0 0 0.0023 0.3486 0.5482 0.1009 0 0 0 0 0 0 0 0 0.0427 0.4989 0.4272 0.0312 0 0 0 0 0 0 0 0 0.1548 0.5503 0.2853 0.009599999999999999 0 0 0 0 0 0 0 0.008200000000000001 0.2969 0.6949 0 0 0 0 0 0 0 0 0 1 0 0 0 0 0 0 0 0 0 1 0 0 0 0 0 0 0 0 0 1 0 0 0 0 0 0 0 0 0 1 0.5228 0.4501 0.0271 0 0 0 0 0 0 0 0 0.0839 0.4973 0.4012 0.0176 0 0 0 0 0 0 0 0 0.1269 0.5041 0.3585 0.0105 0 0 0 0 0 0 0 0 0.1688 0.5177 0.3056 0.007900000000000001 0 0 0 0 0 0 0 0.0012 0.2173 0.517 0.2645 0 0 0 0 0 0 0 0 0.0062 0.9938 0 0 0 0 0 0 0 0 0 1 0 0 0 0 0 0 0 0 0 1 0 0 0 0 0 0 0 0 0 1 0 0 0 0 0 0 0 0 0 1 0.6872 0.3128 0 0 0 0 0 0 0 0 0.5615 0.4385 0 0 0 0 0 0 0 0 0.4416 0.5584 0 0 0 0 0 0 0 0 0.3229 0.6771 0 0 0 0 0 0 0 0 0.2508 0.7412 0.008 0 0 0 0 0 0 0 0.2014 0.7483 0.0503 0 0 0 0 0 0 0 0.1747 0.7049 0.1204 0 0 0 0 0 0 0 0.1519 0.6449 0.2032 0 0 0 0 0 0 0 0.1351 0.5742 0.2907 0 0 0 0 0 0 0 0.1176 0.5118 0.3651 0.0055 0 0 0 0 0 0 0.5652 0.4348 0 0 0 0 0 0 0 0 0.2006 0.7994 0 0 0 0 0 0 0 0 0.022 0.9176 0.0604 0 0 0 0 0 0 0 0 0.6736 0.3264 0 0 0 0 0 0 0 0 0.3443 0.6514 0.0043 0 0 0 0 0 0 0 0.1457 0.7574 0.0969 0 0 0 0 0 0 0 0.0445 0.6444 0.3111 0 0 0 0 0 0 0 0.0061 0.4632 0.5092 0.0215 0 0 0 0 0 0 0 0.2968 0.574 0.1292 0 0 0 0 0 0 0 0.1665 0.5274 0.3034 0.0027 0 0 0 0 0.4312 0.5688 0 0 0 0 0 0 0 0 0.0179 0.9216 0.0605 0 0 0 0 0 0 0 0 0.4385 0.5615 0 0 0 0 0 0 0 0 0.052 0.8445 0.1035 0 0 0 0 0 0 0 0 0.4588 0.5391 0.0021 0 0 0 0 0 0 0 0.09669999999999999 0.7539 0.1494 0 0 0 0 0 0 0 0.0033 0.4625 0.5159 0.0183 0 0 0 0 0 0 0 0.1581 0.6336000000000001 0.2083 0 0 0 0 0 0 0 0.0204 0.4561 0.4791 0.0444 0 0 0 0 0 0 0 0.2142 0.5288 0.2555 0.0015 0 0 0.3166 0.6834 0 0 0 0 0 0 0 0 0 0.6682 0.3318 0 0 0 0 0 0 0 0 0.0504 0.8431 0.1065 0 0 0 0 0 0 0 0 0.2743 0.7027 0.023 0 0 0 0 0 0 0 0.0029 0.5633 0.4316 0.0022 0 0 0 0 0 0 0 0.0725 0.7057 0.2218 0 0 0 0 0 0 0 0 0.2607 0.6411 0.0982 0 0 0 0 0 0 0 0.0159 0.4597 0.4871 0.0373 0 0 0 0 0 0 0 0.1031 0.539 0.3478 0.0101 0 0 0 0 0 0 0.0018 0.2645 0.5211 0.2119 0.0007 0.2491 0.7427 0.008200000000000001 0 0 0 0 0 0 0 0 0.3477 0.6478 0.0045 0 0 0 0 0 0 0 0 0.4654 0.532 0.0026 0 0 0 0 0 0 0 0.0049 0.5466 0.4467 0.0018 0 0 0 0 0 0 0 0.0181 0.6211 0.3588 0.002 0 0 0 0 0 0 0 0.059 0.6359 0.3031 0.002 0 0 0 0 0 0 0 0.1012 0.6372 0.2604 0.0012 0 0 0 0 0 0 0 0.1748 0.5994 0.2245 0.0013 0 0 0 0 0 0 0.0016 0.2493 0.5481 0.201 0 0 0 0 0 0 0 0.0089 0.3151 0.676 0.2079 0.7407 0.0514 0 0 0 0 0 0 0 0 0.1463 0.753 0.1007 0 0 0 0 0 0 0 0 0.1088 0.7333 0.1579 0 0 0 0 0 0 0 0 0.076 0.6933 0.2307 0 0 0 0 0 0 0 0 0.0541 0.6425999999999999 0.3016 0.0017 0 0 0 0 0 0 0 0.0435 0.5807 0.3673 0.008500000000000001 0 0 0 0 0 0 0 0.0355 0.5041 0.4323 0.0281 0 0 0 0 0 0 0 0.0294 0.4482 0.5224 0 0 0 0 0 0 0 0 0.0305 0.9695 0 0 0 0 0 0 0 0 0 1 0.1796 0.7034 0.117 0 0 0 0 0 0 0 0 0.046 0.6498 0.3042 0 0 0 0 0 0 0 0 0.0034 0.4545 0.5253 0.0168 0 0 0 0 0 0 0 0 0.2542 0.6395 0.1063 0 0 0 0 0 0 0 0 0.1076 0.6368 0.2544 0.0012 0 0 0 0 0 0 0 0.0343 0.505 0.4349 0.0258 0 0 0 0 0 0 0 0.008 0.3271 0.6649 0 0 0 0 0 0 0 0 0.0009 0.9991 0 0 0 0 0 0 0 0 0 1 0 0 0 0 0 0 0 0 0 1 0.1533 0.6523 0.1944 0 0 0 0 0 0 0 0 0.0056 0.4618 0.5098 0.0228 0 0 0 0 0 0 0 0 0.1619 0.6239 0.2142 0 0 0 0 0 0 0 0 0.0164 0.4568 0.4947 0.0321 0 0 0 0 0 0 0 0 0.1805 0.596 0.2222 0.0013 0 0 0 0 0 0 0 0.031 0.4494 0.5196 0 0 0 0 0 0 0 0 0.0009 0.9991 0 0 0 0 0 0 0 0 0 1 0 0 0 0 0 0 0 0 0 1 0 0 0 0 0 0 0 0 0 1 0.1318 0.5714 0.2968 0 0 0 0 0 0 0 0 0 0.2935 0.5662 0.1403 0 0 0 0 0 0 0 0 0.0198 0.4499 0.4873 0.043 0 0 0 0 0 0 0 0 0.1066 0.5469000000000001 0.3366 0.009900000000000001 0 0 0 0 0 0 0 0.0011 0.2512 0.5486 0.1991 0 0 0 0 0 0 0 0 0.0291 0.9709 0 0 0 0 0 0 0 0 0 1 0 0 0 0 0 0 0 0 0 1 0 0 0 0 0 0 0 0 0 1 0 0 0 0 0 0 0 0 0 1 0.1243 0.515 0.3568 0.0039 0 0 0 0 0 0 0 0 0.1627 0.5218 0.3133 0.0022 0 0 0 0 0 0 0 0 0.2102 0.5284 0.2593 0.0021 0 0 0 0 0 0 0 0.0009 0.261 0.52 0.2163 0.0018 0 0 0 0 0 0 0 0.008200000000000001 0.3131 0.6787 0 0 0 0 0 0 0 0 0 1 0 0 0 0 0 0 0 0 0 1 0 0 0 0 0 0 0 0 0 1 0 0 0 0 0 0 0 0 0 1 0 0 0 0 0 0 0 0 0 1 0 0.9381 0.0619 0 0 0 0 0 0 0 0 0.8139999999999999 0.186 0 0 0 0 0 0 0 0 0.6907 0.3093 0 0 0 0 0 0 0 0 0.5647 0.4353 0 0 0 0 0 0 0 0 0.4581 0.5419 0 0 0 0 0 0 0 0 0.3596 0.6324 0.008 0 0 0 0 0 0 0 0.3045 0.6493 0.0462 0 0 0 0 0 0 0 0.2658 0.6335 0.1007 0 0 0 0 0 0 0 0.2394 0.582 0.1786 0 0 0 0 0 0 0 0.2036 0.5322 0.2642 0 0 0 0 0 0 0 0.8125 0.1875 0 0 0 0 0 0 0 0 0.4388 0.5612 0 0 0 0 0 0 0 0 0.1218 0.8718 0.0064 0 0 0 0 0 0 0 0.0129 0.8379 0.1492 0 0 0 0 0 0 0 0 0.5571 0.4429 0 0 0 0 0 0 0 0 0.281 0.6887 0.0303 0 0 0 0 0 0 0 0.1219 0.6967 0.1814 0 0 0 0 0 0 0 0.0403 0.5629999999999999 0.3937 0.003 0 0 0 0 0 0 0.0037 0.4104 0.5259 0.06 0 0 0 0 0 0 0 0.2647 0.5236 0.2117 0 0 0 0 0 0.6868 0.3132 0 0 0 0 0 0 0 0 0.1242 0.8679 0.007900000000000001 0 0 0 0 0 0 0 0 0.6758 0.3242 0 0 0 0 0 0 0 0 0.1647 0.8073 0.028 0 0 0 0 0 0 0 0.0053 0.6434 0.3513 0 0 0 0 0 0 0 0 0.219 0.719 0.062 0 0 0 0 0 0 0 0.0297 0.5901999999999999 0.3778 0.0023 0 0 0 0 0 0 0 0.27 0.6153999999999999 0.1146 0 0 0 0 0 0 0 0.0643 0.5321 0.3914 0.0122 0 0 0 0 0 0 0.0019 0.3195 0.5086000000000001 0.17 0 0 0 0.5571 0.4429 0 0 0 0 0 0 0 0 0.0128 0.8388 0.1484 0 0 0 0 0 0 0 0 0.167 0.8052 0.0278 0 0 0 0 0 0 0 0 0.4532 0.5436 0.0032 0 0 0 0 0 0 0 0.0308 0.7 0.2692 0 0 0 0 0 0 0 0 0.1654 0.7171999999999999 0.1174 0 0 0 0 0 0 0 0.0026 0.3871 0.5651 0.0452 0 0 0 0 0 0 0 0.0513 0.5512 0.388 0.0095 0 0 0 0 0 0 0 0.1927 0.5682 0.2378 0.0013 0 0 0 0 0 0 0.0136 0.356 0.4963 0.1341 0 0.444 0.556 0 0 0 0 0 0 0 0 0 0.5602 0.4398 0 0 0 0 0 0 0 0 0.0044 0.6422 0.3534 0 0 0 0 0 0 0 0 0.026 0.7076 0.2664 0 0 0 0 0 0 0 0 0.0674 0.7122000000000001 0.2204 0 0 0 0 0 0 0 0 0.1268 0.6953 0.1779 0 0 0 0 0 0 0 0 0.2036 0.6388 0.1576 0 0 0 0 0 0 0 0.0018 0.2865 0.5752 0.1365 0 0 0 0 0 0 0 0.0107 0.3419 0.6474 0 0 0 0 0 0 0 0 0.0349 0.9651 0 0.3621 0.6294 0.008500000000000001 0 0 0 0 0 0 0 0 0.2849 0.6852 0.0299 0 0 0 0 0 0 0 0 0.207 0.7296 0.0634 0 0 0 0 0 0 0 0 0.1719 0.7176 0.1105 0 0 0 0 0 0 0 0 0.1264 0.6875 0.1861 0 0 0 0 0 0 0 0 0.1004 0.644 0.2543 0.0013 0 0 0 0 0 0 0 0.0823 0.5965 0.3212 0 0 0 0 0 0 0 0 0.0747 0.9253 0 0 0 0 0 0 0 0 0 1 0 0 0 0 0 0 0 0 0 1 0 0.3134 0.6432 0.0434 0 0 0 0 0 0 0 0 0.1255 0.6912 0.1833 0 0 0 0 0 0 0 0 0.0283 0.5876 0.3819 0.0022 0 0 0 0 0 0 0 0.0035 0.3934 0.5639 0.0392 0 0 0 0 0 0 0 0 0.2013 0.6545 0.1442 0 0 0 0 0 0 0 0 0.08840000000000001 0.5874 0.3242 0 0 0 0 0 0 0 0 0.0316 0.9684 0 0 0 0 0 0 0 0 0 1 0 0 0 0 0 0 0 0 0 1 0 0 0 0 0 0 0 0 0 1 0 0.2668 0.6274999999999999 0.1057 0 0 0 0 0 0 0 0 0.0383 0.5589 0.4005 0.0023 0 0 0 0 0 0 0 0 0.2681 0.6173999999999999 0.1145 0 0 0 0 0 0 0 0 0.0515 0.5478 0.3894 0.0113 0 0 0 0 0 0 0 0.0011 0.284 0.581 0.1339 0 0 0 0 0 0 0 0 0.0716 0.9284 0 0 0 0 0 0 0 0 0 1 0 0 0 0 0 0 0 0 0 1 0 0 0 0 0 0 0 0 0 1 0 0 0 0 0 0 0 0 0 1 0 0.2356 0.5856 0.1788 0 0 0 0 0 0 0 0 0.0042 0.4098 0.5209 0.06510000000000001 0 0 0 0 0 0 0 0 0.0613 0.5292 0.3963 0.0132 0 0 0 0 0 0 0 0 0.1991 0.5661 0.234 0.0008 0 0 0 0 0 0 0 0.008999999999999999 0.3428 0.6482 0 0 0 0 0 0 0 0 0 1 0 0 0 0 0 0 0 0 0 1 0 0 0 0 0 0 0 0 0 1 0 0 0 0 0 0 0 0 0 1 0 0 0 0 0 0 0 0 0 1 0 0.2076 0.5274 0.265 0 0 0 0 0 0 0 0 0 0.2695 0.5202 0.2103 0 0 0 0 0 0 0 0 0.0021 0.3176 0.5153 0.165 0 0 0 0 0 0 0 0 0.0107 0.3548 0.5047 0.1298 0 0 0 0 0 0 0 0 0.0306 0.9694 0 0 0 0 0 0 0 0 0 1 0 0 0 0 0 0 0 0 0 1 0 0 0 0 0 0 0 0 0 1 0 0 0 0 0 0 0 0 0 1 0 0 0 0 0 0 0 0 0 1 0 0 1 0 0 0 0 0 0 0 0 0 0.9735 0.0265 0 0 0 0 0 0 0 0 0.89 0.11 0 0 0 0 0 0 0 0 0.7778 0.2222 0 0 0 0 0 0 0 0 0.6627999999999999 0.3372 0 0 0 0 0 0 0 0 0.5463 0.4537 0 0 0 0 0 0 0 0 0.4558 0.5396 0.0046 0 0 0 0 0 0 0 0.4041 0.5580000000000001 0.0379 0 0 0 0 0 0 0 0.3557 0.5515 0.09279999999999999 0 0 0 0 0 0 0 0.3116 0.5273 0.1611 0 0 0 0 0 0 0 0.9775 0.0225 0 0 0 0 0 0 0 0 0.6905 0.3095 0 0 0 0 0 0 0 0 0.3237 0.6763 0 0 0 0 0 0 0 0 0.08699999999999999 0.8672 0.0458 0 0 0 0 0 0 0 0.0095 0.7316 0.2589 0 0 0 0 0 0 0 0 0.4545 0.5416 0.0039 0 0 0 0 0 0 0 0.2437 0.6738 0.0825 0 0 0 0 0 0 0 0.1066 0.6248 0.2686 0 0 0 0 0 0 0 0.0366 0.4987 0.4472 0.0175 0 0 0 0 0 0 0.0049 0.373 0.5047 0.1174 0 0 0 0 0 0.8816000000000001 0.1184 0 0 0 0 0 0 0 0 0.3203 0.6797 0 0 0 0 0 0 0 0 0.0109 0.8541 0.135 0 0 0 0 0 0 0 0 0.3412 0.6555 0.0033 0 0 0 0 0 0 0 0.0421 0.7711 0.1868 0 0 0 0 0 0 0 0 0.3808 0.5988 0.0204 0 0 0 0 0 0 0 0.0859 0.6744 0.2397 0 0 0 0 0 0 0 0.0025 0.4032 0.5476 0.0467 0 0 0 0 0 0 0 0.1423 0.5681 0.2881 0.0015 0 0 0 0 0 0 0.0153 0.4053 0.4901 0.0893 0 0 0 0.7722 0.2278 0 0 0 0 0 0 0 0 0.08690000000000001 0.8665 0.0466 0 0 0 0 0 0 0 0 0.3415 0.6553 0.0032 0 0 0 0 0 0 0 0.0045 0.6518 0.3437 0 0 0 0 0 0 0 0 0.0842 0.774 0.1418 0 0 0 0 0 0 0 0 0.2948 0.6608000000000001 0.0444 0 0 0 0 0 0 0 0.0211 0.5256999999999999 0.4423 0.0109 0 0 0 0 0 0 0 0.1228 0.6047 0.2709 0.0016 0 0 0 0 0 0 0.0016 0.2847 0.5626 0.1511 0 0 0 0 0 0 0 0.0379 0.4338 0.5283 0 0 0.6647999999999999 0.3352 0 0 0 0 0 0 0 0 0.0102 0.7391 0.2507 0 0 0 0 0 0 0 0 0.0377 0.7705 0.1918 0 0 0 0 0 0 0 0 0.08989999999999999 0.7689 0.1412 0 0 0 0 0 0 0 0 0.1626 0.7321 0.1053 0 0 0 0 0 0 0 0 0.2385 0.6723 0.0892 0 0 0 0 0 0 0 0.0018 0.3302 0.5865 0.0815 0 0 0 0 0 0 0 0.0116 0.3959 0.5925 0 0 0 0 0 0 0 0 0.0347 0.9653 0 0 0 0 0 0 0 0 0 1 0 0 0.5472 0.4528 0 0 0 0 0 0 0 0 0 0.4602 0.537 0.0028 0 0 0 0 0 0 0 0 0.3731 0.6061 0.0208 0 0 0 0 0 0 0 0 0.3035 0.6501 0.0464 0 0 0 0 0 0 0 0 0.2362 0.6736 0.0902 0 0 0 0 0 0 0 0 0.1918 0.6599 0.1483 0 0 0 0 0 0 0 0 0.164 0.836 0 0 0 0 0 0 0 0 0 1 0 0 0 0 0 0 0 0 0 1 0 0 0 0 0 0 0 0 0 1 0 0 0.4472 0.5457 0.0071 0 0 0 0 0 0 0 0 0.2356 0.6808999999999999 0.0835 0 0 0 0 0 0 0 0 0.0851 0.664 0.2509 0 0 0 0 0 0 0 0 0.0171 0.5212 0.4499 0.0118 0 0 0 0 0 0 0 0.002 0.3262 0.5908 0.081 0 0 0 0 0 0 0 0 0.1627 0.8373 0 0 0 0 0 0 0 0 0 1 0 0 0 0 0 0 0 0 0 1 0 0 0 0 0 0 0 0 0 1 0 0 0 0 0 0 0 0 0 1 0 0 0.3995 0.5612 0.0393 0 0 0 0 0 0 0 0 0.1075 0.6207 0.2718 0 0 0 0 0 0 0 0 0.003 0.4024 0.5469000000000001 0.0477 0 0 0 0 0 0 0 0 0.1144 0.6069 0.2777 0.001 0 0 0 0 0 0 0 0.0109 0.3919 0.5972 0 0 0 0 0 0 0 0 0 1 0 0 0 0 0 0 0 0 0 1 0 0 0 0 0 0 0 0 0 1 0 0 0 0 0 0 0 0 0 1 0 0 0 0 0 0 0 0 0 1 0 0 0.3515 0.5585 0.09 0 0 0 0 0 0 0 0 0.0355 0.4894 0.4576 0.0175 0 0 0 0 0 0 0 0 0.1403 0.5701000000000001 0.2879 0.0017 0 0 0 0 0 0 0 0.0013 0.3028 0.5542 0.1417 0 0 0 0 0 0 0 0 0.0364 0.9636 0 0 0 0 0 0 0 0 0 1 0 0 0 0 0 0 0 0 0 1 0 0 0 0 0 0 0 0 0 1 0 0 0 0 0 0 0 0 0 1 0 0 0 0 0 0 0 0 0 1 0 0 0.315 0.5168 0.1682 0 0 0 0 0 0 0 0 0.004 0.3614 0.5134 0.1212 0 0 0 0 0 0 0 0 0.0163 0.4085 0.4888 0.0864 0 0 0 0 0 0 0 0 0.0429 0.4343 0.5228 0 0 0 0 0 0 0 0 0 1 0 0 0 0 0 0 0 0 0 1 0 0 0 0 0 0 0 0 0 1 0 0 0 0 0 0 0 0 0 1 0 0 0 0 0 0 0 0 0 1 0 0 0 0 0 0 0 0 0 1 0 0 0.19 0.8100000000000001 0 0 0 0 0 0 0 0 0.0891 0.9109 0 0 0 0 0 0 0 0 0.0495 0.9348 0.0157 0 0 0 0 0 0 0 0.0355 0.8827 0.0818 0 0 0 0 0 0 0 0.0282 0.7923 0.1795 0 0 0 0 0 0 0 0.0209 0.6968 0.2823 0 0 0 0 0 0 0 0.0178 0.5958 0.3864 0 0 0 0 0 0 0 0.0182 0.5215 0.4552 0.0051 0 0 0 0 0 0 0.0156 0.4522 0.4985 0.0337 0 0 0 0 0 0 0.0138 0.4093 0.4898 0.0871 0 0 0 0 0 0 0.0883 0.9117 0 0 0 0 0 0 0 0 0 0.9016999999999999 0.0983 0 0 0 0 0 0 0 0 0.5626 0.4374 0 0 0 0 0 0 0 0 0.2447 0.7502 0.0051 0 0 0 0 0 0 0 0.06560000000000001 0.8188 0.1156 0 0 0 0 0 0 0 0.0083 0.6254 0.3663 0 0 0 0 0 0 0 0 0.3878 0.5846 0.0276 0 0 0 0 0 0 0 0.2056 0.6403 0.1541 0 0 0 0 0 0 0 0.09180000000000001 0.5525 0.3535 0.0022 0 0 0 0 0 0 0.0277 0.4453 0.4722 0.0548 0 0 0 0 0.0514 0.9307 0.0179 0 0 0 0 0 0 0 0 0.5681 0.4319 0 0 0 0 0 0 0 0 0.076 0.8831 0.0409 0 0 0 0 0 0 0 0 0.5669 0.4331 0 0 0 0 0 0 0 0 0.118 0.7994 0.08260000000000001 0 0 0 0 0 0 0 0.0039 0.5522 0.4413 0.0026 0 0 0 0 0 0 0 0.1813 0.6855 0.1332 0 0 0 0 0 0 0 0.0234 0.5139 0.4472 0.0155 0 0 0 0 0 0 0 0.2461 0.5753 0.1786 0 0 0 0 0 0 0 0.061 0.4696 0.4325 0.0369 0 0 0.0331 0.8827 0.0842 0 0 0 0 0 0 0 0 0.2315 0.7613 0.0072 0 0 0 0 0 0 0 0 0.5585 0.4415 0 0 0 0 0 0 0 0 0.0344 0.7894 0.1762 0 0 0 0 0 0 0 0 0.2097 0.7302999999999999 0.06 0 0 0 0 0 0 0 0.0031 0.4573 0.5276999999999999 0.0119 0 0 0 0 0 0 0 0.0623 0.626 0.31 0.0017 0 0 0 0 0 0 0 0.2181 0.6183999999999999 0.1635 0 0 0 0 0 0 0 0.0114 0.4079 0.5807 0 0 0 0 0 0 0 0 0.09710000000000001 0.9029 0 0 0.0272 0.8016 0.1712 0 0 0 0 0 0 0 0 0.0674 0.8148 0.1178 0 0 0 0 0 0 0 0 0.1185 0.8027 0.0788 0 0 0 0 0 0 0 0 0.2038 0.74 0.0562 0 0 0 0 0 0 0 0 0.3027 0.6541 0.0432 0 0 0 0 0 0 0 0.0023 0.39 0.5714 0.0363 0 0 0 0 0 0 0 0.0131 0.4541 0.5328000000000001 0 0 0 0 0 0 0 0 0.0437 0.9563 0 0 0 0 0 0 0 0 0 1 0 0 0 0 0 0 0 0 0 1 0 0 0.0242 0.6967 0.2791 0 0 0 0 0 0 0 0 0.009599999999999999 0.6245000000000001 0.3659 0 0 0 0 0 0 0 0 0.0046 0.5507 0.4424 0.0023 0 0 0 0 0 0 0 0.0031 0.4586 0.5255 0.0128 0 0 0 0 0 0 0 0.0025 0.3836 0.5731000000000001 0.0408 0 0 0 0 0 0 0 0.0021 0.3241 0.6738 0 0 0 0 0 0 0 0 0.0012 0.9988 0 0 0 0 0 0 0 0 0 1 0 0 0 0 0 0 0 0 0 1 0 0 0 0 0 0 0 0 0 1 0 0 0.0195 0.5923 0.3882 0 0 0 0 0 0 0 0 0 0.3771 0.5991 0.0238 0 0 0 0 0 0 0 0 0.1831 0.6908 0.1261 0 0 0 0 0 0 0 0 0.0593 0.6254 0.313 0.0023 0 0 0 0 0 0 0 0.0151 0.4556 0.5293 0 0 0 0 0 0 0 0 0.0011 0.9989 0 0 0 0 0 0 0 0 0 1 0 0 0 0 0 0 0 0 0 1 0 0 0 0 0 0 0 0 0 1 0 0 0 0 0 0 0 0 0 1 0 0 0.0154 0.5101 0.4694 0.0051 0 0 0 0 0 0 0 0 0.2077 0.6381 0.1542 0 0 0 0 0 0 0 0 0.022 0.5152 0.4485 0.0143 0 0 0 0 0 0 0 0 0.2165 0.6143999999999999 0.1691 0 0 0 0 0 0 0 0 0.0373 0.9627 0 0 0 0 0 0 0 0 0 1 0 0 0 0 0 0 0 0 0 1 0 0 0 0 0 0 0 0 0 1 0 0 0 0 0 0 0 0 0 1 0 0 0 0 0 0 0 0 0 1 0 0 0.0146 0.4595 0.4925 0.0334 0 0 0 0 0 0 0 0 0.09320000000000001 0.5566 0.3478 0.0024 0 0 0 0 0 0 0 0 0.2336 0.5793 0.1871 0 0 0 0 0 0 0 0 0.0138 0.3962 0.59 0 0 0 0 0 0 0 0 0 1 0 0 0 0 0 0 0 0 0 1 0 0 0 0 0 0 0 0 0 1 0 0 0 0 0 0 0 0 0 1 0 0 0 0 0 0 0 0 0 1 0 0 0 0 0 0 0 0 0 1 0 0 0.0136 0.4056 0.5022 0.0786 0 0 0 0 0 0 0 0 0.0293 0.4537 0.4623 0.0547 0 0 0 0 0 0 0 0 0.0583 0.4665 0.4379 0.0373 0 0 0 0 0 0 0 0 0.0927 0.9073 0 0 0 0 0 0 0 0 0 1 0 0 0 0 0 0 0 0 0 1 0 0 0 0 0 0 0 0 0 1 0 0 0 0 0 0 0 0 0 1 0 0 0 0 0 0 0 0 0 1 0 0 0 0 0 0 0 0 0 1 0 0 0 0.4363 0.5637 0 0 0 0 0 0 0 0 0.3151 0.6849 0 0 0 0 0 0 0 0 0.2022 0.7978 0 0 0 0 0 0 0 0 0.1472 0.8421999999999999 0.0106 0 0 0 0 0 0 0 0.1118 0.8172 0.07099999999999999 0 0 0 0 0 0 0 0.0873 0.768 0.1447 0 0 0 0 0 0 0 0.0796 0.6858 0.2346 0 0 0 0 0 0 0 0.0672 0.6038 0.329 0 0 0 0 0 0 0 0.0602 0.5289 0.4059 0.005 0 0 0 0 0 0 0.0523 0.4731 0.443 0.0316 0 0 0 0 0 0 0.3225 0.6775 0 0 0 0 0 0 0 0 0.0321 0.957 0.0109 0 0 0 0 0 0 0 0 0.7917999999999999 0.2082 0 0 0 0 0 0 0 0 0.4431 0.5569 0 0 0 0 0 0 0 0 0.1811 0.7831 0.0358 0 0 0 0 0 0 0 0.0528 0.7372 0.21 0 0 0 0 0 0 0 0.0072 0.5303 0.4589 0.0036 0 0 0 0 0 0 0 0.338 0.5935 0.06850000000000001 0 0 0 0 0 0 0 0.1761 0.5748 0.2491 0 0 0 0 0 0 0 0.0835 0.4984 0.4024 0.0157 0 0 0 0 0.2032 0.7968 0 0 0 0 0 0 0 0 0 0.7916 0.2084 0 0 0 0 0 0 0 0 0.2267 0.7673 0.006 0 0 0 0 0 0 0 0.0058 0.7506 0.2436 0 0 0 0 0 0 0 0 0.2681 0.7092000000000001 0.0227 0 0 0 0 0 0 0 0.0341 0.6843 0.2816 0 0 0 0 0 0 0 0 0.3217 0.624 0.0543 0 0 0 0 0 0 0 0.0728 0.5942 0.3317 0.0013 0 0 0 0 0 0 0.003 0.3585 0.5417 0.0968 0 0 0 0 0 0 0 0.1301 0.496 0.3739 0 0 0 0.139 0.8495 0.0115 0 0 0 0 0 0 0 0 0.4445 0.5555 0 0 0 0 0 0 0 0 0.0062 0.7483 0.2455 0 0 0 0 0 0 0 0 0.1202 0.8068 0.073 0 0 0 0 0 0 0 0 0.3664 0.6143 0.0193 0 0 0 0 0 0 0 0.0222 0.6032 0.3724 0.0022 0 0 0 0 0 0 0 0.1367 0.6727 0.1906 0 0 0 0 0 0 0 0.002 0.3497 0.6483 0 0 0 0 0 0 0 0 0.0487 0.9513 0 0 0 0 0 0 0 0 0 1 0 0 0 0.114 0.8213 0.06469999999999999 0 0 0 0 0 0 0 0 0.1885 0.7749 0.0366 0 0 0 0 0 0 0 0 0.2669 0.7115 0.0216 0 0 0 0 0 0 0 0 0.3602 0.6213 0.0185 0 0 0 0 0 0 0 0.0027 0.4608 0.5221 0.0144 0 0 0 0 0 0 0 0.0166 0.5427999999999999 0.4406 0 0 0 0 0 0 0 0 0.0444 0.9556 0 0 0 0 0 0 0 0 0 1 0 0 0 0 0 0 0 0 0 1 0 0 0 0 0 0 0 0 0 1 0 0 0 0.08939999999999999 0.7662 0.1444 0 0 0 0 0 0 0 0 0.0537 0.7346 0.2117 0 0 0 0 0 0 0 0 0.0328 0.6808 0.2864 0 0 0 0 0 0 0 0 0.0203 0.6119 0.3662 0.0016 0 0 0 0 0 0 0 0.0156 0.539 0.4454 0 0 0 0 0 0 0 0 0.013 0.987 0 0 0 0 0 0 0 0 0 1 0 0 0 0 0 0 0 0 0 1 0 0 0 0 0 0 0 0 0 1 0 0 0 0 0 0 0 0 0 1 0 0 0 0.0761 0.6816 0.2423 0 0 0 0 0 0 0 0 0.0073 0.534 0.4555 0.0032 0 0 0 0 0 0 0 0 0.3178 0.6262 0.056 0 0 0 0 0 0 0 0 0.1347 0.6728 0.1925 0 0 0 0 0 0 0 0 0.0445 0.9555 0 0 0 0 0 0 0 0 0 1 0 0 0 0 0 0 0 0 0 1 0 0 0 0 0 0 0 0 0 1 0 0 0 0 0 0 0 0 0 1 0 0 0 0 0 0 0 0 0 1 0 0 0 0.0709 0.5991 0.33 0 0 0 0 0 0 0 0 0 0.3303 0.5963000000000001 0.07340000000000001 0 0 0 0 0 0 0 0 0.0746 0.5949 0.3286 0.0019 0 0 0 0 0 0 0 0.0017 0.3478 0.6505 0 0 0 0 0 0 0 0 0 1 0 0 0 0 0 0 0 0 0 1 0 0 0 0 0 0 0 0 0 1 0 0 0 0 0 0 0 0 0 1 0 0 0 0 0 0 0 0 0 1 0 0 0 0 0 0 0 0 0 1 0 0 0 0.054 0.5358000000000001 0.4059 0.0043 0 0 0 0 0 0 0 0 0.1872 0.5744 0.2384 0 0 0 0 0 0 0 0 0.0032 0.3569 0.5403 0.09959999999999999 0 0 0 0 0 0 0 0 0.0432 0.9568 0 0 0 0 0 0 0 0 0 1 0 0 0 0 0 0 0 0 0 1 0 0 0 0 0 0 0 0 0 1 0 0 0 0 0 0 0 0 0 1 0 0 0 0 0 0 0 0 0 1 0 0 0 0 0 0 0 0 0 1 0 0 0 0.0512 0.4728 0.4458 0.0302 0 0 0 0 0 0 0 0 0.08359999999999999 0.5057 0.3951 0.0156 0 0 0 0 0 0 0 0 0.1182 0.5079 0.3739 0 0 0 0 0 0 0 0 0 1 0 0 0 0 0 0 0 0 0 1 0 0 0 0 0 0 0 0 0 1 0 0 0 0 0 0 0 0 0 1 0 0 0 0 0 0 0 0 0 1 0 0 0 0 0 0 0 0 0 1 0 0 0 0 0 0 0 0 0 1 0 0 0 0 0.6922 0.3078 0 0 0 0 0 0 0 0 0.5562 0.4438 0 0 0 0 0 0 0 0 0.4415 0.5585 0 0 0 0 0 0 0 0 0.3225 0.6775 0 0 0 0 0 0 0 0 0.2536 0.7386 0.0078 0 0 0 0 0 0 0 0.2072 0.742 0.0508 0 0 0 0 0 0 0 0.1754 0.7044 0.1202 0 0 0 0 0 0 0 0.1559 0.6415999999999999 0.2025 0 0 0 0 0 0 0 0.1347 0.5683 0.297 0 0 0 0 0 0 0 0.1191 0.5135 0.3639 0.0035 0 0 0 0 0 0 0.5685 0.4315 0 0 0 0 0 0 0 0 0.2041 0.7959000000000001 0 0 0 0 0 0 0 0 0.0199 0.9184 0.0617 0 0 0 0 0 0 0 0 0.6788999999999999 0.3211 0 0 0 0 0 0 0 0 0.3385 0.6572 0.0043 0 0 0 0 0 0 0 0.1437 0.7612 0.0951 0 0 0 0 0 0 0 0.0481 0.6401 0.3118 0 0 0 0 0 0 0 0.0049 0.4645 0.5085 0.0221 0 0 0 0 0 0 0 0.2925 0.5728 0.1347 0 0 0 0 0 0 0 0.1661 0.5256 0.3067 0.0016 0 0 0 0 0.4309 0.5691000000000001 0 0 0 0 0 0 0 0 0.019 0.9253 0.0557 0 0 0 0 0 0 0 0 0.4395 0.5605 0 0 0 0 0 0 0 0 0.0465 0.8527 0.1008 0 0 0 0 0 0 0 0 0.4425 0.5548 0.0027 0 0 0 0 0 0 0 0.1011 0.7415 0.1574 0 0 0 0 0 0 0 0.0027 0.4662 0.5154 0.0157 0 0 0 0 0 0 0 0.1611 0.624 0.2149 0 0 0 0 0 0 0 0.0211 0.4551 0.5238 0 0 0 0 0 0 0 0 0.2207 0.7793 0 0 0 0 0.3279 0.6721 0 0 0 0 0 0 0 0 0 0.6753 0.3247 0 0 0 0 0 0 0 0 0.0482 0.849 0.1028 0 0 0 0 0 0 0 0 0.2608 0.717 0.0222 0 0 0 0 0 0 0 0.0039 0.5368000000000001 0.4575 0.0018 0 0 0 0 0 0 0 0.0728 0.7049 0.2223 0 0 0 0 0 0 0 0 0.2589 0.7411 0 0 0 0 0 0 0 0 0.0163 0.9837 0 0 0 0 0 0 0 0 0 1 0 0 0 0 0 0 0 0 0 1 0 0 0 0 0.2437 0.7468 0.0095 0 0 0 0 0 0 0 0 0.3421 0.6539 0.004 0 0 0 0 0 0 0 0 0.4576 0.5397999999999999 0.0026 0 0 0 0 0 0 0 0.0039 0.5439000000000001 0.4499 0.0023 0 0 0 0 0 0 0 0.0193 0.6105 0.3702 0 0 0 0 0 0 0 0 0.0551 0.9449 0 0 0 0 0 0 0 0 0 1 0 0 0 0 0 0 0 0 0 1 0 0 0 0 0 0 0 0 0 1 0 0 0 0 0 0 0 0 0 1 0 0 0 0 0.2095 0.7379 0.0526 0 0 0 0 0 0 0 0 0.1465 0.7592 0.09429999999999999 0 0 0 0 0 0 0 0 0.1011 0.7487 0.1502 0 0 0 0 0 0 0 0 0.07000000000000001 0.7069 0.2231 0 0 0 0 0 0 0 0 0.0578 0.9422 0 0 0 0 0 0 0 0 0 1 0 0 0 0 0 0 0 0 0 1 0 0 0 0 0 0 0 0 0 1 0 0 0 0 0 0 0 0 0 1 0 0 0 0 0 0 0 0 0 1 0 0 0 0 0.1754 0.7035 0.1211 0 0 0 0 0 0 0 0 0.0477 0.6444 0.3079 0 0 0 0 0 0 0 0 0.0037 0.4591 0.5215 0.0157 0 0 0 0 0 0 0 0 0.2524 0.7476 0 0 0 0 0 0 0 0 0 1 0 0 0 0 0 0 0 0 0 1 0 0 0 0 0 0 0 0 0 1 0 0 0 0 0 0 0 0 0 1 0 0 0 0 0 0 0 0 0 1 0 0 0 0 0 0 0 0 0 1 0 0 0 0 0.15 0.6413 0.2087 0 0 0 0 0 0 0 0 0.0064 0.4736 0.4981 0.0219 0 0 0 0 0 0 0 0 0.1522 0.6359 0.2119 0 0 0 0 0 0 0 0 0.0147 0.9853 0 0 0 0 0 0 0 0 0 1 0 0 0 0 0 0 0 0 0 1 0 0 0 0 0 0 0 0 0 1 0 0 0 0 0 0 0 0 0 1 0 0 0 0 0 0 0 0 0 1 0 0 0 0 0 0 0 0 0 1 0 0 0 0 0.1327 0.5783 0.289 0 0 0 0 0 0 0 0 0 0.286 0.5799 0.1341 0 0 0 0 0 0 0 0 0.0221 0.4555 0.5224 0 0 0 0 0 0 0 0 0 1 0 0 0 0 0 0 0 0 0 1 0 0 0 0 0 0 0 0 0 1 0 0 0 0 0 0 0 0 0 1 0 0 0 0 0 0 0 0 0 1 0 0 0 0 0 0 0 0 0 1 0 0 0 0 0 0 0 0 0 1 0 0 0 0 0.1167 0.5197000000000001 0.359 0.0046 0 0 0 0 0 0 0 0 0.1651 0.5158 0.3178 0.0013 0 0 0 0 0 0 0 0 0.2103 0.7897 0 0 0 0 0 0 0 0 0 1 0 0 0 0 0 0 0 0 0 1 0 0 0 0 0 0 0 0 0 1 0 0 0 0 0 0 0 0 0 1 0 0 0 0 0 0 0 0 0 1 0 0 0 0 0 0 0 0 0 1 0 0 0 0 0 0 0 0 0 1 0 0 0 0 0 0.9423 0.0577 0 0 0 0 0 0 0 0 0.8203 0.1797 0 0 0 0 0 0 0 0 0.6909 0.3091 0 0 0 0 0 0 0 0 0.5527 0.4473 0 0 0 0 0 0 0 0 0.4449 0.5551 0 0 0 0 0 0 0 0 0.3602 0.6329 0.0069 0 0 0 0 0 0 0 0.3183 0.6362 0.0455 0 0 0 0 0 0 0 0.2704 0.6276 0.102 0 0 0 0 0 0 0 0.233 0.5799 0.1871 0 0 0 0 0 0 0 0.2048 0.5256 0.2696 0 0 0 0 0 0 0 0.8186 0.1814 0 0 0 0 0 0 0 0 0.4536 0.5464 0 0 0 0 0 0 0 0 0.12 0.8723 0.0077 0 0 0 0 0 0 0 0.0129 0.8363 0.1508 0 0 0 0 0 0 0 0 0.5518 0.4482 0 0 0 0 0 0 0 0 0.282 0.6911 0.0269 0 0 0 0 0 0 0 0.1321 0.6919999999999999 0.1759 0 0 0 0 0 0 0 0.0409 0.5633 0.3941 0.0017 0 0 0 0 0 0 0.0049 0.403 0.5269 0.06519999999999999 0 0 0 0 0 0 0 0.2701 0.5235 0.2064 0 0 0 0 0 0.6813 0.3187 0 0 0 0 0 0 0 0 0.1222 0.8699 0.007900000000000001 0 0 0 0 0 0 0 0 0.6795 0.3205 0 0 0 0 0 0 0 0 0.1576 0.8119 0.0305 0 0 0 0 0 0 0 0.0044 0.6404 0.3552 0 0 0 0 0 0 0 0 0.2124 0.7224 0.06519999999999999 0 0 0 0 0 0 0 0.0257 0.5909 0.3834 0 0 0 0 0 0 0 0 0.2713 0.7287 0 0 0 0 0 0 0 0 0.0622 0.9378 0 0 0 0 0 0 0 0 0.0024 0.9976 0 0 0 0 0 0.5698 0.4302 0 0 0 0 0 0 0 0 0.0124 0.8327 0.1549 0 0 0 0 0 0 0 0 0.1576 0.8112 0.0312 0 0 0 0 0 0 0 0 0.4589 0.5387999999999999 0.0023 0 0 0 0 0 0 0 0.0294 0.6979 0.2727 0 0 0 0 0 0 0 0 0.1636 0.8364 0 0 0 0 0 0 0 0 0.0018 0.9982 0 0 0 0 0 0 0 0 0 1 0 0 0 0 0 0 0 0 0 1 0 0 0 0 0 0 0 0 0 1 0 0 0 0 0 0.4438 0.5562 0 0 0 0 0 0 0 0 0 0.5649999999999999 0.435 0 0 0 0 0 0 0 0 0.0065 0.6485 0.345 0 0 0 0 0 0 0 0 0.0267 0.6975 0.2758 0 0 0 0 0 0 0 0 0.0667 0.9333 0 0 0 0 0 0 0 0 0 1 0 0 0 0 0 0 0 0 0 1 0 0 0 0 0 0 0 0 0 1 0 0 0 0 0 0 0 0 0 1 0 0 0 0 0 0 0 0 0 1 0 0 0 0 0 0.3678 0.626 0.0062 0 0 0 0 0 0 0 0 0.2749 0.6924 0.0327 0 0 0 0 0 0 0 0 0.2181 0.7164 0.0655 0 0 0 0 0 0 0 0 0.1586 0.8414 0 0 0 0 0 0 0 0 0 1 0 0 0 0 0 0 0 0 0 1 0 0 0 0 0 0 0 0 0 1 0 0 0 0 0 0 0 0 0 1 0 0 0 0 0 0 0 0 0 1 0 0 0 0 0 0 0 0 0 1 0 0 0 0 0 0.3018 0.6516999999999999 0.0465 0 0 0 0 0 0 0 0 0.1241 0.6966 0.1793 0 0 0 0 0 0 0 0 0.0253 0.5903 0.3844 0 0 0 0 0 0 0 0 0.0023 0.9977 0 0 0 0 0 0 0 0 0 1 0 0 0 0 0 0 0 0 0 1 0 0 0 0 0 0 0 0 0 1 0 0 0 0 0 0 0 0 0 1 0 0 0 0 0 0 0 0 0 1 0 0 0 0 0 0 0 0 0 1 0 0 0 0 0 0.2773 0.6163999999999999 0.1063 0 0 0 0 0 0 0 0 0.0419 0.5558999999999999 0.3994 0.0028 0 0 0 0 0 0 0 0 0.263 0.737 0 0 0 0 0 0 0 0 0 1 0 0 0 0 0 0 0 0 0 1 0 0 0 0 0 0 0 0 0 1 0 0 0 0 0 0 0 0 0 1 0 0 0 0 0 0 0 0 0 1 0 0 0 0 0 0 0 0 0 1 0 0 0 0 0 0 0 0 0 1 0 0 0 0 0 0.2373 0.5796 0.1831 0 0 0 0 0 0 0 0 0.0046 0.4003 0.5299 0.06519999999999999 0 0 0 0 0 0 0 0 0.0617 0.9383 0 0 0 0 0 0 0 0 0 1 0 0 0 0 0 0 0 0 0 1 0 0 0 0 0 0 0 0 0 1 0 0 0 0 0 0 0 0 0 1 0 0 0 0 0 0 0 0 0 1 0 0 0 0 0 0 0 0 0 1 0 0 0 0 0 0 0 0 0 1 0 0 0 0 0 0.2097 0.5296999999999999 0.2606 0 0 0 0 0 0 0 0 0 0.2635 0.524 0.2125 0 0 0 0 0 0 0 0 0.0023 0.9977 0 0 0 0 0 0 0 0 0 1 0 0 0 0 0 0 0 0 0 1 0 0 0 0 0 0 0 0 0 1 0 0 0 0 0 0 0 0 0 1 0 0 0 0 0 0 0 0 0 1 0 0 0 0 0 0 0 0 0 1 0 0 0 0 0 0 0 0 0 1 0 0 0 0 0 0 1 0 0 0 0 0 0 0 0 0 0.9747 0.0253 0 0 0 0 0 0 0 0 0.8836000000000001 0.1164 0 0 0 0 0 0 0 0 0.783 0.217 0 0 0 0 0 0 0 0 0.6605 0.3395 0 0 0 0 0 0 0 0 0.5493 0.4507 0 0 0 0 0 0 0 0 0.4697 0.5241 0.0062 0 0 0 0 0 0 0 0.4064 0.5566 0.037 0 0 0 0 0 0 0 0.3542 0.5562 0.0896 0 0 0 0 0 0 0 0.3133 0.5224 0.1643 0 0 0 0 0 0 0 0.9758 0.0242 0 0 0 0 0 0 0 0 0.6798999999999999 0.3201 0 0 0 0 0 0 0 0 0.3221 0.6778999999999999 0 0 0 0 0 0 0 0 0.0864 0.8704 0.0432 0 0 0 0 0 0 0 0.0089 0.7317 0.2594 0 0 0 0 0 0 0 0 0.4483 0.548 0.0037 0 0 0 0 0 0 0 0.2381 0.6797 0.0822 0 0 0 0 0 0 0 0.1057 0.6312 0.2631 0 0 0 0 0 0 0 0.0315 0.4992 0.4693 0 0 0 0 0 0 0 0.0051 0.3537 0.6412 0 0 0 0 0 0 0.8816000000000001 0.1184 0 0 0 0 0 0 0 0 0.315 0.6850000000000001 0 0 0 0 0 0 0 0 0.0105 0.8468 0.1427 0 0 0 0 0 0 0 0 0.3512 0.6445 0.0043 0 0 0 0 0 0 0 0.0362 0.7752 0.1886 0 0 0 0 0 0 0 0 0.3724 0.6276 0 0 0 0 0 0 0 0 0.08699999999999999 0.913 0 0 0 0 0 0 0 0 0.004 0.996 0 0 0 0 0 0 0 0 0 1 0 0 0 0 0 0 0 0 0 1 0 0 0 0 0 0 0.7743 0.2257 0 0 0 0 0 0 0 0 0.0886 0.8683999999999999 0.043 0 0 0 0 0 0 0 0 0.335 0.6615 0.0035 0 0 0 0 0 0 0 0.0041 0.6546 0.3413 0 0 0 0 0 0 0 0 0.0915 0.9085 0 0 0 0 0 0 0 0 0 1 0 0 0 0 0 0 0 0 0 1 0 0 0 0 0 0 0 0 0 1 0 0 0 0 0 0 0 0 0 1 0 0 0 0 0 0 0 0 0 1 0 0 0 0 0 0 0.6639 0.3361 0 0 0 0 0 0 0 0 0.0102 0.7336 0.2562 0 0 0 0 0 0 0 0 0.0416 0.7749 0.1835 0 0 0 0 0 0 0 0 0.08500000000000001 0.915 0 0 0 0 0 0 0 0 0 1 0 0 0 0 0 0 0 0 0 1 0 0 0 0 0 0 0 0 0 1 0 0 0 0 0 0 0 0 0 1 0 0 0 0 0 0 0 0 0 1 0 0 0 0 0 0 0 0 0 1 0 0 0 0 0 0 0.5486 0.4514 0 0 0 0 0 0 0 0 0 0.4524 0.5439000000000001 0.0037 0 0 0 0 0 0 0 0 0.3767 0.6233 0 0 0 0 0 0 0 0 0 1 0 0 0 0 0 0 0 0 0 1 0 0 0 0 0 0 0 0 0 1 0 0 0 0 0 0 0 0 0 1 0 0 0 0 0 0 0 0 0 1 0 0 0 0 0 0 0 0 0 1 0 0 0 0 0 0 0 0 0 1 0 0 0 0 0 0 0.4597 0.5335 0.0068 0 0 0 0 0 0 0 0 0.2416 0.6775 0.0809 0 0 0 0 0 0 0 0 0.0878 0.9122 0 0 0 0 0 0 0 0 0 1 0 0 0 0 0 0 0 0 0 1 0 0 0 0 0 0 0 0 0 1 0 0 0 0 0 0 0 0 0 1 0 0 0 0 0 0 0 0 0 1 0 0 0 0 0 0 0 0 0 1 0 0 0 0 0 0 0 0 0 1 0 0 0 0 0 0 0.3946 0.5659 0.0395 0 0 0 0 0 0 0 0 0.1056 0.6318 0.2626 0 0 0 0 0 0 0 0 0.0031 0.9969 0 0 0 0 0 0 0 0 0 1 0 0 0 0 0 0 0 0 0 1 0 0 0 0 0 0 0 0 0 1 0 0 0 0 0 0 0 0 0 1 0 0 0 0 0 0 0 0 0 1 0 0 0 0 0 0 0 0 0 1 0 0 0 0 0 0 0 0 0 1 0 0 0 0 0 0 0.356 0.5481 0.0959 0 0 0 0 0 0 0 0 0.0368 0.4932 0.47 0 0 0 0 0 0 0 0 0 1 0 0 0 0 0 0 0 0 0 1 0 0 0 0 0 0 0 0 0 1 0 0 0 0 0 0 0 0 0 1 0 0 0 0 0 0 0 0 0 1 0 0 0 0 0 0 0 0 0 1 0 0 0 0 0 0 0 0 0 1 0 0 0 0 0 0 0 0 0 1 0 0 0 0 0 0 0.3196 0.5187 0.1617 0 0 0 0 0 0 0 0 0.0039 0.3642 0.6319 0 0 0 0 0 0 0 0 0 1 0 0 0 0 0 0 0 0 0 1 0 0 0 0 0 0 0 0 0 1 0 0 0 0 0 0 0 0 0 1 0 0 0 0 0 0 0 0 0 1 0 0 0 0 0 0 0 0 0 1 0 0 0 0 0 0 0 0 0 1 0 0 0 0 0 0 0 0 0 1 0 0 0 0 0 0 0.1823 0.8177 0 0 0 0 0 0 0 0 0.0906 0.9094 0 0 0 0 0 0 0 0 0.0511 0.9319 0.017 0 0 0 0 0 0 0 0.0382 0.8802 0.08160000000000001 0 0 0 0 0 0 0 0.0255 0.7983 0.1762 0 0 0 0 0 0 0 0.0235 0.7013 0.2752 0 0 0 0 0 0 0 0.0174 0.5992 0.3834 0 0 0 0 0 0 0 0.0157 0.5194 0.46 0.0049 0 0 0 0 0 0 0.0154 0.451 0.501 0.0326 0 0 0 0 0 0 0.0142 0.4063 0.4975 0.082 0 0 0 0 0 0 0.0828 0.9172 0 0 0 0 0 0 0 0 0 0.9083 0.0917 0 0 0 0 0 0 0 0 0.5701000000000001 0.4299 0 0 0 0 0 0 0 0 0.2399 0.7543 0.0058 0 0 0 0 0 0 0 0.0677 0.8186 0.1137 0 0 0 0 0 0 0 0.008500000000000001 0.6324 0.3591 0 0 0 0 0 0 0 0 0.3921 0.6079 0 0 0 0 0 0 0 0 0.2086 0.7914 0 0 0 0 0 0 0 0 0.0951 0.9049 0 0 0 0 0 0 0 0 0.0323 0.9677 0 0 0 0 0 0 0.0511 0.9319 0.017 0 0 0 0 0 0 0 0 0.5609 0.4391 0 0 0 0 0 0 0 0 0.0793 0.8834 0.0373 0 0 0 0 0 0 0 0 0.5580000000000001 0.442 0 0 0 0 0 0 0 0 0.1234 0.8766 0 0 0 0 0 0 0 0 0.0035 0.9965000000000001 0 0 0 0 0 0 0 0 0 1 0 0 0 0 0 0 0 0 0 1 0 0 0 0 0 0 0 0 0 1 0 0 0 0 0 0 0 0 0 1 0 0 0 0 0 0 0.0355 0.8803 0.0842 0 0 0 0 0 0 0 0 0.2405 0.7548 0.0047 0 0 0 0 0 0 0 0 0.5641 0.4359 0 0 0 0 0 0 0 0 0.0377 0.9623 0 0 0 0 0 0 0 0 0 1 0 0 0 0 0 0 0 0 0 1 0 0 0 0 0 0 0 0 0 1 0 0 0 0 0 0 0 0 0 1 0 0 0 0 0 0 0 0 0 1 0 0 0 0 0 0 0 0 0 1 0 0 0 0 0 0 0.0285 0.7972 0.1743 0 0 0 0 0 0 0 0 0.0665 0.8177 0.1158 0 0 0 0 0 0 0 0 0.127 0.873 0 0 0 0 0 0 0 0 0 1 0 0 0 0 0 0 0 0 0 1 0 0 0 0 0 0 0 0 0 1 0 0 0 0 0 0 0 0 0 1 0 0 0 0 0 0 0 0 0 1 0 0 0 0 0 0 0 0 0 1 0 0 0 0 0 0 0 0 0 1 0 0 0 0 0 0 0.0255 0.703 0.2715 0 0 0 0 0 0 0 0 0.0101 0.6271 0.3628 0 0 0 0 0 0 0 0 0.0034 0.9966 0 0 0 0 0 0 0 0 0 1 0 0 0 0 0 0 0 0 0 1 0 0 0 0 0 0 0 0 0 1 0 0 0 0 0 0 0 0 0 1 0 0 0 0 0 0 0 0 0 1 0 0 0 0 0 0 0 0 0 1 0 0 0 0 0 0 0 0 0 1 0 0 0 0 0 0 0.019 0.5989 0.3821 0 0 0 0 0 0 0 0 0 0.3884 0.6116 0 0 0 0 0 0 0 0 0 1 0 0 0 0 0 0 0 0 0 1 0 0 0 0 0 0 0 0 0 1 0 0 0 0 0 0 0 0 0 1 0 0 0 0 0 0 0 0 0 1 0 0 0 0 0 0 0 0 0 1 0 0 0 0 0 0 0 0 0 1 0 0 0 0 0 0 0 0 0 1 0 0 0 0 0 0 0.0161 0.5264 0.4528 0.0047 0 0 0 0 0 0 0 0 0.2064 0.7936 0 0 0 0 0 0 0 0 0 1 0 0 0 0 0 0 0 0 0 1 0 0 0 0 0 0 0 0 0 1 0 0 0 0 0 0 0 0 0 1 0 0 0 0 0 0 0 0 0 1 0 0 0 0 0 0 0 0 0 1 0 0 0 0 0 0 0 0 0 1 0 0 0 0 0 0 0 0 0 1 0 0 0 0 0 0 0.0154 0.4576 0.49 0.037 0 0 0 0 0 0 0 0 0.0925 0.9075 0 0 0 0 0 0 0 0 0 1 0 0 0 0 0 0 0 0 0 1 0 0 0 0 0 0 0 0 0 1 0 0 0 0 0 0 0 0 0 1 0 0 0 0 0 0 0 0 0 1 0 0 0 0 0 0 0 0 0 1 0 0 0 0 0 0 0 0 0 1 0 0 0 0 0 0 0 0 0 1 0 0 0 0 0 0 0.0155 0.4107 0.4906 0.0832 0 0 0 0 0 0 0 0 0.0302 0.9698 0 0 0 0 0 0 0 0 0 1 0 0 0 0 0 0 0 0 0 1 0 0 0 0 0 0 0 0 0 1 0 0 0 0 0 0 0 0 0 1 0 0 0 0 0 0 0 0 0 1 0 0 0 0 0 0 0 0 0 1 0 0 0 0 0 0 0 0 0 1 0 0 0 0 0 0 0 0 0 1</probabilities>
		</cpt>
		<cpt id="motoruse_for_whirlewind_t_1">
			<state id="State0" />
			<state id="State1" />
			<state id="State2" />
			<state id="State3" />
			<state id="State4" />
			<state id="State5" />
			<state id="State6" />
			<state id="State7" />
			<state id="State8" />
			<state id="State9" />
			<intervals>0 0.1 0.2 0.3 0.4 0.5 0.6 0.7 0.8 0.9 1</intervals>
			<probabilities>0.3521894380755497 0.148468333020109 0.1403871452734448 0.1153918436384138 0.08062394286788198 0.06897199774478481 0.04284908851719602 0.02706258222138696 0.01447096410449164 0.009584664536741214</probabilities>
		</cpt>
		<cpt id="motoruse_for_whirlewind">
			<state id="State0" />
			<state id="State1" />
			<state id="State2" />
			<state id="State3" />
			<state id="State4" />
			<state id="State5" />
			<state id="State6" />
			<state id="State7" />
			<state id="State8" />
			<state id="State9" />
			<intervals>0 0.1 0.2 0.3 0.4 0.5 0.6 0.7 0.8 0.9 1</intervals>
			<parents>motoruse_for_whirlewind_t_1</parents>
			<probabilities>0.5322791237487305 0.3519512548962716 0.1037284201363702 0.01088060351080807 0.0004352241404323226 0.0001450747134774409 0.0001450747134774409 0.0001450747134774409 0.0001450747134774409 0.0001450747134774409 0.2562749111278682 0.3965312937627922 0.2668318431541528 0.07098998168695465 0.00861790369492621 0.0003231713885597329 0.0001077237961865776 0.0001077237961865776 0.0001077237961865776 0.0001077237961865776 0.06614981876761981 0.2444623439387837 0.378372935964559 0.2373137333870318 0.065344341522352 0.007652033830044301 0.0004027386226339106 0.0001006846556584777 0.0001006846556584777 0.0001006846556584777 0.007000700070007001 0.0625062506250625 0.247024702470247 0.369036903690369 0.2389238923892389 0.06720672067206721 0.007800780078007801 0.0003000300030003001 0.0001000100010001 0.0001000100010001 0.0005999400059994001 0.007699230076992301 0.068993100689931 0.2331766823317668 0.3784621537846216 0.2370762923707629 0.06629337066293371 0.007099290070992901 0.0004999500049995 9.999000099990002e-05 9.999000099990002e-05 0.0001999800019998 0.007399260073992601 0.06939306069393061 0.2466753324667533 0.3701629837016298 0.2304769523047695 0.06769323067693231 0.007399260073992601 0.0004999500049995 0.0001000100010001 0.0001000100010001 0.0004000400040004001 0.008000800080008001 0.0627062706270627 0.2384238423842384 0.3669366936693669 0.2512251225122512 0.06530653065306531 0.006800680068006801 0.0001006745192791704 0.0001006745192791704 0.0001006745192791704 0.0004026980771166817 0.007449914426658612 0.06412966878083157 0.2419208698278466 0.3738044900835599 0.2455451525218967 0.0664451827242525 0.0001082485386447283 0.0001082485386447283 0.0001082485386447283 0.0001082485386447283 0.0006494912318683698 0.008768131630222992 0.07371725481705997 0.2589305044381901 0.4047412859926391 0.2527603377354406 0.0001464343242055938 0.0001464343242055938 0.0001464343242055938 0.0001464343242055938 0.0001464343242055938 0.000732171621027969 0.01083613999121394 0.09532874505784156 0.3517352467418363 0.5406355249670523</probabilities>
		</cpt>
		<cpt id="yaw_moment">
			<state id="State0" />
			<state id="State1" />
			<state id="State2" />
			<state id="State3" />
			<state id="State4" />
			<state id="State5" />
			<state id="State6" />
			<state id="State7" />
			<state id="State8" />
			<state id="State9" />
			<intervals>0 0.1 0.2 0.3 0.4 0.5 0.6 0.7 0.8 0.9 1</intervals>
			<parents>motoruse_for_whirlewind</parents>
			<probabilities>0.6855572213893053 0.239480259870065 0.06596701649175413 0.007796101949025487 0.0006996501749125438 9.995002498750625e-05 9.995002498750625e-05 9.995002498750625e-05 9.995002498750625e-05 9.995002498750625e-05 0.3140057982605218 0.3681895431370589 0.2397280815755273 0.06927921623512946 0.007497750674797561 0.0008997300809757073 9.997000899730081e-05 9.997000899730081e-05 9.997000899730081e-05 9.997000899730081e-05 0.07707687693691892 0.2387283814855543 0.3621913425972209 0.2454263720883735 0.06767969609117265 0.008297510746775967 0.0002999100269919024 9.997000899730081e-05 9.997000899730081e-05 9.997000899730081e-05 0.008698260347930415 0.0657868426314737 0.23125374925015 0.3738252349530094 0.24875024995001 0.0630873825234953 0.008198360327934412 0.0001999600079984003 9.998000399920016e-05 9.998000399920016e-05 0.0002999400119976005 0.007198560287942412 0.06988602279544091 0.245750849830034 0.3637272545490902 0.2436512697460508 0.0620875824835033 0.007198560287942412 9.998000399920016e-05 9.998000399920016e-05 9.999000099990002e-05 9.999000099990002e-05 0.006299370062993701 0.06709329067093291 0.246975302469753 0.354964503549645 0.2466753324667533 0.07079292070792921 0.0065993400659934 0.0003999600039996001 9.998000399920016e-05 9.998000399920016e-05 0.0002999400119976005 0.008298340331933614 0.06078784243151369 0.243251349730054 0.3675264947010598 0.2484503099380124 0.0635872825434913 0.007598480303939212 9.998000399920016e-05 9.998000399920016e-05 9.998000399920016e-05 0.0003999200159968006 0.008198360327934412 0.06498700259948011 0.2476504699060188 0.3660267946410718 0.2400519896020796 0.07238552289542091 9.996001599360256e-05 9.996001599360256e-05 9.996001599360256e-05 9.996001599360256e-05 0.0001999200319872051 0.00699720111955218 0.06927229108356657 0.2403038784486206 0.3677528988404638 0.3150739704118353 9.995002498750625e-05 9.995002498750625e-05 9.995002498750625e-05 9.995002498750625e-05 9.995002498750625e-05 0.0004997501249375312 0.00849575212393803 0.06986506746626686 0.2430784607696152 0.6775612193903049</probabilities>
		</cpt>
		<cpt id="motor_wear_t_1">
			<state id="State0" />
			<state id="State1" />
			<state id="State2" />
			<state id="State3" />
			<state id="State4" />
			<state id="State5" />
			<state id="State6" />
			<state id="State7" />
			<state id="State8" />
			<state id="State9" />
			<intervals>0 0.1 0.2 0.3 0.4 0.5 0.6 0.7 0.8 0.9 1</intervals>
			<probabilities>0.6606397774687065 0.2743890323862507 0.04768527717067356 0.004967216371945162 0.00337770713292271 0.001589509239022452 0.002185575203655871 0.0007947546195112259 0.002185575203655871 0.002185575203655871</probabilities>
		</cpt>
		<cpt id="motor_wear">
			<state id="State0" />
			<state id="State1" />
			<state id="State2" />
			<state id="State3" />
			<state id="State4" />
			<state id="State5" />
			<state id="State6" />
			<state id="State7" />
			<state id="State8" />
			<state id="State9" />
			<intervals>0 0.1 0.2 0.3 0.4 0.5 0.6 0.7 0.8 0.9 1</intervals>
			<parents>motor_wear_t_1</parents>
			<probabilities>0.7506265664160401 0.2424812030075188 0.006015037593984963 0.00012531328320802 0.00012531328320802 0.00012531328320802 0.00012531328320802 0.00012531328320802 0.00012531328320802 0.00012531328320802 0.1924929747089522 0.6185266961059815 0.1837615415495785 0.004616619831393015 0.0001003613006824568 0.0001003613006824568 0.0001003613006824568 0.0001003613006824568 0.0001003613006824568 0.0001003613006824568 0.003698150924537731 0.1856071964017991 0.6079960019990005 0.1979010494752624 0.004297851074462769 9.995002498750625e-05 9.995002498750625e-05 9.995002498750625e-05 9.995002498750625e-05 9.995002498750625e-05 9.995002498750625e-05 0.004597701149425287 0.1868065967016492 0.6094952523738131 0.1952023988005997 0.003398300849575212 9.995002498750625e-05 9.995002498750625e-05 9.995002498750625e-05 9.995002498750625e-05 9.995002498750625e-05 9.995002498750625e-05 0.004397801099450275 0.1909045477261369 0.6083958020989505 0.192703648175912 0.003098450774612694 9.995002498750625e-05 9.995002498750625e-05 9.995002498750625e-05 9.995002498750625e-05 9.995002498750625e-05 9.995002498750625e-05 0.004597701149425287 0.1961019490254872 0.6048975512243878 0.1901049475262369 0.003798100949525238 9.995002498750625e-05 9.995002498750625e-05 9.995002498750625e-05 9.995002498750625e-05 9.995002498750625e-05 9.995002498750625e-05 0.004497751124437781 0.1884057971014493 0.607696151924038 0.1946026986506747 0.004297851074462769 9.995002498750625e-05 9.995002498750625e-05 9.995002498750625e-05 9.995002498750625e-05 9.995002498750625e-05 9.995002498750625e-05 0.004897551224387806 0.1974012993503248 0.6062968515742129 0.1873063468265867 0.003598200899550225 0.0001002707309736288 0.0001002707309736288 0.0001002707309736288 0.0001002707309736288 0.0001002707309736288 0.0001002707309736288 0.004311641431866038 0.1914168254286574 0.6152612052541863 0.1884087034994485 0.0001238543472875898 0.0001238543472875898 0.0001238543472875898 0.0001238543472875898 0.0001238543472875898 0.0001238543472875898 0.0001238543472875898 0.005573445627941541 0.2423829576418132 0.7511766162992322</probabilities>
		</cpt>
		<cpt id="turbulence_t_1">
			<state id="State0" />
			<state id="State1" />
			<state id="State2" />
			<state id="State3" />
			<state id="State4" />
			<state id="State5" />
			<state id="State6" />
			<state id="State7" />
			<state id="State8" />
			<state id="State9" />
			<intervals>0 0.1 0.2 0.3 0.4 0.5 0.6 0.7 0.8 0.9 1</intervals>
			<probabilities>0.2574115722756082 0.2394193416479247 0.1854426497648743 0.1382130443672051 0.08300960948681252 0.05050092005724801 0.02841954610509098 0.01083622980985484 0.004906971989368228 0.001840114496013085</probabilities>
		</cpt>
		<cpt id="turbulence">
			<state id="State0" />
			<state id="State1" />
			<state id="State2" />
			<state id="State3" />
			<state id="State4" />
			<state id="State5" />
			<state id="State6" />
			<state id="State7" />
			<state id="State8" />
			<state id="State9" />
			<intervals>0 0.1 0.2 0.3 0.4 0.5 0.6 0.7 0.8 0.9 1</intervals>
			<parents>turbulence_t_1</parents>
			<probabilities>0.5465947207233484 0.343152982353799 0.09625200525010938 0.01283360070001458 0.0004375091147732244 0.0001458363715910748 0.0001458363715910748 0.0001458363715910748 0.0001458363715910748 0.0001458363715910748 0.2617406290392073 0.3937957776820336 0.2618483412322275 0.07324429125376992 0.008293838862559242 0.0006462731581214993 0.0001077121930202499 0.0001077121930202499 0.0001077121930202499 0.0001077121930202499 0.06737160120845921 0.2423967774420947 0.376233635448137 0.2405840886203424 0.06515609264853978 0.007754279959718027 0.0002014098690835851 0.0001007049345417925 0.0001007049345417925 0.0001007049345417925 0.0075 0.0654 0.2295 0.3822 0.2415 0.0658 0.0077 0.0002 0.0001 0.0001 0.0004999500049995 0.006799320067993201 0.0653934606539346 0.2417758224177582 0.3695630436956304 0.2402759724027597 0.0668933106689331 0.008199180081991801 0.0004999500049995 9.999000099990002e-05 9.999000099990002e-05 0.0003999600039996001 0.007899210078992101 0.0648935106489351 0.2410758924107589 0.3728627137286271 0.2404759524047595 0.06379362063793621 0.008199180081991801 0.0002999700029997 0.0001000400160064026 0.0001000400160064026 0.000900360144057623 0.006602641056422569 0.06442577030812324 0.2418967587034814 0.3650460184073629 0.2436974789915966 0.06892757102841136 0.008303321328531413 0.0001008267795926598 0.0001008267795926598 0.0001008267795926598 0.0003024803387779795 0.008469449485783424 0.06725146198830409 0.2461181689856826 0.3646904617866505 0.245714861867312 0.06715063520871144 0.0001075500107550011 0.0001075500107550011 0.0001075500107550011 0.0001075500107550011 0.0005377500537750054 0.008281350828135083 0.07291890729189072 0.2575822757582276 0.396321789632179 0.2639277263927726 0.0001463914507392768 0.0001463914507392768 0.0001463914507392768 0.0001463914507392768 0.0001463914507392768 0.0007319572536963841 0.01141853315766359 0.1001317523056653 0.3478260869565217 0.5391597130727566</probabilities>
		</cpt>
		<cpt id="mean_motoruse_sum1">
			<state id="State0" />
			<state id="State1" />
			<state id="State2" />
			<state id="State3" />
			<state id="State4" />
			<state id="State5" />
			<state id="State6" />
			<state id="State7" />
			<state id="State8" />
			<state id="State9" />
			<intervals>0 0.1 0.2 0.3 0.4 0.5 0.6 0.7 0.8 0.9 1</intervals>
			<parents>motoruse_for_tether motoruse_for_whirlewind</parents>
			<probabilities>0.8714 0.1286 0 0 0 0 0 0 0 0 0.1272 0.7465000000000001 0.1263 0 0 0 0 0 0 0 0 0.1241 0.7468 0.1291 0 0 0 0 0 0 0 0 0.1214 0.7413 0.1373 0 0 0 0 0 0 0 0 0.1214 0.7539 0.1247 0 0 0 0 0 0 0 0 0.1231 0.753 0.1239 0 0 0 0 0 0 0 0 0.1298 0.7409 0.1293 0 0 0 0 0 0 0 0 0.122 0.7575 0.1205 0 0 0 0 0 0 0 0 0.1312 0.7417 0.1271 0 0 0 0 0 0 0 0 0.1329 0.8671 0.1248 0.7504 0.1248 0 0 0 0 0 0 0 0 0.1253 0.7489 0.1258 0 0 0 0 0 0 0 0 0.122 0.7562 0.1218 0 0 0 0 0 0 0 0 0.1267 0.7487 0.1246 0 0 0 0 0 0 0 0 0.1252 0.7533 0.1215 0 0 0 0 0 0 0 0 0.12 0.7573 0.1227 0 0 0 0 0 0 0 0 0.1211 0.7481 0.1308 0 0 0 0 0 0 0 0 0.1258 0.7481 0.1261 0 0 0 0 0 0 0 0 0.1315 0.8685 0 0 0 0 0 0 0 0 0 1 0 0.1187 0.7587 0.1226 0 0 0 0 0 0 0 0 0.1261 0.7478 0.1261 0 0 0 0 0 0 0 0 0.1192 0.7519 0.1289 0 0 0 0 0 0 0 0 0.1199 0.7601 0.12 0 0 0 0 0 0 0 0 0.1225 0.7484 0.1291 0 0 0 0 0 0 0 0 0.1215 0.7574 0.1211 0 0 0 0 0 0 0 0 0.1238 0.7495000000000001 0.1267 0 0 0 0 0 0 0 0 0.1204 0.8796 0 0 0 0 0 0 0 0 0 1 0 0 0 0 0 0 0 0 0 1 0 0 0.1221 0.7468 0.1311 0 0 0 0 0 0 0 0 0.1256 0.7495000000000001 0.1249 0 0 0 0 0 0 0 0 0.1266 0.7482 0.1252 0 0 0 0 0 0 0 0 0.1244 0.7486 0.127 0 0 0 0 0 0 0 0 0.128 0.7445000000000001 0.1275 0 0 0 0 0 0 0 0 0.1259 0.7513 0.1228 0 0 0 0 0 0 0 0 0.1284 0.8716 0 0 0 0 0 0 0 0 0 1 0 0 0 0 0 0 0 0 0 1 0 0 0 0 0 0 0 0 0 1 0 0 0 0.1251 0.7467 0.1282 0 0 0 0 0 0 0 0 0.1276 0.7399 0.1325 0 0 0 0 0 0 0 0 0.1338 0.7467 0.1195 0 0 0 0 0 0 0 0 0.1263 0.7474 0.1263 0 0 0 0 0 0 0 0 0.1215 0.7521 0.1264 0 0 0 0 0 0 0 0 0.1239 0.8761 0 0 0 0 0 0 0 0 0 1 0 0 0 0 0 0 0 0 0 1 0 0 0 0 0 0 0 0 0 1 0 0 0 0 0 0 0 0 0 1 0 0 0 0 0.121 0.7531 0.1259 0 0 0 0 0 0 0 0 0.1275 0.7517 0.1208 0 0 0 0 0 0 0 0 0.1287 0.7458 0.1255 0 0 0 0 0 0 0 0 0.1252 0.7465000000000001 0.1283 0 0 0 0 0 0 0 0 0.1236 0.8764 0 0 0 0 0 0 0 0 0 1 0 0 0 0 0 0 0 0 0 1 0 0 0 0 0 0 0 0 0 1 0 0 0 0 0 0 0 0 0 1 0 0 0 0 0 0 0 0 0 1 0 0 0 0 0 0.1213 0.7491 0.1296 0 0 0 0 0 0 0 0 0.1299 0.7485000000000001 0.1216 0 0 0 0 0 0 0 0 0.1212 0.7549 0.1239 0 0 0 0 0 0 0 0 0.1252 0.8748 0 0 0 0 0 0 0 0 0 1 0 0 0 0 0 0 0 0 0 1 0 0 0 0 0 0 0 0 0 1 0 0 0 0 0 0 0 0 0 1 0 0 0 0 0 0 0 0 0 1 0 0 0 0 0 0 0 0 0 1 0 0 0 0 0 0 0.1241 0.7466 0.1293 0 0 0 0 0 0 0 0 0.1206 0.755 0.1244 0 0 0 0 0 0 0 0 0.1253 0.8747 0 0 0 0 0 0 0 0 0 1 0 0 0 0 0 0 0 0 0 1 0 0 0 0 0 0 0 0 0 1 0 0 0 0 0 0 0 0 0 1 0 0 0 0 0 0 0 0 0 1 0 0 0 0 0 0 0 0 0 1 0 0 0 0 0 0 0 0 0 1 0 0 0 0 0 0 0 0.1253 0.7476 0.1271 0 0 0 0 0 0 0 0 0.1207 0.8793 0 0 0 0 0 0 0 0 0 1 0 0 0 0 0 0 0 0 0 1 0 0 0 0 0 0 0 0 0 1 0 0 0 0 0 0 0 0 0 1 0 0 0 0 0 0 0 0 0 1 0 0 0 0 0 0 0 0 0 1 0 0 0 0 0 0 0 0 0 1 0 0 0 0 0 0 0 0 0 1 0 0 0 0 0 0 0 0 0.1271 0.8729 0 0 0 0 0 0 0 0 0 1 0 0 0 0 0 0 0 0 0 1 0 0 0 0 0 0 0 0 0 1 0 0 0 0 0 0 0 0 0 1 0 0 0 0 0 0 0 0 0 1 0 0 0 0 0 0 0 0 0 1 0 0 0 0 0 0 0 0 0 1 0 0 0 0 0 0 0 0 0 1 0 0 0 0 0 0 0 0 0 1</probabilities>
		</cpt>
		<cpt id="mean_motoruse_sum2">
			<state id="State0" />
			<state id="State1" />
			<state id="State2" />
			<state id="State3" />
			<state id="State4" />
			<state id="State5" />
			<state id="State6" />
			<state id="State7" />
			<state id="State8" />
			<state id="State9" />
			<intervals>0 0.1 0.2 0.3 0.4 0.5 0.6 0.7 0.8 0.9 1</intervals>
			<parents>motor_wear turbulence</parents>
			<probabilities>0.9744 0.0256 0 0 0 0 0 0 0 0 0.7975 0.2025 0 0 0 0 0 0 0 0 0.6037 0.3963 0 0 0 0 0 0 0 0 0.4028 0.5972 0 0 0 0 0 0 0 0 0.1974 0.8026 0 0 0 0 0 0 0 0 0.0237 0.9503 0.026 0 0 0 0 0 0 0 0 0.8026 0.1974 0 0 0 0 0 0 0 0 0.5985 0.4015 0 0 0 0 0 0 0 0 0.3968 0.6032 0 0 0 0 0 0 0 0 0.2002 0.7998 0 0 0 0 0 0 0 0.0254 0.9504 0.0242 0 0 0 0 0 0 0 0 0.8055 0.1945 0 0 0 0 0 0 0 0 0.5924 0.4076 0 0 0 0 0 0 0 0 0.3976 0.6024 0 0 0 0 0 0 0 0 0.1967 0.8033 0 0 0 0 0 0 0 0 0.0271 0.9485 0.0244 0 0 0 0 0 0 0 0 0.8031 0.1969 0 0 0 0 0 0 0 0 0.5917 0.4083 0 0 0 0 0 0 0 0 0.4034 0.5966 0 0 0 0 0 0 0 0 0.1997 0.8003 0 0 0 0 0 0 0 0.0235 0.95 0.0265 0 0 0 0 0 0 0 0 0.7981 0.2019 0 0 0 0 0 0 0 0 0.5935 0.4065 0 0 0 0 0 0 0 0 0.3882 0.6118 0 0 0 0 0 0 0 0 0.1949 0.8051 0 0 0 0 0 0 0 0 0.0261 0.9493 0.0246 0 0 0 0 0 0 0 0 0.8004 0.1996 0 0 0 0 0 0 0 0 0.5982 0.4018 0 0 0 0 0 0 0 0 0.3982 0.6018 0 0 0 0 0 0 0 0 0.2031 0.7969000000000001 0 0 0 0 0 0 0 0.0268 0.9488 0.0244 0 0 0 0 0 0 0 0 0.8044 0.1956 0 0 0 0 0 0 0 0 0.6044 0.3956 0 0 0 0 0 0 0 0 0.3979 0.6021 0 0 0 0 0 0 0 0 0.1963 0.8037 0 0 0 0 0 0 0 0 0.0269 0.948 0.0251 0 0 0 0 0 0 0 0 0.8045 0.1955 0 0 0 0 0 0 0 0 0.597 0.403 0 0 0 0 0 0 0 0 0.3985 0.6015 0 0 0 0 0 0 0 0 0.2026 0.7974 0 0 0 0 0 0 0 0.0245 0.9522 0.0233 0 0 0 0 0 0 0 0 0.8017 0.1983 0 0 0 0 0 0 0 0 0.5972 0.4028 0 0 0 0 0 0 0 0 0.3935 0.6065 0 0 0 0 0 0 0 0 0.2083 0.7917 0 0 0 0 0 0 0 0 0.0237 0.9514 0.0249 0 0 0 0 0 0 0 0 0.7921 0.2079 0 0 0 0 0 0 0 0 0.6001 0.3999 0 0 0 0 0 0 0 0 0.4059 0.5941 0 0 0 0 0 0 0 0 0.2014 0.7986 0 0 0 0 0 0 0 0.0267 0.9458 0.0275 0 0 0 0 0 0 0 0 0.7993 0.2007 0 0 0 0 0 0 0 0 0.5978 0.4022 0 0 0 0 0 0 0 0 0.3971 0.6029 0 0 0 0 0 0 0 0 0.198 0.802 0 0 0 0 0 0 0 0 0.0276 0.9462 0.0262 0 0 0 0 0 0 0 0 0.7968 0.2032 0 0 0 0 0 0 0 0 0.6007 0.3993 0 0 0 0 0 0 0 0 0.3967 0.6032999999999999 0 0 0 0 0 0 0 0 0.2021 0.7979000000000001 0 0 0 0 0 0 0 0.0255 0.9496 0.0249 0 0 0 0 0 0 0 0 0.7997 0.2003 0 0 0 0 0 0 0 0 0.5952 0.4048 0 0 0 0 0 0 0 0 0.397 0.603 0 0 0 0 0 0 0 0 0.1916 0.8084 0 0 0 0 0 0 0 0 0.0237 0.9520999999999999 0.0242 0 0 0 0 0 0 0 0 0.806 0.194 0 0 0 0 0 0 0 0 0.5972 0.4028 0 0 0 0 0 0 0 0 0.3897 0.6103 0 0 0 0 0 0 0 0 0.1966 0.8034 0 0 0 0 0 0 0 0.0232 0.9520999999999999 0.0247 0 0 0 0 0 0 0 0 0.7994 0.2006 0 0 0 0 0 0 0 0 0.5993000000000001 0.4007 0 0 0 0 0 0 0 0 0.4059 0.5941 0 0 0 0 0 0 0 0 0.2051 0.7949000000000001 0 0 0 0 0 0 0 0 0.023 0.9509 0.0261 0 0 0 0 0 0 0 0 0.7939000000000001 0.2061 0 0 0 0 0 0 0 0 0.5991 0.4009 0 0 0 0 0 0 0 0 0.4032 0.5968 0 0 0 0 0 0 0 0 0.2001 0.7999000000000001 0 0 0 0 0 0 0 0.0241 0.954 0.0219 0 0 0 0 0 0 0 0 0.7973 0.2027 0 0 0 0 0 0 0 0 0.6 0.4 0 0 0 0 0 0 0 0 0.4028 0.5972 0 0 0 0 0 0 0 0 0.2053 0.7947 0 0 0 0 0 0 0 0 0.0262 0.9738 0 0 0 0 0 0 0 0 0 1 0 0 0 0 0 0 0 0 0 1 0 0 0 0 0 0 0 0 0 1 0 0 0 0 0 0 0 0 0 1 0 0 0 0 0 0 0 0 0.0237 0.9762999999999999 0 0 0 0 0 0 0 0 0 1 0 0 0 0 0 0 0 0 0 1 0 0 0 0 0 0 0 0 0 1 0 0 0 0 0 0 0 0 0 1 0 0 0 0 0 0 0 0 0 1 0 0 0 0 0 0 0 0 0 1 0 0 0 0 0 0 0 0 0 1 0 0 0 0 0 0 0 0 0 1 0 0 0 0 0 0 0 0 0 1</probabilities>
		</cpt>
		<cpt id="mean_motor">
			<state id="State0" />
			<state id="State1" />
			<state id="State2" />
			<state id="State3" />
			<state id="State4" />
			<state id="State5" />
			<state id="State6" />
			<state id="State7" />
			<state id="State8" />
			<state id="State9" />
			<intervals>0 0.1 0.2 0.3 0.4 0.5 0.6 0.7 0.8 0.9 1</intervals>
			<parents>mean_motoruse_sum1 mean_motoruse_sum2</parents>
			<probabilities>0.680359820089955 0.2391804097951024 0.06936531734132934 0.009995002498750625 0.0005997001499250374 9.995002498750625e-05 9.995002498750625e-05 9.995002498750625e-05 9.995002498750625e-05 9.995002498750625e-05 0.3265693722510996 0.3507596961215514 0.2391043582566973 0.07227109156337465 0.01009596161535386 0.0007996801279488205 9.996001599360256e-05 9.996001599360256e-05 9.996001599360256e-05 9.996001599360256e-05 0.08367489753074078 0.2463261021693492 0.3571928421473558 0.230630810756773 0.07167849645106468 0.01009697090872738 9.997000899730081e-05 9.997000899730081e-05 9.997000899730081e-05 9.997000899730081e-05 0.01039792041591682 0.07588482303539291 0.2430513897220556 0.3479304139172166 0.239752049590082 0.07258548290341932 0.009798040391921616 0.0003999200159968006 9.998000399920016e-05 9.998000399920016e-05 0.0004999500049995 0.0084991500849915 0.0673932606739326 0.2393760623937606 0.3635636436356364 0.2407759224077592 0.07089291070892911 0.0084991500849915 0.0003999600039996001 9.999000099990002e-05 0.0001 0.0002 0.0094 0.07199999999999999 0.2399 0.3574 0.2391 0.0731 0.0077 0.0011 9.998000399920016e-05 9.998000399920016e-05 0.0003999200159968006 0.008398320335932814 0.07238552289542091 0.244251149770046 0.3537292541491702 0.2408518296340732 0.06908618276344732 0.01069786042791442 9.997000899730081e-05 9.997000899730081e-05 9.997000899730081e-05 0.0001999400179946016 0.01019694091772468 0.06658002599220234 0.2355293411976407 0.362891132660202 0.2446266120163951 0.07967609717084874 9.996001599360256e-05 9.996001599360256e-05 9.996001599360256e-05 9.996001599360256e-05 0.000899640143942423 0.009196321471411436 0.07117153138744502 0.2382047181127549 0.358656537385046 0.3214714114354258 9.995002498750625e-05 9.995002498750625e-05 9.995002498750625e-05 9.995002498750625e-05 9.995002498750625e-05 9.995002498750625e-05 0.00879560219890055 0.07116441779110445 0.2360819590204898 0.6833583208395803 0.3213714514194322 0.3540583766493403 0.2358056777289084 0.07856857257097161 0.009496201519392244 0.0002998800479808077 9.996001599360256e-05 9.996001599360256e-05 9.996001599360256e-05 9.996001599360256e-05 0.08457462761171648 0.2388283514945516 0.3519944016794961 0.2446266120163951 0.06997900629811056 0.009497150854743577 0.0001999400179946016 9.997000899730081e-05 9.997000899730081e-05 9.997000899730081e-05 0.01119776044791042 0.07028594281143771 0.2384523095380924 0.3503299340131973 0.2430513897220556 0.07378524295140972 0.01189762047590482 0.0007998400319936012 9.998000399920016e-05 9.998000399920016e-05 0.0003999600039996001 0.0082991700829917 0.06519348065193481 0.2454754524547545 0.3578642135786421 0.2443755624437556 0.068993100689931 0.008899110088991101 0.0003999600039996001 9.999000099990002e-05 9.999000099990002e-05 0.0005999400059994001 0.009299070092990702 0.07119288071192881 0.235976402359764 0.3635636436356364 0.2363763623637636 0.07429257074292571 0.007899210078992101 0.0006999300069993001 9.999000099990002e-05 9.999000099990002e-05 0.0008999100089991 0.009499050094990502 0.07519248075192481 0.2384761523847615 0.3588641135886411 0.2401759824017598 0.06569343065693431 0.010998900109989 9.997000899730081e-05 9.997000899730081e-05 9.997000899730081e-05 0.0007997600719784065 0.01069679096271119 0.07207837648705388 0.2389283215035489 0.3526941917424772 0.2437268819354194 0.08077576726981905 9.996001599360256e-05 9.996001599360256e-05 9.996001599360256e-05 9.996001599360256e-05 0.0001999200319872051 0.01049580167932827 0.07506997201119552 0.2351059576169532 0.3565573770491803 0.322171131547381 9.995002498750625e-05 9.995002498750625e-05 9.995002498750625e-05 9.995002498750625e-05 9.995002498750625e-05 0.0002998500749625187 0.00879560219890055 0.07126436781609195 0.248775612193903 0.6703648175912044 9.994003597841295e-05 9.994003597841295e-05 9.994003597841295e-05 9.994003597841295e-05 9.994003597841295e-05 9.994003597841295e-05 0.0004997001798920647 0.01229262442534479 0.07195682590445733 0.9146512092744353 0.08117564730580826 0.2357292812156353 0.3587923622913126 0.2437268819354194 0.06937918624412676 0.01039688093571928 0.000499850044986504 9.997000899730081e-05 9.997000899730081e-05 9.997000899730081e-05 0.01059788042391522 0.07438512297540492 0.2420515896820636 0.353129374125175 0.2350529894021196 0.07318536292741452 0.01069786042791442 0.0006998600279944011 9.998000399920016e-05 9.998000399920016e-05 0.0002999700029997 0.009599040095990401 0.07369263073692631 0.2507749225077492 0.3398660133986601 0.2430756924307569 0.07289271072892711 0.009399060093990601 0.0002999700029997 9.999000099990002e-05 0.0001 0.0007 0.0083 0.0774 0.2403 0.3596 0.2319 0.0733 0.007900000000000001 0.0005 9.998000399920016e-05 9.998000399920016e-05 0.0007998400319936012 0.009098180363927214 0.07448510297940412 0.2379524095180964 0.3512297540491902 0.243251349730054 0.07188562287542491 0.01109778044391122 9.997000899730081e-05 9.997000899730081e-05 9.997000899730081e-05 0.0005998200539838049 0.01019694091772468 0.07437768669399181 0.2367289813056083 0.3569929021293612 0.2425272418274518 0.07827651704488653 9.996001599360256e-05 9.996001599360256e-05 9.996001599360256e-05 9.996001599360256e-05 0.0005997600959616154 0.01019592163134746 0.07347061175529788 0.2399040383846461 0.3534586165533786 0.3219712115153938 9.995002498750625e-05 9.995002498750625e-05 9.995002498750625e-05 9.995002498750625e-05 9.995002498750625e-05 0.0004997501249375312 0.009195402298850575 0.07926036981509245 0.2357821089455272 0.6747626186906547 9.994003597841295e-05 9.994003597841295e-05 9.994003597841295e-05 9.994003597841295e-05 9.994003597841295e-05 9.994003597841295e-05 0.0007995202878273036 0.01209274435338797 0.06935838496901858 0.9171497101738957 9.9930048965724e-05 9.9930048965724e-05 9.9930048965724e-05 9.9930048965724e-05 9.9930048965724e-05 9.9930048965724e-05 9.9930048965724e-05 0.0005995802937943439 0.01009293494553812 0.9886079744179075 0.007498500299940012 0.07238552289542091 0.2348530293941212 0.3600279944011198 0.2383523295340932 0.07668466306738653 0.009498100379924015 0.0004999000199960008 9.998000399920016e-05 9.998000399920016e-05 0.0008999100089991 0.0103989601039896 0.07069293070692931 0.2405759424057594 0.3555644435556444 0.2424757524247575 0.07079292070792921 0.007999200079992001 0.0004999500049995 9.999000099990002e-05 9.999000099990002e-05 0.0003999600039996001 0.0096990300969903 0.0730926907309269 0.23997600239976 0.3531646835316468 0.2421757824217578 0.0740925907409259 0.006899310068993101 0.0003999600039996001 9.998000399920016e-05 9.998000399920016e-05 0.0004999000199960008 0.008998200359928014 0.07838432313537293 0.2440511897620476 0.347630473905219 0.2381523695260948 0.07288542291541691 0.009198160367926415 9.998000399920016e-05 9.998000399920016e-05 9.998000399920016e-05 0.0001999600079984003 0.01059788042391522 0.07078584283143372 0.2396520695860828 0.3594281143771246 0.233253349330134 0.08578284343131373 9.996001599360256e-05 9.996001599360256e-05 9.996001599360256e-05 9.996001599360256e-05 0.0006997201119552179 0.009796081567373051 0.06957217113154739 0.2474010395841663 0.3568572570971612 0.3152738904438225 9.995002498750625e-05 9.995002498750625e-05 9.995002498750625e-05 9.995002498750625e-05 9.995002498750625e-05 0.0004997501249375312 0.009695152423788106 0.07646176911544228 0.2366816591704148 0.6761619190404797 9.994003597841295e-05 9.994003597841295e-05 9.994003597841295e-05 9.994003597841295e-05 9.994003597841295e-05 9.994003597841295e-05 0.0003997601439136518 0.008394963022186688 0.07145712572456527 0.9191485108934639 9.9930048965724e-05 9.9930048965724e-05 9.9930048965724e-05 9.9930048965724e-05 9.9930048965724e-05 9.9930048965724e-05 9.9930048965724e-05 0.0005995802937943439 0.009493354651743779 0.9892075547117019 9.992006394884092e-05 9.992006394884092e-05 9.992006394884092e-05 9.992006394884092e-05 9.992006394884092e-05 9.992006394884092e-05 9.992006394884092e-05 9.992006394884092e-05 0.0003996802557953637 0.9988009592326139 0.0005999999999999999 0.0083 0.0699 0.2403 0.3652 0.2364 0.0699 0.008800000000000001 0.0005 0.0001 9.999000099990002e-05 0.0002999700029997 0.008399160083991601 0.07279272072792721 0.2396760323967603 0.3536646335366463 0.2395760423957604 0.07619238076192381 0.0084991500849915 0.0007999200079992001 9.998000399920016e-05 9.998000399920016e-05 0.0006998600279944011 0.01069786042791442 0.07198560287942411 0.241751649670066 0.3550289942011597 0.2404519096180764 0.06908618276344732 0.01009798040391922 9.997000899730081e-05 9.997000899730081e-05 9.997000899730081e-05 0.000499850044986504 0.00879736079176247 0.07107867639708088 0.2389283215035489 0.356593022093372 0.2412276317104869 0.08257522743177047 9.996001599360256e-05 9.996001599360256e-05 9.996001599360256e-05 9.996001599360256e-05 0.0005997600959616154 0.009496201519392244 0.07546981207516994 0.2317073170731707 0.3635545781687325 0.3187724910035986 9.996001599360256e-05 9.996001599360256e-05 9.996001599360256e-05 9.996001599360256e-05 9.996001599360256e-05 0.0002998800479808077 0.01099560175929628 0.07327069172331067 0.2413034786085566 0.6736305477808876 9.994003597841295e-05 9.994003597841295e-05 9.994003597841295e-05 9.994003597841295e-05 9.994003597841295e-05 9.994003597841295e-05 0.0004997001798920647 0.009694183489906057 0.07745352788327003 0.9117529482310613 9.9930048965724e-05 9.9930048965724e-05 9.9930048965724e-05 9.9930048965724e-05 9.9930048965724e-05 9.9930048965724e-05 9.9930048965724e-05 0.000399720195862896 0.01189167582692116 0.9870090936344559 9.992006394884092e-05 9.992006394884092e-05 9.992006394884092e-05 9.992006394884092e-05 9.992006394884092e-05 9.992006394884092e-05 9.992006394884092e-05 9.992006394884092e-05 0.0004996003197442046 0.998701039168665 9.991008092716555e-05 9.991008092716555e-05 9.991008092716555e-05 9.991008092716555e-05 9.991008092716555e-05 9.991008092716555e-05 9.991008092716555e-05 9.991008092716555e-05 9.991008092716555e-05 0.9991008092716556 9.999000099990002e-05 0.0003999600039996001 0.0096990300969903 0.07379262073792621 0.2391760823917608 0.3574642535746425 0.2403759624037596 0.06999300069993 0.008799120087991202 0.0001999800019998 9.998000399920016e-05 9.998000399920016e-05 0.0005998800239952009 0.009298140371925615 0.07318536292741452 0.242251549690062 0.359128174365127 0.23875224955009 0.06728654269146171 0.009298140371925615 9.997000899730081e-05 9.997000899730081e-05 9.997000899730081e-05 0.000499850044986504 0.01069679096271119 0.06927921623512946 0.2391282615215435 0.3498950314905528 0.2502249325202439 0.07997600719784065 9.996001599360256e-05 9.996001599360256e-05 9.996001599360256e-05 9.996001599360256e-05 9.996001599360256e-05 0.00859656137544982 0.07616953218712515 0.2347061175529788 0.3502598960415834 0.3297680927628948 9.995002498750625e-05 9.995002498750625e-05 9.995002498750625e-05 9.995002498750625e-05 9.995002498750625e-05 0.000399800099950025 0.009595202398800599 0.0752623688155922 0.248375812093953 0.6658670664667666 9.994003597841295e-05 9.994003597841295e-05 9.994003597841295e-05 9.994003597841295e-05 9.994003597841295e-05 9.994003597841295e-05 0.0007995202878273036 0.01009394363381971 0.07125724565260844 0.917249650209874 9.994003597841295e-05 9.994003597841295e-05 9.994003597841295e-05 9.994003597841295e-05 9.994003597841295e-05 9.994003597841295e-05 9.994003597841295e-05 0.0005996402158704777 0.008894663202078754 0.9898061163302019 9.992006394884092e-05 9.992006394884092e-05 9.992006394884092e-05 9.992006394884092e-05 9.992006394884092e-05 9.992006394884092e-05 9.992006394884092e-05 9.992006394884092e-05 0.0002997601918465228 0.9989008792965628 9.991008092716555e-05 9.991008092716555e-05 9.991008092716555e-05 9.991008092716555e-05 9.991008092716555e-05 9.991008092716555e-05 9.991008092716555e-05 9.991008092716555e-05 9.991008092716555e-05 0.9991008092716556 9.991008092716555e-05 9.991008092716555e-05 9.991008092716555e-05 9.991008092716555e-05 9.991008092716555e-05 9.991008092716555e-05 9.991008092716555e-05 9.991008092716555e-05 9.991008092716555e-05 0.9991008092716556 9.998000399920016e-05 9.998000399920016e-05 0.0003999200159968006 0.01069786042791442 0.06708658268346331 0.2430513897220556 0.3635272945410918 0.234753049390122 0.07028594281143771 0.009998000399920015 9.997000899730081e-05 9.997000899730081e-05 9.997000899730081e-05 0.0005998200539838049 0.00879736079176247 0.07217834649605119 0.2370288913326002 0.3643906827951615 0.2328301509547136 0.08387483754873538 9.996001599360256e-05 9.996001599360256e-05 9.996001599360256e-05 9.996001599360256e-05 0.0002998800479808077 0.01069572171131547 0.07297081167532987 0.243202718912435 0.351859256297481 0.3205717712914834 9.995002498750625e-05 9.995002498750625e-05 9.995002498750625e-05 9.995002498750625e-05 9.995002498750625e-05 0.0008995502248875562 0.01059470264867566 0.07246376811594203 0.2401799100449775 0.6753623188405797 9.994003597841295e-05 9.994003597841295e-05 9.994003597841295e-05 9.994003597841295e-05 9.994003597841295e-05 9.994003597841295e-05 0.0001998800719568259 0.00979412352588447 0.07305616630021987 0.9163501898860683 9.9930048965724e-05 9.9930048965724e-05 9.9930048965724e-05 9.9930048965724e-05 9.9930048965724e-05 9.9930048965724e-05 9.9930048965724e-05 0.000399720195862896 0.009693214749675227 0.9892075547117019 9.992006394884092e-05 9.992006394884092e-05 9.992006394884092e-05 9.992006394884092e-05 9.992006394884092e-05 9.992006394884092e-05 9.992006394884092e-05 9.992006394884092e-05 0.0005995203836930455 0.9986011191047163 9.991008092716555e-05 9.991008092716555e-05 9.991008092716555e-05 9.991008092716555e-05 9.991008092716555e-05 9.991008092716555e-05 9.991008092716555e-05 9.991008092716555e-05 9.991008092716555e-05 0.9991008092716556 9.991008092716555e-05 9.991008092716555e-05 9.991008092716555e-05 9.991008092716555e-05 9.991008092716555e-05 9.991008092716555e-05 9.991008092716555e-05 9.991008092716555e-05 9.991008092716555e-05 0.9991008092716556 9.991008092716555e-05 9.991008092716555e-05 9.991008092716555e-05 9.991008092716555e-05 9.991008092716555e-05 9.991008092716555e-05 9.991008092716555e-05 9.991008092716555e-05 9.991008092716555e-05 0.9991008092716556 9.997000899730081e-05 9.997000899730081e-05 9.997000899730081e-05 0.000499850044986504 0.01019694091772468 0.07067879636109167 0.243926821953414 0.3518944316704988 0.2382285314405678 0.08427471758472459 9.996001599360256e-05 9.996001599360256e-05 9.996001599360256e-05 9.996001599360256e-05 0.0005997600959616154 0.009096361455417833 0.07177129148340664 0.2398040783686525 0.3600559776089564 0.3182726909236305 9.995002498750625e-05 9.995002498750625e-05 9.995002498750625e-05 9.995002498750625e-05 9.995002498750625e-05 0.0002998500749625187 0.009495252373813094 0.06746626686656672 0.2376811594202899 0.6845577211394303 9.994003597841295e-05 9.994003597841295e-05 9.994003597841295e-05 9.994003597841295e-05 9.994003597841295e-05 9.994003597841295e-05 0.0003997601439136518 0.009594243453927643 0.06715970417749351 0.9222466520087947 9.9930048965724e-05 9.9930048965724e-05 9.9930048965724e-05 9.9930048965724e-05 9.9930048965724e-05 9.9930048965724e-05 9.9930048965724e-05 0.001099230538622964 0.009393424602778056 0.9888078345158389 9.992006394884092e-05 9.992006394884092e-05 9.992006394884092e-05 9.992006394884092e-05 9.992006394884092e-05 9.992006394884092e-05 9.992006394884092e-05 9.992006394884092e-05 0.0006994404476418865 0.9985011990407674 9.991008092716555e-05 9.991008092716555e-05 9.991008092716555e-05 9.991008092716555e-05 9.991008092716555e-05 9.991008092716555e-05 9.991008092716555e-05 9.991008092716555e-05 9.991008092716555e-05 0.9991008092716556 9.991008092716555e-05 9.991008092716555e-05 9.991008092716555e-05 9.991008092716555e-05 9.991008092716555e-05 9.991008092716555e-05 9.991008092716555e-05 9.991008092716555e-05 9.991008092716555e-05 0.9991008092716556 9.991008092716555e-05 9.991008092716555e-05 9.991008092716555e-05 9.991008092716555e-05 9.991008092716555e-05 9.991008092716555e-05 9.991008092716555e-05 9.991008092716555e-05 9.991008092716555e-05 0.9991008092716556 9.991008092716555e-05 9.991008092716555e-05 9.991008092716555e-05 9.991008092716555e-05 9.991008092716555e-05 9.991008092716555e-05 9.991008092716555e-05 9.991008092716555e-05 9.991008092716555e-05 0.9991008092716556 9.996001599360256e-05 9.996001599360256e-05 9.996001599360256e-05 9.996001599360256e-05 0.0005997600959616154 0.008096761295481807 0.07077169132347061 0.2353058776489404 0.3657536985205918 0.3190723710515794 9.995002498750625e-05 9.995002498750625e-05 9.995002498750625e-05 9.995002498750625e-05 9.995002498750625e-05 0.0002998500749625187 0.00849575212393803 0.07176411794102948 0.2359820089955023 0.6829585207396301 9.994003597841295e-05 9.994003597841295e-05 9.994003597841295e-05 9.994003597841295e-05 9.994003597841295e-05 9.994003597841295e-05 0.0006995802518488907 0.008794723166100339 0.0701579052568459 0.9197481511093344 9.9930048965724e-05 9.9930048965724e-05 9.9930048965724e-05 9.9930048965724e-05 9.9930048965724e-05 9.9930048965724e-05 9.9930048965724e-05 0.000199860097931448 0.009993004896572399 0.9891076246627361 9.992006394884092e-05 9.992006394884092e-05 9.992006394884092e-05 9.992006394884092e-05 9.992006394884092e-05 9.992006394884092e-05 9.992006394884092e-05 9.992006394884092e-05 0.0004996003197442046 0.998701039168665 9.991008092716555e-05 9.991008092716555e-05 9.991008092716555e-05 9.991008092716555e-05 9.991008092716555e-05 9.991008092716555e-05 9.991008092716555e-05 9.991008092716555e-05 9.991008092716555e-05 0.9991008092716556 9.991008092716555e-05 9.991008092716555e-05 9.991008092716555e-05 9.991008092716555e-05 9.991008092716555e-05 9.991008092716555e-05 9.991008092716555e-05 9.991008092716555e-05 9.991008092716555e-05 0.9991008092716556 9.991008092716555e-05 9.991008092716555e-05 9.991008092716555e-05 9.991008092716555e-05 9.991008092716555e-05 9.991008092716555e-05 9.991008092716555e-05 9.991008092716555e-05 9.991008092716555e-05 0.9991008092716556 9.991008092716555e-05 9.991008092716555e-05 9.991008092716555e-05 9.991008092716555e-05 9.991008092716555e-05 9.991008092716555e-05 9.991008092716555e-05 9.991008092716555e-05 9.991008092716555e-05 0.9991008092716556 9.991008092716555e-05 9.991008092716555e-05 9.991008092716555e-05 9.991008092716555e-05 9.991008092716555e-05 9.991008092716555e-05 9.991008092716555e-05 9.991008092716555e-05 9.991008092716555e-05 0.9991008092716556 9.995002498750625e-05 9.995002498750625e-05 9.995002498750625e-05 9.995002498750625e-05 9.995002498750625e-05 0.0006996501749125438 0.008695652173913044 0.07476261869065468 0.2386806596701649 0.6766616691654173 9.994003597841295e-05 9.994003597841295e-05 9.994003597841295e-05 9.994003597841295e-05 9.994003597841295e-05 9.994003597841295e-05 0.0004997001798920647 0.01139316410153908 0.07315610633619828 0.9143513891665001 9.9930048965724e-05 9.9930048965724e-05 9.9930048965724e-05 9.9930048965724e-05 9.9930048965724e-05 9.9930048965724e-05 9.9930048965724e-05 0.0006995103427600679 0.01159188568002398 0.9870090936344559 9.992006394884092e-05 9.992006394884092e-05 9.992006394884092e-05 9.992006394884092e-05 9.992006394884092e-05 9.992006394884092e-05 9.992006394884092e-05 9.992006394884092e-05 0.0004996003197442046 0.998701039168665 9.991008092716555e-05 9.991008092716555e-05 9.991008092716555e-05 9.991008092716555e-05 9.991008092716555e-05 9.991008092716555e-05 9.991008092716555e-05 9.991008092716555e-05 9.991008092716555e-05 0.9991008092716556 9.991008092716555e-05 9.991008092716555e-05 9.991008092716555e-05 9.991008092716555e-05 9.991008092716555e-05 9.991008092716555e-05 9.991008092716555e-05 9.991008092716555e-05 9.991008092716555e-05 0.9991008092716556 9.991008092716555e-05 9.991008092716555e-05 9.991008092716555e-05 9.991008092716555e-05 9.991008092716555e-05 9.991008092716555e-05 9.991008092716555e-05 9.991008092716555e-05 9.991008092716555e-05 0.9991008092716556 9.991008092716555e-05 9.991008092716555e-05 9.991008092716555e-05 9.991008092716555e-05 9.991008092716555e-05 9.991008092716555e-05 9.991008092716555e-05 9.991008092716555e-05 9.991008092716555e-05 0.9991008092716556 9.991008092716555e-05 9.991008092716555e-05 9.991008092716555e-05 9.991008092716555e-05 9.991008092716555e-05 9.991008092716555e-05 9.991008092716555e-05 9.991008092716555e-05 9.991008092716555e-05 0.9991008092716556 9.991008092716555e-05 9.991008092716555e-05 9.991008092716555e-05 9.991008092716555e-05 9.991008092716555e-05 9.991008092716555e-05 9.991008092716555e-05 9.991008092716555e-05 9.991008092716555e-05 0.9991008092716556</probabilities>
		</cpt>
		<cpt id="frequency_of_loss_of_control_due_to_motor_wear">
			<state id="State0" />
			<state id="State1" />
			<state id="State2" />
			<state id="State3" />
			<state id="State4" />
			<state id="State5" />
			<state id="State6" />
			<state id="State7" />
			<state id="State8" />
			<state id="State9" />
			<intervals>0 0.005908012045062 0.01527158011626 0.03011183540944 0.053632054998 0.09090909090909 0.1499892113597 0.2436248920717 0.3920274450035 0.6272296408891 1</intervals>
			<parents>motor_wear</parents>
			<probabilities>1 0 0 0 0 0 0 0 0 0 1 0 0 0 0 0 0 0 0 0 1 0 0 0 0 0 0 0 0 0 0.5849 0.4151 0 0 0 0 0 0 0 0 0 0.328 0.6336000000000001 0.0384 0 0 0 0 0 0 0 0 0 0.5731000000000001 0.4269 0 0 0 0 0 0 0 0 0 0.1919 0.6549 0.1532 0 0 0 0 0 0 0 0 0 0.548 0.452 0 0 0 0 0 0 0 0 0 0.2877 0.7123 0 0 0 0 0 0 0 0 0 0.1089 0.8911</probabilities>
		</cpt>
		<cpt id="max_upwards_acceleration">
			<state id="State0" />
			<state id="State1" />
			<state id="State2" />
			<state id="State3" />
			<state id="State4" />
			<intervals>0.05 0.08 0.11 0.14 0.17 0.2</intervals>
			<probabilities>0.1880674448767834 0.1848249027237354 0.2172503242542153 0.2114137483787289 0.198443579766537</probabilities>
		</cpt>
		<cpt id="safety_margin">
			<state id="State0" />
			<state id="State1" />
			<state id="State2" />
			<state id="State3" />
			<state id="State4" />
			<state id="State5" />
			<state id="State6" />
			<state id="State7" />
			<state id="State8" />
			<state id="State9" />
			<intervals>0.1 0.21 0.32 0.43 0.54 0.65 0.76 0.87 0.98 1.09 1.2</intervals>
			<probabilities>0.10013117621338 0.1027547004809795 0.09925666812418014 0.1014429383471797 0.09969392216878006 0.10024048972453 0.09881941407958024 0.09805421950153038 0.09892872759073021 0.1006777437691299</probabilities>
		</cpt>
		<cpt id="mean_motor_use">
			<state id="State0" />
			<state id="State1" />
			<state id="State2" />
			<state id="State3" />
			<state id="State4" />
			<state id="State5" />
			<state id="State6" />
			<state id="State7" />
			<state id="State8" />
			<state id="State9" />
			<intervals>0 0.1 0.2 0.3 0.4 0.5 0.6 0.7 0.8 0.9 1</intervals>
			<parents>mean_motoruse_sum1 mean_motoruse_sum2 max_upwards_acceleration</parents>
			<probabilities>0.858 0.142 0 0 0 0 0 0 0 0 0.6581 0.3419 0 0 0 0 0 0 0 0 0.3815 0.6054 0.0131 0 0 0 0 0 0 0 0.1701 0.7277 0.1022 0 0 0 0 0 0 0 0.0359 0.6904 0.2737 0 0 0 0 0 0 0 0.1086 0.7435 0.1479 0 0 0 0 0 0 0 0.0159 0.6284 0.3557 0 0 0 0 0 0 0 0 0.3796 0.609 0.0114 0 0 0 0 0 0 0 0.1662 0.7428 0.091 0 0 0 0 0 0 0 0.0392 0.6857 0.2751 0 0 0 0 0 0 0 0.117 0.7413999999999999 0.1416 0 0 0 0 0 0 0 0.0175 0.6408 0.3417 0 0 0 0 0 0 0 0 0.3761 0.6106 0.0133 0 0 0 0 0 0 0 0.1635 0.7448 0.0917 0 0 0 0 0 0 0 0.0386 0.6820000000000001 0.2794 0 0 0 0 0 0 0 0.1156 0.7401 0.1443 0 0 0 0 0 0 0 0.0192 0.6301 0.3507 0 0 0 0 0 0 0 0 0.3847 0.6027 0.0126 0 0 0 0 0 0 0 0.1698 0.7344000000000001 0.0958 0 0 0 0 0 0 0 0.0387 0.6888 0.2725 0 0 0 0 0 0 0 0.1187 0.7433999999999999 0.1379 0 0 0 0 0 0 0 0.0185 0.6389 0.3426 0 0 0 0 0 0 0 0 0.3741 0.6118 0.0141 0 0 0 0 0 0 0 0.1662 0.7321 0.1017 0 0 0 0 0 0 0 0.0409 0.6919999999999999 0.2671 0 0 0 0 0 0 0 0.1132 0.7481 0.1387 0 0 0 0 0 0 0 0.0175 0.6372 0.3453 0 0 0 0 0 0 0 0 0.3849 0.6017 0.0134 0 0 0 0 0 0 0 0.1674 0.7354000000000001 0.09719999999999999 0 0 0 0 0 0 0 0.0394 0.6949 0.2657 0 0 0 0 0 0 0 0.1133 0.7489 0.1378 0 0 0 0 0 0 0 0.0197 0.6283 0.352 0 0 0 0 0 0 0 0 0.3835 0.6045 0.012 0 0 0 0 0 0 0 0.1676 0.7395 0.0929 0 0 0 0 0 0 0 0.04 0.6897 0.2703 0 0 0 0 0 0 0 0.1153 0.7411 0.1436 0 0 0 0 0 0 0 0.0168 0.6378 0.3454 0 0 0 0 0 0 0 0 0.3876 0.6001 0.0123 0 0 0 0 0 0 0 0.1629 0.7403 0.0968 0 0 0 0 0 0 0 0.038 0.6961000000000001 0.2659 0 0 0 0 0 0 0 0.1161 0.741 0.1429 0 0 0 0 0 0 0 0.0175 0.6318 0.3507 0 0 0 0 0 0 0 0 0.3827 0.6173 0 0 0 0 0 0 0 0 0.1658 0.8342000000000001 0 0 0 0 0 0 0 0 0.0405 0.9595 0 0 0 0 0 0 0 0 0.1087 0.8913 0 0 0 0 0 0 0 0 0.017 0.983 0 0 0 0 0 0 0 0 0 1 0 0 0 0 0 0 0 0 0 1 0 0 0 0 0 0 0 0 0 1 0.1159 0.7395 0.1446 0 0 0 0 0 0 0 0.0192 0.634 0.3468 0 0 0 0 0 0 0 0 0.3823 0.6056 0.0121 0 0 0 0 0 0 0 0.1668 0.7401 0.0931 0 0 0 0 0 0 0 0.0425 0.6830000000000001 0.2745 0 0 0 0 0 0 0 0.1109 0.7403999999999999 0.1487 0 0 0 0 0 0 0 0.0183 0.6344 0.3473 0 0 0 0 0 0 0 0.0001 0.3813 0.606 0.0126 0 0 0 0 0 0 0 0.1736 0.7266 0.0998 0 0 0 0 0 0 0 0.0401 0.6859 0.274 0 0 0 0 0 0 0 0.1124 0.7409 0.1467 0 0 0 0 0 0 0 0.0188 0.6344 0.3468 0 0 0 0 0 0 0 0 0.3702 0.6181 0.0117 0 0 0 0 0 0 0 0.1671 0.7341 0.0988 0 0 0 0 0 0 0 0.0416 0.6858 0.2726 0 0 0 0 0 0 0 0.1138 0.7435 0.1427 0 0 0 0 0 0 0 0.0191 0.6259 0.355 0 0 0 0 0 0 0 0 0.3758 0.6112 0.013 0 0 0 0 0 0 0 0.1644 0.7366 0.099 0 0 0 0 0 0 0 0.0386 0.6967 0.2647 0 0 0 0 0 0 0 0.1105 0.7412 0.1483 0 0 0 0 0 0 0 0.0195 0.6328 0.3477 0 0 0 0 0 0 0 0 0.3825 0.6051 0.0124 0 0 0 0 0 0 0 0.1637 0.7386 0.0977 0 0 0 0 0 0 0 0.0409 0.6989 0.2602 0 0 0 0 0 0 0 0.1126 0.7456 0.1418 0 0 0 0 0 0 0 0.0237 0.6341 0.3422 0 0 0 0 0 0 0 0 0.3819 0.6066 0.0115 0 0 0 0 0 0 0 0.1728 0.7289 0.0983 0 0 0 0 0 0 0 0.0408 0.6886 0.2706 0 0 0 0 0 0 0 0.1119 0.7473 0.1408 0 0 0 0 0 0 0 0.0169 0.6343 0.3488 0 0 0 0 0 0 0 0.0001 0.385 0.6015 0.0134 0 0 0 0 0 0 0 0.162 0.7454 0.0926 0 0 0 0 0 0 0 0.0399 0.6913 0.2688 0 0 0 0 0 0 0 0.1105 0.744 0.1455 0 0 0 0 0 0 0 0.0178 0.6314 0.3508 0 0 0 0 0 0 0 0 0.3886 0.6114000000000001 0 0 0 0 0 0 0 0 0.1634 0.8366 0 0 0 0 0 0 0 0 0.0412 0.9588 0 0 0 0 0 0 0 0 0.1093 0.8907 0 0 0 0 0 0 0 0 0.0178 0.9822 0 0 0 0 0 0 0 0 0 1 0 0 0 0 0 0 0 0 0 1 0 0 0 0 0 0 0 0 0 1 0 0 0 0 0 0 0 0 0 1 0 0 0 0 0 0 0 0 0 1 0 0 0 0 0 0 0 0 0 1 0 0 0 0 0 0 0 0 0 1 0 0 0 0 0 0 0 0 0 1 0 0.116 0.7432 0.1408 0 0 0 0 0 0 0 0.0173 0.6294 0.3533 0 0 0 0 0 0 0 0 0.3822 0.6071 0.0107 0 0 0 0 0 0 0 0.1722 0.7318 0.096 0 0 0 0 0 0 0 0.0378 0.6862 0.276 0 0 0 0 0 0 0 0.1189 0.7371 0.144 0 0 0 0 0 0 0 0.0183 0.6318 0.3499 0 0 0 0 0 0 0 0 0.3796 0.6084000000000001 0.012 0 0 0 0 0 0 0 0.1717 0.7343 0.094 0 0 0 0 0 0 0 0.0379 0.6955 0.2666 0 0 0 0 0 0 0 0.1154 0.7446 0.14 0 0 0 0 0 0 0 0.0201 0.6431 0.3368 0 0 0 0 0 0 0 0 0.3822 0.6086 0.0092 0 0 0 0 0 0 0 0.1671 0.7375 0.0954 0 0 0 0 0 0 0 0.0385 0.6901 0.2714 0 0 0 0 0 0 0 0.1131 0.7443 0.1426 0 0 0 0 0 0 0 0.0185 0.6346000000000001 0.3469 0 0 0 0 0 0 0 0 0.3831 0.6045 0.0124 0 0 0 0 0 0 0 0.1684 0.7365 0.0951 0 0 0 0 0 0 0 0.0414 0.6887 0.2699 0 0 0 0 0 0 0 0.1172 0.7418 0.141 0 0 0 0 0 0 0 0.0181 0.6351 0.3468 0 0 0 0 0 0 0 0 0.3804 0.6071 0.0125 0 0 0 0 0 0 0 0.1678 0.7389 0.09329999999999999 0 0 0 0 0 0 0 0.0411 0.6889999999999999 0.2699 0 0 0 0 0 0 0 0.1189 0.7391 0.142 0 0 0 0 0 0 0 0.0168 0.6351 0.3481 0 0 0 0 0 0 0 0 0.3821 0.6056 0.0123 0 0 0 0 0 0 0 0.1657 0.7408 0.0935 0 0 0 0 0 0 0 0.0417 0.6806 0.2777 0 0 0 0 0 0 0 0.1085 0.7409 0.1506 0 0 0 0 0 0 0 0.0159 0.6387 0.3454 0 0 0 0 0 0 0 0 0.3876 0.6124000000000001 0 0 0 0 0 0 0 0 0.1617 0.8383 0 0 0 0 0 0 0 0 0.0376 0.9624 0 0 0 0 0 0 0 0 0.1112 0.8888 0 0 0 0 0 0 0 0 0.0167 0.9833 0 0 0 0 0 0 0 0 0 1 0 0 0 0 0 0 0 0 0 1 0 0 0 0 0 0 0 0 0 1 0 0 0 0 0 0 0 0 0 1 0 0 0 0 0 0 0 0 0 1 0 0 0 0 0 0 0 0 0 1 0 0 0 0 0 0 0 0 0 1 0 0 0 0 0 0 0 0 0 1 0 0 0 0 0 0 0 0 0 1 0 0 0 0 0 0 0 0 0 1 0 0 0 0 0 0 0 0 0 1 0 0 0 0 0 0 0 0 0 1 0 0 0 0 0 0 0 0 0 1 0 0 0.1106 0.7412 0.1482 0 0 0 0 0 0 0 0.0167 0.6306 0.3527 0 0 0 0 0 0 0 0 0.3781 0.6088 0.0131 0 0 0 0 0 0 0 0.1633 0.7462 0.0905 0 0 0 0 0 0 0 0.0415 0.6868 0.2717 0 0 0 0 0 0 0 0.1167 0.739 0.1443 0 0 0 0 0 0 0 0.0163 0.6347 0.349 0 0 0 0 0 0 0 0 0.3789 0.6094000000000001 0.0117 0 0 0 0 0 0 0 0.168 0.7376 0.0944 0 0 0 0 0 0 0 0.04 0.6887 0.2713 0 0 0 0 0 0 0 0.1097 0.7427 0.1476 0 0 0 0 0 0 0 0.0158 0.6363 0.3479 0 0 0 0 0 0 0 0 0.3895 0.5965 0.014 0 0 0 0 0 0 0 0.1708 0.7368 0.0924 0 0 0 0 0 0 0 0.04 0.6852 0.2748 0 0 0 0 0 0 0 0.1064 0.7403999999999999 0.1532 0 0 0 0 0 0 0 0.0162 0.6323 0.3515 0 0 0 0 0 0 0 0 0.3824 0.6052 0.0124 0 0 0 0 0 0 0 0.1686 0.7364000000000001 0.095 0 0 0 0 0 0 0 0.0378 0.6901 0.2721 0 0 0 0 0 0 0 0.1132 0.7443 0.1425 0 0 0 0 0 0 0 0.0191 0.6344 0.3465 0 0 0 0 0 0 0 0 0.3844 0.6018 0.0138 0 0 0 0 0 0 0 0.1654 0.7347 0.0999 0 0 0 0 0 0 0 0.0377 0.6849 0.2774 0 0 0 0 0 0 0 0.1113 0.75 0.1387 0 0 0 0 0 0 0 0.0199 0.639 0.3411 0 0 0 0 0 0 0 0 0.3765 0.6235000000000001 0 0 0 0 0 0 0 0 0.1655 0.8345 0 0 0 0 0 0 0 0 0.0377 0.9623 0 0 0 0 0 0 0 0 0.1122 0.8878 0 0 0 0 0 0 0 0 0.0161 0.9839 0 0 0 0 0 0 0 0 0 1 0 0 0 0 0 0 0 0 0 1 0 0 0 0 0 0 0 0 0 1 0 0 0 0 0 0 0 0 0 1 0 0 0 0 0 0 0 0 0 1 0 0 0 0 0 0 0 0 0 1 0 0 0 0 0 0 0 0 0 1 0 0 0 0 0 0 0 0 0 1 0 0 0 0 0 0 0 0 0 1 0 0 0 0 0 0 0 0 0 1 0 0 0 0 0 0 0 0 0 1 0 0 0 0 0 0 0 0 0 1 0 0 0 0 0 0 0 0 0 1 0 0 0 0 0 0 0 0 0 1 0 0 0 0 0 0 0 0 0 1 0 0 0 0 0 0 0 0 0 1 0 0 0 0 0 0 0 0 0 1 0 0 0 0 0 0 0 0 0 1 0 0 0 0.1118 0.7427 0.1455 0 0 0 0 0 0 0 0.0198 0.6356000000000001 0.3446 0 0 0 0 0 0 0 0 0.3836 0.604 0.0124 0 0 0 0 0 0 0 0.1584 0.7429 0.0987 0 0 0 0 0 0 0 0.0398 0.6943 0.2659 0 0 0 0 0 0 0 0.1169 0.7408 0.1423 0 0 0 0 0 0 0 0.0176 0.6288 0.3536 0 0 0 0 0 0 0 0 0.3832 0.606 0.0108 0 0 0 0 0 0 0 0.1715 0.7299 0.09859999999999999 0 0 0 0 0 0 0 0.0396 0.6834 0.277 0 0 0 0 0 0 0 0.1167 0.7346 0.1487 0 0 0 0 0 0 0 0.0166 0.6347 0.3487 0 0 0 0 0 0 0 0 0.3828 0.6044 0.0128 0 0 0 0 0 0 0 0.1672 0.7381 0.09470000000000001 0 0 0 0 0 0 0 0.0393 0.6942 0.2665 0 0 0 0 0 0 0 0.1098 0.7472 0.143 0 0 0 0 0 0 0 0.02 0.6346000000000001 0.3454 0 0 0 0 0 0 0 0 0.3793 0.6073 0.0134 0 0 0 0 0 0 0 0.1583 0.7456 0.0961 0 0 0 0 0 0 0 0.0391 0.6887 0.2722 0 0 0 0 0 0 0 0.1164 0.7374000000000001 0.1462 0 0 0 0 0 0 0 0.0187 0.622 0.3593 0 0 0 0 0 0 0 0 0.3908 0.6092 0 0 0 0 0 0 0 0 0.1724 0.8276 0 0 0 0 0 0 0 0 0.0409 0.9591 0 0 0 0 0 0 0 0 0.112 0.888 0 0 0 0 0 0 0 0 0.0213 0.9787 0 0 0 0 0 0 0 0 0 1 0 0 0 0 0 0 0 0 0 1 0 0 0 0 0 0 0 0 0 1 0 0 0 0 0 0 0 0 0 1 0 0 0 0 0 0 0 0 0 1 0 0 0 0 0 0 0 0 0 1 0 0 0 0 0 0 0 0 0 1 0 0 0 0 0 0 0 0 0 1 0 0 0 0 0 0 0 0 0 1 0 0 0 0 0 0 0 0 0 1 0 0 0 0 0 0 0 0 0 1 0 0 0 0 0 0 0 0 0 1 0 0 0 0 0 0 0 0 0 1 0 0 0 0 0 0 0 0 0 1 0 0 0 0 0 0 0 0 0 1 0 0 0 0 0 0 0 0 0 1 0 0 0 0 0 0 0 0 0 1 0 0 0 0 0 0 0 0 0 1 0 0 0 0 0 0 0 0 0 1 0 0 0 0 0 0 0 0 0 1 0 0 0 0 0 0 0 0 0 1 0 0 0 0 0 0 0 0 0 1 0 0 0 0 0 0 0 0 0 1 0 0 0 0 0.114 0.7383999999999999 0.1476 0 0 0 0 0 0 0 0.0177 0.6362 0.3461 0 0 0 0 0 0 0 0.0001 0.3852 0.6007 0.014 0 0 0 0 0 0 0 0.1632 0.7438 0.093 0 0 0 0 0 0 0 0.0423 0.6955 0.2622 0 0 0 0 0 0 0 0.1204 0.7376 0.142 0 0 0 0 0 0 0 0.0179 0.6371 0.345 0 0 0 0 0 0 0 0 0.388 0.5977 0.0143 0 0 0 0 0 0 0 0.1697 0.7356 0.09470000000000001 0 0 0 0 0 0 0 0.0388 0.696 0.2652 0 0 0 0 0 0 0 0.111 0.7487 0.1403 0 0 0 0 0 0 0 0.0198 0.6299 0.3503 0 0 0 0 0 0 0 0 0.3823 0.6047 0.013 0 0 0 0 0 0 0 0.1699 0.7351 0.095 0 0 0 0 0 0 0 0.038 0.6871 0.2749 0 0 0 0 0 0 0 0.1091 0.747 0.1439 0 0 0 0 0 0 0 0.019 0.6423 0.3387 0 0 0 0 0 0 0 0 0.3846 0.6153999999999999 0 0 0 0 0 0 0 0 0.1631 0.8369 0 0 0 0 0 0 0 0 0.0401 0.9599 0 0 0 0 0 0 0 0 0.1181 0.8819 0 0 0 0 0 0 0 0 0.0173 0.9827 0 0 0 0 0 0 0 0 0 1 0 0 0 0 0 0 0 0 0 1 0 0 0 0 0 0 0 0 0 1 0 0 0 0 0 0 0 0 0 1 0 0 0 0 0 0 0 0 0 1 0 0 0 0 0 0 0 0 0 1 0 0 0 0 0 0 0 0 0 1 0 0 0 0 0 0 0 0 0 1 0 0 0 0 0 0 0 0 0 1 0 0 0 0 0 0 0 0 0 1 0 0 0 0 0 0 0 0 0 1 0 0 0 0 0 0 0 0 0 1 0 0 0 0 0 0 0 0 0 1 0 0 0 0 0 0 0 0 0 1 0 0 0 0 0 0 0 0 0 1 0 0 0 0 0 0 0 0 0 1 0 0 0 0 0 0 0 0 0 1 0 0 0 0 0 0 0 0 0 1 0 0 0 0 0 0 0 0 0 1 0 0 0 0 0 0 0 0 0 1 0 0 0 0 0 0 0 0 0 1 0 0 0 0 0 0 0 0 0 1 0 0 0 0 0 0 0 0 0 1 0 0 0 0 0 0 0 0 0 1 0 0 0 0 0 0 0 0 0 1 0 0 0 0 0 0 0 0 0 1 0 0 0 0 0 0 0 0 0 1 0 0 0 0 0 0 0 0 0 1 0 0 0 0 0 0.1148 0.743 0.1422 0 0 0 0 0 0 0 0.0197 0.6264999999999999 0.3538 0 0 0 0 0 0 0 0 0.369 0.6202 0.0108 0 0 0 0 0 0 0 0.162 0.7436 0.0944 0 0 0 0 0 0 0 0.0421 0.6869 0.271 0 0 0 0 0 0 0 0.111 0.7398 0.1492 0 0 0 0 0 0 0 0.0196 0.635 0.3454 0 0 0 0 0 0 0 0 0.3802 0.6071 0.0127 0 0 0 0 0 0 0 0.1684 0.7365 0.0951 0 0 0 0 0 0 0 0.0434 0.6793 0.2773 0 0 0 0 0 0 0 0.1131 0.7419 0.145 0 0 0 0 0 0 0 0.0176 0.6327 0.3497 0 0 0 0 0 0 0 0 0.3845 0.6155 0 0 0 0 0 0 0 0 0.1712 0.8288 0 0 0 0 0 0 0 0 0.0418 0.9582000000000001 0 0 0 0 0 0 0 0 0.1084 0.8915999999999999 0 0 0 0 0 0 0 0 0.0175 0.9825 0 0 0 0 0 0 0 0 0 1 0 0 0 0 0 0 0 0 0 1 0 0 0 0 0 0 0 0 0 1 0 0 0 0 0 0 0 0 0 1 0 0 0 0 0 0 0 0 0 1 0 0 0 0 0 0 0 0 0 1 0 0 0 0 0 0 0 0 0 1 0 0 0 0 0 0 0 0 0 1 0 0 0 0 0 0 0 0 0 1 0 0 0 0 0 0 0 0 0 1 0 0 0 0 0 0 0 0 0 1 0 0 0 0 0 0 0 0 0 1 0 0 0 0 0 0 0 0 0 1 0 0 0 0 0 0 0 0 0 1 0 0 0 0 0 0 0 0 0 1 0 0 0 0 0 0 0 0 0 1 0 0 0 0 0 0 0 0 0 1 0 0 0 0 0 0 0 0 0 1 0 0 0 0 0 0 0 0 0 1 0 0 0 0 0 0 0 0 0 1 0 0 0 0 0 0 0 0 0 1 0 0 0 0 0 0 0 0 0 1 0 0 0 0 0 0 0 0 0 1 0 0 0 0 0 0 0 0 0 1 0 0 0 0 0 0 0 0 0 1 0 0 0 0 0 0 0 0 0 1 0 0 0 0 0 0 0 0 0 1 0 0 0 0 0 0 0 0 0 1 0 0 0 0 0 0 0 0 0 1 0 0 0 0 0 0 0 0 0 1 0 0 0 0 0 0 0 0 0 1 0 0 0 0 0 0 0 0 0 1 0 0 0 0 0 0 0 0 0 1 0 0 0 0 0 0 0.1109 0.7472 0.1419 0 0 0 0 0 0 0 0.018 0.6321 0.3499 0 0 0 0 0 0 0 0 0.3898 0.5988 0.0114 0 0 0 0 0 0 0 0.16 0.7442 0.0958 0 0 0 0 0 0 0 0.0395 0.7010999999999999 0.2594 0 0 0 0 0 0 0 0.1123 0.7393999999999999 0.1483 0 0 0 0 0 0 0 0.0208 0.6359 0.3433 0 0 0 0 0 0 0 0 0.3824 0.6176 0 0 0 0 0 0 0 0 0.1649 0.8351 0 0 0 0 0 0 0 0 0.0402 0.9598 0 0 0 0 0 0 0 0 0.1122 0.8878 0 0 0 0 0 0 0 0 0.0181 0.9819 0 0 0 0 0 0 0 0 0 1 0 0 0 0 0 0 0 0 0 1 0 0 0 0 0 0 0 0 0 1 0 0 0 0 0 0 0 0 0 1 0 0 0 0 0 0 0 0 0 1 0 0 0 0 0 0 0 0 0 1 0 0 0 0 0 0 0 0 0 1 0 0 0 0 0 0 0 0 0 1 0 0 0 0 0 0 0 0 0 1 0 0 0 0 0 0 0 0 0 1 0 0 0 0 0 0 0 0 0 1 0 0 0 0 0 0 0 0 0 1 0 0 0 0 0 0 0 0 0 1 0 0 0 0 0 0 0 0 0 1 0 0 0 0 0 0 0 0 0 1 0 0 0 0 0 0 0 0 0 1 0 0 0 0 0 0 0 0 0 1 0 0 0 0 0 0 0 0 0 1 0 0 0 0 0 0 0 0 0 1 0 0 0 0 0 0 0 0 0 1 0 0 0 0 0 0 0 0 0 1 0 0 0 0 0 0 0 0 0 1 0 0 0 0 0 0 0 0 0 1 0 0 0 0 0 0 0 0 0 1 0 0 0 0 0 0 0 0 0 1 0 0 0 0 0 0 0 0 0 1 0 0 0 0 0 0 0 0 0 1 0 0 0 0 0 0 0 0 0 1 0 0 0 0 0 0 0 0 0 1 0 0 0 0 0 0 0 0 0 1 0 0 0 0 0 0 0 0 0 1 0 0 0 0 0 0 0 0 0 1 0 0 0 0 0 0 0 0 0 1 0 0 0 0 0 0 0 0 0 1 0 0 0 0 0 0 0 0 0 1 0 0 0 0 0 0 0 0 0 1 0 0 0 0 0 0 0 0 0 1 0 0 0 0 0 0 0 0 0 1 0 0 0 0 0 0 0 0.1106 0.7479 0.1415 0 0 0 0 0 0 0 0.0161 0.6388 0.3451 0 0 0 0 0 0 0 0 0.3849 0.6151 0 0 0 0 0 0 0 0 0.1655 0.8345 0 0 0 0 0 0 0 0 0.04 0.96 0 0 0 0 0 0 0 0 0.1126 0.8874 0 0 0 0 0 0 0 0 0.0184 0.9816 0 0 0 0 0 0 0 0 0 1 0 0 0 0 0 0 0 0 0 1 0 0 0 0 0 0 0 0 0 1 0 0 0 0 0 0 0 0 0 1 0 0 0 0 0 0 0 0 0 1 0 0 0 0 0 0 0 0 0 1 0 0 0 0 0 0 0 0 0 1 0 0 0 0 0 0 0 0 0 1 0 0 0 0 0 0 0 0 0 1 0 0 0 0 0 0 0 0 0 1 0 0 0 0 0 0 0 0 0 1 0 0 0 0 0 0 0 0 0 1 0 0 0 0 0 0 0 0 0 1 0 0 0 0 0 0 0 0 0 1 0 0 0 0 0 0 0 0 0 1 0 0 0 0 0 0 0 0 0 1 0 0 0 0 0 0 0 0 0 1 0 0 0 0 0 0 0 0 0 1 0 0 0 0 0 0 0 0 0 1 0 0 0 0 0 0 0 0 0 1 0 0 0 0 0 0 0 0 0 1 0 0 0 0 0 0 0 0 0 1 0 0 0 0 0 0 0 0 0 1 0 0 0 0 0 0 0 0 0 1 0 0 0 0 0 0 0 0 0 1 0 0 0 0 0 0 0 0 0 1 0 0 0 0 0 0 0 0 0 1 0 0 0 0 0 0 0 0 0 1 0 0 0 0 0 0 0 0 0 1 0 0 0 0 0 0 0 0 0 1 0 0 0 0 0 0 0 0 0 1 0 0 0 0 0 0 0 0 0 1 0 0 0 0 0 0 0 0 0 1 0 0 0 0 0 0 0 0 0 1 0 0 0 0 0 0 0 0 0 1 0 0 0 0 0 0 0 0 0 1 0 0 0 0 0 0 0 0 0 1 0 0 0 0 0 0 0 0 0 1 0 0 0 0 0 0 0 0 0 1 0 0 0 0 0 0 0 0 0 1 0 0 0 0 0 0 0 0 0 1 0 0 0 0 0 0 0 0 0 1 0 0 0 0 0 0 0 0 0 1 0 0 0 0 0 0 0 0 0.1216 0.8784 0 0 0 0 0 0 0 0 0.0192 0.9808 0 0 0 0 0 0 0 0 0 1 0 0 0 0 0 0 0 0 0 1 0 0 0 0 0 0 0 0 0 1 0 0 0 0 0 0 0 0 0 1 0 0 0 0 0 0 0 0 0 1 0 0 0 0 0 0 0 0 0 1 0 0 0 0 0 0 0 0 0 1 0 0 0 0 0 0 0 0 0 1 0 0 0 0 0 0 0 0 0 1 0 0 0 0 0 0 0 0 0 1 0 0 0 0 0 0 0 0 0 1 0 0 0 0 0 0 0 0 0 1 0 0 0 0 0 0 0 0 0 1 0 0 0 0 0 0 0 0 0 1 0 0 0 0 0 0 0 0 0 1 0 0 0 0 0 0 0 0 0 1 0 0 0 0 0 0 0 0 0 1 0 0 0 0 0 0 0 0 0 1 0 0 0 0 0 0 0 0 0 1 0 0 0 0 0 0 0 0 0 1 0 0 0 0 0 0 0 0 0 1 0 0 0 0 0 0 0 0 0 1 0 0 0 0 0 0 0 0 0 1 0 0 0 0 0 0 0 0 0 1 0 0 0 0 0 0 0 0 0 1 0 0 0 0 0 0 0 0 0 1 0 0 0 0 0 0 0 0 0 1 0 0 0 0 0 0 0 0 0 1 0 0 0 0 0 0 0 0 0 1 0 0 0 0 0 0 0 0 0 1 0 0 0 0 0 0 0 0 0 1 0 0 0 0 0 0 0 0 0 1 0 0 0 0 0 0 0 0 0 1 0 0 0 0 0 0 0 0 0 1 0 0 0 0 0 0 0 0 0 1 0 0 0 0 0 0 0 0 0 1 0 0 0 0 0 0 0 0 0 1 0 0 0 0 0 0 0 0 0 1 0 0 0 0 0 0 0 0 0 1 0 0 0 0 0 0 0 0 0 1 0 0 0 0 0 0 0 0 0 1 0 0 0 0 0 0 0 0 0 1 0 0 0 0 0 0 0 0 0 1 0 0 0 0 0 0 0 0 0 1 0 0 0 0 0 0 0 0 0 1 0 0 0 0 0 0 0 0 0 1 0 0 0 0 0 0 0 0 0 1 0 0 0 0 0 0 0 0 0 1</probabilities>
		</cpt>
		<cpt id="frequency_of_exceeding_safety_margin_due_to_turbulence">
			<state id="State0" />
			<state id="State1" />
			<state id="State2" />
			<state id="State3" />
			<state id="State4" />
			<state id="State5" />
			<state id="State6" />
			<state id="State7" />
			<state id="State8" />
			<state id="State9" />
			<intervals>0 0.005908012045062 0.01527158011626 0.03011183540944 0.053632054998 0.09090909090909 0.1499892113597 0.2436248920717 0.3920274450035 0.6272296408891 1</intervals>
			<parents>safety_margin turbulence</parents>
			<probabilities>0.646 0.2694 0.0818 0.0028 0 0 0 0 0 0 0.082 0.2832 0.259 0.2096 0.1142 0.0489 0.0031 0 0 0 0 0.001 0.0718 0.1508 0.1996 0.208 0.1794 0.1209 0.063 0.0055 0 0 0 0 0.0083 0.06950000000000001 0.1281 0.192 0.2042 0.3979 0 0 0 0 0 0 0 0.0048 0.0545 0.9407 0 0 0 0 0 0 0 0 0 1 0 0 0 0 0 0 0 0 0 1 0 0 0 0 0 0 0 0 0 1 0 0 0 0 0 0 0 0 0 1 0 0 0 0 0 0 0 0 0 1 1 0 0 0 0 0 0 0 0 0 0.9248 0.0752 0 0 0 0 0 0 0 0 0.3701 0.3578 0.1863 0.0774 0.008399999999999999 0 0 0 0 0 0.0028 0.1292 0.2143 0.2238 0.2065 0.1399 0.0709 0.0126 0 0 0 0 0.0009 0.0518 0.1155 0.184 0.2065 0.1947 0.1541 0.0925 0 0 0 0 0 0.0022 0.0442 0.1089 0.1826 0.6621 0 0 0 0 0 0 0 0 0.0001 0.9999 0 0 0 0 0 0 0 0 0 1 0 0 0 0 0 0 0 0 0 1 0 0 0 0 0 0 0 0 0 1 1 0 0 0 0 0 0 0 0 0 1 0 0 0 0 0 0 0 0 0 1 0 0 0 0 0 0 0 0 0 0.7492 0.2146 0.0362 0 0 0 0 0 0 0 0.14 0.3265 0.2543 0.1714 0.0887 0.0191 0 0 0 0 0 0.0171 0.109 0.1826 0.2138 0.2022 0.156 0.0907 0.0286 0 0 0 0 0 0.0365 0.1002 0.1654 0.1968 0.2034 0.2977 0 0 0 0 0 0 0 0.0267 0.0974 0.8759 0 0 0 0 0 0 0 0 0 1 0 0 0 0 0 0 0 0 0 1 1 0 0 0 0 0 0 0 0 0 1 0 0 0 0 0 0 0 0 0 1 0 0 0 0 0 0 0 0 0 1 0 0 0 0 0 0 0 0 0 0.9712 0.0288 0 0 0 0 0 0 0 0 0.4886 0.3279 0.1423 0.0412 0 0 0 0 0 0 0.0227 0.1845 0.2439 0.221 0.1817 0.1091 0.037 0.0001 0 0 0 0 0.0137 0.0921 0.1633 0.1926 0.2 0.1783 0.1128 0.0472 0 0 0 0 0 0.0155 0.0785 0.1388 0.1965 0.5707 0 0 0 0 0 0 0 0 0.0108 0.9892 1 0 0 0 0 0 0 0 0 0 1 0 0 0 0 0 0 0 0 0 1 0 0 0 0 0 0 0 0 0 1 0 0 0 0 0 0 0 0 0 1 0 0 0 0 0 0 0 0 0 1 0 0 0 0 0 0 0 0 0 0.8270999999999999 0.161 0.0119 0 0 0 0 0 0 0 0.2237 0.3411 0.2354 0.1421 0.0556 0.0021 0 0 0 0 0 0.0476 0.1582 0.2063 0.2122 0.1869 0.1206 0.0613 0.0069 0 0 0 0 0.0072 0.0667 0.1332 0.1872 0.2043 0.1864 0.215 1 0 0 0 0 0 0 0 0 0 1 0 0 0 0 0 0 0 0 0 1 0 0 0 0 0 0 0 0 0 1 0 0 0 0 0 0 0 0 0 1 0 0 0 0 0 0 0 0 0 1 0 0 0 0 0 0 0 0 0 1 0 0 0 0 0 0 0 0 0 0.9906 0.0094 0 0 0 0 0 0 0 0 0.5818 0.3011 0.1048 0.0123 0 0 0 0 0 0 0.0574 0.2493 0.2555 0.2117 0.1454 0.0702 0.0105 0 0 0 1 0 0 0 0 0 0 0 0 0 1 0 0 0 0 0 0 0 0 0 1 0 0 0 0 0 0 0 0 0 1 0 0 0 0 0 0 0 0 0 1 0 0 0 0 0 0 0 0 0 1 0 0 0 0 0 0 0 0 0 1 0 0 0 0 0 0 0 0 0 1 0 0 0 0 0 0 0 0 0 1 0 0 0 0 0 0 0 0 0 0.8921 0.1077 0.0002 0 0 0 0 0 0 0 1 0 0 0 0 0 0 0 0 0 1 0 0 0 0 0 0 0 0 0 1 0 0 0 0 0 0 0 0 0 1 0 0 0 0 0 0 0 0 0 1 0 0 0 0 0 0 0 0 0 1 0 0 0 0 0 0 0 0 0 1 0 0 0 0 0 0 0 0 0 1 0 0 0 0 0 0 0 0 0 1 0 0 0 0 0 0 0 0 0 1 0 0 0 0 0 0 0 0 0 1 0 0 0 0 0 0 0 0 0 1 0 0 0 0 0 0 0 0 0 1 0 0 0 0 0 0 0 0 0 1 0 0 0 0 0 0 0 0 0 1 0 0 0 0 0 0 0 0 0 1 0 0 0 0 0 0 0 0 0 1 0 0 0 0 0 0 0 0 0 1 0 0 0 0 0 0 0 0 0 1 0 0 0 0 0 0 0 0 0 1 0 0 0 0 0 0 0 0 0 1 0 0 0 0 0 0 0 0 0 1 0 0 0 0 0 0 0 0 0 1 0 0 0 0 0 0 0 0 0 1 0 0 0 0 0 0 0 0 0 1 0 0 0 0 0 0 0 0 0 1 0 0 0 0 0 0 0 0 0 1 0 0 0 0 0 0 0 0 0 1 0 0 0 0 0 0 0 0 0 1 0 0 0 0 0 0 0 0 0 1 0 0 0 0 0 0 0 0 0</probabilities>
		</cpt>
		<cpt id="enviornment_observability_t_1">
			<state id="State0" />
			<state id="State1" />
			<state id="State2" />
			<state id="State3" />
			<state id="State4" />
			<state id="State5" />
			<state id="State6" />
			<state id="State7" />
			<state id="State8" />
			<state id="State9" />
			<intervals>0 0.1 0.2 0.3 0.4 0.5 0.6 0.7 0.8 0.9 1</intervals>
			<probabilities>0.1902518943272578 0.188613557239402 0.1617857874257629 0.1443784558672947 0.1085398320704485 0.08416956788859307 0.05631783739504403 0.03604341593282818 0.01802170796641409 0.01187794388695474</probabilities>
		</cpt>
		<cpt id="enviornment_observability">
			<state id="State0" />
			<state id="State1" />
			<state id="State2" />
			<state id="State3" />
			<state id="State4" />
			<state id="State5" />
			<state id="State6" />
			<state id="State7" />
			<state id="State8" />
			<state id="State9" />
			<intervals>0 0.1 0.2 0.3 0.4 0.5 0.6 0.7 0.8 0.9 1</intervals>
			<parents>enviornment_observability_t_1</parents>
			<probabilities>0.5380277617119722 0.350347021399653 0.09745517640254482 0.01272411798727588 0.0007229612492770387 0.0001445922498554077 0.0001445922498554077 0.0001445922498554077 0.0001445922498554077 0.0001445922498554077 0.2591470015154795 0.392833946741719 0.2652089196795843 0.07241827235332322 0.009634119939380818 0.0003247456159341849 0.0001082485386447283 0.0001082485386447283 0.0001082485386447283 0.0001082485386447283 0.06824596774193549 0.2361895161290322 0.3777217741935484 0.2408266129032258 0.06743951612903226 0.009072580645161291 0.0002016129032258065 0.0001008064516129032 0.0001008064516129032 0.0001008064516129032 0.008001600320064013 0.0661132226445289 0.2473494698939788 0.3646729345869174 0.2393478695739148 0.06671334266853371 0.007201440288057612 0.0004000800160032006 0.0001000200040008002 0.0001000200040008002 0.0002999700029997 0.0084991500849915 0.06759324067593241 0.2403759624037596 0.3658634136586341 0.2405759424057594 0.07029297070292971 0.0058994100589941 0.0004999500049995 9.999000099990002e-05 9.999000099990002e-05 0.0003999600039996001 0.009299070092990702 0.0654934506549345 0.2388761123887611 0.3736626337366263 0.2367763223677632 0.06709329067093291 0.007899210078992101 0.0003999600039996001 0.0001000200040008002 0.0001000200040008002 0.0007001400280056011 0.00620124024804961 0.0638127625525105 0.2368473694738948 0.3687737547509502 0.2484496899379876 0.06811362272454491 0.006901380276055211 0.0001007049345417925 0.0001007049345417925 0.0001007049345417925 0.0003021148036253776 0.008962739174219537 0.06706948640483383 0.2442094662638469 0.3746223564954683 0.2403826787512588 0.06414904330312185 0.0001084245906971701 0.0001084245906971701 0.0001084245906971701 0.0001084245906971701 0.0004336983627886805 0.00845711807437927 0.07264447576710398 0.2576168274964762 0.4068090642957823 0.2536051176406809 0.000146177459435755 0.000146177459435755 0.000146177459435755 0.000146177459435755 0.000146177459435755 0.000730887297178775 0.01052477707937436 0.09560005847098377 0.3538956292939628 0.5385177605613214</probabilities>
		</cpt>
		<cpt id="frequency_of_contact_with_unobservable_obstacle">
			<state id="State0" />
			<state id="State1" />
			<state id="State2" />
			<state id="State3" />
			<state id="State4" />
			<state id="State5" />
			<state id="State6" />
			<state id="State7" />
			<state id="State8" />
			<state id="State9" />
			<intervals>0 0.005908012045062 0.01527158011626 0.03011183540944 0.053632054998 0.09090909090909 0.1499892113597 0.2436248920717 0.3920274450035 0.6272296408891 1</intervals>
			<parents>enviornment_observability</parents>
			<probabilities>1 0 0 0 0 0 0 0 0 0 1 0 0 0 0 0 0 0 0 0 0.7687 0.2313 0 0 0 0 0 0 0 0 0 0.5124 0.4876 0 0 0 0 0 0 0 0 0 0.1669 0.6464 0.1867 0 0 0 0 0 0 0 0 0 0.4913 0.5087 0 0 0 0 0 0 0 0 0 0.2215 0.7785 0 0 0 0 0 0 0 0 0 0.0256 0.8882 0.0862 0 0 0 0 0 0 0 0 0 0.9012 0.0988 0 0 0 0 0 0 0 0 0 1</probabilities>
		</cpt>
		<cpt id="roll_pitch_deviation">
			<state id="State0" />
			<state id="State1" />
			<state id="State2" />
			<state id="State3" />
			<state id="State4" />
			<state id="State5" />
			<state id="State6" />
			<state id="State7" />
			<state id="State8" />
			<state id="State9" />
			<intervals>0 0.1 0.2 0.3 0.4 0.5 0.6 0.7 0.8 0.9 1</intervals>
			<parents>turbulence</parents>
